said -0.297657 0.260618 -0.449531 0.677810 0.640602 1.336811 -1.663533 -1.884617 0.637661 -0.392227 0.752367 0.832254 -0.887979 1.645817 1.268425 -1.082435 1.529625 2.221993 1.274729 -0.625921 -1.284722 -0.169773 0.203084 -1.027708 2.028711 0.694253 -2.842165 1.035927 1.707743 -0.550868 1.029055 1.193734 0.259210 -0.401000 -0.110816 -1.539002 0.800761 1.022060 3.112363 -0.843784 0.510919 0.891675 -0.479600 0.540519 0.599442 1.049073 0.491277 -2.060092 -0.528287 0.701007 -0.577419 -0.756993 1.031689 2.103932 0.988425 -0.419189 -0.606565 -0.866316 -0.162518 0.801739 -2.892326 -2.591358 -2.416845 1.741290 -2.622800 -1.049672 1.056307 -0.548355 -0.051369 1.526843 -0.099172 -0.179431 0.739294 1.786198 1.333367 0.471375 1.148043 0.370854 -0.146758 -0.147334 0.300784 -0.012123 -1.850290 1.166476 -0.051084 0.695406 -0.669048 -1.043980 0.892478 0.539290 -0.132588 -0.574608 -0.517396 0.686649 -0.751872 -0.843865 -0.511510 0.929344 -2.730353 -1.030614
year -0.670951 1.758191 0.013346 1.486122 -0.660619 -0.596719 1.577590 1.220773 0.359125 1.226558 1.708149 -0.316936 -0.334319 0.816405 0.365388 -1.014500 -3.298265 0.391808 1.153421 -2.470822 -0.268988 1.008622 -1.594460 -0.522148 -1.374362 -0.525094 -1.745888 -1.540726 1.513102 3.243050 -0.003980 0.588188 0.058474 0.461299 -3.238794 1.791380 0.567026 -1.666487 1.514242 0.645603 -0.229195 -1.180673 -1.141628 -4.127805 0.568400 -1.391669 -1.706281 -2.729833 2.067284 -0.517374 -1.537748 0.767511 -1.570851 -2.375115 1.636111 4.189150 -2.163944 -0.994032 0.863971 -1.558313 -1.531036 -3.225718 3.091432 2.227026 -1.453314 4.593511 -1.913195 -0.861238 -0.997698 -0.488366 0.413340 -1.577418 -1.287060 2.275192 -0.724596 1.589390 -2.160960 -0.110132 0.424478 0.649502 2.737545 -1.765493 0.770407 1.236153 2.488930 -1.963730 -0.763780 1.052217 2.995870 0.670365 -0.258319 -0.845209 -2.555226 0.313684 0.858020 -1.205781 1.552616 -1.736382 -0.808538 0.410004
be 1.136691 -1.203952 -0.220100 -0.379050 -1.265235 0.701943 0.132182 1.505625 0.663727 -1.973107 1.649385 -0.787374 1.633126 -1.588869 1.374244 1.515110 -0.857229 -0.676370 -3.546044 4.452193 2.053594 0.001966 -0.823472 -3.071516 1.723672 2.216495 -2.992821 1.079168 -1.503960 5.233068 -1.896020 -2.434647 0.058886 -1.758778 -1.149121 -1.402343 1.058573 1.015173 -1.478123 -3.189456 -0.391696 -1.206073 -2.204761 -1.309228 -1.345739 0.131713 0.730481 0.843495 1.492341 1.935299 2.682764 -2.778615 1.111236 0.533423 -0.075971 0.758409 0.533538 -1.342514 -0.876971 0.683555 -1.076151 0.479238 -0.167642 2.895819 -2.345564 0.742905 1.580329 -0.709283 -1.806933 3.945084 1.980209 0.837458 -1.211284 -2.070973 0.332141 0.263115 -0.895963 0.116362 3.820055 1.858662 -0.145444 -1.378696 -1.037651 -1.134811 1.369552 -2.758515 0.345716 0.709558 1.183324 0.843075 0.095524 3.380263 0.137532 0.720139 -2.147651 0.048299 -1.537853 1.885460 -2.005290 -0.730873
billion 0.745344 2.998513 1.032507 -0.119424 0.239368 0.406230 0.176706 -0.263094 -0.738459 -0.702627 -0.545304 -3.707805 2.111172 2.688988 -1.564343 -0.796706 2.167655 -0.063266 0.302252 -0.031928 -0.231873 -1.439202 1.730597 0.022634 1.629534 -0.095305 1.029094 -1.291130 -1.197151 2.034216 0.869663 -3.296930 1.777752 0.392154 -6.127175 3.252620 0.022771 -0.830020 1.288010 -1.595043 -1.919447 -0.465648 -1.879545 -0.386512 1.007804 -0.220150 2.241745 -1.723849 -0.697249 -1.083341 0.685475 0.101891 -2.720489 1.121798 1.130265 3.356397 1.140428 -1.824801 3.047724 -0.509604 -2.284199 -1.881367 0.166511 -3.286455 2.051388 1.649406 0.622596 -1.555080 -0.890294 -0.586773 0.907924 1.187991 -3.999318 1.791706 -1.542046 1.588862 -1.079287 -3.488967 -0.773768 -1.163503 0.337437 -2.783129 -2.854246 -2.296361 0.295830 -0.802780 -0.150637 1.076074 0.560129 2.599573 -1.369174 -2.224491 -1.379024 1.260102 3.318209 1.515603 -2.851273 1.567799 -2.902809 -1.359391
loss -0.037010 -0.414095 2.597180 0.056526 0.852266 -0.663080 0.153515 0.275592 -0.937278 -1.187089 -2.427294 -1.417957 -0.993926 -0.421927 -1.988862 -3.366844 0.897718 0.007507 0.156911 -0.413082 -1.315058 -1.857832 -0.035988 -0.088846 -0.598245 1.654704 1.725704 -3.162990 0.829534 -0.920193 0.130233 1.965725 -0.695119 -0.328343 -0.266401 -0.221291 0.326388 1.173684 1.688657 -0.748270 -0.732313 -0.825672 -1.703376 -3.588798 -0.947186 -0.716451 0.020145 1.075110 0.839106 0.759005 -1.044897 0.022473 -1.415525 -0.244841 0.450623 0.292925 -0.551328 -0.416787 2.280030 1.186682 -0.170765 1.265944 2.019770 -1.646678 -0.613147 1.463210 0.531755 1.075763 3.015836 -0.221070 -1.182284 -2.318938 -0.162936 1.799744 -2.192345 -1.217510 -0.007746 -0.025403 -1.123537 -1.046890 -3.004788 -1.979321 0.671177 -1.986504 0.363252 0.815095 -1.635060 -0.640112 2.070316 1.976191 2.398032 -0.523105 -1.758371 2.273399 0.349717 0.957859 -0.349357 -0.635564 -1.097257 -0.306328
company -1.239858 -1.971622 1.048278 -0.405962 -2.567155 0.860158 1.226084 -3.110293 -0.845110 -1.771279 1.379843 -0.073115 1.114205 -1.606401 0.003081 -0.092295 -1.701772 0.090519 0.690783 -0.777930 -0.571116 -1.386582 0.829734 0.088475 -1.058852 -0.788610 -2.245991 0.722281 -1.061565 0.705428 -0.384938 -2.915165 -1.071831 -0.150867 -0.310132 0.622840 2.526080 0.320149 -0.558780 0.671105 0.181060 1.734452 -1.168996 -1.353016 -0.891735 1.616939 -2.092685 0.543960 0.425668 2.058696 1.485810 0.660760 0.559768 0.303815 -1.069942 1.799891 -1.056363 -1.212022 0.364922 2.257650 -1.935048 -1.827976 1.292069 1.338940 0.146516 -0.297771 -0.459085 -1.142387 -2.704861 -1.486847 -2.454276 -2.621455 1.271939 0.430552 -1.452363 0.270783 0.085374 -1.478737 -2.356451 -0.512938 0.078593 0.170266 3.676965 -2.055226 0.085123 -1.985002 0.503483 -1.411508 -1.502440 4.661850 0.385373 0.543547 0.411740 1.854840 -2.868956 -1.735653 -1.696612 1.840979 0.386955 2.510943
share -0.682266 1.526045 3.211266 1.200609 1.736413 -0.436956 4.647052 3.269221 -2.612071 -1.188087 1.816672 -2.073104 1.033954 0.933592 0.582950 -2.160863 -3.372235 -1.570707 -1.460711 1.186982 0.069985 -2.268059 1.107792 -0.028743 3.965376 -0.404338 -0.150467 -3.025476 2.201118 2.320581 -1.425364 -2.338667 -1.923471 0.117248 -2.824923 0.483687 5.583928 3.598934 3.225481 -1.707772 -0.647819 0.303365 -1.237285 -0.783537 2.013108 1.462230 -0.740961 -5.073441 0.814513 1.450976 1.674654 1.741862 -4.199072 -2.320715 0.318325 0.156827 0.769317 0.484730 3.683941 1.608461 -2.318182 0.951625 -1.748079 -1.084681 -0.046572 0.156149 -3.941623 -1.014741 -3.449249 -0.198119 -0.897243 -2.944359 0.179328 0.806601 2.033930 -0.803831 1.463253 0.564244 -0.760649 -0.315734 -0.237021 -0.170122 0.378920 -0.331678 -0.481564 -1.952904 3.776109 -0.944655 1.064898 0.765388 4.997284 2.050632 1.420219 4.330687 2.946785 0.023652 0.919508 -1.709826 -0.636883 -0.597572
profit -0.106979 -0.068409 0.478291 1.187323 -0.075788 -1.960448 -0.609610 1.491698 -2.198414 0.519350 -1.333326 -0.522962 -0.511679 0.404379 -2.408934 -2.932433 0.978474 -0.305318 1.607385 -0.234349 -0.470572 -0.550673 -0.241373 1.113246 -0.157079 2.092351 0.150264 -1.149616 0.403412 -0.576880 -0.066647 2.206098 0.871954 -0.947020 -0.284869 -0.247420 -1.133569 1.097390 1.523013 -1.492254 -1.193872 -1.891931 -3.615548 -4.626683 -0.164455 -0.424740 0.502573 -0.064113 -0.711356 -0.599030 -0.326871 -0.810808 -1.032586 -1.152650 1.829268 -1.260975 0.021358 -1.093047 2.709275 1.547774 0.391962 0.208639 2.042340 -1.257873 0.667685 1.177475 0.034413 1.628304 0.169065 -0.134063 -0.782782 0.539795 -0.543078 1.466946 -3.924601 0.124587 -0.551820 -0.323317 -1.070603 1.307870 -1.972589 -0.326657 0.670640 -2.389017 0.055607 0.284456 -1.807629 0.151628 1.862963 2.595838 1.919745 0.881092 -2.169139 1.983679 -1.309031 0.365847 -0.215584 -0.571750 -1.932497 -1.960818
he 0.259675 -2.452869 0.296109 -0.136854 -0.125909 0.063724 2.384312 0.956087 -3.099540 0.443563 0.550675 -0.214245 -0.689811 -0.455602 0.054768 1.422186 -1.074547 -0.811885 -0.519650 -1.394245 1.421532 1.492968 -1.659371 -1.317377 -1.371637 1.211807 0.671130 1.908516 -1.764340 1.888015 -2.691207 -1.947841 0.003458 -1.527812 3.069292 -1.473729 -0.590306 1.122420 1.166277 -0.352284 -2.272407 -0.274674 1.435289 -1.339317 -0.060976 -2.010012 -2.836218 -1.529115 0.008217 0.675150 2.730563 3.813966 2.308303 0.490983 -2.263229 -0.585278 0.323917 -0.613051 -1.895585 1.025420 2.685952 -0.670128 2.290555 -1.794634 0.559893 -0.043706 1.386424 0.507135 -1.752497 0.015515 1.495163 -0.610742 1.135994 -0.340431 -0.923195 0.959422 -2.174922 -1.820202 -1.980918 0.484164 1.480281 0.005765 -0.652961 -0.834804 2.937987 -2.158300 0.629969 -1.401251 0.249833 2.479325 0.250107 1.179455 0.396392 1.100857 0.844004 2.415714 0.804929 0.461522 0.352703 -0.106881
have 0.364140 -0.897534 -0.121727 1.887103 -3.350057 -2.325347 1.823023 0.380119 0.409192 -0.440961 4.682227 0.599892 -1.981648 -1.130979 0.158730 0.029697 0.978574 -1.503014 0.447309 -1.083601 2.745078 0.299355 -0.694034 2.113207 2.151778 -1.200042 0.282136 0.875479 -0.065722 1.387680 -2.435132 -2.187569 1.988482 -2.210808 0.195550 -3.421055 2.167661 2.873299 -2.343000 -1.998296 -2.889899 -1.131857 1.068551 -1.492391 0.032904 2.163130 0.848442 2.608104 1.013737 -3.951460 1.947773 -5.066115 0.668826 1.309115 -0.731054 0.353316 -0.225492 1.281270 -0.209396 2.558152 -0.094529 0.941695 0.009237 2.737833 -1.120105 4.011466 2.632170 0.646151 0.109070 3.711728 -1.147120 -0.704568 1.592309 -1.512960 2.923499 -1.879336 -2.185938 1.232228 2.034512 -0.067673 1.403163 2.410946 0.578419 1.355745 -0.045994 -0.908697 0.876208 2.390255 -0.849282 -1.442362 2.606896 0.218787 -2.243886 -2.041571 0.241148 -1.018859 -2.279129 3.183732 -2.351535 -2.024470
stock -0.457973 -0.024187 0.157281 4.344056 2.486046 -0.726037 0.341425 -0.009068 0.062034 0.138756 2.066223 -3.060430 0.290627 2.842793 -0.155536 -0.181056 -2.231646 2.625390 2.126127 1.791686 1.879117 -1.750762 0.796824 -2.681755 2.701701 -1.274685 -1.004286 -0.595099 0.065688 3.078225 -0.202313 -0.618774 1.111760 -0.901024 1.355465 -0.310645 -0.152617 0.813840 0.254281 0.370198 2.051511 0.243926 -2.052368 4.072622 2.885933 -1.474689 -1.239900 -2.768071 -2.340337 -1.110959 -1.041771 -0.006479 -3.843396 -0.978062 0.991301 -2.155457 -2.080030 -0.368511 -0.123164 3.566662 2.166580 0.116551 -2.129256 2.377053 -2.388116 1.507262 -2.624100 -2.457298 -1.838467 2.136266 1.015928 -1.421087 -1.728370 -1.296378 -0.465556 2.055501 1.230255 -0.982325 -2.640400 0.246057 1.685827 3.220819 0.096303 0.089305 -0.693983 0.137241 -0.855044 -0.901749 1.785240 -0.114770 5.295551 -1.266357 0.488287 -1.744889 -2.634694 0.838014 -1.432311 -1.932459 2.553381 -1.859021
about 0.512326 -2.727598 1.309546 -0.384168 1.626090 0.873499 1.488711 -1.483621 0.273203 -1.293333 0.763696 -1.260357 1.289948 1.140615 -2.969614 -1.746136 -1.109221 0.120713 -1.361064 0.942748 -0.971043 -0.281255 -0.133418 0.730584 1.786933 -1.734430 -1.277900 -1.196159 2.316087 1.810115 0.033029 1.351293 -0.370421 -1.648348 0.664835 -2.972625 -1.876294 1.142140 -0.884645 0.700845 -1.343644 -1.498803 1.274308 -1.000477 2.495178 -1.159672 -1.595658 -2.561913 0.841697 0.596591 1.885187 1.621532 -0.390209 -0.602813 -0.682888 -0.312669 1.828567 -1.259367 0.823918 0.691587 -0.167830 -1.261727 -2.283455 -1.519459 -1.297061 -0.422300 0.553464 -3.169489 -0.979550 1.649809 -0.502832 -3.325612 0.283182 1.192346 2.452411 0.399744 -1.441297 -1.859742 0.863375 -0.418910 0.627204 -0.069795 1.531657 -1.892630 1.287083 2.525107 1.364247 0.490796 1.804194 0.858962 0.248671 0.148172 0.333810 2.037603 -0.210917 -3.357507 -0.552014 1.883367 -1.160688 0.925917
net -1.268893 1.531625 2.171590 1.563309 1.312824 0.780288 2.239755 1.539530 -1.171666 0.201933 -0.027769 -1.120831 2.294406 -0.158083 -2.517514 -3.982624 1.949104 0.914400 1.211794 -0.545039 2.321028 -0.454068 -1.178410 0.170220 0.816327 1.697535 -0.564276 -2.363377 0.093284 1.947672 -1.148593 -3.331659 -1.195019 -2.375804 -3.154585 -0.447302 -0.368096 -0.195326 0.501457 -2.749953 -1.873185 -3.596533 -0.297042 -0.911815 0.255750 1.324044 0.318929 0.955937 -0.154807 -0.781789 -2.039299 2.477558 -0.495954 -0.020479 2.509457 -1.151995 0.888420 -0.762806 3.211663 -4.343502 0.607471 -0.482385 -1.279508 -2.362490 -1.515641 -0.946813 2.668343 0.544630 1.009853 -0.290384 -1.455681 -3.008191 -3.288219 -0.064038 -1.878371 -2.095703 0.742390 0.158025 -4.447196 -0.284730 -1.244990 -0.464077 3.000937 -2.641012 -1.839922 0.154095 0.226350 -0.248187 0.306257 1.613432 0.241002 1.714759 -0.632925 -0.200371 -1.284640 -1.562681 -1.082878 -2.324096 -4.111178 0.977049
oil 0.748228 1.356795 0.121898 0.417768 2.975452 -3.958083 -0.146164 0.834494 0.268505 -0.009653 2.183693 -1.013054 -0.578792 -1.993582 0.675045 -4.308234 -1.005534 0.001859 -0.947478 -0.685614 -1.293266 0.367383 -0.080872 -1.092731 -0.307205 1.146456 2.619743 1.317948 -1.110734 -0.627770 -0.223485 -0.362276 0.384795 -0.206703 2.359004 0.778137 -2.114564 -0.512486 4.221349 -3.730707 -0.983372 -0.278221 -4.563030 1.450947 -4.363567 1.193047 -4.045796 -1.101598 -0.442448 -0.125407 1.071260 2.082436 -0.787086 1.427708 0.164856 0.381973 1.085495 1.259972 3.664527 -0.487164 1.251912 -0.527569 -3.662216 -2.910081 -1.774411 1.006789 0.632613 -3.229308 0.585823 1.071244 0.599374 2.287607 3.047381 1.279347 0.771541 -1.662255 -2.671164 -1.606271 -0.090098 0.530851 -3.228758 -0.812199 -1.067919 0.205482 0.140689 -1.126676 1.033702 1.901085 3.196560 1.330401 -1.915208 2.903567 -2.667506 -0.186081 0.149011 -1.355399 3.131613 3.240952 0.521734 -1.833854
market -0.222142 0.299757 1.782100 0.509147 -0.145237 0.424529 0.528817 -1.489148 0.694255 -1.366095 1.421376 1.712719 -3.470528 2.961560 1.719377 1.886533 1.153474 0.631547 -0.594134 -0.362255 -0.800796 -0.139665 -0.848704 -1.842558 -0.277651 -0.865095 -0.086036 -0.231945 -1.584587 0.181721 -1.776186 -1.793275 5.104930 -0.693389 1.699004 -1.303778 -1.295402 -0.762520 -0.808179 -0.138207 0.104260 1.947291 -0.390420 1.503353 0.411164 0.683823 -0.901897 -0.733934 -1.623403 -2.802956 -2.491370 0.789562 1.421697 -0.052185 -2.112085 1.575786 0.229805 -0.882419 -3.741773 0.362624 -1.079543 -1.309615 2.879735 -2.010046 -0.296841 0.766037 0.444720 -0.274622 -1.682663 2.713556 -1.879426 -1.507624 -1.529492 0.853857 -2.463846 -0.901235 -0.204433 -0.725424 0.120923 -0.064728 -1.033548 0.325477 -1.702041 -0.171954 3.486561 -1.262294 2.635730 2.312488 0.365617 0.209442 -0.086968 1.417676 -1.012647 0.348880 -3.949520 -1.417320 -2.010842 0.737513 3.748059 -1.865049
trade 1.241976 -0.116223 0.935255 0.617943 -1.137897 0.179959 0.561004 -0.777741 -1.234575 -2.155772 -2.199427 -1.755865 -1.890342 0.895018 1.665264 2.803912 0.011112 -0.926133 -0.553162 -1.026688 -1.623750 -0.048502 -0.752506 -1.434438 -1.270576 2.233413 3.484280 0.386500 0.514028 0.316689 -2.737729 -1.551825 1.288881 0.121434 -5.064547 -0.249835 1.767655 -1.060245 0.327516 -3.629598 -1.048192 -3.778726 -0.049911 0.704223 1.072940 -0.762521 -0.037897 -1.687348 -3.132344 -2.765749 3.263050 1.082350 -0.295450 1.555108 -1.488397 1.353870 -0.989341 -1.550508 -0.888621 -2.489182 -0.785021 1.688883 3.237185 -2.608077 1.543588 0.276579 1.451395 1.014432 3.201292 -0.000201 -0.647730 1.416342 -0.420592 2.678882 -1.908721 1.275088 0.874035 -0.557130 1.064831 -2.322700 2.320390 -1.569175 -6.425137 -1.439209 0.404051 -0.709029 0.365541 -0.101067 3.579026 -1.724222 -3.117702 0.725378 -2.561156 -0.586043 3.041415 0.243890 -2.282816 0.931615 0.937322 -2.910519
up 1.367747 -1.207083 -0.115596 -1.673405 1.994098 2.152151 1.189690 -1.875810 -0.439133 0.200856 1.056692 0.076893 -0.755222 1.248988 -1.640386 0.264103 -1.015512 0.055209 1.487952 -0.433605 -1.098521 -2.138630 0.737659 1.084791 1.274093 -1.609567 -1.978738 -1.582532 0.126938 1.918932 -0.367068 -2.140020 0.165598 -1.374404 -0.399273 1.035020 -0.429307 1.005112 1.850513 0.392029 1.108945 -1.485155 -0.645915 -1.690305 0.057722 -2.000456 -0.650901 -2.407145 2.067983 -1.362490 1.358169 0.332065 0.291279 1.559443 0.621467 1.023773 -0.040232 -2.758966 -0.710197 -0.593323 1.084212 -1.746855 -1.443114 -0.764048 0.208623 1.979945 -1.113093 0.119042 -0.033095 1.540676 -1.808716 -0.369681 -0.325451 1.987512 0.842645 0.415625 -1.818903 -0.609275 2.176859 -0.979082 -0.204831 0.639593 1.296737 -1.578282 -1.141594 1.089104 1.285348 1.807367 1.148216 -1.406467 0.294521 -0.811238 -1.365530 1.295699 -1.212539 -1.635689 0.834522 1.730612 -0.401127 0.915857
quarter -3.315094 -1.919815 0.468017 2.501531 0.165513 -0.416632 1.857539 -0.612822 0.439984 2.541554 -0.869395 0.899093 2.659715 0.487030 -2.775983 -0.495257 -0.253860 0.195722 0.106627 -3.297436 -2.618298 -1.147322 -3.474585 -1.251799 -2.056544 1.301274 -1.227025 -2.671049 -1.035819 1.881094 -0.327192 -0.599288 1.489994 0.494914 -3.020353 1.699303 0.029851 -0.566130 3.224165 -1.764914 -1.226547 -1.864132 -3.090725 -2.948712 0.034115 -1.016581 -1.057235 -0.085676 0.154987 0.030411 -2.427675 4.240347 -1.426901 0.234555 0.562887 3.890906 1.238808 -1.662314 3.966323 -3.068063 -3.720820 1.447829 3.788057 1.059885 -1.172688 2.677838 -1.602560 -3.320490 -1.321057 -0.673680 -2.028707 -4.316822 -1.668440 2.039628 1.198168 -4.817697 0.741621 1.880808 3.328943 0.398821 -0.815532 0.069318 -0.600178 -0.448716 2.438501 0.527968 -1.456714 -2.145983 2.169966 1.369469 3.491360 0.727784 -0.580239 1.647358 0.882858 0.879436 -1.063993 3.417142 0.596990 -2.780262
new 0.861983 -1.522295 -1.437190 0.902958 0.282212 -0.479650 -0.336733 -1.147934 0.161075 -0.995998 0.630696 -0.503288 0.505078 0.775421 1.521788 -0.357105 -0.131714 -0.280591 2.701732 2.321783 -3.186352 1.519037 0.680778 -0.121748 -0.816177 -0.415169 -1.209371 0.999405 -0.125320 0.343617 -0.502090 -1.120485 -0.822716 1.632786 0.649705 1.390424 -0.011473 0.734893 0.948039 -1.040972 1.272960 -0.688250 0.313699 0.877255 -0.070121 0.662477 -1.312473 -0.188367 -0.778391 0.006164 1.432862 -1.031044 0.617964 0.905438 -2.397674 0.656714 -1.115265 -0.341730 -1.245192 -0.672411 -1.219615 -0.279588 0.867298 -1.014207 -0.702964 0.697276 -0.450399 0.111399 -0.541712 0.721377 1.128471 0.046366 0.779368 -0.956506 0.307260 -0.687807 -0.940671 -2.330584 0.690227 0.316891 0.620812 1.203835 0.085046 -0.051614 0.026218 -1.029014 1.069865 1.072903 1.703494 -0.051792 -1.227139 2.264340 1.524746 0.165213 -1.174157 -1.421056 -0.541826 0.113019 0.192037 -0.262366
price 0.318896 0.881103 0.843085 0.119615 0.657768 1.275548 -0.326539 2.213730 0.516743 -1.434855 2.970746 -0.937169 -0.586410 0.452274 0.459292 0.186357 -1.317151 -1.645036 -0.917479 1.153561 -1.745297 -1.158719 -0.016758 -0.689730 0.129968 -0.384611 0.335258 -0.659398 -0.408146 -1.938418 -1.496011 -3.415174 -2.105748 0.524301 1.057529 -2.543602 0.556016 0.145876 -0.069054 -0.131099 2.845875 0.045518 -2.419213 3.604393 3.131183 -1.357250 -1.349494 0.800671 -0.625667 0.350624 -1.132521 0.394849 0.050417 -0.404978 -1.281646 0.198421 0.698587 0.245676 -0.438752 -0.187021 -1.695494 -0.444635 -0.043404 -0.465387 -2.279368 0.787055 -1.505398 -3.949336 -2.895404 -1.095886 -1.180837 1.314551 -3.110735 3.347545 -1.747165 1.029963 -0.209298 -2.192905 -0.770711 -0.424890 -3.411387 1.771740 -0.725858 1.543477 -0.523387 -0.640493 2.334050 0.497934 -1.193318 0.443219 1.028361 3.811826 -1.689198 2.632518 -3.475948 -1.190806 -1.055088 1.603540 -0.518784 -1.398569
agreement -0.108516 -2.240556 -2.124643 -0.701588 -3.735760 -1.843158 1.590818 -0.979341 0.294061 -1.863660 -0.826989 -0.695824 0.216989 0.739745 2.018137 0.020579 -0.246345 -1.783564 4.018234 -1.392743 -1.923525 -1.164117 1.492476 -0.903398 0.207317 1.326251 -2.548023 3.338907 0.073974 -2.113384 -0.525384 -1.711958 1.691324 1.092876 -1.670015 -1.205997 0.247433 1.376972 1.565417 0.445385 -3.487488 0.248125 -1.416187 0.234818 -2.024292 0.149397 -1.816971 -1.501989 -1.692359 0.365872 -0.680552 0.256534 -1.986848 -0.791297 -2.961052 -0.931236 0.304234 1.377951 -1.408095 -1.057716 1.080033 -0.862547 -0.012991 0.161660 -0.571816 -0.633502 -1.300938 0.589778 0.175821 0.541470 0.472574 3.898268 -1.288517 0.605540 0.133851 1.542444 -1.829443 0.277682 2.327634 -3.369022 0.425574 0.553725 0.754382 -0.355084 1.437170 0.110199 -1.992792 2.173484 0.281100 -0.818867 1.354393 0.021567 -3.516429 0.808679 -3.831737 -0.853042 -2.743467 1.187073 0.887617 0.125062
tax -0.944431 -2.701295 0.725727 1.209387 -0.068634 -0.885208 3.064266 1.865727 0.068861 0.174814 0.706673 0.213519 1.535384 -0.400857 -0.504658 -2.740990 0.357486 2.522647 -0.182346 3.091865 -1.024411 -1.395204 -1.054316 0.824520 -0.849166 0.982992 -0.052425 -0.597180 -2.970878 2.282878 -1.785047 -1.236802 -1.183607 0.140997 -1.007801 0.227393 1.580931 0.609495 -0.323338 -1.684249 1.165899 -3.057504 -2.808653 -0.160123 -1.350989 0.165186 -0.863602 1.274170 -2.182818 -1.624188 -1.314127 0.547343 -2.408312 -0.306946 0.755544 0.160814 -2.791295 -2.822227 2.036798 -2.521284 -0.082954 2.872088 -1.569064 -2.822578 -1.543224 0.566889 2.425999 1.196256 1.893991 -3.152309 0.894003 -0.404085 -1.471406 1.811383 -0.645877 -0.222444 0.087895 -2.219768 -2.743194 1.862257 1.795015 -0.978755 2.778595 0.417878 -0.736779 -3.144710 -1.235779 1.371035 3.040913 0.408261 -1.141033 -0.123840 -0.004566 1.920148 1.606418 2.072654 0.701050 -0.365117 -2.165643 0.837557
government -1.034512 -1.578306 -0.522136 -2.833743 -0.415382 -0.195508 0.715282 0.170756 0.006633 -2.450011 1.280686 -0.315732 -1.850493 -1.269307 -0.249078 2.052585 -0.465697 1.363732 0.008348 -0.157822 -0.411971 -0.990258 0.336799 -0.207015 -1.810950 -0.695932 0.750502 0.108909 0.693556 1.728140 -0.357410 -1.487393 0.310948 -0.044567 0.483802 0.705980 -0.601990 0.008445 -0.285153 0.011816 0.320642 -1.682874 -0.063916 -0.547978 -0.000649 -0.942289 -0.113863 -0.208360 -1.681147 -0.577574 0.887840 0.488057 1.557532 0.372037 -1.107152 2.685054 -1.723713 -1.951491 -1.601081 -0.078802 -0.871740 -1.851195 -0.699612 -1.122907 0.413073 -0.102304 0.113603 0.429137 -1.817958 -0.312480 -0.821790 -0.380880 1.562582 -0.875370 -1.252997 1.994159 -1.277080 -1.928376 -0.775646 0.246485 0.476019 0.411719 -0.003677 -0.524084 -0.631722 -3.544184 0.098930 -0.211206 0.873046 2.270374 -4.367680 -0.381371 -0.122179 0.658861 -1.105375 -0.221322 -1.503595 2.032381 -0.773427 -0.379285
group -1.233021 -0.161606 -0.110222 -0.535013 -1.806992 -0.799708 0.846398 0.931590 -0.117218 -0.876036 0.657735 0.004154 1.024861 -0.594303 -1.254596 -0.314427 0.800125 0.155041 1.708952 -1.539746 -1.112832 0.307740 0.143131 0.595677 1.179305 -0.079898 0.763930 1.399556 -1.070898 0.298626 1.077842 -2.722857 0.358992 -1.690473 1.888043 0.779704 0.971701 -0.299601 -1.870859 1.353911 0.314288 0.788004 -1.979114 -2.312954 0.142230 -0.448742 0.094044 1.110449 -1.728207 0.170161 -0.775027 -0.798039 -0.131389 -1.547570 -1.469877 1.331829 -1.098215 -0.327543 0.089001 2.454178 -1.026293 -0.394049 -1.391931 2.013735 0.075167 0.021299 0.929419 1.438497 -0.449426 -0.736310 -1.793469 -0.693043 1.817141 0.797590 -0.373698 1.360212 0.883390 -1.487492 -3.421926 0.282763 -1.373849 1.368003 0.772758 -3.887913 1.583682 -1.073908 1.193360 -1.028215 -1.180231 1.584741 0.489218 1.108163 1.324345 -0.388090 -1.537059 -0.057361 0.420830 -0.033045 -0.508798 0.959065
week -1.478399 2.315073 -1.295133 1.130837 0.076611 -1.711183 0.076483 1.812871 0.192920 1.893080 3.223739 0.558033 -2.353496 -1.222611 1.187697 1.971167 -2.775831 1.730745 1.797295 -3.337042 -0.498517 -0.942338 -0.346411 -1.545320 -0.527696 -1.237472 -3.199954 -2.996715 0.516022 1.993950 0.671581 -0.365946 0.914156 2.348009 -1.543175 2.478359 -1.026539 -4.113814 0.070741 2.224024 -0.036497 -0.850788 0.677861 -1.758122 0.769903 -4.492152 -0.231338 -1.571700 3.720807 -2.063826 0.410278 0.912160 -2.373889 -3.320653 2.205522 3.019630 -2.570772 1.716828 -1.864029 -1.039372 -1.907207 -4.540682 2.869028 2.244619 -1.534756 2.332305 -0.686611 0.628850 -0.408548 -1.911957 -0.179976 -1.677993 1.026728 -0.853021 2.088365 1.223220 -1.174903 2.017967 4.369721 1.632002 1.583823 -3.918125 -0.173648 0.266347 0.989686 1.125362 -1.076208 1.957726 0.557087 0.765823 1.322181 -0.587022 -2.977298 1.560510 1.197459 0.491318 -1.198791 0.851678 -0.334383 -3.249438
over -0.575466 -0.608945 -0.909385 -0.091982 -1.099044 -1.280489 0.782271 -0.698951 -0.909300 1.204077 -0.048333 -0.362615 0.875884 0.212643 -1.582740 -0.578295 -0.433620 -1.352483 1.323538 -0.099345 -1.629228 -2.236768 0.382208 1.056200 -0.135724 -2.807441 -0.097728 -2.198890 1.922046 1.055109 -0.596320 0.386343 0.414524 -0.278795 0.919861 -0.101004 -1.577679 0.043647 0.734346 0.615712 -0.416603 -0.960523 0.793822 -1.536238 1.693620 -1.250454 -0.864311 -2.263963 0.657690 -0.074138 1.816355 -0.013544 -0.284950 0.888391 -1.712454 -0.122684 -0.673233 0.518942 -1.469468 -1.107109 0.461272 -1.645412 -0.408293 -0.737140 -0.181938 0.763202 -0.797017 -0.657196 -0.084044 0.778610 -1.802406 -0.463312 0.997534 0.880250 1.383554 0.654366 -1.871548 -1.005133 -0.055157 -0.452141 0.828234 0.548405 2.085846 -1.037307 1.265804 -0.533427 0.073338 -0.844045 0.913034 0.021899 -0.375153 1.797760 0.444503 1.816482 -1.268661 -2.960819 -0.825629 0.872474 -0.388257 1.764747
rate -2.104022 -0.633233 0.461344 -0.984566 -0.677593 -0.316307 -1.528526 0.885956 1.262167 0.715805 3.563573 -1.418972 -2.656050 1.228612 -0.647717 0.812160 0.708948 1.092548 0.791802 4.713233 2.019207 -1.427829 2.287745 2.385119 1.619374 -0.753443 -2.562418 -3.118899 -0.953160 3.201887 -1.798990 -1.541607 -2.045421 -0.598814 -0.428394 -3.668544 0.047931 1.946745 1.297274 -0.038923 3.061452 -0.474001 0.081099 -0.856522 2.422121 0.215998 -1.634019 0.336345 -0.265248 -2.120993 -1.227600 2.772440 -1.111287 1.915435 -0.788833 2.544521 0.372235 0.181702 -0.949827 -0.700027 0.232180 -0.976624 -1.291645 -0.665079 0.172370 -1.638920 -2.075534 -2.847928 -3.684373 -1.140759 -0.906543 1.969458 0.745132 1.259539 -2.495298 0.156384 -1.274628 -1.528625 -1.277563 -0.628505 1.315415 -0.639106 -0.600227 -0.574828 -5.398978 -0.642199 -1.410286 -3.366488 -1.585719 -0.362453 0.455460 -0.679048 -2.877519 0.257915 -1.542884 0.105767 0.069288 -0.524951 -3.224332 -3.214488
bank -1.114029 -0.429292 1.659107 0.296545 -0.849893 -0.625420 -0.690638 -1.723314 -0.840272 -2.005347 2.968751 -2.274221 0.249147 -1.394724 -1.050281 -0.011636 0.633344 1.778167 3.038551 3.762227 0.830323 -1.632902 2.007956 -0.764648 1.047055 1.048803 -1.052395 -0.797583 -1.065820 0.232905 0.126379 -0.275430 0.048164 -1.043849 0.024181 0.575299 0.010472 -2.781327 0.142452 0.467561 0.854827 -0.890091 -0.858966 -1.842825 0.603361 1.229867 -0.013749 -0.245105 -0.807294 -1.888968 0.959352 1.319622 -0.027424 1.056350 -0.093407 2.276506 0.602765 -0.971730 -0.731946 0.154594 0.507157 -1.440589 1.601267 -0.191803 2.676401 -0.782422 -0.694923 0.842486 -1.810752 -1.207115 -2.478510 0.068719 0.676330 0.006716 -2.900396 0.245840 -1.790011 -0.828829 -0.867906 1.164725 1.175914 -0.643042 0.326708 -1.932899 -1.306364 0.364213 -0.526333 -1.246537 0.161166 2.510298 -2.972595 -0.195426 0.707170 1.372366 -2.672055 -0.744471 -4.024074 2.595860 -1.127515 -2.049973
common 0.234819 0.485907 1.711130 0.570500 1.627384 0.837593 0.256765 0.205692 -0.164875 -2.832750 -0.024198 -2.292231 1.630251 -0.997365 -0.351428 -0.355595 -3.877118 -0.320594 2.523064 0.070887 -0.876422 0.400517 -1.073845 -0.875183 0.219855 0.283838 -1.116578 -0.236496 0.346607 -1.846276 -0.540671 -2.295676 0.823399 -0.051271 1.149122 -0.554702 1.315690 1.193283 -1.420648 1.763499 0.959230 -0.269903 -1.730257 -0.349985 -0.216406 1.638136 0.403177 -0.358908 0.591832 -0.849226 -1.922346 -0.994221 -0.185843 0.575167 -2.198849 -0.032127 0.796521 0.477816 0.446236 2.708722 2.912899 0.240057 0.188127 -0.853558 -0.704588 1.560266 -2.273120 -0.360261 -0.857206 2.522846 -0.097252 -2.674369 -1.767851 -0.703884 0.239547 1.368569 1.051175 1.865209 -0.008387 -3.699108 1.150343 0.569292 1.344094 -2.636016 1.064885 2.413832 1.143504 -1.909745 1.108132 -2.200842 0.694966 0.941688 1.300444 1.992255 -1.849905 -0.062990 -2.394888 0.596344 -0.133727 -0.934433
sales -0.629117 -1.571260 0.399862 0.123467 -0.359745 0.767850 2.272990 -0.877838 0.486463 -3.460532 -0.090179 -1.065996 1.566020 1.655690 -1.342166 -3.026223 -2.058442 0.314015 0.723325 -0.936349 0.198044 0.511882 -0.581288 -0.135694 -0.645157 -0.520828 -1.237562 0.464174 1.831105 0.638552 -0.541507 1.539455 0.265590 1.022961 -0.745995 -1.364819 -1.672896 -0.477811 0.517779 -1.946257 -1.302628 0.002073 -1.449642 -1.356418 0.032212 0.202653 0.340997 0.656892 -1.133410 -0.697046 -0.011973 2.149296 -0.787740 0.019728 -0.394540 0.774729 2.766500 -1.072914 1.916899 -1.119233 -1.486660 -1.835720 -0.235356 0.378841 -0.108903 3.051785 -0.197255 -2.456604 -2.343677 0.182033 -0.025155 -1.434276 -0.233620 2.052385 -1.395878 0.594866 -0.589004 0.656699 -2.263737 0.495671 -0.314112 0.444876 -0.019380 0.277693 2.475146 -0.576870 0.777773 0.162124 2.687631 0.290311 1.531057 -0.469551 -2.271569 0.079935 -1.433227 -0.694067 1.701829 -0.073239 -0.179710 0.653486
five -0.043783 -0.176285 -0.499823 0.980887 -0.243165 -1.179535 -1.715970 1.256954 0.004892 -1.200491 -1.768079 -1.354104 0.181190 -0.890359 -0.783353 -2.620854 -1.049328 -0.284059 0.483731 -1.539448 -0.964943 0.460731 0.875291 1.780687 -0.134585 -0.406044 -1.512489 -1.425723 -1.189427 2.197716 -1.288574 -2.136932 -0.664141 -2.169261 1.085628 -0.003181 -0.273058 1.240277 -1.099277 1.368293 0.581119 -2.507686 0.443560 -1.286513 -0.093218 1.332204 -0.121826 -0.280583 -0.162482 1.615333 -1.200348 -0.378656 0.527760 3.188473 0.300164 1.627009 -1.530240 -2.048783 -1.682371 -1.420818 0.475091 -2.735254 -0.454504 -0.934486 -2.486237 2.858630 -1.180624 -0.143890 -1.108183 0.941889 -0.624799 0.563740 -1.035635 1.187301 0.382247 0.302323 -0.379216 0.428773 -0.833653 -1.252728 -0.571333 0.646224 -0.794772 -1.521870 0.619140 -2.440433 0.404625 -2.870355 0.804582 -0.257912 1.232040 2.015009 1.201160 0.353634 -0.878012 -0.956554 -0.868998 0.454321 0.149290 -0.227587
rose -0.287796 -3.083044 1.879996 -1.758837 1.740840 1.512926 -1.143111 0.662322 -1.600444 2.407212 1.727744 -0.723722 -0.529983 -0.910575 -1.032274 -1.544437 1.546149 0.346984 1.882382 1.321631 1.787288 -1.987475 3.050748 -0.020732 0.483467 -0.492155 -0.214924 0.108430 -3.312544 1.614110 3.187147 -1.438109 2.499610 -2.904330 -1.859797 2.727088 -1.235237 -2.757962 -1.760366 0.644684 -0.754116 2.353067 -0.323436 -2.580295 -2.855279 0.073308 3.037327 -2.836246 -0.671705 -0.193585 -0.771769 -0.209936 1.022468 0.241833 -0.198006 2.028977 0.499252 -0.608398 3.052210 -2.310781 0.631491 -0.560068 -0.289176 -2.917274 2.515421 2.849731 -2.465879 -1.275164 -0.447311 1.641814 -2.102180 -1.631411 -2.615247 2.447083 0.859318 0.133560 0.248924 -1.640778 0.409358 -0.616256 -1.446957 -1.429600 -0.395073 -1.179958 -0.348791 0.754570 0.078546 -0.889905 2.837654 -5.423496 2.258860 -0.317225 1.123949 -1.747082 -2.307802 -1.555328 1.691341 1.078284 -1.448784 -1.087776
today 1.095824 0.559200 0.598100 0.833035 1.809175 0.100098 0.331452 0.952658 -1.397911 -0.420593 3.524981 0.344618 -0.648535 0.100075 1.351927 -0.153016 0.872724 1.325402 0.287238 -0.718572 -0.219338 0.627047 1.872001 -0.552928 0.951395 -1.044576 -1.673303 -0.152207 -0.982449 -0.121816 -1.281597 -1.769293 -0.223171 -0.374887 -0.336958 0.168230 -1.015440 0.623606 1.411252 -0.146042 0.438227 -1.370480 0.674672 -0.093507 0.344063 -1.804444 -0.809804 -1.881069 -0.743661 -2.527585 0.027461 -0.081899 -0.492067 0.542681 1.418131 -0.704067 -0.933067 -1.074283 -0.597363 0.401068 -1.486014 -0.205370 0.982959 -1.353401 0.999948 0.109903 0.507362 1.543056 -1.165701 -0.392685 0.378040 -0.132706 0.692778 -0.394205 1.595381 0.693185 -1.325016 -0.052788 1.469600 0.217096 -2.338517 -1.473824 -1.596813 0.599478 -1.061138 0.342221 -0.467774 -0.240892 -1.474360 0.529519 0.187731 0.733537 -0.908251 2.188367 -1.451886 -1.270718 -0.095870 0.520348 -0.652225 -1.638355
increase -0.227608 -1.116315 0.293740 1.115591 -1.726997 0.814287 1.133668 1.212435 -0.140473 -0.058497 0.131939 0.027696 -1.337873 -2.060326 -0.052250 -0.353826 0.389872 1.058440 -0.055767 0.947345 -0.329097 -0.475221 0.564147 0.533468 0.090961 2.155765 -1.092127 -0.400130 -1.701488 2.077480 1.800235 -2.481335 1.750315 -2.294660 -0.475160 1.346415 -0.583407 0.812375 -0.122037 -1.411186 0.255633 -1.035366 -2.072266 -1.916595 -1.878545 0.339933 -0.087068 -1.041228 0.630862 -0.072346 0.386982 0.135727 -0.929360 1.697696 0.186586 2.502056 -0.760105 -2.050426 2.066296 -0.988464 0.152988 -1.353027 -1.093972 0.647983 -3.015204 0.698594 -0.729659 -2.292815 -1.650313 2.637871 -1.074164 -0.178531 0.097106 0.840793 -0.330144 -0.479749 -0.350711 -2.300548 -1.081890 -0.286626 0.356896 -0.308025 0.911490 0.970312 1.561016 -0.627019 0.312459 -1.801141 2.463899 0.262971 0.939582 -0.727916 -1.581353 -1.006771 -1.214962 -0.024058 -0.699172 1.465754 -1.742699 -0.743452
interest -0.626391 -1.721492 2.432518 1.417205 -0.859482 -2.191715 0.109460 -1.334167 1.517019 1.278689 1.676183 -0.371626 -0.394769 0.424470 -1.650025 0.360685 0.743461 0.193007 1.033086 2.073077 -0.156100 2.258163 -0.030626 -0.053124 1.330086 1.525250 -3.850525 -1.623085 0.082965 0.663978 1.018803 0.838624 1.838837 0.606501 0.092695 -1.679246 0.275731 0.657630 -0.578064 -0.234099 2.671302 0.229710 -1.962079 -0.630057 -2.646708 2.518759 -0.810670 1.784340 -0.173109 -1.579388 0.990377 1.029097 -1.989632 -1.047783 -1.873289 0.967738 0.516981 -1.814461 1.817176 0.656137 1.278538 -1.224959 -0.894406 -0.177251 1.200273 -0.293246 0.294348 -3.247108 -1.644831 -0.048700 0.783728 2.073426 -0.868175 0.378836 0.822478 -2.450037 0.312176 -0.467896 -0.697492 0.138631 3.328912 -0.841429 0.350073 1.463374 0.099626 -0.624024 -0.299252 -1.280162 0.230026 0.817046 -0.495684 1.485445 -0.469837 0.233208 -0.481915 2.204075 -1.719606 1.002540 1.357729 -1.905140
production 1.126229 -1.260792 -2.411136 -0.464521 0.003771 1.041059 -0.805937 -1.651752 -0.503325 -0.681239 -0.277734 0.811656 0.990501 -1.372586 -0.711812 0.087385 -1.962446 -0.204988 0.704617 -1.840700 0.798438 1.564622 -1.188092 -0.449352 1.109343 0.533497 -0.252970 0.337980 -0.348247 0.830635 -0.254369 0.078244 -2.581586 1.672333 -0.784205 -0.343914 -1.375575 0.531572 -1.308483 -2.636109 0.030846 0.763805 -1.193903 -0.425564 -0.124396 -0.532418 -0.092853 1.353788 -1.697372 0.345766 -0.610663 2.280900 -0.235053 1.513906 -0.704766 -0.566129 -1.497688 -0.066756 -1.115983 -0.786317 -0.807814 -0.748815 -0.834023 0.714711 -2.884252 1.460850 -1.671477 -2.566143 -1.110689 -0.480283 -0.057581 0.960732 0.558685 0.937688 -2.875132 -0.211634 -2.236227 -2.983172 0.755500 0.149598 -3.390950 0.694841 -1.251845 1.123807 2.070989 -1.592060 1.807433 -0.685313 0.388138 1.282655 -1.387159 1.114456 -3.403854 -0.745319 0.551087 -1.445768 2.499187 0.273287 -0.550437 -0.378407
meeting 0.433397 0.704611 -1.464067 -0.061914 -2.844798 -0.160153 -0.938648 1.180840 -1.091465 -2.589517 3.031722 -2.069655 -2.177640 -0.977229 -1.444413 1.730865 -0.572245 1.411424 0.896191 -1.370817 -1.116050 1.029468 -0.381392 -1.257456 0.785101 -2.508621 -1.918275 0.789901 -1.956705 -0.508620 -3.233673 -0.542507 -2.317701 -0.152388 -1.909570 -1.522205 -0.598819 0.656259 0.480972 0.851122 0.229714 -2.605481 1.056183 0.619411 -2.734342 -0.076326 -2.691915 -0.506721 -1.987303 -0.061820 -1.135956 1.413198 -0.788403 2.671892 0.048042 1.575809 -1.028953 1.972612 -0.872202 1.120604 -0.590396 4.025533 -0.064691 2.484432 -2.671033 -2.079518 -0.483014 1.279808 -0.060373 0.322510 0.804394 0.809471 2.013500 -0.834784 1.511389 3.136221 -0.454712 -0.964976 -0.444762 -0.997752 0.954875 -2.201201 -2.186130 -2.217871 -0.231481 -0.022658 -2.105400 -2.391807 -1.379256 1.191718 -0.622162 0.278932 -4.236595 1.521348 -3.536312 1.426748 0.500481 -1.603122 -1.231008 -4.653190
end -0.461581 -1.042690 -1.594478 -0.544084 -1.157735 -0.637580 0.073406 0.411274 1.028295 -4.224956 -0.265584 -2.237340 0.037540 0.375280 -1.397483 0.209659 -1.044337 -0.686366 1.882602 0.687749 2.564976 -0.833451 -0.708455 -1.204644 0.409880 -2.378396 1.511631 -0.968749 0.821690 0.105843 -1.521874 -0.100218 -0.339416 -1.325208 -3.218256 -1.142995 -1.406775 -0.540734 1.367071 -1.676638 -2.874479 0.543720 -1.123003 -1.603111 -0.436158 0.634809 -0.983418 -1.103181 -1.543964 1.220896 0.356912 0.423599 0.426418 3.667321 0.587730 1.676724 1.400217 1.434742 -0.257568 -1.619346 0.543737 2.201489 -1.775056 -0.421047 -0.992553 -0.521614 -0.832156 -1.957657 0.168838 0.535725 -2.766959 -0.118448 -2.791369 1.063580 -0.917012 -0.043257 -0.011725 -1.490691 0.491066 -2.058963 -1.314896 -3.442605 0.126209 -2.213554 -0.119128 0.658256 -2.487154 -1.760157 -1.376275 -0.399277 -1.937189 -0.030385 -0.482824 0.956654 -2.668911 -0.941488 -0.680957 1.238012 -0.438936 0.933728
month -0.522013 0.962947 -1.766373 1.457008 0.095950 -0.842304 0.811028 -0.075179 -0.253701 1.373389 3.528723 0.540488 -1.500379 0.377473 0.736465 0.031265 -2.018743 0.986003 2.556362 -0.955665 -0.776617 -0.142399 1.013326 -0.642501 -0.044375 -0.782122 -2.559884 -2.090548 0.809133 2.454387 -0.060040 0.309593 0.256874 1.646899 -2.401463 1.664186 0.424137 -1.791287 0.374851 0.292405 0.782515 -1.178331 -0.135444 -2.816612 1.291348 -3.120613 -0.580075 -3.071172 2.294529 -1.404765 -0.776206 0.755226 -2.257832 -3.334375 0.975638 3.172666 -2.902386 0.513343 -0.262883 -2.344057 -0.903046 -3.697888 2.403586 2.781219 -1.164812 3.035513 -2.659003 0.088328 -0.251560 -2.188875 0.438367 0.757286 0.642003 1.014172 1.607141 1.435129 -2.229442 0.105480 1.681170 0.958136 1.778805 -2.906212 -0.188385 1.922537 1.281213 -0.563930 -1.453602 0.695677 1.159965 -0.504257 0.622631 0.189666 -3.265788 0.618323 -0.309952 -0.984385 1.272353 -0.600187 -1.026026 -2.918211
foreign -1.796630 0.101788 1.447504 0.331807 -0.114761 -1.021475 1.396650 -0.003387 2.699913 -0.653206 1.727444 0.129336 -0.521767 2.254345 -0.755262 1.261997 0.538753 0.745354 1.329164 2.867119 -0.149867 0.250036 1.279159 -2.003415 1.891264 -1.119246 1.861114 -0.240795 0.076208 1.846198 -1.631337 -2.322919 1.612959 -2.327902 -1.522920 1.670389 -0.771124 -0.975166 -0.049839 0.129933 -1.076266 0.074503 0.283596 1.163304 1.615381 -2.407586 0.724178 1.210258 -2.005315 -2.329471 1.659186 0.023989 0.194874 1.012619 -0.831523 0.366431 -0.547212 0.910294 -2.042438 0.321012 -0.325775 -0.984733 -3.005534 -2.824956 2.544303 1.607977 1.584308 -1.254573 -1.386290 -0.695163 0.335247 -0.188468 1.786044 1.498907 -0.137505 1.224091 -0.872807 -1.177532 -0.540796 2.527822 0.995639 1.076549 -0.678583 -1.414636 -1.192682 0.476140 0.404172 0.150884 3.043270 -1.035278 -0.573214 -0.340744 -0.586466 -1.217944 1.299814 1.068454 -1.467450 -0.132828 -2.533745 -0.764631
sale -2.161273 0.141663 0.095774 -0.364623 -0.776635 -0.415786 2.219803 -1.289503 1.645673 -3.392298 0.601826 -1.398870 1.570865 0.547731 0.749398 -0.913048 -2.296493 1.969688 0.835362 0.165815 0.840903 -1.400237 1.473469 -0.348885 -1.526803 1.287820 -1.569392 -0.218171 -0.492854 2.344344 1.507289 -1.034991 -0.069096 2.363626 0.141207 0.123091 1.762195 0.378125 1.028834 0.228353 -1.297494 0.106537 -0.849852 -1.997186 -1.711766 1.356659 -0.760390 0.698114 -0.006259 0.936398 -2.847264 0.695033 0.937926 0.071020 -2.589509 1.577756 -1.049873 -2.006896 1.248774 1.150168 -0.685911 -0.950986 -0.311594 -0.283772 -0.116535 -0.114632 0.795928 -0.960300 0.730801 -0.108120 0.191791 -0.790347 -0.814753 -1.118852 -0.186927 -1.198146 -0.198663 1.991933 -0.955389 -2.735508 0.281353 0.853282 2.958160 -1.216656 1.045756 -0.389480 0.718075 0.828915 0.711073 1.435127 0.206160 -0.639287 -0.781359 1.489116 -1.695172 -1.098558 -3.001507 -0.112154 -0.215125 0.692571
includes -0.947907 -1.586171 1.109965 0.906889 -0.408898 -3.274511 0.591417 -0.609217 0.713479 -3.168848 1.285779 -0.244730 3.618408 -1.535895 -1.681782 -4.920955 0.007508 1.025635 0.774616 4.507371 -3.534499 -1.479606 -0.776826 1.707176 -0.712852 -1.584481 1.479654 -2.304431 1.916564 0.144182 2.951216 -0.045408 -0.668151 0.761162 0.076237 0.556709 3.152553 0.106404 0.710198 1.076162 -2.012551 0.991490 0.543649 -3.889970 0.261534 0.784016 4.698382 2.282559 -3.569761 2.168433 -1.550687 -0.688933 -0.924436 4.517515 -1.928446 -0.121157 -2.671128 3.035335 3.258945 0.769212 -0.535216 2.080043 -1.413549 -0.919203 2.230982 3.401194 0.107069 -0.296465 4.832994 -1.331183 0.680391 -0.308591 -0.607518 -0.189074 -0.020959 -2.275314 1.446930 0.775627 0.128992 0.565791 -0.502613 -0.034037 1.839835 -1.382895 -2.314804 0.687136 0.004524 -0.817095 2.318064 -0.483838 2.177236 -1.684806 0.995685 1.019539 -0.767855 -1.038671 -0.333703 -1.493661 -0.370454 0.953701
rise -0.180974 -2.020971 1.266211 -0.153678 -1.052622 0.374758 0.943562 1.251099 -2.165153 0.152532 0.032587 0.457862 -1.721681 -0.904891 -0.144833 -0.973553 0.955042 0.544755 -0.203891 0.087820 3.020265 -1.336513 0.262954 0.099146 -0.706625 1.436046 -0.122691 -0.659984 -1.478867 3.807173 1.298234 -1.648781 1.337029 -2.021493 -0.318987 -0.570721 -2.077838 1.034969 -0.432765 -1.054099 -0.428313 -0.831671 -1.893958 -2.296363 -0.659696 -0.570079 -1.092299 -0.927558 -0.906544 -0.564668 0.729055 1.325583 -0.475423 1.251625 1.169631 3.172138 1.278098 -2.422224 0.992676 -2.683256 0.221947 -1.663151 0.040807 0.304406 -1.823462 1.057106 -1.792707 -2.225547 -2.901619 1.642325 -1.768970 0.948262 -1.836628 1.009746 -3.002194 -0.994072 -0.789599 -2.056001 -0.795273 -0.020118 0.284559 -0.563957 -0.834592 -0.019793 0.517416 -3.226899 0.804209 -0.874843 1.992568 0.244247 1.196945 -1.191474 -1.538573 -1.051836 -0.958386 0.575095 -0.253458 1.286645 -2.262857 -1.580060
board -0.380488 0.089253 -0.616815 -0.209820 -0.740837 -1.384426 -0.503846 0.964471 -2.202510 -0.654147 -0.295721 -2.729891 -0.949253 -1.591805 0.094954 0.505075 -0.332043 1.094856 1.484287 -2.311531 -3.083836 0.561693 0.394319 -2.018091 -0.490313 1.230780 -0.137224 -1.171584 -0.952295 -0.725917 -0.862550 -1.764694 -0.829649 1.391048 -0.293400 -1.076755 2.416595 -0.239206 2.655646 0.087282 2.085289 -1.877096 -0.632380 0.148989 -0.897248 0.483424 -1.592668 -0.943323 0.925340 0.878571 0.017994 2.910037 -1.574009 2.042421 -2.195400 0.094135 -0.939633 1.528165 0.352884 4.457677 0.895924 2.529459 -1.102878 2.053361 -0.999969 -1.509555 -1.461683 -0.351966 -2.939415 1.477138 0.096627 -1.952731 2.136475 -1.197314 1.265871 3.829664 -1.616130 1.921425 -1.222321 -1.404358 0.486574 0.032457 0.784631 -1.016973 -0.072275 0.681421 -0.915211 -3.722301 -1.197650 0.589755 2.981300 0.842537 1.369342 1.315926 -3.578038 1.240246 -1.875496 -1.914145 1.171034 -1.307486
cash 0.678307 -1.186764 4.047139 2.746674 0.966272 0.970434 -0.547717 -0.583512 1.581081 -1.456689 1.219429 -2.292213 2.629827 1.839946 -0.988029 -0.946802 -0.497670 -0.730194 1.099235 2.323559 -1.566832 1.147249 0.009567 0.276832 0.261991 1.568124 -2.101371 -1.385101 -0.930449 0.537134 -0.304041 -2.433268 -0.429106 0.048246 0.145440 1.059173 2.218879 0.710931 -0.069345 -0.318479 0.291809 0.268733 -1.985963 1.727115 0.159656 0.885969 -0.012404 1.023111 0.986393 0.784331 1.379097 1.881758 -2.195211 -1.018470 -0.997089 1.865110 -0.002876 -2.509225 1.823833 0.991338 -0.941425 -0.895628 0.998210 -2.420864 -1.298885 0.927904 -1.038215 -2.250947 -2.215740 0.574186 -0.344407 -1.452139 -1.273656 -0.406363 -0.406054 -0.508233 0.667101 -0.985754 0.980933 -0.124078 -0.026189 0.588674 0.688881 0.330141 1.418244 1.366196 1.195678 0.584415 0.773408 1.630674 0.015977 1.215030 -0.184694 2.792933 -0.985023 0.716679 -4.627656 1.253074 1.515649 -0.252455
made 1.088963 -1.005625 -0.660903 1.245169 0.428572 0.560249 0.582990 1.143875 -0.144758 -0.368806 -0.109042 0.103395 -0.135325 0.836932 -0.496272 -0.213242 1.135657 -0.245265 2.217896 -0.673823 -0.768158 -1.514191 0.780412 -1.024911 0.944392 -0.235928 -0.668361 -0.300603 0.678478 -0.594828 -0.964044 -2.353262 -0.143912 1.341054 -1.895332 0.187148 0.762455 -0.050469 0.852052 -0.070813 -0.931511 -0.532669 0.344472 -0.674303 -0.441820 -0.286941 -2.007274 0.195408 -1.892832 0.083232 0.690933 0.178387 1.585999 -0.318354 1.503608 0.380422 -1.428941 -0.680690 0.661981 0.231063 -1.917444 -0.692441 -2.353402 -0.498612 -1.608549 -1.108777 0.143623 0.041621 -0.074363 -0.967471 -1.165799 -0.090278 0.497613 2.825560 1.094269 0.508053 1.054868 -0.477450 -0.936552 0.399559 -0.870279 0.693297 0.367949 -1.228587 0.213960 -0.586132 -0.680137 0.699504 -0.965495 0.965801 -0.302171 0.057297 0.309779 1.891123 -0.537222 0.750433 -1.273148 -1.279056 0.635029 -0.783907
current -0.408660 -1.542733 0.426437 1.636067 0.999706 0.703951 -0.697933 0.309239 -1.239000 -1.316722 0.099865 0.899980 -0.105613 0.296118 0.057125 0.643128 0.875012 -1.389328 -0.135876 0.319804 -0.587207 1.008836 0.729189 -0.046976 -0.596368 -0.290276 0.833258 0.738532 -0.476300 0.789220 0.681264 -0.759824 0.999403 -1.212169 0.317947 -1.253401 -0.620979 1.659398 0.470192 -0.168129 -0.965315 0.431651 0.795397 0.286127 0.951556 0.155582 -1.247191 0.037994 0.273110 0.359552 0.432104 -1.191055 -0.399329 1.752950 -0.068851 0.987340 -1.147167 -1.613004 -1.483430 0.010720 -0.695573 -0.032758 0.748018 -1.615144 -1.147791 1.021985 -0.351108 -0.323290 -2.118664 0.052119 0.051057 -0.049031 -1.285626 0.046333 -0.875209 0.181327 -0.489998 -2.342540 -1.299808 -0.632086 0.981574 0.829605 -1.033393 0.285857 0.761725 0.288889 -0.141208 -0.816611 0.433845 -1.534011 -1.558878 1.996557 -1.140584 0.698798 -0.440953 -0.433375 0.167762 -0.380032 -0.772951 -0.414499
gain -0.271713 0.264423 1.637775 0.416126 0.672646 -1.067510 3.857225 -1.034435 1.442326 -3.888288 -0.356474 -0.471056 1.969592 -0.185513 -1.487006 -1.321041 -1.271933 -0.359081 -0.604640 1.661699 0.025321 -3.378071 -0.644423 0.167990 -0.605821 0.451345 0.508263 -2.374767 0.495922 1.495864 1.767573 -0.599196 -1.852881 0.810777 -0.146517 -0.574868 1.638508 -0.848232 1.392641 -0.503830 -0.957119 -1.506952 -0.507606 -2.910920 -0.356387 -1.380552 0.381404 0.447742 -0.029591 0.054920 -2.298025 -0.012212 -1.019677 0.981914 -0.869696 1.615466 -1.707021 -1.012748 2.562697 -1.139014 -0.233130 0.563175 -1.370555 -0.021841 -1.072430 1.646663 0.253060 -1.296957 1.221333 -1.073567 0.047561 -1.973435 -2.209608 -1.333346 -0.412208 -1.842013 0.239673 1.585689 -1.987205 -0.860428 0.952694 -0.128233 1.382850 -1.830218 1.041097 -0.532772 0.401441 -0.196725 2.308247 -1.427311 3.566589 -0.645086 -0.782553 1.982758 -0.486514 0.764553 0.881092 -0.588043 0.002262 0.881043
investment 0.305302 0.614234 0.989307 1.817264 0.125529 0.783018 0.788924 0.631797 2.036375 0.131276 1.227598 -0.271949 0.394295 1.319421 -0.121392 -1.396985 0.412704 1.208179 0.866661 0.531791 -1.655258 -0.516616 -0.828303 0.417368 1.024009 1.554404 -1.379711 1.118689 -1.910181 0.486832 0.895771 -0.920878 2.012769 -1.355275 -0.217475 1.324428 1.749265 -0.115380 0.664142 -0.066584 -0.709781 0.100419 -1.424024 -2.226741 -0.602275 0.870445 -0.914807 2.123078 -2.342909 -1.332766 -0.946713 0.045489 -0.334702 -0.451459 -0.075826 0.506191 -0.204436 -0.095255 1.978818 0.639283 -0.003558 -2.015182 -0.722373 -0.010268 1.471823 -0.187961 0.989061 -1.059822 0.893387 1.222475 -0.396992 -0.532665 -0.222641 1.188617 -0.678828 0.412259 1.118137 -0.057878 -2.433675 -0.497369 0.924536 2.975531 0.190703 -0.722109 0.710521 -0.985886 2.100955 -1.816525 2.775773 1.838012 -0.798864 -0.087816 0.964555 0.772372 0.330944 0.847844 -1.069959 0.070037 2.032758 -1.134261
official -0.180333 -0.279197 -1.524803 0.402592 -1.166806 1.068587 0.551188 1.156693 -1.582821 -1.181404 2.232954 -0.120698 -1.623512 -2.822656 1.143768 0.976193 1.310481 0.589122 -0.440271 -0.343532 -1.228373 0.578590 1.835393 -0.875204 0.626743 -0.867027 2.521560 0.415781 -0.915063 -0.258588 0.616120 -0.711001 1.268717 -1.869637 1.197373 0.427956 -1.847304 -1.137969 1.409467 0.024541 -1.636901 -1.396426 1.104257 -0.997119 -0.918860 -1.177301 -2.189205 -1.462215 -2.237531 -1.954164 0.820874 0.608512 -1.592695 0.716144 2.884396 -0.200628 0.210186 0.250290 0.175955 0.905168 1.443186 -1.571772 0.334172 -1.294477 1.072684 0.542548 0.154779 -0.317009 -0.748324 -0.690435 -0.069994 0.369038 0.698215 0.629292 -0.357438 2.323081 -1.799962 -2.148207 0.751402 -1.149358 0.731241 -0.325331 -1.038639 0.932245 0.714702 0.287953 0.777311 -0.460798 -0.442082 1.124483 -0.780201 -0.464303 -0.932470 -0.291051 1.089462 -0.855692 -0.588157 2.069916 0.165617 -2.376880
dividend -0.240487 0.271567 1.672173 2.303270 -0.877837 -0.312036 0.225629 0.130599 -1.032387 -0.640619 0.445382 -2.626136 0.786446 -2.220174 0.256605 -2.332317 -1.435076 0.937413 1.527403 1.541189 -2.141094 -1.114022 -0.732323 1.663382 -1.612273 0.703106 -1.716128 -1.876497 -2.273423 -0.091245 -1.197782 -2.201539 -0.455231 0.609121 -2.318265 -1.450967 1.703417 2.438396 0.955980 1.307032 4.858333 -1.930530 -3.080946 -1.131421 0.910841 2.267742 -0.234188 -1.575071 1.153805 -0.719165 -1.217872 1.676131 -1.868279 3.165402 -0.251983 2.001305 -0.709904 -0.246217 1.930263 1.150289 -1.336764 1.526328 0.029774 -0.530740 -1.468620 2.194280 -2.814719 -2.083811 -6.121408 1.280289 0.489438 -2.554502 -1.765753 0.608718 -2.570982 -0.240366 -0.193399 -1.306255 -2.052979 -0.708282 2.246324 0.349555 0.304851 -0.330770 -0.058658 -0.213603 0.139848 -2.918733 -0.245222 1.121526 3.502765 0.203609 -1.388551 2.298693 -3.574321 0.561538 -0.944806 -1.363704 -0.371594 -3.467788
business -0.920144 -0.410253 -0.596786 0.364372 -0.217791 0.157094 0.256355 -0.964572 1.039832 -1.136799 -0.276687 0.646653 0.251383 1.333623 -1.925879 -0.879202 0.316650 0.027200 1.442731 -0.570004 -0.050501 0.915235 0.507590 -0.620140 0.252440 1.132923 -0.526434 0.456025 -0.397983 -0.696872 0.463186 1.072899 1.160935 0.464524 -1.701856 0.087161 0.980454 -1.002125 0.972157 -1.443113 -2.208738 0.573226 0.142973 -1.165124 0.096659 1.201694 0.230982 1.482903 -1.307782 0.075108 -1.270646 0.503293 0.728792 1.383858 -1.665480 -0.757631 -0.612428 -1.214698 -0.331800 0.847337 -1.621184 -1.148788 0.727993 0.267487 0.546162 -0.226469 0.600551 -0.082357 0.795943 0.610748 -1.604434 -0.363536 1.361184 0.831356 -1.118406 -0.189355 -0.423970 0.386473 -1.692342 -0.498319 0.258796 1.814488 0.062296 -0.980597 1.752656 0.039339 0.653838 -0.483931 1.126233 0.838277 -0.858184 -0.520941 -0.150593 0.129811 -1.085802 -1.189687 -1.904142 -1.036217 0.939907 0.488733
industry -0.230581 -1.737315 -0.945277 -0.679770 -1.005635 -0.029881 0.188459 -0.440015 -0.157834 -0.235644 0.789302 2.136413 -1.128427 -0.394807 0.117252 2.021198 0.052259 0.559343 -0.533312 -0.912399 -1.035731 -0.563172 -0.290597 -1.212782 -0.270103 -0.268178 1.744383 1.331056 -0.532903 1.064000 0.186681 -0.343309 -1.718123 0.042663 0.757709 0.248160 0.489053 -1.214488 -0.025600 -1.703724 -0.811476 -0.677215 0.270538 0.682696 -0.497423 -0.297835 -0.114318 1.386542 -1.737614 -0.335736 -0.514674 0.761916 1.670108 0.997830 0.288280 1.125680 -2.066917 -0.092497 -0.341442 0.337329 -2.671082 -1.371136 -0.681224 0.916383 -1.576328 0.443760 0.805731 -2.148822 0.308993 -1.268907 -1.359123 -0.406442 1.316388 1.408916 -0.215118 1.158455 -1.440605 -2.283407 -0.002267 0.714786 -1.202744 1.533192 0.203218 1.136170 2.480182 -2.490449 2.490486 -0.207278 2.459017 2.684564 -1.768366 -1.573041 -0.249798 -0.685938 -0.350131 -0.255971 -0.304078 1.056145 0.954789 -0.227538
growth -1.673799 -3.025347 -0.372470 0.659887 -0.212181 1.161629 0.454264 0.675821 -1.285184 0.717102 0.380585 1.943272 -1.153918 0.946622 -1.872391 -0.095800 0.698287 0.246322 0.564963 0.855636 2.166849 1.277199 -1.097847 -0.025494 -0.976093 1.354347 -0.719197 -0.065663 -0.274050 2.405287 -0.530968 0.765159 1.832159 -1.571723 -0.431838 -1.234514 -1.075544 1.079873 -0.409942 -0.563129 -0.299135 -1.225969 -1.062167 -3.046518 0.638440 0.490690 -0.148049 0.210687 -0.599092 -0.965138 -0.959937 2.473715 1.191243 1.106251 -1.218660 3.201133 -0.966892 -2.296396 0.631350 -2.254929 -1.011842 -1.468070 2.070297 1.685708 -1.347383 0.582713 -1.596252 -1.588389 -1.723453 0.916897 -1.221410 0.342848 -0.266381 1.064593 -2.244933 -0.538586 -2.127520 -1.991456 -2.746501 0.633870 2.244877 0.756082 -1.593767 -0.950225 1.673736 -3.399597 0.065082 -2.797845 2.640552 0.258647 -1.072886 -0.956340 -1.965109 -0.743590 -1.668092 0.206620 0.135869 -0.946662 -0.950299 -1.104443
exchange -0.821219 0.252340 1.449269 2.631567 0.252324 -0.686523 1.919360 -0.169548 -0.050441 -1.552174 3.224720 1.377238 -1.470765 1.047029 0.587843 1.166109 1.596454 -0.492583 1.103157 2.654977 -1.070474 1.593213 0.233448 -3.210706 0.476779 1.111679 0.029808 -0.682928 -0.420903 -1.506560 -1.795030 -1.899224 2.753083 -1.395448 1.200679 1.097445 -0.361932 -0.420338 -0.383060 1.305138 2.497669 0.948401 -0.713452 -0.139765 -0.914633 0.610015 -1.267871 0.490413 0.353221 -2.606600 0.737343 -0.522497 0.487445 -0.454596 -1.761143 2.457384 0.794440 -0.520248 0.452045 -0.514684 1.333641 -1.158857 1.340988 -0.842505 1.878647 -0.603443 0.869788 0.617144 -0.715574 0.753012 1.121909 1.410101 -1.897395 0.769733 2.632140 -2.637003 -0.939481 0.641477 -1.205269 -1.055903 1.321808 -1.306478 -0.037962 -0.657793 1.209657 0.350764 0.418558 -0.007473 1.929083 -1.939818 -0.839768 1.761648 -0.315406 0.837595 -0.668662 2.490109 -0.683815 1.018985 -0.493032 -3.295832
statement 0.825503 -0.511813 0.970999 2.525331 -1.054219 -0.486901 -0.914409 1.536591 -1.958003 -0.570923 0.868343 0.584703 0.482867 -1.584464 1.542342 1.296947 0.462834 0.450222 1.144121 -0.639649 0.400277 1.885875 1.642802 0.362968 -0.622515 1.007654 -2.044971 2.607903 -3.363623 -0.560932 -0.593783 -2.064395 0.401589 0.238948 -0.419500 0.389324 0.049646 -1.673758 1.671371 -1.093549 -0.574771 0.359329 1.215440 0.123167 -2.458731 -0.262398 -1.268550 -1.719804 -1.781085 -0.644069 1.210289 -0.025774 0.476502 -0.250346 0.646585 0.828210 -0.200268 -3.531434 0.443570 2.024448 -1.510948 -0.469108 1.052469 0.941398 -0.603538 0.767278 0.238164 -0.028439 -1.610465 -1.263303 0.836878 -0.836400 -0.312808 -1.454449 0.863458 0.774617 0.680295 -2.391316 0.084171 -0.764884 1.326711 0.772186 -1.311069 0.160505 -0.392557 -0.546614 -0.207539 -1.640855 -0.761041 1.798892 0.071999 -0.818833 -0.229944 0.000610 -1.053013 1.139289 -1.184704 0.069825 1.712476 -1.487601
major -0.678714 -0.235646 -0.467000 -0.523546 -0.618662 -1.297481 -0.392223 -1.474586 0.132339 1.295356 0.549537 0.053368 -0.609628 1.858075 -1.274879 0.507279 1.138822 -0.621607 2.346025 0.492555 -0.834768 -0.322509 1.685503 -0.392760 1.286207 -0.982027 1.015681 0.395904 0.249713 0.042238 -0.214012 -0.428702 0.668259 -0.257401 -0.459796 -0.186038 -0.362516 -0.262845 0.762506 -1.187040 0.755874 -0.821130 1.066363 -0.814082 -0.205364 0.476455 0.871180 -0.367182 -0.737043 -1.074214 0.689118 0.120983 1.246037 0.938715 -1.334644 0.170207 0.331717 0.194126 -0.756876 0.462841 -0.593426 -0.529640 -0.462819 0.596552 0.978956 -0.512396 0.425588 -0.744836 1.001030 1.099671 -0.140990 2.013058 1.141613 0.616400 0.618127 -0.577391 -2.164794 0.161469 -0.713012 0.948188 0.319913 1.172589 -0.603026 -0.931752 0.993424 -0.551709 1.446542 -0.354646 0.656549 -0.083454 -0.478384 0.066171 -0.873855 -0.198019 -0.823440 -0.815478 -0.411993 -0.392750 -0.185442 -1.604798
dollar -3.450141 -0.771352 1.858511 0.462496 0.479005 -1.872932 0.853738 1.701329 -2.580034 0.471088 1.436287 -0.455255 -3.068383 2.933109 1.180201 1.696553 1.708544 -1.357000 -1.509244 -0.313368 1.648392 -1.593100 1.282998 -3.494554 0.542902 -1.638658 1.386202 -2.516743 0.685335 2.759887 -1.572814 -2.110172 3.879767 0.797482 -0.230511 -2.157948 -2.392321 0.428428 -0.159874 -3.208023 0.382907 0.097476 -2.032441 1.671458 2.047601 -0.257316 -1.924845 0.333167 -1.644720 -2.034373 -0.306588 0.619722 -1.870876 -0.445512 -0.609024 2.847692 1.601064 1.088967 -2.183101 0.001872 -2.097699 -0.023834 0.316729 -0.805460 2.367703 -0.030237 1.161460 -1.228324 -3.263027 -1.946515 -2.128504 1.218611 -1.653387 2.608400 -2.663625 -0.438924 -0.629580 -1.976493 -0.062095 -0.569963 0.198881 -1.885300 -0.154197 -0.640306 0.582157 -2.673020 0.240618 -0.453216 -1.408240 0.096857 -1.483159 1.908399 -1.542984 1.107098 -0.634180 0.648631 -0.781679 1.200396 -1.698506 -2.926365
buy 0.018738 0.361863 -1.316720 -2.022434 0.521366 1.462410 0.671618 -0.928851 0.468677 -1.108059 1.001909 -0.602154 0.081765 0.157055 -0.565393 1.864771 -0.413831 0.390417 0.617020 -0.776432 2.915025 -0.958021 -0.695752 -1.311647 3.371441 0.232702 -3.369252 -0.534417 0.076743 1.692998 1.455486 -2.899683 2.190493 -0.232254 0.319329 1.119090 1.380946 1.471008 -1.362805 0.224472 -0.471038 0.004676 -1.506376 0.140804 -0.771763 -0.901938 0.654538 0.594634 1.206081 -1.127926 0.189799 -2.190136 0.222061 -1.479309 -2.922426 -1.658919 0.681177 -0.703349 -2.373724 1.895814 2.981994 -1.067756 0.057604 0.054487 -2.007654 0.536283 -0.645355 -1.306294 -0.760573 2.983015 1.118512 0.864808 -0.817284 -0.826793 0.907477 1.010247 -0.046000 1.856284 -0.357205 -3.363912 -1.225602 1.880690 1.148463 -1.536370 1.655639 1.234441 0.557785 -0.019935 0.666122 -0.438374 1.489208 2.805131 0.893846 -0.009659 -1.309758 -0.167865 -1.799239 2.726048 0.044258 -0.308549
stake -0.532254 0.233255 3.011216 0.215065 0.684987 -1.496279 0.156616 -0.301896 -1.594214 2.584147 0.649338 -1.392265 2.392653 0.600440 -3.422614 0.907951 -0.240334 2.389070 1.358140 -3.506565 1.720841 -0.018914 0.126622 0.989588 3.942425 1.908897 -3.177015 -1.378288 -0.207595 2.022829 3.553247 0.332620 1.712614 0.873775 -0.459942 -0.049042 0.616067 0.762805 -0.574848 -0.874492 1.500139 0.449738 -3.072817 0.430470 -2.090495 -0.701662 -0.781141 -0.858572 -0.754325 -4.033216 -1.689622 0.859946 -2.418704 -4.197823 -0.829545 -1.328377 0.608657 -3.129962 0.973322 3.142292 1.286692 -2.709273 -1.761274 2.316598 -0.617940 0.873659 -1.805298 -2.637998 -1.741489 0.613024 -0.996824 -0.939509 -0.596525 0.571744 0.638892 1.395520 0.123852 -0.024040 -3.826040 -3.346825 2.415612 3.140705 0.425343 -0.267721 -0.319948 -0.070698 2.030204 -2.451462 -0.170244 0.427290 0.983899 -0.167851 0.775899 -0.688408 0.491747 0.965080 -1.345469 2.810332 1.121444 -1.137444
acquisition -2.300798 -0.019924 0.430032 -0.022648 -2.380914 -0.744478 0.924813 -0.430436 0.574817 -2.009488 0.405381 -2.184585 2.105808 -0.318153 0.719698 -1.373064 -1.448417 1.006867 1.877881 -0.412427 -0.001686 -0.071507 0.308777 -0.979213 -0.198147 2.285175 -1.023181 -0.257284 0.125055 2.116174 1.130824 -1.321482 0.290722 1.562014 -2.830469 -2.523103 2.380799 0.831630 1.195852 -1.167366 -2.106769 0.167298 -1.704100 0.150803 -0.211397 1.414325 -1.247196 -0.500084 -0.250430 2.457808 -1.176758 1.921407 -1.207440 -0.625725 -1.516495 -0.004660 -0.138640 -1.582433 1.705074 1.670203 -1.134540 -0.399083 -0.461160 1.789030 -0.837700 -1.360278 -0.262911 -0.807707 -0.302277 0.772390 0.204401 0.036161 -0.679106 -1.430828 0.532572 0.056786 -0.057052 0.837520 -0.470742 -2.597884 0.460991 0.846529 1.781814 -1.045675 0.885233 -0.062564 -0.483072 0.239792 -1.175006 1.544688 1.095237 -1.370256 -0.052215 0.934488 -2.265301 0.494474 -3.402685 -0.338160 1.918390 0.673119
time -0.772489 -0.085415 -1.607458 1.839141 -0.168856 -0.733554 -1.773075 0.282737 0.695249 0.100189 0.461764 -0.805373 0.049760 0.522275 -1.800329 1.287291 -0.668438 -1.101167 0.139846 0.609935 -0.448247 -0.899737 0.077279 -1.732427 1.397685 -1.825135 -1.126225 -2.587776 0.677654 2.760153 -1.583089 -0.675410 0.178319 -0.312638 -2.439757 -1.122170 0.210202 -1.017357 0.993926 -0.875735 -1.622234 -2.402884 0.277643 -1.072342 -0.231126 0.005712 -2.136508 -1.262430 0.797747 -0.234508 -0.580077 1.001248 0.178873 -0.006000 0.663525 -0.386152 -1.711110 0.622735 -1.777042 -0.226178 -0.270694 -1.109123 0.294070 1.454145 -0.583021 -0.376699 -0.191150 -1.270048 -0.570467 -1.510944 -1.155703 0.081869 -0.601998 1.804932 0.591451 -0.042435 -0.810080 0.029623 1.011082 -0.308351 1.008280 -1.087767 -0.353894 -0.080012 1.125515 0.537382 -1.598534 -0.648766 0.425292 0.984876 -0.948173 3.277164 -0.829277 3.058132 -1.913908 -0.286487 -1.401978 0.255808 1.112223 -1.429712
reported -1.171754 0.507484 0.477749 2.178507 -0.185996 -0.557533 -0.031474 0.380819 -0.294567 1.062170 0.484665 -0.956412 0.345051 -0.576684 -0.883825 -3.183535 1.048921 3.496328 1.193984 -1.304498 -0.758424 -0.265466 0.650967 1.808368 1.736959 0.469838 -2.114831 -1.785445 0.955049 -0.712311 -0.186141 1.000325 0.098857 1.442052 -2.080933 -0.615686 -0.443825 -0.392213 0.502465 -0.124510 -0.668513 1.132783 -0.209778 -2.076412 -0.440847 0.485385 -1.300557 -0.471666 -1.063308 -0.181595 -1.614004 1.032885 1.559141 0.746264 1.905092 0.401731 0.239105 -0.551188 1.716880 1.739986 -3.127427 -1.389686 -1.332024 1.180892 0.487008 1.047987 -0.390186 0.420966 0.366353 -0.047436 -2.515038 -2.498144 -0.379082 1.883602 1.958527 -0.884331 -0.023479 -0.396833 -0.607336 0.803792 -1.557175 -1.656752 0.147120 -0.870309 0.030888 0.842739 -2.844821 -0.068449 -1.052698 2.129895 2.483893 0.289568 -0.848115 0.695874 -0.931931 -1.470656 0.991319 -1.603017 -0.348330 0.112583
world -1.312174 -1.104113 -0.254117 0.664871 0.177722 -1.041413 0.605433 0.661308 -1.913878 2.644795 1.310756 1.719984 -0.513553 1.054772 0.403646 1.002576 -0.739940 -0.820129 1.004274 -0.421143 -1.069613 -0.657840 -0.611821 -1.407797 -0.578337 -1.967088 3.008559 1.176577 -0.235045 0.636855 0.190228 0.444714 0.162730 -1.216798 1.546491 0.152673 -2.479600 -0.623648 0.268686 -0.964961 -0.859899 -0.134391 0.061461 1.135659 -0.624778 0.266614 -0.512406 -1.048883 -1.452291 -1.097570 0.197420 -0.636232 0.923948 0.920918 0.569653 0.408686 -1.154348 0.657962 -0.611756 -0.919399 -0.116049 0.857653 1.060122 -0.002888 -0.766225 1.709372 -0.997798 -1.990451 -0.198156 0.507741 -0.622705 0.912897 -0.420132 0.087739 -0.198684 0.157078 -1.220486 -0.555918 -0.522296 1.043783 -0.415924 1.689121 -1.113335 -0.349524 2.516731 -1.372676 3.234606 1.716049 2.052094 -1.983945 0.262394 0.705153 -1.113921 -1.386524 -0.904585 -1.267732 0.329281 -0.329821 0.268368 -1.988464
debt -1.807985 0.387345 0.857009 0.472006 0.402237 -1.076284 2.628800 -1.387893 2.876142 -1.327759 0.894408 -1.447308 0.189309 1.094314 -1.219207 -1.109006 -0.258288 0.185481 1.175977 1.026988 -0.534481 -0.093279 0.237697 -0.510069 0.201585 0.838589 -1.214358 -1.343517 0.971677 -0.136745 -0.709865 -0.034053 1.979908 0.824951 -2.772325 0.280745 0.447689 -1.512008 1.514701 -0.169626 -1.557332 -0.729999 -0.387707 -0.306637 0.350336 -0.083771 0.415228 0.774944 0.478831 -1.714625 0.922141 1.535083 -1.337983 1.214010 -3.051997 -0.152836 -1.067854 -0.218222 -0.499357 -0.377595 -0.814595 -0.302455 -0.896751 -1.865119 0.685821 -0.139774 1.467989 -0.478671 -0.071246 0.027550 1.068110 0.163251 0.285546 0.239921 0.436776 -0.266944 0.078269 -1.060332 -1.081637 -0.994207 3.443591 -0.649467 -0.712917 -1.562527 0.082367 0.747798 1.230619 -0.747576 0.793352 0.246363 -0.043249 -0.180426 -2.218554 1.539113 1.470316 -0.636364 -3.026761 2.260468 0.025686 -1.412444
record 0.397418 0.805405 0.221494 -0.604247 -1.187733 0.594804 1.835774 -0.073387 0.637516 -0.773361 -0.656993 -2.999702 -0.282663 0.650583 2.859193 -1.887730 -0.239710 0.782178 1.405798 0.471196 -0.081938 -0.465008 -0.123089 0.695737 -1.925706 -1.778698 -1.082373 -1.198627 0.464284 0.818420 -2.520121 -1.075477 -0.009788 0.208493 -2.110508 -0.505838 -1.856077 2.109442 -0.238881 -0.247037 1.294918 0.213555 -1.288466 -0.749966 1.461730 1.393133 1.057633 -0.240000 0.098848 -0.340117 0.744029 0.508058 -0.405964 2.974721 0.724217 3.446614 1.930953 1.421647 0.819381 0.876173 -1.031085 0.790157 0.256155 0.413743 -1.848876 1.660422 -1.653372 -1.437776 -1.614652 1.760066 1.001379 -1.319307 -1.798761 0.690462 -1.096245 -0.670391 0.455491 -2.805057 0.940337 -1.110813 2.111444 -1.057258 -1.538158 -1.382703 0.327100 2.051951 -1.179451 0.300523 0.188369 0.328641 0.262130 -0.902594 -1.626860 -0.323826 -0.487657 0.132423 0.376862 -1.091561 -1.619468 -1.645463
take -0.607501 1.171498 0.208963 -0.072666 -0.845713 -1.748495 -0.128389 0.952199 -0.139937 -0.351153 -1.015527 -0.619559 -0.237877 0.713479 -1.325817 1.428287 1.883156 -0.264389 -1.826198 0.625675 1.101342 -0.338359 -1.050079 -0.541685 1.356013 0.224728 -2.548077 -0.195481 -0.528398 2.477366 -0.189359 -2.149358 0.873516 0.586245 -0.336837 1.190363 0.957925 1.734585 0.099808 -2.716856 0.683953 -1.434353 -0.529681 -1.071686 -0.785623 0.211933 0.815669 -1.124267 -0.785593 -0.478556 1.169272 -0.822523 0.410473 0.548105 -2.000963 -0.689909 -0.597348 -2.162119 -3.659969 -0.350066 -0.045650 0.735618 1.413966 0.891937 -1.559856 0.312458 0.287614 -0.287459 -0.191155 1.811822 1.310435 2.789329 0.703119 -0.777346 0.876891 -0.330560 -0.599385 0.564189 -0.204399 -1.876540 0.930484 0.650696 -0.786941 -1.009637 0.640283 -1.667127 -0.737986 -0.765345 0.491776 0.305262 -2.099576 2.204963 0.682998 0.790978 0.135705 0.072018 -1.979542 1.615676 -0.040345 -0.090481
announced -0.461887 0.501248 -1.081217 0.312756 -0.563030 -1.016828 0.026628 -1.214758 1.221666 -0.612144 0.710468 -0.951482 -0.204622 -1.520911 0.673044 -1.541715 1.430009 3.206416 2.027253 -0.646812 -1.164803 -0.906886 0.944966 1.639367 0.448311 -0.431292 -3.217115 -2.103119 1.583678 -0.139588 0.979105 -2.468159 1.430687 2.969909 -2.860322 0.262130 0.252329 -0.109651 1.030857 0.480288 1.098822 1.067539 0.131868 -1.552425 -0.389040 -0.523868 0.147444 0.144621 -0.982147 -1.065609 -0.259193 0.361975 2.340452 1.768038 -0.551925 1.216445 -1.423635 -1.500887 0.279532 1.821810 -1.612504 -1.951685 -2.452201 0.683493 -1.191238 0.087551 -1.048403 -0.263819 -0.131443 0.329713 0.594064 0.767584 0.204009 0.683016 2.703412 -0.412220 0.407731 -0.530919 0.083133 -0.208684 -0.767874 0.112587 -0.907728 1.182325 -1.682868 1.350929 -3.307188 0.309602 -0.329806 -0.073873 0.941561 0.876498 -2.099592 0.902619 -1.774213 -0.420746 0.573800 -2.202700 -0.150015 -0.246915
unit -1.278639 -0.765137 1.207889 -1.549871 -1.033757 -0.721388 1.003440 -0.632028 0.685397 -0.159170 0.631325 -1.051267 2.744288 0.454607 1.140156 -1.894698 -1.723551 1.487873 1.676151 -0.934912 0.217477 1.048736 2.281168 0.600821 1.038807 0.837519 -2.175392 -0.115980 1.418451 1.291563 2.160992 0.197905 -0.270172 0.916759 -1.345893 1.196848 0.687216 1.411846 0.566662 0.780749 -2.574049 2.098466 -1.680206 -0.250318 -0.875854 0.092814 0.461847 1.136361 -0.336955 1.295150 -0.462639 0.937192 -0.578368 -0.723030 -1.200655 -0.129118 -0.043264 -0.828302 0.979868 0.926742 -1.646162 -1.083984 -0.910351 0.262011 -0.613856 0.032937 -1.068649 -1.573788 -2.323593 0.886775 -1.070452 -0.296669 1.082586 -0.618937 -0.569119 0.219950 -0.374704 1.623525 -0.614570 -1.319627 -1.624091 1.182076 1.328747 1.099623 -0.105053 0.074573 1.157980 0.208703 0.041233 1.173536 1.019430 0.849806 0.434167 1.109897 -1.592565 -1.496781 -0.207802 -0.073159 0.450468 1.424070
down 1.925314 -0.976078 -0.879601 0.715885 1.888639 1.874971 0.023446 -1.722542 -1.018032 0.780472 1.534165 0.373143 -0.882597 -0.213330 -1.700483 1.097590 -0.176621 -0.582261 0.590302 -0.256410 0.133216 -1.823877 1.303679 -0.101757 0.095645 -1.292337 -0.707236 -1.765983 -0.165245 2.151546 0.260740 -0.301799 0.385389 -0.719852 -0.559419 -0.029983 -1.379936 -0.669662 0.458588 -0.644673 -0.166813 0.365808 0.831400 -1.644124 -0.465548 -1.266723 -1.639302 -1.707759 2.003999 -1.538501 0.742003 0.926636 -1.363895 0.385509 1.823138 1.325211 -0.426318 -0.587345 -0.830153 -1.325156 1.753871 -1.082065 -1.264130 -1.925142 0.766639 1.410245 0.519584 -0.572382 -0.235057 0.064473 -1.882453 -1.249843 -1.536890 1.067186 0.033054 -0.490743 -1.437376 -0.968114 1.257242 -0.408817 -0.084944 -2.728191 1.279920 -0.315045 0.163388 0.795053 0.173326 0.568167 -0.251963 -1.420924 0.778455 -0.296870 -1.777145 1.598764 0.211359 -0.737172 0.317373 1.011584 -0.586455 0.071266
assets -2.092267 -0.318890 2.336974 -0.886143 -0.415854 -0.475637 1.021108 -3.287247 2.319401 -2.649007 0.234742 -3.620504 2.415793 1.819433 -1.648924 -1.215275 -1.041802 0.731288 3.229597 -0.310516 -0.355335 0.237541 1.580725 -0.272631 1.094614 1.217295 -0.980919 -1.675971 1.293004 0.567505 1.178767 1.635743 0.333871 0.346859 -2.348285 -0.788693 0.003481 -1.623411 0.091078 -0.584927 -1.639180 0.592864 -1.340087 -0.145712 -0.673618 0.102126 1.654261 2.118307 -0.481373 -0.090178 -0.287831 0.767015 -2.135670 -0.657374 -0.985268 -0.416854 2.064675 -1.868147 0.638150 0.913540 -1.152268 -1.879936 -0.804683 -0.212293 1.490074 0.825536 1.000411 -0.965489 -1.321099 -0.337076 -0.299989 0.110202 -0.438747 0.200903 -1.345197 0.106422 -0.860444 1.606207 -1.124080 0.045767 0.894439 0.539495 1.605720 -1.528617 2.282428 1.300009 0.203330 1.515172 0.153303 1.198850 0.817067 0.325327 -0.995746 1.908005 -0.376196 0.072141 -1.350892 1.800570 0.136936 0.411077
out 0.317476 0.326574 -1.972211 -0.473519 -0.067630 1.004794 1.261850 0.184288 -0.056995 -0.023033 0.382273 0.664401 -1.060351 0.597523 -0.452309 1.057160 0.780915 -0.742150 1.348352 0.491664 -0.881923 -0.402836 -0.229120 -1.099558 0.210693 -1.070568 -0.217362 -0.367482 1.672280 1.344895 0.079451 -1.369261 0.073224 0.628526 0.026814 -0.766508 -0.073523 -0.268411 0.529755 -0.438678 -0.079917 -1.767398 0.398541 -0.981813 0.168208 -1.672488 -1.837836 -0.600236 0.331087 -0.436554 1.174228 0.086553 0.310691 -0.361166 0.488655 -1.054238 -1.048594 -0.505909 -1.480368 -0.034534 0.197313 -1.680841 -1.151491 0.996633 -0.129875 -0.663924 0.415185 -0.194772 0.914605 0.529633 -1.142527 1.333285 1.500534 -0.445969 0.839056 -0.974766 -1.838252 -1.000794 0.268425 -0.349963 0.027351 0.059948 0.184556 -0.838871 -0.306244 0.294763 0.512342 0.477731 -0.390580 -0.424282 -1.774408 0.085099 -0.669401 1.507257 -0.423040 -0.027922 -1.132038 1.141348 0.018379 -0.683209
his 0.534317 0.551653 0.026159 -0.172668 1.709028 -0.043942 0.657874 1.654634 -0.064165 1.133333 0.208937 1.215302 -1.601771 0.414328 -2.758705 -0.444847 1.406299 0.148680 -1.242327 -2.095629 -1.196996 1.246306 -0.741068 -1.848298 1.790946 0.309340 -1.966336 1.065696 -1.334681 0.041612 -1.675935 -1.782663 -1.284159 1.812207 0.720247 0.173099 0.200297 0.867421 0.707646 -0.489788 0.062298 -1.517812 0.869908 0.055504 -0.098928 -0.559867 -1.344101 -1.773274 -0.962688 0.194360 -1.087014 0.463219 1.926855 0.680686 -0.426022 -1.913213 -2.633619 -0.743213 -0.754356 0.929756 -0.774554 -0.789696 0.003418 -0.287308 1.144446 1.687768 0.992274 1.259488 -1.621811 0.158922 1.585883 -0.703243 2.291337 0.736780 2.579116 1.191629 -0.867129 0.068247 -0.892922 -0.531153 -0.112034 0.509122 -2.961988 -0.446917 0.440963 -0.859091 -1.068028 -0.157546 -0.227765 0.149352 -1.880066 0.608998 -0.300903 -0.076786 -0.005652 0.999916 -0.461681 -1.019207 -0.534222 -1.515749
period -0.165927 -0.191860 -1.682715 3.726171 1.409167 -1.095454 -1.256042 0.375159 -1.516876 -1.541918 0.042209 -0.629143 0.550586 -0.128387 0.845286 -2.119284 0.864776 -0.985885 0.797351 -0.953012 0.676107 -0.791455 0.932461 -2.251145 -1.378763 -1.239886 -0.836443 -0.783923 0.067376 1.882293 -0.824107 -0.643638 -0.147249 0.455993 -1.485316 -0.441950 -0.332859 0.281816 0.342209 -2.552212 -0.696595 -0.742496 -1.180067 -1.044958 1.279201 -0.111702 -0.150162 -2.260285 0.073517 0.378966 -0.461137 1.314734 -1.397069 0.629935 1.290817 2.138801 0.343846 -0.536834 0.330390 -0.323820 -0.481026 -0.128535 1.209821 3.238326 -1.378810 1.072634 -1.564307 0.406930 -0.154171 0.377758 -0.857717 -1.859803 -1.797825 -0.063093 -0.338776 -1.337849 -0.416579 -1.483563 1.194970 -0.070085 1.495454 -1.311935 -2.095519 0.771724 1.232385 0.505121 -1.820427 -0.662195 0.145222 -0.805217 0.767779 -0.859362 -0.932516 0.560746 -1.351468 -0.116771 -1.672100 0.056904 -0.534448 0.095416
plan -0.654145 -1.346046 -0.676047 -1.159586 -1.023193 -1.157067 1.637109 0.286491 1.260971 -1.717862 -0.266668 -1.497030 -0.398532 -1.519929 0.222625 1.013105 0.874370 -0.063605 0.563939 0.126335 -2.606218 0.140263 -0.968913 0.079006 -1.173163 0.349390 -0.543615 0.777089 0.242779 0.318394 -0.045269 -2.328880 0.330854 1.235265 -1.498708 0.700451 1.684864 0.699945 0.553238 -0.777240 -0.421760 -1.719459 -0.519660 -1.020377 -1.317091 -0.533992 -0.486466 -0.089291 -0.731512 0.064454 0.594390 0.016515 0.584119 0.822052 -1.496183 -0.344109 -2.254882 -0.291893 -1.187450 0.469462 0.145526 0.348273 -1.305404 -0.584978 -0.088892 1.013494 -0.618675 -0.098213 -0.266902 -0.289777 0.227146 0.499455 1.105981 -1.092918 0.634435 1.634349 -0.470099 -2.090937 -0.683205 -0.976904 1.056641 0.950161 0.646809 -0.015612 -0.172665 -0.483000 -0.783600 -0.444706 0.455645 0.515982 -1.059134 -0.825618 0.025802 1.536015 -1.015625 -0.057424 -1.388270 0.347040 0.857044 0.938815
report -1.545723 -0.923330 -0.358198 0.281222 -1.564960 1.095912 0.142885 1.671345 -1.651341 -1.077683 2.506583 0.551575 0.269269 -3.133046 -0.366248 0.043286 -0.022455 3.001029 -0.971654 -0.760154 0.648006 0.637233 0.489847 -0.863052 -1.613686 1.519896 -1.156404 1.739910 -1.080830 0.331732 0.694447 0.654677 0.288305 -0.171678 -0.714711 -0.836338 -1.153589 0.639048 1.653262 -1.145589 0.018949 -0.081430 0.668078 -0.977552 -2.349120 -0.575915 -0.464262 0.115696 -0.355030 0.430682 1.066931 2.088555 0.722907 1.237486 -0.460865 0.695282 -0.175029 -0.522177 1.626389 1.200409 -2.030270 0.909958 0.825940 0.187100 -1.016664 0.818898 0.577178 -1.327617 -1.481742 0.647218 0.012957 -1.643869 0.777726 0.615059 0.707674 1.604523 -0.419737 -0.468463 -1.616343 0.030903 -0.330571 -0.730688 -0.945947 0.162824 0.539593 -0.135061 -1.618394 -2.017180 1.599156 2.158738 0.367496 -0.276530 -2.062001 -0.270599 -2.644211 0.069040 -0.749334 -1.154578 -1.671828 -1.218917
cut -0.307662 -2.580558 -0.823117 -0.121050 -1.620400 -0.320686 0.909021 0.968056 0.057532 1.533440 1.194228 0.675184 -0.256310 -0.290939 -0.677730 1.145039 1.973435 0.780325 -0.415269 0.599670 0.150559 1.205225 0.460321 0.014842 0.341227 1.925817 -1.298490 -0.465219 0.769382 1.198978 0.880203 -0.378925 2.701252 -0.625448 -0.265098 0.495651 -0.820166 0.300182 0.544690 -0.940062 0.971208 -0.086730 -1.065302 -2.591651 -0.876685 0.227727 -0.042889 0.135282 -0.290090 -2.256360 1.660556 -0.025659 -0.780199 0.292883 -1.106367 1.607134 -0.333111 -1.462034 -0.671189 -1.329993 0.215152 -1.316131 -1.438274 -0.786801 -1.702010 -0.345352 -0.251690 -2.039903 -1.194455 2.059646 -0.232326 1.505348 -0.352687 0.430917 1.076083 0.360229 -1.692204 -0.465857 0.705835 -0.046320 1.567440 0.053853 0.601346 0.926350 -0.161509 -0.709975 0.281124 -0.458910 0.913540 -0.884367 -1.134054 0.951948 -1.198906 0.646154 0.137500 -1.266698 -0.053806 0.087756 -1.672537 -0.285135
sell -1.295990 0.440337 -1.357818 -1.864655 0.211440 0.912880 1.358740 -1.062605 0.627832 -0.952230 -0.034589 -0.139634 0.654537 -0.461627 -0.654580 1.552210 -0.368059 1.027201 0.426533 -1.948251 2.365826 0.111343 -0.492683 -0.553893 3.539299 1.945497 -2.216617 -1.402987 1.272448 0.452330 1.804162 -1.419083 2.052275 0.284221 -1.623426 1.306983 1.090099 0.235361 0.039699 -0.272962 -0.888093 0.799316 -2.294061 0.207264 -1.066167 -0.115467 0.657395 1.455810 1.360055 -1.115210 0.781269 -0.985686 0.619363 0.236840 -4.227018 -1.792762 0.737858 -0.483695 -2.158262 2.025965 1.897397 -1.152485 -0.545903 0.650989 -1.415026 -0.077841 -1.641684 -1.667775 -1.071543 2.462531 0.402149 1.450563 1.282727 0.383412 0.288371 -0.234099 -0.267038 1.466364 -0.771126 -3.139087 -1.366918 2.942828 0.017992 -0.729450 0.969199 1.875385 1.020439 -0.430878 1.044896 -0.316014 1.080124 3.418121 -0.713777 0.006312 -0.731764 -2.450318 -2.569990 1.348271 -0.841772 0.968045
lower -2.051395 -2.941611 -0.924668 0.096034 0.043054 1.999308 1.890690 0.950351 -0.032551 1.413844 1.284342 1.637729 -0.622730 0.418730 -0.211839 -0.282853 1.245819 -1.024732 0.552211 0.016003 0.614206 1.704463 1.125533 -2.148057 -0.036130 1.410520 0.685307 -1.011436 -1.228816 0.930773 -1.691733 -1.590218 0.732947 -1.178060 -1.096369 -1.247265 -0.066452 0.254739 1.757365 -1.076885 -0.980885 0.743990 -1.725302 -1.270314 -0.084022 1.352845 -1.778625 1.169977 0.912004 -0.010346 0.632166 0.701756 0.111900 0.601553 0.706683 1.476978 1.264281 -2.005891 0.362131 -2.184148 -0.789819 -2.787932 -0.752416 -1.062995 -0.027389 1.521222 0.370153 -2.059265 -2.468833 -0.036238 -1.330800 1.724532 -0.352179 1.361801 1.248236 -1.940355 -0.419273 -1.561793 -0.454533 1.172386 -0.728301 -0.836318 0.683489 1.220942 0.874808 -0.630610 0.163728 0.865973 -0.480765 -0.687433 1.062415 0.579122 -0.779906 0.833444 -0.598122 -1.733562 -0.131293 -1.651646 -0.098430 0.282646
trading 1.370976 1.251106 0.634667 0.930087 -0.386795 0.904183 -0.875744 -1.071741 -0.300030 0.658274 2.004259 -1.057987 -0.377324 2.086357 -0.090517 1.493497 -0.500441 0.458399 0.669938 0.210504 -0.755992 -0.828851 1.811334 -0.613877 1.728331 -1.966388 0.163367 -0.187331 -1.215397 0.243432 -1.783635 -1.491866 0.258694 -1.000818 -0.061830 0.123172 -1.022813 -0.506617 0.139785 -0.877773 1.167616 -0.291313 0.880674 1.492225 0.304623 0.238643 -0.423179 -1.143042 -0.845655 -1.973335 0.059425 -0.361713 -0.693715 0.409240 -0.789131 0.214726 -0.232545 0.501965 -1.203621 -0.418388 0.501619 0.093235 0.695214 -1.545046 1.385200 -0.591655 1.396746 -0.358985 0.026209 0.957797 -0.022115 0.239561 0.268085 0.619556 -0.264565 0.442437 0.003457 0.577681 -0.735753 -0.577473 -1.185442 -0.638346 -1.278051 -0.746696 0.947158 -0.805822 1.486688 -1.207702 0.243620 -0.708854 -0.683773 2.190524 -0.080508 1.450905 -1.495175 -0.918121 -0.774392 0.382570 -0.189507 -1.965677
economic -1.485660 -1.927645 -1.683415 0.567607 -1.502852 -0.197742 0.516074 1.577823 -1.355688 -0.190179 -0.035444 1.825718 -2.261441 -0.391927 -0.328405 2.040848 1.467821 -1.013031 0.375168 0.989343 0.273490 0.444388 -0.507561 -1.696075 -0.878097 1.068170 1.817623 0.220673 0.244665 0.529999 -1.521083 0.403967 0.383283 -0.789362 -0.303559 -1.839851 -0.385846 -0.123343 1.103898 -1.654327 -0.943458 -1.796765 0.306010 -1.543735 0.572016 -0.367635 -0.670249 1.410631 -2.048901 -0.605020 0.587860 1.484097 0.403734 2.297769 -2.413392 1.382599 -0.993982 0.291587 -1.174163 -2.601470 -0.920957 -0.078060 2.418210 0.334791 0.964653 -0.302875 0.063938 0.181613 0.102958 0.212855 -0.803475 2.465001 2.705630 1.264980 -1.770792 -0.401455 -2.004700 -1.475668 -0.573278 0.631239 1.208609 0.986296 -2.850761 -0.528416 0.534474 -2.574506 -0.428652 -2.174352 2.269912 -0.606020 -2.962650 -0.220132 -2.301793 -0.305779 -1.109119 0.542301 -1.773863 -1.419863 -0.522512 -1.313039
income -1.753479 -1.234794 0.426700 1.411006 -0.561119 -0.139689 1.070290 -0.223392 1.838040 -2.318910 1.053066 -1.991211 1.274867 0.108394 -2.521223 -2.255552 -0.539342 0.633534 -0.080404 0.608677 -0.233701 -0.567205 -0.743926 0.935874 0.318601 0.900223 -1.451296 -0.859338 -0.175659 0.702296 0.635699 1.317597 1.095868 1.336877 -2.031452 -1.362103 1.313792 0.764548 1.222128 -1.810164 0.556606 0.735510 -2.328897 -4.210853 -0.259676 0.443264 0.026862 2.717712 -2.117724 -0.413353 -0.250130 0.682600 -2.306051 0.484727 -0.280452 1.868407 0.988511 -1.251143 2.858607 1.018279 -1.575156 0.478622 -0.599783 -0.525635 1.613328 2.454671 -0.117688 -1.189021 -1.165439 -0.958317 -0.025335 -0.613036 -1.045738 1.255961 -2.645051 -0.951381 0.026880 -0.340285 -1.110633 1.926153 0.830349 -0.061758 0.829925 -0.957195 1.976240 -1.739965 -0.075579 -0.413047 0.855626 2.660043 1.079499 0.373180 -1.978669 1.886578 1.199214 2.064458 1.249161 -0.402840 -0.435437 -1.180082
day 1.626242 0.973350 0.240089 0.907950 1.684359 -1.931317 0.376509 -0.921680 -1.027627 -0.411041 2.441131 -0.983893 -0.557177 -1.060228 1.898253 -0.158696 -1.302263 -1.204718 0.326940 -0.035417 -1.538119 0.137291 1.337337 -0.830552 0.216906 -1.375482 -0.957405 -2.300991 1.120616 1.136409 1.012412 -0.361737 -3.103578 0.338989 -0.418751 -0.295267 -1.877483 -0.276033 -0.392544 -1.440530 -0.836156 -1.253675 1.050680 -0.359150 -0.664246 -0.250037 -0.784777 -1.895483 0.803026 -0.740410 0.082867 0.247121 -1.994575 -0.505847 1.245179 1.596068 -3.085965 1.472794 -1.942203 0.525018 -0.270487 -1.303707 0.589010 -0.604170 -2.640656 -1.364920 -1.363183 -0.660997 -0.302043 -0.408152 0.542892 -0.412705 0.599398 -0.508580 1.697754 0.758992 -0.536708 -1.355893 1.999076 0.615396 -0.528297 -3.276436 -0.311262 0.392649 1.245358 1.796717 0.890163 0.998084 -0.391808 -0.193033 0.772037 1.587461 -0.736998 1.977430 0.989460 -2.662762 0.496184 0.823594 0.108784 -2.921322
eight -0.999134 0.439251 -0.095206 1.299790 -0.618342 -1.198982 -1.136949 0.786490 -0.080457 -0.519400 -0.984240 -1.477742 -0.319505 -0.487075 -0.287445 -1.543220 -1.180452 -0.263891 0.813208 -0.537380 -0.847718 0.069529 0.805178 0.683197 0.358089 -0.452025 -0.755686 -2.068788 -0.592625 1.709369 -1.445903 -0.748271 0.097956 -2.333920 0.680249 -0.241289 -1.132252 1.092492 -0.721557 0.859527 0.687917 -1.699501 -0.320252 -1.072128 -0.925526 0.970237 -0.330702 -0.626530 -0.716489 1.324477 -1.391176 0.244595 -0.698636 1.483617 0.573879 1.075462 -0.844829 -1.313507 -1.114604 -1.268309 0.466224 -1.506866 -0.237988 -1.431938 -1.573701 1.562521 -0.875028 0.414860 -0.080827 1.132984 -0.157150 1.036653 -0.503712 1.230769 0.384623 -0.391737 -0.360939 0.741558 -0.152334 -0.031753 -0.380531 -0.189206 -0.735369 -1.365328 0.610083 -1.565913 -0.248790 -1.657429 0.062455 -1.256403 1.582735 1.886642 -0.667507 0.056092 -0.625174 -0.379933 0.278346 -0.321851 -0.485178 -1.005051
sugar 2.314144 -0.148162 -3.897036 0.295577 1.240858 1.213889 -0.225962 0.540622 -1.755097 -2.461108 2.141177 0.380737 0.802699 -1.956843 0.497297 1.975595 -0.884576 -1.299823 0.942373 -1.654062 0.164924 0.069712 -2.200729 -2.850394 -0.560423 -1.648803 0.736629 -0.415967 1.682423 1.530264 0.710665 -1.441828 -2.176618 1.503159 0.953824 0.525543 -1.108247 0.820001 -1.869935 -0.634330 -0.475750 -0.008416 0.092799 0.791241 1.475951 -0.043770 0.742913 0.247997 -1.549295 -2.398477 0.978355 1.524881 -1.002218 -0.408166 2.584470 0.332220 -0.930846 0.270984 -1.873868 -0.688305 0.584348 -1.515026 -2.291768 1.708979 -3.562802 0.981132 -1.815535 -0.519719 -1.565691 0.454686 -1.986383 -1.363518 0.046883 -1.017958 0.234030 1.133404 -0.803631 0.233287 1.232722 -0.426414 -2.636308 0.185418 -1.535632 0.038423 0.325070 -0.383874 1.766163 1.009513 1.400143 -2.361677 -1.298370 1.546073 -1.853113 0.724148 0.984335 -0.421477 0.590978 -0.781249 -1.498881 -0.420428
credit -0.205143 0.158281 0.105597 0.401945 0.297309 -1.663204 0.003843 -0.570403 1.852891 -2.047139 1.659864 -1.136159 0.077614 0.125847 -0.221282 -0.825546 1.755485 -0.876398 1.304727 3.272329 -0.386004 -0.910036 0.093043 0.646861 -0.302193 0.461909 -0.768813 -1.294627 0.790445 1.255686 0.783848 -0.472239 -0.811326 0.003472 -0.408601 1.159091 0.314470 -0.679685 1.049754 -0.610104 0.194683 0.309613 -0.154989 -2.044917 1.243546 0.100274 0.454684 2.245331 -1.817468 -0.842811 0.981956 1.313762 0.083143 0.469457 -0.571334 0.524895 0.058043 -2.352242 0.168579 -1.337436 0.816762 1.334196 -0.956010 -1.756547 1.301762 -0.715615 0.829824 1.083161 0.091976 -0.260255 0.616860 1.581152 0.288321 -0.605892 -1.768111 -0.416974 0.170713 0.410885 -0.759811 0.703518 0.552437 1.129970 0.738393 -0.430736 -2.184080 -0.079088 0.302185 1.059700 2.110323 -1.103417 -0.495391 -0.979415 -1.612788 0.043427 1.225804 1.495373 -1.913549 0.229626 -1.173886 0.090937
acquire -0.460579 0.245444 0.256685 -1.731333 -0.629772 0.542186 0.758454 -0.732396 0.762703 -0.883141 0.364187 -1.068842 1.333601 0.330989 -0.338765 0.813553 0.636590 1.007629 1.932084 -0.271384 2.335936 0.033080 -0.016787 -0.673891 3.613747 0.970690 -2.779121 -1.299996 0.451838 1.218415 1.275301 -2.555151 0.115493 -0.503293 -1.081448 1.453794 2.440377 1.676972 0.217255 0.491034 -1.434274 0.339238 -2.286997 0.728926 -1.022510 0.054717 -0.031616 -0.608576 0.999086 -0.233606 0.388268 -0.934166 0.469915 -2.123461 -3.986210 -1.432601 0.095583 -1.673087 -0.025483 1.676684 1.831527 -0.496793 0.152625 0.138507 -0.723054 -0.944985 -1.641557 -0.461776 -1.216370 2.918626 2.001723 1.064491 0.632369 -0.396935 1.582452 0.586953 0.172421 2.258778 -1.109541 -3.680761 -0.735739 1.669322 0.582688 -1.926219 1.165865 0.783488 0.462061 0.798016 -0.260864 -0.182713 1.309945 2.043854 0.905339 -0.521139 -2.040118 0.564791 -2.610556 1.259384 0.267644 0.622189
term -0.857492 -0.175773 0.873319 2.169716 -0.525640 -1.668632 0.231586 -1.908054 2.275906 2.509074 1.252350 -1.533557 -1.700964 -0.010886 0.298188 -0.128386 2.510111 -1.050033 -0.231898 1.246171 -0.006770 -1.224169 1.102439 -1.414012 0.629511 -0.146654 -3.000638 -1.988785 -0.968203 1.861768 -0.182694 0.425771 1.044858 1.284342 -0.416866 -0.591496 0.094477 -1.120571 0.351197 -1.024225 -0.698693 2.596030 1.021833 0.750810 0.209705 2.029397 -0.282319 3.941499 1.136311 -1.717402 2.262017 2.541181 -0.782295 2.147811 -1.324981 -1.094407 0.111469 1.077562 -1.517488 -2.023777 0.210305 -1.721870 -0.310309 -0.848670 2.839334 -0.589974 0.981756 -0.689660 -1.195798 0.278915 -1.018960 -0.001003 0.236459 -0.622310 -1.676373 -2.518436 1.003711 -1.227117 -1.119572 -0.673869 3.345911 -1.611687 -1.197721 1.234879 -0.823312 -1.107032 1.613321 -1.152949 1.774390 0.730556 0.311862 0.484322 -1.878998 2.072965 1.157424 0.166720 -4.450191 0.771084 0.741954 -0.140329
capital -0.376351 0.439889 1.368173 1.632260 0.730306 0.998063 0.133124 -0.124264 1.892693 -1.031644 -0.011585 -1.502650 1.197273 1.041867 -1.238087 -0.514891 -0.812539 0.289927 1.415418 2.601373 0.317136 -0.109566 -0.474228 -0.365410 0.976284 0.239739 -1.564610 -0.188514 -0.461963 0.596849 -0.490620 -0.518333 1.716299 -0.259808 -0.268530 1.664099 0.440339 0.774790 -0.532114 -0.355096 0.623344 0.141943 -1.155948 -0.705800 1.399191 0.677415 1.399110 0.378886 -1.357214 -1.124295 0.268188 0.281445 -0.473940 0.680977 -0.253166 -0.301621 -0.100353 -1.863738 0.104705 0.209196 -0.134505 -1.283257 -0.335780 -1.093996 0.023749 2.145799 0.097566 -1.677312 -1.620708 0.440011 -0.246766 -0.660734 -0.479706 0.674869 -1.975984 -0.431933 0.210463 -1.017048 -1.329484 0.736281 1.672341 0.999642 0.172005 -0.922891 0.565128 -0.719825 0.941227 -0.920530 1.868254 1.038013 -1.342471 0.738941 -0.530791 0.816483 0.015293 0.042020 -1.254663 0.447495 -0.348318 -0.568861
set 0.958683 -0.523679 -2.405720 1.436589 -1.213986 -0.688339 -0.109573 0.201691 0.711534 -0.551186 0.593899 -0.864986 -1.584031 -0.133543 1.155415 1.010853 0.235315 0.280166 0.718602 -0.799460 -2.198488 0.343420 0.609406 0.530564 0.149517 -1.522471 -1.074929 -0.854968 1.600870 0.609329 -1.795638 -1.963025 0.284201 0.628010 -1.134394 1.713658 -1.359577 1.959710 -0.727343 -0.400561 1.288567 -0.661965 -0.360424 -0.005616 -0.310070 0.328354 -0.773700 -0.126949 -1.483388 -0.108019 1.285151 0.633044 -1.610537 0.625374 1.253607 0.834561 -1.117830 0.228413 -1.516582 -0.941117 0.676308 0.203935 -1.401300 -0.397639 -2.488661 0.251296 -1.353449 -0.779495 -2.184444 1.500410 1.223409 2.033108 -0.145355 0.419360 -0.533024 0.013293 -0.584543 -0.763596 0.798338 -0.888160 -0.392335 0.516128 -0.212487 0.855390 0.086427 -1.470492 -0.600463 -0.582978 -0.039270 -0.324236 -0.828137 0.732604 -1.602609 0.218663 -0.799540 -0.765933 -1.067605 -0.274577 -0.224637 -0.783243
can 0.047266 -0.415892 0.561812 0.959654 1.170350 0.442037 -0.625760 0.759753 0.521316 1.357769 1.270909 0.298754 -0.466638 0.499006 -0.023027 1.990516 0.132155 -2.712843 1.879570 0.893639 0.919805 1.910622 -1.887873 -0.349595 -1.282723 -1.691770 0.521653 0.395797 1.773724 -0.791931 -0.857863 -0.187169 1.486911 0.092294 0.999427 -1.114281 2.835600 0.162033 0.476321 1.125976 -1.670941 -0.443419 2.424250 1.461530 -0.193368 2.317644 0.448995 0.694348 -1.485181 -0.931382 0.600810 0.186585 0.527189 0.350025 0.541685 -1.710351 -1.442389 0.739522 -2.389174 1.536825 -0.239783 -1.823583 -0.779805 -1.569380 -0.133435 2.003467 -1.310863 -2.212622 3.816529 -0.620034 -1.752249 0.944201 0.592557 0.736371 0.914605 -1.750183 -0.539968 -2.690557 1.145290 0.235136 1.994199 2.511370 0.931328 -0.714753 -1.340824 1.203274 1.110476 -0.269606 -0.355443 -0.201500 -1.813185 0.710852 -1.500701 1.283432 0.458642 -1.503835 -0.565450 0.783122 3.808998 -2.343287
part -2.474402 -0.745149 -0.748420 0.082441 0.469427 -0.724879 2.142991 -0.616299 1.170011 -1.503312 0.552072 -0.689815 0.329051 -0.037963 -0.080654 -2.204714 -0.788064 1.222705 2.124594 -0.585341 -1.011241 0.274620 0.477798 0.145476 -0.454180 -0.139611 -0.381589 -0.457357 1.343017 0.114041 1.211400 -0.846066 0.762514 2.056014 -1.374494 -1.069946 -1.146364 -1.492623 -0.255165 -1.572537 -1.129770 -0.244149 -0.265438 -1.297062 -0.311485 -1.529145 -1.454669 2.108107 -1.107052 0.147420 0.270770 0.785944 0.674552 2.060181 -1.873984 -0.574162 -0.541817 -0.557977 -1.005606 1.295587 -0.835007 -0.402536 -0.782957 1.586261 0.240686 -0.428981 -0.428367 -0.244354 0.253336 0.815969 0.146118 0.736383 1.213571 -2.292691 0.745349 -1.069148 -0.999185 -1.244084 -1.280100 -1.486873 1.760536 2.106192 -1.074290 -0.406000 0.301998 0.707634 0.307875 0.322197 -0.405729 -0.597916 -0.981357 -1.071876 -1.678437 1.967118 -1.012697 -2.092425 -2.009861 -0.594933 1.152329 0.120104
same -0.380535 -0.621060 -0.345653 2.975704 0.611834 0.327683 -1.566648 -0.740556 -2.414431 -0.482645 -0.593847 -0.516339 0.991703 0.131681 0.160331 -0.203641 0.224683 -0.441708 -0.881978 -0.686916 1.363271 -1.432114 1.861453 -0.296289 -0.757996 -0.556182 0.980593 -1.022543 -1.350841 1.661873 -1.633780 -0.000345 -0.739609 0.155850 -0.953536 -0.009386 -0.021652 -1.092429 -0.820014 -1.712454 -0.393139 1.083389 0.211541 -0.990815 1.144302 0.438874 -1.357239 -1.396329 -0.690208 1.131165 -1.018714 -0.136910 -0.389881 1.421148 1.561592 1.101946 -0.686889 -2.985163 -1.279031 -1.445048 -0.368851 -1.518737 -0.033038 0.764298 -0.532916 1.629561 -0.634329 -0.108451 0.051910 -0.207412 -1.418984 -0.314103 -4.055258 0.007422 0.092351 0.392536 -1.296844 -2.119087 0.176908 -1.601688 1.672403 -0.613418 0.692271 -0.105529 1.274621 -1.484441 -0.245184 -0.233260 -0.861066 -1.281209 0.908449 -0.228953 0.195027 0.471035 -0.383741 -2.167232 -0.697112 -0.550198 0.904222 1.136231
purchase -1.277394 -0.563972 -0.027911 -0.423094 -0.597202 0.325573 0.353120 -0.627409 0.679598 -2.307374 1.103709 -1.929453 1.444371 -0.078558 0.980576 -1.174139 -1.619521 1.607260 1.422608 0.964472 -0.421933 -0.528669 0.766813 -0.451732 0.677740 1.198164 -0.841413 -0.038176 -1.172859 1.094639 1.722801 -2.596190 -0.453766 1.489399 0.124359 0.987552 2.148228 0.839770 0.430833 0.029279 -0.720243 0.891561 -1.591912 0.815007 -0.664229 -0.328415 -0.764386 -0.992590 0.403161 1.401924 -1.131493 0.433489 0.190938 0.077002 -2.186650 -0.391802 -1.090452 -1.505404 -0.326757 1.179267 0.510044 -0.858998 0.021209 0.033794 -1.448034 0.248732 -0.759118 -0.769829 -0.522123 1.603030 0.571392 -0.026553 -0.385881 -1.733655 1.084964 0.545289 -0.779979 0.666908 0.423355 -2.650231 -0.667542 0.649819 2.151576 -0.370156 1.232565 0.924058 0.869144 1.981091 -0.293780 -0.151111 1.407552 0.860132 0.543359 1.128839 -2.139264 -1.436020 -1.689027 1.129358 0.907559 0.330706
crude 0.601843 0.181382 0.926418 -1.052839 0.410876 -1.381410 -0.379940 0.402520 0.591022 0.193669 2.072809 0.761546 -0.389477 -0.143524 -0.104050 -1.196105 -2.949082 1.620414 -0.926496 -1.742056 -0.339929 -0.026378 0.175290 0.069161 0.234819 -0.237391 0.544707 -1.326362 -0.101693 0.483854 0.501429 -0.172890 -2.054996 0.088260 1.514140 -0.312814 -1.340517 0.055131 0.917226 -0.973428 0.688271 0.134143 -1.845273 1.587622 -1.299034 -0.103034 0.014293 1.091421 0.816149 -0.006171 -0.374509 1.183982 0.028790 2.227113 -1.284158 -0.014663 -0.495018 1.653913 -0.774649 -0.087868 -1.043724 -1.324424 -1.118785 -1.269100 -3.112052 1.305625 -0.215520 -3.330271 0.125434 0.119012 0.091519 0.692905 -0.107196 1.626688 -0.370969 0.188938 -0.937124 -1.249324 1.805243 -0.278641 -3.767062 -0.127089 -0.640552 0.756012 -0.055664 1.276448 2.526543 0.100804 0.306114 1.004758 1.587013 0.160345 -2.534297 0.426301 -1.389896 -1.489769 2.086177 1.333534 -0.148088 -1.073115
seven -0.102383 -0.026335 -0.032063 1.204134 0.014745 -1.607122 -1.100988 -0.086465 0.103586 -0.684503 -1.481734 -0.945816 -0.189085 0.280938 -1.591006 -1.372951 -0.868766 -0.338960 0.685635 -1.215576 -0.286125 0.457210 0.786861 1.044263 0.491448 -0.558188 -0.309974 -1.822953 -0.517300 1.534382 -1.122663 -0.504693 -0.177141 -2.497816 0.672483 -0.015022 -0.731482 0.140290 -0.732214 0.864831 -0.399451 -2.090519 0.160956 -1.357947 -1.243554 0.899021 -0.310559 -0.130821 -0.476613 0.543303 -1.334074 0.498876 -0.445010 2.003202 0.088166 1.348133 -0.607781 -1.626161 -0.921803 -1.237710 0.617664 -1.372132 -0.448447 -1.115167 -0.785134 1.501524 -0.279868 0.054834 0.433486 1.066041 -1.046785 0.727118 -0.278582 0.895858 -0.088144 -0.976933 -0.627350 1.550067 -0.500336 -0.510658 -0.737432 -0.509946 -0.980358 -1.601079 0.817143 -1.616343 0.028763 -1.840382 1.018227 -0.787906 1.338144 1.128084 -0.359802 -0.110109 -0.678398 -0.278649 -0.311650 -0.082626 0.176360 -0.174091
increased -0.492912 -1.962234 -0.652813 0.297164 0.354244 1.295846 -0.402760 0.602516 0.130900 0.730760 -0.000108 -0.425428 0.465885 -0.191904 -0.368417 0.091822 0.444082 0.439904 0.667344 -0.010667 -0.557485 -0.436451 0.798291 0.213175 0.465198 0.217946 -0.406327 -0.341468 -0.128443 0.065192 0.443116 -1.542217 2.559381 0.278377 -1.491658 1.012311 0.026670 -0.849807 0.419751 0.366078 -0.332953 0.693140 -0.491927 -1.184503 -0.804453 1.036139 0.764491 -0.044749 -0.259640 -0.423073 0.253099 1.422997 0.348155 1.185088 0.138418 1.236496 0.315190 -0.447385 0.979340 -0.797083 -1.065380 -1.894850 -2.077987 -1.549124 0.359101 1.120114 -0.143017 -1.997939 -1.696666 0.322466 -1.754534 -1.522371 -0.900097 2.226276 -0.266774 -0.060680 -0.826326 -0.941276 0.372739 0.002953 -0.585926 0.301932 1.147898 0.132604 0.663864 -0.227961 0.593401 -0.770968 1.495172 -0.489642 -0.267278 0.452478 -0.145339 1.104369 -0.737477 -1.325212 0.152297 -0.291736 -0.152498 0.509101
president -0.926164 -0.081176 -1.622641 -0.234596 -0.820239 1.242587 -0.372822 1.718931 0.746591 -1.854355 -0.006402 0.036183 -0.451427 0.387788 0.241478 -1.542506 0.876401 3.513554 -0.718498 -1.748816 -1.169052 2.953788 -0.791605 -2.116682 -0.165549 -0.491127 -0.892381 1.793559 -1.048229 -1.068796 -2.226795 1.617827 -2.615445 -0.455517 2.644711 -1.111514 0.326100 -2.110909 1.373624 0.799660 -1.353903 -1.080459 0.401720 -1.146284 -1.171451 0.132566 -2.666148 0.965658 -2.335202 0.842417 -1.733862 0.648150 0.517145 2.000194 0.645151 -0.262420 -0.006375 -0.142393 1.049089 3.060874 0.089637 0.798100 0.983427 4.004521 -0.894102 -1.427840 0.940189 1.013762 1.658609 1.116972 0.755795 -2.451666 1.885317 -2.052809 2.205255 1.153560 -2.228941 2.141694 -0.738345 -1.153862 0.647043 1.311748 -0.553946 -1.407564 1.556499 0.435198 0.069086 -1.153377 0.168415 0.545419 -1.186221 -0.604560 1.446226 0.754962 0.612261 0.787950 0.707961 -0.526575 0.926790 -0.499669
money -0.693998 -0.013087 0.824574 0.944353 1.397117 0.451132 -0.225202 0.619898 -1.361308 0.028305 2.600771 0.052135 -0.699230 1.303761 1.669169 0.237485 0.499192 -0.715339 3.026605 1.968807 3.120895 -0.635501 1.117913 -1.515945 0.417711 -0.426880 -0.689725 -0.163599 1.157700 0.520189 -0.138066 -0.240870 1.013920 -1.365985 0.417483 -0.810994 -2.549502 -0.816160 0.689625 -0.253166 -0.437350 2.159400 -0.716886 0.025522 2.223007 1.221116 0.048375 0.298174 -1.315860 -2.569995 2.827466 2.224186 -0.583887 0.035713 0.640677 0.226079 1.815322 -0.230668 -1.229718 0.284615 0.426800 -1.866052 1.800913 -1.291506 0.344354 -2.384717 -1.830445 0.178243 -3.445323 0.159134 -1.219523 1.550829 0.096349 0.518620 -3.143032 -0.370339 -0.261913 -1.537550 0.094321 0.040120 0.601628 0.818736 -1.744707 -1.575431 -0.766754 0.522351 1.325817 0.714659 1.305770 -0.733302 -1.000420 0.182560 -0.516316 2.246411 0.457573 -0.509740 -2.065398 1.388987 -0.624737 -1.972558
deficit -1.413231 -1.750556 -0.427278 -0.613569 -0.338263 -0.232438 0.521979 0.151391 0.553342 -0.888126 -2.527642 -1.366708 0.620881 -0.188377 -1.236172 -0.554686 0.008865 0.174013 -0.089040 -0.443025 -1.307664 -0.862009 -0.539819 -1.001776 -2.082036 -0.743284 1.311904 -1.298032 2.178636 1.252529 -2.628227 -0.167801 1.794803 -0.568356 -3.200087 -0.174384 -2.380927 0.492009 0.492295 -1.569509 -2.841438 -0.788725 -0.331896 -1.524101 2.691847 -1.473247 0.995722 -1.573395 -1.744387 -0.888545 0.487816 1.185586 -1.541226 1.196224 0.245061 1.234078 -0.113394 -3.069236 -0.991711 -1.974742 -0.169839 0.732103 -0.053146 -2.055751 0.210716 1.358073 1.071112 0.058969 -1.802820 0.121871 -0.104564 -1.377248 -1.902344 1.517027 -2.267523 3.011177 0.525892 -1.404509 1.528760 -0.083480 1.976846 -1.379527 -0.608087 -2.139252 -0.153353 -2.426833 0.200546 0.644390 1.327350 0.753727 -2.359739 -2.600442 -2.629342 0.797489 1.062109 0.195802 -1.980980 1.684941 -2.035942 -1.568180
including -1.108483 -0.153224 0.601999 0.386177 -0.670324 0.467259 1.200549 -1.500040 1.672992 -0.163488 -0.091983 -0.987783 0.008309 -0.289611 -0.663350 -0.078438 0.737070 -0.320110 1.457698 1.724324 -3.089500 -0.502712 1.237210 0.245347 0.073519 -0.677723 0.949628 -1.255019 1.131258 0.035433 0.645786 -0.812490 0.300077 -0.124713 0.099737 1.517171 0.145975 -0.504394 -1.037985 -0.700985 0.031020 0.057026 1.050760 0.107779 0.739848 0.389776 2.609389 1.153650 0.573622 1.150684 1.063907 -0.669834 0.327391 0.461447 -0.443208 0.411969 -1.021302 -0.220465 1.047031 -0.493006 -0.777005 -0.897442 -1.512318 -0.766622 0.323277 0.795910 0.947384 -0.158957 1.145555 1.669920 -0.194499 -0.545569 1.356269 -0.098208 1.815029 -0.977110 0.274300 -0.045396 -0.898167 1.713376 0.624173 0.374627 1.255767 -0.776639 2.059309 0.772477 1.590943 0.048239 0.850871 -0.568238 0.296148 1.370001 0.200735 0.636991 -0.151181 -1.327534 -1.134837 0.512601 -0.060068 0.092632
gas 0.409279 -0.887605 0.635323 -1.030543 -0.846563 -0.996812 0.081438 -1.377135 0.941434 1.493830 1.001848 -0.159410 1.728057 -0.014197 0.349133 -0.498213 -2.620252 0.802721 0.569522 -0.438968 -1.178347 1.315398 0.778314 0.586276 1.136387 0.095518 0.867011 -0.651502 -1.396809 0.604442 1.605819 0.479039 -2.467775 0.757295 0.296521 0.149699 -1.262334 -1.404788 -0.130341 -1.911888 -0.394397 1.806831 -1.234896 2.208356 -2.869379 0.865197 0.659826 3.323169 0.631833 1.209162 -1.029971 0.089152 0.212762 0.876566 -1.171192 -0.227126 -1.313185 1.511460 1.736080 -0.485974 -1.817656 -1.528025 -0.381046 -1.018264 -1.960743 0.430687 1.066898 -3.486857 0.395723 -0.019914 0.021069 -0.449220 1.176178 1.652985 -1.168632 -0.606750 -1.650732 -1.703330 -0.384001 0.903549 -3.483619 1.271520 1.416531 0.396568 2.310377 0.201581 3.388571 1.938627 1.261958 1.504709 0.051977 0.943028 0.735836 0.138104 -1.022120 -2.174632 1.128241 2.222180 0.813127 0.571766
continue -1.255259 -1.246930 -1.234610 -1.354721 0.304436 1.227692 0.965969 0.791037 0.076903 0.253853 0.150740 0.357891 -1.343591 -0.078169 -0.318338 -0.174241 0.004668 0.435965 -1.237191 0.371951 1.526546 0.070353 -1.216043 -1.326010 0.616281 0.847638 -3.046571 0.445345 -1.577235 0.574203 -1.341221 0.554607 0.385067 -0.295273 -1.159978 0.514171 0.631289 0.984482 1.486463 -2.214359 -1.319245 -0.034679 -0.457608 -0.554204 -1.535170 0.458780 -0.200320 1.203574 0.711543 0.424613 1.437618 0.051356 1.194342 2.619838 -1.188087 -1.096583 0.435087 -0.950101 -2.828730 -0.507413 -0.951907 0.535428 1.457539 1.766047 -1.902343 0.533132 -0.413198 -1.250594 -0.348287 3.142590 0.382362 0.707776 1.359820 -0.777647 -0.091573 -1.100477 -1.884606 -0.321138 -0.177516 -0.574010 1.074317 1.329318 -0.802445 0.211103 1.402182 -0.654721 -0.238364 -0.680336 1.218832 1.270484 -0.634405 1.842550 -0.712553 0.822265 -0.840576 -1.621154 -0.235193 1.018476 -0.334684 -0.488853
high 0.663568 -0.907668 0.261907 0.658180 1.112271 1.315003 0.509908 -0.309343 -0.034659 0.813730 1.094381 0.649446 -1.444538 1.670808 0.606930 0.291983 0.097826 -0.749562 0.128637 0.107574 -0.579685 0.637062 1.055508 -0.809242 -0.602874 -0.638640 0.207864 0.509843 -0.218614 0.719119 -0.424824 -0.439242 0.101321 -0.492227 -0.609861 0.248935 -1.377827 0.168665 -0.095573 -1.517774 -0.212272 1.381944 -0.134053 -0.218222 0.416777 0.115898 0.081875 2.069561 0.255218 -0.364367 1.323158 0.524968 0.161699 0.903848 1.867876 0.904844 0.068102 -0.148657 -0.505314 -2.269516 -1.064589 -1.731773 -0.631456 -0.166029 0.452031 1.670750 0.698471 -1.440146 -0.954997 0.916062 -0.792212 0.440227 -0.862939 0.201501 -0.480907 -0.932446 -1.065438 -1.119879 -0.193521 0.674212 -0.057083 -0.176509 -0.346067 1.361747 0.144396 -0.272338 1.433074 0.117516 0.916449 -1.493699 -0.619490 1.143997 -1.098885 0.992801 0.045909 -2.120406 0.436481 -0.752083 0.579125 0.236013
