movie 0.115156 -0.302102 0.500821 -0.187391 0.259672 -0.182457 -0.019127 0.010645 -0.148664 0.406703 0.153485 0.065685 -0.106340 -0.253259 -0.329234 0.080704 -0.047851 0.232152 0.388501 -0.009135 0.309149 0.250417 0.065996 -0.048030 0.027591 -0.219393 -0.144476 0.093349 0.216974 0.222861 -0.190292 0.225389 -0.301612 -0.062830 -0.004372 -0.116223 0.391543 0.057021 -0.126043 -0.123087 -0.077707 0.373852 -0.177434 -0.417377 0.042316 0.130142 0.004487 -0.236498 0.288274 0.007010 -0.277598 -0.490743 -0.017772 -0.027226 -0.059577 -0.219560 0.278264 0.170978 -0.285991 -0.173730 -0.040224 -0.022753 -0.184715 -0.059516 -0.079081 0.432595 0.074769 -0.108002 0.286194 0.053514 -0.139714 0.221155 -0.026690 -0.233255 -0.288638 -0.003639 -0.194272 -0.426610 0.076444 -0.201183 0.053486 0.233666 -0.068280 0.115418 0.319246 0.389113 0.101484 0.216250 0.288447 0.538759 0.104674 0.282326 -0.035430 0.458900 0.208872 0.154856 0.111059 0.225928 -0.301409 -0.063759
film 0.124412 -0.265384 0.572673 -0.150553 0.304740 -0.232821 0.040520 -0.101685 -0.155593 0.444675 0.215335 -0.104335 -0.218664 -0.327234 -0.115474 0.212718 -0.049437 0.186286 0.414332 -0.030332 0.130196 0.453261 0.044179 0.099551 0.043175 -0.278852 -0.109403 0.076722 0.262576 0.339050 -0.022050 0.319607 -0.225663 0.034344 -0.127745 0.001949 0.257874 -0.123841 -0.138725 -0.241687 -0.214493 0.314203 -0.238570 -0.393172 -0.124963 0.214297 0.082944 -0.146978 0.244086 -0.059245 -0.107529 -0.283408 0.057709 0.117925 -0.118036 -0.209288 0.122630 0.166540 -0.275999 -0.299307 0.104220 -0.196767 -0.116957 -0.068515 -0.137401 0.389406 -0.030917 -0.218837 0.185853 0.092564 -0.365770 0.207204 0.030758 -0.244249 -0.219962 0.067545 -0.187809 -0.274084 0.156147 -0.129345 0.121571 0.271882 -0.083492 0.222581 0.168383 0.391364 0.164229 -0.011562 0.299288 0.359547 0.080074 0.346020 -0.019007 0.387216 0.143310 0.204703 0.112085 0.224233 -0.410883 0.011267
his 0.141273 -0.460624 0.270360 -0.206808 0.466496 0.161705 -0.014632 -0.122539 0.229517 0.074688 -0.019953 -0.022185 -0.518095 0.321862 -0.078491 0.197121 0.362633 0.190031 0.408412 0.414938 -0.204069 0.125415 0.201140 -0.614152 0.025014 -0.238726 -0.281062 -0.159274 0.239150 0.229631 -0.293294 0.104587 -0.214734 0.079957 0.224862 -0.047175 0.045411 -0.105364 0.045179 -0.095098 0.348432 -0.017923 -0.269010 -0.182806 0.443330 0.203888 -0.131110 0.209729 -0.443140 0.513975 -0.040202 0.269197 -0.029687 -0.073999 -0.004036 0.024110 -0.109549 0.015638 -0.055814 -0.220156 -0.136529 0.103878 0.314425 -0.139174 -0.205004 0.330627 -0.032208 -0.568864 0.297876 0.134841 0.323089 -0.231281 -0.010092 -0.244803 -0.171559 -0.299678 -0.343356 0.193345 0.263806 0.299022 0.261883 0.097597 -0.033379 -0.098588 0.255568 -0.069238 0.147318 0.234755 0.211387 -0.276010 0.034447 0.128387 0.212097 0.041029 0.027473 0.059140 0.074097 0.308651 0.304377 0.179724
have -0.248399 0.007761 0.515757 -0.093581 0.454699 -0.192259 -0.120363 0.101932 -0.408471 0.285408 0.374001 0.229016 0.211868 -0.163000 0.032352 0.467833 0.130646 0.111106 0.300530 -0.028475 0.161426 0.187644 0.247452 -0.013643 -0.113132 0.091823 0.057278 -0.208577 0.495593 0.370437 -0.190889 0.334888 -0.298738 -0.515795 0.267856 0.047196 0.099588 -0.112250 -0.125815 -0.040080 0.180966 0.277429 -0.664810 -0.345135 -0.079232 0.200550 -0.197671 0.128904 -0.637014 -0.068100 0.354277 -0.074888 0.015240 0.119432 0.173250 -0.005070 0.338782 -0.122417 0.206314 -0.103877 0.054285 0.000756 -0.118936 -0.379051 -0.456667 0.136758 0.132798 0.201389 0.306362 -0.113308 -0.323855 0.057226 -0.041501 -0.222902 -0.204925 0.032984 0.176400 -0.036883 -0.390047 0.238138 0.095687 0.178555 0.077916 0.316183 0.400797 0.215261 0.284394 0.158706 0.223255 0.327615 -0.142818 -0.013000 -0.067190 0.396408 0.386192 0.187640 -0.130205 0.206773 0.078368 -0.462801
be -0.330878 -0.043700 0.211742 0.088413 0.299567 -0.066884 -0.096677 0.031433 -0.093122 0.644553 0.290421 0.422503 -0.057016 -0.141009 -0.319684 0.805637 0.005847 0.146330 0.116745 -0.189442 -0.048414 0.393539 0.103925 -0.116681 0.162528 -0.045359 0.087320 -0.339945 0.545049 0.346838 -0.185593 0.405472 -0.185747 -0.037913 0.289359 0.048844 0.418364 0.027138 0.139110 -0.110216 0.115514 -0.012057 -0.219615 -0.375209 -0.200628 0.366139 0.038005 -0.195500 -0.161783 -0.159798 -0.155604 -0.100879 0.327002 -0.001070 -0.060375 -0.228905 0.200447 0.146139 0.406878 0.216407 -0.062987 -0.264283 0.124220 -0.202643 -0.311871 0.229437 -0.246544 0.117059 0.430919 -0.111430 -0.275443 -0.100899 0.014461 -0.128594 -0.591409 0.084439 -0.106010 0.331783 0.151328 -0.075495 0.063287 0.255700 0.097886 -0.077891 0.042168 0.565617 0.044951 -0.053387 0.370886 0.108939 -0.127572 0.243169 -0.371600 0.326050 0.132314 0.049749 0.153928 0.237732 -0.034211 -0.488394
he 0.217741 -0.161581 0.333083 -0.292396 0.378093 -0.068826 0.190954 0.048007 0.035167 0.224539 0.275921 0.009221 -0.325652 0.387535 -0.186566 0.243159 0.213648 0.290311 0.236691 0.261668 -0.137273 0.054104 0.040306 -0.607562 -0.064683 -0.122936 -0.112366 -0.272780 0.142005 0.395013 -0.229115 0.252799 0.011340 0.167556 -0.012772 0.025716 0.245015 -0.208887 0.492337 0.275512 -0.163703 0.164143 -0.494831 -0.323403 0.321593 0.207723 -0.295470 0.021288 0.093915 0.427086 -0.116554 0.011171 -0.155186 -0.170477 -0.175946 0.017455 0.034313 -0.202667 0.160991 -0.248288 -0.307693 0.192035 0.153275 -0.108476 -0.295672 0.422472 -0.020845 -0.387021 0.013934 0.062929 -0.150027 -0.374572 0.332570 -0.569276 -0.372483 -0.360982 -0.285326 0.167171 0.168317 0.207214 -0.149780 0.203491 0.225460 0.151794 0.234646 -0.117206 -0.018022 -0.159718 0.455189 -0.028043 -0.085252 -0.021459 0.014389 0.172215 -0.249178 0.131193 0.056417 0.558370 0.105173 -0.317444
like 0.069472 -0.359643 0.255597 0.008028 0.339859 -0.006749 -0.061873 -0.027655 -0.080772 0.344319 -0.081321 0.287920 -0.216578 -0.389057 0.000912 0.283539 0.011098 0.172729 -0.133478 -0.150908 0.009388 -0.186928 -0.196762 0.212095 0.111747 -0.048196 -0.275539 -0.017403 0.218972 0.313591 -0.389356 0.268336 -0.619276 0.018961 0.170426 -0.073125 0.021966 0.026426 0.057433 0.261012 -0.010051 0.271158 -0.177113 -0.395958 0.283818 0.296865 0.060239 0.214973 -0.194524 0.004497 0.033568 -0.153616 -0.168039 0.208868 0.143797 -0.010750 0.552232 0.142688 -0.121196 -0.032714 -0.196219 0.151180 -0.197034 -0.597644 -0.447852 0.004307 -0.088430 -0.107873 0.433536 0.176393 0.109747 0.050533 -0.146918 -0.213278 -0.200884 0.129771 -0.212506 -0.166045 -0.231117 -0.006635 -0.134581 0.272151 -0.145632 -0.112156 -0.168385 -0.077918 -0.177724 -0.022935 0.458993 -0.003455 -0.132516 -0.032456 -0.050681 0.291607 0.086982 0.334946 -0.045389 0.146792 -0.148877 -0.056122
her 0.184808 -0.375829 0.816473 0.022846 0.425444 0.348224 0.024297 -0.577664 -0.260356 0.063414 -0.195930 0.357044 0.444532 0.318046 -0.627853 0.256937 0.017838 0.001678 0.314173 0.774569 -0.010662 0.372151 0.004165 -0.392589 -0.124950 -0.427001 0.045827 -0.211473 0.131055 0.023488 -0.336049 -0.023141 -0.400083 0.059355 -0.042679 0.078548 0.127043 -0.017754 0.081580 0.271819 0.287210 -0.066719 -0.041269 0.109973 0.250137 -0.289654 -0.260904 0.217620 -0.518887 0.511331 -0.327633 0.310789 -0.017493 -0.337632 -0.054885 -0.232815 -0.400943 -0.054668 -0.207350 0.032985 0.000390 0.332608 0.311458 -0.092377 -0.132313 0.238978 -0.108509 -0.634603 0.221225 0.086682 -0.100598 0.028334 -0.080499 -0.470725 -0.288022 -0.174557 -0.200714 0.055251 0.328808 0.125713 0.239886 0.390947 -0.096810 0.081548 0.175679 0.291895 0.159361 0.537946 0.352366 0.050337 -0.020432 0.291614 -0.158538 -0.075856 -0.094473 0.060593 -0.216406 0.559157 0.049116 0.214674
about 0.244928 -0.380272 0.150889 -0.525189 0.398492 0.147229 -0.152727 0.301587 -0.456005 0.498735 -0.321492 0.099017 0.055697 -0.196065 -0.417547 0.033683 0.509260 0.196363 0.273266 -0.382338 -0.367125 -0.203083 0.074893 -0.341561 -0.041245 -0.051249 -0.329860 -0.145438 0.487471 -0.094728 -0.231601 -0.067607 -0.104890 0.018410 -0.264839 -0.637877 0.158313 -0.115002 0.135845 0.162119 0.041824 -0.041664 -0.260683 -0.505656 -0.034744 0.113699 0.106021 -0.105386 -0.137526 -0.147392 0.352464 -0.409170 -0.072191 0.034023 -0.057422 -0.473573 0.250495 -0.250125 -0.036991 -0.146567 -0.137886 0.104295 -0.307947 -0.425564 -0.280234 -0.059355 -0.081379 -0.174887 0.161034 0.040929 0.102957 0.304953 0.187337 -0.123565 -0.228815 -0.038379 -0.148775 0.031978 -0.206486 -0.184594 0.217115 0.198050 -0.259147 -0.176461 0.134057 0.097981 -0.200082 -0.241915 0.464430 0.228418 0.092266 0.314366 0.041722 0.026267 -0.296456 0.434240 -0.282362 0.235014 0.259073 -0.252860
out 0.316639 -0.198480 0.288777 0.120698 0.407055 0.119872 -0.173749 0.057211 -0.369784 0.160103 0.253289 0.277243 0.274722 -0.251766 0.112248 0.248909 0.087787 0.304527 0.117552 0.445963 0.352200 -0.166233 0.124984 -0.405979 0.130104 -0.372998 -0.100939 -0.021663 0.009774 0.103415 -0.261559 -0.044881 -0.169097 0.177709 0.659176 -0.591615 0.561248 -0.044968 -0.006566 0.041037 -0.296666 0.259077 -0.502093 -0.352433 -0.029277 0.173322 -0.056837 0.148579 -0.137766 -0.100319 0.246420 -0.157361 0.152826 0.170423 -0.296287 -0.223184 0.444490 0.631818 0.226881 0.043764 0.343799 0.221941 0.221268 -0.143541 -0.284462 0.196333 0.126177 -0.288012 0.495195 -0.264892 0.307876 0.011304 0.482956 -0.031658 -0.088027 0.199032 0.058333 -0.067845 0.107226 0.007138 -0.212275 -0.200600 -0.139261 0.106197 0.572470 0.316937 -0.021988 0.230771 0.306698 0.270849 -0.088935 0.263588 0.244566 0.201041 -0.589944 -0.280509 -0.496188 0.121296 -0.175192 0.019738
good -0.011739 -0.251340 0.202052 -0.249886 0.246789 -0.243583 -0.239787 0.356098 0.082163 0.352959 0.056935 0.516547 -0.406210 -0.062243 -0.188509 -0.053471 0.081783 -0.146000 0.177582 0.271503 -0.143957 -0.287674 -0.001589 -0.003272 -0.046679 -0.339102 -0.137103 0.058114 0.371420 0.163158 0.001605 0.321684 -0.238807 -0.297052 0.126099 -0.401065 0.468882 0.169110 -0.115466 0.061817 0.019777 0.163176 -0.423774 -0.224317 0.229544 -0.155507 -0.269883 -0.123844 -0.232007 0.049268 -0.114109 -0.464429 -0.089871 0.022807 -0.339201 -0.078471 0.205822 0.162251 -0.037449 -0.323182 0.072741 -0.063327 -0.304840 -0.329291 -0.133355 0.105797 0.262906 -0.206477 -0.088767 0.172743 0.338383 -0.130808 0.072371 -0.603109 -0.322386 0.299406 -0.334312 -0.356104 -0.063952 -0.257065 0.094616 0.497963 -0.017579 -0.285231 0.135138 0.497575 0.316072 -0.020164 0.397092 0.191016 0.302845 0.059676 -0.150342 0.556839 0.267062 0.083636 -0.191396 0.051202 0.019524 0.104601
can -0.004518 -0.127880 0.285636 -0.036445 0.414411 -0.155660 -0.481078 -0.242905 -0.048461 0.453811 0.185572 0.202214 -0.110085 -0.119395 -0.136753 0.323562 0.471761 0.448425 -0.068660 0.109591 -0.312038 0.340573 0.417828 -0.234134 -0.114405 -0.240803 0.060709 0.077547 0.008137 -0.196338 -0.544795 0.285822 -0.228157 -0.441510 -0.032802 -0.266083 -0.459322 0.108444 -0.185267 0.241914 -0.045792 0.523308 -0.398284 -0.627490 0.431245 0.053269 0.008800 -0.199810 -0.474906 -0.049851 -0.189429 -0.364128 -0.271567 0.196774 0.008512 -0.301908 0.333864 -0.027106 0.159568 -0.033952 0.119753 -0.013528 -0.212604 -0.101093 -0.142713 0.449698 0.243060 -0.215582 0.180724 -0.103780 -0.504763 0.150683 -0.325088 -0.302765 -0.451896 -0.114407 -0.286114 -0.194516 -0.125783 0.089483 -0.334200 0.024304 0.107109 -0.196512 -0.078770 0.182034 0.042232 -0.003506 0.536150 0.555368 -0.215976 0.223620 0.272377 0.010856 0.096755 -0.166628 -0.101468 -0.104861 -0.280993 0.019359
up 0.120378 -0.795900 0.200472 0.329664 0.694879 -0.210847 -0.281275 -0.213751 -0.407723 0.437397 0.326147 0.068700 0.286281 -0.048276 0.051492 -0.274225 0.234964 -0.004190 0.383832 -0.216235 0.211118 -0.214046 0.059629 -0.794157 0.232864 -0.275812 -0.085946 -0.149731 0.031759 0.097921 -0.749612 0.181331 -0.154786 0.154888 -0.033930 -0.134651 0.533835 0.018645 -0.085146 -0.541104 -0.134139 0.224037 0.054237 -0.073412 0.572226 -0.307578 -0.372080 0.284853 -0.138240 -0.181035 0.439192 -0.136847 -0.162499 -0.024449 -0.099917 -0.189639 0.471237 0.384710 0.135592 0.005929 0.274619 -0.138374 0.154661 0.153086 -0.399445 0.345679 -0.165128 -0.118020 0.363068 -0.176898 -0.182340 -0.433991 -0.052873 0.036259 -0.171050 0.037900 0.031403 -0.049861 -0.280461 0.038726 0.019505 0.398647 0.154192 -0.314200 0.117332 0.184888 -0.093991 -0.061043 0.011855 0.100425 0.501775 -0.023901 0.114237 0.485779 -0.058430 0.117383 -0.032182 0.231246 0.338439 0.036197
time -0.002323 -0.505505 0.041545 -0.026463 0.325377 0.104222 -0.226773 0.004014 0.062747 0.120961 0.311977 -0.056402 -0.199640 0.056023 0.227190 0.478503 0.363461 0.344334 0.275709 -0.140648 0.034894 0.121333 0.204891 -0.161504 0.011956 -0.177770 -0.318604 0.009568 0.109132 0.065590 0.032365 -0.119144 -0.434818 -0.245102 -0.231010 -0.162374 0.638693 -0.297713 0.052390 0.128909 0.309763 0.466400 -0.088944 -0.069455 0.277192 0.030809 0.098867 -0.542301 -0.173090 -0.443637 -0.011799 -0.197596 0.201339 -0.176426 0.412338 -0.194197 0.128586 -0.059066 -0.370106 -0.040681 0.349643 0.338020 -0.344926 -0.457581 -0.073139 0.204481 0.093397 -0.122273 0.641477 -0.540978 -0.069185 0.092628 0.312899 -0.272058 -0.513239 0.253381 -0.035397 -0.115836 0.150450 -0.285061 -0.000003 0.175562 -0.153861 -0.111240 0.529287 0.143852 0.446201 -0.020562 0.402735 0.034706 -0.100130 0.239983 0.006117 -0.187061 0.209030 0.282107 0.092566 0.308696 0.139898 -0.000693
story -0.164553 -0.421582 0.296366 -0.440921 0.378115 -0.317056 0.104046 -0.148327 -0.372342 0.722746 0.198539 0.031651 -0.197411 -0.093548 -0.212484 0.006288 0.375950 -0.055523 0.108518 0.221249 0.450324 0.265208 0.391239 0.005475 0.038838 -0.078338 0.155724 -0.102725 0.161779 0.251007 -0.101573 0.150824 -0.578208 -0.375211 -0.114173 -0.121666 0.273301 -0.071850 -0.076488 -0.283541 -0.137909 -0.298528 0.059462 -0.427703 0.271189 0.021992 -0.047001 -0.148124 -0.097918 -0.357078 -0.161988 -0.434525 -0.043427 -0.185811 -0.283481 -0.017670 -0.208223 -0.213508 -0.109317 -0.431218 0.157758 -0.235348 0.222846 0.075732 -0.211815 0.271200 0.105620 -0.055750 0.123568 -0.358515 0.029572 0.088014 0.378875 -0.158923 0.000989 -0.432146 -0.214345 -0.403513 0.221156 -0.572268 0.267176 0.361557 -0.220624 -0.211347 0.356608 0.200824 0.086725 -0.123858 0.337511 -0.086837 0.032170 0.447101 0.255249 0.286535 0.075957 0.409720 -0.147003 0.198437 -0.080215 0.127396
she 0.440582 -0.019396 0.741627 -0.059437 0.284282 0.259739 0.285898 -0.351202 -0.050260 0.082037 -0.132544 0.519167 0.199280 0.525130 -0.523445 0.300934 -0.176767 0.112048 0.004073 0.725017 0.261208 0.086088 0.014037 -0.561347 0.014232 -0.467404 0.230930 -0.398047 0.234205 0.291448 -0.286617 -0.044370 -0.371094 0.014891 0.020724 -0.008422 0.166959 -0.309344 0.571127 0.561582 -0.104285 0.139002 -0.124904 -0.024892 0.207123 0.039081 -0.330157 0.024120 0.000283 0.366763 -0.270870 0.123032 0.046904 -0.502838 -0.277141 -0.356218 -0.234991 -0.189140 0.144390 0.009098 -0.167460 0.321797 -0.006122 -0.124507 -0.244719 0.292376 -0.153329 -0.343305 -0.064662 -0.097176 -0.367666 -0.060041 0.101782 -0.789137 -0.456286 -0.408725 -0.249899 0.017334 0.166991 -0.083024 -0.162246 0.404990 0.223801 0.213124 0.221720 0.229841 -0.161799 0.085343 0.442467 0.108256 -0.016385 0.058003 -0.156240 -0.105115 -0.321971 0.231309 -0.548533 0.859918 0.203720 -0.233531
even 0.077265 -0.440710 0.434313 -0.139947 0.082544 0.221900 -0.017237 0.186002 -0.064142 0.406591 0.219146 0.238390 -0.294694 0.087277 -0.095042 -0.000600 0.395615 0.437987 -0.078471 -0.041509 0.102604 0.197944 0.192670 -0.157605 -0.133664 0.034012 -0.004526 -0.168339 0.283319 0.432035 0.011985 -0.056420 -0.220722 -0.062140 0.237952 -0.180010 0.024520 -0.023012 0.034063 0.074540 -0.024176 0.191569 -0.095886 -0.012721 0.287809 0.172868 0.016890 0.007691 0.294873 -0.064005 0.148178 0.016021 0.000418 0.118256 0.034825 -0.314870 0.252638 0.248916 0.355489 0.129571 0.438061 -0.088047 0.033125 -0.501693 -0.114228 0.218666 0.288999 -0.345490 0.072206 -0.018484 -0.344214 0.095350 0.384111 -0.184141 -0.167524 -0.120045 -0.439881 -0.008429 -0.523094 -0.293760 -0.116837 0.340832 -0.016318 -0.082857 -0.089665 0.459546 0.175711 0.226645 0.144666 -0.030147 -0.106701 0.216073 0.167251 0.658433 0.114007 0.210255 0.239308 0.153974 -0.073340 -0.149766
see -0.474036 -0.094688 0.421076 0.205068 0.126688 0.027052 0.177954 0.071607 -0.458243 0.205697 -0.234518 0.067594 -0.156589 -0.225853 -0.257744 0.183510 0.766494 0.154455 0.008413 0.247939 -0.193263 0.224683 0.122007 -0.456361 -0.251433 -0.278440 -0.269370 0.195038 0.302015 0.389715 -0.288064 0.438403 -0.389556 0.047478 0.006586 -0.426226 0.485189 -0.250394 -0.200777 0.072324 -0.254394 0.096771 0.219025 -0.387865 -0.007165 0.253807 0.054675 0.032649 -0.077868 -0.177302 -0.154472 -0.016696 -0.152867 0.122627 -0.191381 -0.102829 0.291648 0.163362 -0.141560 -0.603240 -0.015924 -0.157488 -0.282155 -0.035009 -0.192708 0.431879 0.155311 0.035805 0.357331 -0.024576 -0.041265 -0.083499 -0.027439 -0.038255 -0.488009 0.200533 0.023653 0.070984 -0.378434 -0.026111 -0.095930 0.139004 0.085849 -0.248221 0.493729 0.053136 0.228037 0.154696 0.450143 0.273519 -0.084480 0.127281 -0.161191 0.426916 -0.051512 0.003126 -0.527885 0.306778 0.148989 -0.538547
get -0.226050 -0.154046 0.178716 0.113592 0.388804 -0.193285 -0.372143 -0.052233 -0.095032 0.420725 -0.062502 -0.051132 0.072644 -0.049204 -0.189187 0.224967 0.444479 0.019200 0.009526 0.027222 -0.007427 -0.037599 0.300321 -0.303945 -0.112256 -0.839600 -0.190567 -0.516048 0.340663 0.417063 -0.002573 0.231150 -0.429954 -0.262217 0.434183 0.135798 0.085749 -0.271866 0.097166 0.067912 -0.165742 0.210040 -0.079923 -0.445473 0.092272 -0.150720 -0.097490 0.288237 -0.096560 -0.425417 -0.422910 0.309196 -0.209309 0.049548 -0.246406 0.233663 -0.070260 0.249392 -0.140548 0.031377 0.250235 -0.150238 -0.086909 -0.388771 -0.386829 0.191565 0.070753 -0.030102 0.264302 -0.507060 -0.027967 -0.429199 0.232764 -0.252182 -0.364920 0.148363 -0.292508 0.027808 -0.579466 0.048644 0.077922 -0.003784 0.131275 -0.104620 0.422548 0.319130 -0.060397 0.117731 0.324554 0.482237 -0.259338 0.481894 0.124536 0.231484 0.246581 -0.249838 -0.259449 0.175926 0.060072 -0.463228
people 0.019734 -0.317226 -0.027474 0.092090 -0.103011 -0.204548 0.276159 -0.341826 -0.694452 0.540839 -0.017227 0.213617 -0.075980 -0.060934 -0.129320 0.092895 0.305890 0.146417 0.753755 -0.168545 -0.130149 0.093458 0.289962 -0.501632 -0.028127 -0.684242 -0.426926 -0.013966 0.608290 0.023325 -0.632706 0.105289 -0.175130 -0.089325 -0.208449 0.047672 0.276255 0.123165 0.227527 0.067770 -0.039455 0.085498 -0.457137 -0.751439 -0.236510 0.264563 0.177978 0.227888 -0.418555 0.034571 -0.178267 -0.421228 -0.040237 0.122764 0.051276 0.017514 -0.003520 0.088625 0.310179 -0.023373 0.049334 0.305289 0.050164 -0.644548 0.058063 -0.187167 0.234585 0.065275 0.086890 0.131687 -0.260866 -0.103782 0.299680 -0.585428 -0.091716 0.019632 0.064942 0.093397 -0.125394 -0.152330 -0.079063 0.145216 0.028211 -0.089055 -0.075270 0.166866 0.242641 -0.046265 0.200266 0.313067 -0.225117 0.564493 0.013793 0.195142 -0.151002 0.204500 0.145884 0.222830 -0.100760 0.026543
bad 0.261340 -0.211547 0.514876 -0.198325 0.070025 -0.427490 -0.065691 0.394579 0.170146 0.215432 0.091680 0.765565 -0.160890 -0.153371 -0.338495 -0.239626 0.169846 0.020920 0.058025 0.170507 -0.039201 -0.298911 0.551112 -0.089669 0.083938 -0.140715 -0.115178 0.075432 0.162435 -0.139740 -0.148477 0.550740 -0.322958 -0.232886 0.282541 -0.504434 0.599155 0.160216 0.121409 0.049225 -0.115726 -0.093037 -0.310861 -0.411370 0.454109 -0.084672 -0.291769 -0.438108 -0.052090 -0.226685 -0.090502 -0.180878 -0.226382 0.011137 -0.265079 0.113923 0.267912 0.365547 -0.068216 -0.305046 -0.020020 0.051310 -0.246204 -0.387636 -0.086577 -0.188522 0.243329 -0.022672 0.179255 -0.004859 0.116960 -0.076071 -0.147671 -0.469236 -0.144572 0.502937 -0.595218 -0.259325 -0.100171 -0.130024 0.064338 0.063080 0.046747 -0.178610 -0.069490 0.452695 -0.186678 -0.052801 0.721963 0.303071 0.177895 -0.072615 -0.238471 0.489741 0.300140 0.086389 0.005568 0.546428 0.124300 -0.124321
do -0.073231 -0.249147 0.636275 -0.195604 0.680204 -0.137536 -0.104974 0.055774 -0.188295 0.453245 -0.068603 -0.015765 -0.057501 0.092473 -0.081399 0.419746 0.323869 0.281412 0.023322 -0.290010 -0.121302 0.254025 0.122664 0.010904 0.151560 -0.279080 -0.598519 0.012287 0.122445 -0.138529 -0.230079 0.134600 0.153949 0.024230 -0.079476 -0.018293 -0.051035 0.046502 0.307492 0.264600 -0.080855 0.030875 -0.351735 -0.567083 0.205826 -0.273852 0.136534 0.243566 -0.230068 -0.185514 -0.191024 -0.127671 -0.078466 0.162231 -0.209537 -0.215699 0.261591 -0.249002 0.127391 -0.173305 0.198815 0.252455 -0.229766 -0.538610 -0.451567 0.472539 0.334175 -0.111891 -0.028733 -0.046624 0.040604 0.119301 -0.085375 0.097791 -0.188957 0.209582 -0.233670 0.156866 0.033885 0.008178 -0.484216 0.437492 0.200625 0.000199 0.099374 0.574255 0.198821 -0.060610 0.370243 0.087476 0.260858 0.113636 -0.016414 0.379839 0.187850 0.183796 -0.431314 0.406977 0.274000 -0.401527
great 0.368719 -0.163624 0.088180 0.032846 0.319665 -0.084977 0.089801 0.081295 -0.195020 0.326884 0.323933 -0.104219 -0.512958 -0.254702 0.052923 0.169931 -0.001029 -0.002531 0.037935 0.281517 -0.179377 -0.180086 -0.106280 0.039956 -0.147314 -0.024491 -0.236333 0.388918 0.077224 -0.309226 -0.080546 0.643097 -0.564264 -0.061244 0.261730 -0.181062 0.376403 -0.032498 -0.008015 0.096104 -0.066422 0.033947 -0.350441 -0.140335 0.190094 -0.019677 -0.125705 0.125325 -0.255118 -0.029459 -0.019392 -0.250795 -0.094323 0.126958 0.181009 -0.122735 0.182890 -0.172738 -0.277802 -0.222045 0.278345 -0.266949 -0.063513 -0.142168 -0.209259 0.179153 0.530641 -0.207649 -0.006584 0.112906 0.280983 0.045992 0.151293 -0.685843 -0.308495 0.359661 -0.345006 -0.257285 -0.028981 -0.143316 0.251931 0.584893 -0.196343 -0.030622 0.228628 0.313158 -0.014690 -0.122440 0.279605 0.035604 0.196641 0.010207 -0.086972 0.453294 0.214190 0.186806 -0.461933 0.278728 0.097280 -0.178826
made -0.062728 -0.326913 0.639538 -0.163002 0.269272 -0.206715 -0.022853 0.330092 -0.495572 -0.007754 0.049520 0.059831 -0.026035 -0.254084 0.098762 0.420491 0.219524 0.143477 -0.376577 0.284617 0.141407 0.356835 0.113012 0.281136 -0.004071 -0.159882 -0.548702 -0.160125 0.281010 -0.093110 -0.306058 -0.015963 -0.206830 0.102237 -0.010119 -0.344387 0.343095 0.013702 0.285040 0.109827 -0.080448 0.217771 -0.467034 -0.231530 0.249940 0.511814 -0.070722 0.232911 -0.018566 0.223335 0.207033 -0.107021 -0.062353 0.160995 0.229221 -0.334237 0.402153 0.217052 -0.372737 0.045752 0.092839 -0.129096 -0.143781 -0.017071 0.158894 0.176808 0.240249 -0.033093 0.243929 -0.362629 -0.281631 0.208200 0.446321 -0.173095 0.237850 0.293877 -0.524118 0.057433 0.290248 0.119415 0.052243 0.234124 -0.324906 -0.215174 0.538807 0.245082 0.175052 0.181202 0.419317 0.393772 -0.101802 0.212732 -0.171205 0.199433 0.146080 0.489315 0.118078 0.144479 -0.123432 -0.474035
make -0.479172 -0.312515 0.437101 -0.257675 0.294635 -0.050275 -0.110093 0.197490 -0.181699 0.255007 -0.130927 0.328444 -0.060276 0.023959 0.129653 0.692552 0.175368 -0.101751 -0.253694 0.068538 0.036743 0.138043 0.208789 -0.004470 -0.038956 -0.374420 -0.075437 -0.255179 0.439155 -0.126076 -0.136102 0.344526 -0.177634 0.137943 0.331074 -0.315926 0.170062 -0.229255 0.303533 0.322621 -0.170476 0.094907 -0.186550 -0.471829 0.283763 0.002318 0.302828 0.268453 -0.334352 -0.090292 -0.027032 0.098622 -0.432500 0.025657 0.059530 -0.151305 0.311372 0.204990 -0.312899 0.090272 0.356852 -0.270454 -0.269293 -0.197109 -0.164038 0.223964 0.417692 -0.166438 0.091112 -0.181706 -0.303600 -0.063992 -0.034848 -0.376851 0.200863 0.127495 -0.231964 -0.122873 0.101731 0.086931 0.108490 0.121409 -0.044514 -0.201987 0.356577 0.377227 0.063234 -0.028596 0.653705 0.130427 -0.267902 0.316939 -0.244714 0.421732 -0.175856 0.609675 -0.054323 0.098762 0.101480 -0.305543
way 0.096970 -0.193055 0.368343 -0.273008 0.142057 0.028971 0.003805 0.008079 -0.175234 0.262314 0.119619 -0.082399 -0.109982 0.118920 0.051918 0.185244 -0.042209 -0.245553 0.256542 0.155351 -0.031199 0.266534 0.264664 -0.441312 -0.074608 -0.369481 -0.153434 -0.609204 0.032538 0.263011 0.147532 0.166080 -0.346807 -0.080679 0.097146 -0.575113 0.205001 0.277192 0.374921 0.019941 -0.288256 0.539717 0.042894 -0.375681 0.113736 0.330916 0.414278 0.176577 -0.170339 -0.142189 0.220861 -0.243943 0.029837 -0.040317 0.152434 0.114808 -0.121055 -0.117489 0.122414 -0.026586 -0.134904 -0.206587 0.178952 -0.250030 -0.396422 0.186559 0.024090 -0.158144 0.557117 -0.384625 -0.173409 0.066637 -0.072504 -0.554034 -0.639542 0.547424 -0.262807 -0.353001 -0.218822 -0.246740 0.003699 0.273959 -0.300589 -0.071707 0.024980 0.220596 0.124120 -0.196745 0.331227 -0.049159 -0.004918 0.385886 0.173511 -0.058793 0.120059 0.172473 0.246142 0.107753 -0.172036 -0.233631
characters -0.186201 -0.461960 0.340684 0.206938 0.137123 -0.656197 0.513731 -0.408953 -0.406103 0.213262 -0.016073 0.249281 0.028848 0.296337 -0.047551 0.183178 -0.145322 0.532051 0.278904 0.130081 0.298619 0.085426 0.386252 -0.180338 -0.087338 -0.215468 -0.179757 0.072268 0.230951 0.065644 0.004583 -0.268059 -0.384902 -0.052324 0.164922 -0.296818 -0.149124 0.132307 -0.259148 -0.292299 -0.093249 0.129297 0.013793 -0.309864 0.330432 0.501074 0.242191 0.170858 -0.505979 -0.098022 -0.117798 -0.443984 0.069691 0.055651 0.142665 -0.137096 0.227228 -0.492831 0.243440 -0.048166 -0.193032 -0.225902 0.122845 -0.289967 0.097717 -0.269049 0.394843 0.006760 0.363162 -0.105503 -0.016088 -0.251767 -0.029105 -0.378733 0.077019 -0.485033 -0.082574 -0.323853 -0.299283 -0.716333 0.149023 0.072208 -0.088376 -0.499559 0.021248 0.242353 0.398672 -0.257950 0.547482 0.024944 0.056567 0.402912 0.184304 0.272469 0.431850 0.435626 -0.424868 0.425209 -0.265939 0.035320
think -0.017632 -0.390971 0.297102 0.114955 0.356360 0.002847 -0.210599 -0.088329 -0.305006 0.576424 0.564172 0.100817 -0.290510 -0.123445 -0.133639 0.369670 0.416148 -0.112798 0.162391 0.028737 0.265252 0.038265 0.292996 -0.281033 0.040401 -0.037322 -0.094241 -0.060497 0.390887 0.248585 0.093348 0.287507 -0.364941 -0.030499 0.023724 -0.272848 0.072018 -0.020197 0.172137 0.026514 -0.121273 0.148102 -0.231991 -0.510834 0.211841 0.143559 -0.012077 0.211548 -0.222686 -0.041147 -0.387860 -0.049690 0.173578 0.124113 -0.103219 -0.152019 0.346438 -0.225994 0.034075 0.062639 -0.137618 -0.116225 -0.342961 -0.391699 0.077921 0.435125 0.069061 0.065112 0.316981 -0.045412 -0.109639 0.205039 -0.107759 -0.053526 -0.166139 0.092434 0.181519 -0.109518 -0.658160 -0.057001 0.079930 0.248447 -0.137182 -0.147482 0.164071 -0.004195 0.172541 -0.001127 0.212821 0.309325 0.084285 0.382435 -0.186630 0.453513 0.268071 0.178143 -0.231306 0.207160 -0.006870 -0.121592
character -0.126524 -0.346777 0.313898 0.064178 0.402754 -0.373892 0.363281 -0.290878 -0.120978 0.201885 0.118831 0.107500 -0.066940 0.572006 -0.213811 -0.210310 0.168420 0.583492 0.123571 0.280722 0.323554 0.354145 0.074604 -0.007819 -0.109412 0.105209 -0.135682 -0.106574 0.103307 0.315489 -0.008505 -0.125127 -0.140691 0.016177 0.260543 -0.141560 0.095497 0.375802 0.108246 -0.319904 0.138313 0.159991 -0.067202 -0.357386 0.166090 0.476776 -0.061441 0.106138 -0.395524 0.070527 -0.129785 -0.162594 -0.021731 -0.084786 -0.053706 -0.361890 0.086880 -0.330563 0.008665 -0.261536 -0.229945 0.052463 0.054699 0.052927 0.031075 0.351898 0.032893 -0.186159 0.440117 -0.243677 0.108520 -0.166483 0.022022 -0.394418 -0.236729 -0.315023 -0.085740 -0.123163 -0.370084 -0.540099 0.126322 0.225172 -0.178744 -0.247060 0.217149 -0.133245 0.042419 -0.407706 0.752313 -0.105832 0.076916 0.381405 -0.033576 0.145145 0.529090 0.254311 -0.236113 0.556710 -0.267695 -0.129353
plot -0.254062 -0.405287 0.521024 -0.130945 0.555318 -0.489229 0.114727 -0.023082 -0.058411 0.491258 0.195898 0.508297 0.143493 -0.318107 -0.082645 -0.017954 0.131310 0.195215 0.198191 0.054373 0.733934 0.146225 0.509834 -0.060613 0.174740 -0.100572 0.058547 -0.073054 0.195656 0.369652 -0.122192 -0.089013 -0.393252 -0.034506 0.045698 -0.240009 0.273595 0.374788 -0.227591 -0.246890 -0.345987 -0.280525 0.000007 -0.405104 0.258174 0.144943 0.217729 -0.434699 0.008870 -0.269610 0.168719 -0.372339 -0.252099 -0.107266 -0.146132 0.199733 -0.270282 -0.195173 0.210094 -0.334353 0.190208 -0.332100 0.053075 0.228649 -0.260130 0.326987 0.263979 -0.173153 0.242940 -0.216986 -0.070516 0.099671 0.268917 -0.302256 -0.026552 -0.592149 -0.303252 -0.356792 0.200520 -0.413179 -0.110037 0.019767 0.009598 -0.035508 0.228717 0.182564 0.051265 -0.105257 0.364905 0.038851 0.537323 0.607350 0.299508 0.091564 0.188098 0.514552 -0.268756 0.428388 0.003884 0.166839
being -0.258330 -0.040598 0.211707 0.125295 0.280737 -0.104640 0.076689 0.022825 -0.187347 0.641217 0.187615 0.148216 -0.191234 0.052859 -0.256670 0.066602 0.398984 0.286015 0.605525 0.445293 0.128890 0.044602 0.211650 -0.329077 0.256767 -0.244922 0.107176 -0.328552 0.345090 0.267689 -0.246509 -0.126316 -0.614693 0.102065 -0.045488 0.022688 -0.069647 -0.210426 -0.337359 -0.357495 -0.023233 0.138681 -0.110272 0.300805 0.195006 -0.188406 -0.120918 -0.072268 -0.209420 0.075007 -0.158532 -0.469760 0.240979 -0.018823 -0.127957 -0.360121 0.133839 0.209793 0.105615 0.246436 -0.054881 -0.252088 0.200123 -0.194999 -0.210769 -0.162978 -0.197152 0.020700 0.420122 -0.023534 -0.055298 -0.356848 0.216803 -0.277133 -0.613697 0.289138 -0.295254 -0.247921 -0.013361 0.126335 0.030759 -0.205770 -0.153871 0.039440 -0.024077 0.297339 -0.375716 -0.326522 0.055587 0.326277 0.270222 0.209469 -0.303224 -0.007861 0.060221 0.016292 0.121666 -0.040899 0.054404 -0.246514
watch -0.598673 -0.339634 0.427097 0.047529 0.224023 0.002377 -0.003630 0.303308 -0.280892 0.391125 0.205948 0.184630 -0.194286 -0.498766 -0.493209 0.433142 0.574961 0.155844 0.061197 -0.127108 0.198084 0.132576 -0.107636 -0.237358 -0.137343 -0.355141 -0.159745 0.339425 0.236665 0.470602 -0.085516 0.113620 -0.228251 -0.223033 -0.130894 -0.250852 0.054634 0.000407 -0.199463 0.290258 -0.506226 -0.253763 0.251378 -0.355958 0.360729 0.317818 0.369679 0.179186 -0.135947 -0.029540 -0.074731 0.050904 -0.425135 -0.134933 0.236941 -0.237144 0.454912 0.093136 -0.004621 -0.578620 0.175098 -0.155677 -0.302850 -0.367849 -0.213603 0.239750 0.354967 -0.085261 0.539722 -0.255547 -0.285525 -0.329055 0.160291 0.064386 -0.476370 0.385444 0.022719 -0.012818 -0.093082 -0.013439 0.285995 0.058375 0.017748 -0.017594 0.239543 0.698012 0.240935 0.240210 0.321151 0.334486 0.111854 -0.031134 -0.407173 0.023367 0.126736 0.144147 -0.460134 0.455706 0.328634 -0.346824
acting 0.029279 -0.622748 0.876531 -0.231618 0.150480 -0.550324 -0.168151 0.024850 -0.084699 0.149350 0.229857 0.372075 -0.026828 -0.179709 -0.694896 -0.119567 -0.186217 0.465184 0.234342 0.145693 0.077146 0.285690 0.296882 -0.210316 0.092403 0.183463 0.223227 0.243703 -0.181748 0.047901 0.054260 -0.070579 -0.242613 0.294945 -0.153687 -0.493021 0.359967 0.256032 -0.016026 0.024534 0.145985 -0.185456 -0.438885 -0.475519 -0.011832 0.015030 -0.093770 -0.074908 0.097892 0.104746 -0.260787 -0.267768 0.093895 0.294934 -0.022581 0.089482 -0.031208 -0.106147 0.066304 0.076820 0.305041 -0.278444 0.001879 -0.040554 -0.216100 0.278968 0.467863 -0.093365 0.091960 -0.303778 0.016257 0.313138 -0.109789 -0.606151 -0.148942 0.341409 -0.449777 -0.435313 -0.104197 -0.535280 0.017193 -0.025745 0.294997 -0.153930 0.129542 0.108515 0.020231 0.141708 0.628095 0.307950 -0.122612 0.468535 -0.195305 0.232509 0.526981 0.204195 0.196596 0.279118 0.578790 -0.275332
life 0.038111 -0.556318 0.234845 -0.662768 -0.119920 0.067258 -0.118986 -0.097913 -0.502623 0.205448 0.400388 0.148346 -0.051136 0.269254 -0.368375 0.210833 0.331815 0.102375 0.631947 0.085828 -0.091751 0.525276 0.058370 -0.115954 -0.342109 -0.444024 -0.098679 -0.280612 0.089862 -0.170300 -0.037674 0.110283 -0.213080 0.207803 0.262401 0.005992 0.302791 -0.534073 0.126316 -0.354660 0.004043 -0.128030 -0.191784 -0.464945 0.057823 0.023002 -0.193355 -0.072234 -0.152060 0.020915 -0.537575 -0.108298 -0.087890 -0.077695 -0.069972 -0.148383 0.347612 0.279782 0.066182 -0.106178 0.263564 0.205621 0.260492 -0.161962 -0.309542 0.133951 -0.008118 0.126841 0.328519 -0.392881 0.182673 0.171900 0.071943 0.029434 0.111415 0.017296 -0.101815 -0.147888 0.086090 -0.272730 0.016338 0.265792 0.381278 -0.319251 -0.001020 0.159656 0.405528 0.047681 0.722817 0.109403 0.013482 0.550145 0.356784 -0.290361 0.134214 0.428775 -0.124762 0.262588 -0.460759 -0.282173
over -0.114843 -0.052502 0.432533 -0.067692 0.392623 -0.622705 -0.348526 -0.139451 0.068200 0.094954 0.487629 0.165637 0.523253 -0.126231 -0.081005 0.164051 0.304302 0.384738 -0.041651 -0.282360 -0.236566 -0.089353 -0.231688 -0.659741 -0.133892 0.047604 0.009169 0.154607 -0.072969 0.287736 -0.026276 0.080882 -0.327805 0.481690 0.187230 -0.083568 0.328667 -0.378717 0.160987 -0.246754 -0.502892 -0.003083 -0.222105 -0.199657 0.048163 -0.068133 0.185825 -0.460390 -0.329824 0.321008 0.307724 -0.195172 -0.026616 0.151410 -0.109880 -0.002466 0.328445 -0.123152 -0.136329 0.054958 0.192916 -0.086239 0.294570 -0.303117 0.061510 0.142688 0.052551 -0.168310 0.523100 -0.036633 0.090861 -0.077480 0.420177 -0.417224 -0.479354 0.158578 -0.348590 -0.107439 -0.284780 -0.223509 0.174144 0.225520 -0.232039 0.186174 0.092350 0.046568 -0.166867 0.563704 0.231770 0.169799 -0.258421 -0.013788 -0.380198 -0.069269 -0.265904 0.424748 -0.107960 0.020111 0.276013 0.516782
know 0.229783 -0.199954 0.414074 0.003069 0.430608 -0.038980 0.017508 0.042937 0.001633 0.130149 0.457228 0.173943 -0.170499 -0.149398 -0.110956 0.138346 0.526766 0.117641 0.205542 -0.000293 -0.009849 -0.149306 0.241157 -0.347358 0.030166 -0.235665 -0.307734 0.265384 0.311352 0.337140 -0.007608 0.243796 -0.373143 0.129899 -0.222299 -0.141575 0.237697 -0.405997 0.133844 0.143832 -0.255024 0.313910 -0.179413 -0.623512 0.163584 0.107507 -0.156014 -0.042140 -0.620831 -0.169058 -0.187065 0.068913 -0.155896 0.404015 -0.427979 -0.158991 -0.109797 -0.070397 -0.086835 -0.168536 -0.225774 0.086213 -0.181910 -0.432083 -0.352810 0.221932 0.248779 0.122691 0.134214 0.103191 -0.091354 0.316982 -0.196380 0.067190 -0.228935 -0.227103 -0.082646 0.342602 -0.613774 -0.173951 -0.205199 0.173711 0.078182 -0.020269 0.032834 0.154715 0.251889 -0.118597 0.349348 0.407728 -0.301166 0.349806 0.044956 0.683966 0.281972 0.044036 -0.432298 0.276138 -0.189458 -0.571086
show -0.196367 -0.415982 0.233891 -0.280532 0.401351 -0.091523 0.323575 -0.052000 -0.252737 0.400730 0.178639 -0.086484 -0.222631 -0.091707 -0.281470 0.159471 0.001150 0.383940 0.377073 0.587752 0.050389 0.196491 0.057829 -0.167493 -0.066099 -0.144154 -0.356078 0.085129 0.264664 -0.021554 -0.305733 -0.093207 -0.448815 0.097282 -0.013170 0.241624 0.113681 -0.392689 -0.136967 0.138913 -0.011849 0.100285 -0.045188 -0.664756 0.105831 0.012815 -0.089875 -0.147372 -0.159587 0.112009 -0.087726 -0.292415 -0.519066 -0.224660 -0.244178 -0.020259 0.445031 -0.154439 -0.157758 0.122527 -0.206390 -0.229997 -0.553280 -0.329973 0.208727 0.368215 -0.097679 -0.172106 0.346471 -0.755971 -0.341556 0.017734 0.167206 -0.038084 0.023006 0.335938 -0.164829 -0.334307 0.004686 -0.381433 0.188951 0.424769 0.207948 0.213571 0.342503 0.202923 -0.141244 0.422647 0.024675 0.141565 0.017162 0.476979 -0.162925 0.289087 0.112604 -0.022697 -0.162898 0.252866 -0.038984 0.032360
love -0.040943 -0.397281 0.223407 -0.410217 0.292827 0.130814 -0.347545 -0.008736 -0.349048 0.423757 -0.045049 -0.079121 -0.061897 -0.214332 -0.704107 -0.042715 -0.052678 -0.376681 0.116881 0.291531 0.108142 -0.073292 0.222035 -0.436078 -0.241742 0.028564 -0.037632 0.344346 0.256712 -0.110227 -0.160288 0.215702 -0.533120 -0.114244 -0.099502 0.243308 0.319520 -0.252181 -0.000487 0.017279 -0.338132 -0.000109 -0.529275 -0.550142 0.520238 0.135561 0.027798 0.149762 -0.310522 -0.303209 -0.146508 -0.302931 0.260884 -0.070552 0.320580 -0.476973 0.299021 0.058905 -0.319635 0.012488 0.039962 0.112873 -0.087654 -0.300558 -0.346698 0.295038 0.427095 -0.203012 0.336265 0.142943 0.017010 -0.251732 0.377617 -0.188181 0.024454 -0.085923 0.062586 0.305713 -0.169173 -0.428974 -0.143340 0.049975 -0.329234 -0.449190 -0.032790 -0.027103 -0.057917 0.091272 0.478283 -0.149096 -0.459692 -0.090321 -0.032364 -0.054829 0.328657 -0.212693 -0.333738 0.111349 -0.161907 -0.331614
end -0.498976 -0.267813 0.236643 0.154837 0.751595 -0.153738 0.378193 0.061769 -0.034626 0.410740 0.047531 0.486506 0.117840 -0.007411 -0.361989 0.793873 0.016379 -0.029580 0.029795 0.264490 -0.116937 0.118203 0.526915 -0.536286 0.232187 -0.419033 -0.188191 -0.089120 -0.069438 0.035324 0.169854 -0.077316 -0.107487 -0.162355 0.139019 -0.435601 0.380785 -0.180896 -0.569705 0.087136 -0.627436 0.287870 -0.163901 0.038634 0.036549 0.273027 -0.202547 0.019192 0.061572 0.008878 0.390598 0.244515 0.149146 -0.102003 0.251520 -0.133562 -0.192272 0.166635 -0.215771 -0.062024 -0.154139 0.098086 -0.020171 -0.139590 -0.527520 0.107768 -0.050739 0.181853 -0.027509 -0.135196 0.125053 0.134692 0.231235 -0.451546 -0.536825 0.215800 -0.284663 -0.279937 -0.296595 -0.098388 -0.521756 0.385592 0.019779 -0.206122 0.239351 0.150477 -0.088612 -0.141595 0.165373 -0.008592 0.004633 0.447295 0.024643 0.126464 0.352164 -0.108291 0.132991 0.270666 -0.226686 0.032829
say -0.056959 -0.442366 0.612342 -0.004542 0.305030 -0.116973 -0.151944 0.210450 -0.348821 0.374865 0.058489 -0.045087 -0.438530 -0.099658 -0.260671 0.385311 0.347704 0.049739 0.040547 0.047662 0.124045 0.443676 -0.026361 -0.545739 0.099086 -0.005386 -0.273312 0.012599 0.459053 0.269998 -0.139069 0.245661 -0.282016 -0.030425 -0.052628 -0.490815 0.092186 0.036489 -0.088035 0.009841 -0.178027 -0.247683 0.032631 -0.686983 -0.145298 -0.136320 0.262197 -0.260718 -0.269363 -0.043119 -0.223210 -0.040811 0.165360 0.423299 -0.022016 -0.089825 0.071405 -0.050705 -0.132983 -0.140383 -0.319053 -0.194989 -0.253606 -0.265138 -0.305359 0.221691 -0.150331 -0.047216 0.096415 -0.198819 0.016389 0.381227 -0.047722 0.032010 -0.136551 0.343018 -0.344512 0.206619 -0.234290 -0.028997 -0.210249 0.188400 0.177026 -0.116511 0.050161 -0.045448 0.353644 0.165662 0.245785 0.551203 0.259408 0.348254 -0.369820 0.457978 -0.163765 0.136027 -0.248089 0.527461 0.158627 -0.017064
scene 0.221835 -0.172961 0.566607 -0.300589 0.383067 -0.313221 -0.077031 -0.244256 0.066874 0.401800 0.227293 -0.043817 -0.139177 0.157881 -0.664806 0.454871 0.210956 0.652009 -0.206528 0.377784 0.544273 0.076703 0.178905 -0.545818 0.136281 -0.557923 -0.263938 -0.367855 0.142585 0.342879 -0.266139 -0.096134 0.048035 -0.137224 0.319514 0.051526 0.159775 0.149403 0.146690 -0.528264 -0.386698 -0.185331 0.000716 -0.184473 0.163308 0.184706 0.055682 -0.114323 0.120684 -0.035600 0.315699 0.018556 0.027301 0.054881 0.436026 -0.307175 -0.296404 0.184136 -0.344752 -0.383613 0.094850 0.247589 -0.087183 -0.273111 0.091656 0.119301 -0.454759 0.212893 0.177579 -0.071202 -0.537963 0.246849 -0.137752 -0.420200 0.073307 0.192349 -0.044581 -0.363645 -0.112539 -0.312272 0.136525 0.469139 -0.388966 0.055070 0.243087 -0.019820 -0.269326 -0.577035 0.420757 -0.355211 -0.149560 -0.199497 -0.118130 0.238767 0.210521 -0.182111 -0.277788 0.197346 0.053465 0.043989
man -0.051124 -0.238219 0.289603 -0.179041 0.391589 0.104123 0.037699 0.139192 -0.300335 0.628917 0.215100 -0.139488 -0.302355 0.099894 -0.267052 -0.017391 0.345779 -0.053702 0.625691 0.136551 -0.128993 -0.019165 0.204730 -0.599847 -0.124874 -0.223559 -0.158529 -0.345114 -0.056172 0.211463 -0.062823 0.194331 0.014070 -0.144097 -0.008299 0.118429 0.251693 0.090355 0.104201 -0.269886 -0.046806 0.226780 -0.315441 -0.355667 0.281300 0.135344 -0.324673 0.294103 -0.410096 -0.290861 -0.378356 0.163168 0.100705 0.035992 -0.130531 -0.172945 0.039842 0.214275 0.226952 -0.052904 -0.316330 0.316494 0.129578 0.033561 0.064418 -0.202280 -0.056734 -0.025722 0.384660 0.045356 -0.077287 -0.104145 0.422622 -0.649994 -0.224863 -0.445817 -0.135478 0.138054 0.108420 -0.205281 -0.057894 0.371210 -0.080656 -0.528923 0.122917 -0.298503 -0.145238 -0.020333 0.586803 0.014457 -0.208903 0.297481 -0.174154 -0.006650 -0.169027 0.242596 0.320847 -0.040335 0.159159 -0.005191
go 0.132794 -0.283586 0.503162 -0.223649 0.343233 -0.126237 -0.470512 -0.002073 -0.288993 0.238129 0.062381 -0.074903 0.011739 -0.355083 0.119346 0.225366 0.227046 0.021812 -0.241529 0.017609 0.084036 0.162077 -0.006493 -0.556543 -0.042942 -0.286407 -0.442035 -0.054722 0.672783 0.086876 -0.003158 0.153497 -0.300228 -0.099752 0.328491 0.184781 0.143715 0.014908 0.167652 0.464664 -0.246557 -0.113944 -0.030636 -0.423613 0.119873 -0.168556 0.023263 0.204420 -0.205480 -0.232156 -0.066022 0.126879 -0.205127 0.024971 0.450471 0.110642 -0.298896 0.462338 0.401301 -0.037618 -0.157506 -0.000387 -0.236373 -0.204342 -0.496922 0.189805 0.536673 -0.118972 0.264125 -0.023870 -0.071458 -0.135455 -0.038549 0.183899 -0.612059 0.212351 -0.268932 -0.171114 -0.229941 -0.052396 0.185618 0.156545 -0.131692 -0.078805 0.013336 0.533121 -0.121955 0.501714 0.286830 -0.068812 0.278090 0.363238 0.023053 -0.013328 0.160690 -0.053126 -0.322418 0.490233 -0.159932 -0.467934
back -0.136267 -0.592440 0.097794 -0.263666 0.432979 -0.476683 -0.342759 0.491206 -0.460544 -0.155289 -0.232866 0.051938 0.165081 0.071114 -0.020998 0.251685 0.580119 0.424175 0.389330 0.237638 0.016554 -0.204134 -0.391551 -0.407800 -0.029401 -0.598366 -0.052287 0.219863 0.212310 0.225281 -0.178018 0.065220 -0.440822 0.198692 0.400798 -0.049249 0.488521 -0.125165 0.574170 0.108457 -0.294455 0.102777 -0.012619 -0.073926 0.261101 0.162642 0.026350 0.119519 -0.284768 0.252997 0.114499 0.107537 -0.362449 -0.152945 0.071050 -0.260465 0.046941 0.384905 0.195281 -0.132674 -0.029300 0.025474 0.099961 0.110551 -0.350079 0.152655 -0.166757 -0.210215 0.168849 -0.198101 0.038700 0.263153 0.565371 -0.499767 -0.486301 0.273195 -0.100881 -0.297282 -0.264198 0.049549 -0.189535 -0.041464 0.325100 -0.253974 0.142226 0.272000 0.346919 0.287211 -0.072824 -0.571996 -0.083665 0.191789 -0.045296 0.172487 -0.227953 0.196515 -0.126674 0.097771 -0.205163 -0.065712
real 0.031999 -0.082723 0.330570 0.056154 0.166258 0.272824 0.096930 -0.017924 -0.212661 0.290746 -0.160880 0.439933 -0.459404 -0.409863 -0.265649 0.186468 0.123154 0.092958 0.478317 0.183113 -0.176970 0.314789 -0.173827 -0.044479 -0.289632 -0.292520 -0.256373 -0.161727 0.093258 -0.202257 -0.259722 0.095605 -0.488459 0.442066 0.370361 -0.359208 0.222426 0.194841 0.113191 -0.140504 -0.311987 0.019627 -0.013965 -0.002145 0.559783 0.268387 -0.374620 0.097028 -0.145225 -0.098611 0.070739 -0.343177 0.178168 -0.057196 -0.042326 0.042282 0.325377 -0.275727 0.080324 0.143348 0.049664 -0.057122 0.095059 -0.229413 -0.352328 0.402548 0.226078 -0.209435 -0.019137 -0.182945 0.161755 0.327245 0.095778 -0.210449 -0.168811 0.041644 -0.339236 -0.424832 -0.270561 -0.165693 0.240668 0.119759 -0.059017 -0.018531 0.078438 0.242324 0.516365 0.196409 0.444119 -0.105085 -0.192366 0.448350 0.206615 0.198979 -0.096291 0.208282 0.151454 -0.015481 -0.111734 -0.481435
thing 0.145942 -0.695805 0.578998 -0.238131 -0.013795 0.051977 -0.145396 0.013675 0.073468 0.499175 0.420118 -0.039825 0.023288 -0.113839 -0.080758 0.454959 0.088826 0.202610 -0.013192 0.060759 0.221222 -0.003118 0.291645 -0.256796 -0.046066 -0.324669 -0.539162 0.054052 0.412799 0.403234 -0.061508 0.240492 -0.454675 -0.195130 0.055155 -0.294179 -0.047197 0.218949 0.013025 -0.317205 -0.151773 -0.061282 -0.158809 -0.400968 0.062546 0.217236 0.196050 -0.317254 -0.136790 0.018111 -0.056752 -0.643513 -0.217138 -0.114684 0.034568 -0.397587 -0.111412 0.072092 0.046855 -0.148748 -0.374369 0.144323 -0.050829 -0.008149 0.247533 0.302846 -0.077619 -0.564039 0.484883 -0.605844 -0.323610 0.362045 -0.098902 -0.639646 -0.180421 0.129524 -0.278316 -0.132302 -0.242216 0.184684 0.147064 0.202033 0.035485 -0.030997 0.102652 -0.133878 0.008154 -0.298011 0.367086 0.559823 0.142455 0.595818 -0.629652 0.251688 0.003015 0.248090 0.154549 0.099904 -0.186712 -0.240941
old 0.301474 -0.017477 0.200988 -0.209926 0.615039 -0.113146 -0.258499 0.482689 -0.094767 0.965968 0.227448 0.056323 0.060424 -0.201586 0.118067 -0.044987 -0.046213 -0.118929 -0.207604 0.140104 -0.598758 0.181132 0.306270 -0.206723 -0.021676 -0.282668 0.035347 -0.167347 -0.114393 0.665294 0.175733 -0.455082 -0.733381 0.101378 0.181612 -0.470789 0.319368 -0.307664 0.363595 0.231843 -0.149887 0.091309 -0.528921 -0.117201 0.176249 -0.414575 -0.325776 -0.135561 -0.122923 -0.223053 0.085649 -0.302269 -0.295719 0.238491 -0.347999 -0.351923 0.452907 0.284439 -0.184219 -0.064787 0.204633 0.024455 -0.102067 -0.107701 0.006645 -0.243968 -0.205495 -0.067942 0.153313 0.092519 0.119699 -0.302167 0.344431 -0.402754 -0.224265 -0.139560 -0.140420 0.090742 0.076483 -0.044063 -0.319631 0.487753 -0.106107 -0.170264 -0.019908 0.025545 -0.161749 0.612131 0.454056 -0.221188 -0.353156 0.202781 -0.130332 0.028328 -0.151837 0.595810 -0.072855 -0.130858 0.240676 -0.132689
work 0.070969 -0.331095 0.430759 -0.311051 0.530990 -0.236941 -0.497004 -0.264747 -0.108208 0.402137 0.208399 0.007245 -0.293709 -0.072835 0.166719 0.065751 0.067137 0.309419 0.045314 0.096583 -0.141822 0.147837 0.063055 0.023118 -0.239298 0.042384 -0.041555 -0.093569 0.052713 0.171866 -0.395121 0.082022 0.136301 0.119652 -0.042370 0.156425 0.258877 -0.285470 -0.084463 0.246637 -0.013511 0.149163 -0.146530 -0.305194 -0.053714 0.141303 0.067809 0.294681 0.035881 -0.466245 -0.317467 -0.212025 0.104191 0.092410 -0.020345 -0.076338 0.104845 -0.004633 -0.034365 -0.106359 -0.010604 -0.144157 0.318618 -0.186835 -0.507256 0.566790 0.154230 -0.404880 -0.054804 0.098920 -0.188989 0.129139 0.296711 -0.227246 -0.107641 0.407350 -0.376511 -0.008600 -0.000415 -0.056496 0.544691 0.109233 0.010294 -0.034010 0.093389 0.074257 0.304690 -0.103550 0.524721 0.153780 -0.052606 0.289502 0.237137 0.450588 0.331683 0.293098 -0.182235 0.306221 0.358013 0.031135
makes -0.144179 0.000428 0.297982 -0.493406 0.618534 -0.009859 0.278543 0.066831 -0.238824 -0.243307 -0.157151 0.489410 -0.322523 0.074980 -0.143562 0.306015 0.214306 0.138082 -0.213085 0.056101 0.273396 0.529780 -0.015107 -0.119745 0.198828 -0.053157 -0.419180 -0.015530 0.451579 0.175509 -0.322153 -0.007065 -0.231942 0.305665 0.055687 -0.576329 0.115058 -0.072697 0.187828 0.212443 -0.226952 0.644301 -0.292476 -0.037326 0.501626 0.482709 0.368268 0.266582 -0.437951 -0.060341 -0.180209 -0.376599 -0.156918 -0.067149 0.156820 -0.160685 0.038342 0.220722 -0.448005 0.039648 0.439393 0.024934 -0.106878 -0.094762 -0.008321 0.090410 0.320936 -0.063106 -0.024520 -0.215234 -0.158056 -0.247893 -0.148824 -0.096654 0.319423 0.178844 -0.544043 -0.211239 -0.103172 -0.147381 0.267938 0.207233 -0.053339 -0.401565 0.282249 0.235164 -0.135773 -0.149029 0.681579 0.220162 -0.196596 0.311177 -0.134884 -0.006477 0.062785 0.518455 0.006481 -0.215272 -0.111902 -0.236731
funny 0.124539 -0.132284 -0.034771 -0.296569 0.110371 -0.487104 0.025810 -0.191056 0.214019 0.359050 0.530938 0.318534 -0.651584 -0.122265 -0.259901 0.018821 0.105232 0.195295 0.248523 0.418681 0.198941 -0.168998 0.354951 0.022307 0.174755 -0.394698 -0.053823 -0.176032 0.303012 0.200843 -0.009519 0.061787 -0.198229 0.180433 -0.180808 -0.481074 0.139244 0.398141 -0.179421 -0.273153 -0.058110 0.147451 -0.430888 -0.628527 0.472393 0.395515 0.082307 0.035926 0.028669 -0.200893 -0.238160 -0.139067 -0.239871 -0.056310 -0.094232 -0.328560 0.435114 -0.061459 -0.052890 0.139898 0.062656 -0.262346 -0.496692 -0.275915 0.037956 0.006608 0.244017 0.115151 -0.080851 -0.295909 0.138621 0.099675 0.209006 -0.187103 -0.307876 0.418838 -0.393826 0.086689 -0.155937 -0.118974 0.156565 0.710493 0.121863 -0.199912 0.010120 0.602793 -0.181551 0.150556 0.432588 -0.020953 0.255637 -0.053977 0.057957 0.200563 -0.251708 0.018420 -0.029252 0.747439 -0.088489 -0.001606
find -0.242921 0.082205 -0.146232 -0.242766 0.466763 0.031865 -0.312188 -0.323867 -0.368791 0.584223 0.070716 0.257460 0.135497 -0.012749 -0.024570 0.447634 0.463787 -0.151915 0.053831 0.322645 -0.184903 0.420285 0.376711 -0.234150 -0.127160 -0.464077 -0.036422 0.183361 0.305893 0.311392 0.384906 0.037591 0.015576 0.147936 0.208523 -0.109814 -0.144840 -0.219158 0.129154 0.034832 -0.301622 -0.060781 0.228623 -0.478805 0.174532 0.111074 0.336617 0.096478 -0.209437 -0.289256 -0.377276 -0.073221 -0.043887 0.169328 -0.146873 0.049030 0.346533 0.073711 0.326166 -0.003763 -0.153594 -0.063029 -0.069378 -0.019689 -0.325269 0.308341 -0.045722 -0.169687 0.322221 -0.133596 -0.303044 -0.032335 0.186850 -0.359951 -0.660304 0.002636 -0.061592 0.505280 -0.243890 0.035604 0.139131 0.248366 -0.283188 0.048534 0.377940 0.013842 0.120966 0.080692 0.554741 0.118284 -0.082805 0.313207 -0.021450 0.312510 0.165799 -0.006346 -0.557224 0.216416 -0.119320 -0.544247
same -0.322237 -0.315092 0.531546 -0.050291 0.760099 0.182052 -0.018334 -0.244796 -0.177969 0.218115 0.107525 0.470975 -0.137456 -0.346026 0.369807 0.040669 0.312638 -0.177837 0.306681 -0.229148 -0.084474 -0.354135 -0.055959 -0.378239 0.055625 -0.076349 0.052525 0.353820 -0.312270 0.423617 0.173778 -0.157498 -0.746941 -0.233845 0.084848 -0.023291 0.131272 -0.022048 0.208141 -0.092033 -0.234278 0.502196 -0.510061 -0.091104 0.009413 -0.125159 0.509903 -0.369450 -0.170474 0.191950 -0.224823 -0.346486 0.357555 0.402150 -0.325783 -0.040304 0.224530 -0.545039 -0.465194 0.004872 -0.348734 0.098254 -0.428715 -0.366033 -0.015858 0.444139 0.146704 0.119954 0.021433 0.184522 -0.112647 -0.146801 0.509375 -0.305548 -0.505978 0.290356 -0.386743 -0.536617 -0.157675 0.029477 0.075490 0.533735 0.145753 -0.084436 -0.045902 0.293351 0.333644 0.178520 0.128134 -0.305953 -0.162936 0.377693 -0.104251 -0.381177 0.124895 0.074303 0.070142 0.205546 -0.098229 -0.118826
look -0.402239 -0.282862 0.337081 0.057692 0.141995 0.173906 -0.121400 -0.314454 -0.672261 0.004716 -0.026443 0.526643 -0.382470 0.057730 -0.071803 0.217397 0.453063 0.189644 0.100315 -0.111102 -0.093431 0.160983 -0.036485 -0.007420 0.267435 -0.231908 -0.242679 -0.209147 0.226822 0.485487 -0.222775 0.070674 -0.132847 -0.015904 -0.062142 -0.321711 0.556357 -0.609065 -0.382760 0.300035 -0.233205 0.272491 0.102997 -0.033933 0.157340 0.119165 0.020205 0.308066 -0.018310 -0.374449 -0.164089 -0.155935 -0.055280 0.256508 -0.388511 0.003118 -0.036362 0.438915 0.044972 -0.152269 0.113188 -0.127473 -0.429247 -0.387389 -0.318394 0.487131 0.545598 0.148309 -0.015623 -0.151842 -0.114861 0.084011 -0.144013 -0.108258 -0.365970 0.068983 -0.105821 -0.617999 0.057698 0.148048 0.052175 0.480744 -0.287881 -0.274751 -0.089317 -0.124906 -0.094161 0.314737 0.778911 0.104465 0.247711 0.000195 -0.552301 0.162615 0.170478 0.409326 0.145532 0.249947 0.072197 0.065036
part 0.229766 -0.251558 0.194731 -0.397130 -0.182912 -0.008717 -0.176701 -0.208496 0.128386 0.273072 0.381281 0.277290 -0.308898 -0.037415 -0.176741 0.579424 0.176189 0.389808 -0.083473 0.129343 -0.076953 0.157338 0.081283 -0.316287 0.239869 -0.164825 -0.514620 0.303626 0.211395 0.078826 0.150196 -0.040576 -0.104994 -0.145597 0.065233 -0.392418 0.081705 0.041111 0.152581 0.036646 -0.337854 0.231856 0.065911 -0.222866 -0.204955 0.195807 -0.462895 0.337069 -0.290629 0.059704 0.098164 -0.418431 0.294785 -0.025559 -0.157035 -0.166501 0.042971 0.141877 -0.138557 0.145314 -0.034736 0.187148 -0.091355 0.128557 -0.219158 0.110690 -0.236120 -0.319447 0.607418 -0.368106 0.038144 -0.087048 0.080949 -0.607271 -0.041750 -0.000811 0.033745 -0.439718 -0.385905 -0.010704 0.239578 0.258186 -0.061780 0.000143 0.356162 0.046269 0.230334 -0.169184 0.398883 0.113111 0.170704 0.298988 0.040386 0.297371 0.074305 0.338053 -0.149010 0.418595 0.105125 -0.060255
cast -0.017846 -0.378525 0.378807 0.188540 -0.020554 -0.616248 0.351562 -0.286648 -0.157364 0.601593 0.213582 0.211821 0.004568 -0.108962 0.239685 0.246163 -0.325594 0.737386 0.038064 0.170642 0.539104 0.091028 -0.156572 -0.056477 0.274559 -0.001682 -0.060323 0.536721 -0.205361 0.009864 -0.137015 0.179433 -0.104957 0.017166 0.065753 -0.243151 0.367193 0.100286 -0.501614 0.070960 -0.020704 0.473130 -0.324118 -0.365084 -0.054800 -0.206371 -0.034261 0.200812 -0.404207 0.022672 -0.499859 -0.147616 0.146687 -0.153099 -0.005339 0.071756 0.180668 -0.246390 0.089740 -0.160348 0.080743 -0.444878 -0.136979 -0.019098 0.000440 0.039314 0.123208 -0.305039 -0.031225 -0.041609 -0.038674 -0.016856 -0.052644 -0.529779 0.144999 0.452509 -0.498543 -0.022829 0.007140 -0.588390 0.078844 0.317434 -0.315112 -0.089349 0.574943 0.047327 0.213161 -0.216164 0.263594 0.040080 0.030754 0.415617 0.231576 0.255816 0.055982 0.384033 -0.069046 0.098281 0.492220 -0.206477
want -0.151166 -0.456299 0.301190 -0.017745 0.380075 -0.091534 -0.253862 -0.125368 -0.041256 0.490034 -0.107215 0.105458 -0.078875 -0.490052 -0.182391 0.384481 0.559796 -0.073869 0.077927 -0.325403 0.192859 0.213210 -0.091229 -0.241710 -0.048265 -0.314154 -0.266565 -0.309099 0.498833 0.183171 -0.008627 0.235660 -0.363851 -0.068942 0.024346 -0.087022 0.343921 -0.045676 -0.147935 0.711457 -0.288927 0.456500 -0.237457 -0.550513 0.106716 0.044606 -0.027200 0.111388 -0.525818 -0.210471 -0.123438 0.195210 -0.477174 0.063250 0.054812 -0.360643 0.175542 -0.046917 0.172505 -0.217605 0.331014 0.119048 0.258402 -0.111643 -0.227196 0.266956 0.707950 -0.131303 0.590211 0.103966 -0.381239 0.165596 -0.215330 0.096757 -0.222686 -0.108814 -0.021403 -0.261119 -0.657166 0.156094 -0.109557 -0.070451 0.108202 -0.269690 -0.381712 0.445403 -0.155613 0.259563 0.482619 0.297892 -0.397427 0.270371 -0.239612 0.114214 0.376779 -0.061513 -0.315127 0.533666 -0.036241 -0.039587
down 0.072077 -0.358613 0.331702 -0.439353 0.507127 -0.492329 0.044054 0.190980 -0.597652 -0.027122 0.194775 0.055160 0.380297 -0.185974 -0.033827 0.401586 0.279736 0.230037 0.540606 0.138315 0.179470 -0.216259 -0.021891 -0.450533 0.167648 -0.150550 -0.071272 -0.024355 0.282335 0.271051 0.158026 0.329037 -0.381251 0.043902 0.040474 0.292366 0.017626 0.051982 0.419276 -0.280311 -0.505650 0.225282 0.001532 -0.086509 0.257297 -0.218908 -0.210999 0.115358 -0.261698 0.205069 0.287983 0.347395 -0.380485 -0.045897 -0.040369 -0.484031 0.125079 0.419437 0.560905 -0.319689 -0.177030 0.308736 0.646977 -0.106883 -0.280037 -0.091771 -0.143293 -0.130836 0.610609 -0.327802 0.258295 -0.122110 0.229739 -0.037486 -0.130721 0.884835 -0.182670 -0.119634 -0.118903 -0.055821 -0.057137 0.119340 0.068699 -0.352167 0.260703 0.141513 0.032909 0.108794 0.098246 -0.179953 -0.064538 0.337864 -0.301386 0.518571 -0.307595 -0.197978 -0.057264 0.182874 -0.018394 0.053475
seems -0.050686 -0.161525 0.144019 -0.198673 0.221988 0.125197 0.129364 -0.299343 -0.505305 0.309616 -0.056849 0.558554 0.217984 0.066966 0.233558 0.706189 0.311136 0.373158 0.183103 -0.107174 0.406999 0.405270 -0.282324 0.008845 0.089187 -0.139176 0.169795 -0.206600 -0.407242 0.140494 -0.221423 -0.037208 -0.253564 0.213126 -0.154756 -0.328803 0.474605 0.142091 0.058360 -0.051842 0.066135 0.131408 0.137432 -0.396776 0.380018 0.688219 -0.019480 -0.271596 -0.416896 -0.180747 0.121189 -0.118417 0.472166 -0.243810 -0.639580 -0.376099 -0.231134 0.177515 0.200481 -0.198936 0.014603 -0.201265 -0.027207 -0.068845 -0.045849 0.061530 0.151017 -0.136798 0.344271 0.049241 0.395399 -0.169736 0.225185 -0.185935 -0.112246 0.187199 -0.369407 0.345732 -0.246284 0.213931 0.110020 0.229608 0.261153 -0.089389 0.069428 0.255726 0.087136 0.076314 0.652887 0.202119 -0.014738 0.140500 0.018421 -0.046806 0.194216 -0.085928 0.128119 0.156109 0.336297 0.337837
pretty -0.184887 -0.251396 0.373412 -0.240967 0.143323 -0.261019 -0.358858 0.132274 0.202013 0.036209 -0.101181 0.379416 -0.589199 -0.317077 -0.273653 0.123569 0.135055 0.103284 0.028368 0.019008 0.178180 -0.173500 -0.147367 -0.243966 0.304257 -0.407772 0.104047 -0.312998 0.283338 0.239923 0.061164 0.407597 -0.513949 -0.343731 -0.312444 -0.336735 0.473858 0.231340 -0.286325 0.005321 -0.030145 0.426801 -0.269265 -0.198711 0.158401 -0.096317 0.334502 0.125555 -0.292208 0.009470 0.051353 -0.325159 0.103915 0.401254 -0.232940 -0.189540 0.184326 0.208632 0.157654 0.239933 -0.023625 0.148415 -0.072484 -0.057860 -0.108797 -0.035857 -0.073176 -0.096963 0.047853 -0.185317 0.020863 0.114600 0.028535 -0.345063 -0.392858 0.226325 -0.378663 -0.127528 0.322204 -0.789110 -0.161688 0.516035 0.216063 0.071017 0.214749 -0.052230 -0.012039 0.120138 0.295159 0.219652 0.305956 0.298626 -0.083285 0.399252 0.145662 0.305663 0.111250 0.293035 0.185944 -0.228573
fact -0.113314 -0.366804 0.539052 0.107234 0.141029 -0.048316 -0.106842 0.091270 -0.006341 0.726188 0.540631 0.175426 0.054870 0.125959 -0.121604 0.399934 0.243942 0.032018 -0.103015 0.068063 0.179458 0.180548 0.072292 -0.380842 -0.122836 -0.287981 -0.017517 0.087662 0.065499 0.152061 0.095567 -0.053985 -0.360446 -0.011739 -0.195459 -0.715450 0.005223 0.021919 0.044310 -0.079084 -0.127357 0.222458 -0.373991 -0.228078 0.458505 0.319610 0.105781 -0.291851 -0.141364 0.240426 0.011348 -0.079345 0.262062 -0.082450 -0.288000 0.074827 0.058353 0.141901 -0.641318 -0.110136 -0.226527 -0.083292 0.058309 -0.192585 -0.373955 0.133856 -0.205420 0.016808 0.042530 0.274258 -0.354956 0.020868 -0.106880 -0.466942 0.188708 0.278521 -0.337074 -0.098778 -0.497842 -0.446898 0.014214 0.108965 -0.222798 0.067740 0.039381 -0.041946 0.128210 -0.077601 0.193363 0.142388 0.076391 0.479538 0.065918 0.116245 0.100249 0.313165 0.359424 0.031908 0.111620 -0.375881
own -0.581962 -0.784741 -0.136531 -0.328391 0.325534 0.014533 -0.354453 -0.407438 -0.130795 0.131715 0.518191 -0.226930 -0.188176 0.297856 0.239630 -0.064615 0.406302 0.018311 0.409985 0.035978 -0.474064 0.294002 0.166189 -0.463237 -0.023710 -0.056584 0.169799 0.082249 0.445030 -0.376093 -0.266353 -0.012633 -0.669830 0.237887 -0.160403 -0.187388 0.094348 -0.247540 0.305135 -0.095673 -0.165559 0.492931 -0.106455 -0.011890 0.147282 0.101024 -0.027583 0.466453 -0.209696 -0.123082 0.092040 -0.096409 0.004654 -0.098184 0.022816 -0.222502 -0.126139 0.188041 0.424881 -0.513303 0.026675 -0.076160 0.073422 -0.291810 -0.632296 -0.010244 -0.063972 -0.458873 0.177193 -0.223143 0.038464 -0.197025 -0.154675 -0.390892 -0.061020 0.196063 -0.408004 -0.031103 0.163460 0.199864 -0.042283 0.131132 -0.466270 -0.288959 0.254767 0.176357 0.097023 0.051045 0.277415 0.152778 0.216131 -0.098305 0.059009 0.104790 0.171509 -0.092827 -0.110372 0.469673 -0.472308 -0.101956
take -0.420790 -0.310218 0.240801 -0.122047 0.572539 0.060574 -0.305309 -0.143038 -0.115821 0.278301 -0.040768 0.188513 0.120304 -0.063490 0.031830 0.545683 0.469217 0.394017 -0.019170 -0.160026 -0.212946 0.052071 -0.084163 -0.306506 -0.274429 -0.114995 0.098217 -0.228884 0.344993 0.307740 -0.014374 0.139314 -0.130532 0.257918 0.306941 0.204778 0.215412 -0.201105 0.535683 0.507028 -0.440698 -0.131740 -0.307995 -0.585239 0.233218 -0.249174 -0.235133 0.245987 -0.426720 -0.753911 -0.122234 0.091818 0.142385 -0.012303 0.392906 0.282899 0.078426 0.117025 -0.190457 -0.055819 -0.008560 -0.027247 -0.507224 -0.063750 -0.050179 0.271728 0.531459 -0.097262 0.321885 -0.003716 0.104373 -0.228936 0.046326 -0.100722 -0.302609 0.119156 -0.250281 -0.147663 0.009903 -0.048729 0.264244 -0.033364 -0.173314 0.226172 0.229991 0.275914 -0.371940 0.046483 0.408667 0.077494 0.129978 0.277907 -0.130533 0.429431 0.021396 0.112493 -0.100734 0.231869 -0.061585 -0.100567
world 0.250510 -0.422750 0.069920 -0.405025 -0.096409 0.212442 0.329938 -0.086269 -0.442110 0.624252 0.439611 -0.100471 -0.049350 -0.156458 -0.137199 0.590290 0.130097 0.444243 0.235853 0.037405 -0.249252 -0.097840 0.082783 -0.319817 -0.115174 -0.437294 -0.059547 0.020278 0.138323 -0.360463 -0.417381 0.126468 -0.003914 0.049836 -0.140626 -0.104664 -0.119361 -0.729387 0.193263 0.015776 -0.069528 0.217830 -0.127320 -0.540489 0.171666 -0.024324 0.081643 -0.239519 -0.286629 -0.067627 -0.114975 -0.033829 0.153875 0.053241 -0.132979 0.475445 0.230770 0.104029 -0.093917 0.105689 0.048061 -0.081379 -0.005060 -0.073275 -0.248593 0.363469 -0.068380 -0.196797 0.348251 -0.199286 -0.208604 0.063424 0.337228 -0.409840 -0.019739 -0.309468 0.184137 -0.521697 -0.014866 -0.217237 -0.165348 0.178241 -0.111283 -0.252547 -0.004147 0.482880 -0.197421 0.134909 0.451159 0.119906 0.141929 0.088676 -0.003961 -0.139891 0.152798 0.252291 0.101296 0.104942 -0.323413 -0.534474
long 0.086568 -0.207141 0.824012 0.010680 0.313532 0.079164 -0.130528 0.390137 0.068639 0.082298 0.178332 0.462537 0.346975 -0.097497 -0.179387 0.165498 0.386605 0.455533 0.495971 0.079204 -0.173535 0.071901 0.217668 -0.145009 -0.144164 -0.511701 -0.422899 0.085315 -0.006843 0.154678 0.384797 0.223420 -0.410616 0.085023 0.109515 0.086744 0.145572 -0.192806 0.328847 -0.234750 0.160902 0.010448 -0.184169 -0.211193 0.168749 -0.106760 -0.485453 -0.283118 -0.136486 -0.578350 0.506429 -0.470884 0.000650 -0.061891 -0.054176 -0.301433 0.162310 -0.154744 -0.025853 -0.196111 0.058784 -0.295670 -0.287167 -0.512776 -0.091152 -0.181919 0.187868 0.071892 0.416861 -0.078355 -0.465677 -0.122434 0.071589 -0.272174 -0.277676 0.629949 0.014503 -0.007432 0.315031 0.180805 0.164493 0.097644 0.099462 -0.350913 0.595848 0.110506 0.386335 0.030257 0.469096 -0.382012 0.270260 0.591798 0.258515 -0.068169 0.134583 0.204757 -0.291733 0.192251 -0.247138 0.602566
series -0.329715 -0.532764 0.179170 -0.230160 0.315932 -0.246950 0.298205 -0.162174 -0.213822 0.318946 0.363727 -0.147446 -0.032895 -0.196092 0.049867 0.503211 -0.072213 0.381317 0.346239 0.324946 0.271555 0.270723 -0.055754 0.023609 0.074237 -0.106033 -0.401910 0.259182 -0.032203 0.068746 -0.346638 0.157393 -0.256216 -0.404073 -0.001192 0.404103 0.152668 -0.280758 -0.434423 0.148790 -0.099723 0.199192 0.107340 -0.539902 0.150825 0.232824 -0.246679 -0.177956 0.145479 0.344637 0.228879 -0.813834 -0.267300 0.012233 -0.414238 -0.097054 0.470018 0.081182 -0.131218 0.178014 0.072632 -0.081208 -0.364219 -0.143135 0.024265 0.107994 -0.369080 -0.071765 0.575694 -0.179778 -0.387046 -0.323992 0.068621 -0.123726 -0.214406 0.051676 -0.215183 -0.455850 -0.079558 -0.376886 0.052389 0.019025 -0.176442 0.144561 0.614820 0.364904 0.159959 0.399495 -0.129132 -0.122759 0.227758 0.338215 -0.249134 0.054762 0.199892 0.458751 -0.251046 0.394760 -0.273445 -0.169982
young 0.269808 -0.167712 0.168482 -0.008940 0.073914 -0.091508 0.104348 0.271718 -0.226402 0.777170 -0.204146 0.056498 -0.205346 0.306114 -0.171588 0.387728 0.035389 -0.083222 0.160861 0.292707 -0.315302 -0.073169 -0.075790 -0.149099 -0.183144 -0.191855 0.177133 -0.009621 0.212426 0.097608 0.171182 -0.064307 -0.615945 -0.049913 0.053138 -0.006613 0.223195 -0.362087 -0.090739 -0.088888 -0.445139 0.232053 -0.236915 -0.476994 0.259849 -0.490761 -0.620027 -0.034948 -0.405403 -0.108528 -0.425985 -0.005145 0.165715 -0.177197 -0.127378 -0.434505 0.086389 0.060797 -0.104194 -0.011162 0.157909 0.296798 -0.216360 0.179070 0.092223 -0.003729 0.180791 0.023484 0.144314 0.255065 -0.057600 0.002815 0.656692 -0.255343 -0.172036 -0.139003 0.043421 -0.249431 0.501965 -0.404666 0.253354 0.391881 -0.170011 -0.003660 -0.039615 -0.097379 -0.100969 -0.034011 0.583921 -0.060719 0.129117 0.018132 0.156461 0.179410 0.111903 0.156570 -0.158735 -0.271040 0.253807 -0.249000
action 0.002811 -0.012931 0.347203 -0.047703 0.198527 -0.457845 -0.163022 0.390440 0.027634 0.368250 0.184175 0.099148 -0.355319 -0.512366 -0.200752 0.292974 0.064246 0.697110 0.006465 -0.205732 0.154454 0.286196 0.213977 -0.385631 -0.106226 -0.331831 -0.211097 -0.249048 0.295398 0.116447 -0.132231 0.490185 -0.109991 0.048826 -0.018376 0.065266 0.166592 0.195962 -0.504009 -0.147386 -0.032948 0.049757 -0.237360 -0.279332 0.132399 0.216691 -0.464549 -0.074979 0.297818 -0.210849 0.405688 -0.070756 -0.142602 0.514538 -0.264646 0.175768 0.002176 0.208636 -0.458594 0.084969 0.430196 -0.403895 0.236723 -0.499679 0.019321 0.202768 0.420398 -0.323207 0.641376 0.056500 0.242671 -0.077506 0.239225 -0.373613 0.194014 -0.068824 0.020093 -0.395546 0.231429 -0.708346 -0.210794 -0.170123 0.243400 -0.212290 0.073794 0.197118 -0.060304 0.157181 0.523879 -0.354684 0.191801 0.313127 0.189308 0.045784 0.178812 0.421528 -0.098918 0.495876 0.170758 -0.387595
give -0.329571 -0.361541 0.423035 -0.078863 0.599937 -0.034651 -0.165086 0.017229 -0.207681 0.455432 -0.487531 0.505167 -0.299309 -0.129180 -0.178419 0.511826 0.061187 -0.022156 0.147713 0.010890 0.139670 0.436585 0.152410 -0.211181 0.217572 -0.032339 -0.064391 -0.346669 0.670389 0.064665 -0.036461 0.487568 -0.320534 0.069242 0.293185 -0.423024 0.079991 -0.485382 0.107958 0.524005 -0.125584 0.040288 -0.396517 -0.237781 -0.100709 -0.229458 -0.052362 0.148519 -0.358790 -0.316597 -0.175131 0.089708 -0.660091 0.342052 -0.202977 0.006933 0.190405 0.184739 -0.046528 -0.031234 -0.039588 -0.269323 -0.145972 -0.207883 0.063922 0.363525 0.001242 -0.258128 0.132070 0.198473 0.065582 -0.080033 0.308490 0.168096 -0.011764 0.381299 0.115931 -0.336025 -0.419480 -0.268229 0.208488 -0.029876 -0.230073 -0.239988 0.618865 0.070493 0.090344 -0.033548 0.331859 0.332669 0.108436 0.517765 -0.369133 0.118630 -0.058567 -0.233508 -0.279195 0.319725 0.171792 -0.073951
right -0.143495 -0.344704 0.342034 0.022822 0.578296 0.187804 -0.437304 0.196225 -0.208398 0.130833 0.221498 0.349493 -0.345878 -0.019879 0.244370 0.262393 -0.032939 0.600607 0.128992 -0.053833 0.059797 -0.300939 0.246786 -0.245275 0.134515 -0.234348 0.145755 -0.211237 0.020961 -0.014087 -0.085113 0.302903 -0.319960 0.159237 -0.040233 0.197731 0.149773 -0.117292 0.076364 -0.029578 -0.251247 0.150719 -0.640313 -0.270363 0.386540 0.087496 -0.150092 -0.144227 -0.180322 -0.007809 0.137344 -0.085114 0.181108 -0.114846 0.221484 0.029206 -0.178231 -0.048125 0.199360 -0.174845 -0.282832 0.243245 -0.143128 -0.128835 -0.218810 0.139086 -0.027607 -0.189061 0.300400 -0.162858 0.345594 0.154932 0.139849 -0.290284 -0.126967 0.245177 -0.447923 -0.092245 -0.347057 -0.032265 -0.088504 0.412370 -0.137844 -0.188664 0.188528 0.393717 -0.128238 0.107914 0.177596 0.235528 0.036790 0.173377 -0.352478 0.142208 0.123523 0.165521 -0.214822 0.481127 -0.429930 0.140156
point -0.127784 -0.422762 0.186991 -0.390179 0.509469 -0.018104 0.315751 -0.263732 -0.067454 0.467733 0.085674 0.036309 -0.076742 0.020899 -0.065924 0.574269 0.319649 0.336416 0.511154 0.318490 0.071074 -0.231191 0.213830 -0.310114 -0.090723 0.354303 -0.448994 -0.608724 0.129576 -0.039601 -0.244094 -0.177914 -0.288176 0.008208 -0.013480 -0.375283 0.280211 -0.089492 -0.089516 0.088745 -0.377784 -0.086616 -0.274608 -0.040600 0.133293 0.386592 0.026777 -0.336001 -0.057655 -0.160396 0.023002 0.171875 -0.051573 0.075604 -0.149979 -0.312592 -0.214312 0.422351 0.076100 -0.185223 -0.191952 0.003088 -0.399391 0.445853 -0.280636 0.226369 0.033744 0.151553 0.387391 0.094858 0.171507 0.246646 -0.175096 -0.422912 -0.198871 0.010014 -0.061734 -0.288221 -0.245126 -0.407716 -0.051000 0.330201 -0.106325 -0.387930 -0.066003 0.214801 -0.293917 -0.353922 0.337625 0.415190 0.125020 0.449808 -0.079161 0.228795 0.408546 0.059313 -0.312247 0.389806 -0.323989 0.141091
interesting 0.075767 -0.416630 0.122876 -0.107293 0.118233 -0.411872 0.030063 0.194535 -0.201121 0.510477 0.198145 0.130302 -0.095488 -0.198511 -0.278991 0.622755 0.122708 0.125710 0.283880 0.106877 -0.084917 0.086392 0.232043 0.037282 -0.165795 -0.122397 0.054976 -0.301369 0.235646 0.453057 -0.019376 0.140334 -0.018398 -0.128391 0.006627 -0.148562 0.099756 0.343399 -0.241010 0.064142 -0.095287 0.303879 -0.163379 -0.427847 -0.227158 0.322643 -0.102376 -0.148686 0.046262 -0.055428 0.079414 -0.364602 0.143782 0.306327 -0.255657 -0.305955 0.158182 0.015136 -0.064606 -0.120217 0.285592 0.009785 -0.519843 -0.048898 -0.461554 -0.075263 0.578321 -0.365618 -0.155810 -0.087815 0.446185 0.176837 0.078973 -0.214872 0.001897 0.088372 -0.506367 -0.260717 -0.145634 -0.336102 0.375283 0.471998 -0.488810 -0.140528 0.026280 0.287954 0.156648 0.226411 0.453764 -0.067969 0.246913 0.267801 0.042592 0.184923 -0.062857 0.433939 -0.274717 0.364019 -0.264451 0.287542
new -0.027633 -0.796506 -0.271267 -0.105481 0.583869 -0.078268 -0.145510 -0.198356 -0.039070 0.590569 0.206892 0.030397 0.079228 -0.196164 0.004630 0.220214 -0.056828 0.208700 0.160359 0.085777 -0.310897 -0.016634 -0.358515 -0.295053 -0.051326 -0.021499 0.017825 0.102729 0.045911 0.080136 -0.435867 0.285981 -0.538132 0.236336 0.158795 0.089167 0.008469 -0.163063 -0.128848 -0.112263 0.281533 -0.004024 0.113894 0.129686 0.091933 -0.184888 0.329311 0.012967 -0.197591 0.028713 -0.005661 -0.263494 -0.086865 0.394938 -0.716696 -0.101813 0.222279 -0.045101 0.059998 0.021315 -0.083854 0.162178 -0.157251 -0.198859 -0.379928 0.374682 0.061763 -0.400011 0.087901 -0.051059 0.181459 -0.280820 0.116712 -0.156973 -0.375333 -0.264846 -0.445300 -0.070649 -0.015566 -0.012927 -0.103425 0.311763 -0.064660 -0.388461 0.116694 0.552415 0.049122 0.381238 0.294963 0.029697 0.316159 0.103903 0.167143 -0.152741 0.239708 -0.005436 -0.456461 0.028471 -0.021268 -0.179492
bit 0.209888 -0.136911 0.225158 0.151549 0.309523 -0.087917 0.060982 0.026509 -0.061663 0.335095 0.076144 0.203217 -0.455113 0.043624 -0.407082 0.369018 0.340454 0.293827 -0.425462 -0.029505 0.212158 0.117077 -0.144858 -0.037136 0.351948 -0.089368 0.148668 -0.436682 0.122215 0.454361 0.248364 -0.158229 -0.554000 -0.491222 -0.227938 -0.122115 0.196243 -0.090344 0.077633 -0.106645 -0.475866 0.020146 -0.161482 -0.468914 0.152994 0.281604 0.102052 0.134552 -0.172766 -0.173309 0.351523 -0.207572 0.167699 0.021559 -0.087000 -0.324745 0.132686 0.321889 0.132302 0.116467 -0.007360 0.055989 -0.038360 -0.252884 -0.370981 0.215194 -0.241661 -0.094922 0.491430 -0.290622 0.374488 -0.004472 0.095028 -0.383766 -0.110201 0.108344 -0.103259 0.178868 -0.092365 -0.180087 0.023551 0.258202 0.049300 -0.204530 0.270257 0.057094 0.072006 0.128548 0.281826 0.191792 0.161108 0.376571 0.241106 0.348923 0.318778 0.338077 -0.029552 0.343271 0.021518 0.586459
family -0.213271 -0.601919 0.077236 -0.790242 0.149147 -0.150464 0.218884 -0.181564 -0.525743 0.811568 0.281097 -0.066753 -0.206156 -0.075145 -0.315125 0.326395 -0.152777 0.409728 0.179071 0.137715 0.087846 0.360243 0.153604 -0.181043 -0.288423 -0.371316 0.015192 0.145124 0.093851 -0.292915 -0.094724 0.002180 -0.024887 0.123647 -0.064986 0.081031 0.339090 -0.452633 0.031410 -0.090069 -0.270300 0.114975 -0.033836 0.206378 0.299154 -0.250555 -0.119387 0.339397 -0.321511 0.185113 -0.084577 -0.177113 -0.336178 -0.226093 0.060043 -0.154385 0.298554 0.278893 0.308487 -0.007310 -0.002985 0.268570 0.067576 -0.061000 0.071255 -0.469158 0.134980 -0.021363 0.278918 -0.034360 0.204511 -0.168743 0.212736 -0.553860 -0.161773 0.227930 -0.028171 0.079810 0.360376 0.048753 0.225214 0.406801 0.216762 -0.082362 0.034089 0.548979 0.137768 0.000883 0.215122 0.118761 -0.254741 0.220568 0.441135 0.049099 0.045805 0.471738 -0.158772 0.168112 -0.195656 -0.546740
script -0.063074 -0.603159 0.726886 -0.240271 0.319899 -0.462637 0.030827 -0.045377 0.064815 0.214779 0.511175 0.163598 0.060907 -0.351835 -0.140272 -0.020180 -0.129431 0.171923 0.308650 -0.066465 0.405050 0.157089 0.291849 0.045041 0.462872 -0.047027 0.166960 -0.079119 -0.086099 -0.194828 -0.098113 -0.003751 0.030909 0.016552 0.007132 -0.199554 0.384341 0.218909 -0.108213 -0.090011 0.017261 -0.099287 -0.327522 -0.560694 0.250815 0.198204 0.094166 -0.041832 -0.042374 0.310388 -0.143270 -0.163359 -0.099783 -0.211643 0.102712 -0.059748 -0.096044 -0.125735 0.044225 -0.185473 0.020368 -0.382788 0.310677 0.134722 -0.541110 0.298764 0.095588 0.194298 -0.016705 -0.328739 -0.182287 0.034600 0.289855 -0.426980 -0.126229 -0.027344 -0.563213 -0.242161 0.144443 -0.356853 0.086735 -0.210018 0.070048 -0.080783 0.209299 0.206677 0.298113 -0.067046 0.581811 0.265944 -0.083801 0.345287 0.397407 0.514499 0.148161 0.294123 0.167465 0.338822 0.221049 0.167757
come -0.019462 -0.249882 0.222594 -0.026419 0.549316 0.042038 -0.420330 0.096993 -0.569124 0.277737 0.052939 0.223122 0.134768 0.021772 -0.024373 0.130163 0.008442 0.043564 0.060137 -0.070120 -0.268648 0.496525 0.042687 -0.244566 -0.178275 -0.676032 -0.180484 0.028986 0.320753 0.023358 -0.033737 0.067095 -0.325518 -0.208000 0.189911 0.115332 -0.173671 -0.168981 -0.024720 0.292564 -0.144847 0.092439 0.012855 -0.446370 0.146514 -0.094415 -0.025929 0.220959 -0.172296 -0.439900 -0.108275 -0.074426 -0.375759 0.302610 -0.026005 -0.017691 -0.045817 0.216018 0.249683 0.265129 -0.237839 -0.421817 -0.133530 -0.286226 -0.098920 0.427636 -0.110927 0.077303 -0.156569 -0.021928 0.169370 0.208694 0.426097 -0.240996 -0.296429 0.136657 -0.671668 0.067279 0.059583 0.422015 0.113080 0.227022 -0.327056 0.340597 0.469353 0.480747 0.098817 -0.012396 0.415447 -0.157309 -0.292421 0.423820 -0.360580 0.277859 0.375265 -0.007758 0.080400 0.710991 0.182182 -0.400849
big 0.057369 0.045296 0.312377 0.173721 0.035232 0.288099 -0.005888 -0.058260 -0.030189 0.090040 -0.431502 0.413171 -0.378141 -0.415725 0.208056 0.158808 0.338666 -0.067847 0.151067 -0.024510 -0.007976 0.091409 -0.154860 -0.362080 -0.020931 -0.137290 -0.606533 0.138485 0.153352 -0.160797 -0.085477 0.203722 -0.735149 0.255956 0.229859 0.129129 0.097367 0.229463 -0.122176 -0.426939 -0.190570 0.322997 -0.383857 -0.170363 0.571342 -0.123729 -0.492723 -0.078695 -0.252066 -0.430069 -0.034370 -0.024836 0.053928 -0.011853 -0.176142 -0.192165 0.411503 -0.168575 -0.041824 -0.432996 0.212576 0.169784 -0.032552 -0.102206 -0.269608 0.308689 0.338328 0.084631 0.239062 -0.210233 0.169722 -0.156333 0.257937 -0.828436 -0.260999 -0.082371 -0.393259 0.168942 -0.085030 0.111293 -0.150423 0.129198 0.031336 -0.330175 0.470857 0.382817 0.015679 0.480610 -0.133836 0.401315 0.353081 0.215748 -0.100260 0.416591 -0.196911 0.257872 -0.007000 0.163001 -0.023424 -0.026660
feel -0.084145 -0.414689 0.385862 0.061315 0.262583 0.059759 -0.054408 -0.061011 -0.459333 0.423550 0.113937 0.332401 -0.071560 -0.230578 -0.339173 0.380917 0.064251 -0.033435 -0.010766 -0.079310 0.059837 0.348338 0.132997 -0.277919 0.515724 -0.447635 -0.403871 0.092302 0.190272 0.122158 0.130116 0.005657 -0.256856 0.059783 -0.197092 -0.041872 0.109802 -0.536794 -0.164087 -0.243334 -0.343369 0.229274 -0.037288 -0.028715 0.179776 0.314643 -0.031311 0.206516 -0.205503 -0.231484 -0.415529 -0.292064 0.080071 -0.182614 -0.314712 -0.081187 0.258453 0.109501 -0.164185 -0.206878 -0.197478 -0.304343 -0.292047 -0.504515 -0.261330 0.371430 0.163088 0.176166 0.470123 0.184832 -0.007740 -0.183711 -0.276227 -0.067508 -0.036993 -0.050496 -0.041492 -0.163905 -0.210887 0.094891 -0.049660 0.272193 0.445907 -0.361592 -0.047129 -0.166425 0.486412 -0.074633 0.811123 0.500298 -0.045302 0.177945 -0.335991 0.261457 0.191942 0.235993 -0.201826 0.216160 -0.203291 0.106885
making -0.262761 -0.445807 0.190251 -0.256004 0.170979 0.107562 0.200910 0.192933 -0.086446 0.157255 0.022358 0.200646 -0.164565 -0.129736 0.136229 0.357712 0.289509 0.254144 -0.124640 0.271532 0.061438 0.254087 0.229470 0.008755 0.176284 -0.270551 -0.126978 -0.325888 0.309895 -0.063314 -0.174695 -0.013124 -0.420462 0.308455 -0.220875 -0.239948 0.040417 0.023336 0.072926 -0.023701 -0.165554 0.246498 -0.492161 -0.134432 0.019421 0.065274 0.068194 0.146687 -0.094427 0.141142 0.036490 -0.031183 0.010496 0.247091 0.244246 0.014049 0.020678 0.236907 -0.298457 -0.048644 0.272747 0.020207 -0.198511 -0.308225 -0.218097 0.241153 0.343720 -0.136989 0.196150 -0.051351 -0.264807 -0.362035 0.199724 -0.360892 -0.209518 0.261412 -0.339536 0.032578 0.419452 0.336600 0.176019 -0.285597 -0.095640 -0.159251 0.254414 0.368586 0.029966 -0.159970 0.544281 0.309809 -0.258294 0.351164 -0.179448 0.369722 0.017256 0.494225 0.048534 -0.047415 0.181025 -0.285143
might 0.095647 -0.082580 0.332697 -0.298450 0.447471 -0.293769 0.150430 -0.053731 -0.384562 0.485712 0.043653 0.405254 0.115286 0.138785 0.320872 0.406174 0.422319 0.548847 -0.342229 0.019035 -0.053102 0.511810 -0.143680 0.037408 0.053865 -0.202073 0.427187 -0.206573 0.182520 -0.082500 -0.292822 0.211437 -0.132294 -0.269561 -0.022898 -0.152548 -0.059324 0.331050 -0.222453 0.107758 -0.363452 0.075060 -0.694776 -0.310307 0.283399 0.405131 -0.005528 -0.012516 -0.202822 -0.045855 -0.129900 -0.294549 0.385177 0.147486 -0.415089 -0.382964 0.353299 0.144404 0.425458 -0.156601 0.373915 0.087586 -0.207269 -0.200717 0.066463 0.021849 0.085734 -0.108837 0.438099 0.080787 -0.212808 0.177693 0.050910 0.062614 -0.396908 -0.140943 -0.108707 0.057922 -0.336504 0.054577 0.251155 0.318859 0.124909 -0.094751 0.314462 0.225413 0.518501 -0.090709 0.454605 -0.001149 0.026881 0.177978 -0.334059 0.135602 -0.000513 0.010214 -0.056694 -0.066962 -0.105449 0.285234
performance 0.212162 -0.470282 0.552133 0.083284 0.019385 -0.241394 0.210925 -0.033860 0.033527 0.124788 0.225137 0.184978 -0.361819 0.634150 -0.794495 -0.259256 -0.449541 0.770247 -0.042913 -0.001917 0.119843 0.392232 -0.009940 -0.489759 -0.033980 0.385819 -0.049141 -0.202408 -0.031757 0.541738 -0.144062 0.219130 -0.132911 0.247976 0.099675 -0.413612 -0.055432 -0.042776 -0.296868 -0.081435 0.187557 0.006483 -0.359868 -0.378053 -0.232152 0.100448 -0.378240 0.362488 -0.151889 0.104835 -0.184086 -0.500010 0.001357 0.019000 0.238719 -0.231257 0.168784 -0.079296 -0.039131 0.236556 0.198085 -0.350588 0.551460 0.468328 -0.146358 0.530799 -0.065774 -0.269933 0.168772 0.027582 -0.359122 0.133916 -0.062125 -0.155312 -0.327366 0.770152 -0.053083 -0.006651 -0.203769 -0.401703 -0.009280 0.296497 -0.276735 -0.587734 0.305161 -0.234309 0.020370 -0.103645 0.666795 0.099103 0.134552 0.654212 -0.000891 -0.260665 0.281821 0.073079 -0.159950 0.323715 0.448949 -0.359431
guy 0.018075 -0.443494 0.315183 -0.178386 0.380954 -0.052291 -0.047019 0.024771 -0.155234 0.424862 -0.138924 0.152421 -0.179127 0.061902 -0.315704 -0.400100 0.053290 0.205650 0.171444 0.049956 0.342805 -0.087804 0.078006 -0.574493 0.200372 -0.424087 -0.305889 -0.302347 0.236347 0.460507 -0.062804 0.238133 0.031714 -0.102492 0.059206 0.068337 0.658121 0.430119 0.091584 -0.204632 0.177827 0.336527 -0.503019 -0.799192 0.348444 0.016519 -0.206746 0.149989 -0.432660 -0.042077 -0.162023 0.063512 -0.122248 -0.220922 0.005775 -0.225707 -0.151091 0.490983 0.260191 -0.303550 -0.463469 0.338428 -0.031015 -0.221631 0.096456 -0.021925 -0.017495 0.075997 0.526782 -0.126330 0.311624 -0.369878 0.249059 -0.724100 -0.467570 -0.242941 -0.175376 -0.211578 -0.074371 -0.053629 -0.241346 0.353975 0.262848 0.050422 0.053062 -0.140846 -0.101475 0.045572 0.619975 0.233452 -0.417864 0.262709 -0.325955 0.225929 -0.019206 0.076432 0.285988 -0.031481 0.159587 -0.091166
music 0.275009 -0.278525 0.691671 -0.263324 0.076242 -0.099133 -0.044486 -0.179394 -0.196271 0.390257 0.062380 -0.167386 0.148664 -0.687727 -0.561518 0.047242 0.018970 0.272924 0.061205 0.370068 0.077428 -0.300350 -0.050483 -0.012481 0.485290 -0.173927 0.012947 0.160373 0.497590 0.137825 0.088593 -0.102525 -0.077332 0.456157 -0.307743 -0.166711 0.137671 -0.298242 -0.224548 -0.105955 -0.283251 -0.071914 -0.257650 -0.217275 -0.125201 0.424938 0.171798 0.230689 -0.092814 -0.390643 0.399543 -0.210076 0.223447 -0.032050 -0.170369 -0.410429 -0.306416 -0.049846 0.096247 -0.644373 0.155303 -0.309666 0.168208 -0.543838 0.167021 0.595046 -0.017694 0.052241 -0.107957 -0.283608 0.178455 -0.143889 -0.408760 -0.747079 -0.464843 0.258140 -0.095123 -0.220094 0.180526 -0.201701 -0.039682 0.152893 0.220622 -0.591372 0.141786 0.399641 -0.114678 0.150511 0.377639 0.160346 -0.263015 0.124851 0.261964 0.506261 0.544702 0.392055 0.195673 -0.118241 0.447072 0.022855
kind 0.272625 0.027369 0.142079 -0.191737 0.232166 0.363745 0.034283 -0.184366 0.116539 0.704368 0.061247 0.306442 -0.298724 -0.096713 -0.072025 0.264316 -0.176887 -0.127427 0.184789 0.048836 -0.021171 -0.024205 0.296356 -0.243088 -0.170653 -0.326056 -0.155800 -0.181475 0.097535 0.167189 -0.286151 0.063209 -0.272203 0.022141 -0.192249 -0.469113 0.182490 -0.007615 0.099793 -0.081706 -0.310452 -0.140459 -0.419247 -0.058281 0.074098 0.438740 -0.091438 0.321997 -0.393807 0.208989 -0.223126 -0.304249 0.248361 0.124373 -0.241365 0.067688 0.294909 0.376669 -0.131677 0.062013 0.242709 0.138963 -0.219665 -0.266974 -0.109066 0.258821 -0.042414 0.092723 0.401642 -0.218660 0.311232 -0.114873 0.146358 -0.114379 -0.197075 -0.128459 -0.246358 -0.313615 -0.168477 0.011175 -0.017827 0.124357 -0.000896 0.201346 0.187351 0.396495 0.260573 0.128682 0.543781 0.069221 -0.228678 0.258791 -0.386222 0.397274 0.246476 0.172194 -0.334564 0.253110 -0.161603 -0.063771
woman 0.051776 -0.143299 0.637347 0.218420 0.170015 0.047736 0.219113 -0.293814 -0.443878 0.633361 -0.144174 0.267692 0.136413 0.244892 -0.459222 0.005294 -0.104628 -0.085558 0.353863 0.375271 0.153251 -0.122163 0.020140 -0.355581 -0.296399 -0.275100 0.243045 -0.309375 0.042744 0.467561 -0.132855 -0.036838 -0.097167 0.057323 -0.261288 0.220272 0.248211 0.020061 0.031262 -0.058213 0.158784 -0.009496 -0.220632 -0.350529 0.328832 -0.218979 -0.288493 0.363362 -0.430972 -0.140788 -0.564317 0.099710 0.078186 -0.211314 -0.024094 -0.679020 -0.285393 0.203456 0.006658 -0.096075 -0.014746 0.564479 -0.209875 0.141526 -0.012663 -0.276111 0.058758 -0.228173 0.369679 0.098957 -0.381673 -0.097287 0.527072 -0.709143 -0.331423 -0.439986 -0.010987 0.151665 0.244239 -0.166868 0.050209 0.399871 -0.090572 0.075877 -0.024460 0.071167 -0.180755 0.104475 0.647183 0.009591 -0.465060 0.358931 0.044067 -0.121075 -0.353687 0.358126 0.003625 0.089282 0.121919 -0.104372
girl 0.118844 -0.135241 0.649137 -0.157645 0.356041 0.149198 0.047742 -0.062521 -0.371493 0.655937 -0.217666 0.050656 0.306424 0.094128 -0.480409 -0.021322 -0.212011 0.158258 0.011980 0.332858 0.144275 -0.044187 0.307700 -0.560803 -0.209038 -0.449354 0.152603 -0.192776 0.285752 0.282729 0.256108 -0.153360 -0.208511 -0.125245 -0.023164 0.027320 0.418216 0.141020 0.012766 -0.165467 0.057471 0.076477 -0.199005 -0.533942 0.233247 -0.064771 -0.216855 0.295499 -0.322959 -0.237789 -0.105938 0.069178 -0.090816 -0.052379 -0.151802 -0.745841 -0.397147 0.287456 0.062108 -0.037436 -0.143552 0.732272 -0.307135 -0.112096 0.267127 0.145340 -0.082597 -0.193333 -0.024965 -0.041097 0.249625 -0.111541 0.416718 -0.806165 -0.421993 -0.201794 0.077576 -0.098498 0.145664 -0.313916 -0.215006 0.368772 0.162897 -0.053185 -0.055407 0.056914 -0.431503 0.197008 0.579855 0.005177 -0.036374 0.251631 -0.054873 -0.004372 -0.188704 0.211000 -0.076947 -0.035392 0.080123 -0.010942
fun 0.087710 -0.099359 -0.197349 -0.371740 0.211823 -0.274876 0.190538 -0.052661 -0.185395 0.225853 0.136864 0.289740 -0.442181 -0.577301 -0.098462 0.191116 0.168817 0.018313 0.084213 0.211863 0.165606 0.169928 -0.363050 -0.120724 0.192751 -0.276435 -0.050996 0.163154 0.303595 0.140519 -0.124565 0.184602 -0.200304 -0.149895 -0.106516 -0.306872 0.184235 0.075160 -0.154493 0.198651 -0.686764 0.241300 -0.261536 -0.252910 -0.008466 0.250876 0.357845 -0.133539 -0.175982 -0.381739 -0.439175 0.053489 -0.121358 -0.184512 0.092486 -0.218741 0.471470 -0.048753 -0.164589 -0.075593 0.277396 -0.161974 -0.090466 -0.448822 -0.208666 0.155169 0.365922 -0.255541 0.571470 0.017359 0.284988 0.032013 -0.107145 -0.330676 -0.259955 0.503006 -0.165337 -0.301122 0.140481 -0.023601 0.115052 0.579497 0.262812 -0.261949 0.011456 0.659095 -0.071169 0.203595 0.251400 -0.220118 0.150478 0.214124 0.228662 0.340721 -0.154427 0.457787 -0.072404 0.616539 0.266105 0.147034
hard -0.168065 0.261943 0.058691 -0.000664 0.170968 0.093741 -0.130372 0.076286 -0.367164 0.720950 0.320405 0.520874 -0.015371 0.152416 -0.291347 0.436346 0.537927 0.097706 0.178120 0.141793 -0.224106 0.018467 0.351300 0.228646 -0.138650 -0.362117 0.056810 0.153927 -0.281034 -0.224895 0.003482 -0.048006 -0.108281 -0.259572 0.224659 -0.106689 0.651390 0.586630 0.095205 0.308596 -0.336996 0.077308 -0.437125 -0.766656 0.427971 -0.111442 -0.081858 -0.201388 -0.286206 -0.458552 -0.031556 -0.124711 -0.256302 -0.447154 -0.021089 -0.196552 0.477413 -0.184199 -0.197928 -0.273549 0.301149 -0.348163 0.296038 -0.340897 0.043936 0.149062 0.124775 -0.270612 0.777079 0.016797 -0.075327 -0.099742 0.019378 -0.436174 -0.277051 0.649434 -0.274808 0.421529 0.328916 -0.323650 0.170309 0.082760 0.215705 -0.085692 0.098390 0.344017 -0.320314 -0.076642 0.321555 0.416753 0.150936 0.162658 0.021474 0.451112 -0.153450 0.032586 -0.162907 0.396380 -0.063727 0.368907
worst -0.042316 -0.510191 0.191707 -0.521033 0.409285 0.066023 -0.169236 0.350416 0.379840 0.372201 0.507068 0.611641 0.108796 -0.242119 0.193295 0.159100 -0.066090 0.246583 0.474843 0.156559 -0.219003 -0.335611 0.499464 -0.224404 -0.106547 0.488588 -0.126586 0.110218 -0.223666 0.217206 -0.514120 0.048809 -0.314869 -0.121087 0.057585 -0.836222 -0.046291 0.178728 0.122778 0.022261 -0.286907 -0.298037 0.115279 -0.569595 -0.042518 0.132098 -0.698471 -0.230860 -0.139449 -0.100021 -0.139990 0.188320 0.196439 0.751761 0.192634 -0.637623 0.293131 0.375332 -0.017655 -0.009946 -0.231634 -0.013147 0.217641 -0.311934 0.214483 0.560977 0.327402 0.262133 0.380023 -0.089839 -0.072170 0.178329 0.098359 -0.460251 -0.487988 0.407448 -0.552982 -0.670819 0.084306 -0.002202 0.062420 0.031265 0.296539 -0.081152 0.490706 0.396233 0.318377 0.183367 0.033725 0.539743 0.467284 0.290700 -0.641550 -0.384117 0.365359 0.308249 0.226519 0.742791 -0.153691 -0.352551
found 0.016107 -0.051767 0.065963 0.078293 0.158454 -0.131704 -0.183121 -0.198136 -0.507741 0.465425 -0.036121 0.237511 0.032109 0.149891 0.032341 0.356542 0.460397 0.236781 0.134658 0.369152 0.093899 0.326424 0.149368 -0.379224 0.096770 -0.095657 0.533166 0.172765 0.235854 0.256987 0.261557 -0.116006 -0.055090 0.259267 -0.134913 -0.435479 0.133653 0.173556 0.022141 -0.102810 -0.239331 -0.087450 0.192259 -0.553453 0.094129 0.613666 0.093842 -0.101871 0.070284 -0.021529 -0.097515 -0.709585 0.031253 0.405455 -0.165803 -0.230989 0.300677 0.035407 -0.036782 -0.179625 0.013888 -0.130816 -0.283053 0.179031 -0.308945 -0.033547 0.093105 -0.180673 0.314597 0.149600 -0.021594 0.057648 0.552804 -0.281370 -0.521204 0.130200 -0.437701 0.392080 -0.112694 -0.056864 0.100122 0.262053 -0.132109 0.122983 0.461644 -0.081732 0.166073 0.354492 0.236296 0.189451 0.178876 0.213601 -0.133058 0.078132 0.386142 -0.042140 -0.157916 0.061437 0.103314 -0.246009
course -0.241218 -0.088480 0.390936 -0.406428 0.233593 0.566984 0.138038 0.221821 -0.314586 0.361386 0.441550 0.223280 -0.215593 -0.080909 0.324647 0.452225 0.328057 0.118304 0.072877 0.653612 -0.100039 0.163415 -0.110317 -0.094223 0.187623 -0.122937 -0.309238 -0.038106 0.098343 0.076098 -0.061329 0.160849 -0.304332 0.173077 0.131317 -0.423636 0.653680 -0.205715 0.016498 -0.223906 -0.384131 0.085986 -0.064489 -0.202789 0.123809 -0.195052 0.237097 -0.122161 -0.265359 -0.469000 -0.060823 0.042837 0.054627 0.037625 -0.134343 0.212705 -0.107201 0.072789 0.211165 0.203385 0.380233 0.546106 0.149522 -0.294507 0.090113 0.220870 -0.171261 0.123460 0.231296 0.161331 0.023850 0.143280 0.256975 -0.559039 -0.031069 -0.184645 -0.255814 -0.021856 -0.409456 -0.401420 0.074637 0.153298 -0.063531 -0.105076 0.384558 0.479245 0.017061 0.049249 0.133725 0.278478 -0.003726 -0.116797 0.328875 0.306733 0.113868 0.196924 -0.015996 0.419532 0.151987 -0.093049
believe -0.130079 -0.405176 0.388373 0.019533 -0.194114 0.016675 -0.311879 0.218340 -0.278905 0.553377 0.575719 0.355221 -0.065966 -0.049195 -0.217286 0.190040 0.543706 0.089705 0.153598 -0.009883 0.246204 -0.109416 0.152246 -0.230256 0.030115 -0.097490 -0.247337 0.168787 0.026138 0.128581 -0.204589 0.284599 -0.219248 0.107464 0.106212 -0.257462 0.155740 -0.144111 0.195651 -0.057352 0.015809 0.256297 -0.074113 -0.479969 0.337066 0.191255 0.020651 -0.219181 0.027173 -0.259805 -0.458908 0.292352 0.408941 0.062132 -0.043752 -0.171805 0.577088 -0.189168 -0.192927 0.127120 0.029179 -0.013641 -0.345235 -0.181768 -0.133412 0.435789 0.061328 -0.232506 0.167927 0.200302 -0.255397 0.180890 0.048152 0.148404 -0.246979 0.007552 -0.338633 0.201964 -0.226623 -0.369455 0.038499 0.241371 0.023841 0.060326 0.233082 -0.212489 0.291771 -0.059481 0.619906 0.382223 -0.085273 0.396293 -0.247624 0.397521 0.302047 -0.126878 -0.100143 0.138236 -0.054664 -0.271934
different -0.374234 -0.420762 0.147002 -0.074514 0.632067 -0.409803 0.337322 -0.262690 -0.541104 0.549300 0.214660 0.010713 -0.007017 0.105039 0.253330 0.593833 0.279022 -0.026420 0.580568 -0.086139 0.039348 0.043445 0.094624 0.251673 -0.271925 -0.211016 -0.149414 0.113968 0.064255 0.360645 -0.418935 0.232577 -0.532594 -0.067629 -0.085827 0.134291 -0.010107 0.272250 0.181679 -0.553725 -0.235677 0.387925 -0.220912 -0.177451 -0.041206 0.043710 0.106472 0.079256 -0.326588 0.167453 0.155647 -0.392425 0.272436 0.209817 -0.593365 -0.145455 0.014282 0.053123 -0.162372 -0.310157 -0.182453 -0.131899 -0.521656 -0.344980 -0.310401 0.499177 0.418882 -0.021062 -0.158237 0.172691 0.803974 -0.178944 -0.072705 -0.343443 -0.598367 0.456131 -0.245112 -0.043554 -0.017351 -0.030507 -0.031202 -0.095886 -0.643919 -0.393927 -0.317736 0.071561 0.156060 0.020908 0.148919 0.197579 -0.258676 0.105898 -0.077066 -0.230164 -0.069144 0.061722 -0.377955 0.314303 -0.276319 0.044857
place 0.125718 -0.106125 0.304182 -0.473258 0.240194 0.017203 -0.038795 -0.714199 0.018111 0.308400 0.426592 0.287882 0.109261 -0.162094 0.081408 0.606718 0.144455 0.855672 -0.048890 -0.288102 0.203825 -0.155966 -0.065579 -0.487415 -0.144122 -0.432426 -0.187707 0.012503 0.016122 0.305240 0.030327 0.209585 -0.054211 0.192193 -0.005003 -0.139329 0.509777 -0.387395 0.484188 -0.030830 -0.266543 -0.099425 0.271149 -0.173711 0.335689 0.239621 -0.300168 -0.114405 -0.149933 -0.744024 0.294418 -0.646727 0.272592 -0.138243 0.245193 0.157449 0.052328 0.140578 -0.473218 -0.051332 0.040946 0.189913 -0.478005 0.115525 -0.224238 0.248653 0.433524 -0.043499 0.249986 0.327353 0.012400 -0.007759 0.238178 -0.457941 -0.346640 0.250231 0.097363 -0.036161 -0.108337 0.090888 -0.247106 0.032604 -0.443284 -0.018644 0.056888 0.208541 -0.112844 0.159509 0.259899 -0.008620 -0.042397 0.163486 0.089591 0.139095 0.107586 0.495576 -0.034185 0.399689 -0.347852 0.052043
day 0.372115 -0.762633 -0.042029 -0.176757 0.254330 0.479006 -0.440200 0.065575 -0.626988 0.221259 0.534811 0.064599 -0.127572 0.352410 -0.025772 0.306649 -0.117339 -0.115537 -0.013246 0.218696 -0.238155 0.299937 0.132995 -0.433359 0.069298 -0.300651 -0.150829 -0.234847 0.025183 0.066087 0.057960 0.102242 -0.215042 -0.145056 0.414666 -0.175593 0.317614 -0.320598 -0.092857 -0.065904 0.161410 0.174852 0.180528 -0.328178 0.339458 0.172834 0.018524 -0.204906 -0.304211 -0.152428 -0.021466 -0.150919 -0.301271 -0.059727 0.428088 -0.205310 0.137460 0.361525 -0.011366 -0.539818 0.310990 0.316592 -0.246625 -0.326901 0.128249 0.239838 -0.187244 0.016181 0.295842 -0.077664 -0.052938 -0.007992 -0.065033 -0.246872 -0.662051 -0.054480 0.235167 -0.336142 -0.104267 -0.399763 0.140329 0.236756 -0.111071 -0.078601 -0.090621 0.519840 0.144544 -0.198170 0.252123 -0.064849 0.086496 0.146742 -0.107747 0.161117 0.085478 0.188324 0.229024 0.430919 0.131996 -0.209649
set -0.062057 -0.215845 0.206941 -0.409935 -0.016972 0.082065 -0.490748 -0.428664 -0.571089 0.429816 0.150168 0.312740 -0.101884 -0.240384 0.119289 0.403485 -0.152546 0.296454 -0.106124 0.076693 -0.210111 -0.022192 -0.046280 0.103213 0.122972 -0.234349 0.015830 -0.082113 0.305551 0.193575 -0.133119 0.184749 0.100002 0.149714 -0.411521 0.083372 0.335910 -0.166310 -0.019279 -0.013649 -0.082680 0.019330 0.111273 0.139099 0.298856 0.275633 -0.213829 -0.010063 -0.202588 -0.118936 0.479869 -0.278840 -0.111972 0.143065 -0.012397 -0.394775 0.059030 0.384631 -0.172634 -0.319469 -0.138346 -0.211887 -0.370067 -0.079525 0.132485 0.178135 0.424138 -0.040595 -0.112426 0.127025 -0.193378 0.110221 0.181450 -0.431602 -0.278822 0.357708 -0.526817 0.034864 -0.026692 -0.267868 -0.229394 -0.312458 -0.122263 -0.180323 0.437524 0.270248 0.147078 0.029761 0.087069 -0.347304 -0.065965 0.416206 0.093495 0.261050 0.213526 0.509854 -0.073610 0.247481 0.054155 -0.065541
put -0.268128 -0.269403 0.217752 0.009184 0.358226 -0.088737 -0.712823 -0.136601 -0.274193 0.105777 0.082981 0.108368 -0.132379 -0.028498 0.098298 0.452146 0.511471 0.145131 -0.159554 -0.034972 0.164573 0.145918 -0.228040 -0.157865 -0.021951 -0.264750 0.150103 -0.137819 0.458395 -0.286339 -0.501305 0.053181 -0.041622 -0.052610 0.076730 -0.055356 0.348794 -0.314929 0.463931 0.116242 -0.005398 -0.377337 -0.144811 -0.473537 0.231245 -0.081051 -0.196672 0.050182 0.008028 0.104078 -0.300637 0.177026 0.009115 0.085977 0.299330 0.074427 0.043980 0.222382 -0.117645 -0.024073 -0.094584 -0.277199 -0.534837 -0.013956 0.031586 0.134685 0.230985 -0.008108 0.413967 -0.097401 -0.368226 -0.129059 0.200312 -0.343673 -0.190512 0.450283 -0.789150 -0.049119 -0.348829 -0.358628 -0.060839 0.229253 -0.368239 -0.107175 0.485261 0.053038 0.268106 0.245998 0.312080 0.047680 0.052795 0.236534 0.140396 0.553227 0.140150 0.030652 -0.090600 0.225940 -0.082032 -0.428953
reason -0.159537 -0.359032 0.394500 0.031529 0.052484 0.025313 0.197583 -0.344830 -0.075269 0.128344 0.130167 0.198430 0.263545 -0.379047 -0.153257 0.080084 0.233371 0.063332 0.278346 0.660678 0.321319 0.290543 0.166421 -0.098386 0.002515 0.136074 -0.849207 -0.372038 0.505205 0.137034 0.099470 0.162367 -0.115117 0.058000 -0.429224 -0.553346 0.446436 0.250064 0.111718 -0.127146 -0.217511 0.007287 -0.414223 0.142331 0.223478 0.630558 -0.352831 -0.232095 -0.662975 -0.226452 0.003078 -0.632647 -0.478869 -0.164998 -0.052856 -0.229229 -0.093946 0.393237 0.201215 -0.030540 -0.054431 0.124287 0.015804 -0.436773 -0.070598 0.625217 0.206211 -0.416000 0.088833 0.178921 -0.399940 0.037496 0.318642 -0.574130 -0.127780 0.110083 0.418026 -0.495462 -0.007468 -0.450390 0.221308 0.204464 -0.093310 0.333428 -0.030359 0.370714 0.422612 0.116951 0.664386 0.225920 0.112583 0.354568 -0.165050 -0.001990 0.311748 -0.092519 -0.071031 0.057650 -0.114364 -0.399053
book -0.078566 -0.808964 0.349844 -0.150986 0.431149 -0.003627 0.193514 0.265567 -0.068037 0.519544 0.253501 0.149013 -0.329195 -0.392216 0.348573 -0.102811 0.365151 0.213664 -0.175062 0.075766 0.446471 0.443568 0.448563 -0.043584 0.241753 -0.143058 0.184087 0.010241 0.486352 0.140399 -0.094167 -0.158353 -0.225006 -0.081269 -0.108682 -0.136430 0.174295 -0.086115 0.021293 0.227890 0.233185 0.010173 -0.016724 -0.614601 0.124680 -0.228314 -0.001078 0.192309 0.035352 0.011343 -0.018364 -0.763788 0.106220 -0.584348 -0.235123 -0.330527 0.087475 -0.161344 -0.503808 -0.171209 0.026822 -0.032307 0.320879 0.088497 -0.541745 -0.037593 -0.504965 0.558043 -0.073713 0.499577 -0.188667 -0.292649 0.063939 -0.107263 -0.587779 -0.047941 -0.305556 -0.255000 -0.164529 -0.337846 -0.304678 -0.132151 -0.296615 -0.011800 0.211364 0.389010 0.585543 0.099949 0.352285 0.001548 0.200296 0.138792 -0.117202 -0.022066 0.134222 0.405345 -0.107399 0.382470 -0.368371 -0.506624
actor 0.217672 -0.243571 0.413843 0.230612 -0.192118 0.035151 0.271187 0.201985 -0.111229 0.482823 0.056759 0.386483 -0.279172 0.341044 0.042806 0.032744 -0.099070 0.819813 0.161658 0.252848 0.075420 0.284970 0.189831 -0.348346 0.164382 0.426568 -0.312934 0.124226 -0.056590 0.303526 -0.084850 0.417410 0.175869 0.187833 0.153963 0.047029 0.343157 0.223458 0.118938 -0.069449 0.540342 0.316137 -0.601176 -0.564014 -0.045280 0.269466 -0.448211 0.639979 -0.119142 0.191337 -0.355280 -0.057340 -0.135511 0.199334 -0.028091 -0.184488 0.260063 -0.410837 -0.177886 -0.208120 0.023703 -0.174373 -0.390577 0.148274 -0.079143 0.404301 -0.140508 -0.337085 0.244757 -0.268880 0.107536 0.008366 -0.079483 -0.384732 -0.445851 0.171779 -0.220579 -0.153017 -0.071453 -0.449543 -0.261041 0.397742 -0.225581 -0.189613 0.114141 -0.216511 0.218079 -0.206236 0.814470 0.279878 -0.080202 0.157373 -0.121585 0.032935 0.353442 0.299958 0.179609 0.279378 0.487342 -0.051313
shows -0.023173 0.057385 0.000124 -0.331324 0.300635 -0.135431 0.032232 0.004088 -0.684319 0.034313 -0.061863 0.223208 -0.446819 -0.064772 -0.118373 0.304602 0.122654 0.453756 0.408931 0.209042 -0.252237 0.069326 0.163462 -0.154882 -0.125349 -0.165014 -0.389783 0.285429 0.019780 -0.055667 -0.523062 0.281664 -0.498533 0.093268 -0.146628 0.068298 0.178685 -0.444499 0.081410 0.229875 -0.046855 0.106294 0.001706 -0.265671 0.346682 0.382908 -0.256617 0.151716 -0.184869 0.294629 -0.187226 -0.077795 -0.068595 0.129530 -0.261496 -0.132032 0.221760 0.077590 -0.332669 0.136557 0.117208 -0.144244 -0.645714 -0.307873 0.097856 0.254736 -0.036083 -0.190608 0.207206 -0.401724 -0.025369 0.104563 0.138993 -0.309637 0.166945 0.501171 -0.267190 -0.456761 -0.272920 -0.204588 0.217692 0.220770 0.303044 0.027993 -0.046369 -0.061814 -0.089916 -0.192725 0.524616 -0.061617 -0.012317 0.414077 -0.057163 0.006764 0.029190 -0.047522 -0.104086 -0.205679 0.128610 -0.123003
sense 0.316015 0.020074 0.305529 -0.365750 0.763591 -0.032779 0.096543 -0.307484 -0.007233 0.415080 0.426816 -0.038135 -0.078323 -0.168200 -0.150895 0.172022 0.102197 -0.219250 0.537961 -0.139587 0.689754 -0.045744 -0.009187 -0.435037 -0.203838 -0.014103 -0.165873 -0.319432 -0.220743 -0.153303 -0.418032 -0.119180 -0.167968 0.243923 -0.081376 -0.371560 0.216422 -0.292481 -0.216292 -0.013482 -0.471400 0.354769 0.090093 0.234829 0.083706 0.665933 0.190343 0.337286 -0.337176 -0.516735 -0.279124 -0.213679 -0.083120 -0.174805 -0.095160 0.045233 0.374377 0.201967 -0.209985 -0.043594 0.053970 -0.575380 0.210699 -0.287976 -0.519758 0.384321 -0.040318 0.107021 0.171945 0.353445 0.158975 -0.044008 0.197617 -0.437818 0.197495 -0.324274 0.021616 -0.339715 -0.370189 0.082460 -0.188123 0.440527 -0.090069 -0.171596 -0.103556 0.232104 0.553884 -0.064752 0.742663 0.100278 0.122897 0.417891 0.179348 0.416579 0.563228 0.445000 -0.000214 0.615381 -0.277855 0.068847
sure 0.365369 -0.368535 0.382617 0.170549 0.258116 0.201948 -0.292817 0.039846 -0.120742 0.138350 0.264729 0.095287 -0.380165 -0.258917 0.020559 0.301244 0.407868 0.023993 0.129375 0.201275 0.223609 0.210740 0.347881 -0.112080 0.165981 -0.163682 -0.095256 0.086703 0.129380 0.058212 -0.061474 0.234266 -0.401944 0.086221 -0.043214 -0.230894 0.392788 0.279605 0.006118 0.191504 -0.239656 0.095403 -0.467956 -0.471422 -0.018948 0.043984 -0.106244 -0.266718 -0.232691 -0.298327 -0.200077 -0.026249 0.021090 -0.102833 -0.501064 0.045062 0.262409 0.097043 0.109128 -0.253596 0.222631 0.087144 -0.109927 -0.390017 -0.304203 0.329469 0.265914 0.109284 0.380833 0.310329 -0.379080 0.192559 -0.158907 -0.330912 -0.213023 -0.024353 -0.173733 0.174984 -0.597540 -0.132600 -0.184051 0.464410 -0.059934 -0.192762 0.140051 0.595968 0.109764 0.142960 0.156728 0.144960 -0.074988 0.242025 -0.213488 0.375774 -0.020180 -0.129452 0.142681 0.237718 -0.081434 -0.093800
money 0.037251 -0.456379 0.074764 -0.135608 0.333452 0.082303 -0.413773 0.147178 0.520629 0.354965 0.255910 -0.245957 -0.079899 -0.413878 0.191989 0.090545 0.070145 0.421512 0.192751 -0.256374 0.363953 0.351807 0.001601 -0.571621 -0.142131 -0.442865 -0.372193 -0.181442 0.114230 -0.406995 -0.190888 0.035198 -0.307366 -0.135647 -0.209865 -0.101974 0.483027 0.038954 0.530937 0.581165 -0.206257 0.006243 -0.214821 0.213150 0.182797 -0.090427 -0.371187 -0.263195 -0.321063 -0.353667 -1.011988 0.370188 0.081521 -0.436558 0.225264 -0.070384 0.285897 0.307047 0.095458 -0.248105 0.478017 0.369849 -0.495564 -0.443394 -0.501317 0.204570 0.349274 0.044201 0.153781 -0.462196 -0.310189 -0.391102 0.243750 -0.535569 -0.489081 0.255419 -0.163495 -0.006698 -0.118263 0.093797 -0.042098 -0.056974 0.157199 -0.092200 0.131138 -0.052484 0.649458 0.487200 0.592003 0.201394 0.443918 0.439641 0.296898 0.445427 0.099276 0.242305 -0.150442 0.353279 0.150909 -0.155005
