said 0.510078 -0.123636 -1.409690 1.373129 0.650504 1.512380 -0.398465 -1.010916 -0.657921 -0.534944 0.447220 -0.177669 0.093412 0.096398 1.560908 -1.616488 0.507008 2.009493 1.057627 -0.156579 -0.747003 0.101041 0.103457 -0.154394 2.332695 -0.253054 -2.192093 0.457767 0.281490 0.607596 0.288261 0.037564 -0.239915 0.391044 -1.305536 -0.869045 -0.084386 0.647625 2.152793 -1.307651 -0.706274 1.148558 -0.268849 1.000800 1.280627 0.854057 0.841613 -1.206257 -2.534005 0.869683 -1.155138 0.530778 0.957266 1.988233 -0.003696 -0.945787 -0.504354 -0.545525 -1.378329 1.367968 -2.075956 -1.302457 -1.879956 2.878939 -1.433721 -0.783027 1.659926 0.230541 -0.086914 1.588567 1.154858 -0.674000 1.029437 1.693900 1.123104 0.573145 0.019964 -0.364795 -0.003794 -1.206652 0.683122 0.261485 -1.284069 0.508570 0.916689 0.765969 -0.532013 -0.842914 0.045000 0.643036 0.604907 -0.350190 -2.116248 0.297790 0.601012 -0.520693 -1.139708 0.038112 -1.739314 0.300947
year -1.991828 0.524642 -0.060028 1.582761 0.457241 0.315996 -0.312932 0.639939 0.057436 0.088112 1.110534 2.633787 0.016050 -0.732234 0.264299 -1.126453 -2.068963 1.504825 0.865676 -2.071001 -0.855125 0.816008 1.050829 -0.692701 -0.374788 -0.894103 -1.072227 -1.740921 2.215251 2.113876 1.533970 0.429150 1.229141 -1.289099 -0.998932 1.350182 -0.188666 -0.805148 2.003707 0.646783 -0.262825 -0.394449 -0.763298 -2.453866 1.172954 0.107062 -0.992668 -1.658446 2.735630 1.493447 -0.999532 -0.052753 -2.217061 -1.888380 1.078013 3.773012 -1.814786 -1.026882 -0.334311 -0.780122 -2.967514 -2.532262 2.886916 2.454921 -0.465736 2.649135 -2.740490 -1.302063 -0.356660 -1.495756 -0.720645 -3.095533 -1.227864 0.766672 -1.353961 0.365832 -1.180953 0.263628 1.424814 0.782413 1.694905 -0.560746 1.560897 1.665824 1.170652 -0.887552 -0.024373 0.282031 1.795653 1.615101 1.081339 -0.962140 -2.464941 -0.457190 2.151588 0.755292 0.564556 -1.199279 -0.361842 -0.717376
be 1.499337 1.507234 -2.980839 0.272701 -0.419149 0.188488 0.169545 2.564786 1.127288 -2.124159 -0.104566 0.331256 0.513309 -1.911518 -0.195296 3.353260 -1.456292 -0.157254 -0.951106 4.122635 0.851327 -0.105773 -0.022969 -3.505565 1.568258 1.254263 -2.713722 0.413962 -1.453288 4.330353 0.127576 -1.634158 1.328127 -1.620076 -0.744852 -2.107260 -0.407258 1.842332 0.060766 -2.240570 -1.044672 -1.036177 -1.118875 -1.993602 -1.047201 -0.483263 0.328880 0.811695 1.880714 1.629468 1.800045 -1.218314 1.554377 -0.095424 -0.372706 0.188441 -0.119964 -2.620733 -1.168522 0.202372 -1.507783 1.248747 -0.363558 0.653414 -0.985503 0.824175 1.129824 0.821140 -1.751072 1.978160 1.663496 0.465279 -1.463683 -3.161266 0.458226 0.007251 -1.029621 -0.996896 2.343782 1.698248 1.018144 -2.423569 0.908069 -1.372854 0.292495 -1.727594 -0.554816 0.384312 1.624892 0.594206 1.727132 3.499778 0.828341 0.939076 -1.189389 1.121714 -0.854652 1.866546 -0.749862 -0.519195
billion 1.539801 0.371572 2.129790 -0.417552 0.946434 -0.092004 0.922437 -0.850019 -0.752340 -0.666617 -0.039682 -0.883012 -1.021481 -0.605872 -0.910504 -0.440552 3.303410 1.971943 0.248778 -0.128748 1.598980 -1.364909 2.754864 1.583492 1.240527 0.511506 0.931062 -1.912800 -0.969833 1.455040 0.172274 -2.720485 2.634535 -0.546618 -4.242623 1.297871 -0.291768 -0.734588 1.074516 -2.029493 -1.031758 0.037871 -0.291840 -0.930057 -0.000915 0.192407 0.619913 -1.576708 -0.393751 -0.014969 -0.047936 0.799887 -2.735730 -0.007611 1.196241 2.003841 -0.365145 -0.929970 1.632057 0.219687 -2.515978 -2.016407 2.243686 -3.182681 1.257372 -0.726074 -1.401606 -1.883430 -2.464334 -0.525595 0.372736 0.100533 -1.897981 0.720966 -3.030189 2.621821 -0.495073 -1.888148 0.697225 0.340574 0.502490 -2.002881 -0.851943 -1.906393 -0.898991 -0.050171 1.044266 1.345648 1.049570 2.242357 1.421315 0.121195 0.222862 1.735694 3.599568 -1.054772 -3.039469 -0.247144 -4.528965 -0.650115
loss -0.121433 -0.747568 1.488570 -0.695579 0.691130 -0.753604 -0.366439 0.531937 -0.514144 -0.819237 -1.510069 0.435386 -1.284797 -0.643223 -2.222588 -2.204669 1.218980 -1.649527 0.602266 -1.424482 -0.554245 -0.835300 -0.440363 0.423143 -0.010095 2.382567 1.233470 -2.838720 0.940133 -0.112732 -0.027994 0.966723 -0.333746 -1.226357 -0.168279 0.379359 -0.103644 -0.436207 1.011052 -1.175961 -1.300123 -1.600636 -2.933674 -2.142255 -1.321072 -1.652288 0.353846 0.911054 1.237862 0.121891 -0.452886 0.085915 -0.949865 0.180984 -0.294089 0.989927 0.700158 0.587627 1.523236 0.390599 0.299099 0.706285 1.962389 -1.373671 -0.197879 -0.861881 0.671980 -0.872052 2.431734 0.176508 -0.097173 -2.093831 -0.867078 -0.052883 -2.000593 -0.816095 0.556942 -0.339783 -1.493430 0.269679 -2.674697 -1.293011 1.082947 -0.283516 0.078622 0.154791 -0.580183 -0.730776 1.714659 2.578712 1.364753 -1.679223 -1.770568 2.887504 0.125316 -0.082232 -0.454691 0.024482 -1.105731 0.314678
company -1.006491 -0.040018 0.162853 -0.414044 -0.512324 -0.503835 0.488328 -0.777965 -0.153118 0.222072 1.008118 1.040154 1.263816 -2.534154 -0.047111 0.148456 -0.324296 1.418486 0.566633 -0.556691 -0.953363 0.740328 0.355560 0.010968 -1.080043 0.813401 -2.317920 0.226078 1.084824 0.729026 0.340751 -2.981652 0.008410 0.110803 0.194444 0.005906 1.722661 0.353240 -0.503183 0.954568 0.359839 0.498657 -0.132791 -0.115206 -0.871923 1.331957 0.107858 0.340620 0.134772 2.034412 1.448444 -0.367931 -0.674100 1.550951 -1.272594 0.178375 0.272277 -1.379550 -0.154280 2.295460 -1.125206 -1.813327 1.488530 -0.073008 -0.813102 -1.492659 1.154177 -1.163906 -3.781612 -0.414602 -0.471024 -2.425851 -0.004221 0.515548 -1.721051 -1.169318 -0.116582 -1.648864 -2.933888 0.344464 0.516978 -0.330007 3.472376 -1.513584 0.775436 -1.562853 0.362349 -1.642181 -0.594548 3.429851 1.331401 -0.404472 0.051388 1.751499 -2.999531 -1.549605 -1.335514 0.982527 1.941900 0.497417
share 1.222305 -0.879369 1.049917 1.580529 -0.081276 -1.184444 2.434561 2.529134 -2.138443 -0.341867 2.527311 1.288213 -2.695385 -1.241340 0.088005 -2.215790 -2.879216 0.179661 -0.645529 0.460736 0.744280 -2.039747 1.725947 -0.709254 3.217500 1.631943 0.732639 -3.449021 1.808167 0.846071 -0.579712 -1.421459 -2.457667 -2.059226 -2.170369 2.662913 3.833235 1.934470 0.864751 -1.709258 -0.021058 0.588803 -0.689731 -0.044143 0.636074 0.104885 -0.052153 -4.057962 0.602193 2.368783 1.171639 0.100407 -2.777499 -0.660706 0.006873 -0.037265 -0.398173 0.795064 2.537717 2.163344 -0.682387 0.473829 -0.966565 -1.530063 -1.356115 -0.469874 -3.320785 -0.811617 -3.106637 0.356308 1.513744 -0.340526 -0.569413 1.047485 0.655344 -1.545554 1.299318 0.936694 0.644756 1.658653 -0.536272 -1.910640 2.668339 2.114490 -0.114774 -1.967030 1.993498 -1.458353 1.147201 1.840081 4.755011 -0.336072 2.648673 3.449223 1.746639 1.065662 0.924454 -2.688914 -0.800222 0.651988
profit -0.003393 -0.745563 0.254815 0.486478 1.006693 -0.756844 -1.472799 0.652363 -1.049586 0.580164 -0.700289 1.122585 0.071408 0.456673 -3.075033 -2.706356 0.337051 -2.069204 0.775663 -0.597781 -1.634767 -0.266861 -0.616361 -0.109650 0.339820 1.707668 -0.954662 -2.820521 -0.092454 1.544930 -0.295872 1.929822 0.895177 -2.287566 -0.837877 -0.498497 -1.909619 -0.499524 0.546851 -1.972352 -0.683662 -1.299372 -2.070341 -3.143060 0.387946 -2.056066 0.238667 0.143743 -0.858233 -0.307722 0.114921 0.141340 -0.318382 -0.566758 0.262287 -0.426228 1.360047 0.504596 2.219301 -0.031417 0.536609 0.159450 1.613885 -0.721351 -0.028261 -0.561408 0.198451 -1.222304 0.150442 -0.703298 -0.390482 -0.595344 -0.803560 0.211165 -3.078172 0.148275 0.111299 0.061151 -1.762822 1.431193 -1.887472 -0.410755 0.392050 -1.635725 -0.990971 0.328060 -0.989100 0.183102 1.601622 3.089867 1.436833 0.508020 -2.769076 1.566853 -0.753143 -0.622674 0.819393 -0.272139 -1.987273 -0.784349
he 1.053396 -1.770523 -0.456159 -0.024689 -0.558550 -0.776803 0.400813 0.012209 -1.769518 1.878474 1.776595 1.980740 -1.176197 -0.716418 -0.461353 -0.573296 -1.341106 0.265751 -0.669431 -0.134801 0.467635 1.831818 -0.309252 -1.375310 -2.204219 0.790570 2.393689 1.199504 -0.249616 0.941507 -1.012313 -0.473201 0.864146 -2.375417 3.216776 -1.626280 0.352938 1.821289 0.739299 0.251774 -1.024203 1.896223 1.247708 -1.684776 0.754866 -1.783645 -2.202209 -0.487614 -0.083884 2.171837 2.272592 1.826552 2.309313 -0.364866 -1.368113 -0.798847 0.818649 -1.348365 -2.195189 1.511768 2.318568 -1.207885 1.813929 -1.752294 0.619832 0.462523 1.097972 -0.922215 -1.153304 -0.696367 2.569175 -1.305032 0.317565 -0.046772 -0.040559 0.116551 -2.279250 -2.462604 -1.205907 0.791559 0.848270 0.049014 -0.172178 -0.170890 0.222995 -1.432834 1.193568 -0.524617 2.017226 2.279785 -1.208646 0.029139 -0.375119 0.181141 -1.036101 1.095223 0.711965 0.009383 0.188445 -0.603951
have 1.117552 0.125954 -1.770332 1.045138 -3.420188 -1.586919 0.282837 0.649357 0.339148 -0.335576 3.088274 1.489140 -1.736225 -0.899679 0.619475 0.637482 0.158392 -0.923627 0.596227 0.167368 -0.510248 0.450457 -0.277577 1.579619 2.448644 0.491764 0.746233 0.703649 1.437953 2.082807 -1.364049 -0.929254 0.989411 -1.652423 -0.252662 -2.767531 1.385629 2.713453 -1.447394 -1.504522 -1.779947 -1.623628 0.994444 -2.148541 1.085582 1.991671 0.879050 2.333972 1.575449 -3.020173 3.140247 -4.319970 1.101320 0.221107 0.516961 0.617174 1.810700 -0.422276 1.515244 1.542683 0.446412 1.728035 0.255305 2.138246 -0.267599 1.479608 2.290902 1.131464 0.088632 1.790405 -0.179486 0.012226 2.156887 -2.237273 2.808769 -1.989466 -1.522752 0.498459 1.664902 0.862830 1.840368 1.106623 -0.173596 1.502717 -1.641213 -0.846865 1.738438 1.782107 -0.115171 -0.135590 2.743838 -0.185615 -2.192457 -1.172758 -0.377466 -1.496683 -1.641397 2.891938 -1.612918 -3.650957
stock -0.876193 -1.421209 -1.698042 3.998019 0.313299 -1.198583 0.637451 0.275522 -0.341958 0.536044 1.451282 -1.017710 -0.877061 2.132318 -0.491297 -1.732333 0.094759 2.184260 3.732752 1.377322 0.589992 -1.402283 1.476225 -2.864132 3.180416 -1.410328 0.423783 -0.974392 -0.665610 3.704284 -0.421628 -0.841346 -0.928846 0.024939 1.749163 -1.772826 -0.123014 0.211113 2.616133 -0.809012 1.881043 -0.465137 -0.000414 2.326329 1.028534 -1.069685 -2.872050 -1.140416 -1.710344 0.178053 -1.568256 -0.735181 -4.304515 -1.537597 0.923036 -1.847343 -2.302531 -0.632380 0.787693 3.451776 2.188074 1.605303 -1.490776 1.540787 -2.233174 -0.078687 -3.774715 -2.300767 -1.577924 1.047715 0.463779 -0.413443 -1.874664 -0.315973 -0.713828 0.934355 1.908702 0.421482 -1.532278 1.818542 1.420897 2.711001 0.965775 1.244289 -0.498240 0.007314 -0.866715 1.601517 -0.512667 -0.384700 4.524195 -0.564584 0.642768 -0.436876 -0.513140 0.589024 -1.909861 -1.234593 1.722536 -0.984655
about 2.357991 -0.676836 -2.669161 0.619120 1.598799 0.057008 0.502259 -1.207576 1.239830 0.074286 1.519592 1.796202 -1.463092 1.659727 -2.265028 -1.997574 0.055940 -0.925303 -0.435417 0.958528 -0.964560 0.111052 -0.263454 -0.106467 1.323622 0.137033 -0.222719 -1.506795 1.421831 2.307094 -0.118892 0.272655 -1.442947 -0.190387 -0.217621 -1.717257 1.726665 0.067881 -1.324381 0.324823 0.565237 -1.147680 0.730851 0.581166 0.038710 -0.609837 0.413413 -1.938444 0.164017 2.859504 1.062524 -0.279253 -2.058421 -0.336759 1.216439 -0.427100 2.337222 -2.254618 -0.630354 1.280008 0.230857 -1.561297 -2.857742 -1.305323 -0.810270 -0.428970 1.470915 -2.558111 -0.296605 1.022271 -0.327243 -2.681211 -1.461382 1.543849 0.546781 0.726128 -0.062984 -0.680158 2.002748 0.082359 -0.079119 -1.030948 0.986808 0.904263 3.041757 1.561045 0.832433 0.029240 2.396458 -0.433473 -1.358712 -0.436272 0.465676 2.034859 0.222117 -1.981173 -0.666943 -0.102215 -1.427041 2.645958
net 0.471184 -0.051747 2.768918 0.279131 0.039848 0.422473 1.844738 -0.202180 -1.139483 -0.211771 -0.441556 1.478586 0.339430 -2.237899 -1.380984 -2.537439 0.501309 0.401208 0.447310 -0.570610 0.721583 -1.834290 0.211959 -0.700093 0.997730 1.756505 -0.624963 -2.809201 -0.937558 2.702799 -0.347153 -2.147556 -0.292776 -3.976529 -0.918784 -0.600534 -0.564278 0.798625 -0.689709 -2.773719 -2.001870 -2.103007 -1.095375 -1.641308 -0.046914 0.972047 -0.607471 0.457989 0.395926 -2.060657 -1.649389 3.393787 -0.482812 0.653928 2.412600 -0.766412 1.271120 -0.450979 2.351952 -3.479813 -0.304478 -0.834548 -2.384735 -1.149315 -2.272678 -0.535496 1.793859 -0.446925 -0.244942 -1.125837 -0.027125 -3.526330 -2.644858 -1.025288 -1.138081 -0.829762 1.143905 -1.133451 -3.017729 0.110667 -0.437045 -0.321539 3.530352 0.248043 -0.953778 -0.252719 1.351831 -0.569080 0.326358 2.302387 -0.355515 -0.967458 0.001063 0.129329 -0.032584 -1.433961 0.357597 -2.527703 -2.736085 1.273515
oil -0.992350 0.165284 1.031045 -0.115272 2.140731 -3.864420 2.648292 0.252856 0.700578 0.167489 1.528646 0.401183 -1.386696 -0.492130 1.704358 -3.222503 -1.471998 -0.730354 0.020949 -0.100437 0.703915 0.156520 0.683006 -1.145714 1.873930 1.016016 -0.408596 1.432035 -1.901032 0.198164 -0.228576 -0.036209 -0.452406 -0.047363 0.412735 0.627756 -0.827134 -0.985808 2.320037 -3.014925 -1.868058 -0.420808 -0.973002 -0.439238 -3.097594 -0.340100 -2.903863 -2.405793 0.554856 -1.499094 0.356856 0.731113 -1.476188 2.590985 -0.033954 2.204085 1.269557 2.011826 1.488502 -0.509421 -0.192335 -1.031719 -2.734626 -2.914992 -1.580132 1.804752 1.894399 -3.251486 0.089045 1.142619 0.904047 2.802079 2.622828 -0.049501 1.554974 -1.005452 -1.732399 -1.425184 -0.030304 -0.097241 -2.603907 0.519028 -0.456099 -0.258292 1.145016 0.027328 0.500239 2.504774 2.504842 1.030361 -0.755329 2.410282 -3.704537 -0.575250 2.235972 -0.739795 3.812878 1.920948 -1.099334 -0.077765
market -1.064125 -1.369604 0.627129 0.476500 -1.456723 2.540152 1.105485 -0.138291 0.331984 0.135305 1.588646 0.732483 -1.854948 3.723183 1.472205 0.736169 1.308726 0.291370 -1.118146 0.143026 -0.528633 -0.139197 0.037219 -1.265648 0.360946 -0.403268 -0.447273 -1.302575 -0.776986 0.707767 -1.374916 -1.250340 3.155283 1.498308 2.433555 -1.682710 -1.522177 -1.438289 0.190252 1.020942 -0.583172 0.795146 -1.113031 0.662051 1.745633 -0.118164 -0.997809 -1.411420 -0.498761 -2.876052 -0.756997 0.223589 -0.199871 0.219889 -2.546515 0.045039 0.122652 -1.149242 -2.564046 0.974587 -0.382026 -1.397752 1.292542 -1.586037 -0.380746 1.009483 0.829154 0.180827 -2.000976 1.795089 -1.192601 -1.059784 -1.247320 0.294088 -1.689940 -1.471929 -1.270898 -2.434180 -0.451181 -0.196348 1.013469 0.798506 -1.119399 -0.087301 1.973491 -0.245219 2.004217 2.485507 0.719500 -0.573317 0.201650 1.425945 -1.716386 2.019251 -2.835933 -0.696304 -0.388530 1.485091 3.026355 -2.387211
trade 1.901250 -1.176826 1.546393 1.313934 -0.974637 0.631133 1.624321 -1.315979 -0.919426 -2.070234 0.162052 0.169436 -0.849502 -0.635432 1.951187 3.077382 1.264928 -0.885317 -0.590013 -0.486920 0.091984 -0.062693 0.392814 -0.791595 -1.349120 1.868387 3.075364 0.504278 2.941324 2.225770 -2.689999 -0.808499 1.137215 -0.926744 -2.730619 0.178962 1.043984 -0.857379 -1.511299 -2.075271 -0.765726 -2.660262 0.554928 -1.138294 0.375300 -0.384094 -0.492701 -2.726527 -2.795341 -0.967419 2.112524 2.454323 -1.403392 0.793091 -1.587870 1.363101 -1.879430 -1.762560 -2.337585 -1.137319 -0.351321 -0.064999 3.850804 -4.523438 1.826780 -0.123361 0.929917 -0.042460 1.589991 0.651123 1.400357 1.318477 -1.869249 1.713463 -1.600057 2.291677 0.000532 -0.125710 0.807337 -0.678880 1.377381 -1.286795 -3.429028 -1.592917 0.415618 -0.995203 -0.644113 1.011354 2.772361 -0.632243 -0.727653 1.092616 -2.091614 -0.857925 3.354435 1.440368 -1.182629 0.633690 -0.582975 -2.294989
up 1.143618 -0.871969 -1.273965 -1.038112 1.609400 1.061628 -0.416836 -1.632062 -0.946988 1.141938 1.374251 2.801456 -1.568343 0.150561 -1.308163 0.714779 0.019945 0.116828 1.100421 -0.071452 -0.976581 -1.477958 1.298792 2.096271 1.476988 0.052730 -0.834541 -0.576990 1.494228 0.656577 0.668988 -1.573048 -0.347192 -0.245639 -0.755807 1.565999 0.341126 1.403669 1.049918 1.014234 0.357219 -2.291727 -0.112184 -0.302645 -0.658919 -1.475574 -0.194554 -1.025552 1.776739 0.191995 1.399685 -0.835499 -1.537603 1.828269 0.902098 1.506111 0.059418 -2.176389 -1.147748 1.050789 1.421464 -2.665146 -1.325889 -0.055887 0.086305 0.963280 -1.100239 -0.831454 -1.181190 0.274811 -1.591657 0.296301 -1.225834 1.613907 -0.450790 1.071606 -1.146016 -1.688756 1.069132 -0.938730 -0.181436 -0.430652 0.893861 -0.015749 -0.435433 1.478679 1.401964 0.565405 1.909556 -2.011850 0.995366 -0.361496 -1.116121 0.274614 -1.105505 -1.021077 0.775353 0.263518 -1.426879 1.584947
quarter -2.260528 -3.016806 1.897040 3.277432 0.924463 0.329504 0.320366 0.099344 0.644876 2.557142 0.078596 3.626072 0.698551 -1.279905 -2.439500 -1.117926 0.018569 0.258246 -2.011709 -2.285591 -1.648493 -1.660190 -2.825118 -0.733899 -0.024947 1.548323 -2.472506 -1.082095 -0.293282 0.828831 0.150990 0.256088 1.160623 -0.902440 -3.575051 2.050819 -0.607653 -0.258385 0.246815 -0.405898 -2.398108 -1.338580 -1.542525 -1.532776 -0.099256 0.174886 -0.601470 -1.467858 0.729919 -0.122446 -1.681697 2.955261 -2.296805 1.555645 0.985261 2.677411 1.792729 -1.295086 1.599826 -2.008299 -2.556496 0.048417 2.236149 0.203416 -0.882741 1.639638 -0.944721 -3.316358 -3.508305 0.467421 1.224630 -3.321373 -1.513348 2.246757 -0.669537 -2.932807 1.137390 1.978637 3.639433 1.975331 -1.868201 -2.540492 0.191300 0.795065 3.090423 -0.223539 -2.601288 -0.462318 0.203337 2.981823 1.411480 -0.557271 -0.178686 2.651436 2.194226 1.707308 -0.810810 2.476980 -0.157360 -1.359687
new 0.340923 -0.737803 0.208103 1.399389 0.816829 -1.007175 0.606533 -0.694734 0.654917 -1.266151 0.587041 -0.058177 -0.533115 0.002274 0.547725 0.611949 0.000217 -0.063049 2.539119 2.253568 -2.392146 -0.235504 -0.412069 0.784644 -0.686243 0.566613 -0.535841 0.666742 -0.335511 0.046935 0.911903 -0.839362 -1.322729 -0.156809 -0.515802 0.917095 0.361076 0.186808 0.974487 -0.846240 1.091790 0.189636 0.877451 0.075798 -0.238880 0.327725 -1.080192 0.056853 -0.333746 -0.463699 0.197826 -0.196832 0.299986 1.097924 -2.098918 0.222527 -0.991822 -0.171956 -1.325191 -0.668888 -0.849901 -0.441105 0.576901 -1.158176 0.403988 0.795560 -0.189537 -0.300914 0.503293 2.149469 1.051396 -0.663064 0.497450 -0.555359 -0.446231 -0.793648 -0.256955 -1.998482 0.038874 0.587362 0.706883 1.748513 0.105215 -0.064026 0.920638 0.274232 0.471306 0.379375 0.210042 -0.572691 -1.396837 2.201266 0.425468 -0.168999 -0.625953 -0.471832 -0.819347 0.297959 -0.226416 -0.306227
price 0.579110 0.304341 0.152595 0.693181 0.327237 -0.272813 1.625931 1.760801 -0.441225 -3.028057 3.347170 -1.639711 -1.128728 -1.230852 0.829650 0.611960 -1.040408 -0.152394 0.198939 1.352463 -1.005776 1.248155 -0.000261 -0.862808 -0.050921 0.761699 0.336290 -0.404541 -0.544651 0.338707 -0.577390 -3.266327 -2.066958 1.756599 0.095873 -1.637492 0.293873 -0.809358 -0.445844 -1.086027 1.500030 -0.444567 -1.569361 3.530737 3.001294 -0.269324 -1.492551 -1.381737 1.080910 0.945154 -1.859323 1.976662 0.588544 -0.796539 -1.406426 0.003832 0.979237 0.693472 -0.793235 -0.549881 -0.942617 -0.543053 -0.465110 -0.861560 -2.538644 0.822384 -0.907175 -2.383032 -3.083753 -0.344331 -0.484047 2.771513 -2.314026 1.524828 -1.448179 -0.845148 0.133432 -0.554037 0.464828 -1.447236 -2.168485 -0.762417 -1.332545 -0.255926 0.247292 -0.314154 0.824792 0.857290 -0.870094 -0.096810 2.024942 2.704247 -0.863810 2.237854 -2.907979 -1.813406 -0.545363 2.249770 -1.147896 -0.929748
agreement -0.681785 -1.288770 0.193204 -0.504337 -3.007099 -1.194702 1.173735 -2.030491 -0.698840 -1.857076 -0.910434 1.495351 1.391013 1.030886 0.394794 1.376165 -0.263468 -0.160868 1.949241 -1.771613 -0.256720 -1.032217 0.032360 -0.567005 -0.227408 2.579999 -2.003412 2.095311 -0.254275 -0.406101 0.471458 -0.415717 1.360962 0.943394 -1.770547 -1.453636 1.478861 0.687753 1.777867 2.492564 -1.992227 0.634383 -0.081147 -2.404290 -0.836455 -0.248352 -1.471149 -3.694270 -2.257077 -0.680002 0.794068 0.582540 -0.819096 -1.238060 -1.930927 -0.172545 -0.003051 -0.487400 -1.511365 -0.476095 1.178583 -1.616387 -0.100446 0.115108 -0.489318 0.369802 -2.013005 -0.089340 -1.324740 1.008903 0.754328 2.691573 1.090973 -1.629968 0.229567 1.289593 -1.570317 -0.415216 1.983256 -1.719158 1.138506 -0.345647 1.360029 -1.087911 0.418703 0.959743 -1.515035 0.664112 1.257647 -0.571514 3.138885 1.431224 -1.677676 -0.440412 -2.462166 -1.126209 -3.129136 0.450879 0.573728 -0.609740
tax 0.651093 -1.800566 0.754244 0.100657 1.229622 -0.594213 2.807248 0.231276 -1.700229 -0.981123 0.520893 0.006981 0.111580 -2.464730 -0.754592 -0.859213 1.098354 2.694468 0.080052 2.955632 -1.215834 -1.966359 -1.232839 0.499419 -0.959295 2.017125 -0.060060 0.834066 -1.061247 1.221001 -1.523141 -0.157954 -0.961692 -1.134247 0.300694 -0.030908 1.264030 0.194280 -2.097439 -0.723124 0.729151 -2.747977 -3.561270 -2.254512 -2.511091 0.290690 -0.972753 -0.449045 0.048379 -1.222677 -1.058284 1.933286 -0.970186 -0.406222 0.413152 0.263461 -1.180482 -1.768204 0.189243 -1.831456 -0.789606 -0.091435 -1.545138 -2.170253 -0.865043 1.062454 1.154334 1.347450 -0.042631 -2.557876 0.052813 -0.486073 -0.709388 1.781116 -2.093688 1.035708 -0.505831 -1.389305 -3.027537 0.793532 -0.455675 -0.603346 2.040048 1.419904 -0.882186 -2.138792 -1.990237 1.193624 2.767163 0.399021 -0.562361 -0.004379 -1.977753 2.456242 0.724813 1.834467 2.564028 -1.094656 -2.731808 0.745338
government -1.559444 -1.108080 -1.241645 -2.557620 -0.640047 -0.182950 0.684728 0.209519 0.084991 -1.633238 0.901816 -0.341307 -1.353245 -1.611616 0.106344 1.382092 0.198255 1.891309 0.584766 0.976547 -0.110762 -0.399932 0.555771 0.253811 -1.348065 -0.845643 -0.067132 -0.383802 1.574988 1.619150 0.777536 -1.164404 -0.405745 1.142418 0.228205 0.055660 0.002286 0.552481 -0.356656 0.027639 -0.170092 -0.447877 1.293327 -0.688395 0.830311 -0.477966 -0.143283 -0.582398 -1.090127 0.220916 1.396483 0.236798 -0.182027 0.765252 -1.181103 0.368747 -0.756246 -1.838022 -2.317279 -0.099477 -0.777378 -0.894147 -0.184654 -1.069369 0.168415 -0.226511 0.606375 -0.485541 -2.858861 0.060200 -0.749796 -0.264356 0.200676 -0.841002 -0.861785 1.136824 -1.436424 -2.329671 -1.446565 0.022101 0.307252 0.389326 0.373207 -0.604772 0.020809 -2.627159 -0.381581 -0.196289 1.580856 0.942775 -2.328449 0.074566 -1.047099 0.919441 -0.945424 0.435631 -1.329573 1.725174 -1.101246 -0.953776
group -0.925285 -0.756334 0.237158 -1.880935 -1.887854 -1.328468 1.489158 1.762634 -0.266470 -0.383349 0.729485 0.598511 0.964891 -1.755963 -1.089305 -0.715442 1.325155 0.497551 1.224772 -1.120101 0.114090 0.486583 0.284930 0.868494 0.824775 1.009805 0.398048 -0.307826 -0.566235 1.704931 0.636261 -1.955421 0.074571 -1.054529 2.253224 -0.590947 0.590756 0.274212 -0.922728 0.786026 0.400259 -0.678474 -0.117072 -1.897696 -0.279233 -0.314299 0.720374 0.633188 -1.514522 -0.082265 0.243874 -1.068337 0.150587 -0.595272 -2.373129 0.587884 0.213916 -0.405626 0.470316 2.117573 -0.168847 -0.574460 -0.113838 0.856049 -0.203750 -0.352541 0.427181 -0.783056 -0.853691 0.285572 -1.950704 -1.046164 1.887978 0.811139 -0.822823 -0.015189 0.821033 -0.943112 -4.163842 0.735023 -0.901395 1.155774 -0.533545 -2.673003 0.143554 -1.227948 1.046694 -0.968219 -1.364042 1.518579 -0.419354 0.769090 -0.019101 1.555206 -1.625265 -0.638697 0.205654 0.632681 -0.373058 0.717427
week -2.067800 0.638156 -1.148227 0.997228 1.087439 -0.747110 -1.225701 1.131465 0.156224 1.615975 1.669530 1.419307 -0.796423 -0.614470 -0.164277 1.670462 -1.642914 1.332443 1.620581 -2.897537 -0.655999 -0.024514 1.169490 -0.834269 0.371159 -0.840203 -2.159636 -3.615526 1.445007 0.951314 1.680106 1.024062 0.875730 1.627956 -0.186270 1.278907 -1.623641 -2.334878 1.055497 1.697934 -1.788682 -0.777438 1.543349 -1.625513 1.210273 -1.619410 -1.614542 -1.299722 3.084905 -0.968845 1.293304 -0.360058 -2.682749 -1.644525 1.613288 1.366691 -2.602939 1.560626 -1.683612 -0.318428 -0.560137 -3.485165 2.162632 2.109178 -1.285136 2.002023 -1.531973 0.946733 -0.537869 -1.656266 -0.476448 -2.815819 1.282509 -0.855973 1.202917 1.494052 -0.778590 1.396428 3.832787 2.174365 0.477348 -2.191944 0.008173 1.258997 0.239025 1.845935 -1.607466 1.933899 -0.335511 0.872091 1.292863 -0.094799 -1.877210 0.009794 2.117023 1.195371 -0.016475 -0.250278 0.180574 -2.766180
over 0.179256 -0.249755 -0.278760 0.483359 0.459875 -1.324860 1.088183 -0.364446 -0.292182 1.526656 0.644989 1.745445 -0.536999 -0.995331 -1.025616 -1.129398 -0.302949 -0.970316 0.512264 0.665443 -0.489635 -0.649428 -0.479335 1.746376 -0.244038 -1.255012 0.051900 -2.578417 1.876193 0.909732 -0.569684 0.186991 0.107863 -0.208852 0.110305 0.505526 -0.079668 0.154009 0.177860 1.463303 -0.573071 -0.469872 1.293251 -1.187020 0.139282 -0.843592 0.276075 -1.426409 0.201566 1.391389 1.533410 -1.093846 -1.057446 0.966177 0.156190 -0.313304 0.256548 -0.520690 -2.305541 -0.838236 1.386796 -2.203840 -0.552930 -0.652184 -0.447696 1.284815 -0.658306 -1.261455 -0.154971 0.854149 -1.686550 -0.079814 0.467045 0.462805 0.180985 -0.130552 -0.870083 0.416193 -0.045454 0.100294 1.023101 -0.591257 1.350032 0.121531 1.788346 -0.616099 0.434899 0.039678 1.521038 -1.177175 -0.671264 1.273731 -0.391327 1.455238 -0.494247 -2.518069 -1.137846 -0.549033 -0.558930 1.600189
rate -0.438694 -0.328567 -0.298542 0.818259 1.065383 0.154627 -0.663703 0.403660 -0.237330 -1.127182 5.417344 -0.491361 -2.555739 -1.067693 -2.549565 0.934732 1.019835 -0.022958 1.324309 3.152737 0.518787 1.939778 1.006607 0.473234 0.617342 -1.993651 -0.649406 -0.944698 -0.221907 2.649202 -0.688824 -0.961712 -2.333555 0.264781 -0.229154 -2.130896 1.545335 2.674160 0.378028 -2.697310 1.648887 -0.062849 0.344870 0.199021 2.978106 -0.957581 -1.016960 0.219009 -0.062144 -1.645957 -0.580604 1.310397 -2.087316 0.767755 0.548721 1.404216 0.754346 0.338155 -1.623765 -1.811171 1.415848 -1.202184 -0.795516 -0.353750 -0.868939 -2.641522 -2.752295 -1.666613 -3.763669 0.281792 -0.212648 1.728840 -0.496996 1.816996 -1.739660 -0.437731 0.814180 -1.146516 -1.350107 -0.752692 0.993134 -1.844961 0.724165 -0.157584 -4.130514 -1.354964 -1.528194 -2.977582 -1.017742 -0.325054 1.108172 -1.704818 -1.595873 -0.209975 -0.652357 -0.116574 0.631083 -1.707069 -2.356013 -1.147419
bank -1.010461 -0.235652 -0.018331 -0.228774 0.379495 0.407426 -0.674167 -1.580975 -0.497954 -0.701636 2.129417 -1.188893 -0.392015 -2.125836 -2.204397 0.521821 -0.141196 1.846860 1.724527 4.042617 1.783404 0.127677 1.241511 0.500698 0.112218 0.540853 -1.400773 -1.465750 0.888841 1.673635 1.097003 -0.620347 -0.117731 -0.901941 0.295297 0.240784 -0.341692 -1.458491 -1.228309 0.021032 -0.855106 -0.643447 -0.000125 -1.006690 1.154577 -0.492191 -0.036278 0.075852 -1.628033 -0.558323 0.980440 1.598952 -1.166594 0.621613 -0.024941 0.177317 1.079299 -1.270727 -1.645442 0.347458 0.369371 -1.065441 1.907547 -0.008663 1.005091 -1.004029 -0.116513 1.435408 -3.143843 0.520410 -1.358906 -1.052634 0.410325 0.389442 -2.522726 1.346766 -0.726807 -0.946682 -2.229512 0.735089 0.199452 -1.307733 0.762650 -2.244783 -0.669491 0.781332 -0.826429 -0.976062 0.489902 1.454038 -2.209202 -0.640620 0.345152 1.224273 -2.486130 -0.366334 -1.929838 1.745606 -0.871141 -1.513826
common 0.483784 -0.719976 1.042927 1.273013 0.654827 1.082559 -0.442396 -0.175760 -0.183502 -1.543392 0.006091 0.155036 -0.818422 0.701913 -1.433054 0.057601 -2.365152 -0.476268 1.760000 -0.108443 -0.042648 -0.226451 -1.125760 0.669555 1.432124 0.688278 -1.504089 -0.638642 -0.695919 -0.855088 -0.143699 -0.804477 -1.305265 -0.964768 0.575801 1.339234 0.865617 0.857652 -0.728398 2.821708 0.141190 -1.873385 -1.962695 -0.957984 -0.135550 2.469980 -0.596449 -0.446256 -0.068775 -0.591539 -1.518176 -0.581863 0.305408 -0.693250 -0.886235 -0.215634 1.192758 -0.173442 0.429150 3.538610 2.050234 0.195836 0.370322 -0.504175 -1.608767 1.377884 -1.618606 -1.701215 -1.284255 1.647992 0.493059 -1.538725 -1.617029 -1.309035 0.865663 2.025939 1.504775 2.644653 -0.472269 -1.706698 0.945504 0.258129 1.796436 -0.608141 0.509911 1.873183 0.933794 -1.370037 1.772505 -1.226833 1.538899 -0.052242 1.329108 1.527692 -1.378933 0.540132 -2.500875 1.239233 -0.298796 -1.152403
sales 0.088337 -0.307968 -1.654755 0.620636 -2.141150 0.612312 0.692685 -0.565578 0.934735 -0.808538 1.408044 0.664999 -0.173166 0.368004 -0.655890 -1.477765 -0.636633 -0.790832 0.654616 -0.246238 -1.021393 -0.834334 0.716511 -0.484794 -0.567639 -0.047778 -0.705902 -0.182797 -0.088771 0.012745 0.956405 0.545840 0.449001 -0.751949 -0.230574 -0.383341 -1.188892 -0.667772 -0.099725 -1.200866 -0.985639 -0.393760 -1.149341 -0.435454 -1.040077 0.730243 -0.069354 -0.250769 -1.127843 0.018286 -0.395546 1.674461 -0.527157 -0.045492 -0.552114 1.709860 2.054093 -1.468041 1.465099 -0.615404 -1.327654 -2.339730 -1.430979 -0.473842 -1.124552 2.126458 -1.144569 -3.249317 -1.438862 -0.831982 0.940033 -1.828487 -2.221588 0.782538 -1.192312 0.609506 0.693805 0.132866 -0.573390 -0.780759 -0.049970 -0.089989 0.426586 0.548788 2.149497 -1.074283 1.196489 1.480010 1.774361 1.463531 1.050281 -1.893901 -2.325121 0.685010 -0.358148 0.000083 0.547539 -0.612961 0.059366 -0.089625
five 0.589102 -1.582179 -0.136718 1.517217 0.430235 -1.675670 -1.288618 1.369046 0.367279 -1.124661 -1.784694 0.043820 -1.713491 -1.076082 -1.021517 -1.631039 -0.661391 0.036825 0.070353 -0.878634 -0.948486 -0.325765 1.392157 1.802398 0.866269 -0.530109 -1.493871 -1.521254 -1.253161 1.065257 -0.630719 -1.200799 -1.243140 -3.276649 1.238615 -0.683508 -0.339495 2.159016 -1.205885 0.197102 -0.773045 -1.748296 1.445698 -1.492939 -0.257707 1.879286 -0.759350 0.001854 0.749946 1.166891 -1.690014 -0.416824 0.439120 2.074130 -0.115292 1.618406 -1.064541 -1.419849 -2.344358 -0.742352 0.533311 -1.856413 0.294431 -0.695206 -1.743155 1.754914 -1.255736 -0.718736 -1.034914 1.430465 -0.685436 0.311376 -0.327399 1.945227 -0.467055 0.496339 0.056137 0.089798 -0.271174 -0.872033 0.164903 0.327364 -0.009834 -0.219100 1.152550 -1.845704 -0.299037 -1.384708 0.307510 0.238990 1.059433 1.671903 -0.948079 0.526850 -0.404026 -0.081990 -0.310256 -0.088427 -0.070684 -0.764879
rose -0.791223 -1.568014 1.442376 -0.235123 0.902787 1.032813 -1.389648 0.358159 -0.300707 2.160318 2.021011 0.633130 -0.425534 1.669188 -0.267059 -2.346657 -0.360694 1.276279 -0.401175 0.446273 2.883119 -3.121750 1.757301 1.063445 1.624127 0.324188 -1.911738 0.092241 -3.605799 1.037413 1.846372 -1.655764 1.074010 -2.142326 0.183164 0.718545 -0.989368 -0.401105 -1.822726 0.834150 -1.344290 1.720479 0.186178 -2.337811 -2.113873 -0.125576 3.373660 -1.207221 -0.037765 -1.544023 -0.780710 -2.243180 -0.428422 1.627070 0.692402 1.414951 0.919247 -0.609414 1.837034 -1.815848 -0.835367 -1.464524 -0.463834 -1.645671 0.867659 1.288909 -1.268602 -0.537021 -0.776935 0.332835 -2.677790 -1.901605 -1.016191 0.433351 -1.340984 1.334917 1.310462 -2.988817 -0.396090 -1.189404 0.236651 -1.727693 -1.259188 -1.038436 -0.914419 1.556965 0.219080 -2.287613 3.102303 -4.292889 2.950093 -0.041193 0.890045 -1.735597 -0.729298 -2.161724 1.212992 2.195833 -2.004926 -1.442337
today 0.827325 -0.033280 -0.875778 0.986331 1.172581 0.389437 -0.902071 1.245768 -0.525149 -0.505553 2.575240 -0.154914 -1.030796 -0.361134 1.045673 0.590807 0.811889 0.203093 0.602395 0.012075 -1.024868 1.092016 2.176417 -0.175770 0.547833 -1.376630 -1.372775 -0.661178 -0.784816 0.408326 -0.617241 -0.932833 -0.386859 -0.276888 -0.206851 -0.022874 -0.910905 0.342318 2.233987 -0.337748 -0.715264 -0.569825 1.076807 -1.185695 0.770313 -1.019566 -2.085674 -1.637403 -0.185861 -1.504239 -0.200560 0.294546 0.278213 1.018885 0.893487 -0.396006 -0.237271 -0.160370 0.310619 0.282109 -0.372063 -0.403564 0.248715 -1.034459 0.857481 0.160756 0.695120 1.223564 -1.877706 -0.059410 0.425765 -1.244811 0.387631 0.021459 1.687153 0.933162 -1.387869 -1.214241 1.341825 0.891683 -1.666648 -0.542117 -1.202968 0.540411 -1.146498 0.273417 0.181797 0.078040 -1.388704 0.064053 -0.118499 0.845684 -0.840553 1.405776 -1.223071 -0.550047 0.575970 0.561302 -1.047114 -0.300353
increase -0.934700 -0.195753 -0.051555 1.118065 -0.483052 0.580547 0.692210 1.401309 0.839426 0.201411 -0.533230 0.723688 -0.777657 -1.379371 -0.167870 -0.246943 -0.643144 1.561459 -0.218673 0.708445 -0.264085 -0.879002 0.615044 -0.052914 0.464277 1.272554 -0.865210 -0.193612 -1.641453 0.996474 1.886790 -1.614582 1.536103 -1.929332 0.671614 -0.101001 -0.507976 1.525051 -1.075021 -1.062229 0.237796 -0.160799 -2.001407 -2.728965 -0.806990 -0.655937 0.862061 -1.290392 0.437958 0.185533 1.130454 -0.467656 -1.187718 1.722245 0.811915 1.449528 -0.376065 -1.711837 -0.099508 -0.123394 -0.219867 -0.514111 0.126414 1.380367 -1.984502 0.082500 -0.186971 -2.581411 -1.730699 1.355189 0.049207 0.306504 -0.031856 -0.560013 -1.789840 -0.149764 -0.713814 -3.096422 -0.250999 -0.249345 1.340149 -0.288290 -0.321728 0.231723 1.527039 -0.280678 -0.428552 -1.142738 1.239670 0.322088 1.737916 -0.358932 -1.804410 0.240138 -0.262738 0.201257 -0.849979 1.414893 -1.653877 -0.956128
interest 0.287354 -0.751562 0.638896 1.219159 0.133268 -1.425588 0.396385 -0.985819 1.058983 1.022590 2.141309 -2.382154 -0.087267 1.075973 -2.067095 -0.636315 0.878755 -0.385162 0.479135 1.275882 -0.371135 1.061118 0.118474 -1.385118 2.096674 1.583703 -2.005541 -1.544364 -0.055539 0.426718 0.855275 0.779117 0.480112 -0.505600 0.291722 -0.891515 0.703897 0.999457 -1.098251 -0.714929 3.109391 0.466479 -3.191918 -0.134140 -0.458278 2.871258 1.038383 0.560157 0.202801 -1.560100 1.126703 0.607318 -2.304986 -1.278785 -0.431127 0.985152 0.077505 -1.272325 -0.232151 -0.173633 0.142055 -1.524867 -1.981218 -0.135079 1.776799 0.874641 0.740663 -0.838854 -1.467322 0.446732 -0.146664 2.377975 0.356422 0.253605 -0.119710 -0.838710 0.201051 -0.250588 -0.977298 -0.150450 1.811934 -0.913492 -1.121245 2.208676 0.533816 0.618202 -2.076204 -0.039506 0.381541 0.793416 0.198850 -0.585237 -0.228185 1.098960 -0.017741 2.464180 -1.215112 -0.081092 0.536444 -1.856590
production 0.630089 -0.297622 -1.998809 0.327754 0.625723 0.020999 -0.584974 -0.419132 -0.527862 -0.539402 0.430138 -0.127577 0.950321 -1.308633 -0.609807 0.941025 -1.006585 0.253172 1.018095 -0.234310 0.249774 2.109446 -0.407726 -0.065468 -0.514499 -0.969897 -0.525184 0.328766 -0.485189 0.854917 1.028887 0.789380 -0.333832 1.748726 -0.992557 -0.987760 -0.786829 1.041964 -1.394868 -2.658956 -0.130125 -0.177779 -0.208193 -0.976112 -0.932130 -0.259371 -0.714598 0.364868 -1.275707 0.067451 -0.737515 2.759121 0.047935 0.607381 -1.741731 0.335133 -0.704859 -0.209436 -0.909995 -1.495108 -0.777314 0.513117 -0.285545 -0.109250 -2.464945 1.593241 -1.821451 -3.540156 -0.331110 -0.306878 -0.372617 0.906297 -1.856410 0.560452 -1.686590 -1.651432 -2.055047 -2.577773 0.178388 -1.606852 -2.885154 0.997679 -0.459940 -0.274462 1.925941 -1.832985 1.585838 0.454732 -0.205858 0.316511 -0.642996 0.655991 -2.454551 -1.357413 0.349723 0.253547 1.757004 1.937237 0.673270 -1.177901
meeting 1.129961 -0.021181 -2.093638 0.436854 -1.859079 0.192521 -0.199887 -0.622767 -1.853356 -1.128198 2.674438 -0.955330 -3.098422 -1.504282 -0.697581 0.821346 1.850214 1.381271 1.733528 -2.817662 -0.817020 4.391087 -1.977785 -1.542422 -1.340704 -0.672341 -2.095931 1.033965 -2.267502 1.489798 -1.561690 -0.001996 -0.517410 -0.228172 -1.658522 -1.021071 0.532375 0.921783 0.582731 1.294517 -0.139183 -2.900903 0.440227 -1.193321 -1.136992 -0.102787 -2.998678 -0.683230 -0.498905 -0.353252 0.352502 0.467838 -0.460730 1.564663 0.273946 1.608071 -1.395707 0.915545 -0.141850 1.102925 -0.281654 2.526085 -0.708208 1.238220 -2.539504 -0.872218 -0.934978 1.771895 -0.482495 -0.756785 -0.853646 0.207633 1.229047 -0.954076 0.938084 2.640963 -0.646813 -1.827768 0.127269 -0.075916 0.172625 -2.619545 -1.139176 -2.265448 0.298365 -0.206588 -1.351685 -0.779601 0.071133 0.694759 -0.372042 0.971266 -2.747928 0.802182 -1.748072 2.123804 0.040128 -0.250055 0.376474 -2.707909
end -0.067689 -0.858112 0.225727 0.243893 -1.996937 -0.235901 1.749890 -0.477319 -0.365573 -2.383256 -1.130892 0.440295 -2.074826 0.190124 -1.041225 -0.878452 0.997799 0.338116 1.851904 -0.150672 3.753131 2.791209 -2.513446 0.376622 0.144738 -0.541821 0.207319 -0.547514 0.480874 1.348682 -1.307489 -1.034810 1.522047 0.621287 -2.859842 -1.789601 -0.304090 0.156597 0.948766 -0.454867 -1.524635 -0.545997 0.279046 -0.883293 -1.548532 -0.317758 -0.586653 0.322610 -0.165176 0.381627 0.230042 -0.377020 -0.138127 2.555884 0.206439 1.502539 1.619643 0.228693 0.065541 -1.591803 -0.532136 1.022439 -1.888836 -1.098525 -1.288857 0.660196 -0.258887 -1.583961 -0.688001 0.414751 -1.536433 -0.153036 -3.167125 -0.442914 -1.740906 0.522418 0.323084 -1.556200 -0.196532 -1.515004 0.616554 -3.392277 0.737164 -1.996666 0.527521 -0.058555 -1.689256 -1.166203 0.270032 0.471496 -0.487495 0.693580 1.393376 0.338896 -1.441690 -1.239488 -0.756812 1.348350 -0.930344 2.206863
month -1.713466 -0.122166 -1.783211 1.642781 1.334530 0.234991 -0.610425 0.350312 -0.723324 0.518536 3.390752 2.539112 -0.234785 -1.229339 -0.080253 0.134307 -0.874478 0.398571 1.397987 -0.677834 -0.581391 0.262401 0.919691 -0.670474 0.236948 -0.336699 -0.954773 -2.659838 1.105821 1.291474 1.654803 0.035709 0.827393 0.937986 -0.495226 1.202506 -0.387496 -1.132835 0.981793 0.418436 -0.732672 -0.446083 0.483746 -2.654684 0.964932 -1.849158 -1.079207 -2.018866 3.030204 -0.526566 -1.033781 0.602695 -2.605702 -2.539544 0.741278 2.208988 -2.230667 1.122180 -0.470121 -2.388157 -0.864358 -2.714111 2.150150 2.379840 -0.689950 2.311898 -2.570456 0.662194 0.103697 -1.773090 -0.338292 -1.691277 0.686792 0.521642 0.816710 1.345476 -1.886442 0.222454 1.550558 0.512431 0.813422 -2.691647 -0.031291 1.211514 1.105742 0.177313 -1.354723 0.142930 -0.113794 0.085558 1.168237 -0.216363 -2.217590 -0.551986 1.113905 -0.023630 0.689954 -0.594762 0.003376 -2.718206
foreign -1.592003 0.942436 -0.529339 1.348504 -0.745943 0.248457 2.061910 -0.271939 1.157881 -0.846942 2.129266 0.364675 -1.217025 1.591592 -2.548818 1.178053 0.558853 0.729321 1.413468 2.170017 -0.544718 -0.234518 1.053361 -1.350008 0.619915 -1.562653 2.715184 -0.737845 -0.424859 2.262588 -0.807398 -1.313272 0.241016 -1.590000 -0.698415 -0.569912 0.433050 -0.585824 -0.280235 -0.418610 -1.621376 -0.169413 1.781164 -0.396588 1.689193 -1.823853 -0.286557 2.412877 -2.207876 -2.607208 0.308477 -0.699623 -0.106470 0.136708 0.556076 0.335273 -0.377286 -0.037626 -1.985092 -0.094730 -0.312830 -1.246866 -1.819761 -2.441715 1.192980 1.262301 0.082273 -1.150612 -1.515388 -0.116940 -0.547167 -1.113752 0.965039 0.706568 -1.134242 0.404701 0.034663 -0.936543 -0.377771 1.117184 -0.432151 1.765459 -0.427126 -0.866876 -1.756309 1.085359 0.973169 0.147064 2.286360 -1.163365 0.456967 -0.664647 -0.195013 -0.194771 1.256523 0.288449 -1.114382 -0.122787 -1.954175 -1.154807
sale -1.706116 -1.513018 1.127270 0.570620 -1.558825 0.698017 0.612682 -0.560980 1.292299 -0.758510 0.996450 1.562567 -1.536443 -0.045702 -0.762858 -0.041713 -0.580103 1.160489 0.262137 0.876915 0.709821 -1.132642 1.021072 1.580384 0.723992 2.366179 -1.301462 -0.444376 -0.369302 1.223377 1.319770 -0.081771 -0.783358 0.760300 0.759790 0.948471 0.089766 -0.306425 0.795679 1.395265 -0.909720 -0.195632 -1.494311 -1.925270 -2.652782 1.313370 -0.425589 0.163541 1.003046 1.039019 -1.979214 -0.262599 -0.417837 0.678118 -2.383756 0.702670 -0.241681 -1.529212 1.953004 2.121138 -0.876700 -0.381181 -0.363980 -0.348652 0.050127 -0.255942 0.978066 -1.718269 -0.589568 0.331125 1.153492 -0.043817 0.049107 -0.563657 -0.616691 -0.184952 -0.672038 1.207928 -1.110549 -0.368060 0.136523 -0.973104 3.756828 1.126319 0.132753 -0.181193 0.793704 -0.510041 0.257594 1.700372 -0.131959 -0.876391 -1.737231 2.487338 -0.991710 -0.728926 -2.211497 0.353230 0.296454 0.280508
includes 1.051792 -2.452448 1.062952 0.997581 -0.924097 -0.904815 -0.122976 1.492733 -1.126119 -2.527013 1.126550 -1.091852 0.265828 -0.887329 -1.834111 -3.666516 1.870705 0.576347 0.675452 3.054309 -2.011595 -2.046295 -1.762097 1.939796 -0.360459 0.422314 0.187142 -0.751883 0.941196 -1.103631 2.083838 -0.002109 -2.167082 -0.000614 -0.031873 0.838848 2.529695 -0.875564 -0.236774 1.382373 -2.279843 -0.934259 0.256662 -3.250288 -2.035832 0.451184 2.887491 2.422077 -2.583411 1.722658 -2.222438 -1.491197 0.280902 3.885726 -1.016632 0.067528 -0.905248 3.337461 3.820851 0.112282 -1.313383 1.145328 -1.250015 -0.420580 1.208408 2.845054 -0.699931 -0.987675 4.595575 -0.953822 -1.104864 -0.226698 0.515623 1.501682 -2.719968 0.397871 0.824825 1.036951 -0.564996 1.453688 -1.062445 -0.407084 2.213380 -0.769384 -0.777443 -0.161345 -1.642596 -1.126510 2.683083 0.492541 1.939738 -2.259337 0.904432 1.810853 -1.378066 -1.648574 0.042287 -0.631001 -0.982950 1.399938
rise -0.163588 -1.465644 0.277473 0.044395 -0.355807 -0.400174 0.338686 0.662915 -1.119810 0.016958 0.349218 1.381791 -1.114542 -0.958590 0.466926 -1.210931 -0.152755 1.547305 -0.571242 0.517671 1.997836 -2.482740 0.876366 -0.188162 0.212763 0.344580 0.113936 -0.363535 -1.598283 3.215032 1.412762 -0.840043 0.293189 -1.462464 1.444364 -1.601203 -1.903826 1.286267 -1.067373 -1.305957 -0.207780 0.569803 -1.619564 -2.244289 0.222049 -0.877425 0.116549 -1.112174 0.823376 -0.763831 1.677509 0.357563 -0.503195 1.420312 1.369833 2.237946 1.478128 -2.683779 -1.207074 -1.454981 0.106895 -1.010259 0.776004 0.595545 -1.865935 -0.237885 -0.978129 -2.185081 -2.621565 -0.687670 -0.484607 0.588524 -2.978220 0.048615 -2.965509 -0.893060 -0.040109 -2.446645 -0.294739 -0.111780 0.782893 -1.901267 -0.949818 0.192547 0.354977 -2.177662 -0.756912 0.266958 1.604064 0.561458 1.027789 -0.734137 -1.780451 0.176489 -0.210761 0.375711 -0.000210 1.806762 -2.467971 -1.191493
board -1.374906 -0.919849 -0.200664 0.438739 -0.941465 -1.648079 -1.430264 0.019044 -1.643375 1.019915 0.211183 -1.970008 -1.188886 -1.170868 -0.671968 -0.145771 -1.252033 0.462643 0.596487 -1.816625 -1.015162 0.934158 -1.828478 -0.665010 -1.191170 2.412595 -0.619562 -1.475996 -1.347094 0.156355 -0.198292 0.801853 -2.440047 0.545133 0.731492 -0.216643 1.600013 -0.281480 2.166203 0.548284 0.770702 -1.978893 0.565004 -1.094798 0.772786 1.002616 -1.771702 -0.823160 0.597965 0.534229 0.996605 1.348092 -1.005811 2.348193 -1.502989 -1.162073 -1.788921 1.278113 0.321806 3.469718 1.814463 1.994473 0.061804 0.856083 -1.072205 -1.095844 0.639761 -1.505896 -3.354320 1.806204 1.371080 -1.113517 0.982261 -1.129351 0.593509 2.855383 -2.375260 1.276046 -1.644825 -1.258127 1.015782 0.049510 0.260831 -1.526716 0.760316 0.242493 -0.773073 -3.276278 0.119827 0.999531 1.402722 0.486505 0.851211 0.897908 -2.819093 1.717032 -1.575361 -0.893594 0.020132 -1.784777
cash 1.545078 -1.353983 2.015458 2.637663 1.273500 -0.237551 0.535310 -0.677838 1.722322 -0.417984 1.459604 -0.953090 0.863838 -0.367522 -0.896775 -0.147179 1.144460 -1.068465 -0.808975 2.628691 -1.209732 -0.556939 0.119602 1.188820 0.736515 1.658216 -1.332477 -1.713577 -1.505386 -0.068087 0.405752 -1.125400 -0.569161 -1.171396 0.783045 1.239276 2.536003 0.292335 -0.442310 -0.427162 0.313940 0.387579 -2.177252 1.457015 0.530014 0.458892 -0.236444 0.068983 0.907773 0.649101 1.177896 1.989903 -1.646803 -0.489147 -0.277273 0.233644 0.004628 -1.197805 0.069817 0.793603 -1.321710 -1.181462 -0.373465 -2.427796 -0.321313 0.833852 -0.533638 -0.620689 -2.530246 1.207836 1.083118 -0.913136 -1.411576 -0.054596 -0.984611 0.161935 0.102694 -0.462814 1.484295 0.235615 0.477341 0.453561 1.507050 0.940989 2.474972 0.869999 0.082547 2.776650 -0.143759 1.260603 1.538292 0.954928 0.846033 3.081144 -0.483788 1.393791 -2.711722 0.512048 0.352828 -0.980505
made 0.554666 -1.387924 0.968911 -0.031153 -0.402158 0.511868 0.625555 0.055739 -0.287088 0.346752 0.007629 0.674146 -1.042135 -0.421354 -0.560287 -0.109058 1.504644 0.124164 1.376146 -0.922750 -0.033249 -0.275190 -0.324803 -0.452963 0.111528 1.387427 -0.082842 -0.836624 0.831850 -0.396905 -0.271086 -1.731774 0.389303 0.417087 -1.667339 -0.127342 0.954461 -0.906587 0.783521 0.150467 -1.011493 -0.589025 0.106588 -1.183826 0.054757 0.208888 -1.619645 -0.283363 -0.361857 -0.743529 0.517850 -0.344641 1.510267 -0.609236 -0.047132 0.937423 -1.481147 -0.323385 0.068784 -0.394233 -1.910832 -1.030716 -2.291111 -0.054985 -1.466230 -0.821363 0.875406 0.372631 -1.385114 0.009147 -0.658745 0.551246 0.287071 2.501493 0.649773 0.357492 -0.459286 -1.809970 -0.592195 0.087678 -0.731878 0.733542 0.150048 -1.287847 -0.066014 0.161571 -1.738908 0.447055 -0.159419 0.432526 0.049685 0.974443 0.036775 1.668625 -0.438200 -0.352781 -1.078135 -0.185467 0.595881 0.383920
current 1.080988 -2.092144 0.922735 1.990311 0.225817 0.786021 -0.066147 -0.358130 -1.460204 -1.882816 0.958023 0.323418 -0.433532 0.901987 -0.174600 -0.383795 0.704834 -0.974603 -0.114140 0.061052 -0.602791 0.640685 -0.153516 0.280881 -0.872681 -1.334386 0.937896 0.928527 0.551931 0.400356 0.940213 -0.463519 0.016593 -0.683330 0.721140 -0.375120 -0.649460 1.057727 0.831836 -0.074199 -0.482424 0.751802 0.874548 0.182413 1.257372 0.757360 0.925669 0.132778 -0.028660 0.766707 1.129544 -1.278271 -1.130898 1.683669 0.700449 0.574274 -0.645433 -1.053096 -1.021406 0.230416 -0.853050 0.489108 -0.516750 -1.140783 -1.059226 0.227623 -0.135595 -0.567525 -1.311610 0.644344 0.595597 -0.699241 -1.925557 0.823001 -1.515171 -0.398067 -0.908652 -1.688769 -0.873443 0.300299 1.126464 0.599982 -0.278919 0.184168 0.917503 0.688966 0.251141 -0.761535 1.120291 -1.624332 -0.602777 1.551809 -1.622777 0.545938 -0.555426 0.262289 -0.281995 0.498459 -0.682794 -0.278157
gain 0.145190 0.487998 1.237913 1.549040 -0.490227 -0.461638 2.002497 -0.382789 -0.031677 -1.677210 0.947625 2.331972 -1.448941 -0.630496 -2.939206 -0.747871 0.304607 -0.442121 -0.136440 1.121922 -0.049771 -3.459170 -0.251823 1.015171 0.243722 1.404564 1.256955 -0.856543 0.551311 0.052258 2.244966 -0.636469 -1.841680 0.385632 0.818985 -0.032488 0.171002 -0.060073 1.209726 0.530495 -1.538771 -1.578598 -2.343904 -2.050536 -2.628859 -1.062671 0.092916 1.084865 0.609660 0.113543 -1.646604 -0.320691 -0.418794 0.084246 0.615053 1.997944 -0.551219 -1.028417 1.803598 -0.450105 0.386556 -0.000101 -0.697857 0.322510 -1.846522 0.563071 0.458547 -1.239021 0.126007 -1.315389 1.521673 -1.323350 -3.572643 -0.685339 -1.704611 -0.037529 1.174797 1.469685 -1.319142 0.497088 0.548951 -1.264484 1.572718 0.680887 2.017868 -0.216866 -0.196299 -0.846300 1.510708 0.125548 2.398566 -1.638503 -0.553043 3.250267 0.752488 1.110321 0.466525 -0.357055 0.256305 1.197225
investment -0.769934 -1.053238 0.424110 1.472785 0.309461 0.752352 1.102201 1.151096 2.560404 0.222832 1.389642 0.005985 0.171826 0.695441 -0.018035 -0.998633 0.418660 0.769395 0.487717 0.786369 -0.778498 -1.052761 0.339002 0.794235 2.083637 0.751399 -0.563567 -0.233206 -1.448129 1.039483 -0.061426 -0.373275 0.734222 -2.218657 -0.464376 1.147790 0.989440 -0.290700 -0.094862 -0.802095 -1.079264 0.205505 -1.691953 -2.123834 0.015661 0.027067 -0.418780 1.195590 -1.759241 -0.856620 -0.445508 0.338152 -0.051376 -1.273511 0.133065 0.799332 -0.134765 -0.219973 0.743422 1.346916 0.266503 -1.949847 -0.744348 0.829679 1.483365 -0.450483 0.689811 -0.739136 -0.609401 0.305833 0.001151 0.064812 1.203350 0.948780 -0.729896 0.809895 1.088511 -0.751502 -1.492397 0.348920 0.623522 2.612834 -0.136013 0.143081 1.083944 -0.500175 0.686203 -0.103348 1.565694 2.127647 -0.401945 -0.153939 0.033964 2.170808 0.357990 0.738011 -0.137856 0.224372 1.998483 -1.245733
official -1.492609 -1.903612 0.259055 -1.052877 0.627237 0.332933 -0.315403 1.188375 -0.985193 -0.903389 0.583937 -0.681770 -1.238142 -1.120609 1.999985 0.132632 -0.788092 0.948532 -0.074061 -0.078204 -1.102914 1.532660 1.033182 -0.020602 -0.509537 -0.266993 1.653101 -0.323642 0.403523 -0.388986 0.517580 0.411103 0.374087 -0.241575 0.862542 -0.192024 -0.708932 -0.696798 -0.336081 -0.045365 -1.485187 0.321245 0.890526 -2.221881 -0.604165 -1.240037 -2.071979 -1.390746 -2.832194 -0.365540 1.419396 -0.375519 -1.763288 0.730827 3.407128 -0.481804 0.706253 0.259131 -1.025185 0.803405 0.867955 -0.816071 0.118435 -0.782875 -0.179814 0.076178 1.304369 0.023443 -1.473692 -1.013333 -0.400088 -0.056690 1.729102 0.650913 -0.707517 1.921056 -1.337677 -2.693710 0.282885 0.000678 0.758007 -0.141888 -1.659848 0.696149 0.722319 0.659796 0.081054 -0.505270 0.524125 0.545204 -0.428344 0.566439 0.357854 -0.522672 -0.498847 -1.571704 -0.114475 1.065839 -1.229523 -1.980428
dividend 0.059726 -0.505253 0.699196 1.950168 0.831900 -1.299372 -0.245090 0.666800 0.096955 -0.254728 1.204215 -1.421389 -1.192150 -2.021502 -2.410493 -1.979395 -1.348823 1.599369 1.595484 1.296735 -2.231928 -1.016379 -0.828631 1.933698 -0.695200 1.626238 -1.986845 -1.696159 -2.019553 0.172232 -0.649621 -0.547786 -2.209168 -0.872933 -0.894648 -1.421211 1.804804 1.805698 -0.580448 1.389104 2.219390 -1.650262 -2.070561 -1.386071 0.253606 2.263502 -0.926210 -2.908549 1.831447 -0.353089 -0.024550 1.930576 -1.374277 0.581411 0.005233 1.594851 -0.645123 0.287810 1.264535 1.190165 0.386350 1.697989 1.183416 -0.041733 -2.531529 0.623468 -2.368384 -2.153694 -4.553461 1.424778 -0.269662 -1.295589 -2.533367 -0.004848 -2.762297 -0.241702 0.317080 -0.485872 -1.478289 -0.762262 2.062410 -1.107986 -0.173559 -0.300277 0.500696 -0.418037 -0.306270 -1.407772 -0.289238 1.835833 2.982740 -0.286951 -2.119718 2.288006 -2.918556 1.059810 -0.408574 -0.035659 -1.232067 -2.296727
business -0.750605 -0.997420 0.100455 0.566696 -1.360237 0.838666 1.085695 -1.318110 0.702788 0.393697 0.210527 0.281705 0.173972 1.151672 -0.928003 0.050869 0.321069 -0.775523 0.218800 -0.243335 0.604881 0.563329 0.408433 -0.146954 0.012941 1.037495 -0.217933 0.179885 -0.686589 0.159181 0.138037 0.287317 0.460741 -0.160694 -1.881013 -0.143484 0.025091 -1.042252 0.216461 -0.923312 -1.857696 0.061917 -0.085629 -0.932120 -0.236250 0.468142 0.200026 1.206284 -1.264755 0.460347 -0.944206 0.335074 0.250420 1.347399 -1.640557 -0.465796 -0.235884 -1.058657 0.145384 0.639799 -0.917841 -1.117236 0.605599 -0.026915 0.272155 0.521859 0.376340 -0.468175 0.179941 0.250973 -0.809055 -0.200829 0.865865 0.701702 -1.496004 -0.466157 -0.310524 -0.575643 -2.267677 0.018837 0.291823 1.128227 0.184284 0.038886 1.653147 -0.682395 0.387083 -0.443425 0.570303 0.740585 -0.312363 -0.299288 -0.514951 1.186511 -0.418582 0.326448 -1.584017 -0.559935 1.763376 -0.599935
industry -1.412336 -1.166443 -1.072884 -1.897899 0.068997 -0.689503 0.675087 0.269233 -0.019728 0.448296 1.178425 0.596336 0.322240 -0.390175 1.467459 1.975029 0.238116 1.434453 -0.210020 -0.641282 -0.895006 -0.437798 0.125676 -0.403326 -0.329289 -0.165860 0.654449 1.036870 0.617857 0.925900 0.808178 0.370765 -0.896184 0.880145 -0.218568 -0.744901 0.690291 -0.488013 -0.413410 -1.623842 -1.181631 -0.036047 0.662954 1.026443 -0.043868 -1.363726 -0.039982 0.883001 -1.021059 0.125757 0.047212 -0.372630 -0.046767 0.679509 -0.098579 -0.351243 -0.802626 -1.182205 -2.115167 0.295985 -2.268987 -0.796923 0.006377 0.797709 -0.983816 -0.313209 0.719601 -1.086185 0.228696 -1.011289 -1.746910 0.355812 0.969238 1.200694 -1.656505 -0.318170 -1.361103 -2.103606 -0.338024 0.533625 -1.161691 0.976403 0.052176 0.526358 2.740478 -2.785152 1.285864 0.472956 1.708251 1.087723 -0.370975 -0.169035 -0.619343 0.828654 -1.166530 0.446335 -0.022929 2.033985 0.911762 -1.444743
growth -1.251966 -2.415102 -0.728757 1.101661 -0.129204 1.109832 0.157339 -0.294240 0.028710 0.704417 2.214494 2.329241 -0.870724 -0.628010 -1.220997 -1.299839 0.959354 0.434539 -0.428507 0.561966 0.383853 0.156326 -0.587463 -1.636479 -0.607769 -0.346272 -0.243887 0.357406 -0.502370 2.261245 0.099719 0.460424 1.283855 -1.863116 0.689649 -0.767094 -1.331870 1.660947 -1.140338 -1.506062 -0.303894 -0.129551 -1.142500 -1.972203 1.466079 0.627225 1.336900 0.127214 0.607276 -0.397339 0.773693 1.929275 -0.059878 1.007943 -0.126105 1.570750 0.537145 -2.335111 -0.670007 -1.866919 -0.800172 -1.183139 1.091224 1.609485 -0.684013 0.366308 -1.857060 -2.497354 -1.319149 0.018832 -1.285691 -0.821227 -1.384835 0.927270 -1.540721 -1.272611 -0.991999 -2.226153 -1.693814 -0.726778 2.282342 -0.203314 -1.504818 -0.262813 1.912865 -3.117667 -0.095568 -0.948295 1.680191 0.129615 -0.813516 -2.168965 -2.268397 0.529390 -0.529860 1.428193 -0.631904 0.305355 -0.701869 -2.446949
exchange -0.588589 -0.391786 0.793464 1.705536 0.772185 0.854158 2.444373 0.323436 0.195026 -1.392212 2.894397 0.194525 -1.322473 0.863671 -0.837021 -0.541891 2.528241 -0.074360 0.776359 1.613519 -1.048954 1.047444 -0.337510 -3.226372 2.058392 0.827747 -0.783706 -0.166048 -0.155903 -1.707641 -0.499796 -0.774654 1.516597 -0.931926 1.401076 1.221655 -0.182540 0.795473 -1.304053 2.074348 1.784672 0.744924 -1.410395 -0.190433 0.401200 1.316557 -0.205261 0.998918 0.462400 -3.272624 1.476080 0.666100 0.136341 0.254689 -0.207461 1.224775 0.161562 0.307622 -0.653758 -0.335039 0.678913 -2.161438 0.264986 -1.757608 1.727184 0.740069 0.945762 1.977675 -1.518621 0.973395 0.601006 0.508862 0.301830 0.325167 1.472195 -0.082679 -0.661154 -0.562933 -0.996067 -0.818624 1.838143 -0.579409 -1.736476 0.051613 1.668756 2.315257 -0.492819 0.421652 1.021121 -0.558067 -0.197909 -0.069139 0.179335 0.588820 -0.572652 2.159470 -0.050251 1.200892 -0.813857 -3.017697
statement 0.550090 -1.785802 1.452287 1.823086 0.220662 -1.011318 -1.719936 0.336416 -0.278615 0.169565 0.694866 0.086593 0.180054 -0.602432 0.951226 0.995078 -0.544703 1.272721 0.265568 -0.730409 -0.277923 1.603650 1.840082 0.860556 -0.463888 0.519212 -0.867463 0.491748 -2.057473 -0.570289 0.277490 -0.652443 0.182648 -0.964252 -0.037936 -0.705688 -0.125777 -0.648860 1.713472 -0.477328 -0.475874 1.154839 0.904138 -0.504390 0.364952 -0.841848 -0.852674 -1.557724 -2.494446 -0.853800 1.514752 -0.937390 0.150556 -0.419183 -0.265307 -0.150145 -1.371581 -2.595309 0.547231 2.140317 -1.612065 1.072376 1.086230 1.141802 -0.934598 -0.083576 1.691432 1.279291 -2.266942 -1.056992 1.027376 -1.534665 0.943692 -0.627534 -0.032205 0.731781 0.188458 -2.922774 0.137599 0.291714 1.683043 -0.196546 -1.728229 0.717760 0.259739 0.059365 -0.488723 -1.699075 -0.568218 1.119796 -0.155729 -0.530071 -1.048265 -0.276998 -2.342692 1.391959 -1.804282 1.332674 1.744171 -1.421962
major -0.407270 -0.450842 0.226938 -0.065870 -0.068054 -0.483149 -0.176767 -1.703228 0.337291 0.885551 1.608290 1.161412 -1.061621 0.465980 -0.583416 0.902199 1.034886 -0.525590 1.405964 0.254346 -0.182617 -0.511807 0.291864 0.402735 0.722944 -0.094196 0.408352 -0.574901 -0.524007 1.255498 0.144532 -0.862786 0.491637 -0.178424 -1.328206 -0.011599 -0.867803 -1.016657 0.101428 -0.433747 1.072698 -0.265935 2.193159 -1.162400 -0.238149 -0.160341 1.220767 0.623333 -0.607261 -1.196535 0.095143 0.245654 1.029737 1.281811 -0.867623 -0.048987 0.011239 0.001555 -1.676461 -0.349545 -0.703910 -0.019047 -0.259587 0.640913 0.786054 -0.618592 0.154524 -0.726146 0.803228 1.174106 -0.704329 2.036887 1.825795 0.933721 -0.249362 -0.098129 -1.104780 -0.263681 -1.303770 0.574408 0.658779 -0.049476 -0.365551 -1.179212 1.138638 -0.173846 1.373678 -0.961051 0.990244 -0.475261 0.677490 0.216089 -1.059847 -0.109340 -0.752876 -0.624673 -0.673394 -0.729877 0.209190 -2.215257
dollar -1.794017 -0.638504 0.510042 0.630908 -0.009161 -1.201326 1.861824 1.597394 -3.840701 0.267391 2.504294 0.427388 -2.407545 -0.058755 0.727058 0.853805 0.948449 -1.528216 -0.386354 -0.349914 0.456456 -1.396009 1.174676 -2.506879 0.978173 -1.196660 1.298298 -1.767344 1.046540 2.198869 -0.997026 -1.021143 1.499787 2.236824 0.177178 -1.476284 -2.179415 0.819418 -0.549312 -1.722678 0.464530 0.992474 -0.060789 1.397372 1.584594 0.943588 -0.816114 -0.382930 0.011424 -1.348136 0.861020 0.718409 -2.573927 -0.374458 -0.028612 1.157211 0.675840 0.494581 -1.763064 -1.189531 -0.812770 -0.787615 0.466728 -2.047316 1.793534 0.174939 1.326244 -0.139795 -4.280622 -1.128330 0.259553 1.611691 -1.739333 0.819440 -2.234805 -0.605296 -1.793606 -1.095132 -0.553150 -0.627063 0.967687 -2.856004 -0.353163 -1.487683 -0.453051 -1.684177 -0.039248 1.465145 -0.739331 0.737118 -0.794965 0.393661 -0.846016 1.318692 1.047467 -0.025662 -0.022799 1.004290 -2.151594 -1.291797
buy 0.964024 1.158634 -1.892191 0.244038 0.249573 1.168950 -0.854033 0.625268 -0.051224 0.196310 1.072224 0.781690 0.126931 0.298191 -0.729687 1.494451 0.939948 0.397897 -0.227073 -0.586332 1.826387 -0.751944 -0.295828 -0.170924 3.478814 0.932234 -1.513274 -0.765669 -0.054823 0.964781 1.784083 -1.872746 1.028443 1.027582 0.750226 0.945712 0.533711 3.345445 -0.395472 0.063415 0.484678 -0.977838 -1.168808 -0.236590 -1.360278 0.167906 -0.381330 1.688109 0.230750 -0.855030 -0.239655 -1.199740 0.336367 -1.075706 -1.367297 -2.268880 0.216735 -1.671260 -0.940061 2.108674 2.087991 -1.059857 -0.114493 -0.823023 -1.314572 0.720748 -0.100009 -1.280689 -1.581787 2.461271 1.307560 1.291196 -1.107869 -1.550023 1.208569 1.415845 -0.181459 0.908138 -0.394136 -1.712788 -0.326016 1.724065 0.986698 -0.257558 -0.070894 1.437881 1.476166 -0.247038 1.078250 -0.494864 2.024978 1.737649 0.774587 0.488890 -0.483425 -1.086453 -2.307530 1.930423 0.629595 -0.886234
stake 1.052554 -0.683615 0.736676 1.203441 0.171620 -2.519798 -0.819097 -0.932859 0.403038 2.364485 1.930318 -0.379599 1.688422 0.800610 -1.591069 -0.866795 0.389439 0.755029 -0.346522 -3.121307 1.271880 -0.313854 1.758444 1.041206 3.706279 1.463408 -1.795789 -2.841145 -0.333845 2.855229 1.392763 0.912358 -0.010625 -0.951876 0.498004 1.149441 -0.097661 1.002526 -0.724223 -2.143532 1.879877 -0.365625 -3.048133 0.673606 -0.167428 0.186029 -0.151716 -1.256067 -1.268739 -1.800443 0.111942 -0.121840 -3.327842 -3.313505 -0.467287 -1.367876 0.174711 -2.124973 0.613904 3.526911 0.906020 -1.882455 -1.619702 2.377973 -1.967280 -0.528075 -1.579771 -2.714559 -2.892918 0.166631 0.550637 0.348663 0.378614 0.395142 0.396516 -0.003084 -0.029232 0.530464 -2.545381 -0.625462 0.501082 1.157271 0.519380 2.778818 -0.078813 0.087996 -0.218218 -0.824423 0.003970 0.521439 0.447089 -1.046678 0.014854 1.263460 -0.843362 0.645531 -2.246993 1.861692 1.513074 -0.261750
acquisition -0.968605 -1.038685 2.087507 0.308572 -2.150117 -0.390987 1.185593 -0.906395 0.712498 -0.508106 0.174560 1.171373 -0.732906 -1.152414 -0.495701 0.006635 0.180581 0.100159 0.337763 0.517578 0.465745 -0.793495 -0.317630 0.066808 1.100368 3.047537 -0.829057 -0.203735 -0.227070 1.293706 0.367304 -0.502799 -0.095198 0.356071 -1.235011 -1.368786 1.266837 1.021007 0.445240 0.651315 -1.131204 -0.262721 -1.193881 -1.272308 -0.959525 0.864221 -1.363139 -1.388927 -0.241295 2.420444 -0.436827 0.825944 -2.169505 -0.286297 -1.503318 -0.719902 -0.509667 -1.369241 2.140436 2.280395 -1.062000 -0.176960 -1.181548 0.316469 -0.766541 -0.435894 0.288806 -1.839635 -2.124044 1.024206 1.819337 1.221877 0.282352 -1.462416 -0.350602 0.473332 -0.715755 0.602734 -0.136974 -0.773644 1.563219 -0.880575 2.794712 0.255469 0.499337 -0.522672 -0.918567 -0.573417 -0.890330 1.716494 0.851128 -0.917566 -0.100108 1.173749 -1.574231 0.450864 -2.316813 -1.086411 1.600199 0.694980
time -0.280937 -1.682044 -0.739487 2.324659 0.803070 -0.170448 -1.077586 -0.047627 -0.333355 -0.734020 0.852978 1.063085 -1.410690 -0.742773 -1.251370 0.077556 -0.659291 -0.594452 0.054479 0.309380 0.544147 1.646398 -1.007104 -1.500746 0.507924 0.184494 -0.906041 -1.691402 1.157547 1.718186 -1.104168 -0.111802 1.301926 0.270217 -2.399039 -0.003347 0.313117 -0.376154 1.051356 -0.883379 -1.935986 -1.452565 0.714328 -1.054412 0.189888 0.716169 -1.906839 -0.660006 1.903684 0.438477 -1.601912 0.585212 -0.558076 -0.184628 0.594871 -0.895555 -0.524220 0.642394 -2.403367 -1.053908 -0.000529 -0.915679 -0.834449 0.510885 -0.696175 -0.423913 -0.106249 0.275913 -1.018198 -0.853675 -0.717893 0.623734 0.485305 1.401111 -0.196304 0.116673 -0.917849 0.097252 0.846698 1.184426 0.781742 -2.330822 0.706083 0.805383 0.877083 1.214050 -1.900890 -0.530068 2.033910 0.859224 -0.027876 2.334438 -0.177673 1.874433 -1.053821 -0.647878 -1.731417 -0.038923 1.551569 -0.893712
reported -0.593167 -0.471168 -0.539651 1.354872 -0.631271 -0.080260 -0.867522 -0.081698 0.405153 1.560204 1.360201 0.469920 -0.786960 -1.185310 -0.859821 -2.592451 0.737101 1.377522 -0.146507 -1.335466 -0.945801 0.721060 0.823186 1.283591 1.436930 0.749174 -2.349301 -1.942749 0.599173 -0.058817 0.132902 0.771295 -0.291903 -0.444991 -1.844273 -0.961112 -0.451537 -1.622419 0.855689 -0.443383 -0.646329 0.827487 0.226346 -1.330332 0.182418 1.341887 -1.357262 -0.532628 -1.349592 -0.926299 -1.680722 0.504855 1.395086 1.025661 0.328720 1.194645 0.026505 0.636437 2.674159 1.741286 -3.083891 -1.930929 -2.085214 1.680822 -0.644070 -0.445325 -1.050209 -0.413639 -0.691105 -0.323751 -2.005402 -2.951256 0.139917 2.029492 0.948159 -1.099903 0.907883 -0.116124 -0.212373 0.522579 -0.608184 -1.674783 -0.349876 0.698642 -0.584453 1.204082 -2.038533 -0.431711 -0.832387 0.879636 0.589848 -1.205361 -2.231156 1.444271 -0.423608 -2.272522 0.466867 -1.386746 -0.552098 1.482322
world -1.123399 -1.819384 0.513483 0.513652 0.089690 -1.352468 0.876455 0.814811 -1.306137 1.033013 1.714082 1.899323 -0.901428 0.814030 0.618186 -0.284210 -0.264219 -0.197386 0.655297 -0.299664 -1.661192 -0.147007 -0.135213 -1.260645 0.472530 -1.318715 1.139786 1.123665 -0.330629 1.489385 -0.237032 0.088863 0.141823 -1.728224 1.255445 -0.474221 -2.563867 -0.567392 -0.589428 0.256978 -0.438603 0.499591 0.663505 0.955101 0.053969 0.466656 -0.025069 -0.535668 -0.723940 -0.689527 0.708877 -0.400955 -0.068291 1.033558 0.212500 0.092005 -0.094491 -0.162564 -1.119979 -1.029614 -0.760545 1.359651 0.347898 -0.475164 -1.106230 0.263442 -1.435382 -1.863012 -0.217560 0.141629 -1.129456 1.386911 0.247474 0.174327 -1.177977 -0.798879 -0.403185 -0.832787 0.083671 1.330384 0.137063 -0.113593 -0.921148 -0.973250 1.327837 -1.357057 2.750177 0.918481 1.663253 -1.413864 0.490778 2.004314 -0.963343 -0.953532 -1.116972 -0.709253 0.492374 1.347829 0.206235 -2.234387
debt -0.619779 -0.120139 -0.359220 1.702851 -0.096880 0.320228 2.196188 -1.388726 2.010775 -0.751466 2.184741 0.364105 -1.111189 0.525263 -1.879830 -0.603750 0.160143 -0.743309 0.580255 0.955733 0.444910 0.143668 0.650558 0.633402 0.925042 1.140813 -0.376964 -1.321651 0.822344 -0.120855 -1.149612 0.593080 0.198944 0.353671 -1.942031 0.963633 1.321195 -0.593133 -0.210074 0.030011 -2.022738 -0.819555 -0.227214 -0.843784 0.042151 0.287322 0.052867 0.093542 -0.607236 -0.797394 0.350379 1.371379 -1.255730 0.568944 -0.539346 -0.865953 -1.043552 -0.819782 -0.982898 0.318250 -0.302041 -1.143724 -0.129784 -2.357259 1.153588 0.893690 -0.003182 -0.062832 -1.127209 0.920230 1.484969 -0.377021 0.555647 0.024309 -0.585054 1.074440 0.634598 -0.111756 -0.465729 -0.886929 1.965048 -0.565103 0.387053 0.182811 -0.826942 0.340075 0.619711 0.331903 1.038184 0.881685 -0.298136 -1.386429 -1.014909 2.359464 1.957663 0.146672 -2.271032 0.190040 -0.030400 -0.787885
record 0.357945 1.382558 -1.798049 -0.204095 0.048031 -0.046885 1.569512 -0.414698 0.169026 0.046310 0.862762 -0.564770 -1.205198 -0.776408 1.422413 -0.530735 0.039478 0.988511 2.781578 0.360517 -0.286179 0.409661 0.345214 0.887557 -1.249806 -0.476856 -1.194325 -1.000973 -0.757642 1.177080 -2.046011 -0.841122 -0.010910 0.236775 -1.942447 -0.921080 -0.654036 1.246117 -0.180710 -0.109662 1.510605 -0.302943 -0.884052 -0.702081 -0.513721 1.971213 0.664168 0.585453 0.010034 -0.408413 0.753355 1.186522 -0.109333 1.645531 1.263606 3.046552 0.696546 0.574479 0.831971 2.194545 -1.165176 0.546103 0.871024 0.192321 -1.791035 1.442908 -3.103615 -1.781624 -0.711505 -0.705004 0.927279 -1.260430 -2.489437 -0.950757 -0.796467 0.371994 1.971747 -1.988441 1.028750 -1.199548 1.877053 -2.640675 -0.844487 -0.906092 0.553649 2.628028 -0.924688 1.658184 0.541400 -0.003208 0.674073 -1.201679 0.161704 0.490517 -0.218897 0.721148 -0.561083 -1.681625 -1.474860 -0.550338
take 0.859234 1.631203 -0.496379 2.286908 -0.780748 -0.496328 -0.187870 1.273047 -0.709871 -0.394577 -0.215961 -0.154944 0.405323 -0.446260 -1.292387 1.132431 1.390420 0.487241 -1.578022 0.232473 0.520050 0.214615 0.433310 -0.157794 0.660694 0.213905 -0.727210 -0.382258 -0.451260 2.518236 -0.315933 -2.151388 0.358183 0.416196 -0.796334 0.613985 0.098172 2.431184 0.661975 -2.084160 0.037411 -1.437357 0.283164 -1.243506 -0.806671 0.225149 0.291014 0.250570 0.912584 -0.879965 -0.207379 -0.248418 0.585603 0.357696 -1.176669 -0.786918 -0.696670 -2.217163 -2.785986 -0.966827 -0.202390 0.773323 1.945846 0.151378 -0.497826 1.070218 0.901907 1.215675 0.069957 2.067035 1.238799 2.638384 0.190029 -0.882745 0.884435 0.256332 -1.708899 -0.240005 -0.893210 -0.866651 1.979722 0.417396 -0.002393 -0.362233 0.238486 -0.517258 -0.259162 -0.467826 0.745833 0.114733 -0.923742 2.197515 -0.383287 1.868638 1.329553 0.147351 -2.762286 0.619226 0.055150 -0.323671
announced -0.637931 0.167459 -0.914119 0.743139 0.030691 -0.471616 -0.356719 -1.163342 0.292759 -0.038429 1.034176 0.614766 -1.194876 -0.996963 0.619436 -0.904124 0.919885 1.421590 1.766267 -0.669062 -0.440280 -0.178360 0.063773 1.718968 0.632336 0.306801 -2.252746 -2.110750 1.528853 -0.591262 0.581503 -1.039155 0.721479 2.012420 -1.712611 0.016722 -0.307935 -0.353991 2.227352 -0.069525 0.616525 0.007685 1.039394 -2.762204 1.010284 0.873235 -0.314889 0.155894 -1.646076 -2.134116 -1.192836 -0.176031 1.422359 1.546632 -1.625586 1.422984 -2.430658 0.128600 1.042308 2.488870 -2.362714 -1.111595 -1.613381 0.895741 -2.022299 0.155022 -0.667455 -1.180063 -1.129295 0.344991 1.166746 0.092752 0.528796 0.546765 2.254643 0.106136 -0.249295 -0.779666 0.480981 -0.547481 0.096544 -0.124413 -0.675989 0.612793 -1.446801 1.594991 -3.031199 -0.345153 -0.017203 -0.608519 0.563677 -0.382070 -2.931437 0.639693 -0.162398 -0.671315 -0.194198 -1.848554 -0.502795 0.366340
unit -0.890021 0.408905 -0.247066 -0.220416 -1.660192 -0.465952 0.197600 -0.170572 0.738656 0.923912 0.904883 0.802678 1.372277 0.025691 0.970823 -0.409750 -0.273720 -0.144683 0.426375 -0.260386 -0.114568 0.429047 1.826452 0.527209 1.408574 1.136464 -1.990707 -0.448919 0.398472 0.619826 1.141215 0.875438 -0.676766 0.282349 -1.580279 0.914177 0.749466 1.662428 0.208092 0.698826 -1.598997 1.787492 -1.136876 -1.092476 -0.241773 0.396315 0.666415 0.090483 -0.935316 1.052187 -0.225448 0.217027 -0.683015 0.510305 -1.348110 -0.349260 0.121491 -0.874791 1.644045 1.312994 -1.814901 -0.623324 -1.149559 -0.103193 -1.005507 -0.434978 -1.504891 -2.107842 -3.022009 1.016348 0.027450 0.467855 0.547635 -0.856196 -0.709628 -0.734402 -0.253044 0.938881 -0.760925 -0.476066 -1.526943 0.588845 2.397938 1.090626 -0.037882 -0.441222 0.751536 0.028367 0.211754 0.796714 0.943414 0.125476 0.634060 0.881169 -1.233817 -0.846500 -0.993863 -0.979175 1.145523 1.283588
down 1.394603 -0.975349 -0.071489 0.837211 1.819873 1.134593 -0.754771 -0.912750 -1.557445 1.940167 1.502716 1.358065 -1.070516 -0.141742 -1.257698 0.853819 -0.660668 -0.044621 1.314434 -0.660140 0.434316 -0.783444 0.996919 1.362793 -0.181809 -0.625808 0.292571 -1.368714 1.362608 -0.009321 0.586282 -0.550806 0.708217 0.061304 -0.009556 -0.017163 -0.061471 0.580755 0.791113 0.433820 -0.516106 -0.023432 0.556100 -0.846422 -0.628682 -0.673538 -0.707479 -1.073542 2.253498 -1.090008 1.319962 -0.782323 -1.418767 0.127001 1.571561 1.391854 -0.232230 -0.713254 -0.140796 -1.420526 1.879675 -1.286174 -1.630044 -1.216661 -0.257101 0.866083 0.234339 -0.346795 -0.784326 -0.722091 -1.160503 -0.624556 -2.465961 0.722440 -0.846716 -0.016320 -1.447741 -1.758986 1.188453 -0.174538 0.529899 -2.245866 0.916662 0.398304 -0.514201 0.928036 1.769182 -0.645435 0.501613 -1.016110 0.409875 -0.405278 -1.505637 0.051308 -0.043467 -1.196211 1.000727 0.738668 -0.718093 0.701888
assets -0.823733 0.590103 0.432179 0.441584 -1.398631 0.209324 0.302953 -2.782389 2.001755 -0.703758 1.215842 0.027232 0.562330 0.436679 -2.020629 0.408912 0.461258 -1.322991 1.232474 0.391324 1.080894 -0.449187 1.395482 1.040215 1.494094 1.431409 -0.967049 -1.519600 0.531778 0.443607 1.663289 1.287714 -0.006842 -0.414866 -2.017258 -0.126773 -0.975445 -1.460686 -0.184695 -0.334646 -1.052428 0.086207 -0.677967 0.084170 -1.059783 1.226672 0.466729 1.650034 -1.011569 1.101833 -1.028152 0.484946 -1.762946 -1.385237 -0.339075 -0.527132 1.338018 -1.234088 1.244682 1.643106 -1.209724 -2.375942 -1.111258 -0.349253 1.233456 1.398194 -0.511367 -1.946319 -2.159815 -0.080453 1.455964 -0.091413 -0.785595 0.369620 -1.587236 0.842276 0.206349 1.681566 -1.236196 -0.420375 -0.062609 -0.369398 2.154140 -0.776420 0.873487 1.574714 -0.127805 1.694144 0.674281 1.221716 0.598309 -0.245384 -0.094141 1.960304 0.988666 0.277559 -1.250650 -0.111143 -0.049953 -0.112983
out 0.676550 -0.095578 -1.060523 -0.330438 0.275631 1.100655 0.675782 -0.295209 -0.265959 -0.204033 0.271046 1.597949 -1.224930 -0.954560 -0.907896 1.154464 0.820161 -0.282570 1.656475 0.530806 -0.524348 -0.326503 -0.305938 0.075433 -0.002101 -0.378079 0.063973 -0.240883 1.820802 0.867135 0.410135 -1.426049 -0.079873 1.065094 -1.297784 -0.791224 0.228386 0.451240 0.554243 -0.098400 0.064256 -1.329056 0.979206 -0.962628 -0.319813 -0.672985 -1.391953 -0.683511 1.508312 -0.495987 1.266469 0.278206 0.097431 -0.342773 0.658052 -0.682513 -0.605354 -0.573594 -1.581823 -0.562740 0.599248 -1.602208 -1.065414 0.446941 -0.127498 -0.104787 0.259777 0.060309 0.334598 0.755848 -0.596555 1.490538 0.992535 0.433999 -0.408799 -1.001546 -1.675359 -0.905876 -0.101805 -0.490608 0.363290 -0.580886 -0.205824 -0.234939 -0.154147 0.607406 0.438171 -0.456218 0.142106 -0.412117 -1.390048 -0.017823 -0.479046 1.352313 -0.476197 -0.029879 -0.850423 1.367640 0.138655 0.055336
his 0.681694 -0.772749 -0.935798 -0.362537 0.960587 0.032045 -0.184025 1.156772 -1.038686 0.105464 0.818098 0.960612 -1.443405 0.334969 -3.354882 -0.291564 1.075052 0.661077 0.128438 -1.858403 -2.366843 1.172575 0.993865 -1.797605 0.643471 -0.264749 -0.385276 1.350832 -0.930935 0.314946 -0.911005 -0.780619 -0.995048 0.243121 0.484280 -0.191776 0.391550 0.351457 1.155464 -1.680888 -1.571866 -0.769177 1.080275 -0.647595 0.275681 0.666675 -1.635777 -1.299583 0.029409 0.471909 -0.461526 0.746614 2.657790 -0.679243 0.072744 -0.891833 -2.258634 -1.047569 -0.449575 -0.260294 -0.132951 -0.654818 1.009279 -0.215496 0.445254 1.169575 0.950141 1.307609 -0.650230 -0.089108 0.193166 -1.038046 1.475780 0.900665 2.159791 0.278365 -1.420638 -0.301711 -1.072180 -0.179586 0.430880 1.305549 -1.911897 0.087705 -0.064366 -0.566151 -0.132356 0.325443 0.504242 -0.413158 -1.745362 -0.227487 -1.034132 0.255612 -0.404456 0.789834 -1.016669 -0.113071 -0.007812 0.258191
period 0.595848 -1.713960 -1.426111 3.030897 0.233688 0.013313 -0.317494 0.171808 -1.729455 -1.469967 -0.140849 1.568009 -0.741534 -1.651637 0.854426 -1.979489 -0.757245 0.064125 0.367891 -0.864888 1.639102 -1.801546 0.341967 -0.159185 -0.704426 -0.111475 0.021112 -0.959398 -0.649417 1.447986 -0.395935 -1.015637 -0.000375 0.136481 -2.263410 -0.704632 -0.585755 -0.433730 0.930119 -1.051866 -1.114487 -0.761591 0.942945 -1.315625 0.340502 -0.060653 -0.689840 -1.532765 1.058176 -0.386052 -0.718960 0.885685 -1.558504 1.137913 0.144338 2.030102 0.751703 0.186454 1.053489 -0.968511 -0.571127 0.927580 1.667224 1.791759 -1.264008 0.810916 -1.762194 0.923503 -0.018895 0.356386 0.629355 -1.790703 -0.466209 0.055929 -1.096124 -0.625012 -1.147039 -1.006504 1.298018 0.166391 2.011299 -1.759156 -0.740914 -0.019146 1.845050 1.011694 -1.636105 0.933373 -0.159914 0.043303 0.622442 -0.315012 -0.223053 0.441045 -0.595291 0.268352 -1.390625 0.493449 -0.318606 0.223302
plan -1.620890 -0.614928 -0.628868 -0.359399 -0.557623 -1.304193 0.577879 0.053409 0.051945 -0.888924 0.129774 0.015048 -0.328852 -1.527730 -0.802167 1.369284 0.133673 0.327197 0.801176 0.273364 -1.309039 -0.400736 -0.931919 1.101120 -1.339720 0.619245 -0.254651 0.297742 0.386882 0.514368 0.232905 -0.505543 -0.935326 1.487190 -0.966764 0.478364 2.358660 0.846702 0.757885 -0.574840 -0.439994 -1.175247 0.470203 -1.520745 -0.847113 0.001903 -1.052809 -0.563222 -0.154725 0.241681 0.664710 0.084543 -0.044111 0.026940 -1.029228 -0.673999 -1.735505 -0.548334 -0.906469 0.555292 -0.491806 0.458115 0.188273 -0.343880 -0.019321 1.474410 -0.705633 -0.445696 -0.599103 0.368963 0.194794 0.560654 1.034472 -0.738551 0.151715 0.769158 -0.745998 -1.391176 -1.088714 -0.771022 1.428234 1.407394 0.640462 0.186336 -0.439563 -0.011441 -1.147516 -0.714920 1.133216 0.068671 -0.481805 -0.257656 -0.980426 1.622434 -0.477307 0.431722 -1.917255 0.814088 0.101335 0.108424
report -1.528320 -0.502037 -1.163273 0.876001 -1.213268 1.059413 -0.876538 1.309504 0.049984 -0.154381 2.078319 -0.186593 -0.443924 -0.344280 -0.671817 -0.066831 -1.169598 2.216675 -1.123135 -1.068600 -0.633030 1.263550 -0.090297 -1.296575 -1.771670 1.289804 -1.194199 0.708489 -1.620491 1.001423 0.685088 1.033640 0.203883 -1.211138 0.013027 -1.333593 0.205155 0.761767 0.414468 -1.271657 -0.869498 1.004018 -0.152896 -1.492999 -0.027894 -0.619443 0.161922 -0.394136 -1.288912 0.730595 1.765628 0.211531 0.155835 1.560413 0.119149 0.609331 -0.304404 -0.578589 1.416823 0.409027 -2.405038 1.342067 0.274433 0.432128 -1.818581 -0.005128 1.365160 -0.962711 -1.075830 0.499250 -0.194635 -1.651132 0.044106 -0.532101 0.387854 1.170285 -1.226467 -1.540208 0.021723 -0.033719 -0.281138 -0.639115 -0.931446 -0.153927 0.306681 0.065516 -0.750611 -1.532153 1.090860 1.595584 0.612758 -1.837599 -2.446092 0.247600 -1.445722 0.533425 -1.415796 0.133748 -0.695743 -0.400851
cut -0.461916 -0.956559 -1.021886 0.863810 -0.563100 0.035944 0.325824 0.288128 0.653286 1.178188 1.437298 0.671437 1.442445 0.506774 -0.088801 0.352712 0.128406 0.480800 -0.082149 0.912223 -0.377839 0.456878 0.053308 -0.763046 -0.016989 1.146791 -0.441822 -0.120741 0.533058 1.422743 1.018890 -0.653438 0.954971 -0.656301 0.550951 0.210714 0.048839 0.669429 -0.377682 -0.333720 1.438616 0.112662 -0.941108 -2.248684 1.022762 -0.370783 1.676723 -0.842714 0.302238 -1.910866 2.020910 -1.497148 -1.300086 1.050432 0.168189 0.725401 0.197133 -2.241273 -1.925518 -0.617360 0.136016 -0.666404 -1.789969 0.748593 -0.365106 0.457207 0.587160 -2.132710 -1.478551 1.517259 0.010363 1.322022 -1.044789 0.162586 0.678247 0.062504 -2.039060 -1.683372 0.623909 -0.470740 1.160803 -0.108325 0.043063 -0.366294 -0.336780 0.037528 -0.035571 -0.923594 1.849914 -0.553828 -0.806674 0.669430 -0.738421 0.621579 0.903682 0.075402 -0.494685 1.264316 -1.879428 -0.580295
sell -0.438195 0.747647 -2.203087 1.125790 -0.343176 1.149637 0.145332 0.176540 0.095082 0.697642 0.800958 1.919526 1.112857 0.107828 -0.816808 1.958943 -0.158634 0.290518 -0.556199 -0.971913 2.704263 0.830068 0.006885 0.451369 3.108588 1.694127 -0.896543 -1.518799 0.459152 0.714308 1.904681 -0.550695 0.828421 0.002594 -0.456372 1.252853 -0.027759 1.115240 -0.307153 -0.936889 0.108370 -1.061746 -1.878068 -0.642022 -1.074918 0.586945 0.653518 1.644735 -0.492277 -0.683688 0.220183 -0.739067 0.478692 0.833905 -2.043577 -2.954772 -0.012070 -0.844834 -1.265893 2.322741 1.510140 -0.896525 0.554289 0.325586 -1.199119 0.476690 -0.619518 -2.514590 -0.951144 2.545053 1.084762 1.019121 -0.012595 -0.404596 0.598128 -0.522653 -1.026609 0.651078 -1.191092 -1.700622 -0.262860 2.780580 0.692643 0.340160 -0.356715 1.677702 0.889610 -1.031401 1.076363 -1.074785 1.789935 1.392417 -0.119843 0.515548 0.449890 -2.099540 -3.001231 0.489805 -0.519099 -0.254224
lower -1.577591 -2.084074 0.425062 0.022944 -0.028763 1.237046 0.369638 -0.259933 -0.658504 -0.063829 0.947111 1.331454 0.688799 -0.081260 0.625299 0.649392 0.344871 -1.158924 0.622662 0.481712 -0.582785 1.690913 1.251779 -2.384234 -0.057801 0.801895 1.033442 -0.137930 -1.415882 0.289644 -0.805968 -1.236015 0.019651 -0.719380 -1.445507 -1.305593 -0.113540 0.244910 -0.051599 -1.127320 -0.685268 0.983414 -0.895164 -1.230605 0.995725 1.027487 0.103812 -0.011521 1.784267 -0.145595 1.166577 -0.294362 -0.311346 1.666800 0.427268 0.761506 1.350371 -2.312803 0.211993 -1.801837 -0.050386 -2.672229 -1.643521 -0.589625 -0.240126 1.227033 1.115243 -2.051337 -2.633628 0.111514 -1.302835 0.252983 -1.089603 0.836389 0.713147 -2.161161 -1.049185 -2.691551 -0.460057 0.828668 1.286463 -0.519537 -0.338494 0.683500 0.359455 -0.293647 -0.105063 -0.391115 0.282504 -1.203222 1.034057 0.536045 -0.117172 0.134951 1.362904 -1.101691 0.950574 -0.590037 -1.129889 0.048842
trading 1.501279 -0.027947 -0.152931 1.361333 0.217747 1.589078 0.448753 -0.449237 0.136083 0.023558 2.083582 -1.088049 -1.074674 0.410830 0.575671 0.465491 0.870020 -0.061312 0.929276 0.564270 -0.003902 0.927823 1.655259 -0.150361 1.092081 -1.077098 -0.364126 -0.972105 -0.723628 0.028962 -1.932116 -1.255881 0.783104 -1.046040 -0.831389 0.497533 -1.209872 -0.202899 0.263062 -0.439451 0.162450 -0.116863 0.499225 0.269254 0.892440 0.104084 -0.822937 -1.041936 0.068129 -2.013456 -0.907270 0.231081 -0.856230 0.140191 -0.564079 0.605107 -0.399785 0.006854 -0.892449 -0.586044 0.680356 -0.261527 -0.148093 -1.521951 0.480781 0.070182 0.687871 0.862616 -0.620879 1.313232 0.269984 0.394184 0.730391 0.623803 0.591394 1.130577 -0.765207 -0.454709 -0.121018 -0.229682 -1.075168 -0.901517 -0.593719 -0.171862 1.201785 -0.795390 1.882093 -0.278841 -0.262486 -0.794088 0.083237 2.012648 -0.177903 0.322170 -0.397687 -0.954474 -0.308171 0.187708 0.161430 -1.949291
economic -1.536517 -1.794626 -0.157130 0.740373 -1.008333 0.113821 1.335576 0.689469 -0.523462 -0.739568 0.873802 0.719820 -0.951306 -0.823954 -0.740112 1.521797 1.531731 -0.661812 0.182287 0.613873 -0.451311 1.017107 -0.668023 -2.511779 -1.239499 -0.481510 1.636202 1.109625 1.108524 0.829013 -1.027889 0.947556 0.681752 -0.772703 -0.579033 -1.050401 -0.009010 -0.036990 -0.627876 -2.106539 -1.117168 -0.675746 0.491278 -1.338786 1.214464 -0.439696 0.189970 -0.177731 -1.815490 -0.444850 1.103573 1.076138 -0.234843 1.335318 -1.327641 -0.082579 -0.219837 0.014729 -2.039992 -2.907975 -0.138547 0.083480 2.128197 -0.002298 1.187498 0.241839 -0.298225 -0.430778 0.448871 0.690266 -1.101314 2.019603 0.995764 1.227497 -1.851771 -0.959604 -1.339102 -1.552761 -0.399045 -0.863934 1.168420 0.752452 -2.015272 -1.431691 0.907947 -2.700113 -0.466555 -0.560498 1.309326 -0.260249 -2.008092 -0.484032 -1.747574 0.005399 -0.249888 0.963985 -0.847430 -0.592337 -0.123272 -1.699365
income -0.837736 -1.075331 -0.457657 1.197125 -0.385162 0.443138 0.024343 1.237233 1.469635 -0.986273 1.680916 -0.141821 -0.676780 -1.142886 -3.814390 -1.476182 0.133436 -0.445082 0.746637 0.905106 -0.574758 -0.460355 0.364018 0.663172 0.280962 1.000106 -0.198943 -0.764423 0.271724 -0.158063 1.502938 1.182188 0.522745 -0.345695 -1.679255 -0.927361 0.630836 0.648896 0.583223 -1.301068 0.392870 -0.240380 -1.455234 -3.271192 -0.167418 0.649627 0.236673 1.891458 -1.107126 -0.069800 -0.527997 0.055533 -1.444727 -0.070609 -0.881686 1.754957 1.402510 -0.036512 2.292418 0.981997 -0.295267 0.040278 -0.480864 -0.206380 1.759254 1.531229 -0.408979 -1.770793 -2.110572 -0.234788 0.474052 -0.287763 -2.157863 0.902890 -2.496917 -0.155310 -0.059988 -0.357110 -0.921670 1.665607 1.209130 -0.476539 1.171321 -0.905183 0.253522 -1.136230 0.309093 0.125224 0.024063 3.579743 1.264823 -0.951320 -1.343196 2.636314 1.987877 1.717063 1.583419 -0.260540 -0.852157 -0.316490
day 0.743703 0.892353 -1.549232 1.491539 2.311600 -0.244799 0.597240 -0.008063 -1.392493 0.022287 3.036367 -0.389547 -0.888984 -0.766325 1.817695 0.170666 -2.008579 -1.534842 -0.285301 -0.252196 -0.863628 0.512878 0.551776 0.933977 -0.204942 -0.761462 -0.178445 -1.804517 0.681968 0.055721 1.752854 -0.255785 -1.934072 -0.187013 -0.834621 -0.386273 -0.159361 -0.056410 0.642391 0.458069 -2.011871 -0.870023 1.756651 -1.151274 -0.160775 -0.405395 -0.744737 -1.692468 1.618148 -0.496991 -1.076746 -1.231248 -2.979386 0.288492 1.117353 1.281811 -2.121248 1.050157 -1.285283 0.617527 -0.393627 -0.052846 0.901802 -0.857278 -1.377816 -0.344631 -0.808930 1.405877 0.497807 0.498014 1.381812 -0.359958 0.125469 -0.568585 0.943700 1.006096 -1.342339 -1.694976 2.310877 0.724074 -1.334168 -2.799680 0.172780 0.615258 1.928835 1.997548 0.607020 0.493473 0.073684 -0.208564 -0.060048 1.853035 0.371741 1.198027 0.844030 -1.160519 0.723375 0.050878 0.658475 -1.125440
eight 0.134179 -0.758747 0.317787 1.480078 0.148374 -1.275126 -0.750100 0.579637 -0.222268 -0.634974 -1.138073 0.113055 -1.451969 -0.690527 -0.788590 -0.849386 -0.084237 -1.077846 0.549002 -0.444021 -0.805065 -0.057119 0.937488 0.725001 0.754928 -0.303419 -1.006386 -1.977538 -1.079554 1.356175 -0.930020 -0.647055 0.282521 -3.065497 1.102577 -0.728702 -0.824482 1.524382 -1.054335 0.593603 -0.569908 -1.856874 0.780179 -1.917969 -1.160246 0.802985 -0.988978 0.095027 0.185240 1.187165 -1.399451 0.155355 -0.227341 1.702835 0.331481 1.786615 -0.663029 -0.937327 -1.398279 -0.745331 0.504722 -1.108972 0.001753 -1.298492 -1.125390 1.343422 -1.164332 -0.057839 -0.055805 1.127533 -0.425743 0.647829 -0.149369 0.954777 0.020734 -0.012120 -0.042333 0.254728 0.233874 0.148393 -0.305426 -0.453994 0.059711 -0.462145 0.584223 -0.958931 -0.746518 -0.625938 -0.369880 -0.408598 1.639341 1.283451 -1.151735 -0.171589 -0.122640 -0.128618 0.165633 -0.626622 0.209966 -1.011196
sugar 0.629073 -1.092891 -3.150265 0.448661 0.021166 0.476855 0.232201 0.524022 -2.190059 -2.231994 1.250777 0.330798 -0.282104 -1.936857 2.125126 1.263451 -1.251098 -0.264948 1.341914 -0.866543 0.265316 0.612148 -1.267901 -2.054162 -1.200346 -2.271789 0.609208 0.351658 1.118885 0.725670 1.523070 -0.923981 -0.727381 2.123693 0.581934 0.912042 -1.196200 0.241854 0.318401 0.266820 -1.189106 -0.454476 0.578164 -0.191605 -0.486859 1.290881 -0.704616 0.374552 -0.852347 -1.713808 0.188913 0.991614 -0.917662 0.027679 1.000265 1.092491 -0.260236 -0.029777 -0.945108 -0.129674 0.368665 -0.993967 -1.502129 0.337270 -3.965271 1.188061 -2.184175 -0.193058 0.300892 0.020157 -1.395365 -0.366322 -1.353261 -0.363480 0.837112 -0.615538 -0.485895 0.142247 1.100468 -0.177905 -1.971880 0.119424 0.029675 0.385015 1.331668 -0.363848 1.977097 1.094002 0.654363 -1.436933 -0.834316 1.457866 -0.748394 0.665599 0.547151 -0.412658 -0.150353 1.257994 0.268848 -0.470533
credit 0.395369 0.198746 0.184839 1.823403 0.383553 -0.339936 0.654157 -0.212341 0.345592 -1.621514 0.582457 0.079097 -0.875430 -0.464878 -1.111937 -0.240899 1.087296 -0.536146 0.890769 3.203745 -0.167034 -1.219141 0.219959 1.109828 0.068231 0.040205 0.630105 -1.050529 0.721808 -0.269671 1.595886 -0.664525 -1.103488 0.605805 0.139976 1.287672 0.106954 -0.536110 0.512683 -0.611197 -0.358631 0.628335 0.314006 -1.820454 0.799249 -1.358435 0.390300 1.679983 -1.978384 -1.818550 -0.682446 1.253773 -0.238255 0.637488 -0.034928 0.508140 -0.408865 -1.328337 -0.074769 -1.713042 0.596538 0.266967 -0.164220 -1.560110 0.580499 0.074879 0.042976 0.456560 -0.317257 0.288698 1.106242 0.148824 -0.034143 -0.074823 -2.034071 0.551942 1.034409 -0.001696 -1.011643 0.163164 0.369902 1.551483 1.316567 0.337304 -1.299580 0.344628 -0.271709 0.404471 0.645794 -0.313447 -0.694173 -1.080513 -0.280066 -0.148554 1.535707 1.128112 -1.035535 0.241475 -1.061543 0.149192
acquire 0.601174 1.284610 -0.561597 -0.389822 -0.328238 0.652428 -0.057741 0.147749 -0.087987 1.247043 0.965896 2.110589 0.575159 -0.686282 -1.575153 1.636023 1.767371 0.534921 -0.446200 -0.462818 2.053185 0.290319 -0.452980 0.141703 3.647359 1.675515 -1.170031 -1.053615 -0.715540 0.678071 1.521743 -1.472893 -0.283622 -0.627002 -0.253078 1.529904 1.250268 1.864931 0.105108 0.260639 0.003161 -0.514654 -2.129756 -0.427432 -1.383330 0.678671 -0.508859 0.400916 -0.012760 -0.249816 -0.122676 -1.387936 0.242859 -1.592341 -2.120003 -2.385174 -0.544288 -1.977870 0.774055 1.798487 1.291272 -0.634044 0.664503 -0.972005 -0.775459 0.062097 -0.853144 -1.312907 -1.949769 2.539977 1.937007 1.321616 0.652242 -1.133539 1.310619 1.471029 0.168610 0.956978 -1.035098 -1.813966 0.103713 1.378968 1.494280 -0.275658 -0.801382 1.173317 0.255512 -0.007179 -0.183938 -0.256111 2.194244 1.247524 1.075923 -0.581759 -0.725610 -0.995563 -2.686286 0.590115 0.503889 -0.041036
term 0.038012 -0.701129 0.182616 3.525609 0.378034 -0.406863 2.171851 -1.253231 0.939999 0.513507 1.421826 -0.714177 -0.959142 -0.969834 -1.132443 -0.356482 -1.184435 -0.754346 0.480578 1.637728 1.451877 -0.447511 0.993774 -1.154702 0.516028 0.608742 -0.056020 -0.971116 -0.549987 1.290223 -1.047905 0.352147 -0.816947 -0.408324 -0.152496 -0.906205 0.287686 -0.621583 -0.646943 -2.348276 -1.602966 2.922702 -0.200177 -1.011387 1.278749 2.216043 -0.091933 3.419430 -0.482688 -1.169572 2.213856 1.758670 -0.755915 1.377648 -0.034258 -1.322054 0.017237 0.509702 -1.545654 -2.458245 2.610519 -1.074651 0.861114 -1.145224 2.185735 0.404844 0.421743 1.140835 -1.686645 0.715929 -0.385257 0.013877 0.195589 -0.775983 -2.331780 -1.017110 1.515056 -1.041970 -1.081917 -0.009368 2.055794 -0.311877 -0.277168 1.459425 -1.008972 0.420566 1.078301 0.432377 1.629509 0.237062 0.575900 0.235127 -1.161228 2.272726 1.268026 -0.307054 -3.228455 -1.532891 1.351846 -0.259965
capital 0.274881 -0.199862 0.725973 2.130023 0.496616 -0.166444 1.105105 0.337777 1.755950 -0.795203 0.685001 -0.207100 -0.181831 0.588268 -2.178502 -0.703916 -0.316346 -0.241452 1.751995 2.507469 0.309051 -0.426807 0.607520 0.299456 1.214198 -0.647946 -0.540775 -0.759531 -0.022814 0.678046 -0.728540 -0.503337 1.015633 -0.266435 -0.482133 0.588303 0.831940 1.035937 -0.834842 -0.723494 0.055437 -0.516291 -0.667754 -0.757283 0.439244 0.257418 0.503885 0.410353 -1.030181 -0.938894 -0.568570 0.972449 0.508905 -0.279394 -0.950468 0.083681 0.450267 -1.251618 -0.911624 0.411361 -0.183443 -0.789662 0.108101 -1.547535 -0.597544 1.852143 -0.731870 -1.211643 -2.023634 0.313217 -0.414826 -0.560861 -0.379859 1.364275 -2.337042 0.353092 1.331605 -1.282011 -1.419596 0.315129 1.205114 0.851278 0.568552 0.263362 0.743614 -0.287022 0.864265 1.135141 0.505867 1.001868 -0.004222 -0.061586 -0.211679 1.037897 -0.738504 0.798047 -0.858923 0.813980 0.133475 -0.953652
set 0.215454 -0.265220 -2.211116 0.767363 -0.783190 -0.219089 0.252085 0.499715 -0.315099 -0.379670 -0.448261 -0.904356 -0.858341 -0.679581 0.953575 -0.192127 0.327398 0.664012 1.907598 -0.597576 -1.635841 1.218065 -0.586400 0.223422 -0.521635 -0.603404 -1.254484 -1.724782 0.700504 1.177649 -0.941176 -1.458195 1.417476 1.011498 -0.658468 0.473697 -0.407155 1.366008 -0.046343 -0.114810 1.395746 0.129023 0.996115 -2.297482 0.381125 0.149252 -0.910581 -0.280258 0.311746 -1.118565 0.374506 0.659747 -0.961846 1.048606 0.730050 1.672586 -0.885705 0.630795 -1.308419 -1.568944 0.082284 -0.070154 -1.744123 -0.210361 -1.972826 0.913818 -0.655461 -0.699467 -1.556340 1.555208 0.886349 1.187241 -0.650910 -0.289385 0.540130 0.570265 -1.756672 -1.539108 0.276735 -0.622483 0.244749 1.524972 0.832541 -0.789726 0.710131 -0.829342 -1.116268 0.414805 0.082086 -0.001877 -0.027542 1.919260 -0.328059 -0.810846 -0.241575 -0.684177 -1.435986 0.091811 -0.657409 -1.085948
can -0.032484 -1.699705 1.297759 1.601392 0.679989 0.245803 -0.911241 -0.134754 0.211466 1.240166 1.197181 0.283959 0.434691 1.700029 0.879486 1.129848 0.023016 -2.190902 1.578985 0.845557 -0.036534 1.393958 -0.763247 0.273977 -0.333306 -1.009282 0.314324 1.017039 0.623207 0.173259 -0.906134 -1.239999 0.210785 0.610917 -1.020453 -0.638101 2.107892 0.509843 1.076564 0.441868 -0.431798 -1.516591 1.208156 1.697981 1.086220 1.703879 -0.192522 -0.256103 -0.095461 -0.281906 0.922432 -0.205659 0.363852 -0.100772 0.948870 -1.348142 -0.000186 0.246264 -1.484064 0.943234 0.011267 -0.058396 -1.746584 -1.685490 0.041261 2.545324 -0.383114 -1.484566 3.196771 -0.056296 -1.912205 2.197472 1.427805 0.323228 1.220353 -2.402200 -0.050828 -1.873675 1.199276 0.214678 2.040141 1.327904 0.761269 0.165402 -1.053715 0.972301 0.258635 0.029434 0.628102 0.150975 -1.207191 0.275780 -1.130172 1.525433 0.567624 -0.649920 -0.926590 1.279905 2.483868 -2.770680
part -1.862508 -0.406754 -0.672748 0.733994 -0.293313 -0.368223 1.260879 -0.893870 1.507464 -0.439461 1.413538 2.187020 -0.980840 -0.945352 -0.357532 -0.309632 0.064786 -0.701558 2.506712 -0.090388 -0.610508 0.284036 0.266797 1.136679 -0.097454 1.031099 -0.041836 -0.617325 0.940554 0.309188 0.538601 -0.448044 -0.598034 0.690048 -1.634674 -0.020257 -1.193152 -1.468454 -0.090698 -0.196327 -0.445159 0.207012 0.302478 -2.092333 -0.962759 -0.538840 -1.222572 0.884516 -1.297014 0.177953 0.218006 0.188482 -0.178606 1.024162 -1.220782 -0.937897 -0.994816 -0.016536 -0.166404 1.570385 -0.883575 -0.116292 -0.400943 0.839996 0.019273 0.657179 -0.819734 -1.124741 -0.946542 -0.097738 1.364892 1.267738 -0.047561 -1.380562 -0.071358 -1.205763 -1.121828 -0.030149 -1.115881 -0.511388 1.679686 0.418402 -0.221043 -0.150973 0.138895 1.021553 -0.517293 0.666019 -0.734189 -0.797870 -0.922082 -1.028233 -1.693039 2.385799 -0.594662 -1.077202 -1.831581 -1.125245 1.205993 0.813390
same -0.329206 -0.935144 0.811095 2.402313 0.293606 -0.520790 -1.093389 -0.372890 -1.702499 -0.588362 -0.904006 -0.288424 0.040058 -1.105308 -0.059712 -0.514590 -0.405441 0.297606 -0.402264 -0.154662 0.733655 -0.361312 0.839589 1.532059 -1.027128 -0.492251 1.292870 -1.439460 -1.065302 1.226413 -2.333963 -0.541227 -0.915779 -0.524579 -0.576405 -0.649112 -0.759400 -0.719070 -0.570811 -0.461970 -0.711258 0.838555 0.829278 -0.648801 0.373011 0.822529 -1.030429 0.130678 0.892827 1.019483 -1.586193 -1.563613 -1.406285 1.190103 0.586635 1.611564 -0.577180 -2.329433 0.182813 -0.488042 -0.598092 -0.921876 0.135232 0.272850 -0.909149 0.976760 -0.554387 1.505320 -0.919877 -0.085599 -1.139925 -0.541141 -3.283615 0.144952 -1.564854 -0.721233 -1.473733 -1.419405 -0.270371 -0.566072 2.726899 -1.253629 1.189300 -0.861872 1.670339 -0.925338 -0.136931 -0.215927 -1.079277 -0.460901 0.255717 1.398613 -0.512971 0.321387 -0.177619 -1.829846 -1.339518 0.288833 0.886266 -0.319191
purchase -0.686212 -0.011711 0.705126 0.931600 -0.909691 -0.181397 -0.311078 0.207582 0.717722 -0.694176 0.666159 1.252413 -0.660342 -0.706686 -0.282160 0.001476 -0.438274 1.144866 0.387098 0.738584 -0.249567 -0.057847 -0.135972 1.209755 1.619737 2.244382 -0.562233 -0.370622 -1.091624 0.383894 0.753122 -0.765039 -0.874361 0.912034 0.707066 0.975843 0.631581 1.065964 0.017809 0.748522 -0.955133 0.452598 -1.023605 -0.919433 -1.513192 0.060640 -1.055626 -0.326172 0.392621 0.802377 -1.379395 -0.351383 -0.465084 0.514839 -1.347986 -1.138758 -1.380306 -1.509629 0.402489 2.475579 -0.421439 -0.412642 -0.311156 -0.361127 -1.689609 0.676542 -0.057361 -0.836097 -1.877702 1.670091 1.493224 0.260592 -0.235763 -1.243213 0.239713 1.372853 -0.581350 0.000267 -0.160339 -0.840551 0.770657 -0.061520 2.816330 0.799280 0.471011 0.808937 0.969333 0.137340 -0.405176 -0.062380 1.198533 1.105777 -0.233395 0.594611 -1.366847 -1.605217 -1.935189 0.702916 0.622806 0.224513
crude -0.048848 0.709444 -0.511452 0.442140 0.460359 -1.463610 -0.015232 0.719308 1.070657 -0.612954 2.028959 0.202376 -1.024656 -0.089855 0.666394 -0.882558 -2.233335 0.893686 -0.381330 -1.364250 -1.068962 1.025669 0.377155 0.227505 0.774964 0.422989 -0.414191 0.024693 -0.968756 0.446243 0.391155 -0.240808 -2.031519 -0.158717 0.246593 -0.113516 -0.514069 0.180716 0.240256 -0.862548 -0.419708 0.226626 -1.149514 1.418796 -0.202856 -0.194686 -0.034581 0.240229 1.025702 0.002020 -1.033297 -0.366833 -0.635518 2.831075 -1.120253 0.410033 -0.115488 0.919307 -0.853559 0.484389 -0.722414 -0.406991 -1.263856 -1.062313 -2.040910 0.863714 -0.523361 -2.947323 0.166080 0.285723 0.211954 1.230651 -0.788997 0.346972 -0.228355 -0.631631 -1.468429 -1.639993 2.210763 -0.519208 -4.152697 0.142126 0.628686 0.043091 0.331670 0.205597 2.129271 0.916009 0.356141 0.627898 1.541056 0.430820 -2.991696 0.649960 -0.557064 -0.555928 1.959675 1.193994 -0.310597 -0.803333
seven 0.761603 -1.242280 0.055102 1.630363 0.330283 -1.413251 -1.001723 0.150584 -0.057627 -0.693571 -1.453881 0.163215 -1.171411 -0.267494 -1.426400 -1.223449 0.222835 -0.951697 0.000122 -0.760402 0.071962 0.083980 1.153066 1.444528 0.926497 -0.273350 -0.634972 -1.894563 -0.749636 1.031008 -0.678183 -0.481654 -0.227388 -3.233985 0.912315 -0.660495 -0.642834 0.806713 -0.858434 0.605949 -0.915705 -2.187342 0.854131 -1.828084 -1.056699 0.607596 -0.931097 0.399735 0.369033 0.338742 -1.523580 0.144260 0.110367 1.782507 0.235989 1.789210 -0.311379 -1.228830 -1.414332 -1.313926 0.429005 -0.913501 -0.227008 -0.757652 -0.767360 0.772273 -0.448131 -0.115330 -0.084006 0.842549 -0.821123 -0.270584 -0.351435 1.031701 -0.453272 -0.590422 -0.188483 0.401698 -0.267521 0.007195 -0.724308 -0.503783 -0.386076 -0.365226 1.140003 -1.542467 -0.419126 -1.311696 0.660206 0.149944 0.952804 0.991818 -0.902338 0.449680 -0.147490 0.206958 0.212725 -0.267861 0.306863 -1.012133
increased -0.913896 -1.814662 0.542350 0.772920 -0.411293 0.342075 -0.613255 -0.076213 0.124485 1.372492 0.311474 0.005384 0.253323 0.034713 -0.211550 0.123135 -0.391742 0.536467 0.153901 0.285870 0.357844 -0.610071 0.203899 0.640078 0.580265 0.544181 -0.536455 -0.588673 -0.413922 -0.360031 0.946788 -0.815477 1.340891 -0.203116 -0.847153 0.273034 0.340328 -0.237794 -0.470088 0.288018 0.014747 0.231548 0.061556 -1.047060 -0.367356 1.027201 0.836947 -0.358163 -0.012768 -0.552397 0.690537 0.190070 -0.416429 1.133851 0.163120 0.625337 -0.038951 -0.581617 -0.013649 -0.705438 -1.021724 -1.445259 -2.613053 -0.984467 -0.103302 0.606831 0.274444 -2.327518 -2.127035 0.548002 -1.435496 -0.597057 -0.764425 1.058307 -0.675848 0.412785 -0.239879 -1.563351 0.109078 -0.214683 0.267704 0.520652 0.717832 -0.209901 0.510116 -0.242816 0.450559 -1.495175 2.276814 -0.503235 0.556786 0.329563 0.016491 0.823426 0.376566 -1.037843 -0.217502 0.275125 -0.841468 -0.295597
president -1.213683 -1.541258 -1.139806 -0.584947 -2.004449 0.424650 -0.274920 0.794769 0.607462 -0.095054 0.074949 1.858414 -1.396642 -1.009914 0.612509 -0.663724 1.193135 1.943031 0.367583 -1.207085 -0.823586 2.841305 -0.813600 -1.055544 -0.239465 0.192222 -0.288813 2.095910 -0.716199 0.244080 -1.114311 1.410024 -2.660751 -0.574764 -0.088044 -0.790286 0.294447 -1.618015 1.228734 0.230608 -2.082755 -0.628274 0.826172 -0.698659 -1.272743 0.030334 -2.511304 1.520478 -1.520002 1.170488 -0.760761 0.624917 0.555707 1.051925 0.152317 -1.633123 0.206225 -0.186029 0.552431 2.392159 -0.039674 0.859536 0.538725 3.214618 -0.527854 -1.176012 1.253130 0.441028 0.714791 -0.105137 0.473679 -1.804723 2.120947 -0.464560 1.218686 1.032777 -1.201186 1.468365 -0.977867 -0.813285 0.992619 1.242776 -0.401285 -0.475166 1.770344 -0.486326 0.421028 -0.568523 0.397051 0.508436 -1.677222 -0.330860 1.234773 1.259637 -0.182780 1.553544 0.530722 -0.428949 1.509579 -0.466198
money 0.295110 -1.412219 0.199364 1.072425 0.981376 1.196425 0.621275 0.141207 -0.608663 -0.354443 3.123299 1.136853 -0.892367 0.172454 0.577256 -0.934231 -0.088236 -1.041954 2.107922 1.547426 2.590293 -0.114709 0.897493 -1.489146 1.329893 -1.155015 -1.083043 0.068806 0.625628 0.629864 0.189762 -0.054271 -0.180750 -0.583577 -0.089687 -0.829381 -1.276935 0.317443 0.270869 -0.744361 -0.447977 2.396472 0.337485 0.479205 2.587680 0.846528 -0.283135 0.218932 -1.398950 -1.813657 2.196611 1.371933 -0.793932 0.569516 0.127247 -0.125337 1.999662 -0.453244 -1.331709 0.111713 1.785428 -1.874047 1.158047 -1.108015 -0.692296 -0.974291 -2.255919 0.450446 -2.423357 0.444873 -0.330604 1.854155 0.173489 0.222962 -1.899996 -0.527601 0.641550 -1.691557 0.518142 -0.170006 0.822195 0.003643 -0.596115 -0.994437 -1.029665 0.829424 0.608567 1.845234 0.252193 -0.197197 -1.248425 0.103671 0.265707 0.669385 0.170594 -0.286675 -1.216641 0.333453 -1.091136 -1.100266
deficit 0.150403 -1.134230 -0.137647 -0.437784 -0.719610 0.058460 1.447966 -0.462954 0.134436 -1.126969 -0.628341 1.381356 -0.968424 -0.598332 -1.165447 -0.341433 -0.106673 -0.177651 0.212492 -0.492542 -1.232031 -0.388800 -0.770712 0.034330 -1.572915 -1.212746 0.519024 -0.894324 2.318933 1.629213 -1.710088 0.213128 1.383287 0.100169 -3.590603 -0.022841 -0.923639 0.358631 -0.597010 0.301086 -2.170027 -0.066070 1.350536 -2.004779 1.622677 -1.046527 0.669128 -1.544127 -1.313835 -0.274233 0.809872 0.888432 -1.191488 0.651399 0.008077 0.940631 0.372334 -2.200793 -1.372347 -1.538578 -0.355450 -0.058916 0.247277 -1.946936 -0.305828 0.736100 -0.697788 -1.252918 -2.135187 -0.445578 1.002087 -0.542679 -1.898857 0.777174 -2.839269 2.170070 0.397863 -0.497329 1.479816 -0.130479 1.218719 -2.080070 0.519308 -1.764004 -1.070863 -1.278953 0.218227 1.734060 1.800581 0.847878 -1.947010 -1.793768 -2.020198 1.264741 1.578598 0.984841 -1.474895 1.714695 -2.419231 0.326455
including -0.916644 0.246936 0.240959 0.188943 -0.007594 0.083024 1.207377 -0.711987 1.592233 1.004580 1.088408 -0.085362 -0.622546 -0.799382 -0.140044 0.808246 1.328993 -1.500129 0.818293 2.201431 -1.784135 -1.644981 0.183871 1.045208 -0.257757 -0.422938 0.469392 -1.144610 0.635070 -0.127136 0.920391 -0.772631 0.048813 -0.799531 0.093134 1.587434 -0.198645 -0.492269 -2.017255 0.155603 -0.141450 -0.076503 0.632311 -0.833975 -0.400783 -0.226761 2.330720 1.285631 -0.259774 0.338430 -0.180446 -0.635064 0.080812 0.738199 0.190171 0.455224 -0.988638 0.077397 0.413264 -0.171669 -1.304235 -0.625802 -1.974759 -0.495707 0.841994 1.155950 0.278793 -0.288149 1.378855 2.169518 0.022452 -0.370112 1.430040 -0.266653 0.574778 0.254461 0.743178 0.288165 -1.121949 1.459087 0.150751 -0.074049 0.700311 -0.237940 2.012111 0.731257 1.035891 -0.046710 0.775742 -1.433728 0.711209 0.386640 0.332307 1.238308 0.248280 -1.028640 -1.169507 0.452747 0.053378 -0.057699
gas -0.113761 -0.022274 1.065162 -0.399819 -0.637332 -0.968759 1.154588 -0.399540 1.687381 0.950088 1.244496 -0.090364 0.691223 0.057089 1.356558 0.269481 -1.371446 0.377357 -0.153545 0.068442 -0.895393 0.724716 0.506322 0.533873 1.344564 0.936246 -1.259784 0.270845 -1.450787 0.075548 2.321515 0.262840 -1.253857 -0.545802 -1.089057 -0.589962 -1.028209 -0.710166 -1.608192 -1.800786 -0.978530 1.607311 -0.702085 1.158949 -1.662778 0.755507 0.290176 1.668426 0.153617 0.568282 -1.350583 -0.414658 -0.363283 0.506871 -0.548712 -0.335474 -0.773183 0.306097 -0.224788 -0.937000 -2.608271 -1.011146 -0.733676 -1.075361 -1.532695 0.374440 0.428063 -2.954204 -0.210663 1.112031 0.199222 1.047490 0.254745 1.202476 -1.353038 -1.447954 -0.843843 -1.611105 0.475175 -0.242044 -3.719575 1.644936 1.283236 0.543353 1.121465 -0.379049 2.144984 1.584518 0.561893 0.263577 0.459690 1.408749 -0.431373 0.610385 -0.341200 -1.123883 1.185377 2.044367 0.403813 -0.354201
continue -0.754126 0.122573 -1.549686 1.167195 -0.193537 0.783718 0.097394 0.352037 0.380538 0.272261 0.444404 1.923301 -0.807033 0.295410 -0.060925 0.915944 -0.697930 0.549751 -0.015749 0.146034 0.116521 1.834069 0.084721 -1.207165 0.166544 0.643252 -2.182856 1.369177 -1.855466 0.796112 -0.668073 0.183393 0.304758 -0.170313 -1.884392 0.103363 0.490297 1.267505 0.724578 -2.218400 -1.125200 0.109692 -0.918383 -0.644055 -0.590758 -0.401698 -0.169309 0.752962 0.107721 1.195902 1.516328 1.020980 1.303036 2.152727 -0.357339 -1.410365 1.252681 -2.204441 -2.125986 -0.464786 -0.125541 0.994952 1.657668 0.305020 -1.102072 1.049520 0.197630 -1.139271 -0.366915 1.934978 0.536131 1.013489 0.063423 -1.105107 0.191543 -1.333199 -1.021963 -0.847979 -0.207299 -0.722779 1.363317 1.081897 0.248189 0.719690 -0.085341 -0.262794 0.008699 0.197382 0.994572 0.829350 -0.136724 1.177004 -1.197168 1.116988 -0.178417 -0.421489 0.033827 0.376405 0.550342 -1.008288
high -0.336404 -0.663869 -0.455272 1.119668 0.525733 0.899407 0.227911 -0.726256 0.014719 -0.261608 0.959331 -0.229529 -0.452441 0.660916 1.486937 0.407488 -0.208404 -1.209834 1.236722 0.739059 -0.566907 0.120319 1.078830 -0.701147 -1.599102 -0.981201 0.640604 0.375880 -0.284524 0.547166 0.230749 -1.099478 -0.647838 -0.428515 -0.737334 -0.420284 -0.750098 -0.366500 0.137702 -1.110932 -0.155760 1.561275 0.042416 -0.043642 1.112529 0.549672 0.495062 0.775722 1.115474 0.031024 1.212955 0.459311 -0.349540 1.423535 1.214819 1.272386 0.274234 0.247751 -0.560495 -1.992966 -0.671629 -1.136715 -1.494666 -0.516140 1.245861 0.854163 -0.003409 -1.128008 -0.447370 0.088480 -0.839076 0.812529 -1.598637 -0.169421 -0.928529 -1.683411 -1.015211 -1.535606 -0.121223 -0.053717 0.292650 0.275380 -0.326290 -0.234138 0.344104 0.130575 0.787659 0.235887 0.205785 -1.031654 -0.153125 0.834423 -0.703211 1.182223 0.330215 -1.353018 0.155525 -0.443834 0.245088 0.203908
