said 0.200898 -0.276306 0.186211 -0.054502 0.313695 0.512647 -0.445902 0.195652 -0.242210 0.311420 -0.036028 0.221989 -0.162600 -0.141755 0.053585 0.303584 0.453058 0.145949 0.105142 -0.200240 -0.357457 0.020032 0.514721 -0.275128 0.240816 -0.091621 0.038900 0.176717 0.190820 0.047279 -0.003576 0.222943 -0.494376 0.159744 0.116975 -0.163967 0.117268 0.067300 0.093370 -0.000750 -0.490649 0.227745 -0.089603 -0.319996 0.463407 -0.016240 -0.074371 -0.068579 -0.099341 -0.174468 -0.187603 0.000301 -0.068737 0.299122 -0.221453 -0.317573 0.215049 0.128995 0.057817 0.299052 -0.150960 -0.026981 0.189171 -0.056299 -0.066224 0.162834 0.143054 -0.159507 0.210518 0.231560 0.098986 0.129599 0.157785 -0.289060 -0.186787 0.126473 -0.029017 0.097726 0.158158 -0.226247 -0.113003 0.189067 -0.375718 -0.173076 -0.086393 0.361187 -0.137066 -0.085432 0.482627 0.133252 -0.032291 -0.219221 -0.175640 -0.040991 -0.260982 0.302457 0.091475 -0.156198 -0.118210 -0.059292
year 0.104113 0.170036 0.299703 -0.153229 0.401338 -0.003442 0.094951 0.194991 -0.228257 0.395161 -0.047214 0.297634 -0.076873 -0.209415 0.005688 0.021854 0.065113 -0.014328 -0.027704 -0.475221 -0.389197 0.070971 0.403088 -0.311090 -0.535121 -0.296176 0.125759 -0.453598 0.487273 0.298219 0.066003 0.372788 -0.142046 -0.065428 -0.162088 -0.344047 0.477078 -0.006442 -0.174171 -0.122009 -0.235225 -0.053046 0.327852 -0.576771 0.325964 -0.059484 -0.058031 -0.280613 -0.240361 -0.212150 -0.265739 -0.069380 -0.355079 0.207173 0.044593 0.176435 0.245409 0.185211 0.066011 -0.304593 -0.225068 -0.320857 0.396962 -0.013125 -0.326110 0.270639 0.122618 0.110956 0.295756 0.025259 -0.179477 -0.388352 -0.070771 -0.525596 -0.552218 -0.036392 -0.060429 -0.079962 -0.076278 -0.324980 0.365528 0.100180 -0.074862 -0.033380 -0.022332 0.165638 0.342460 -0.273416 0.372496 -0.473542 0.445855 0.180867 -0.115663 0.482674 0.301318 -0.181509 0.109083 0.237172 0.169108 -0.040506
be 0.190218 0.074990 0.125628 0.028999 -0.214280 -0.150410 -0.273742 0.038868 0.282379 0.133521 -0.086950 0.233805 0.160402 -0.468243 0.038684 0.557582 0.024160 -0.082905 0.065933 0.438570 -0.072943 0.321543 0.018659 -0.103708 -0.000236 -0.484544 0.360251 0.274255 0.262943 0.249650 -0.350800 0.018198 -0.214179 0.217321 -0.105469 -0.286653 0.268948 0.025308 -0.193862 0.177099 -0.371462 0.076625 -0.072464 -0.356291 0.402720 0.306290 -0.153265 -0.152002 0.018199 0.138209 -0.018674 -0.112642 -0.152148 0.327165 -0.138121 -0.180792 0.103493 -0.679691 0.036127 0.140028 0.019475 0.049714 0.013204 -0.036619 -0.028758 0.415956 0.036536 0.255686 0.702673 0.391234 -0.149804 0.188657 -0.170334 -0.816284 -0.153451 -0.140722 -0.018715 -0.276248 0.126481 -0.142486 0.163790 0.389122 -0.201496 -0.198125 -0.037282 0.338293 -0.207040 -0.003559 0.463824 0.557864 -0.374062 -0.077777 -0.275446 0.118878 -0.719138 0.413954 -0.033642 0.263437 0.248907 -0.434882
billion 0.033449 0.526254 0.355213 -0.248102 0.662973 0.053332 0.316171 0.186661 -0.235290 0.362906 -0.274524 -0.380956 0.025542 -0.035536 -0.050238 0.319135 0.769961 0.162620 0.188172 -0.047580 0.382081 0.286357 0.072965 -0.076134 0.190711 0.008133 0.296861 0.039488 0.390034 0.415153 0.055575 0.152234 -0.254660 0.087357 -0.702586 -0.235868 0.225487 -0.941516 0.078686 -0.119141 -0.336405 -0.152335 -0.211654 -0.473080 -0.271411 0.368438 -0.306471 -0.134016 0.022269 -0.376902 0.284730 0.101875 -0.350555 0.178175 -0.145020 -0.010847 0.374858 -0.058142 0.525554 -0.322137 0.081503 -0.348069 -0.135957 -0.697197 0.010591 0.185043 -0.113513 0.197400 0.728938 -0.233942 0.464863 -0.444869 -0.318757 -0.404220 -0.640590 0.141748 -0.182578 0.350195 -0.007383 -0.210605 -0.486743 -0.467817 0.267559 -0.369762 -0.109451 0.678238 0.587250 0.411635 0.593781 -0.056856 0.182912 0.109067 0.149696 0.773987 0.381957 -0.175439 -0.313384 0.721498 -0.160274 -0.268923
loss -0.105698 0.085371 0.493076 -0.187087 0.904182 -0.327237 0.306109 0.330013 -0.180167 0.372517 0.182529 1.129689 -0.638687 -0.633087 -0.092807 -0.098258 0.110219 -0.056142 0.354231 -0.185225 -0.715271 0.184753 0.633790 0.030156 0.027983 -0.082518 0.083288 0.042212 -0.025975 0.371920 -0.265064 0.044530 -0.216349 0.402634 0.442755 -0.257858 0.706676 -0.685179 0.084582 -0.251541 -0.262772 0.059297 -0.340624 -0.561978 -0.771843 0.140324 0.179519 0.694400 0.170947 -0.350176 -0.662390 0.204240 0.178310 -0.408836 -0.173427 0.196182 0.008044 0.089150 0.110760 -0.424975 0.357142 0.405244 0.585161 0.170079 -0.137264 -0.201966 -0.272616 0.003121 0.902188 -0.791812 -0.290228 -0.370843 -0.089159 -0.389444 -1.153586 -0.103619 0.041171 0.331542 -0.367817 0.350152 0.192849 0.076888 0.447960 -0.512194 0.057746 0.728197 -0.134899 0.383056 0.736085 -0.083680 0.473151 -0.277809 0.410062 0.604460 -0.115999 0.225904 0.117710 -0.308548 0.453072 0.201884
company -0.207630 -0.223010 0.133848 -0.060644 -0.354412 0.087024 0.180127 -0.187336 -0.409622 0.057602 0.091931 -0.077251 0.032520 -0.365709 0.460254 0.117457 0.108448 0.425308 0.047006 -0.025353 -0.414467 0.209375 0.421334 -0.247619 0.083466 -0.129949 0.004832 0.009993 0.593854 -0.094548 -0.074039 -0.036567 -0.647294 0.332667 -0.219449 -0.342061 0.392882 0.220009 -0.193582 -0.154701 -0.279647 0.068572 0.027742 -0.160987 0.044651 0.598182 0.075542 0.116618 -0.202483 0.401324 -0.103356 -0.520029 -0.192290 -0.031455 -0.194103 -0.174340 0.109241 0.317424 0.198928 -0.164431 0.184666 -0.115939 0.314229 -0.417185 -0.116920 -0.172089 0.280766 0.223127 0.111243 0.275969 0.491676 -0.274534 0.403438 -0.429075 -0.299795 -0.159360 0.100263 -0.108457 -0.379556 -0.374498 0.027007 0.030044 -0.065887 -0.362108 0.291112 0.512761 0.355140 -0.046990 0.110578 0.671136 -0.116180 0.098218 -0.267668 0.644211 -0.566005 0.019170 -0.059008 -0.079357 0.201017 0.047989
share 0.113290 -0.082102 0.587529 0.343181 0.311438 -0.395691 0.315534 -0.124969 -0.425698 0.292985 -0.125874 -0.041078 -0.411395 -0.454833 -0.234597 -0.103946 0.172276 -0.151857 -0.528999 -0.142818 -0.128761 0.955066 0.220518 -0.273668 0.499566 -0.084523 0.227951 -0.250398 0.603194 0.132489 0.082532 -0.058308 -0.097055 0.009455 0.185368 -0.570637 0.939677 0.202370 -0.219712 0.062168 -0.083695 0.369736 -0.412922 -0.095168 0.053564 0.193225 0.126861 -0.134388 -0.084197 0.055365 0.293515 0.088016 -0.797347 -0.533018 -0.344032 -0.299898 0.367238 0.212243 0.080240 0.500036 -0.255970 0.422481 -0.006682 -0.239844 -0.348410 0.608588 0.123544 -0.060334 0.059782 0.283790 -0.273036 -0.275357 -0.184743 -0.772860 -0.283505 0.393992 0.359194 -0.069653 -0.457534 -0.604993 0.489164 -0.228052 0.287845 -0.545107 -0.412093 0.482951 0.431886 0.299027 0.255665 0.419701 0.568720 -0.338682 0.167787 0.682964 -0.810403 -0.113467 -0.102770 -0.206810 0.040901 -0.276095
profit -0.349066 0.161029 0.237042 -0.026364 0.565937 -0.584516 0.570247 0.092839 -0.183283 0.830437 0.102670 0.454122 -0.297864 0.217449 0.089600 0.342147 0.260513 -0.625908 0.422213 -0.048933 -0.652121 0.201776 0.719036 -0.013775 -0.125861 -0.043599 0.036474 -0.516212 -0.082434 0.366590 -0.470377 0.623563 -0.339132 0.344588 0.192688 -0.322292 0.427862 -0.882294 -0.163122 -0.407596 -0.219055 -0.159827 -0.657381 -0.732582 -0.400456 -0.294237 -0.068375 0.338492 0.085785 -0.357193 -0.785666 0.513671 -0.124359 -0.016384 0.351501 0.120623 -0.078239 -0.172123 0.232851 -0.650600 0.271876 0.278763 0.453942 0.534542 0.403138 0.017994 0.035047 0.246552 0.836723 -0.921603 -0.154399 -0.397405 0.401530 -0.148684 -0.938088 0.041791 -0.051041 0.377192 -0.414247 0.209065 -0.225111 0.568067 0.340037 -0.820072 0.193778 0.537584 -0.121110 0.533886 0.728408 0.350037 0.659936 -0.304764 -0.177479 0.774059 -0.431479 0.320131 0.168303 -0.006904 0.270338 0.435833
he -0.011107 -0.084037 0.119285 -0.128586 -0.165512 0.184417 0.311380 0.637762 0.433363 -0.054067 0.096076 -0.220602 -0.014619 -0.191146 -0.069565 0.278338 0.379789 0.353078 0.252772 -0.170119 -0.111996 0.333825 0.191694 -0.601665 -0.431404 -0.280806 0.218740 0.143489 -0.038520 0.099750 -0.667533 0.008276 -0.149515 -0.222120 0.289906 -0.107335 0.100348 -0.332633 0.365701 -0.221726 -0.388444 0.386518 0.435336 -0.142158 0.300528 0.169531 -0.132186 -0.009227 -0.588995 0.204568 0.051384 0.450742 0.017206 0.232354 -0.270299 -0.122724 0.168284 0.055957 -0.094706 -0.280220 0.273853 -0.075352 -0.142089 -0.315046 0.143451 0.315319 0.441008 0.085305 0.327858 0.352857 0.118578 -0.352221 0.461475 -0.417037 -0.131177 -0.229459 -0.114216 -0.817914 -0.518443 -0.189631 -0.024443 0.333785 -0.634973 -0.381828 -0.136082 0.030517 0.291131 0.130172 0.311410 0.243305 0.210745 0.432363 -0.027376 0.077022 -0.056135 0.464794 -0.119828 -0.174110 0.252745 0.056106
have -0.225308 0.088395 -0.137064 0.117975 -0.447707 -0.457662 -0.202894 0.187391 0.039015 0.405124 0.206466 0.283361 -0.400596 -0.167616 0.207832 -0.010736 0.268326 -0.159724 0.366495 0.366092 -0.306869 0.259081 0.195009 -0.034554 0.334838 -0.758589 0.353129 0.220405 -0.010944 0.048785 -0.526003 -0.183109 -0.259062 -0.178495 -0.106465 -0.732509 0.384349 0.166250 -0.203982 0.032410 -0.395962 0.043469 0.308124 -0.376512 0.345223 0.102782 0.205681 0.049165 -0.012990 -0.414621 0.119985 -0.040505 0.123341 0.038388 -0.285241 -0.063453 0.174880 0.031268 0.144897 0.221927 0.131056 0.283163 -0.001577 -0.068520 -0.035114 0.362872 0.199860 0.296400 0.262680 0.508779 -0.178443 0.127750 0.568876 -0.331947 0.111517 -0.345619 -0.731344 -0.081063 0.162478 -0.145324 0.424304 0.494244 -0.110610 -0.078960 0.073940 0.000232 0.428395 0.216503 0.453309 0.118662 0.168309 0.215159 -0.585061 0.028082 -0.075821 0.487784 -0.479650 0.351535 -0.097504 -0.048971
stock -0.451593 -0.518631 0.041812 0.299069 0.458740 -0.408356 0.051015 -0.278873 -0.332024 -0.061118 0.101885 0.163097 -0.341246 -0.304362 0.293380 0.160230 0.464741 0.379970 0.218378 -0.385923 0.198083 0.526026 0.017130 -0.411046 0.653487 -0.176602 -0.316274 0.050640 0.180712 0.465180 0.103222 0.085760 -0.345147 -0.205122 0.031677 -0.091044 0.250074 -0.308037 -0.086606 0.093513 0.466887 0.601771 -0.362063 0.155690 0.409056 0.303475 -0.774639 -0.422686 -0.045645 -0.289179 0.239739 -0.292966 -0.373611 -0.256170 -0.107892 -0.302459 0.684035 0.166849 0.004856 0.496840 0.378638 0.553778 -0.028973 0.246611 -0.229080 0.604207 -0.333378 0.237903 0.300312 0.549910 0.359784 0.170065 -0.010263 -0.626362 -0.458569 0.834538 -0.134902 -0.171800 -0.188984 0.048050 -0.152888 0.508711 0.697805 -0.476542 0.009604 0.215531 -0.029784 -0.380063 0.521160 -0.036284 0.764731 0.235157 -0.206096 0.621297 -0.153256 0.435101 -0.790353 0.039807 0.786854 -0.079288
about 0.264020 -0.306782 0.244704 -0.267289 0.200824 -0.030114 0.129539 0.320492 -0.024726 0.401320 0.445948 0.229209 -0.249650 -0.325521 -0.529199 0.182443 0.105599 -0.264122 0.240499 0.203948 -0.248683 0.245601 0.058303 -0.700619 0.355617 -0.371162 0.380473 0.243002 0.563471 0.369462 -0.042294 0.188562 -0.444859 0.055647 0.111804 0.000862 0.006415 -0.133683 -0.366139 0.101165 -0.125485 -0.468668 0.432673 -0.111192 0.451025 0.454224 0.027656 -0.083406 -0.233408 0.055233 -0.055746 -0.366469 -0.088647 0.335428 -0.172227 -0.032979 0.070555 0.166152 0.207586 -0.119435 0.494225 -0.088885 -0.163902 -0.162159 -0.284144 0.062834 0.365988 -0.484563 0.151306 0.195865 0.080401 -0.484432 0.187682 -0.373301 0.288519 -0.025179 -0.510386 -0.309889 -0.474300 -0.333634 -0.136785 -0.248629 0.199110 -0.079392 0.081369 0.532314 -0.141937 0.055572 0.268208 -0.008882 0.063978 -0.305842 -0.169843 0.118279 -0.404503 0.267942 0.175204 0.005826 0.152051 0.196421
net -0.018358 0.129550 1.478492 -0.084086 0.645174 -0.413598 0.089151 0.075520 -0.254058 0.708739 0.175702 0.052330 -0.371703 -0.246174 -0.153106 0.093010 0.515713 -0.286931 -0.189714 -0.397966 -0.583168 -0.000020 -0.069245 -0.142958 -0.158376 -0.220575 -0.560043 0.353024 0.362428 0.564490 -0.320879 0.388463 -0.208811 0.088428 -0.251898 -0.364168 0.520347 -0.471198 -0.136890 0.182830 0.201381 0.135254 -0.494550 -0.655218 -0.235124 -0.145212 0.320954 0.784087 0.265005 -0.163314 -0.621732 0.077208 -0.236655 -0.097949 0.315906 0.369088 0.599724 0.245024 0.079077 -0.549557 -0.138782 -0.158259 -0.114979 -0.328577 -0.177068 0.146969 0.193121 0.496368 0.818691 -0.442554 -0.509091 -0.756022 -0.132845 -0.087011 -0.322970 -0.166894 -0.074370 0.246075 -0.640227 -0.241562 0.486326 0.326595 0.724738 -0.176862 0.176100 0.423635 0.183470 0.337316 0.543773 0.108917 0.063446 -0.024486 -0.332114 0.780652 -0.135688 0.097823 0.254745 -0.052358 -0.208803 -0.174390
oil -0.544516 0.483857 1.115909 -0.254694 0.602027 -0.627944 -0.125788 0.631170 -0.096600 0.198400 0.404968 0.553211 -0.581252 -0.678335 0.135406 -0.051017 -0.045676 0.109606 0.162755 0.154511 -0.397357 0.071306 0.234883 -0.585046 -0.217028 -0.227476 0.294982 0.061208 -0.060486 -0.421067 -0.222414 0.009909 -0.532114 -0.184235 0.227815 -0.133617 0.353101 -0.357733 0.036083 -0.158090 -0.518736 0.062160 -0.525046 0.023378 -0.001329 0.566567 -0.219514 -0.066361 -0.468354 -0.442624 0.402035 -0.241304 0.387209 0.093226 -0.081829 -0.001509 0.113599 -0.238582 -0.365051 -0.068154 -0.277678 -0.048328 -0.730150 -0.224509 0.042391 1.076136 -0.331001 -0.240755 -0.502174 -0.197472 -0.288128 -0.065590 0.470607 0.037350 -0.044995 0.001818 0.270245 -0.467577 -0.418307 -0.234927 -0.582778 0.446620 -0.393759 -0.383413 0.499889 -0.093165 0.200797 0.088222 0.289892 0.345560 -0.298593 0.661260 -0.498132 0.065762 -0.206535 0.092864 0.034496 0.555752 -0.203871 -0.128269
market 0.309024 0.205444 0.068095 0.613925 -0.160374 -0.158993 0.313216 -0.412118 0.181558 0.017072 0.254276 0.632896 -0.458125 0.058990 0.048361 -0.080162 0.723111 0.392077 0.011919 0.326940 -0.244109 -0.439695 0.300581 -0.416277 -0.008149 -0.368320 0.037351 -0.125110 0.073342 0.350755 -0.356873 -0.349443 -0.281229 0.160384 0.309953 -0.192762 -0.083543 -0.253897 0.056917 0.086522 -0.006541 0.504929 -0.064017 -0.450501 0.676641 -0.067340 -0.057430 -0.223742 -0.540768 -0.478545 -0.030734 -0.122570 0.349749 0.499196 -0.197534 0.206265 0.600514 -0.059558 -0.523942 0.024950 0.208415 0.080039 0.230626 -0.247998 -0.130004 -0.063413 0.339956 -0.603961 -0.036032 0.574196 0.112781 0.109806 -0.032350 -0.303391 -0.369307 -0.169067 -0.309965 -0.281211 -0.384852 -0.378303 -0.490249 -0.023999 -0.370083 -0.645473 0.655043 0.129509 -0.309584 0.354794 0.288765 -0.007041 -0.232864 0.359875 -0.360228 0.480994 -0.459639 -0.365222 -0.243833 0.365343 0.608216 -0.154254
trade 0.380281 0.290274 0.599919 0.453898 0.125184 0.551245 0.087169 0.055218 -0.011092 -0.436308 -0.185468 0.144949 -0.814344 0.337001 0.389694 0.476631 -0.346193 0.059547 0.384824 -0.335455 -0.054766 0.139798 -0.254960 -0.225509 -0.654987 0.328230 0.496333 0.481954 0.704870 0.798366 -0.148329 -0.183751 -0.405876 -0.065080 -0.423463 -0.268559 0.536137 -0.253516 -0.338376 -0.109092 -0.396273 -0.011527 -0.044302 -0.177568 -0.027581 0.063963 0.356401 -0.591989 -0.483403 -0.297392 -0.042631 0.415544 0.164987 0.761846 -0.653446 -0.062768 -0.410873 -0.428638 -0.659919 -0.422205 0.298683 -0.079889 -0.150762 -0.438944 0.153680 0.619171 -0.028031 -0.427670 0.154546 -0.055611 0.388154 -0.296698 0.080683 -0.292978 -0.588463 0.136823 -0.514657 0.076897 0.094565 0.407200 0.478312 0.301829 -0.957952 -0.691062 0.199210 -0.254500 -0.045494 -0.036373 0.416992 0.067942 -0.058363 -0.292557 -0.111969 0.527736 0.124427 0.400165 -0.428585 0.122199 0.479766 -0.492980
up 0.116938 -0.020655 -0.246603 -0.047609 0.026245 0.043832 0.158807 0.151333 -0.255657 0.209513 -0.091213 0.204436 -0.051574 -0.969823 -0.300012 0.047702 0.235046 -0.248913 0.290149 -0.052898 0.010980 0.080269 0.118984 -0.096495 -0.203024 -0.553115 0.098427 -0.312018 0.355418 0.039774 -0.116230 -0.272799 -0.598925 -0.031207 -0.183943 -0.227371 0.227920 -0.309100 -0.102474 -0.361749 0.128476 -0.453573 0.126645 0.029613 0.432588 -0.192624 0.005130 -0.748532 0.245618 -0.073987 0.386108 -0.019934 0.150376 -0.151132 -0.020083 -0.169467 -0.031412 -0.310277 -0.133851 -0.089994 -0.096305 -0.355534 0.067530 -0.728752 0.058709 0.158035 0.232653 0.048976 0.738280 0.262269 -0.047571 0.115852 0.247443 0.016424 -0.084507 0.510037 -0.518715 -0.281351 -0.136004 -0.005303 -0.126091 0.258809 -0.124460 -0.738810 -0.047099 0.586620 0.059001 0.236964 0.629433 0.043862 0.009037 0.261420 0.671704 0.448438 0.126894 -0.060189 -0.017566 0.433742 -0.106676 0.510857
quarter -0.282051 0.009448 0.426216 -0.027597 0.902073 -0.070705 0.254034 -0.120620 -0.221131 0.417823 -0.280693 0.172486 -0.241769 -0.863343 -0.403301 -0.230837 -0.164585 -0.026582 -0.491550 -0.473915 -0.748124 0.419388 -0.110903 -0.410880 -0.604750 -0.396751 -0.310727 -0.078465 0.523491 0.413416 -0.233800 0.434568 -0.456703 0.280536 -0.096792 -0.195203 0.301807 -0.442078 -0.190922 -0.275226 -0.424774 0.458311 0.083244 -0.641604 -0.146771 0.142757 0.276583 -0.348298 -0.271366 -0.234534 -0.543069 0.020430 -0.212934 0.139906 0.021860 0.449641 0.625111 -0.123514 0.160938 -0.320514 -0.300624 0.034483 0.553316 0.449224 -0.175157 0.599881 0.338810 -0.398733 0.612110 0.270606 -0.004033 -0.294334 -0.257962 -0.096015 -0.674394 -0.619739 -0.259147 0.167738 0.003223 -0.414024 0.235458 -0.162334 0.136140 -0.295027 0.322882 0.199339 -0.291602 0.158162 0.488041 0.485638 0.180820 -0.305086 -0.033947 0.472525 0.052114 0.180756 0.120233 0.513966 0.060681 0.097550
new 0.212810 -0.052222 0.427926 0.445610 -0.022259 0.080638 -0.162527 0.112489 -0.392563 0.213124 -0.010268 0.595506 -0.029192 -0.176481 0.157214 0.220603 0.481626 0.271536 0.338886 0.132522 -0.354247 0.495656 0.301334 -0.267633 0.137822 0.012435 -0.146310 -0.032944 0.448356 -0.187716 -0.040149 0.141270 -0.424426 0.099003 0.010969 -0.036525 0.165889 0.105427 -0.024546 -0.082878 0.296735 -0.116613 0.006576 0.025270 0.143188 0.081855 0.023027 -0.280246 -0.291963 -0.095238 0.135963 -0.174103 0.029625 0.061098 -0.142718 0.218398 -0.430872 0.004129 -0.262106 -0.198818 -0.248352 -0.189287 0.498908 -0.267517 0.103736 0.328411 -0.038491 0.260861 0.152064 0.463499 -0.097319 0.161279 0.080064 -0.453857 -0.180216 -0.252878 -0.156787 -0.618585 -0.271625 -0.409724 0.142366 0.191114 -0.366092 -0.164216 0.251316 0.006194 0.156913 0.505439 0.392914 0.216092 -0.304796 0.235776 0.081572 0.016980 -0.004957 0.181852 -0.401424 -0.094454 0.509156 -0.053383
price -0.071008 0.223810 0.355543 0.122751 0.046315 -0.387362 -0.555201 0.256642 -0.254411 -0.005050 0.693480 0.796659 0.076335 0.039176 -0.164320 0.241619 0.216250 0.260072 0.635047 0.004660 -0.160136 0.181290 0.361260 -0.439693 0.598972 -0.321172 0.174008 0.140610 -0.112167 -0.005565 -0.553070 -0.912824 -0.492438 -0.077891 0.098395 -0.721638 0.422200 0.168667 -0.318095 0.063829 0.260132 -0.137036 0.009229 -0.515082 0.319622 -0.314390 0.345360 -0.357720 0.194458 0.156613 -0.650558 -0.181788 0.071145 0.024513 -0.681647 -0.303361 0.034741 -0.046404 -0.471497 -0.231314 0.145925 -0.578044 -0.242234 0.255398 -0.054341 0.437753 -0.139484 -0.512075 0.078564 0.519135 0.692702 0.112479 -0.490407 0.175297 -0.211277 -0.411913 0.296584 -0.216835 -0.133351 -0.575883 -0.603172 0.074524 0.173660 -0.308401 -0.166844 0.479845 0.182025 0.214091 0.388558 -0.106330 0.167956 0.135639 -0.327244 0.670250 -0.414162 -0.024623 -0.106864 0.101711 0.413813 -0.396164
agreement 0.006320 0.073857 -0.282069 -0.338711 -0.381898 0.115487 0.330414 -0.413544 -0.369142 0.309774 0.268127 0.963404 -0.133847 -0.265380 0.017143 0.370753 0.610118 0.568575 0.546045 0.073805 -0.433679 0.415833 -0.076935 -0.318116 -0.588657 -0.152366 -0.540290 0.446260 0.135522 0.012785 -0.242315 0.120630 -0.198224 0.190213 0.072203 -0.488182 0.619020 -0.140527 -0.249111 0.570831 -0.375828 0.164565 -0.390217 -0.508224 -0.174714 -0.262953 -0.597234 -0.377868 0.085033 0.182258 0.128116 0.345796 0.509740 0.124654 -0.172423 -0.630799 -0.095540 0.314619 -0.260640 -0.540786 -0.091752 -0.084378 -0.192217 0.062053 0.242220 0.636739 -0.135582 0.437202 0.253294 0.420469 0.122802 0.682428 -0.084240 -0.473953 0.234820 0.291355 -0.176361 -0.293796 -0.140593 -0.536817 0.184855 -0.375771 -0.194673 -0.656127 0.010146 0.364954 -0.144045 0.405309 0.298272 -0.240651 0.142288 0.302162 -0.189652 -0.067931 -0.082154 0.142870 0.148406 -0.043613 -0.156747 -0.355530
tax -0.293589 -0.478812 0.556395 -0.050355 0.302704 0.027253 -0.003357 -0.001382 -0.862212 0.201435 0.076260 0.159627 -0.184315 -0.007968 0.217636 -0.138501 0.447687 0.155955 -0.060932 -0.006687 -0.139826 0.391710 -0.198308 -0.210346 -0.635057 -0.557996 0.395808 0.321192 0.152988 0.024832 -0.088244 -0.066572 0.358214 0.689365 -0.022365 -0.483365 1.308209 -0.126309 0.094614 -0.170765 0.422802 0.449819 -0.446680 -0.448483 -0.082502 0.682024 -0.349607 0.206161 0.093610 -0.946037 -0.529940 0.331418 -0.166599 -0.259496 0.071317 0.067096 0.122447 -0.587499 0.322525 -0.304997 0.141241 -0.230312 -0.505871 -0.016864 -0.291984 0.455969 0.538935 0.087164 0.492975 -0.726249 -0.207069 -0.432306 -0.114228 0.073374 -0.243564 -0.117554 -0.169813 -0.646140 -0.112803 -0.456262 -0.175272 0.191908 0.385482 0.083700 -0.494758 -0.338744 0.324474 0.125350 0.625420 -0.023007 0.259869 0.001734 0.064374 0.673848 0.220067 0.743422 -0.282104 0.213453 0.551824 -0.048716
government -0.241880 -0.056772 0.002272 -0.403347 0.273431 0.053398 0.096546 0.542472 -0.531563 -0.325426 -0.017887 0.359901 -0.201324 0.076832 0.082602 0.387771 0.465507 0.321447 0.455805 0.113425 -0.189121 0.135298 0.242121 -0.158705 0.310554 -0.229440 0.440670 0.116450 0.146228 0.398369 -0.037712 -0.052283 -0.171026 -0.040520 0.064974 -0.513873 0.394713 -0.239267 -0.544407 0.049279 0.011513 -0.216030 0.418382 -0.336770 0.176435 0.472224 0.094799 -0.199621 -0.250461 -0.248745 0.133011 0.317630 0.402373 0.188466 -0.037185 0.106795 -0.172955 -0.017197 -0.297515 -0.027681 -0.023060 -0.372535 0.058438 -0.673753 0.165074 0.052259 0.027721 0.090708 -0.040643 0.377794 0.275032 -0.323302 0.446259 -0.418227 -0.361629 0.136317 0.254648 -0.186668 -0.306226 -0.264655 0.222918 0.055918 -0.434656 -0.266748 -0.306005 0.187145 -0.029725 0.144170 0.495751 0.408870 -0.782607 0.362844 -0.218232 0.254492 -0.063938 -0.225112 -0.412388 0.532952 0.092146 -0.137254
group -0.131668 0.006047 0.106455 0.031250 -0.683163 0.227345 0.229802 0.109188 -0.410804 0.690819 0.622487 -0.039285 0.293750 -0.195259 0.482899 0.354156 0.684008 0.393712 -0.126316 -0.162544 -0.346856 0.067890 0.164272 0.073335 0.369376 0.121942 0.098501 0.111531 0.727668 -0.403109 0.020122 -0.118846 -0.136702 0.198350 0.115137 -0.201549 0.564449 -0.209225 -0.377549 0.134073 -0.235968 0.324875 -0.021965 -0.551630 0.090289 0.112916 -0.397103 0.428678 0.212806 -0.246721 0.212190 -0.350515 -0.038557 -0.157624 -0.261314 -0.024296 0.498587 0.312054 -0.358483 -0.054341 -0.049935 -0.110509 0.044149 0.504321 -0.292040 0.043118 0.617629 0.599851 0.181899 -0.035722 0.005127 -0.503358 0.508282 0.110667 -0.640755 0.281881 0.380929 -0.039614 -0.581132 -0.501649 0.030996 0.202205 -0.303589 -0.859631 0.305230 -0.136910 0.134413 0.334840 -0.275638 0.187087 -0.345372 -0.205873 0.023479 0.370121 -0.093649 0.116123 0.132984 0.551209 0.592275 -0.084951
week -0.053176 0.227814 -0.273850 -0.169874 0.544777 -0.099369 0.157250 0.588821 -0.316613 0.579338 0.198244 -0.342988 -0.701060 -0.195145 0.239252 0.437959 0.273279 -0.143857 -0.140911 -0.279228 0.102341 -0.252796 0.370463 0.019486 -0.481288 -0.564108 0.181939 -0.174075 0.489720 0.386905 0.072151 -0.250121 -0.714702 0.121371 -0.432383 -0.132205 0.163524 -0.183515 -0.349755 0.441878 -0.421960 0.067185 0.506562 -0.227327 0.457983 -0.285383 -0.690398 -0.487665 0.051769 -0.550156 -0.397144 -0.053717 -0.514309 0.042195 0.063089 -0.077853 0.116128 0.457012 -0.177821 -0.244119 0.133889 0.170853 0.320685 -0.120107 -0.056761 -0.015320 0.003482 -0.217477 0.604891 0.533123 -0.110490 -0.286453 0.359557 -0.279389 -0.064972 -0.148062 -0.062376 0.086482 0.481537 -0.073794 -0.077647 -0.388071 -0.247177 -0.084359 0.208986 -0.135736 0.011920 0.711578 0.242150 -0.291375 -0.107120 0.571695 -0.236719 0.539537 0.045770 0.259042 -0.316477 0.231012 0.260522 -0.394877
over 0.007735 -0.128699 -0.046102 -0.414699 -0.411987 -0.328944 -0.220156 0.555537 -0.139966 0.766030 0.165379 -0.012783 0.053653 -0.239739 -0.320711 0.313623 0.398005 -0.386938 0.259562 -0.161114 -0.309253 0.008745 0.062215 -0.696551 -0.013114 -0.519198 0.496317 -0.001212 0.729409 0.118014 0.046043 0.115786 -0.180471 0.181065 0.019561 -0.305735 0.336303 -0.387207 -0.333321 -0.108702 0.104764 -0.299716 0.070748 -0.259840 0.378097 -0.350644 -0.062135 -0.156022 0.119679 -0.258160 -0.121814 -0.166031 -0.290129 0.413998 -0.255869 0.310405 -0.003079 0.141655 -0.388126 0.173086 0.343280 -0.478025 -0.131592 -0.183598 0.310884 0.175487 0.225981 -0.121502 0.040629 0.308694 0.281195 0.050451 0.418404 -0.283686 -0.070971 0.195227 -0.496223 -0.318997 -0.197113 -0.201349 0.031727 0.298462 -0.108906 -0.201217 -0.250039 0.139886 0.026519 -0.268955 0.304501 0.082633 0.148243 0.416837 -0.281140 0.399785 0.196349 -0.102382 -0.317373 -0.262803 -0.044165 0.264969
rate -0.450089 -0.064315 0.599912 -0.027868 0.256718 0.155922 -0.174700 0.126974 -0.180686 0.254634 0.774874 0.499838 -0.438376 -0.387679 0.113423 0.623923 0.487011 -0.424770 0.412357 0.390369 0.196997 0.247850 0.240173 0.120476 0.210158 -0.837463 0.041280 -0.452660 0.150884 0.513497 -0.388217 0.120063 -0.701117 0.158421 0.142265 -0.799146 -0.160777 -0.053026 0.477442 -0.324653 -0.067476 0.297491 -0.457339 -0.400811 0.411944 0.437351 -0.160045 -0.106734 0.018663 -0.213986 0.275779 0.647721 0.119172 0.258942 -0.362595 0.757918 -0.037348 -0.128567 0.291124 -0.070929 0.045315 -0.796379 0.216892 -0.270546 0.101381 0.130760 -0.262456 -0.372172 0.031150 0.273175 0.670928 -0.179323 -0.162811 0.127960 -0.050839 0.134405 -0.385690 0.158749 -0.055707 -0.390518 0.224219 -0.268088 0.132576 -0.128427 -0.372167 0.473873 -0.151155 -0.548088 0.264326 0.611109 0.170003 -0.233176 -0.272891 0.358719 0.478137 0.523463 -0.242222 0.279377 0.336555 -0.257585
bank -0.954042 0.153514 0.543415 -0.058897 0.521772 -0.052277 0.146597 -0.502772 -0.554687 0.040185 0.530191 -0.054347 -0.521344 -0.292738 0.229280 0.445955 0.301616 0.576975 0.412875 0.805533 0.426359 0.190854 0.399473 -0.272878 0.156368 -0.457823 -0.249921 -0.105451 0.443256 0.314252 -0.312947 0.223449 -0.463452 0.248161 -0.400006 -0.129681 -0.185418 0.438168 0.111785 0.193424 -0.510854 0.119539 0.725490 -0.634263 -0.049333 0.259197 -0.004279 0.211894 -0.247834 -0.272682 -0.034931 0.113689 0.191626 0.080689 -0.141009 0.322535 0.306881 -0.061515 -0.471801 0.001993 0.442809 -0.447958 0.266501 -0.256160 0.379752 -0.216648 0.002343 0.197845 0.358140 0.011105 -0.078987 0.115216 -0.268846 0.020566 -0.354813 0.364489 -0.096135 0.097164 -0.349594 0.008445 0.116961 -0.041080 -0.342820 -0.611939 0.192672 0.675802 0.255705 -0.102192 0.193015 0.736863 -0.223388 -0.070433 -0.023286 0.267598 -0.243960 0.263017 -0.326393 0.509609 0.052273 -0.129525
common -0.016774 -0.416428 0.194855 0.107079 0.106827 -0.268358 -0.034807 -0.463247 0.006103 -0.266078 -0.065976 0.124088 -0.154062 -0.390087 0.223008 0.547711 0.105757 -0.129787 0.636516 -0.059181 -0.495003 0.576158 -0.185293 -0.575921 0.364931 -0.308112 -0.629663 0.177659 -0.071377 0.285224 -0.372680 0.387376 -0.116475 -0.028640 0.244599 -0.222310 0.550758 -0.310548 -0.591022 -0.037884 0.118820 0.166521 -0.653347 -0.127769 0.329350 0.266836 -0.292836 -0.271879 0.362735 -0.022800 -0.032315 -0.172606 -0.697892 -0.600724 -0.491291 -0.286199 0.235160 0.286572 -0.069388 0.165784 0.152322 0.529677 -0.042345 -0.006877 -0.310733 0.388024 -0.271810 0.080397 -0.042689 0.673645 0.034839 -0.067692 0.352811 -0.505558 0.045977 0.701029 -0.031236 0.281222 -0.668299 -0.185254 -0.014046 0.014789 0.405041 -0.584645 0.296705 0.627083 0.087386 -0.019304 0.503953 0.145739 0.438841 0.135997 0.140259 0.748096 -0.351181 0.828666 -0.203675 0.127105 0.528311 0.059947
sales 0.137741 0.106346 0.240156 0.144267 -0.162267 -0.200554 -0.131929 -0.017612 0.015020 -0.049132 0.199718 0.597832 -0.113589 -0.305439 -0.090579 0.335301 0.193636 -0.136362 0.165223 -0.223773 -0.570029 -0.108826 -0.010731 -0.065588 -0.233155 -0.246937 -0.192688 0.060309 0.588065 0.149176 -0.206564 -0.196300 -0.321598 0.233693 -0.315749 -0.007742 0.336464 -0.326177 -0.201461 -0.227970 -0.161501 -0.152378 0.099924 -0.502610 0.216465 0.422511 -0.235275 -0.067979 -0.249424 -0.120699 -0.277476 -0.045491 0.131359 -0.029330 0.375579 0.179346 0.573607 -0.034723 -0.190784 -0.092462 -0.159966 -0.615045 -0.037661 0.348698 -0.564902 0.531815 0.197361 -0.201853 0.084628 0.142495 0.008497 -0.524039 0.105554 -0.291766 -0.567117 0.396778 -0.361113 0.184100 -0.375963 0.317885 -0.444868 0.165542 -0.378084 -0.281366 0.245014 0.102487 -0.006384 0.283462 0.274161 0.146530 0.326521 -0.352286 -0.282700 0.333345 -0.225459 -0.281182 0.350740 -0.017341 -0.435203 0.397509
five -0.411225 -0.636755 0.235295 0.102944 -0.051979 -0.289117 -0.123505 0.307069 -0.618571 0.673076 -0.436761 0.509272 0.139074 -0.230874 0.054160 0.006032 0.289663 -0.185224 0.040770 -0.032876 -0.221429 0.195410 0.470428 -0.074753 -0.107268 0.020624 0.159346 0.002261 0.037201 0.117763 -0.307750 0.005852 -0.214709 -0.196214 0.281537 -0.331277 0.272997 -0.322091 -0.289701 -0.575524 0.225367 0.085427 0.281610 -0.422811 0.135107 0.241652 -0.173682 0.015845 0.216942 0.343317 -0.213557 0.002060 -0.546714 0.120776 -0.350634 0.064732 -0.175768 0.177988 -0.508215 -0.053107 0.154073 -0.085448 0.458401 -0.655569 0.176827 0.009449 0.089451 -0.000632 0.694844 0.000995 0.184069 -0.192685 0.040167 -0.457134 -0.063632 0.285706 0.027501 0.140625 -0.482090 -0.188348 -0.135912 0.069168 -0.278191 -0.133250 0.742850 0.000514 0.139351 -0.101511 0.251727 0.161601 0.130205 0.149222 -0.113760 0.337386 0.249367 0.410094 -0.042456 0.174260 -0.088027 -0.384230
rose 0.176560 0.133848 0.688071 0.204171 0.175205 -0.244897 -0.272049 0.179014 0.408791 0.569491 0.111258 0.095490 0.214818 -0.987984 -0.522940 0.374817 0.785061 0.302006 0.081417 0.231874 0.626997 -0.150663 0.125504 -0.260771 0.687971 0.095783 -0.145333 -0.132564 0.098397 -0.039778 0.092271 0.086603 -0.540425 -0.164388 -0.308179 -0.135642 0.339156 -0.379681 -0.554613 -0.115314 -0.467231 0.209628 -0.290487 -1.024747 0.209873 0.033584 0.173901 -0.602664 -0.281802 -0.552438 -0.440781 -0.178587 -0.159912 -0.068240 0.234806 0.591441 0.167660 -0.326586 0.447765 -0.405415 -0.070107 -0.521328 0.049016 -0.697503 0.068572 0.242656 -0.095156 0.425369 0.123529 0.393875 -0.262786 -0.388695 0.301412 -0.160106 -0.669488 0.194826 -0.391415 -0.185755 0.359063 0.122256 -0.325734 -0.483760 -0.201427 -0.694091 0.228656 -0.084838 -0.602600 0.269057 0.427687 -0.320215 0.909534 -0.137732 0.277238 0.583719 -0.059357 -0.544817 0.523654 0.707398 0.038193 -0.197426
today 0.072815 0.169107 0.374459 0.443675 0.322456 0.050518 -0.049129 0.361295 -0.169569 0.054702 0.293557 0.036122 -0.560610 -0.660722 0.373881 0.090008 0.526996 0.039851 -0.091985 -0.140248 -0.293268 0.259331 0.660261 -0.014433 -0.210673 -0.696653 0.021290 0.045937 0.331213 -0.101601 -0.112362 -0.524172 -0.524640 -0.045132 -0.074750 0.109853 0.001930 -0.205449 0.025195 -0.373179 -0.052530 0.182394 0.181868 -0.023641 0.556898 -0.028783 0.307854 -0.344567 -0.230035 -0.678616 -0.332349 -0.261763 -0.394548 0.371661 0.105319 -0.146035 -0.006985 -0.175199 -0.079713 0.177055 0.206196 0.248587 -0.094210 -0.298140 0.522798 -0.112173 0.605147 -0.080494 0.266689 0.027206 -0.146509 0.261503 0.193263 0.131063 0.252588 0.523942 -0.186398 -0.168067 0.387156 -0.183948 -0.468194 0.298963 -0.033022 -0.388749 -0.130266 0.445463 -0.105004 0.112365 0.097889 0.001847 -0.088443 0.002057 -0.230530 0.144728 -0.438506 0.022260 -0.568105 0.309909 0.279311 -0.012892
increase -0.276033 -0.093899 0.454829 0.158043 -0.117055 -0.263077 -0.014316 0.454087 -0.256841 0.252773 -0.329522 0.072094 -0.305924 -0.920429 0.021976 0.116698 0.066537 0.222479 0.004203 0.186748 -0.358779 0.071236 0.312696 -0.412593 -0.011451 -0.347289 -0.177267 -0.131965 -0.115239 -0.316654 0.458862 -0.133586 -0.339150 -0.392078 -0.182400 -0.381842 0.135129 -0.119441 -0.269414 -0.320920 0.034064 -0.325776 -0.450217 -0.581861 0.063549 0.011693 -0.057796 -0.132940 -0.142673 -0.333352 -0.071413 -0.144455 0.195436 0.141870 -0.057674 0.204233 0.343407 -0.388709 -0.062914 -0.332548 0.011729 -0.635409 -0.285885 -0.340190 0.125454 -0.086507 0.323298 -0.428782 0.276601 0.397568 0.434959 -0.155766 0.209770 -0.460384 -0.634683 0.099070 -0.105867 -0.340186 -0.237185 -0.261456 0.035884 0.328580 -0.112120 -0.282907 0.335455 0.290312 -0.143981 0.165071 0.595749 -0.096452 0.313303 -0.201108 -0.181701 0.245502 0.021112 0.338769 -0.135615 0.281958 -0.167867 -0.151256
interest -0.382551 -0.122907 0.113072 -0.349535 0.373975 -0.279779 -0.147411 -0.514069 -0.277196 0.751512 0.426047 0.293919 -0.399763 -0.291361 -0.195741 0.236263 0.555960 -0.462822 0.081074 0.097765 0.152920 0.297017 0.438156 -0.515320 0.371517 -0.762400 -0.367689 0.482037 0.269129 -0.511267 -0.404875 0.001240 0.225578 0.370727 -0.298320 -0.191094 0.232847 0.083465 -0.166604 -0.124687 -0.057538 0.327270 0.016327 -0.452825 0.155814 0.731252 -0.481226 -0.156287 -0.239334 -0.435561 0.810407 0.222742 -0.088205 -0.043485 0.059899 -0.043464 0.655568 -0.231232 0.210165 -0.473059 -0.047684 -0.733610 0.137194 0.423720 0.251857 0.151536 0.199866 -0.626348 0.364186 -0.177287 0.267715 -0.069004 0.070582 -0.130983 0.146639 -0.007652 -0.198818 -0.546422 -0.200186 0.173125 0.102924 -0.281627 0.026675 0.122411 -0.055748 0.202727 0.412288 0.279443 0.049298 0.369358 -0.329021 -0.080891 -0.265713 0.176352 -0.266081 0.599011 -0.330581 -0.079837 0.307551 -0.404920
production -0.165447 -0.035286 0.221442 -0.077251 0.037344 -0.046955 -0.077888 0.104060 -0.276261 0.099805 0.485701 0.559774 -0.283951 -0.454881 0.352474 0.142183 0.175698 -0.268880 0.238392 -0.278971 -0.286584 -0.341137 -0.007305 -0.203432 0.070939 -0.896622 0.135598 0.013387 0.256335 0.358206 -0.292553 0.496932 -0.470265 0.016602 -0.202138 -0.580842 -0.097543 -0.119033 -0.298972 -0.713250 0.031705 0.048488 -0.539674 -0.006913 -0.045413 -0.220497 0.079441 -0.006549 -0.397700 0.310121 -0.318898 0.189869 -0.067027 0.400201 -0.515159 -0.143024 -0.184390 -0.134836 -0.077229 -0.414438 0.174171 -0.579167 -0.485362 0.266937 -0.537028 0.547681 -0.341673 -0.281216 -0.005190 0.012490 0.037045 -0.025722 0.042593 -0.019438 -0.872498 0.017716 0.367160 -0.689476 0.205665 -0.491506 -0.300830 0.377259 -0.326696 -0.347212 0.329915 0.130254 0.633108 -0.041394 0.607625 0.063082 -0.224207 0.484805 -0.490446 -0.122464 0.227560 -0.396219 0.563618 0.571107 0.122877 -0.038557
meeting -0.257568 -0.455745 0.397067 -0.020251 -0.488927 0.279997 -0.207248 0.202438 -0.129940 0.080598 0.274997 0.052196 -0.717393 -0.056158 -0.026155 0.449614 0.326816 -0.193871 -0.235633 -0.367642 -0.359667 0.615819 0.093512 -0.811583 -0.352340 -0.579270 -0.410289 -0.091805 -0.285533 -0.356747 -0.482429 -0.378024 -0.673659 -0.289858 -0.090649 -0.492345 0.167125 0.052426 0.133038 0.295189 -0.299817 -0.257215 0.152696 -0.487909 -0.163777 0.262722 -0.418699 -0.473267 0.043349 -0.170263 -0.258661 0.087123 0.250495 0.576939 0.303698 -0.053491 0.190195 0.592550 -0.046780 0.249542 0.168376 0.623123 0.134049 -0.040885 -0.344398 -0.002934 0.017923 0.465639 0.262581 0.475214 0.470026 -0.185508 0.350892 -0.010366 -0.194836 0.823387 0.046611 -0.789752 0.191006 -0.280861 -0.122782 0.394341 -0.291535 -0.342181 -0.180556 0.320375 -0.127094 0.176244 0.606277 0.450380 0.082269 -0.069442 0.030944 0.071843 -0.467180 0.089440 0.118584 0.005910 0.493249 -0.817291
end -0.078365 -0.312325 0.082781 -0.078166 0.495464 0.005764 -0.322395 -0.224044 -0.613103 0.311115 -0.202791 0.365917 -0.263368 -0.206834 0.177093 0.587270 0.537478 -0.010653 0.507000 0.016701 0.066566 0.523347 -0.075428 -0.626667 -0.494555 -0.950324 0.129660 -0.218105 0.025998 0.263392 -0.198590 0.102524 -0.735224 -0.464503 0.313667 -0.388692 0.178813 -0.177069 -0.084522 -0.238766 -0.404825 -0.342960 -0.013181 -0.478727 -0.301747 -0.027493 -0.139337 0.054072 0.543231 -0.004409 -0.101689 -0.267953 0.116938 0.124508 -0.202264 0.411279 -0.062509 0.128206 0.152305 -0.464156 0.209027 -0.109413 -0.279878 -0.196355 0.226811 0.270082 0.079506 0.034503 0.454171 0.126162 0.264276 -0.310485 -0.374799 -0.053949 -0.407730 0.276186 -0.163691 -0.092652 0.525624 0.174499 0.269934 0.295192 -0.073269 -0.304305 0.080472 0.426380 -0.395463 -0.084004 0.120304 -0.041233 -0.126640 -0.134504 -0.016738 0.332140 -0.218131 -0.385412 0.078947 0.543302 -0.126990 0.353155
month 0.085850 0.210286 0.099675 -0.178443 0.533671 0.199382 0.117095 0.139621 -0.429342 0.507272 0.478100 0.318922 -0.144505 -0.626175 0.234008 0.318666 0.419877 -0.167863 -0.128893 -0.327796 0.164217 0.240214 0.532435 0.000527 -0.541515 -0.476288 -0.125258 -0.108885 0.505045 0.174886 -0.001273 0.001019 -0.175841 0.184211 -0.607240 -0.282054 0.218174 0.104363 -0.345384 -0.285158 -0.265694 -0.042117 0.248755 -0.528325 0.407408 -0.437851 -0.383173 -0.307763 0.079898 -0.526213 -0.242397 -0.076626 -0.295364 0.026117 -0.481734 0.105925 -0.281537 0.401203 -0.158963 -0.258024 0.162702 -0.485438 0.251191 0.007479 0.042737 0.315417 0.267579 0.321533 0.422330 0.324979 -0.155665 -0.167289 -0.201264 -0.329526 -0.292149 0.065466 -0.141674 -0.516031 0.354824 -0.257980 0.199694 0.136270 -0.417869 -0.062849 0.077502 0.232895 -0.035325 -0.152194 0.190622 -0.423027 0.419710 0.295204 -0.377575 0.356713 0.087244 -0.138138 -0.026959 0.186664 0.014704 -0.599042
foreign -0.297431 0.178397 0.389656 0.273912 0.340819 -0.186699 0.258541 -0.134406 -0.017392 0.215980 -0.139888 0.538304 -0.579853 -0.208513 0.204204 0.510463 0.337766 0.552066 0.225719 0.240614 0.321975 0.054321 -0.325366 -0.252972 0.127106 -0.295370 0.315183 0.363020 0.183302 0.423880 -0.292322 -0.051114 -0.076791 -0.106252 -0.330325 -0.085280 0.015904 -0.189933 -0.162883 0.294951 -0.307848 0.501216 0.319972 -0.196571 0.142598 0.260297 0.043671 0.660435 0.016195 -0.849448 0.386300 0.087997 0.074973 -0.095388 -0.279348 0.353048 0.057997 0.108944 -0.094689 0.285727 -0.055200 -0.180432 -0.291371 -0.573279 0.224176 0.434045 0.587857 -0.018354 0.015977 0.131878 -0.016370 -0.203057 0.113388 -0.133123 -0.574190 0.343269 -0.105041 -0.607483 -0.092217 0.408920 0.140475 0.249865 -0.493996 -0.175343 0.035786 0.444096 0.286303 -0.031994 0.579791 0.245697 -0.063305 0.189774 -0.038357 0.848584 0.548436 0.153456 -0.255461 0.151894 -0.338898 -0.542535
sale -0.102660 -0.529978 -0.134892 -0.427219 0.056291 0.114334 -0.216629 -0.409157 -0.103312 -0.430250 0.522878 0.606106 -0.468178 -0.389632 -0.237112 0.396649 0.428100 -0.038467 0.109776 -0.032564 -0.450875 0.249057 0.732373 -0.071296 -0.367804 -0.474017 -0.408236 0.352182 0.708028 0.006973 0.296166 0.299323 0.076889 0.309936 -0.089268 0.184154 0.385500 0.140267 -0.332796 -0.109263 0.091710 0.076928 -0.147333 -0.629252 -0.622483 -0.122930 -0.040123 0.027025 0.107450 0.036696 -0.163650 -0.365443 0.303586 0.098727 -0.176135 -0.100287 0.651617 0.113204 -0.046619 0.161401 -0.027591 0.023091 -0.314695 -0.057335 0.070455 0.545826 0.600726 0.084347 0.092391 -0.042241 -0.132181 0.079831 0.013708 -1.002160 -0.525088 0.437901 -0.256018 0.124508 -0.647231 -0.232401 0.030628 0.027733 0.356084 -0.120883 -0.128682 0.026129 -0.273996 0.459722 0.052867 -0.145226 -0.334315 -0.185561 0.199301 0.485839 0.009879 0.363655 0.016886 0.031238 -0.024032 -0.000245
includes 0.085119 -0.731977 0.244567 -0.567672 0.132666 -0.516207 -0.304430 -0.122631 -0.249958 0.103631 0.658378 0.450824 -0.242000 -0.327109 -0.007560 -0.436024 0.491422 -0.280859 0.011128 0.276033 -0.222488 -0.015941 -0.257294 0.157518 0.030284 -0.252276 -0.463588 0.143415 0.500901 0.004669 0.249973 -0.020944 -0.261505 0.447755 -0.200225 0.140444 0.925447 -0.304867 -0.600495 -0.215277 -0.303776 0.016973 -0.828567 -1.045175 -0.349649 0.481624 0.344788 0.420869 0.101470 -0.661888 -0.345207 -0.436957 -0.277871 -0.171565 -0.196182 0.198727 0.299580 0.503094 -0.397622 -0.000466 0.010589 0.351662 -0.277491 -0.641681 0.322003 0.721631 -0.374429 0.827284 1.043221 -0.171021 0.017998 -0.677656 0.057009 -0.254128 -0.417978 -0.255286 -0.096804 -0.134175 -0.728769 0.092451 -0.062064 0.038032 0.682392 -0.420227 -0.415730 0.220227 0.173258 0.388928 0.676321 0.056280 0.124399 -0.482892 0.491621 0.271622 0.227340 0.261409 0.322962 -0.268655 0.078460 -0.009877
rise -0.108350 0.030536 0.482659 -0.332744 0.189262 -0.179021 -0.261881 0.072163 0.124448 -0.037636 0.054428 -0.048418 -0.032466 -0.400242 -0.303833 0.369084 0.378123 0.024425 0.023895 -0.003668 -0.104868 -0.276074 0.685983 -0.144066 -0.031389 -0.413436 -0.325934 -0.033340 0.091563 0.543833 0.111912 -0.040229 -0.239666 -0.129878 -0.280841 -0.595052 0.114310 -0.294348 -0.501431 -0.305642 -0.069968 0.262780 -0.405688 -0.684131 0.168849 -0.119737 0.091535 -0.227905 -0.250169 -0.336238 0.101058 0.200750 0.165494 0.088136 0.128395 0.462425 0.440227 -0.513776 0.199462 -0.422442 -0.003156 -0.830885 0.069772 -0.323957 -0.250038 -0.042762 0.237978 -0.198008 0.705706 0.176649 0.071185 -0.231419 -0.038111 -0.526734 -0.543316 -0.030277 -0.625545 -0.644153 0.030965 -0.347892 -0.357437 0.177952 -0.309882 -0.583348 0.126182 0.117539 -0.425494 0.131194 0.634075 -0.193247 0.754854 0.185007 -0.373906 0.197532 -0.134198 -0.330961 -0.040020 0.444589 -0.331570 -0.321913
board 0.053692 -0.046388 0.189448 -0.093496 -0.321548 -0.164954 0.077025 0.328140 -0.038539 0.184591 -0.001840 -0.408309 -0.199130 -0.319087 0.359685 0.121399 0.612643 0.127408 -0.009123 -0.994509 -0.459923 0.263803 0.421739 -0.382765 0.012166 -0.598343 -0.720748 -0.177194 -0.088860 -0.183828 0.013954 0.241905 -0.655912 0.480266 0.087006 -0.353168 0.160387 -0.142401 0.087365 0.088300 -0.089013 0.000607 -0.470560 -0.451216 0.008776 0.163575 0.010013 0.166664 -0.104048 0.548953 -0.172243 0.119626 -0.337734 0.117021 -0.254922 -0.143144 -0.547941 0.368556 -0.485727 0.416933 0.279616 0.382541 -0.057999 0.164588 -0.000098 -0.207221 0.162836 0.091270 -0.188707 0.229881 0.354899 0.182139 0.269239 -0.299456 -0.210831 0.689209 0.114743 0.258898 -0.054434 -0.234214 0.339293 0.304388 0.196738 -0.676300 0.386462 0.455395 -0.138691 0.013201 0.151685 0.427879 0.242499 0.193566 -0.011856 0.419756 -0.656649 0.856042 0.090041 -0.133236 0.214535 -0.591906
cash 0.169282 0.006359 0.506992 0.117647 0.023901 -0.307692 0.205790 -0.421804 -0.037701 0.192651 0.145390 -0.007202 -0.133599 -0.415182 -0.669506 0.276212 0.567599 0.044166 0.015699 0.306193 -0.351633 0.798545 0.148426 -0.460496 -0.012989 0.053199 0.036047 0.426706 0.193195 0.113123 -0.172528 -0.029526 -0.547433 0.643917 -0.093811 -0.164186 0.146116 0.097565 -0.383389 0.207379 -0.120747 0.471972 -0.379444 -0.144741 -0.143066 0.065867 -0.337326 -0.140042 -0.070470 -0.320431 -0.154075 0.155687 -0.418501 -0.321704 -0.081081 -0.387549 0.293586 -0.085721 -0.347799 0.200804 0.045088 -0.374444 0.035727 -0.254417 -0.310138 0.176516 -0.137404 -0.408740 0.198318 0.388338 0.483924 -0.084901 -0.103171 -0.897702 -0.155312 -0.246558 -0.352932 0.337964 -0.225756 -0.154942 -0.197116 -0.068748 0.193076 -0.212766 0.512662 0.668011 0.239945 0.456138 0.218277 0.492566 0.000421 -0.279746 0.009892 0.320625 -0.576465 0.506997 -0.430202 -0.032756 0.214177 -0.177610
made 0.092214 -0.208310 0.092550 0.161293 -0.088345 0.316033 -0.308650 -0.027238 -0.344438 0.178303 -0.012108 0.021553 0.052639 -0.223930 -0.480944 0.055754 0.375665 0.101732 0.143009 0.237501 -0.338783 0.506723 0.133035 -0.027049 0.070010 -0.354639 0.156571 -0.261898 0.313766 0.029687 -0.497273 -0.157258 -0.217807 0.179319 -0.239517 -0.362033 0.252075 -0.307376 0.192690 0.093096 -0.368218 0.482750 -0.193108 -0.072687 -0.103229 0.057115 -0.220210 0.340313 -0.364822 -0.460018 0.041282 -0.171659 0.203954 -0.299185 0.040540 -0.322595 -0.424798 0.044351 -0.119246 0.141704 -0.115797 -0.008438 0.023146 -0.213829 -0.237531 0.435302 0.434997 -0.129281 0.576291 0.174288 0.357510 -0.182241 0.577069 -0.268787 0.045107 0.342330 -0.035960 -0.002807 0.027634 -0.225841 0.050960 0.068023 0.060999 -0.680487 0.152869 0.175886 -0.110590 0.087396 0.132514 0.224644 -0.171089 0.080584 -0.125419 0.095451 -0.305514 0.247526 -0.154206 0.366155 0.031889 -0.153608
current -0.213934 0.021671 0.222749 0.352800 0.187957 -0.025723 -0.046535 0.084493 -0.392067 0.135897 0.016034 0.138928 -0.489976 -0.192529 0.031289 0.276066 0.562349 0.270155 0.112117 -0.097824 -0.441441 0.124473 0.430356 -0.072435 -0.285139 -0.702846 0.352391 0.066994 0.196161 0.066610 0.075701 0.204685 0.077404 -0.073199 0.006029 -0.277132 0.325286 0.364680 -0.037990 0.059975 -0.215588 0.223678 -0.140846 -0.153933 0.510157 0.303356 -0.042966 0.176836 -0.087251 0.301267 0.229003 -0.057738 -0.063162 0.574969 -0.227310 0.093605 0.044094 0.059163 -0.010118 -0.306377 -0.046047 -0.053984 -0.191582 -0.490320 0.077842 0.199370 -0.156747 0.138533 0.225194 0.100515 0.417259 -0.462174 -0.185033 0.079460 -0.324827 -0.020550 -0.407672 -0.615295 -0.690150 0.059500 0.231466 -0.057392 -0.474299 -0.376212 0.117898 0.572755 0.549752 -0.035967 0.383772 -0.525766 -0.087096 0.130865 -0.103603 -0.013931 -0.394814 0.005538 -0.204066 0.253086 0.267041 -0.169018
gain -0.095473 -0.148377 0.355178 -0.409860 0.880158 -0.269432 0.168053 -0.097762 -0.424954 -0.193868 0.266269 0.762860 -0.403410 -0.486617 -0.180281 -0.118047 0.342084 -0.290586 -0.285576 -0.089801 -0.522255 -0.439874 0.097175 0.036214 -0.090362 -0.464040 -0.518561 0.119434 0.587339 0.612937 0.204421 -0.147611 -0.130951 0.098468 0.182803 -0.310904 0.944935 -0.130867 -0.333212 -0.117775 -0.046736 -0.110124 -0.284955 -0.891182 -0.520041 0.232127 0.109736 0.010304 -0.054643 -0.664871 -0.211940 -0.377728 -0.317448 -0.245308 0.028994 0.124342 0.510432 -0.042466 0.304280 0.058235 0.182194 -0.094562 -0.255198 0.177982 -0.211589 0.639645 -0.108155 -0.109547 0.628802 0.053900 0.048016 -0.492476 -0.287942 -0.425256 -0.756026 -0.114309 -0.425824 -0.022828 -0.884880 -0.031491 -0.073625 0.031624 0.452876 -0.100373 -0.257331 0.009326 -0.253305 -0.057786 0.504072 -0.075628 0.327455 -0.044011 0.496931 0.701631 -0.055880 0.331034 0.279282 -0.309495 -0.060994 -0.047818
investment 0.015902 -0.444059 0.049897 0.226562 0.084352 -0.027933 0.245648 -0.184487 0.210753 0.630318 0.144667 -0.133333 -0.244573 -0.173740 0.422389 0.147776 0.557713 0.025728 -0.063342 0.054467 -0.031333 -0.088374 0.371590 0.100617 -0.178288 -0.304959 -0.103608 0.262141 0.044298 0.207594 0.047023 0.004702 0.088773 -0.317703 0.108660 -0.161049 0.298074 0.054036 -0.279379 0.074421 -0.373506 0.289914 -0.530650 -0.695136 -0.176947 0.171458 0.235328 -0.425634 -0.051962 -0.198179 0.588637 -0.275916 -0.088001 -0.147469 -0.254423 -0.223539 0.201763 -0.105082 -0.060169 0.032646 -0.274662 -0.358141 0.036465 0.364044 0.232889 0.859281 0.259824 0.026950 0.616916 0.137648 -0.147708 -0.583020 0.009399 -0.093976 -0.339465 0.436171 0.188304 0.195316 -0.733858 0.155455 -0.003204 0.820910 -0.187515 -0.025783 0.304571 0.181135 0.323496 0.102998 0.447787 0.557247 -0.398675 -0.076044 0.240152 0.515263 0.252263 0.589412 0.150325 0.142935 0.432457 -0.161706
official -0.197931 0.248100 -0.039045 -0.025911 0.042803 0.001780 0.101884 0.218179 -0.099884 -0.274319 -0.190022 -0.345868 -0.272745 -0.077956 0.289478 0.106437 0.433916 0.495721 1.136513 0.404186 0.146457 0.166400 1.039256 -0.149120 -0.228059 -0.579321 -0.029892 -0.158245 0.164707 0.251094 -0.086783 -0.151856 -0.319765 -0.363305 0.018591 0.170454 -0.049337 -0.325859 -0.417873 -0.406989 -0.513541 -0.051601 -0.192546 -0.260963 0.142696 -0.122305 -0.140372 -0.180617 -0.522266 -0.125446 0.188800 -0.113715 -0.122701 -0.377175 -0.325176 -0.140298 -0.267219 -0.079479 -0.188490 0.164608 0.381783 0.142687 -0.300541 0.010065 0.501341 0.640480 0.199231 0.078799 0.546819 -0.009466 0.014776 0.040146 0.103628 0.451525 -0.387555 0.194549 -0.009046 -0.566422 0.058050 -0.176655 0.715367 -0.025213 -0.887960 -0.582896 0.070221 0.338084 0.117972 0.081196 0.443303 -0.030323 -0.095015 0.100403 0.032202 0.007374 0.152131 -0.462078 0.049699 0.283756 0.081316 -0.666549
dividend -0.407616 -0.073585 0.404018 0.372064 0.435027 -0.396051 -0.138684 0.018743 -0.478947 0.477711 0.010634 0.091316 0.111772 -0.179015 0.183429 -0.399784 0.205320 0.293784 -0.048978 -0.283883 -0.490797 0.626781 0.252058 -0.192354 -0.153327 -0.612634 -0.412613 -0.357834 0.198658 0.016702 -0.577732 0.218700 -0.622062 -0.048304 -0.535006 -0.813355 0.571348 0.371048 -0.220325 0.375625 0.427101 0.309833 -0.768266 -0.236558 -0.307429 0.740173 0.276659 -0.519158 0.146809 0.125102 -0.065674 0.309982 -0.182498 0.106866 0.082834 0.079588 0.176602 -0.198801 0.083244 0.569285 0.356286 -0.047708 0.355060 0.126080 0.317984 -0.130843 -0.564393 -0.247614 -0.226573 0.103861 0.220972 -0.600114 -0.232503 -0.649656 -0.848538 0.301754 -0.303740 -0.054127 -0.476518 -0.358445 -0.013255 0.383753 -0.059601 -0.717231 0.323791 0.886118 -0.446032 0.070418 0.287373 0.574633 0.763497 -0.024147 -0.228263 0.947551 -0.199813 0.899235 -0.073509 0.184357 0.394720 -0.536057
business -0.284875 -0.178313 -0.205314 0.133346 0.045742 0.194810 0.101143 -0.460013 0.011816 -0.021756 0.198801 0.191133 -0.269295 -0.062115 -0.292991 0.173078 0.833271 0.017387 -0.248569 -0.257808 0.140954 -0.155233 0.471947 0.004715 -0.089916 -0.160614 -0.148535 0.150757 0.148319 -0.124260 -0.316165 0.150805 -0.024688 0.466543 -0.531943 -0.001482 0.081135 -0.101050 -0.113006 -0.199931 -0.516337 -0.084071 -0.353226 -0.608592 -0.022633 0.292534 -0.036308 0.093278 -0.389921 0.012509 -0.009742 -0.290662 -0.231634 0.430343 -0.288050 -0.204916 0.274242 0.278051 -0.226294 -0.116606 -0.050627 -0.271641 -0.162740 0.090565 -0.124477 0.324777 0.250481 -0.070584 0.231905 0.263462 0.039101 0.150162 0.297413 -0.451022 -0.438906 0.204610 -0.318446 0.177036 -0.281423 -0.216388 -0.287184 0.235828 -0.272682 -0.173736 0.363324 0.195592 0.083838 0.059573 0.297668 0.501322 -0.286958 -0.282535 -0.023724 0.378107 -0.301177 -0.125980 0.106984 -0.253199 0.116958 0.054977
industry -0.236048 -0.041065 -0.029742 0.132982 -0.127843 -0.137211 0.002728 0.285423 0.098079 -0.164433 -0.068099 0.602271 -0.466971 0.261203 0.038440 0.176890 0.225423 0.337613 0.057309 -0.051611 -0.384332 -0.083619 0.545637 -0.058540 0.257474 -0.214878 0.260621 0.074087 0.056097 0.286977 0.103843 0.060958 -0.677667 -0.248017 0.041617 -0.369273 0.394152 -0.015296 -0.713899 -0.214119 -0.046181 -0.087683 -0.073585 -0.382396 -0.189223 0.335797 -0.230914 -0.129115 -0.595043 -0.048348 -0.411061 -0.065966 0.286859 0.387776 -0.217253 0.149929 0.017167 0.088098 -0.422679 -0.012022 0.071375 -0.394610 -0.399114 -0.253507 -0.376666 0.530246 0.291824 -0.236843 0.075638 0.404488 0.001719 0.043513 0.587665 -0.164501 -0.447535 0.035277 0.041930 -0.368988 0.064021 -0.171166 -0.244062 0.541300 -0.608417 0.003181 0.078269 -0.427826 0.220451 -0.141118 0.406026 0.152937 -0.323926 0.195280 -0.138264 0.200328 -0.273061 -0.372077 -0.270052 0.216452 0.366525 -0.030142
growth -0.307494 -0.270583 0.094278 -0.085698 0.323637 -0.060474 0.167093 0.373925 0.018243 0.260286 0.175698 0.537544 -0.363815 -0.692726 -0.172137 0.175143 0.263089 0.009606 -0.173102 0.008570 -0.038341 0.170238 0.087427 -0.604043 -0.035968 -0.530506 -0.398569 -0.147517 0.053806 0.126708 -0.311378 0.280916 0.331195 -0.074558 0.010367 -0.805442 -0.062524 -0.335022 -0.087133 -0.250364 -0.006107 0.476082 -0.160838 -0.717977 0.193905 0.235330 0.090343 0.153370 -0.411031 -0.082115 -0.164658 0.684555 0.375976 0.290406 -0.055751 0.337196 0.030234 -0.051026 0.084039 -0.551204 -0.339092 -0.854223 0.392006 -0.151474 -0.482347 0.064320 0.055855 -0.328990 0.289383 0.072192 -0.093267 -0.426066 0.121593 -0.345443 -0.479950 0.342202 -0.800854 -0.305554 -0.327503 -0.360056 0.310622 0.280552 -0.528424 -0.354268 0.108852 0.080563 -0.074233 -0.229884 0.729486 0.502689 0.164933 -0.363087 0.010969 0.198606 0.123924 -0.339292 -0.462414 0.377276 0.114721 0.178021
exchange -0.013797 0.175998 0.403312 0.282889 0.269662 -0.093546 0.044940 -0.289712 -0.548525 -0.085960 0.158977 0.719363 -0.297694 -0.040610 0.183216 -0.060461 0.555346 0.085376 0.207304 0.344221 -0.017163 0.246471 -0.067547 -0.678609 0.232907 -0.571468 0.285884 0.192422 -0.322232 -0.152593 -0.514775 -0.378945 -0.124436 -0.408103 -0.167010 0.118762 0.114827 0.261529 -0.365570 0.278653 -0.504882 1.007843 0.096306 -0.250550 0.656894 0.293860 0.002603 0.035346 -0.020451 -0.511630 0.416983 0.143094 0.248287 -0.046435 -0.286013 0.355593 -0.114004 0.475079 -0.217762 -0.377046 -0.009057 -0.118176 0.286768 0.081278 0.119002 0.502776 0.361530 0.001256 0.011090 0.131983 0.220245 0.105488 -0.245111 -0.150679 -0.090340 0.085017 -0.523469 -0.729418 -0.506471 0.216003 0.058218 0.144475 -0.263255 -0.495493 0.291336 0.593140 0.004353 0.230199 0.166433 0.453366 -0.003293 -0.153330 -0.453740 0.242390 -0.156710 0.625848 0.069179 -0.331985 -0.216333 -0.519346
statement 0.334224 -0.508260 0.331888 0.265611 -0.218990 -0.280986 -0.037350 -0.138437 -0.028324 0.122950 0.064533 -0.384633 -0.527671 -0.304114 -0.171919 0.569382 0.489887 0.355455 0.093020 -0.108884 -0.381898 -0.037151 0.531034 0.201581 0.502855 -0.223204 -0.177688 0.010964 0.373018 -0.489888 -0.153871 0.126728 -0.600182 0.066961 -0.530078 0.017041 0.281455 -0.022250 0.252161 -0.017509 -0.527872 0.286791 0.088926 -0.073138 0.005068 -0.390594 -0.355320 -0.270264 -0.273355 -0.189418 -0.367740 0.181343 0.125763 -0.014380 -0.099522 -0.038805 0.141207 -0.313521 0.133912 0.047834 0.011422 0.205749 0.073765 0.076039 0.391952 0.442649 0.399773 0.122496 -0.021812 0.137157 0.304870 -0.389888 0.452155 -0.365723 -0.167235 -0.130450 -0.078877 -0.715508 -0.282617 -0.541377 -0.158109 -0.084076 -0.321323 -0.647718 0.127998 0.436289 0.171244 0.188597 0.125284 0.296481 -0.371290 0.473587 0.137368 -0.107117 0.064696 0.115464 -0.416204 -0.188321 0.071780 -0.279368
major -0.418423 -0.168493 0.398480 -0.014767 0.167414 0.284652 -0.145539 0.271301 -0.061396 0.727596 0.383140 0.294138 -0.353707 0.075542 0.004605 0.561635 0.032289 0.012475 0.268717 0.036384 -0.353427 0.141262 0.161752 -0.578776 0.113991 -0.146024 -0.014828 0.196438 0.301080 0.107705 -0.357235 0.073306 0.038667 -0.221876 -0.155089 0.078674 0.377901 0.177575 0.195050 0.026562 -0.113817 -0.051533 0.229723 -0.648795 0.126008 -0.074538 0.027809 0.267200 -0.294565 -0.267207 0.127369 -0.153571 0.113558 0.177263 -0.056686 0.427954 -0.164333 0.246322 -0.187273 -0.366053 -0.391022 -0.028876 -0.268299 -0.514913 0.255008 0.416993 0.212328 0.106751 -0.095827 0.364553 0.032177 0.239625 0.122599 -0.017800 -0.459434 0.175554 -0.449007 -0.376564 -0.174744 -0.020758 -0.090278 0.022258 -0.725865 -0.488831 0.101197 0.178874 0.182127 0.132413 0.231932 0.285627 -0.172069 0.019093 0.082562 0.104078 0.133195 -0.037779 -0.016518 -0.057099 0.292056 0.005562
dollar 0.063974 0.436210 0.733783 0.024990 0.223875 -0.131879 -0.163905 0.054189 -0.107418 -0.269675 0.429038 0.524165 0.036316 0.396763 -0.000282 0.320179 0.429033 -0.359498 0.035756 -0.231794 -0.027156 -0.252828 0.417896 -0.786353 0.360026 -0.594904 0.371989 -0.198380 -0.034999 0.632617 -0.213915 -0.152242 0.029795 -0.118420 -0.113593 -0.579187 0.120515 -0.578402 -0.087206 -0.176082 -0.547629 0.534991 -0.079332 0.172304 0.654707 0.478556 0.500262 0.262311 -0.183522 -0.127354 0.405190 0.165816 0.218753 -0.125976 -0.167098 0.532730 0.338195 0.253486 0.311041 -0.468135 0.159696 -0.013192 0.054931 -0.055072 0.384506 0.264181 0.580784 0.059589 0.161510 -0.351167 0.531343 0.154440 -0.256548 -0.025850 -0.421465 -0.189533 -0.954892 -0.543056 0.051204 -0.019259 -0.125855 -0.020748 -0.492884 -0.364903 -0.117030 0.519735 -0.256954 0.062066 0.187989 0.562448 0.005990 -0.136280 -0.364745 1.049850 -0.233295 0.007639 -0.473827 0.337457 0.458126 -0.304450
buy 0.096941 -0.307915 -0.042484 0.196211 0.095210 -0.057406 0.091129 -0.183899 0.058123 0.327228 0.016583 0.504334 0.127685 -0.312605 0.107156 0.664722 0.380887 0.150102 0.332639 0.070167 0.330016 0.106410 0.061114 -0.243968 0.603775 -0.499000 -0.266466 0.449210 -0.213677 0.788698 0.504865 0.284482 -0.337411 -0.010159 0.071354 -0.069323 0.370509 0.208492 -0.361822 -0.179768 -0.017089 0.229082 -0.378465 -0.078457 -0.056851 -0.200970 -0.224530 -0.323426 0.253915 0.167953 -0.056846 -0.325402 0.506324 -0.573759 -0.457538 -0.520824 0.289221 0.087486 -0.435018 -0.022245 0.273785 -0.025704 0.391890 -0.013577 -0.206077 0.434198 0.013569 0.457887 0.421108 0.795832 0.152182 0.509731 0.550871 -0.892019 0.324075 -0.180177 -0.508555 0.313596 -0.383371 0.102983 -0.077545 -0.113314 0.037793 -0.416009 -0.027845 0.342742 0.252989 0.583123 0.325724 -0.182233 0.086495 0.194183 -0.104294 0.435183 -0.166953 0.195487 0.284485 0.554502 0.487163 -0.347930
stake -0.189246 -0.880297 0.440341 -0.357780 0.134302 -0.028071 -0.023067 -0.331085 0.165753 0.499949 0.240790 -0.369818 -0.366369 0.274295 -0.042515 0.649954 -0.059412 -0.064240 0.347206 -0.720063 -0.173888 0.315272 0.192023 -0.260511 0.740087 -0.161140 -0.222109 0.386895 0.486899 0.478960 0.111332 0.130560 0.348544 -0.074540 -0.244411 -0.207185 0.263681 -0.177775 -0.286247 -0.398316 0.264348 0.490601 -0.348559 -0.862410 -0.301073 -0.102849 -0.430114 -0.445637 0.300022 -0.327127 0.190395 -0.187403 0.019276 -0.542483 -0.754136 -0.414161 0.820323 -0.068401 0.027378 0.231179 0.197822 -0.251349 0.213283 0.708476 0.449716 0.257662 0.125742 -0.333603 0.161249 0.631567 -0.229599 -0.414938 0.625051 -0.200284 -0.022906 0.492826 0.086288 0.031679 -0.705494 -0.205098 -0.209483 -0.220686 0.146406 -0.671872 0.016136 0.603487 0.571219 0.099176 0.029948 -0.215975 -0.470522 0.189478 0.240508 0.874142 -0.291248 0.683542 0.421110 0.570491 0.592145 -0.142077
acquisition -0.347242 -0.165536 -0.146797 -0.322436 -0.285924 0.294773 -0.287825 -0.505030 -0.028181 -0.327631 0.132872 0.537470 -0.463367 -0.361336 0.021328 0.599479 0.092733 0.293276 -0.047673 0.010397 -0.471262 0.345089 -0.062074 -0.405795 -0.156303 0.034977 -0.260020 0.371506 0.655162 0.451881 0.011548 0.360447 -0.412087 -0.173675 -0.454134 -0.358866 0.425086 0.033392 0.110072 -0.171826 -0.201265 0.059443 -0.513549 -0.678901 -0.385848 0.178436 -0.141358 -0.031137 0.189765 0.273639 -0.288510 -0.182295 -0.056766 0.175755 0.048409 -0.100781 0.438423 0.353267 0.304460 0.021844 0.106689 -0.327541 -0.484933 0.122351 0.013405 -0.034359 0.076451 0.191625 0.204102 0.220895 0.382536 0.251304 0.100229 -1.009164 -0.128113 0.363775 -0.555018 0.068016 -0.324824 -0.350924 -0.221325 0.143404 0.458277 -0.308958 0.238959 0.245142 -0.114855 0.670340 0.020492 0.070812 -0.008079 -0.501928 0.025122 0.047498 -0.238808 0.365829 -0.239595 -0.072067 0.360141 -0.102842
time -0.018431 -0.374261 0.039370 0.172724 0.417702 0.215262 -0.618428 0.229503 -0.203574 0.301956 -0.235736 0.110051 -0.255234 -0.329654 -0.147227 0.282437 0.140848 0.002633 0.078130 0.041630 0.237715 0.282964 0.345584 -0.563666 -0.372717 -0.353160 0.220669 -0.293189 0.271517 0.187418 -0.470388 0.051466 -0.043846 -0.139133 -0.121450 0.033023 0.433034 -0.192228 -0.065269 -0.252947 -0.284241 -0.106490 0.290490 -0.527606 0.288427 -0.070995 -0.150039 -0.220683 -0.003713 0.076583 0.075956 -0.438702 -0.009634 0.006734 -0.099305 -0.142681 -0.076485 0.583551 -0.155601 -0.206711 -0.073993 0.060301 -0.239649 0.076632 0.227170 0.227442 0.281832 -0.302992 0.241043 0.382841 0.327407 0.120548 -0.067300 -0.131632 -0.381055 -0.044362 -0.121321 0.010153 -0.231598 -0.176830 0.213976 0.022095 -0.234689 -0.070453 0.217016 0.215625 -0.161041 0.062115 0.419916 0.159936 -0.381121 0.299579 -0.536585 0.466955 -0.296960 0.256205 -0.158546 0.044684 0.646449 -0.149135
reported -0.093205 -0.235866 0.454441 0.078371 0.170173 -0.088640 -0.659208 0.080515 -0.023454 0.471665 0.061405 0.084554 -0.314660 -0.409579 -0.179926 0.147532 0.215837 0.032443 0.195441 -0.049407 -0.892762 0.215832 0.195606 -0.168780 0.251638 -0.272284 0.368464 -0.090314 0.871734 -0.121743 -0.157276 0.044535 -0.964464 0.155038 -0.277971 0.197371 0.302909 -0.157202 -0.033332 -0.551539 -0.340453 0.291054 0.034994 -0.575498 -0.038483 -0.098219 -0.000359 -0.151676 -0.219918 0.010568 -0.519812 -0.059093 -0.070536 -0.208827 0.159864 0.207570 0.497915 -0.189735 0.394586 0.106811 -0.318507 0.099233 0.252440 0.133860 -0.085434 0.133812 0.348380 -0.028154 0.519802 0.257511 -0.449086 -0.404099 0.310864 -0.127709 -0.049938 0.298951 0.083533 0.197912 0.002492 0.045748 0.090155 -0.616417 0.058698 -0.546623 0.145380 0.321958 -0.491146 0.099968 0.280276 0.299187 0.075557 -0.055103 -0.290371 0.515875 0.031098 -0.336255 -0.122578 -0.334193 -0.307042 -0.050971
world -0.602510 -0.040479 0.396650 0.272956 -0.007383 -0.308758 0.035605 0.389443 0.197335 0.205526 0.333975 0.578612 -0.346796 0.051721 0.104123 0.161662 0.215675 -0.167195 0.398192 -0.099635 -0.697675 0.148001 -0.060698 -0.545754 0.277060 -0.440032 0.219274 0.255089 0.610345 0.264229 -0.053235 0.132962 -0.071187 -0.366553 -0.047840 -0.299192 0.200252 -0.358414 -0.389775 0.139176 0.037994 0.232901 -0.285881 0.106152 0.260054 -0.124992 -0.046478 -0.027066 -0.533397 -0.234337 0.118942 -0.276377 0.105344 0.467259 -0.213231 0.097048 -0.127632 -0.153152 -0.396417 -0.402552 -0.399962 0.365155 -0.102331 -0.260760 -0.147747 0.517719 -0.068339 -0.137741 0.346899 -0.043290 0.214885 -0.075863 -0.169770 0.203640 -0.474786 0.257774 -0.412814 -0.677070 -0.070159 0.143035 0.107547 0.630683 -0.328774 -0.639929 0.347064 -0.096590 0.448120 0.148436 0.102336 -0.266785 -0.123434 0.057842 0.214434 0.279121 -0.545076 -0.383856 0.028845 0.531352 0.124909 -0.214342
debt -0.036254 0.113141 0.169357 0.051411 0.892495 -0.097425 -0.026848 0.098848 -0.008545 0.246715 0.222578 0.515766 -0.771476 -0.053744 -0.200019 -0.048833 0.449301 0.099564 0.406416 0.138223 0.422667 0.155463 -0.006591 -0.505874 -0.521813 -0.130155 -0.060440 0.716767 0.493028 0.163250 -0.229166 0.301305 -0.096169 0.213352 0.071620 -0.172479 -0.008537 0.127496 0.358664 0.514532 -0.536865 -0.300618 -0.006516 -0.872097 -0.179239 0.858061 -0.041841 -0.066893 0.153217 -0.731791 0.299933 0.223809 -0.272316 -0.000028 -0.586252 -0.562217 0.028500 0.107061 0.269360 -0.224058 0.374902 -0.370222 -0.009879 0.074508 0.165594 0.296805 0.201131 -0.106080 0.274415 -0.388632 0.010628 -0.094063 -0.288206 -0.738211 -0.201069 -0.043708 -0.062555 -0.260313 -0.165529 0.423793 0.417791 0.020237 -0.149429 -0.081179 0.110598 0.622505 0.129824 -0.169650 -0.074047 0.450211 -0.308171 0.143639 0.197244 0.894730 0.248156 0.106630 -0.351672 0.342358 0.256187 -0.478811
record 0.376616 0.401459 0.344914 -0.269241 0.306955 0.054541 -0.194069 0.237870 -0.034136 0.777846 0.138495 0.158484 -0.154639 -0.453335 0.319226 0.092416 0.581040 0.008772 -0.091341 0.119271 -0.289395 0.670084 -0.386017 -0.115509 -0.286303 -0.587218 -0.195049 -0.348616 0.382467 -0.348587 -0.491371 0.221536 -0.831329 -0.605807 -0.573524 -0.223046 -0.003453 -0.132843 -0.369569 0.511561 -0.223270 0.114509 -0.206908 0.143164 0.143121 0.445054 0.198995 -0.339381 -0.072103 0.229284 0.100451 0.058582 0.345882 0.552655 -0.321761 0.422022 0.384359 -0.351426 0.324511 0.451520 0.241942 0.313235 0.154759 -0.134314 -0.639167 0.310116 -0.379789 -0.027188 0.319249 0.084954 0.021302 -0.204016 -0.515834 -0.422323 -0.709241 0.283957 -0.555806 -0.037358 0.127305 -0.277087 0.357002 0.265239 -0.990423 -0.316099 -0.065571 0.634369 -0.070645 -0.261672 0.123044 0.163161 0.837076 0.114249 -0.214541 0.737896 0.165700 0.200151 0.121564 -0.252640 0.274788 -0.134580
take -0.189626 0.108595 0.856057 0.217978 -0.376777 0.244286 -0.021340 -0.031219 -0.072322 0.514311 -0.288373 -0.022716 -0.186412 0.008117 -0.269014 0.463117 0.478246 -0.107898 -0.285741 0.256653 -0.175933 -0.280444 0.031636 -0.376288 -0.069382 -0.787491 -0.134011 0.030773 0.523834 -0.025871 0.054614 -0.173985 0.048646 0.187454 -0.150334 -0.415893 0.897924 -0.017156 0.071845 -0.476155 -0.012776 0.010447 0.051416 -0.145513 0.419089 0.122617 -0.123289 -0.356045 0.086119 -0.125655 0.146262 -0.089583 0.109233 0.132010 -0.209465 -0.242308 0.229366 -0.157384 -0.795798 0.626884 0.234511 0.023217 0.175835 0.069549 0.630620 -0.159962 0.505336 0.039971 0.356325 0.163960 0.392863 0.348685 0.211004 -0.404213 -0.278346 -0.015075 -0.497417 -0.216006 -0.014307 -0.704804 0.172492 0.517403 0.014042 -0.361925 -0.073077 0.226085 0.035911 -0.087295 0.502900 -0.115609 -0.462123 0.446770 -0.362287 0.044760 0.232735 -0.106494 0.253446 0.539022 0.030422 -0.192972
announced -0.083863 0.002189 -0.116544 -0.296930 0.129210 0.343034 -0.695807 -0.287143 -0.565501 0.125379 -0.265006 0.576769 -0.263467 -0.499791 0.236523 0.653207 0.385209 0.164476 -0.164949 -0.433697 -0.337774 0.299309 0.201233 0.137273 0.050712 -0.272990 -0.139886 0.297231 0.427877 -0.193622 -0.154258 -0.150262 -0.612260 0.066231 -0.554620 0.081305 0.062162 0.299336 -0.081997 -0.134323 0.029187 0.021805 -0.420633 -0.545013 -0.101618 0.035125 -0.327147 0.296203 0.015994 -0.510154 -0.373413 -0.128858 0.112211 0.073825 0.219683 -0.020496 0.468972 0.123883 -0.079404 -0.202038 -0.470075 -0.023724 -0.109067 -0.479672 0.557930 0.407466 0.209778 0.000949 0.244114 0.113318 0.095327 0.171840 0.377530 -0.741995 0.387295 0.389491 0.012199 -0.167735 -0.379983 -0.399726 -0.013325 -0.640121 -0.522294 -0.055530 -0.024956 0.276080 -0.379034 0.353644 0.641458 -0.262690 -0.037970 -0.026222 -0.329516 0.291776 -0.080048 0.469386 -0.185035 -0.176887 0.177070 -0.161318
unit -0.069475 -0.366493 -0.074739 -0.443804 -0.401974 -0.110104 -0.158110 -0.288151 0.105529 -0.060901 0.350898 0.541035 0.399990 -0.420819 -0.379921 0.417789 0.343807 0.197503 0.096436 -0.232225 -0.473673 0.565771 0.440047 0.077609 0.113936 -0.114802 -0.088366 0.162135 0.767768 0.010818 0.289140 0.308300 -0.704477 0.653343 -0.275015 -0.062476 0.276698 -0.113434 -0.055764 0.007933 -0.221149 0.304269 -0.671439 -0.119555 -0.087350 -0.068059 0.186004 -0.215715 -0.270608 0.091642 -0.132628 -0.161110 -0.401646 -0.249128 -0.268085 -0.373868 0.618604 0.099229 0.029235 0.199332 -0.010799 -0.019105 -0.047031 -0.006903 0.031071 0.104949 0.082789 -0.028717 -0.246999 0.104975 0.168252 0.106381 0.265048 -0.756472 -0.425898 0.302431 -0.214487 0.379968 -0.102548 0.171890 -0.122721 0.049854 -0.356032 -0.056421 0.061837 0.150959 -0.030083 0.024327 0.174270 0.132155 -0.339164 -0.290551 0.133956 0.504224 -0.327163 0.020509 0.376121 0.106062 0.111525 0.073087
down 0.084997 0.116849 -0.099084 0.114286 0.399337 0.078717 -0.047396 0.323613 -0.014470 0.313504 0.102265 0.202149 -0.207152 -0.867571 -0.194860 0.192383 0.178273 -0.239515 0.463948 -0.251646 0.095705 -0.167781 0.315410 -0.154994 -0.316420 -0.600027 -0.093183 -0.564624 0.620167 0.286452 -0.295209 0.129404 -0.769556 -0.413909 0.022426 -0.249542 0.119106 -0.100590 0.196934 -0.499816 -0.249847 -0.285369 -0.135609 -0.053275 0.470380 -0.085138 0.030984 -0.384511 0.129120 -0.307902 0.232800 -0.213873 0.121123 0.247647 -0.189292 0.036396 -0.056706 0.118761 0.192989 -0.337859 0.113982 -0.302562 -0.177769 -0.675903 -0.032853 0.060168 0.370812 -0.055698 0.520284 0.289408 -0.413692 -0.174699 0.078400 0.018622 -0.388325 -0.070978 -0.646793 -0.256193 0.232702 0.275203 -0.066361 -0.150266 0.044060 -0.183431 -0.206868 0.314202 -0.519711 0.288613 0.352663 -0.490166 0.129328 0.079443 0.301869 0.582332 -0.009756 -0.149190 0.217581 0.194725 -0.009100 0.427516
assets -0.504788 0.110749 0.126183 -0.423016 0.367186 -0.004968 -0.296006 -0.668813 -0.222873 0.080176 0.239423 0.562946 -0.186082 0.127964 0.312417 0.229599 0.613966 0.137079 0.354769 0.009642 -0.196464 0.077269 -0.245719 -0.226807 -0.005697 -0.068472 -0.344961 0.509270 0.304395 0.277548 0.143542 0.360925 -0.443389 0.282087 -0.141379 -0.185196 0.235261 -0.361073 -0.174526 -0.325250 -0.411527 -0.314411 0.280745 -0.738908 -0.057044 0.103398 -0.115994 0.166790 0.041370 -0.273019 -0.359816 -0.261692 -0.127135 -0.404344 -0.233477 -0.060766 0.217840 0.243380 0.240503 -0.164846 0.136368 -0.116402 -0.243497 0.212994 -0.077460 0.232619 0.106572 -0.205149 -0.029089 0.138207 0.158034 0.283176 -0.088311 -0.510531 -0.344595 0.002500 -0.295565 0.295779 -0.466578 0.353332 0.084688 -0.129902 0.241208 -0.175759 0.284701 0.816904 0.238035 0.651850 0.175570 0.554502 -0.448374 -0.319310 -0.390386 0.733736 -0.137400 0.259143 0.119073 0.141749 -0.216262 0.317395
out 0.083615 0.326676 -0.106641 -0.048497 0.074649 0.195478 -0.174172 0.116942 0.069367 0.279115 0.142725 0.353141 -0.180054 -0.158396 -0.269435 0.356090 0.540988 -0.179690 0.215114 0.057737 0.084590 -0.047848 0.276921 -0.105433 -0.193513 -0.554181 -0.098473 -0.180621 0.427374 0.091059 0.042140 -0.468109 -0.133339 -0.112277 -0.037895 -0.368150 0.176459 -0.279041 0.051908 -0.204738 -0.254252 -0.151664 0.174546 -0.311313 0.190982 -0.175746 -0.277221 0.060063 -0.047248 -0.336278 0.178476 -0.100413 0.085387 0.002095 -0.239836 -0.345479 -0.177774 0.110491 -0.226391 0.190337 0.172116 -0.121877 -0.325450 -0.156764 0.326813 0.074269 0.253772 -0.105705 0.506300 0.271906 -0.277400 -0.043634 0.433870 0.039682 -0.271471 -0.208905 -0.237294 -0.442126 -0.175767 -0.475995 0.381841 0.573952 -0.234893 -0.522648 -0.335961 0.261977 -0.109389 -0.354679 0.257785 0.088525 -0.319742 0.120321 0.103888 0.339087 -0.022952 -0.129714 -0.118565 0.172627 0.219329 -0.295112
his 0.212322 -0.210293 0.234558 0.220452 0.224882 -0.152032 0.011948 0.883244 0.057196 -0.109403 0.225814 0.084452 -0.622175 -0.116850 -0.230233 0.057431 0.326034 0.559105 -0.041198 -0.227138 -0.388331 0.338113 0.077445 -0.539892 0.142059 -0.249112 0.038241 0.110336 0.213493 0.179490 -0.435283 -0.363907 -0.225845 0.118221 0.018020 -0.186749 -0.185818 -0.031471 -0.280331 -0.126337 -0.623535 0.334441 0.105316 -0.119602 0.447691 0.366677 -0.473412 -0.517633 -0.333414 -0.087802 0.243181 0.399252 0.005678 -0.170523 -0.325326 -0.596165 -0.038812 0.013226 -0.283677 0.296063 0.206434 -0.168959 0.147284 -0.454215 0.186310 -0.002468 0.295828 0.259161 0.503609 0.485041 0.038242 -0.715888 0.508886 -0.039473 0.234428 0.370407 0.015571 -0.130342 -0.293574 -0.080035 0.012091 0.533739 -0.353189 -0.450798 -0.100827 0.040379 0.116166 0.225755 0.288664 0.087378 -0.064454 0.502882 0.400909 0.010345 -0.252933 0.114814 -0.259499 -0.084552 0.269658 -0.496245
period 0.024797 -0.139049 0.044168 0.061924 0.608547 -0.167183 -0.207054 0.041251 -0.505749 0.256736 -0.360790 -0.275912 -0.480597 -0.366538 0.092658 0.304045 0.442926 0.173635 -0.384928 -0.016655 -0.062230 0.009813 0.486702 -0.334647 -0.432000 -0.060332 0.388201 -0.381442 0.209267 0.268584 -0.160548 0.145579 -0.414113 0.111529 -0.487954 -0.281853 0.538613 -0.050081 -0.251861 -0.370909 -0.240630 0.501354 -0.014998 -0.299515 0.088077 0.001764 0.046160 -0.313849 -0.216367 0.234219 -0.520877 0.162886 -0.056530 0.423949 -0.040582 0.469744 -0.229028 0.362071 -0.029038 -0.130902 0.091679 -0.063596 0.141711 0.048348 0.003419 0.401004 -0.289989 0.024772 0.457526 0.235835 -0.077975 -0.346809 -0.161904 -0.402090 -0.286936 -0.557867 -0.382876 -0.343302 0.156677 -0.383990 0.283136 -0.077910 -0.017393 -0.499494 0.624927 0.209894 -0.086562 0.227409 0.047485 -0.107743 0.153283 0.631754 -0.326857 0.154916 0.102423 0.023488 -0.132925 0.149520 -0.172671 0.071333
plan -0.265321 -0.111675 0.006727 -0.136813 0.150114 -0.038403 0.146955 0.508009 -0.098209 0.018823 -0.426512 0.162779 -0.322059 -0.299188 -0.095388 0.270775 0.658548 0.495108 0.259634 -0.288170 -0.633011 0.136659 -0.119263 0.157195 -0.180964 -0.307172 -0.068695 0.307595 0.273704 0.096794 0.196845 -0.057079 -0.151049 0.414262 0.261536 -0.128562 0.591026 0.506224 -0.265842 -0.043933 0.034129 -0.077055 0.019395 -0.492829 -0.210560 0.472061 -0.425617 -0.189810 -0.240626 -0.074574 0.011457 0.074763 0.004326 0.140347 -0.094975 -0.102195 -0.273492 0.197886 -0.311848 -0.205592 0.181748 0.202679 -0.207115 -0.410626 0.091353 0.450948 0.312674 0.169109 0.166275 0.121003 -0.196289 0.013180 0.378269 -0.584545 -0.083174 0.224264 0.471059 -0.070641 -0.368606 -0.142216 0.571786 0.358482 -0.521472 -0.262165 -0.189980 0.453129 0.220886 -0.145506 -0.013079 0.039799 -0.295154 0.192745 0.005947 0.608292 0.220116 0.435224 -0.318365 0.346638 0.517726 -0.550331
report 0.221130 -0.336159 -0.205478 -0.151871 -0.246641 -0.091719 -0.099057 0.506111 0.497910 0.193093 0.195923 0.188249 -0.558004 -0.548252 -0.234119 0.552614 0.139694 0.238599 0.126580 -0.125527 -0.377486 -0.175261 0.405144 -0.317674 -0.226513 -0.436152 0.192705 0.502829 0.374433 -0.349636 -0.115738 0.373333 -0.502109 0.242724 -0.090584 -0.136244 0.086578 -0.054899 -0.039850 -0.367784 -0.195212 0.454475 -0.018155 -0.193135 0.099661 -0.036284 -0.087654 -0.138080 -0.300299 0.156011 -0.409532 -0.281972 0.301280 0.215312 0.271644 0.153084 0.021214 -0.425315 0.300081 -0.116888 -0.304015 0.127636 0.254759 -0.209808 0.076618 0.101600 0.130808 -0.244599 0.576177 0.147015 0.287112 -0.667023 0.281675 -0.074052 -0.346446 0.505970 -0.027904 -0.005581 0.126905 -0.121468 0.028457 0.360156 -0.261474 -0.437674 0.035067 0.327210 -0.450287 -0.106965 0.310116 0.405413 -0.245507 -0.251272 -0.011741 0.389196 -0.295935 0.221031 -0.139817 0.176302 -0.445538 -0.256956
cut -0.000191 0.165218 0.155693 0.084154 -0.232207 -0.026355 -0.060788 0.140687 0.094173 0.293432 0.232172 0.296191 -0.079541 -0.276451 -0.231448 0.235571 0.215057 0.047842 -0.284971 0.010144 -0.502426 0.619490 0.317516 -0.209279 0.157427 -0.811743 -0.182040 0.086778 0.326374 0.433469 0.180053 0.110530 -0.231709 -0.460652 0.207874 -0.453299 -0.268299 -0.167366 -0.075211 -0.674199 0.185012 0.127658 -0.139862 -0.009488 -0.040823 0.135464 -0.024669 -0.197757 -0.365903 -0.515684 0.235413 0.028312 0.139291 0.127542 -0.069607 0.234311 0.014749 -0.407385 -0.319064 -0.534671 0.027838 -0.275386 -0.069159 -0.538699 0.649253 -0.041314 0.215306 -0.273616 0.512378 0.725375 0.259730 -0.093706 0.292499 -0.219883 -0.143961 -0.096333 -0.177124 -0.389372 0.091321 -0.252263 0.516730 0.142675 -0.013097 -0.460853 -0.190426 0.083568 0.122268 -0.180009 0.685796 -0.082366 -0.135768 -0.209487 -0.113842 0.270689 0.362517 0.651128 0.199924 0.689225 0.301266 -0.076178
sell -0.226984 -0.124416 -0.105243 0.112212 -0.156153 0.278047 0.041624 0.053463 0.007771 0.249730 0.273255 0.635037 -0.352341 -0.200553 -0.432481 0.827352 0.395294 0.547506 0.065248 -0.437701 0.043319 0.095656 0.115066 -0.024166 0.375878 -0.416155 -0.249288 0.811755 -0.175913 0.228276 0.544915 0.161401 -0.281745 0.053748 -0.152265 -0.311609 0.097646 0.133702 -0.274732 -0.479645 0.127948 0.035630 -0.449946 -0.628916 -0.229518 -0.274205 0.109555 0.111522 0.169519 0.144599 0.135060 -0.251356 0.396570 -0.062261 -0.745113 -0.580827 0.676766 0.199223 -0.609356 -0.091222 0.298476 -0.078238 0.013611 0.085546 -0.225487 0.213891 0.156476 0.014078 0.053873 0.414187 -0.022392 0.582095 0.559363 -0.626370 0.062023 -0.025271 -0.397401 0.434122 -0.271704 0.167500 0.059545 -0.261403 -0.327673 -0.477656 0.093155 0.312888 -0.066742 0.232838 0.523002 -0.577033 0.141837 0.076875 0.111750 0.527735 -0.477359 0.160957 0.578584 0.425314 0.167581 -0.137535
lower -0.179500 0.245017 -0.040465 0.161714 0.041606 0.126547 -0.237193 0.136944 0.119538 0.212341 0.113784 0.610620 0.256398 -0.585061 -0.452029 0.376841 0.481912 0.166735 0.062970 -0.149811 -0.460882 0.605013 0.521800 -0.117152 0.059081 -0.600467 -0.050866 -0.257168 0.212200 0.269967 -0.007732 -0.158117 -0.478073 0.227808 -0.207704 -0.648022 0.160721 -0.256586 0.112339 -0.233879 -0.475553 0.428600 -0.474172 -0.308367 0.619554 0.021654 -0.072159 0.615299 0.012621 0.005451 0.034968 0.158025 0.180582 0.095432 0.217888 0.426730 0.271485 -0.219125 0.067951 -0.456324 -0.028463 -0.534742 -0.066453 -0.441578 0.089120 0.352955 0.494763 -0.208260 0.244618 0.055460 -0.063700 0.144054 -0.243998 -0.099914 -0.044462 -0.278862 -0.086048 -0.388787 0.105354 0.025484 0.079203 0.007804 -0.281478 -0.271533 0.139646 -0.049673 0.040072 -0.052117 0.097255 0.017521 0.267058 -0.227123 -0.063235 0.400811 0.009925 -0.097697 -0.086567 0.294814 0.366576 0.010671
trading 0.227913 -0.004361 0.656954 0.769112 -0.068787 0.403436 -0.275826 -0.296358 0.237281 0.392852 0.240720 0.160948 0.080109 -0.318184 0.386698 0.086510 0.329346 -0.019951 0.469179 -0.295758 -0.195721 -0.063229 0.230139 -0.456661 0.037255 -0.247950 -0.008810 -0.064467 0.185724 0.006456 -0.432111 -0.356132 0.025443 -0.259699 -0.555813 0.190700 0.447546 -0.410516 0.240656 -0.222908 -0.354001 0.457011 -0.164303 0.354640 0.380614 -0.177515 0.236173 -0.155972 -0.088250 -0.454088 0.295947 -0.285117 0.006736 0.586066 -0.253110 0.611146 -0.258715 0.045916 -0.274700 0.265081 0.052031 0.034357 0.040782 -0.393154 0.408419 0.355663 0.242859 -0.108495 0.182993 0.279598 0.106135 0.071196 0.157319 0.057216 -0.337008 0.261432 -0.729344 0.058148 -0.124715 -0.069419 -0.378985 0.026708 -0.419746 -0.344223 0.046029 -0.171439 0.169767 0.083256 0.304348 0.529787 -0.133495 0.126172 0.088388 0.770581 -0.071131 0.060911 -0.535647 0.183191 0.183092 -0.010868
economic -0.527520 -0.308754 0.250317 -0.008614 -0.159552 -0.187281 0.140743 0.380582 -0.306757 -0.356756 0.030646 0.853966 -0.561026 -0.146125 -0.096343 0.254357 0.341667 0.142432 0.054976 0.091002 -0.144224 0.043631 0.104594 -0.527457 -0.071820 -0.201137 -0.188109 0.025399 0.051948 0.163735 -0.323156 -0.063983 0.109792 -0.231732 -0.021160 -0.973751 0.324358 -0.278618 -0.057556 -0.173779 -0.317148 0.220838 -0.041749 -0.713746 0.284947 -0.046886 0.146291 -0.082910 -0.449719 -0.267676 -0.089412 0.879753 0.105402 0.514164 0.073413 0.259492 -0.252359 -0.069546 -0.220793 -0.680836 -0.119060 -0.248763 0.020542 -0.248838 -0.014179 0.084683 0.030959 -0.372893 0.330191 -0.229618 0.128594 -0.181941 0.504598 -0.126472 -0.170755 0.152055 -0.393258 -0.218276 -0.279105 -0.022223 0.419912 0.218172 -0.750736 -0.338992 -0.010588 0.126764 -0.152410 -0.095124 0.426186 0.545865 -0.173160 -0.068201 -0.130993 0.104023 -0.116709 -0.176137 -0.426608 0.181237 0.212888 -0.412142
income -0.348681 -0.155949 0.251894 -0.085192 0.440532 -0.375438 -0.319619 -0.089965 0.106523 0.454054 0.174300 0.093160 -0.146210 -0.535181 -0.092329 -0.172218 0.263012 0.110819 -0.328595 -0.022479 -0.679140 0.044273 0.340182 -0.359479 -0.369294 -0.332693 -0.191833 -0.108231 0.332862 0.135493 -0.366343 0.286392 -0.203134 0.182904 -0.113977 -0.515213 0.670771 -0.240348 -0.072133 -0.105532 -0.072957 -0.043002 -0.225810 -0.638611 -0.114064 0.423562 0.159520 0.438213 0.054396 -0.304516 0.022647 0.887448 -0.466851 -0.280936 0.324912 0.238971 0.716124 -0.018935 0.219938 -0.190419 -0.132433 -0.292370 0.179684 0.112999 -0.217463 0.388569 0.427432 -0.350299 0.452263 -0.164328 -0.042884 -0.742204 0.030062 -0.097040 -0.813012 -0.238204 -0.194931 -0.223017 -0.152962 -0.020489 -0.028640 -0.055198 0.573660 -0.318833 0.398181 0.273678 0.098787 0.276420 0.253828 0.935088 0.018982 -0.357674 -0.123236 0.622512 0.347403 0.358161 -0.161757 0.192121 -0.032658 0.235677
day -0.073675 0.133149 0.050680 -0.158419 0.547593 -0.213624 0.164275 0.040638 -0.344451 0.340602 0.587818 -0.045688 -0.165842 -0.635146 -0.170711 0.256636 0.234996 -0.461825 -0.328560 0.477984 -0.059756 0.074951 0.481096 -0.224654 -0.410478 -0.268600 0.100375 0.092994 0.255198 -0.082258 0.076636 0.315684 -0.763130 0.008414 0.191547 -0.163295 0.273152 -0.349555 -0.368565 -0.631163 -0.834153 0.495262 0.220507 0.595491 0.490588 0.535719 -0.338808 -0.240159 -0.088402 -0.422610 -0.199846 -0.327127 -0.466361 0.305257 0.106541 0.078342 -0.335922 0.409998 -0.497539 0.152356 0.513742 0.161599 0.229315 -0.204438 -0.387714 0.429186 -0.333220 -0.353897 0.171015 -0.166115 0.195342 0.319546 0.495669 -0.241165 0.043091 0.109360 -0.183120 -0.402946 -0.046541 -0.293422 -0.076397 -0.540989 -0.197590 -0.343979 0.229591 0.211759 0.079094 0.374263 0.277513 -0.185339 -0.353183 0.449530 0.000033 0.508468 -0.079350 -0.361630 -0.128167 0.165935 0.375114 -0.658341
eight -0.446407 -0.247115 0.388511 0.156880 0.079948 -0.224988 -0.178095 -0.066920 -0.506865 0.608741 -0.059592 0.748084 -0.173947 -0.153175 0.217949 0.121469 0.357332 -0.508486 0.288649 0.041706 -0.279201 0.235527 0.323556 -0.221317 -0.324367 0.020105 0.275111 -0.196988 0.050085 0.086684 -0.357293 0.223248 -0.331205 -0.053713 0.109917 -0.192241 0.249524 -0.158795 -0.255910 -0.410744 0.027523 0.398824 0.156122 -0.479635 -0.047535 0.114557 0.189503 -0.147408 0.336834 0.129252 -0.273276 -0.085572 -0.556262 0.281643 -0.181697 0.051927 0.162230 0.223914 -0.260087 -0.167731 0.547175 0.207208 0.058028 -0.525086 -0.130699 -0.208158 0.061685 0.186713 0.587080 -0.286931 0.231164 -0.141758 -0.089893 -0.164985 -0.176261 0.214472 -0.209306 -0.007795 -0.199284 -0.029727 0.028863 -0.115646 -0.660551 -0.135870 0.448158 -0.097430 0.008130 -0.166308 0.229216 0.010647 0.471711 0.244084 0.074234 0.305055 0.067925 0.474034 0.239951 0.125162 -0.077951 -0.304540
sugar 0.430388 0.054437 -0.256589 0.031890 -0.128006 -0.058625 -0.061303 0.630649 -0.297033 -0.129788 0.196472 -0.148971 -0.320476 -0.454761 0.098820 0.961183 0.044378 -0.417191 0.071992 -0.372091 0.120639 0.433451 0.007392 -0.198097 0.348486 -1.174356 0.226591 -0.178481 0.189740 0.662312 -0.218082 -0.548770 0.100199 0.092005 0.333021 -0.515642 0.192478 -0.114689 -0.501610 -0.319017 -0.030729 0.342029 -0.185153 0.100091 -0.606483 0.512420 0.867904 0.666083 -0.340467 -0.170106 -0.226798 0.261279 -0.297238 -0.152748 0.140976 0.049661 0.240019 -0.077091 -0.653224 -0.537259 0.279390 -0.003151 -0.570211 -0.241239 -0.563121 0.479777 -0.497436 0.035507 0.194733 0.499680 -0.718361 -0.069721 0.137408 -0.547406 -0.183970 0.536468 -0.140971 0.224347 0.201977 -0.448451 -0.134110 0.297014 -0.708962 -0.380364 0.503308 0.420712 0.210893 0.171254 -0.168089 -0.463366 -0.080788 0.844056 -0.098228 0.374854 -0.470321 -0.152378 -0.097129 0.144509 0.000051 -0.365083
credit -0.242879 0.022100 0.118584 -0.312160 0.524001 -0.210754 0.279717 -0.197258 -0.520727 -0.033040 0.177266 0.347142 -0.704615 -0.157096 0.225297 0.320991 0.657162 0.073677 0.316921 0.661419 0.331855 0.091881 0.143202 -0.128011 -0.148287 -0.179244 -0.419281 -0.015654 0.492074 0.010478 -0.087127 0.222375 -0.523993 0.641557 0.062032 0.011773 0.555535 0.311951 0.425225 -0.269491 -0.021676 -0.375413 0.246529 -0.571533 0.000726 0.474925 -0.123125 0.311463 -0.737206 -1.134573 0.144886 0.391238 -0.100226 -0.307452 0.061881 0.011326 0.147228 0.017289 -0.199196 -0.444535 -0.317625 -0.291294 -0.343167 0.252452 -0.235329 0.278511 -0.059339 -0.178721 0.289086 -0.394553 0.252218 0.099619 -0.523606 -0.041037 -0.248009 -0.145520 -0.030213 -0.164524 -0.233500 0.233366 0.132432 -0.156129 0.207748 -0.305739 -0.218431 0.202002 0.283151 0.129232 0.727355 0.276118 0.214440 0.047042 -0.284080 0.126966 0.419139 0.761083 0.027670 0.289016 0.146354 -0.072735
acquire -0.062426 -0.187516 0.054376 -0.063910 -0.340677 0.229328 0.286071 0.000210 -0.016655 0.183048 -0.038198 0.560633 -0.091478 -0.326603 -0.121420 0.620355 0.492102 0.546244 -0.011231 -0.182744 0.042379 0.253318 -0.054237 -0.232617 0.343266 -0.174198 -0.219507 0.545502 0.124079 0.361655 0.360714 0.536299 -0.695151 -0.135766 -0.474542 -0.314574 0.305307 -0.027419 -0.433664 -0.338012 -0.165827 0.456411 -0.520712 -0.362464 -0.133428 0.037718 -0.227254 -0.142196 0.670946 -0.101953 0.085720 -0.085396 0.136392 -0.831107 -0.440843 -0.602223 -0.168529 0.389877 0.079841 0.007971 0.012101 -0.074612 0.433665 0.046595 -0.242117 -0.098825 -0.116969 0.191784 -0.037627 0.619437 0.386155 0.363911 0.865825 -0.877323 0.250308 0.086559 -0.887145 0.764208 -0.691962 -0.123900 0.036163 -0.155543 0.002564 -0.666722 0.269388 0.358406 0.032974 0.994780 0.459287 0.172380 0.308911 0.102489 0.032128 0.173440 -0.193824 0.246046 0.107853 0.104990 0.050281 -0.264313
term 0.028508 -0.240087 0.115022 -0.021465 0.554152 -0.353611 0.048705 -0.535908 0.075630 1.006844 0.122263 0.033389 -0.687287 0.042943 -0.177779 0.587744 0.680861 -0.342398 -0.145152 0.151221 0.402093 -0.013919 0.319353 -0.835105 -0.282627 -0.404812 -0.672962 0.337827 0.019668 0.159516 -0.036435 0.251176 -0.238648 0.382733 0.121850 -0.698775 0.253286 -0.100479 -0.032078 0.252460 -0.100172 0.493420 0.012677 -0.437767 -0.051539 0.435690 0.114663 0.054094 -0.212847 -0.495824 0.618467 0.454104 0.154362 0.492840 -0.562887 -0.208829 0.812802 0.206921 -0.158293 -0.668764 -0.022044 -0.554803 0.077624 -0.553104 0.106627 0.043078 -0.005210 -0.112296 -0.123659 0.051818 0.382457 0.025656 -0.254684 -0.208201 -0.155140 -0.494853 0.174292 -0.219051 0.023228 0.477484 -0.021510 -0.183512 -0.220262 0.090973 0.098820 -0.022549 0.359583 -0.080444 0.739551 0.683996 0.006024 0.250572 0.265606 0.561947 -0.095428 0.226501 -0.540115 -0.037404 0.281804 -0.187968
capital 0.080092 -0.146071 0.311922 0.217497 0.251149 -0.233256 0.276416 -0.449373 -0.300305 0.557282 -0.212774 0.272903 -0.312378 -0.032739 0.158204 0.157338 0.216203 0.081648 0.418099 0.374507 0.028532 0.004645 0.106745 -0.312705 0.122253 -0.727207 -0.148616 -0.111906 0.096226 0.266655 -0.222818 0.069308 0.247000 -0.050726 -0.143684 -0.119668 0.149989 0.018342 -0.356065 0.144195 -0.238211 0.167131 0.092226 -0.334414 0.192988 0.026044 0.051140 -0.442230 0.260677 -0.436982 0.068716 0.035393 -0.219779 -0.098013 0.012702 -0.521919 0.245195 -0.336144 -0.166695 -0.110011 -0.239718 -0.673543 -0.012685 -0.147049 0.037913 0.137549 0.112013 -0.019614 0.121122 -0.083646 0.031955 -0.618783 0.076568 -0.253806 -0.593122 -0.029181 0.021028 0.128388 -0.519035 -0.138741 -0.046692 0.475453 -0.044782 -0.127027 0.410105 0.631499 0.163410 0.035060 0.577115 0.473676 -0.245567 -0.035060 0.008147 0.360593 -0.121530 0.256411 -0.118531 0.106779 0.003882 -0.309001
set 0.086576 0.074269 0.262636 0.337297 -0.331787 0.132594 -0.154297 0.151137 -0.322652 0.645199 0.237960 0.388903 0.423555 -0.217877 0.070301 0.278980 0.461527 0.223470 0.063316 -0.047368 -0.084476 0.300635 0.165856 -0.279118 -0.199872 -0.603463 -0.173025 -0.424752 0.744045 0.319988 -0.393486 0.121385 -0.285850 -0.228520 0.000597 -0.303951 -0.033889 0.011099 -0.040420 0.019367 0.169794 0.185783 -0.017708 0.165359 0.196827 0.249316 -0.022757 -0.205822 -0.096510 -0.135077 0.285728 0.399508 -0.205916 0.026754 0.044526 -0.080514 -0.163449 -0.076493 -0.153390 -0.251482 0.137566 0.009333 0.160268 -0.125873 -0.095255 0.665249 -0.165916 0.426743 0.318596 0.346492 0.736257 0.311573 0.408724 -0.056503 -0.103759 0.209054 0.149934 -0.300671 0.128855 -0.416538 0.460455 0.129698 -0.264187 0.063692 -0.046660 0.324807 -0.112250 0.162275 0.519341 0.288585 -0.057298 0.013283 -0.491684 0.169937 0.223006 -0.044656 0.313516 0.711479 0.219630 -0.259150
can -0.427803 0.226941 0.314413 0.134454 -0.043283 0.105561 0.105723 -0.262061 0.083934 0.416498 0.090800 -0.002389 -0.142213 -0.186869 -0.266622 0.527779 0.255998 -0.098117 0.350922 0.260226 -0.109166 0.074244 0.014064 -0.081009 0.146785 -0.747449 0.171635 0.461508 -0.164276 -0.075067 -0.608950 0.195541 -0.358478 -0.059160 0.317466 -0.208612 0.393281 -0.091923 -0.423877 0.173203 -0.130985 0.404784 0.415326 -0.281915 0.470902 0.102351 0.118169 0.066890 -0.178923 -0.043060 0.171973 0.159811 0.244057 0.051133 -0.472878 -0.422191 -0.092997 0.213212 -0.194881 -0.260413 -0.149856 0.033456 -0.377539 -0.414684 0.299426 0.596780 -0.406216 -0.373137 0.404566 0.360116 -0.317004 0.268778 0.534291 -0.513827 0.085412 -0.456087 -0.503392 -0.294405 -0.086394 -0.053318 0.361589 0.609798 -0.027619 -0.533393 0.327891 0.521937 0.019736 -0.078707 0.235967 0.006564 -0.323479 -0.273155 -0.172006 0.089720 -0.180919 -0.434571 -0.295607 -0.171959 0.490874 -0.184152
part -0.619580 -0.390185 -0.175993 -0.090416 0.142054 0.044640 -0.516861 0.187787 -0.103244 0.225389 0.166236 0.364477 -0.504307 -0.263297 -0.264917 0.330541 0.283205 0.071073 0.056818 0.274129 -0.322655 0.016976 -0.105017 -0.182875 0.072953 -0.169185 -0.214600 0.250206 0.355697 -0.012284 0.257484 -0.259027 -0.647519 0.478100 -0.251345 0.270069 -0.275929 -0.126712 -0.240739 -0.081923 -0.182812 -0.212700 -0.133499 -0.744830 -0.290579 0.346783 -0.114566 0.303565 -0.230609 -0.096005 -0.072149 -0.044917 -0.061225 0.079061 -0.241861 -0.301103 0.548824 0.274132 -0.231267 -0.035405 -0.109101 0.150352 -0.337479 0.220949 0.332289 0.332422 0.167484 0.043871 0.096089 0.401153 0.074003 0.116388 0.188628 -0.539678 -0.121813 0.215060 -0.590097 -0.353889 -0.474468 -0.144149 0.090287 0.270602 -0.529608 -0.156522 -0.102877 0.208606 -0.076766 -0.176058 0.194510 -0.051156 -0.573149 0.287137 -0.064527 0.568987 -0.089775 0.006894 -0.159822 -0.105897 0.315901 -0.336466
same -0.074871 -0.125656 0.147491 0.402629 0.404391 -0.209881 -0.394400 -0.213378 -0.454254 0.229478 -0.462495 -0.413435 0.235402 -0.209934 -0.144658 0.224872 0.404845 0.132690 -0.163933 -0.288723 -0.145655 0.050553 0.182598 -0.189724 -0.024080 -0.179038 0.357795 -0.465934 -0.130545 0.096341 -0.244529 -0.166108 -0.765451 0.190746 -0.269569 -0.257037 0.425471 -0.402597 -0.723304 -0.844648 -0.139103 0.119351 0.144403 -0.350427 -0.094496 -0.075382 0.029669 -0.100666 -0.203146 0.192330 -0.161134 0.092097 -0.284741 0.285757 -0.112979 0.148665 0.157710 0.253272 0.427507 -0.067412 -0.081892 -0.386963 -0.157864 -0.131534 0.454278 0.287583 -0.470970 0.319252 0.306711 0.353780 0.021881 0.231639 -0.612082 -0.539470 -0.416306 0.025345 -0.419059 -0.631632 -0.479741 -0.338574 0.073457 -0.184574 -0.406507 -0.607128 0.327714 0.078468 0.134854 0.029939 0.227689 -0.121626 0.208130 0.082166 -0.296178 0.170861 -0.312435 -0.060660 -0.091896 0.370258 0.142820 -0.292863
purchase 0.073384 -0.408603 0.012996 -0.298461 -0.134803 0.083571 -0.319197 -0.428105 -0.139087 -0.081058 0.215760 0.376906 -0.229720 -0.695175 0.126561 0.496997 0.209654 0.631913 0.298621 0.472948 -0.268068 0.416810 0.159014 -0.300526 0.023700 -0.090883 -0.540425 0.448990 0.181476 0.147996 0.318959 0.159707 -0.611127 0.355795 -0.084339 0.438716 0.434707 0.179512 -0.493168 -0.295812 0.008670 0.193281 -0.203073 -0.179971 -0.046465 -0.327394 -0.271275 -0.234796 0.125766 0.064505 -0.019220 -0.264009 -0.035528 -0.062783 -0.401378 -0.336963 0.284273 0.282086 -0.216387 -0.015330 0.086916 -0.087690 0.143000 0.025346 -0.140544 0.319492 0.023168 0.398481 0.096881 0.356347 0.298062 0.496446 0.106316 -0.808986 -0.104818 0.094375 -0.415163 -0.024539 -0.283067 -0.221697 0.133658 0.023694 0.152408 -0.213792 0.360706 0.369886 0.038062 0.394350 0.319871 -0.315811 -0.019820 -0.132156 -0.187326 0.301099 -0.364643 0.344499 0.024856 0.259908 0.154429 -0.137043
crude -0.165353 0.460705 0.822265 -0.115881 0.055014 -0.533644 0.113997 0.627097 -0.183845 0.009179 0.560645 0.521711 -0.687835 -0.832325 0.095145 -0.122156 -0.394870 0.028597 -0.130768 0.147519 -0.391488 0.460899 0.719485 -0.600498 0.034673 -0.353408 0.205784 0.239008 -0.030847 -0.076412 -0.475537 0.079820 -0.775073 -0.197463 0.592473 -0.295212 -0.023136 -0.372392 -0.322571 -0.337153 -0.049477 0.133706 -0.525032 0.124450 -0.196419 0.397131 -0.044307 -0.139389 -0.053013 -0.556397 -0.007568 -0.196632 0.026286 0.014077 -0.240406 -0.053193 0.155351 0.037064 -0.496680 -0.380431 -0.291063 -0.314528 -0.553302 -0.233099 0.091945 0.751936 -0.348411 -0.229113 -0.252710 0.093600 -0.242247 0.369957 0.158633 -0.101679 -0.291809 -0.384397 0.104018 -0.524453 0.055339 -0.053340 -0.919870 0.008884 -0.141470 -0.461562 0.338991 0.286193 0.400088 -0.096001 0.379161 0.298119 0.085609 0.248427 -0.455304 0.510141 -0.231051 0.185032 0.187394 0.424043 -0.347653 -0.113889
seven -0.503809 -0.402255 0.395648 -0.016362 0.246056 -0.319026 -0.045849 -0.152465 -0.402308 0.440020 -0.196753 0.633618 -0.120622 -0.302240 0.134917 0.075105 0.175696 -0.793326 0.137885 -0.037357 -0.245607 0.100232 0.418870 -0.440602 -0.360676 -0.033120 0.081661 0.009194 -0.146361 -0.071740 -0.236876 0.132562 -0.268979 0.125986 0.184082 -0.166341 0.260127 -0.278557 0.074109 -0.470444 0.077029 0.158313 0.176623 -0.432309 -0.061943 0.114781 0.036296 -0.356759 0.240139 0.062154 -0.271951 -0.046949 -0.528940 0.121430 -0.275047 0.066704 -0.180126 0.195994 -0.135051 -0.232572 0.253425 -0.028263 0.104603 -0.318428 -0.219995 0.080752 0.215284 -0.071695 0.625744 -0.359801 -0.089773 0.063382 0.230727 -0.124711 -0.360453 0.161555 -0.482049 0.203386 -0.341870 0.186722 0.086278 -0.128310 -0.401341 -0.089557 0.429646 -0.028451 -0.050389 -0.020250 0.581566 0.114035 0.368991 0.116637 -0.166684 0.049564 0.118968 0.177700 0.168322 0.113018 -0.065711 -0.301214
increased 0.251129 -0.045072 0.181125 0.077292 -0.032746 -0.176963 -0.124402 0.210980 -0.053892 0.592304 -0.025113 -0.101866 0.268245 -0.710366 -0.050001 0.168826 0.255837 0.349123 0.053563 0.023281 -0.048074 0.121876 0.263531 -0.544424 0.162947 -0.380940 -0.209804 -0.317302 0.092783 -0.205533 0.192352 0.199065 -0.477315 0.189142 -0.163875 -0.297853 0.015275 -0.090449 -0.166508 0.060090 -0.104235 0.105013 -0.390056 -0.318438 0.031545 0.285142 0.215064 -0.217653 0.021040 -0.188258 -0.114158 0.060521 -0.043120 0.061198 -0.072272 0.269471 -0.053819 -0.160625 0.065086 -0.422948 -0.052883 -0.382481 -0.413222 -0.610811 -0.032413 0.395476 0.554289 -0.289253 0.212328 0.412067 -0.060233 -0.211477 0.216295 -0.242315 -0.389562 0.118644 -0.235103 -0.132780 0.052944 0.090969 -0.253770 -0.142019 -0.123505 -0.396572 0.258678 0.130956 0.045882 0.046840 0.545003 0.159403 0.214259 -0.229189 -0.211992 0.296339 0.019813 0.062816 0.003091 0.115304 -0.044123 -0.004825
president -0.175414 -0.383876 0.398322 -0.157159 -0.286163 -0.220310 -0.291335 0.638748 0.041014 -0.284592 0.167207 0.101339 -0.349152 -0.247988 -0.169499 -0.113618 0.485260 0.512577 0.197041 -0.262332 -1.094999 0.355213 0.358797 -0.631436 0.414293 -0.387038 -0.447654 0.323748 -0.275853 0.243409 -0.176798 -0.389847 -0.679675 0.147319 0.133664 0.026951 -0.059346 -0.333714 -0.151727 0.184059 -0.631920 0.036151 0.268021 -0.157243 0.035439 0.115789 -0.265512 0.237780 -0.273619 0.382893 0.103632 0.135893 -0.238863 0.173635 -0.074157 -0.082057 0.071488 0.657397 -0.150032 0.255580 0.314272 0.009927 0.047713 0.745672 0.056197 -0.100331 0.445378 0.505647 0.156600 0.171770 -0.477956 -0.377950 0.356671 -0.305272 0.290540 0.298873 -0.565947 0.029639 0.261532 -0.217806 0.109464 0.134583 -0.083030 -0.147122 0.344352 0.226532 0.007116 -0.030163 0.539882 0.372868 -0.208113 -0.340338 0.735491 0.201452 -0.338919 -0.146403 0.188934 0.005774 0.193750 -0.461283
money -0.297297 0.346503 0.106089 0.110736 0.516572 0.089588 0.384473 -0.451560 -0.140465 0.196363 0.243257 0.199571 -0.676537 -0.301797 0.237416 0.632356 0.376181 0.034963 0.098547 0.680753 0.618247 0.017549 0.258629 -0.676885 0.493111 -0.544879 0.147199 -0.262433 0.446795 0.518057 -0.370071 -0.145668 -0.416236 -0.470567 0.361669 -0.230477 0.107659 -0.212427 -0.035361 0.002213 -0.167787 0.617319 0.087567 -0.498023 0.481242 0.303368 0.432632 -0.112062 -0.395198 -0.657997 -0.000068 0.784696 0.016518 0.307220 0.267904 -0.159717 0.267183 -0.432392 -0.566752 -0.276519 -0.025917 -0.693369 0.012172 -0.471478 -0.251803 -0.347179 -0.170005 -0.411100 -0.137980 -0.010922 0.090658 0.076312 0.040378 -0.075960 -0.325482 0.039560 -0.683499 0.316479 -0.273153 -0.259460 0.067552 -0.170260 -0.557647 -0.697685 -0.055507 0.486896 -0.157436 0.167106 0.322862 0.236616 0.210374 0.116349 0.184702 0.518393 -0.361968 -0.150675 -0.518358 0.556569 -0.259180 0.605092
deficit 0.023766 0.461123 -0.072151 -0.178151 0.297449 0.255963 -0.082434 0.234963 -0.049930 -0.406395 -0.353139 -0.208468 -0.675827 0.353245 -0.059976 0.139901 0.081317 0.238712 0.248386 -0.012419 -0.125425 0.376490 -0.299183 -0.478112 -0.147814 -0.342727 0.149489 -0.005113 0.773469 1.091774 -0.519907 -0.052569 -0.141458 -0.163865 -0.261372 -0.431027 0.444906 -0.539607 -0.111558 -0.177885 -0.898687 -0.100365 -0.136556 -0.587628 0.001013 0.400203 0.387391 -0.595087 -0.344114 -0.275110 0.108796 0.688224 0.058727 0.533808 -0.460332 0.001103 -0.370896 -0.508106 0.114944 -0.510741 0.197464 -0.350300 -0.261472 -0.094279 -0.068335 0.166098 -0.320501 -0.449865 0.336304 -0.613398 0.364934 -0.611659 -0.305495 -0.059644 -0.464537 0.197001 -0.125189 -0.053912 0.060746 -0.116876 0.254617 0.197423 -0.411294 -0.721550 -0.250973 0.610885 0.269360 0.014687 0.660661 -0.086204 0.038794 -0.298730 -0.103639 0.928895 0.197694 0.047108 -0.574707 0.677666 0.227235 -0.022646
including 0.198265 0.025616 0.052436 -0.192383 0.027086 0.238092 -0.082727 0.056101 0.040725 0.398042 0.145439 0.163553 -0.125865 -0.590357 0.094647 0.086695 0.925920 -0.300030 0.211810 0.185439 -0.433764 0.094575 0.194770 -0.106541 -0.170674 -0.151894 0.129351 0.230823 0.313621 -0.122879 0.373218 -0.129006 0.217865 0.694736 -0.467486 0.292119 0.345724 -0.219333 -0.225033 0.006779 -0.409178 -0.335452 0.020930 -0.308582 0.286975 0.329078 0.491534 0.037578 0.185495 -0.198112 -0.038027 -0.152923 -0.315634 0.232861 -0.180423 -0.222693 -0.045804 0.438531 -0.000349 0.037547 0.010117 -0.276949 -0.595097 -0.432551 -0.326900 0.312958 0.384294 -0.145665 0.078054 0.470295 0.009897 -0.196522 0.480361 -0.271454 -0.380192 0.114472 -0.340562 -0.009368 -0.296570 -0.045504 0.277696 0.155201 -0.148310 -0.185879 0.081439 -0.157410 -0.112475 0.412299 0.122109 0.133346 -0.019732 -0.313847 -0.088420 0.087505 -0.181894 -0.108278 0.076944 0.374176 0.001440 -0.307903
gas -0.491182 0.119503 0.587989 -0.738434 0.220893 -0.230589 -0.242558 -0.080406 -0.178630 0.724172 0.292860 0.560723 -0.436693 -0.415229 0.091786 0.024338 0.106550 0.228445 0.209114 0.061164 -0.405504 -0.017031 -0.075982 -0.242100 0.314175 -0.026837 0.128063 0.033041 0.356299 -0.399364 0.064772 0.304921 -0.582692 0.139845 0.152792 -0.121929 0.720285 -0.487124 -0.191462 -0.474027 -0.584083 0.475768 -0.514150 -0.002557 0.095524 0.445950 -0.310097 0.305989 -0.293188 -0.565842 -0.151935 -0.300009 -0.108103 0.033911 -0.408130 0.078153 -0.162830 -0.081061 0.097232 -0.020278 -0.270360 0.084428 -0.271941 -0.229292 -0.524104 0.643023 -0.310224 -0.716355 -0.460521 -0.165948 -0.102416 -0.201761 0.269649 -0.013647 -0.102382 -0.292044 -0.020780 -0.444164 -0.283127 0.041642 -0.486217 0.618436 -0.048760 0.131195 0.414272 -0.074424 0.510374 0.081357 0.247067 0.110917 -0.609532 0.696118 -0.016476 0.421776 -0.269478 -0.290786 -0.142421 0.192553 -0.169262 0.261650
continue -0.335093 -0.353902 0.430448 -0.055682 -0.452955 0.155592 0.054001 0.396810 0.018709 0.423603 -0.005843 0.153451 -0.486805 -0.302604 -0.169812 0.487371 0.289259 0.421823 0.231200 0.233988 -0.192116 0.127783 0.291847 -0.321869 0.025237 -0.551220 -0.278288 0.162102 -0.007434 -0.088873 -0.275977 0.022694 -0.291118 0.391086 -0.309195 -0.207789 -0.072447 0.095048 -0.003368 -0.088100 -0.684084 -0.053805 -0.281646 -0.233927 0.463829 0.016682 -0.214910 -0.027447 -0.103259 0.498294 0.156384 0.246751 0.025721 0.401822 -0.093417 -0.269026 0.124198 -0.175869 -0.337817 -0.483393 -0.239155 0.056734 -0.312800 -0.020494 0.084879 0.202980 0.080635 -0.081675 0.455113 0.154011 -0.230921 0.201317 0.120261 -0.458624 -0.159459 -0.528982 -0.378669 -0.196066 -0.165933 -0.308844 0.086820 0.210030 -0.191197 -0.506482 -0.034747 0.150546 -0.024381 -0.299977 0.451158 0.402031 -0.092043 0.274154 -0.021940 0.032326 -0.087538 -0.264583 0.056177 -0.023787 0.268743 -0.094643
high 0.622199 0.253157 -0.040084 0.285751 0.032259 -0.211153 0.282901 0.272370 -0.016231 0.419128 0.328394 0.586605 0.106992 -0.183753 0.073949 0.228802 0.334739 -0.151393 0.161892 0.094037 -0.324680 0.030577 0.508959 -0.057067 -0.177969 -0.393079 0.028529 0.052601 0.291182 -0.077179 -0.120490 -0.355584 -0.579085 0.127657 -0.232142 -0.072457 -0.166620 -0.359159 -0.340800 -0.107386 -0.177592 0.244767 -0.137797 0.147034 0.450658 0.226334 0.253865 0.074135 -0.260293 0.164364 0.364026 0.363960 -0.112160 0.219463 -0.241519 0.422746 -0.046278 -0.219772 -0.164550 -0.407627 -0.222532 -0.413867 -0.437038 -0.342701 0.362175 0.261541 0.404743 -0.010992 0.091987 0.536857 -0.042145 0.162574 0.015873 -0.300276 -0.389018 -0.064065 -0.156019 0.092775 -0.048511 0.029922 0.144788 0.055806 -0.277089 -0.096141 0.106822 0.161031 -0.007078 -0.027781 0.622987 0.102969 -0.218756 0.010871 -0.128204 0.487471 -0.221370 -0.460938 -0.099809 0.056787 0.291061 0.138362
