movie 0.045846 1.399041 -0.061562 -1.133099 -1.036907 0.174088 -0.207761 2.393892 0.220404 -0.395682 -0.006520 -1.331842 1.447259 1.050394 -1.955029 -2.451507 -1.709787 -0.573034 -0.806901 -0.707443 1.818820 -2.736430 0.449975 1.882706 1.329100 -1.462519 -0.666106 -0.263733 -0.132292 1.691782 0.199738 0.740379 -0.351738 0.223767 -1.336081 -1.978905 1.192206 3.977586 -1.321337 -0.505623 -0.093382 -0.842165 -0.528941 -1.140181 -0.402828 1.436752 0.253813 -0.512667 1.899714 0.667983 -1.864619 -0.575222 -1.027977 -1.212781 -0.947127 0.840949 1.141492 -1.243978 -1.855682 -0.597426 -0.141860 -0.261595 0.605263 1.523963 0.601866 -0.792414 -2.755138 -1.187813 -1.409659 -1.209756 -1.384725 -0.118718 -0.885819 0.714789 -1.283971 1.067079 1.551070 -0.537608 1.950243 -0.812192 -0.187271 -2.470546 1.899580 0.721517 -0.544077 1.502680 1.032909 -0.570239 -0.068482 4.261543 -0.440525 -1.163631 0.620811 -0.230276 0.694826 1.031398 0.529631 0.306464 -0.308779 0.763424
film 0.023955 0.887648 0.409181 -0.931032 -0.619924 0.056137 -0.242755 2.807544 -0.747053 0.056011 0.928178 -2.153317 0.886583 1.441496 -1.425344 -1.264156 -1.824951 -0.419751 -0.323063 -1.699201 1.385505 -2.009153 0.377383 1.393524 1.665495 -1.458659 0.356081 0.453060 -0.825370 2.113911 -0.008666 1.302512 -0.099588 0.855864 -1.119904 -1.121647 0.798136 4.323110 -1.625709 -0.119709 0.103375 -0.298404 0.112990 -1.798183 0.217758 1.403566 0.472111 -0.856078 1.567865 1.860681 -1.427685 -1.488542 -0.437391 -0.646573 -1.825001 1.421931 0.933214 -1.650552 -2.591522 -1.266998 -0.114612 -0.595300 1.048651 1.962895 0.461889 -0.182190 -1.965004 -0.921099 -0.845576 0.191463 -0.733248 -0.494699 0.050125 1.096073 -0.887527 0.902569 0.732374 0.037958 2.011601 -0.412242 0.441177 -2.454533 0.967371 0.084612 -0.682665 1.368514 2.493587 -1.748453 0.370014 3.495553 0.244413 0.128390 0.551476 0.273242 0.956864 1.069024 0.658043 0.092646 -0.082960 0.863042
his -0.325184 -2.404195 0.807512 -1.491007 1.010625 -0.305023 2.026307 0.108266 -1.138336 -2.772909 0.946173 2.484375 -0.709584 0.596922 1.455587 -0.078746 -1.516716 -0.053468 -0.031291 3.319094 0.855979 1.609156 1.235730 -1.578990 -0.758714 -0.324060 0.692382 -0.923763 -0.990803 -1.903893 -0.208352 -1.037066 1.400064 -0.236369 1.402576 -0.849116 -0.553654 -1.038340 -0.812967 -0.808206 -0.328939 1.224540 -1.034927 -0.345254 -0.138437 -2.100286 2.465645 3.181695 -2.781223 2.165770 -1.523973 -1.704241 -2.693405 2.243794 -1.283947 0.750301 -0.726332 -3.405841 -2.198927 -1.136397 -1.554029 0.336823 -1.822016 -1.877283 0.058308 2.506499 0.875769 -1.479842 0.703529 -0.649081 0.815124 2.368361 1.018724 0.702507 0.224889 -0.461801 0.664102 0.211454 0.140185 0.727576 0.935266 0.785206 -0.844515 -1.567125 -2.749613 -0.106212 0.936389 3.187493 -0.646026 -0.349643 0.871056 1.296927 2.978994 0.223052 0.359108 1.375177 -0.867383 -1.613072 0.338663 0.793050
have -0.289392 -1.698746 0.922280 -1.982844 -0.617410 -1.539048 -1.045850 2.170259 -0.767397 -3.180704 0.942860 -2.243637 -3.194909 0.554449 2.545646 -0.381525 -0.615457 -2.808075 0.121040 -0.919436 1.578744 0.357354 5.071193 2.540849 -0.879423 3.056011 -0.780409 0.006160 1.446968 2.081055 2.717685 2.282701 -1.378559 -0.599763 0.082428 1.044026 -1.196810 0.080650 -1.523850 0.153773 2.151691 -0.186538 -1.129378 3.200490 -1.896936 0.951937 -2.332468 -2.634389 -0.110734 -0.592159 -2.007809 0.800359 0.869051 -0.168155 -0.379686 -0.313699 0.829686 -0.265733 -0.317840 1.070010 -0.590644 -1.637705 -1.215229 -2.071106 -0.716554 -4.017832 0.469112 3.461816 -0.672814 -2.022335 -1.222544 2.437381 -1.170947 -0.643881 1.765180 1.615385 2.199164 0.096454 -0.537927 -0.692039 -1.449784 -4.359637 -0.644733 -0.309995 1.994657 0.655556 -0.867527 0.215431 -3.630874 -1.292091 -1.772238 0.658219 0.492760 -0.752220 2.614492 1.395802 -1.735915 2.416984 -0.784502 -1.246806
be 0.610188 -3.192335 -0.334397 1.506285 -1.786140 1.675246 4.345993 1.500397 2.102963 -0.623015 1.529390 -1.730260 -2.607562 0.523845 3.241023 -4.042316 -2.703099 -1.211342 2.879709 -0.501295 0.996260 -0.839286 3.648211 0.294472 -1.199457 2.939170 -0.262712 -0.300796 1.032307 2.959307 2.531376 1.459975 1.037910 0.427656 -0.589932 2.314850 2.201504 -2.879306 -0.002793 -1.591687 -1.757372 -1.460572 0.033561 0.328048 -1.277552 1.866634 -2.826127 -3.685325 2.615543 0.284306 -2.626600 -0.735097 -1.235233 0.001972 0.527658 -0.899272 -0.282194 -2.343890 0.129052 1.622570 -3.524660 -4.659575 -1.152950 2.227796 -1.455083 0.396117 -2.084635 0.057662 -0.592907 -0.830541 -0.284851 1.359277 1.389731 -0.929820 1.270619 -1.736540 -0.188165 1.002261 1.506000 -3.564003 -1.237100 -2.072349 1.618580 2.883311 0.070687 1.483714 0.389565 0.824174 -0.513919 -0.463939 -1.411551 0.391869 -1.745009 2.201209 0.061901 -1.204446 -2.166456 5.040749 1.832806 -0.973408
he 0.924090 -3.036024 -0.213804 -1.819427 0.531909 -0.780701 1.047441 1.023939 -0.931507 -3.668295 0.950483 -1.022934 -0.695005 2.284706 0.661764 -1.805291 -1.581991 -0.364131 -2.070014 0.041106 -0.089822 0.038778 2.691541 -0.070453 -2.231829 0.746166 -0.009635 -1.262714 -1.138541 -0.041801 -1.422446 -0.692023 3.101410 -0.055576 -0.916328 -1.093590 0.603678 0.049937 0.729679 -1.145619 0.024026 0.735036 -1.089056 0.193748 0.119381 -0.061842 -0.553979 1.533234 0.520444 1.645009 -2.105645 0.947278 -0.471169 0.582683 -2.670764 -0.462143 -1.078045 -2.236411 0.312024 -0.330795 -2.870422 1.234291 -1.559693 -0.742091 -0.957219 0.593639 0.760662 -1.511404 -1.017917 -1.068465 1.257390 -1.478826 -0.702137 -1.684149 0.967727 -3.157997 2.275180 -0.193044 0.636817 0.241860 -1.062481 -1.618805 0.741084 -2.744812 -2.251088 0.482690 1.473057 0.451726 2.686392 0.826019 -0.575902 2.947748 3.251950 2.287324 -0.533605 -0.530050 -0.409462 -0.435447 2.483542 1.203656
like 1.126548 -0.255365 -2.884249 -0.885023 -1.033615 0.188882 0.301713 -0.650289 1.111860 -1.308151 0.863131 0.203582 0.021320 0.665882 3.613980 -0.842490 1.639450 -2.298743 -0.163506 1.990695 -1.687878 -0.711814 -0.852686 1.807131 -0.445178 -1.477392 -1.225333 -0.768094 1.372311 0.356253 -0.391444 2.460221 -0.899453 -0.452288 0.588952 -1.134738 0.154267 -1.212740 -0.719036 1.287467 0.160214 1.730105 -0.092434 -1.263619 -1.086538 1.868760 -1.216794 -1.625908 -1.408505 -1.084083 0.026679 -1.317808 -2.094497 -0.259143 0.514459 0.996291 1.507615 1.130909 -0.133400 1.381346 -0.861385 1.445993 -0.397025 -1.105607 -1.217104 -2.278492 0.641186 0.019980 1.251497 0.906905 0.080260 0.556769 -1.047271 -1.608663 -0.981375 1.539893 0.512882 -1.963817 1.289063 -2.111594 -2.427020 -2.895797 0.139029 1.764048 -1.028150 -1.257306 -1.738484 -2.033123 -1.596503 -1.765655 -3.109023 -3.253587 0.661193 0.051119 1.237370 -0.539113 -1.187358 -1.659031 0.772424 -0.332302
her 0.699411 0.411671 0.577773 -0.012374 1.522709 1.262485 1.295306 0.144011 -0.927593 -2.347057 0.136822 1.873223 -0.261515 3.248208 0.727294 -1.206784 -2.742178 -0.334904 1.632601 0.686487 3.209031 0.984456 -0.175423 -1.481563 -0.910137 -1.920417 1.436280 -1.473654 -3.098978 0.033396 -0.086943 -1.425670 -0.077754 1.133330 0.961850 -1.080816 2.414522 -2.426357 1.589916 -0.797074 -0.419669 0.058082 0.947838 0.236192 0.390936 -4.252211 2.980479 -1.511810 -3.712054 1.050179 -1.754155 -1.870779 0.850170 0.042297 -0.457483 2.301195 -0.183175 -2.531349 -2.268538 -0.342216 -0.177569 1.921979 -2.679906 -0.827296 -1.403566 -1.085992 1.864951 -2.947926 -1.189645 -2.391457 -1.600673 0.622680 -1.994056 0.743928 -0.230924 1.050363 1.188182 1.452490 0.577104 -0.603601 1.195286 -0.070600 0.088532 -0.675863 -3.742903 0.473796 -1.227967 3.251267 1.332317 0.943393 1.594821 1.455471 -0.671281 -0.546387 1.050025 -2.127152 -1.729644 -0.412022 -0.623635 -0.778361
about 1.238112 -2.616292 -1.129324 -2.033545 0.628089 -0.754998 0.584133 -0.151033 -0.462122 0.207857 -2.980794 -0.876581 -2.624520 1.962099 -1.662246 -0.589145 1.928483 -0.975967 -0.467171 -2.391123 -1.593705 -0.847936 -3.060885 -0.784934 1.453176 -0.326250 -2.033360 1.441505 2.421151 -0.831476 -4.747018 1.868470 1.698897 -1.275988 -1.781864 0.606471 0.022494 0.986136 2.780568 1.806100 -0.295834 -1.784827 2.009464 0.333606 -0.366073 0.815562 -0.113401 -0.560934 -1.932676 -2.304668 1.888693 -0.391947 -0.479365 -0.487119 0.086872 -0.591586 1.177841 -1.875558 -0.445644 2.707545 -1.876667 -0.549361 0.499762 -1.309723 0.063102 -0.985698 -0.867146 1.495160 -1.015792 -0.153584 2.816070 0.634586 0.732484 0.563505 -0.085129 -0.341316 0.521998 0.442825 -0.462013 -1.438069 -0.847913 0.925196 2.986286 -0.368939 0.694373 -2.016165 -1.957177 0.991336 0.696224 1.072306 -2.497753 -0.316752 -0.238382 -3.637085 0.388206 0.004568 -0.288565 -1.198162 1.159235 1.281152
out -0.400491 0.143655 0.075509 0.338831 -0.939928 -3.197690 -0.932179 -1.102303 1.884000 -2.258784 0.945969 1.981164 -0.607950 -0.484353 0.412024 -1.412284 0.339663 -1.032605 0.560540 -0.166554 -2.020072 1.718321 -1.697433 -0.501082 0.595829 -0.179688 -0.090485 0.763661 0.990141 -0.033634 -0.443199 4.752699 -1.441648 0.904471 1.317706 -3.693206 1.357301 0.919356 0.055646 1.809006 -1.534847 -1.333128 -0.745187 1.803151 -1.924001 -1.462819 0.069892 1.170847 2.079226 1.742687 1.856059 1.695365 0.177903 -1.116588 -1.752772 -1.367343 1.495942 -0.397529 2.378253 -3.277000 0.564050 1.893036 -2.196805 0.165971 -0.328486 -0.275588 -2.052728 0.027159 -0.611842 -0.607789 -0.484549 -3.549134 2.273267 0.636257 1.263821 -0.960183 -0.070603 -1.197394 -1.398121 1.043849 -1.204401 -5.604064 0.206860 2.326712 -2.364404 -0.988495 -0.187975 3.465216 -0.626267 1.651064 2.316882 -0.454923 -0.328355 0.375210 -3.974549 -2.373587 -3.036263 -0.873892 -1.653151 1.336838
good 2.668875 4.424141 -2.104395 0.277147 2.763893 -0.460472 0.071550 0.585779 2.580845 -0.736565 0.259243 1.416932 -2.754752 -0.054462 0.095990 -2.032619 -1.133509 -2.894087 -1.828152 0.916037 -1.869051 0.270167 -0.991301 2.429767 -0.418228 -1.338738 0.501191 -0.251923 0.652572 -0.965267 1.218208 1.720355 1.836374 -2.484259 0.178865 -1.824885 1.697286 -0.009115 -0.380722 -1.035553 -0.702306 -0.690489 -0.011979 -0.301367 1.255188 1.065128 -2.153803 1.654602 -0.741623 -1.539949 -0.415686 -0.183887 -1.773554 -0.145337 -0.303467 0.378991 -0.779756 -0.484551 -0.734053 0.002159 0.260852 0.196155 0.952282 0.611685 1.527442 -0.145338 1.871264 0.777244 -2.895308 0.626500 -0.273784 0.018651 -1.882461 1.412278 0.064925 2.567581 0.593012 -1.869840 0.904303 -1.725665 0.894430 -0.816987 -0.283233 0.078084 0.560297 1.826118 -0.653760 1.067370 1.774760 0.834962 -0.233472 -1.557048 2.302153 -1.519848 0.516304 -0.869230 -0.209757 1.794263 0.809109 4.314894
can -3.513626 4.265629 -1.931077 0.321947 2.080963 -0.004159 -2.672529 0.335877 -2.009100 -1.591652 -1.581312 1.090191 3.134208 -2.520028 -0.901374 1.809704 2.487806 -1.517195 -3.189413 -3.249737 -3.344523 0.772921 -0.879669 -0.290384 2.683503 1.734869 -1.280828 2.217290 -1.304391 -3.206891 -2.571108 1.529160 0.401782 0.643803 0.138004 0.284341 -3.078231 3.571365 -0.787350 -2.782300 -0.204837 1.613406 -0.926173 -0.589183 -1.360420 -4.571959 0.414713 -0.323691 -2.122688 -2.241132 -2.273515 0.466010 1.041790 0.089071 -3.033230 1.508958 -0.606953 2.614361 -0.795690 1.894540 -0.407131 2.635219 2.077828 -1.103993 1.556506 -1.332537 1.511151 2.337564 -1.551162 -3.341364 -0.144267 -0.908179 -0.273285 -0.018184 -4.995744 3.528557 1.119801 2.324845 -2.733649 0.858906 -1.953644 -1.383024 -1.172700 1.008244 -1.344879 0.311894 -1.062734 1.046348 3.191211 0.270746 1.972907 -0.433580 -1.261250 -0.854084 -1.033397 -0.476590 2.371628 -3.558452 -0.598977 -2.306575
up 3.422143 -0.916643 -0.707607 -0.663575 2.678212 -0.965132 -3.562865 -0.006263 2.118925 -1.634360 1.671193 -1.514213 2.325052 0.279862 1.213710 -2.228603 -1.099856 -1.249125 -0.213590 1.734140 -0.059533 -0.519602 2.477763 1.915017 -0.372865 -1.611619 -2.330350 0.725977 0.279665 -1.112464 -0.523654 -0.282019 0.080941 -0.751193 -0.117377 -3.198311 1.227266 1.420076 -0.870751 -1.082423 -2.146358 1.737591 4.866070 5.073714 -0.793081 -0.006828 2.536243 1.970988 -0.165262 -0.728426 0.002536 -0.518656 -2.429075 -0.994563 1.106804 1.831971 4.891933 2.541795 1.981261 -3.077134 2.083635 1.234514 -1.075273 2.365901 -0.003901 -1.129166 -2.072973 2.988652 0.045862 -2.464961 -2.106642 -2.554288 2.804092 -1.849394 0.199036 1.150797 -0.766865 0.636124 -3.105537 -0.126288 0.131918 0.902008 2.323553 -0.254885 -1.837289 -2.763500 -1.147124 2.929430 -1.329966 1.231394 0.402136 2.237358 0.699538 1.908336 -3.028910 2.283752 -2.474391 3.038790 0.112356 0.781273
time -1.362078 0.547318 -2.650788 0.001853 0.590282 -0.197987 0.537091 0.099750 0.017329 -0.818674 3.459623 -2.258573 -0.379330 1.969348 -0.657145 -0.077100 0.173100 1.262334 0.814659 -1.616417 0.023996 -1.592843 -2.246764 -2.512603 1.894483 0.951245 -2.904633 -1.909160 -0.128563 2.001421 1.537661 0.074392 0.277941 -1.312155 -1.576118 -2.187286 1.669479 -1.137721 -2.692358 2.052565 -0.336447 -0.993812 -1.224186 0.972374 -0.621744 -0.541706 1.263067 -1.958737 -0.094509 -0.021488 -2.557873 2.873274 -1.299999 0.156820 -1.543316 -1.531074 -0.109483 -0.395050 -1.434370 -2.073339 0.244753 1.151121 1.944738 0.791166 -3.161277 0.596097 -2.691726 0.856616 -0.603858 -4.611681 0.052084 -0.814293 -1.370611 1.112347 -3.064350 -0.684198 3.570509 0.329611 2.336034 -2.753416 -0.003933 -0.369792 0.934969 0.013032 0.485259 -1.391356 2.200527 -1.672032 -0.943630 0.318623 -1.126149 -0.413750 -0.879579 -2.953456 -0.470086 1.575663 3.140938 2.446832 0.547044 2.883709
story 2.958785 1.706619 2.448311 -1.322914 1.073650 0.013956 -0.569991 1.079785 -0.540696 0.367849 -1.802789 -1.645206 1.023982 2.974108 -1.363733 0.192234 -1.808113 -0.177039 -0.581447 0.507749 0.709510 -0.504744 -0.699412 1.593410 0.796795 1.967563 -1.541444 1.194193 0.717969 3.394686 2.309092 -0.062285 -1.450768 0.076127 -3.027694 -0.512852 0.018664 2.397498 2.174622 0.488663 -2.167763 -0.248857 3.500840 -1.035135 -0.741259 1.267406 3.051324 0.324151 -0.824217 -1.112674 -2.021949 -1.252919 0.350935 -1.519442 -2.219978 -0.755687 -2.575737 -0.119987 1.875306 -0.256701 1.424768 -1.551043 3.349662 1.146775 0.136948 0.351981 -0.207600 -1.805343 -0.001970 0.049793 -0.047976 1.722214 -0.608841 0.638969 -2.456792 -1.775942 1.513789 -1.767873 4.150884 -1.258129 -0.102833 -3.266037 -0.763424 0.448401 2.209014 -2.302997 -1.067295 1.069254 -0.427132 2.113068 0.203788 2.207964 -0.655948 2.016485 0.781673 2.096808 0.688086 -0.320830 -1.925086 2.825150
she 2.687386 -1.600866 -0.631198 0.014716 0.102138 0.270818 1.628623 0.201938 -1.052773 -3.506946 0.349241 -1.289330 -0.667847 5.371924 -1.286606 -1.711164 -1.398047 -0.397919 0.068245 -0.876800 1.952376 -0.419026 1.092008 -0.483219 -2.917180 -1.646395 1.252887 -0.545642 -2.962695 1.044944 -1.072116 -0.367097 0.409089 0.751141 -1.718704 -2.318635 2.619092 -3.025187 1.671016 -1.699889 0.855818 -0.246826 0.652243 -0.057518 1.052135 -1.505131 -0.114698 -2.867349 -0.519766 0.531792 -2.536819 0.007255 2.174492 -1.094842 -1.899906 0.193235 0.182105 -1.507740 1.141987 0.933318 -0.263027 2.332673 -2.942387 0.024701 -1.119560 -1.544439 2.649240 -2.422960 -1.726832 -3.305827 -0.852926 -3.501378 -3.432548 -2.735011 0.972727 -3.238853 2.303715 -0.071641 0.253487 0.250117 -0.465643 -1.341355 0.907213 -2.691172 -2.463352 0.756434 -1.320553 0.593914 3.649778 2.648127 0.028142 2.486571 0.453932 0.395866 0.548527 -3.578928 -1.034807 -0.281268 2.151125 0.411771
even 0.060389 0.320710 -2.538941 -0.112830 -0.008057 -1.744251 2.113680 1.416502 1.125575 -1.350912 0.951151 0.205277 -1.128160 2.459292 2.492742 -1.128876 0.398706 -0.100081 -1.455716 -1.045496 0.539805 1.603586 0.879842 0.048247 -1.821137 1.203702 0.126114 1.487092 -1.052724 -0.132944 0.310311 -1.900676 -0.506120 -2.222337 0.141496 -2.230074 -2.382544 1.219695 -1.707536 -1.318733 -1.475071 -0.678244 2.462676 0.059998 0.510334 2.576268 -0.247761 -0.561659 -1.336141 -2.053526 -0.097166 -1.557679 0.108844 0.223599 0.278047 -1.997382 1.209734 -0.053733 -0.566743 -1.605544 -2.598117 -0.549743 0.113537 -2.201018 -0.775947 -2.068079 -2.669836 -2.378629 -0.502550 1.613948 -2.086862 -2.575819 -1.276219 -0.113479 0.454618 0.000263 -1.656861 2.855461 -0.728375 -1.903747 0.392952 -0.591444 -1.290271 -2.696592 0.073614 -1.180751 -0.170530 -0.171999 -0.839521 2.290534 -0.415586 -1.273015 -0.083297 1.618457 0.889560 -1.534033 2.282093 -0.950009 -0.509698 1.095261
see -0.563219 -1.902180 0.247755 -1.148446 -0.730307 0.096794 -0.082158 -0.491881 0.427474 -1.719239 -2.268260 -1.157448 -2.783720 -2.728675 3.627439 -1.550178 -1.324128 -2.088334 -1.512484 0.278295 2.211144 -1.568683 0.229301 -0.258472 -0.461264 0.927433 0.877931 3.677999 1.504445 2.472587 2.764403 2.182764 -0.858266 0.292073 -0.078663 3.025691 -0.343326 -1.851534 -0.346699 1.701456 -3.002929 -0.428314 -0.491810 0.455599 0.154730 1.562050 0.666540 -0.602480 0.771657 -4.821977 -0.457062 2.616304 -0.536196 -2.846142 -0.704917 2.542415 0.612124 0.653102 -0.372334 0.471003 -1.538553 0.443724 -2.927849 0.202481 0.953464 1.697316 -3.591486 -0.138898 -1.458734 1.667540 -2.105386 1.367117 -1.659129 0.227095 0.777909 -4.029937 2.386027 -1.059744 -3.052968 -1.485338 -0.700054 -1.929828 2.400568 -0.023261 2.248270 0.110287 -0.125229 -1.312376 0.844178 0.879135 -1.121689 -0.708077 -0.102129 -0.765734 1.220557 -1.981849 -2.382561 0.836380 -0.839818 0.854587
get -0.574900 0.749378 -0.172399 1.310701 -1.080562 -0.992440 3.076640 -0.516217 -0.802195 -3.122786 0.382077 -1.198436 -1.670317 -0.145268 3.952871 -2.280633 -2.908287 -1.745322 -1.924374 -0.259815 2.535043 -1.084583 2.001597 2.051014 1.026265 0.145905 -1.756285 0.804882 1.222986 4.842298 2.213968 1.805696 1.183263 0.644111 1.012975 1.707738 1.497734 -2.830369 1.987804 -3.789192 -0.292647 -0.864365 0.855920 -0.832706 -1.277275 3.617860 2.514202 -1.064818 0.715475 -3.275031 -2.633840 2.411319 -1.180522 -0.539308 -1.012509 0.090527 -0.465855 1.157314 0.068289 0.120709 -1.457015 -2.189464 -0.865370 0.445836 -0.678640 -1.412186 -1.730528 -0.903092 0.259407 1.559829 1.012402 -2.027675 1.307343 1.369176 -0.986359 -1.284248 3.050074 0.200494 -3.534860 0.814155 0.565469 -1.513322 2.218112 0.174752 0.427075 -0.103558 -1.149839 -0.259518 -0.827226 -1.508204 -1.558496 0.731422 1.990854 -1.152391 2.576314 -1.377363 -0.548495 1.224134 -2.198163 -0.985652
people 0.005931 3.714846 -1.175323 1.373781 -2.864770 -0.364205 1.444813 0.766186 -3.154626 -2.679219 1.209589 -1.051531 0.291770 -0.042071 0.344165 -2.652823 2.767477 -1.202207 -0.552819 -3.397092 0.223902 0.107831 1.722273 -4.226475 -1.523978 -1.729297 -5.078237 -0.697048 2.165908 -0.597175 -3.522941 -1.929299 3.255976 -0.631327 -1.807313 0.376867 0.485671 0.816174 2.200129 2.614140 -1.036572 -2.354215 -2.955413 0.819782 -0.199941 1.248178 0.641963 1.112352 -0.873764 0.472596 -2.205895 -1.942815 -0.111763 -1.096726 -1.402047 -0.281144 -0.752074 1.344589 -1.231103 0.611051 -0.640089 0.213612 0.319371 1.508931 2.314815 -1.008234 0.893615 1.233342 -2.752890 1.994858 -1.317223 0.166320 0.251256 0.880808 -0.258947 0.147895 1.537059 1.399452 0.355289 -1.412509 -1.780984 -1.886634 1.675030 -0.043639 1.699743 -1.326282 -1.944681 0.946892 -1.111521 2.938417 -0.078603 -0.150832 0.207014 1.352455 -0.995376 0.161871 -0.352974 2.536875 -1.541806 -0.221948
bad 2.104564 4.606730 -0.425593 -0.249533 0.260378 -0.240049 -0.410354 -1.752001 2.823879 -2.879609 -1.622972 0.444630 -2.451288 -0.189277 0.284060 -2.610066 0.466692 -0.466040 -2.918936 -0.900598 -1.680013 -0.902252 0.550754 2.222846 -0.264447 0.394257 -0.081672 0.028363 1.063245 0.166052 0.179743 2.748254 3.106259 -2.561229 0.058132 -1.366007 1.350973 0.291508 0.746382 -0.816289 -0.453753 -0.017624 1.019360 -1.088207 1.314197 -0.917048 -0.932009 -0.169731 -1.319692 -1.192118 -1.018390 1.493168 -1.436972 1.370503 2.370360 0.424372 -0.134271 -0.717728 0.442014 -0.162012 -1.054337 0.617030 0.336464 -0.344898 0.929937 0.007339 0.965939 0.345538 -2.062557 0.744878 -0.157731 -1.145936 -1.536092 -1.359597 -1.774686 1.895672 0.353849 -0.660183 1.180247 -1.351372 2.411047 -3.169669 0.790911 -1.286085 -0.475756 1.607205 -0.842235 -0.305791 3.737483 1.706729 -0.429346 -3.493546 1.270738 -1.291538 1.208219 0.534368 2.783808 2.520707 0.382068 4.223313
do -0.710786 -0.884407 -2.690788 -1.423973 -1.093136 -1.600003 1.835324 0.248276 1.273720 0.294190 -1.246850 -0.681846 -2.966293 0.625530 0.532233 -1.849458 -1.139843 -1.263350 -1.933519 -0.396586 -0.389654 -2.546212 1.943822 3.028086 -0.524202 1.355195 -3.655087 2.246557 1.050569 -0.914868 -0.185552 2.118291 0.822247 1.246541 -0.378162 -0.556909 1.663994 0.245465 1.326165 -0.215557 -2.080930 -1.129135 1.594307 0.332227 1.883144 0.102362 -1.233389 0.879544 -0.902042 -1.949084 -0.788616 1.284526 2.132541 2.532715 -1.821667 1.814669 0.855330 -1.417030 -2.238644 -0.233892 -0.424896 -1.284306 0.464922 -0.725813 0.377935 -2.306125 0.504477 -0.690234 -0.616464 0.742911 0.242729 0.831854 -1.414117 2.456310 -0.917719 0.313244 2.561551 0.971263 -3.195101 -3.720907 -2.212400 0.019998 3.219450 -0.691442 -1.650132 -1.366337 0.999469 -0.192137 0.137708 -0.651890 0.151949 0.153297 -0.963796 -0.691061 0.766513 -1.204117 -0.388100 -0.790958 1.587963 -1.348901
great 2.211576 2.171587 -0.821104 0.552135 0.213274 -1.849262 0.322480 0.215189 -0.469340 -0.629578 -0.051431 -0.278857 -1.133786 -0.896747 -1.497676 -1.807127 -0.774992 -1.392460 -0.697795 1.442522 -1.306455 -1.195829 -3.020239 0.054620 0.253645 -1.584378 1.053959 1.849480 -0.321990 -1.828530 0.199118 3.595746 0.755214 -2.381721 0.660258 -3.053858 1.333085 -0.153176 -1.854305 -0.631486 -0.046498 0.031890 -0.429742 0.895729 0.432805 -0.916639 -1.899626 0.501499 -2.053159 -2.216421 -0.339058 2.041446 -1.839678 -0.395648 0.279279 0.257236 -0.926478 -0.336904 -0.873084 0.243667 0.481359 -0.183835 0.577025 0.744797 1.786134 0.015239 1.227320 -0.392433 -1.888498 1.217897 -0.876226 0.932206 -2.213988 0.487507 0.194972 1.688171 0.160776 -1.574990 0.580837 -1.139712 -0.080597 0.799172 -1.114356 -0.185549 -0.848606 1.683956 -0.823735 0.761224 -0.258839 -0.640892 0.067914 -1.700120 0.491783 0.209837 1.422365 1.836026 -1.298831 1.824489 1.739897 2.201633
made -0.630537 2.838949 -3.813039 0.907896 -1.346713 0.658677 -0.708470 -0.387601 0.491454 -2.114207 -2.625193 0.240205 -0.624725 -0.798763 0.885990 1.486925 1.824898 -1.281144 -1.375587 2.442817 -0.853933 0.522784 0.456753 1.431966 0.242392 -0.657261 -1.220176 4.559452 1.673703 0.274853 -1.925200 0.028855 -1.871040 0.763297 0.883916 -0.093677 1.837155 -2.960949 0.829944 -0.405376 0.396380 -0.417934 0.741386 -0.382569 -1.010183 -0.840392 -2.093813 0.129982 1.877879 2.705917 0.196123 1.908930 -0.878693 1.694624 -1.322307 -1.655429 0.997843 -1.245972 -4.621611 0.279441 0.587682 -1.717922 1.950414 -1.345043 1.699382 -0.212701 -0.189666 -1.895441 -1.842751 -1.560350 -0.071115 0.543881 -1.251103 -1.201966 -0.074403 -1.177364 0.156626 -1.554924 -0.607646 -2.291820 -0.270362 -0.221147 0.398553 -0.965551 2.328383 0.269214 0.612955 -0.541547 -2.552391 1.491823 -0.259944 -0.374021 -2.237345 -0.970036 0.938892 -0.441729 3.545913 -2.682515 -0.165432 2.200656
make -1.760599 1.096132 -2.689011 1.532642 -3.196589 -0.924096 2.613221 1.106145 0.644856 -0.258792 -0.355282 1.563944 -3.403276 -0.798031 3.850613 -0.075908 -1.424462 -2.872310 -1.377098 -0.043950 1.334694 -1.694544 0.897098 1.354660 -1.438670 1.536368 -2.179531 1.901807 3.074739 1.223670 1.544280 0.600358 0.278565 1.115771 1.089785 0.131796 -0.590841 -4.963404 0.690776 -1.522269 -0.767744 -0.407199 1.479193 -1.701010 0.182573 0.909370 -1.762244 -2.955291 0.966714 -0.185570 -0.185061 1.461312 -1.086008 -1.395354 -1.659280 -0.529112 0.881277 -1.313847 -3.058671 0.354288 0.813076 -3.091589 0.180360 -0.391109 -0.326173 -2.258036 1.043244 -3.092889 -0.362564 -1.438677 2.582042 1.089649 0.222082 0.063509 1.217649 -0.863002 2.549990 -1.107573 -1.902364 -0.114339 1.100035 -1.706595 1.523425 0.166031 1.366747 0.966254 -1.099234 -1.529020 -1.142449 0.808824 -2.219823 0.111408 -2.475579 0.181741 2.186385 -1.442351 0.132605 -0.606210 -1.167098 0.835329
way -0.511461 0.561246 -1.057716 2.496416 1.368382 -2.043081 -0.792664 -0.874950 -1.660334 -0.637703 0.449913 -1.013823 -2.115560 1.422837 -0.247158 -1.341983 -1.219941 1.059372 -0.148309 -3.444672 1.140957 0.379276 1.450373 -2.587468 -1.284734 1.811441 -0.674931 -1.552822 0.165833 1.508968 -0.879630 1.147225 -0.327383 0.953038 -0.039513 -3.509170 0.102183 1.044751 0.768984 -2.795268 1.206526 -0.863622 2.421424 -0.774864 -0.348598 0.114560 1.261459 0.646106 2.548560 0.827478 -0.681611 -0.700385 -2.491888 -3.271585 -1.835148 1.329171 -0.491382 1.027647 -0.026629 1.776943 -1.244862 -0.916828 1.409907 1.378530 -0.918436 -0.243957 -0.524107 0.672618 0.191727 -1.193991 -1.095875 0.465910 0.807201 -1.852776 -1.924330 -0.502235 0.945491 -1.200213 1.835644 -2.009140 -1.897250 -1.387856 0.357071 0.634208 -2.183350 -0.685285 0.884059 -3.126977 -0.861160 -1.037289 -0.704145 -2.805788 -0.100062 -2.507670 0.179416 0.575353 0.973287 -0.682959 0.821955 1.383655
characters 0.902269 4.744259 0.863797 0.512982 -0.821292 -2.006856 0.254496 1.030449 -2.300237 -1.812147 0.695103 0.210755 2.412887 -2.124153 1.180711 -1.190213 0.741121 0.320930 2.719336 -2.630110 3.149019 -2.981954 -1.359554 -0.377840 -1.500449 0.570222 -3.229633 1.186110 3.630480 -0.492678 -0.239560 -2.869628 -0.859811 0.176143 -0.972248 -2.122803 -2.903860 1.737520 1.248599 0.541461 -1.431287 -0.553343 1.658697 0.192560 4.617579 -0.050038 2.244969 2.417573 1.007582 0.940320 -0.439100 -2.755889 0.628286 -1.298243 -1.531880 -1.514953 -3.463193 0.432048 -1.376041 0.797320 0.765574 -2.125665 1.572757 0.425996 0.661808 1.745982 0.904346 2.150910 -2.334642 0.395950 -1.225955 -0.969928 -2.594893 -0.362689 -2.233310 0.332763 -1.352669 0.516563 1.166226 -3.362723 -2.675222 -1.530803 -0.662872 -1.335607 1.579728 -0.590913 -3.473830 -4.425494 -0.024411 -0.499010 -0.697382 0.152440 -0.669104 -0.232150 -1.141608 -0.949639 -0.906906 2.423673 -1.386312 -1.102704
think 1.871495 0.156844 -0.736179 -0.316560 -0.389143 1.378849 1.555414 0.834973 2.030936 -2.579663 -0.936877 -1.471829 -0.680285 -1.547634 3.752458 -2.169247 -2.115603 -1.453628 -0.838690 -0.310728 0.500134 -2.861562 0.027439 0.478976 1.202904 1.514995 -0.660381 -0.306326 1.101538 -0.707699 2.427390 0.060948 -0.534032 2.787772 -0.004144 -1.152158 1.361943 -1.692930 -1.649236 0.880823 1.257957 -1.708196 0.484483 0.045448 -1.688093 1.660621 -0.996530 -0.268158 -1.196744 -2.603698 -3.478891 -1.122486 -2.347571 -1.536771 -0.697102 -0.387885 -0.214796 0.998734 1.050020 1.831164 1.095230 -0.037554 0.013827 -0.202738 -0.371099 -1.517796 -3.099823 2.058287 -1.045942 0.947835 -0.946544 -0.105000 -0.376077 -0.353102 0.035483 -1.924194 -0.137023 -1.185279 -1.438055 -1.524070 1.867980 -3.922942 1.061707 0.972560 -0.116046 1.630563 -1.066084 -1.788935 -1.364976 -1.689333 -1.048764 0.381685 0.141797 -0.078624 0.262030 -0.777781 0.239292 -0.078138 -0.636655 -0.929434
character 0.939755 1.795227 2.524827 0.892051 1.951563 0.926231 -0.266271 2.117749 -0.350699 -2.709774 0.961001 1.692283 0.890011 0.165780 1.173272 -1.677927 -0.380529 1.220008 0.576726 -0.429260 4.753489 -1.772010 -0.447733 1.380589 -0.065452 2.520344 -1.013997 0.643664 -0.549732 0.773196 -1.362528 -1.748737 -0.690319 1.575146 -0.886936 -0.864184 -1.659052 1.768932 2.237271 -0.526073 -2.191613 0.834479 1.608981 -0.002509 1.508487 -0.342595 -0.753095 2.124174 2.507997 1.484825 -1.645490 -0.120189 0.175887 -0.618122 -3.955109 -1.246307 -1.729695 -0.172094 -2.146109 0.731560 0.777636 0.746504 -0.996264 -0.879653 -0.679815 3.536064 0.270443 1.441965 -0.111980 -0.796116 0.420633 -0.950047 -2.675547 -2.527155 -1.829040 -0.763134 -1.968544 -0.921703 1.381057 -2.494288 -0.751279 -0.246986 -1.898037 -1.524871 1.429276 -2.512185 -1.958420 -5.250639 1.264695 0.458066 -2.015714 0.611548 1.419883 -1.705310 -0.261851 0.174502 -0.368852 1.502939 0.263971 -3.036248
plot 1.926251 3.604983 2.262105 -0.904739 2.077669 -1.211858 -0.212928 -0.032575 2.116114 0.240105 -0.356910 -0.804538 1.170175 0.655765 -1.392896 0.483909 -1.532612 1.907709 -0.797086 -0.486694 1.754534 -1.472207 1.295545 2.938496 0.861997 1.968749 -1.430622 -0.030449 0.985638 2.701066 1.339523 0.727804 -1.848407 -0.046479 -1.090971 -0.264884 -1.453802 2.873730 1.291548 0.760423 -0.792077 -1.642692 3.136315 -1.130977 0.611605 1.243325 2.847745 0.198582 1.514132 0.277333 0.275844 -1.511919 0.275012 0.974356 -2.225096 -0.637037 -2.344174 0.317074 3.746790 0.949502 1.458390 -2.809448 3.047048 0.276261 0.790258 -0.072783 0.555581 -2.285023 -0.351102 -0.919655 0.438681 -0.116261 -1.427733 -2.015472 -1.593592 -2.341348 0.751143 -1.175506 3.218034 -1.841837 0.637431 -4.936138 0.065897 -0.015247 1.975245 -1.710572 -1.520908 2.154987 0.128121 1.749011 -0.183290 1.775730 -0.621503 2.167742 0.608112 -0.054865 -0.221354 -0.469476 -1.068917 2.466837
being -0.990526 -1.504761 1.048197 1.546684 -0.548823 1.693029 1.550634 0.753613 -0.324911 0.552243 -0.387396 -0.334324 0.664084 2.078904 1.122119 -0.055107 -2.503545 -0.330655 0.134072 0.145060 -0.936644 -0.749321 2.983774 1.183092 1.076886 -0.157703 -1.384110 -2.480429 -0.967053 0.439885 -2.154229 -1.095606 -0.984832 -1.339522 -2.538517 1.796965 -0.253021 -0.529812 1.582236 -3.768653 -0.607786 -2.298727 -0.062022 1.659209 0.497353 0.043373 0.570611 -1.324327 0.706837 1.054058 -0.733241 0.518305 -1.658167 0.127747 0.650884 -2.383306 -0.060293 -0.477823 1.367813 0.177315 -2.987054 0.400195 1.564749 2.229182 0.772002 1.102278 -2.195478 -0.323097 0.007523 -0.038355 0.160763 -0.890765 -0.176562 -0.753010 -0.721769 1.879916 -0.268431 -2.024792 -1.213370 1.149559 -0.394823 0.043125 -1.695774 -1.476197 0.064920 2.051932 0.256985 -0.044697 -0.259772 0.558688 1.719822 -0.838771 -1.557785 -0.976714 -1.455448 -0.216481 -0.322306 1.721535 -1.435597 -1.208552
watch 0.811658 -0.767370 -0.972074 -0.132165 0.474154 1.193165 -0.332642 1.959193 0.548344 1.226103 -0.221346 -1.052068 -2.199095 -3.791507 2.818436 -1.838118 -1.143741 -0.043848 -1.210011 0.648677 1.948663 -1.164294 0.478867 0.352737 -1.130749 1.788043 2.104234 2.475110 2.769691 1.758291 2.956696 0.757054 -1.701584 -2.044189 -0.869908 1.360711 -0.755313 -1.976739 -1.331797 0.938095 -3.643257 -1.536586 -0.738209 -2.233450 0.733591 1.911226 -0.281487 -1.706632 -0.085564 -1.964926 -0.847122 2.756910 -2.966360 -0.370757 -1.119393 0.880733 0.651347 0.282826 -0.350096 0.198681 -1.254915 -0.689782 -1.658263 0.435425 2.861539 -1.289603 -3.458312 -0.953979 -0.890895 -0.617993 -1.487388 0.341383 -2.967165 -0.461529 -1.805102 -1.858348 3.697547 -0.300810 -2.721695 -2.079779 -2.310164 -0.425834 2.912943 -0.538711 2.571561 -0.398146 -1.573707 -1.086293 0.002922 0.990218 -0.503017 -3.012441 -0.115282 -1.691070 0.521756 -3.135235 -1.891348 -0.221900 0.000421 0.978585
acting -0.402048 2.878442 1.648608 -1.497565 -0.215027 -0.773200 0.642404 -0.070750 1.639735 -0.546857 -3.254648 -0.250184 -1.046594 0.133502 -1.199059 -2.015029 -1.819903 1.239408 1.738729 -2.743166 -0.183523 -2.318898 1.339019 0.654077 3.092505 0.349463 0.509799 1.244486 -1.020972 2.244042 1.627451 1.995084 0.408877 -0.053885 0.433354 0.205830 -2.753033 1.891214 -0.516725 0.549619 2.696849 0.658961 -1.042665 1.505071 0.932322 3.287690 0.758052 2.352714 -1.408884 4.200663 -2.050006 -2.524557 -1.236744 0.913816 -1.700351 -0.868301 1.065215 -1.491398 -0.565625 0.997227 1.482536 -3.635860 1.509248 2.152515 -1.448483 0.436296 0.168288 -2.243424 -3.163430 -1.351115 -3.090799 -2.732214 -2.521788 -2.197511 -0.947287 1.680496 -0.447477 -0.054379 -0.545246 -0.361049 -0.035816 0.012571 -0.577808 -2.627059 -1.974051 -0.725400 -1.415352 -0.749745 2.046965 1.274403 -0.862745 -1.251582 -2.650134 0.337810 1.095693 -0.107450 0.613361 -0.157210 0.275323 1.899193
life -0.296852 -0.844119 0.652857 -2.702326 0.242043 1.471447 0.878585 0.993165 -3.585881 1.402588 0.330343 -0.869655 1.178035 2.252035 0.057454 -1.981980 -0.815208 -0.881154 -0.833898 -2.838062 1.412053 3.023826 -0.956143 -1.080328 1.154719 0.447615 -1.943818 0.410802 -2.878549 0.178361 0.859155 0.092186 0.523540 1.123309 2.276556 -2.562277 -2.878051 1.087755 2.868505 -0.874478 -3.307700 0.509203 -0.101737 -0.286545 1.354532 -1.485207 -0.167344 -2.235213 -2.090595 -0.005584 -5.601740 2.945578 -1.758394 -1.459694 -0.400069 0.088925 1.355732 -0.587648 0.184380 -1.707247 0.794614 0.275430 2.747759 2.313405 -0.074020 0.371769 0.055068 -1.004896 -2.016713 2.665709 -1.625143 -1.263669 1.064487 -1.435716 1.201991 -2.379670 0.608897 -0.327578 1.058907 -1.641254 -1.672487 -2.340075 0.595765 -0.704441 1.142872 -2.256327 -1.342039 -1.887011 -0.381193 1.326167 -1.105523 0.066874 -0.184071 -1.423293 -1.210267 1.170292 0.978566 1.441889 -0.449276 1.439803
over -0.812682 -2.125378 1.085246 0.664398 0.721653 1.303881 0.620723 0.268298 -1.623501 -1.209720 -1.838282 -0.625568 1.849393 -0.460613 0.258826 -0.754839 0.040799 -0.028919 0.469297 -2.428754 -1.041030 -1.594899 -0.632953 0.415563 -0.850973 1.549770 3.136574 1.859758 2.480594 1.385129 -2.082298 0.849755 -2.305181 -1.763321 0.255117 -3.318469 1.596909 -3.965711 -0.740788 1.684188 0.392268 -0.296980 -1.763041 2.631522 0.173116 1.372732 1.769113 0.742793 4.195979 0.352830 1.041386 -0.042222 -2.230625 1.736398 0.182748 0.383897 0.430021 -2.914009 3.400269 -2.012208 0.896440 1.764910 -0.880290 -2.503327 -0.633390 -1.693014 1.021582 0.818889 -1.108621 1.116235 1.372437 -0.773180 -1.293655 2.080838 -2.746371 1.285989 -0.339060 -0.490838 -0.045112 -1.026402 -0.737056 1.904564 0.594622 1.620096 -2.843794 -1.292283 0.570007 2.457659 1.708249 -0.621960 -2.299386 -0.289592 -0.918505 1.058811 1.564107 -0.305707 0.086203 -0.741160 -1.339091 0.406372
know 0.663544 -1.933194 0.530207 -1.673100 -1.944742 -0.033175 2.235083 -0.810264 1.379516 -4.731033 -0.985650 -0.605867 -0.604940 -1.900306 3.463767 -3.027193 -0.449107 -2.551098 -2.350613 -0.983079 -0.480742 -0.949662 -1.410019 1.177063 1.851805 1.499016 -1.360403 2.500911 1.592746 0.223287 2.055146 0.997335 -0.121563 2.430016 -0.808276 -0.555562 0.939152 -0.920415 -1.718611 0.066611 -0.323326 -1.415768 1.225687 2.099667 0.164851 1.434337 0.654147 0.701397 -1.991771 -3.099364 -3.350094 0.084458 1.048046 -2.336164 1.266819 0.007690 0.707392 1.541900 -0.637822 1.570010 -0.687176 0.605596 -2.906605 -1.333726 -0.769017 -2.436694 -1.832122 2.041582 -0.447587 3.076280 -1.877980 -0.292131 -0.987536 0.378318 -2.015983 -3.392749 2.177024 -0.039739 -2.544670 -2.102893 0.364902 -5.687635 0.088614 2.520389 0.165050 2.010155 -1.670577 -2.466267 0.166832 -2.153603 -1.846442 1.612442 0.322788 -0.299376 2.106089 0.993361 -0.301620 -1.393764 -0.566575 -0.483990
show -1.587198 0.354920 -1.095659 0.508308 -0.916603 1.428200 1.083164 1.443979 -2.752359 0.625297 -1.431661 0.320469 -0.121883 2.460815 -1.027299 -3.486233 -2.133166 0.511625 -1.041204 0.881342 1.012424 -3.655445 1.054016 2.433715 0.752890 -2.037651 -2.005520 1.364438 0.384389 1.933482 -0.091174 -2.284154 -2.189186 0.411353 -0.495954 -0.310336 -0.686190 1.717500 0.351938 0.485471 -0.040158 -1.215145 -0.602513 -0.541227 0.238340 -0.767500 -0.097472 -0.351976 0.134802 -2.442587 -1.391893 0.460730 -1.308090 -3.622419 -1.710679 -0.755997 0.457258 1.150372 -1.274448 -1.677128 0.589508 -0.325168 -1.506058 1.046668 0.075076 -0.457724 -1.093782 0.106809 -2.853929 -2.655278 1.344968 -1.283218 -0.090708 -0.780525 -0.143489 0.625938 0.822176 0.194048 0.569372 -1.815058 -0.196193 -2.408919 2.022425 1.265347 -1.211194 2.190233 1.234047 -0.401832 -1.463920 1.894043 -1.899933 1.010046 -0.752899 0.715114 2.004036 2.218519 -1.360640 -1.500878 0.113584 1.386332
love 1.730242 0.429012 0.418931 0.168687 0.381540 0.013687 -2.748076 1.067584 1.142649 0.776845 0.311759 -1.881600 0.642775 -0.240385 -0.900291 -3.345993 -0.898748 -5.017423 0.190491 1.299547 -0.786487 -1.198691 -0.575214 -1.380346 0.647411 0.056588 0.289842 1.149393 1.624041 -0.062644 0.532192 1.579228 -0.631442 -0.484728 -0.984704 -2.088074 -0.034751 -1.367394 0.360783 0.560119 -3.173568 0.538354 -2.972238 1.349398 2.527909 -1.354258 -1.423480 0.089811 -2.344751 -0.099960 -1.546662 -0.656907 -1.187141 -1.511622 0.784721 -2.338917 -0.319535 -0.096210 -1.799998 4.296896 0.505218 0.198222 1.018760 -2.772151 0.898429 -1.757832 -2.403373 -0.748451 -2.232728 -1.303692 -1.447132 2.483012 1.262653 0.220010 -1.272957 -2.617701 0.982018 0.324890 -0.338664 -0.068940 -2.768217 -1.078396 -0.805240 -1.139123 -1.898137 -1.242097 -1.387675 -0.025853 2.616885 -3.474309 -0.971362 -1.751768 -1.871169 -1.459871 2.365417 -0.443810 -2.394926 0.425109 1.693875 -0.732048
end -1.730734 1.950805 -1.189697 -0.106000 -0.172199 -2.849885 2.762867 1.976906 2.640230 -0.700617 2.425771 0.674487 0.033429 0.164907 -1.753657 1.288836 -0.867767 -0.914631 -3.192598 0.576164 1.857941 0.260312 2.278390 -1.568498 2.651863 0.944719 -0.833229 -0.576126 -3.048628 2.856455 0.820087 -2.867839 2.206119 2.582544 -1.979438 -2.339884 -0.422927 -4.074897 2.100672 2.362351 0.375302 -1.157145 0.728458 0.611576 1.387894 2.783988 0.762533 -1.531930 2.036343 -0.276042 1.324211 2.114785 0.717467 -0.705896 1.254484 0.342416 -3.582679 -0.881080 -0.985034 0.625297 -4.773672 -0.075593 3.069020 0.968667 0.365838 1.058412 -0.588593 1.920625 -3.329861 -1.334486 -1.278927 -1.081977 1.399173 -0.143646 -1.003780 -0.434055 1.540313 -0.075412 1.303047 -1.962307 -0.645768 -4.273348 2.462011 -1.900489 -2.018569 0.694690 -0.775773 -2.187623 1.231485 -2.165843 -1.211506 -0.069588 -2.326882 -0.895610 0.520193 -0.802181 -3.332061 -0.584650 -0.679935 2.916159
say 0.438867 -1.806502 -1.078216 0.243357 -0.646591 0.726578 1.740055 0.187689 3.268186 -2.581604 -2.663783 -1.677467 -4.738905 -1.735617 1.934172 -3.081334 -3.590607 -1.566263 -0.829252 -0.875334 0.850287 -0.625809 2.606420 0.894050 -0.697127 0.210462 -1.683018 1.180779 -0.318457 0.820944 1.646806 2.354394 -1.838572 1.672742 1.919302 0.992899 2.000449 -1.728619 -0.016540 2.174157 -1.615571 -3.077769 -0.639969 0.381508 -0.011259 3.671533 -2.542305 1.872064 -1.792977 -1.427309 -1.322357 -2.277234 -0.590279 0.158837 -0.235991 1.905273 -0.359478 -1.730233 2.068277 -0.097990 0.189749 -1.258985 0.785963 2.017811 -0.023682 0.373413 -4.840619 -1.535688 -0.611881 1.348692 1.118238 2.098351 -2.718981 1.775434 1.093134 -2.619777 0.749393 0.334105 0.924795 -2.280739 0.587362 -1.506813 4.415925 0.067091 -1.153519 0.684762 1.004142 -2.283256 0.683567 1.493121 -1.450970 -0.738468 -1.956620 0.271728 -1.364555 -1.095963 -1.162601 0.833535 0.549892 -0.550910
scene 0.614660 -0.376251 0.955398 0.335516 0.269905 -0.673662 0.839421 -0.710984 0.550913 -4.120120 -1.684145 -0.928284 0.355775 0.818682 -3.118516 1.177169 -0.527712 2.924875 -1.511885 3.348785 3.462909 -0.590061 1.931318 -0.551305 0.550900 0.985797 -0.819779 -2.365093 0.104210 2.429672 -2.730230 1.120200 0.280721 1.621350 -1.872900 0.368319 1.463298 3.094918 -1.652660 -2.740303 -2.234586 3.486433 -0.680251 -1.530421 1.054601 1.950290 1.564680 -1.511238 1.529275 -0.650476 0.784097 -0.027155 1.561958 -2.851113 1.680309 -0.313646 -1.817806 -2.628013 -4.080864 -1.071438 3.269123 2.695654 -0.320561 2.949784 1.027292 -1.357971 -1.891053 0.895914 0.777789 -1.618607 1.166692 0.477885 -1.342913 -2.851653 -3.700055 -2.674518 0.541202 -0.286103 1.634629 -2.113331 2.088199 -1.562930 -1.222985 -2.210613 -1.907904 -0.041077 1.639603 -0.193929 -0.415005 -2.606072 -1.525679 -0.012015 -2.943483 -0.928076 -2.425434 -1.550865 -0.326818 -0.055479 -0.587174 1.985241
man -0.709189 1.674100 1.449966 -1.466668 0.099112 1.629269 0.761134 1.855691 -0.861632 -2.558008 0.891914 -2.376826 -0.659315 0.653129 1.929720 -1.565292 0.438439 -3.554299 -0.343077 0.735754 -0.154154 1.269869 -0.207070 -1.264771 -0.903313 -0.134977 -1.918890 -0.677159 -1.059816 2.198147 -1.987052 -2.332351 2.174184 1.959481 -2.080881 0.894221 0.503284 0.965856 1.067679 -0.369403 -0.925279 -0.981183 -0.423431 -0.093460 -1.021526 0.931240 -0.191072 2.740733 0.577689 3.105840 -0.666162 0.359684 -0.604515 -0.897703 -3.137745 -0.072816 -0.496638 -1.553564 -1.037174 -0.683839 0.510056 1.110464 -0.473421 0.272480 -2.244405 1.384938 -0.623177 0.502915 0.497349 -0.776821 0.604114 0.926754 2.109158 -1.923339 0.053895 -0.752251 1.196199 1.259419 1.834815 1.132779 -2.379222 2.975225 0.671306 -2.766146 -0.798199 -0.121639 -2.513359 0.739478 3.022037 -0.473029 -1.154227 1.657127 -0.652214 0.006350 -0.763397 1.920110 -0.912988 -0.008607 -2.297998 -1.635756
go 2.275541 1.169788 -0.465172 1.245115 -1.648364 -0.122019 -0.875747 -0.058364 0.083624 -0.841281 0.715286 0.479537 -3.844121 -1.939459 0.961141 -4.311936 -0.939655 -0.872427 -1.211291 -0.691705 3.710374 0.896880 2.617748 0.121770 -0.789107 -1.481097 -1.471582 1.282319 0.908311 0.080199 2.968553 0.316014 0.736790 0.056106 0.908380 2.797692 1.121660 -0.066576 -0.178402 -3.115976 -2.567099 -1.823365 0.890904 -0.774267 -1.109335 1.775448 -0.236284 -1.060638 0.892978 -0.180476 -2.487307 2.539121 -0.637935 1.724644 -0.997187 -0.450705 0.801458 -0.761771 0.524316 -0.295647 -1.971948 -3.150953 0.044536 -1.116069 -3.046758 -4.836499 -0.831102 -3.177280 -0.500988 0.708212 0.334520 -1.404463 0.458454 1.297538 -2.444455 -2.831098 1.662600 -1.623969 -0.755498 -1.145003 0.057980 -1.723861 1.562845 -0.176707 -3.188951 -0.477031 -0.439730 1.480536 -1.628200 -1.905013 -0.164262 0.167809 0.742924 -3.216788 0.552597 -1.043474 -1.025048 0.417883 1.456582 -0.853886
back -0.486272 -1.184293 -1.151026 -0.437616 1.537895 -2.121214 -2.721514 0.743457 -1.337842 -0.814533 -0.280983 0.603906 -0.249473 0.022387 2.756847 -1.322209 0.159937 1.990942 -1.815776 -0.671552 0.903469 1.796322 -2.453110 1.225687 0.320297 0.141810 1.970467 2.208041 1.753274 0.373483 -0.761220 -1.233719 1.199747 -0.260292 1.519380 -2.136764 -0.820286 -2.436660 1.844565 0.633129 -2.814327 0.554893 -2.495264 2.324387 1.736486 -0.962810 -1.832749 0.593050 2.337030 0.104352 1.584785 1.059013 -1.118887 -1.678111 1.050419 1.569998 2.901190 0.994360 0.740533 -1.636084 -1.428786 2.500090 0.208040 1.550342 -3.248088 -2.109117 0.454776 -1.391198 -2.970024 -1.266048 -1.375239 -0.896878 -0.117024 0.234291 0.509408 -3.297334 -0.778066 0.947077 -0.954386 -0.228588 -0.120137 -0.517973 2.398973 0.184973 -0.582750 0.332432 0.956826 3.664630 1.428838 0.573616 -0.709448 -0.957040 1.848097 0.892122 -0.237835 -0.977393 -1.350872 0.289730 -2.990107 1.206554
real 2.374625 1.025497 0.044350 0.357036 0.248715 -0.414135 0.208319 0.236502 1.130919 -0.039715 0.495736 1.945559 -0.704195 -1.031609 -0.811038 -0.310339 0.926978 -2.825537 0.253317 0.631185 -2.200434 -1.701777 -2.156825 1.389699 -1.458505 -0.375130 -1.464367 -0.225217 0.870345 -0.342841 -1.777226 0.189902 0.026599 0.043315 2.395926 -0.988915 -0.411513 -0.468934 -0.192257 -0.423665 0.934186 -1.773233 2.023329 -0.094087 2.436697 0.271315 -1.568272 0.360632 -0.890842 -2.760044 -2.139134 -0.296477 -0.974883 -1.429204 -1.446037 0.977054 1.323671 0.202384 -2.098776 -0.726238 -4.205725 -1.285722 -0.852143 1.214144 1.731859 1.682119 1.737409 -2.235035 -2.498279 -2.058767 -2.188462 1.912506 -1.334206 -1.556006 1.336723 -0.400953 -1.029125 -1.339051 -0.352643 -0.137791 -0.435466 -0.958437 -1.897536 -0.548320 -2.613343 -0.797486 -0.714941 -0.154147 -1.342228 0.567280 -0.747964 -1.864898 1.015567 -0.500062 0.053360 0.492547 1.394876 -0.306902 -1.077678 -1.081200
thing 0.263493 2.722581 0.535999 -0.968767 -0.001389 2.256668 1.798043 -0.174994 -0.718430 -4.045085 -0.471248 0.685928 0.960618 -1.872688 2.008900 1.561654 -4.206741 1.865771 -3.720256 -2.141889 2.949221 -0.256466 0.700397 -0.768186 0.924080 0.807576 -3.328457 -0.063034 1.818687 3.126903 -1.112316 2.201699 1.158328 2.703918 -0.315330 -1.332996 -0.747529 1.686986 -3.390193 -1.573795 0.824828 -2.710410 -0.386096 -0.535557 -0.776104 -0.509486 -0.546559 -0.785574 1.139804 0.984542 -1.407228 -2.864806 -1.499076 -4.711825 -0.143738 -1.628978 0.020467 -0.484928 -0.120681 1.181310 1.308972 3.183862 1.788504 1.916173 0.878010 -0.538250 -3.339182 -3.979121 -0.225471 -1.750324 -0.452216 -1.899110 -2.083663 -1.794747 -0.904577 -1.679608 1.609119 1.354075 3.724714 -1.523228 -0.605162 -0.447760 -0.151469 2.602200 -0.358636 1.278419 -1.406975 -1.950495 0.018922 2.661421 -1.010033 -0.463495 -1.078035 -0.016375 -0.929099 1.375294 1.828063 0.396048 1.142147 1.843061
old -1.255544 2.422506 -1.778659 0.138698 0.359544 1.626794 2.898710 -2.924142 -2.338420 2.096322 -2.913384 0.148340 -0.559568 3.080089 0.657561 -0.223925 1.688996 -1.975963 -2.041811 0.349660 -2.433266 2.336106 -1.107064 2.477320 -0.870912 1.577614 2.047672 -0.945615 -0.309500 3.719319 -1.233671 -1.599376 -0.451355 0.865112 -0.351043 -4.403443 -0.140273 -3.611505 -0.461100 -2.570090 -2.500124 -1.584911 -1.750076 -0.294833 -2.551245 0.510550 -1.649632 1.525562 1.785909 1.833519 -0.451004 1.764262 -0.366180 -0.658598 0.866105 -1.377054 3.911419 2.488492 3.100820 1.917254 -0.977847 -2.118331 0.121889 -3.217051 2.095969 -1.251165 0.235115 0.690913 -2.488569 0.283876 -0.284487 0.208836 -0.600090 -0.687187 -2.057532 -0.190068 -1.990498 0.579702 1.130834 -0.205734 -0.366064 0.451259 1.225296 0.749617 -2.743894 1.588802 -1.135045 1.319933 0.767835 -0.779539 -1.311175 3.141651 2.371500 0.020364 0.786405 -0.198656 -2.457758 -0.616443 -1.772612 2.224194
work 1.800784 -0.082009 0.276363 -0.034543 -3.728496 -1.052087 0.289923 0.785195 -0.362478 1.029117 1.683293 -0.526707 -2.179391 -0.782929 0.908124 -1.270997 -2.027840 -0.054174 -1.989355 -0.686141 -1.929579 -0.854826 0.185008 1.540688 0.146981 0.138110 -0.130427 1.826064 -0.057039 0.961357 0.252345 0.750834 0.879180 1.462045 -0.597519 -0.074971 0.277593 -0.259082 -0.244733 0.093311 0.268468 1.445139 -0.839365 0.519358 -0.104215 3.122594 1.548669 -0.243054 -0.114056 0.723256 -4.172717 -0.842436 -0.582820 -0.334044 -2.087977 1.265374 2.559455 -1.738510 -0.818748 -0.798234 -1.026020 -1.485154 -0.285959 2.511700 -0.565665 -2.289614 -0.770952 -1.050496 0.084788 0.002542 -0.928171 -0.086212 -0.139940 1.556597 0.190583 0.442211 -0.147630 -0.413156 1.184634 -1.231543 -0.240925 -1.710009 -0.486026 -1.934407 -0.955592 -2.914926 0.645416 -3.408098 -0.135109 -0.465453 0.144697 2.634077 0.694802 -1.901914 1.259339 1.788800 -1.090712 -1.530532 2.103691 2.251584
makes -1.447523 1.315462 -2.348408 1.898988 0.012778 2.086700 -0.791874 1.387570 -0.933481 0.009176 -1.819358 3.173967 -1.888816 -0.920780 0.930398 2.339129 3.336472 -4.042426 -1.633708 0.638911 -2.063275 0.206891 -0.817336 0.473232 1.162627 0.062668 -2.182737 2.167307 0.585861 -1.135747 -1.618460 1.407315 -2.140611 0.216622 0.219641 0.284398 -0.286042 -2.762343 -0.423881 -1.020934 0.173483 1.915100 2.221779 -1.973285 1.345415 -0.056046 -1.199324 0.019182 1.771907 3.561547 0.695708 2.585505 -1.768792 -1.505304 1.341052 -2.269324 -1.982857 0.198296 -5.253675 0.325743 1.640651 -1.342743 1.551297 1.157176 -0.025231 -1.382425 1.570618 -2.216177 -0.328608 -2.214181 3.234702 0.708861 -0.506774 1.485309 -0.650117 1.640262 1.033741 -0.680755 -4.394311 -1.068654 0.526792 0.315921 0.591742 -0.747614 0.964733 -0.505906 -1.453972 -3.453000 -0.461999 2.675217 0.024995 0.836670 -3.671158 -0.120906 0.203176 -0.480411 1.571474 -2.117674 -3.045505 -0.708777
funny 4.446569 3.113684 -3.792428 -0.895624 -0.327723 -1.211091 2.046015 0.603208 -0.522410 -2.430691 -0.022100 1.474840 -1.315791 -0.292571 -1.853874 -3.306103 -0.382569 1.263143 -2.439620 0.107530 -2.492103 -0.508135 0.263143 1.599427 2.141090 1.926712 1.511528 -0.120339 1.604164 0.019664 0.112565 0.969695 0.026742 -2.394146 -0.499081 -1.303804 0.817672 0.872155 1.632074 -0.317802 -1.664154 -2.611665 -0.915584 -0.711274 0.797529 0.904772 -2.925456 0.354920 -1.185263 -1.612216 -0.106003 -1.340497 -0.658716 0.944765 -2.478182 -1.775075 -0.306438 0.608841 -1.376194 -1.832326 2.694216 0.349706 -0.408557 0.580535 1.437389 1.417840 -0.763225 1.381099 -0.613890 -1.250542 2.896835 -0.817801 -0.153886 -0.145460 0.124484 1.191010 0.034846 -2.060477 1.062208 -4.001231 0.662069 -1.699318 1.173109 -0.227210 -1.111539 2.201461 -2.739029 -1.532472 1.563659 0.112520 -0.873301 -1.322053 1.082692 -0.638722 1.068943 -1.233408 0.223526 0.733382 -1.212516 2.551905
find -0.968937 -2.709213 -0.356032 -0.130333 -1.718815 -0.592769 2.750249 -0.261033 -1.307494 -1.628513 -0.549738 0.434361 -1.937127 -4.155531 2.310699 -1.600015 -1.495901 -3.310015 -0.772186 0.388122 2.481298 -1.480702 2.087462 0.148123 0.115373 1.490656 1.564817 0.638552 1.125459 0.474897 3.833701 2.183660 -0.186469 1.944698 2.618977 1.908876 0.894353 -2.778623 1.301403 -2.301743 -1.310729 -1.922754 0.351686 -1.712327 -0.893222 2.018442 -0.288192 -0.824135 0.692733 -3.901703 -1.860103 -1.326716 0.204348 -1.500652 -2.321498 1.079710 0.138813 1.518817 2.811573 1.761796 -0.680163 0.365944 -0.077807 1.580889 0.098463 -1.857580 -2.593760 -1.660699 -0.162442 0.503199 1.229125 0.977031 1.542376 -0.085963 0.521140 -2.284445 3.921829 1.109982 0.309890 -3.291097 1.264396 0.118698 0.877858 -0.820971 2.458178 -1.696911 -0.284672 -1.133178 -0.415734 -0.356653 -0.180349 1.214545 -0.103271 -1.307869 1.708394 -1.618604 -0.331307 1.019601 -0.309386 -2.028458
same 2.744514 2.398684 0.853802 0.765674 2.348154 -2.572626 1.152187 0.064339 -1.384846 2.410078 1.280072 -2.280212 1.522174 -2.053153 1.331581 0.791896 0.224609 -1.639943 0.850002 0.915376 -2.204358 -2.138711 0.624858 3.562731 -0.046398 -1.983351 1.885991 0.210540 -2.574403 -0.061988 -0.953227 -1.996978 2.613678 -0.514256 -1.568216 -2.909135 0.190274 -2.829024 0.710733 1.685154 -1.343499 -3.021482 0.785832 -1.870146 -0.386799 0.778433 0.364506 0.940194 0.127469 -0.273368 0.496433 -2.075288 -0.686833 2.259225 -0.741113 -1.358272 0.075485 1.170819 0.657866 0.495827 -1.040707 1.719495 -1.019248 -0.714483 -4.096308 -0.316034 -0.226811 0.322026 -1.190609 -2.020869 -1.475787 -0.272618 -1.247006 0.583303 0.726034 0.348738 3.096370 -0.392152 -0.724962 -1.283382 -1.406609 -0.935935 -1.223372 1.214517 -1.458803 2.162102 1.035737 -0.492616 0.102865 -0.699760 -0.820441 1.747418 1.453857 -1.301112 2.239633 -1.036967 0.479529 0.273628 -0.801397 0.771867
look 1.632515 1.358209 -0.265812 -1.592332 -2.181617 0.984578 0.907176 1.264183 0.096090 -1.194848 -1.842117 1.670995 -2.583231 -0.704963 2.737737 0.996440 -1.650041 0.152034 1.189340 -3.138449 1.567978 -2.187959 0.491917 0.098007 3.969294 2.573000 -0.098903 -0.163525 -4.136417 1.651416 0.518458 -3.227037 3.491139 -0.715508 -3.342768 0.318054 0.743314 -2.851956 -1.286387 1.993318 -2.850108 1.932591 2.485867 -1.704696 -1.086088 3.546108 0.240745 -1.513271 -0.183222 -1.604187 -0.984804 2.743739 0.578005 -2.295591 -1.711446 0.604181 0.494224 2.555655 -0.171831 -0.996247 0.384282 -0.625172 -2.903660 -0.914447 0.943202 -0.297177 -1.028039 -0.868936 -1.818048 -0.830107 -3.786537 -1.189217 0.465050 0.243238 0.891161 1.527495 1.413854 -1.797541 -0.762572 -3.320764 -0.304392 -0.230973 1.867582 -0.939231 1.092476 0.264024 1.120407 -1.587862 0.184941 -0.670461 1.780620 0.259025 -0.355329 -1.830957 0.515734 -0.415892 -0.671804 -1.108149 0.932037 0.878009
part -0.493754 0.011305 -0.097046 -0.118411 -0.729254 0.307350 -0.388427 -0.080778 -0.697879 -1.345318 -0.472543 1.594847 -2.412038 0.378767 0.598634 -0.004193 -0.775223 0.115959 -0.970622 0.890695 0.353920 0.148522 -1.297353 -0.171064 0.700802 -0.171973 0.331768 0.088743 1.704372 0.425261 -0.046158 0.053409 -1.783882 3.095603 -0.904715 -0.749344 -0.193270 1.788230 -0.081085 0.687511 1.770003 -1.141500 0.354529 -0.010899 -0.196977 1.079491 -0.438396 0.697330 2.152210 0.654158 -2.127794 -1.450140 0.080693 -3.064455 -1.437523 -0.399334 -0.062053 -2.644906 -2.249624 -0.946674 0.053269 2.371577 2.188313 1.229444 0.561339 0.302790 -1.571446 0.975702 -1.871574 -0.860114 0.774149 -2.957240 -2.601742 -0.056965 1.169815 0.559439 1.776898 0.159273 1.939841 -0.890217 0.064109 -0.123153 -0.842823 0.582847 0.202596 -0.456213 -1.029493 -1.119730 1.311490 -2.144314 -0.817496 0.438453 1.378159 -0.782903 -2.418593 -0.804386 1.343315 0.324204 0.934737 0.698059
cast -0.972226 4.913581 1.970034 1.350687 -0.629206 0.073645 0.051655 2.671327 -0.243364 1.503734 -0.422899 -0.982351 -0.704586 0.309184 -0.100789 -0.185641 -0.515854 1.124977 1.919755 1.178447 2.106243 -4.798786 -0.534073 0.810080 1.678842 -0.069363 -1.420993 0.281675 0.728402 2.572292 0.493457 0.498899 -1.534366 3.206363 0.115010 -2.093505 -2.102884 0.317010 -0.256068 -0.115582 1.963586 -1.443150 -2.851745 1.672911 -0.420847 0.763388 0.345782 2.625650 0.671054 2.866999 -0.593274 -0.258381 1.449891 -2.311411 -2.006321 0.829532 1.345470 -0.289683 1.195084 -1.350077 1.907755 -3.222990 2.159374 0.281610 0.854299 2.451590 0.617147 -0.709354 -0.396713 -0.646033 -1.067598 -1.341623 -1.652050 1.229472 0.014157 1.471330 2.446737 -0.367911 -0.269536 -6.091019 0.966164 -1.693466 -2.837105 -1.677975 1.639109 -0.959963 -1.377257 -1.315953 0.720006 1.401280 -1.056621 -0.534390 -0.426598 2.557760 -1.698559 0.165133 -0.803471 -0.910473 4.751845 0.534336
want -0.432701 0.739188 -2.767356 -1.049546 1.330024 0.387417 -2.508606 0.871686 -0.777984 -1.969140 1.853377 -0.554403 -0.137082 -3.561243 2.096410 -1.359432 -1.586568 -1.786902 -0.877477 -2.684432 1.459423 -1.118711 0.093303 -0.173458 1.947210 0.436940 -2.523937 2.092100 -0.486992 -2.131485 1.161266 1.131177 -0.409668 -1.661860 -2.812711 -0.086618 1.873201 1.476384 -0.555048 -0.124776 0.347649 0.314533 0.475009 0.152762 -2.704767 1.827043 -1.084470 -1.780677 -2.473736 -2.036206 -2.449898 2.419160 -1.263435 -0.165253 -1.574021 0.831971 0.897925 1.941648 -0.712247 1.726567 -1.588170 -1.018690 -0.524389 -1.938355 0.870545 -4.719608 -0.000065 0.614605 1.810418 0.925237 -1.945752 -0.094949 -0.191591 -0.765900 -2.358124 0.166225 0.392354 2.599156 -1.394794 1.553558 -0.155290 -2.518795 -0.460566 2.136480 -2.197090 -1.795286 -1.879364 0.042766 1.587005 -2.563618 -3.076510 -1.733705 -0.118529 -1.075878 1.405865 -1.677216 -1.355047 -2.145872 -3.596620 -0.920503
down 0.006769 -1.313974 1.418089 -0.073770 1.086561 -1.242586 -1.578826 -0.779260 -0.102149 -0.845153 -0.224533 0.254320 0.178195 -2.057729 2.018361 -2.751011 -1.308524 1.989599 -0.396965 -1.225666 -0.477258 0.895763 1.702266 0.825198 1.444526 0.494237 -0.242021 0.598966 1.769528 -0.922161 0.628138 0.058371 -0.673802 3.194132 2.270365 -1.088163 -0.450926 -1.458176 1.310409 0.902260 -4.347363 2.327704 0.506605 4.722683 2.737885 -1.059140 1.433807 0.179290 3.212097 1.348438 3.802641 2.777267 -2.824952 -0.212163 -0.109938 0.197349 1.286402 -2.921112 1.469339 -3.874349 0.176241 3.877398 0.100307 0.608179 -2.362288 -0.269614 -0.593335 0.018041 1.743970 -1.149190 -1.129523 0.066777 -0.805908 1.581546 2.183488 0.007448 -0.170213 1.139038 -0.704134 -0.122520 0.830991 -3.437951 0.819771 0.246512 -0.616694 0.172479 -0.984457 1.909012 0.238487 2.574154 -3.111580 -1.773169 0.412012 1.181484 -0.810986 0.866692 -1.886299 -0.299528 -3.201195 0.814020
seems 0.308621 2.038273 -0.887721 0.130776 0.984382 3.372570 -1.389752 -2.644569 -4.569952 -1.420059 0.870142 0.756196 -2.189379 -1.824820 0.033072 3.244205 -0.664130 1.180129 -1.649300 -0.757013 -0.543481 1.500480 -0.497571 1.398001 1.259706 1.445271 1.749760 -1.055002 -1.953468 -1.112511 -2.459340 -0.643759 -1.246071 -1.200938 2.474372 -1.003933 0.149262 0.219706 1.617797 4.709080 -2.503109 0.195389 2.378638 0.428609 1.641804 2.793042 1.984333 2.681243 -0.229629 2.251779 -1.136537 0.980953 1.113122 1.439058 1.055970 1.682092 -0.856502 0.401578 -0.279141 0.602066 -0.270126 -0.616594 -0.524320 1.841417 3.167125 0.572337 -1.729659 1.550961 -0.172041 -1.472381 2.208163 -1.770958 1.135444 0.262670 0.977051 0.669721 0.076972 0.652068 -1.324992 -1.853143 1.846416 1.569330 -2.318960 1.945213 0.777962 -2.930468 -0.734118 -1.062369 2.137045 3.095479 1.890144 -0.332733 -2.221932 -0.816040 1.097077 0.511754 1.530305 -0.419537 -1.009155 -1.153825
pretty 1.286412 0.637522 -1.807232 0.734395 0.070951 -0.671004 0.356753 0.966569 2.962193 -1.474257 -2.771208 -0.540050 -0.980840 0.992402 0.027229 -0.003753 -2.112914 -1.667117 -0.584096 -0.994561 -1.542591 -0.652458 0.266878 -0.971565 1.299301 -1.941010 -0.001977 -1.415054 -2.220238 -0.326125 1.034494 1.121961 -2.733043 -0.159570 -1.922550 0.264996 -1.596755 -0.044920 0.988824 -1.239432 0.894345 -0.410454 -1.146948 0.839716 0.003518 2.094008 1.333167 -0.309845 -0.305531 2.926297 4.461420 -1.280297 -1.831120 -0.523140 -0.523929 0.640337 1.712776 0.574467 -1.042141 2.084594 1.155828 0.385357 1.499229 1.226790 -2.144441 1.529039 0.450760 -1.653152 -1.728055 -0.813722 -0.336424 -0.619770 -1.767736 -2.213357 -2.460475 1.900096 2.010048 1.244427 -0.858159 -3.893461 0.257725 -0.255341 2.435721 2.595322 2.931381 -1.180286 -2.166821 0.709074 -1.802375 1.205591 -0.381973 0.497507 2.235105 -0.562193 -0.435958 2.270910 -0.676386 -0.846932 0.561656 -0.111314
fact -2.000909 -1.048805 0.026469 0.792132 -2.040957 0.149560 -1.303185 0.935783 1.151714 -0.710942 -0.710291 -1.733743 -1.558430 0.757925 0.202668 -0.004419 -1.971874 -1.352449 -3.747375 -1.117279 3.041550 -1.392755 1.402628 2.067704 0.194042 0.109683 1.891390 -1.550308 -1.603882 2.779169 -2.531758 -1.333911 1.276869 0.786843 1.600076 -3.802663 1.298991 -1.054113 0.097635 0.934263 3.215761 -1.870322 0.245179 -0.940824 4.892109 0.499436 -1.164723 0.180539 -0.804864 0.461340 -0.951973 -1.963579 -1.432984 -2.041025 0.228356 0.771103 -1.441123 0.097621 0.155563 1.488226 0.803682 0.705647 2.448761 3.343949 -2.109733 1.542984 -1.027985 -0.391765 -0.283456 1.725713 0.034415 -0.327604 -1.116825 -1.972353 -0.507161 0.957441 1.214172 -0.002161 0.795440 -3.388206 0.986383 -2.392754 -2.727599 -1.686533 -0.946303 0.100110 1.459291 -0.557944 -1.148730 -0.681319 -0.184781 -1.532909 -0.844609 -0.854479 -0.850399 -0.208488 1.473552 0.878277 -2.023227 0.689874
own 0.393259 0.153940 0.775225 1.186290 2.443334 1.540367 0.099899 1.663746 0.759160 1.677919 0.917813 -1.557564 -2.520709 -0.535133 1.037206 -2.659355 1.030433 1.377691 1.075603 -3.974484 -0.587616 3.447823 0.739997 -0.233339 1.274594 1.351497 0.408941 1.392253 2.435876 -2.330463 -1.682421 -0.676798 1.198042 1.299139 1.179475 -2.697679 -0.449175 -1.000127 3.709260 -2.291353 -1.724311 1.604106 0.321923 2.549674 -0.248783 -1.532113 -1.722475 0.992973 0.805093 0.928094 -0.892564 1.623501 -0.777780 -0.844078 -0.521225 0.376618 -0.037472 2.056832 0.624672 -1.220491 0.132171 1.327749 0.464065 -1.168898 2.640847 0.085164 -2.271459 -2.006649 -1.086882 -2.979120 0.895326 -0.902657 0.343408 0.389552 0.714762 0.449331 0.425059 -1.621227 0.314658 0.155554 -0.749592 -1.009422 -0.746791 0.500634 -0.152353 -0.145531 0.626439 -2.425155 -0.851636 -1.890543 1.543608 2.161117 2.317430 -3.052274 0.231574 0.535121 -0.925634 0.247868 -0.407349 1.036683
take 0.317986 -0.537666 1.083098 -0.092893 0.001781 3.095114 1.582643 -1.081668 0.021782 0.769188 -1.517268 -1.486465 -5.488794 -1.635658 2.674231 -1.305932 -2.002327 -2.321504 -0.109988 -0.867815 1.403844 -2.539269 0.651153 -1.627037 -0.260176 -0.136965 0.149104 2.607885 1.660437 1.057277 1.956858 0.510918 1.086340 -3.544884 1.479415 3.062568 1.823828 -1.988802 0.662566 -0.535531 -0.737134 0.499565 -0.612166 -2.167362 -2.849195 1.900784 -1.866912 -0.053520 1.547871 -1.419584 -1.036046 -0.187320 0.047217 0.914494 -1.538417 0.628966 -0.041300 -0.205093 0.396986 0.715948 -1.601208 -2.943469 -1.561639 -0.063621 -2.462936 -3.642238 -1.215885 -2.981787 -0.310089 -1.843571 1.789832 -1.613211 1.442681 1.887118 -0.367161 -1.194039 1.445265 -1.444197 -1.008017 -1.616443 0.350363 -1.626192 0.444902 -2.280797 -2.429002 -2.515987 0.509530 -0.667908 -2.251253 -2.791785 -1.141172 0.485435 1.586568 0.319649 2.056232 -0.433589 0.110779 0.353660 -1.685640 -1.641358
world -1.529404 -1.406999 -0.083917 -1.387022 -1.049410 1.744281 -0.696205 2.256964 -2.778034 1.539853 -0.243140 -2.297118 -0.488470 0.656941 -0.128265 -0.421453 -0.195165 -0.523651 0.878609 -0.938498 2.500081 -0.665077 -0.791899 -0.417640 0.374111 -0.030028 -1.044678 0.957701 -0.736317 1.048097 -2.603910 -0.108382 -0.042344 1.509191 -1.683166 -1.333107 -0.633265 1.441664 1.468545 -1.282641 -1.312192 0.838692 0.743407 -2.352191 0.093674 -0.088378 1.080439 -0.854933 -0.163333 -0.836303 -3.964324 1.459441 -0.723447 -1.476618 -0.245649 0.223712 -0.743995 0.619716 0.050126 -2.356878 1.000520 0.309865 2.648085 1.993988 -0.776365 0.799674 0.920356 0.745943 -1.747446 1.181881 -0.814645 -0.501309 0.912411 -1.108346 0.201998 -2.238802 2.900526 1.367811 0.788192 -1.795048 -1.890228 -1.882408 -0.437000 1.215410 -1.808437 1.769155 -1.614060 2.022821 -1.432014 -0.402167 -0.736157 -0.858713 -0.806809 0.615747 0.302996 -0.712254 3.573120 1.300941 2.128844 0.017454
long 2.285430 2.307167 1.376504 -0.464707 3.542189 0.052072 2.067521 -1.316379 -2.399979 -0.982392 0.847705 0.086342 1.443170 -1.472392 0.622779 -1.370801 2.198005 0.846966 -1.072834 -1.197215 -1.858663 1.274213 -0.543648 1.588767 1.413468 1.623679 -1.997317 0.241154 0.679795 1.286541 -0.344945 -0.292743 -2.666171 0.177466 -0.258366 -0.660044 0.325731 0.032714 -0.366535 2.156516 -1.864019 -1.650489 -0.143268 -1.529759 0.846808 -4.284873 1.008072 -1.079519 1.828299 -1.480649 -0.299496 -0.873754 -0.099506 0.712928 -1.003265 3.870633 1.045934 -0.841317 0.793407 -1.392205 -1.859817 -2.917031 -1.241563 -0.560604 -1.810511 -2.014242 -0.365937 0.910311 -0.912812 -0.150516 0.701287 -0.843147 -1.501289 -0.518300 2.831189 0.015939 2.841119 -0.765263 -0.462913 0.922522 3.513539 -1.034572 -0.487512 -4.112955 -0.203610 0.766237 -0.301648 0.949666 -0.211543 -1.017565 -0.590915 -0.065046 -1.134309 -1.561160 -1.399549 1.859958 0.485830 1.604249 -1.594613 3.740060
series -2.405005 0.679107 -1.941212 -0.913480 -0.136873 0.937272 -0.718638 2.234696 -2.786715 1.323978 0.613674 -1.182183 2.928643 1.506718 -0.042441 -0.497788 -2.348323 0.262565 2.007518 3.613299 1.677733 -1.888372 0.408236 3.579512 0.790291 -0.258160 -0.652472 2.319073 0.533100 1.213095 1.252502 -1.558337 -1.891709 0.681675 -1.836373 -1.033967 -0.176060 2.528925 0.292375 2.752410 1.966123 -0.692741 0.368413 -2.597537 0.975005 -1.263829 0.704424 -1.334616 2.070347 -2.315825 -0.769378 -1.381564 -0.443338 -1.843761 -1.729540 -0.826710 -1.414838 -0.588594 0.264421 -1.871654 -0.105420 -0.169513 1.118417 0.877851 0.872976 -1.099205 -1.416458 0.528474 -1.728478 -1.667535 -0.991874 -2.756618 0.197961 -1.370981 -0.832697 0.920150 0.233330 -1.352096 2.272048 -2.407388 -1.868218 -1.671639 1.201844 0.506835 0.906618 2.702487 0.974216 1.060684 -0.526414 0.558208 0.444495 0.006131 1.433501 -1.787553 -1.121256 3.953868 -0.445413 -0.264256 1.091256 1.547542
young 0.376183 0.769934 -0.240712 -0.636991 2.197249 -1.001102 -0.423580 -1.577698 -0.653817 2.272499 -2.633899 -1.449697 -0.931173 1.032367 -1.723129 0.043120 -0.489957 -2.163678 0.997750 1.357114 -2.065895 -0.740627 0.626008 -0.515285 0.234424 -2.343366 1.030993 -1.008347 -0.756828 2.945399 1.434252 -3.075799 -0.155296 0.918033 -0.105165 -1.896677 1.481444 -1.059274 -1.236952 -1.697086 -4.444179 0.253447 -0.741652 0.669768 0.276426 -1.180837 -2.621901 -0.428164 0.192649 1.578654 -3.016701 2.139917 1.040048 -2.725105 -0.295285 0.172426 0.467547 0.386186 0.239926 1.990774 -0.386396 0.552089 -0.168225 -0.188028 1.327886 0.671956 1.483817 0.991004 -1.081362 -0.016762 -0.824852 1.234737 -0.285526 1.921040 -1.071136 -1.245926 1.007491 -0.159420 0.953718 0.543788 1.576906 1.092135 -2.847552 -0.291066 0.624536 -0.054315 -0.763549 1.590208 1.144970 -0.870855 -0.623253 0.970530 0.827412 -0.582174 -0.319318 -0.018879 0.531765 -0.242721 -1.340686 -1.194040
action -0.958087 3.637063 -3.869743 -1.642787 -0.988121 1.181641 0.144605 -0.115812 1.207533 0.029946 -0.406906 -2.640233 0.418672 -0.450487 -2.435914 -0.972014 -1.751068 0.992911 -0.091241 0.575561 -1.069635 1.365529 -0.844185 -0.252067 0.095650 0.941087 -0.623082 0.893915 0.274884 1.557987 -0.455067 2.957319 -0.650819 -0.085522 -1.724444 0.987217 -2.703855 2.226913 -2.717101 1.015450 0.342220 -0.027105 1.177623 0.820482 1.460423 2.937870 3.455777 -0.646598 3.866955 0.288016 0.108100 1.280528 -2.498680 1.985774 -2.360949 -0.382899 1.149785 1.451995 -0.682267 -0.651753 0.909464 -2.477292 1.215150 -1.710230 0.816018 2.421120 1.182137 -0.654972 -0.214338 0.616553 -0.431465 -0.590240 -0.353719 -1.014723 0.193774 -0.529448 0.773694 -0.929984 -1.068016 -1.835296 0.208793 -1.538412 0.931884 -1.786096 -1.359145 -0.616757 -1.934222 1.448735 0.334936 -2.253611 -1.258293 0.813608 -0.297017 0.429064 -0.042699 3.085320 -2.221785 2.966757 -1.022112 2.366324
give -1.050104 1.545639 0.058547 -0.872083 0.070945 0.611653 1.830483 -0.041773 2.429606 -0.844238 0.905487 0.098595 -5.315284 -2.097904 1.500121 -1.349435 -1.953556 -3.156054 0.080609 0.788565 1.113762 -2.336450 0.629525 -0.066480 -0.587639 -0.225868 -2.427222 1.189334 2.165569 2.359234 3.155100 3.355680 -0.143202 0.215517 -0.075607 0.829571 0.840782 -3.288909 1.563694 0.783899 2.055071 1.033628 -0.866097 -2.069834 -2.830752 2.542779 -1.275387 -2.000937 -1.153717 -1.101030 1.186658 0.640244 -2.223726 -1.556016 -2.427823 0.730300 -0.392836 0.174282 0.332385 1.405999 -2.308222 0.085369 1.151926 0.501160 0.164192 -0.658191 -1.782066 -2.322182 -1.593707 1.611153 3.024952 -1.022357 0.651545 3.097250 2.254119 -0.268307 -0.243917 0.086673 -4.443718 0.166966 1.036187 -1.196480 0.742417 -0.238363 1.095075 1.821704 0.540575 -0.179834 -3.493991 1.058200 -2.835063 0.509228 -0.505510 0.700981 3.107004 -2.612861 -3.282075 -0.345551 -1.630286 0.072270
right 2.318808 2.308565 -0.030948 0.224363 1.604826 1.033811 1.143365 1.197789 1.797684 -2.459612 1.821904 0.345987 -2.657902 0.160562 0.907932 -0.148880 -0.312010 0.709615 -1.049475 0.007440 0.123745 -0.094920 -0.333034 -0.308260 1.145705 -0.011957 0.313588 2.134017 -1.398085 -2.160173 -1.857720 0.391149 1.525405 -2.522947 -0.764334 -0.718748 1.479819 0.172811 0.374680 -1.405691 -0.433279 -0.348025 -0.033264 1.201761 0.978209 0.410932 0.229412 1.972147 0.496307 0.400775 -0.070117 -1.526284 0.885706 -0.719731 -0.309697 0.307486 -0.997741 -1.857668 2.174772 -0.290293 -0.579080 0.179014 -0.142545 0.107307 -2.484042 -0.695951 0.471422 -0.200319 -1.777164 -2.274274 0.450435 -0.389742 1.272782 1.044301 -0.543256 0.341532 0.590001 -1.805780 1.024080 0.548475 -2.422506 -1.638540 1.403007 -0.432760 -1.201555 2.500471 -0.467994 -0.448768 -1.173053 -1.839280 -1.546247 -0.828849 -0.174365 -0.544102 1.419432 1.326332 0.058259 -1.091614 -0.634041 -0.425889
point -1.728720 1.268435 0.829926 -2.708821 0.587383 -0.561807 2.079889 0.108003 2.128863 -1.324418 1.523376 -0.540023 -0.631713 -0.388852 -0.351324 1.063269 -0.894825 2.514174 -1.470316 -1.136299 0.960615 -3.979734 0.933881 -0.957692 -0.041979 1.287933 -1.411159 -0.045704 -1.646451 -0.704499 -1.424020 -1.298090 1.886224 1.401883 -1.950009 -2.016241 1.371737 -1.088028 -1.829287 1.456329 -0.790401 1.282597 1.786445 0.035977 -0.044496 0.030722 -0.709139 -3.030617 0.827419 -0.667980 -0.891443 2.530876 0.599486 0.092929 0.832048 -0.797038 -1.220265 0.923535 -1.297949 0.244666 -2.648757 1.594292 3.477997 4.089056 1.008620 -0.786042 -2.948530 1.760436 -1.527153 -0.637500 1.349030 -0.568969 -1.743516 -0.275262 -2.360393 -0.344853 -2.149612 -2.429462 3.603649 -2.180437 -0.086065 -1.676668 -0.481167 0.838642 -2.974803 -1.400200 -1.459210 -1.817419 1.117046 0.797470 -0.102229 2.391987 -0.332293 -2.122859 1.266500 -0.700581 -0.902256 -1.019042 -2.877977 1.518664
interesting 1.642238 2.924404 -4.959780 -1.315798 1.794103 0.530258 1.435274 -0.022223 -0.287167 -0.768447 0.496543 -1.006315 -0.045867 -0.173176 -1.773926 0.929235 0.339060 -1.836860 -0.410378 -0.878808 -0.064180 1.022705 -2.433555 0.852618 1.388059 -0.959860 0.687690 0.559966 0.856651 0.681337 0.182206 1.956315 0.513345 -0.655178 0.034552 -1.544944 -0.318861 1.893422 -1.192346 0.434411 -1.358782 -2.958507 3.129136 -0.013923 1.774141 2.555279 -2.442672 -1.787218 -1.162363 -0.017508 0.795733 -1.358459 -1.482449 -0.250008 -2.422975 -0.762818 0.470021 -2.043654 0.793198 -0.746129 0.098302 -0.017612 1.063866 0.850881 0.503649 -0.815254 1.235605 1.033267 -1.113904 0.302119 0.116271 -0.513456 -2.129173 2.444693 0.128462 1.356988 -1.656679 -0.101968 1.479706 -3.166533 0.587702 -2.455857 -1.360854 -1.212723 -0.066392 -0.232137 0.081341 -0.197563 0.180361 -0.973645 -0.277090 -0.113288 2.325826 -1.406319 0.705854 0.131966 -2.726614 0.459747 -0.825423 1.138893
new -0.424188 -1.084159 -1.603750 -1.473467 -0.124792 -0.122930 0.713408 -0.186994 -0.194630 2.025113 1.140683 -0.000311 -0.774495 0.833825 0.118131 1.082222 -1.871717 -0.772835 1.155362 0.852279 -0.254304 0.749259 -1.889165 2.813307 -0.462191 -0.636207 0.047143 -0.245755 0.432717 0.483603 -1.398023 0.655688 1.056091 -1.053545 0.776025 -1.927428 -0.858407 -0.425596 0.623828 -0.639032 -1.678482 -1.085402 0.868517 0.460518 1.595606 -1.166577 -1.289763 3.195616 -0.404907 -2.328356 0.717973 -0.142304 -2.408159 1.801463 0.773689 0.466659 1.441002 1.625802 1.280557 -2.110380 -0.767324 -0.083642 0.369116 0.220654 -0.051533 -0.694750 1.115599 -0.248240 -2.195143 -0.475680 0.553305 -0.555511 0.102872 0.805444 1.267854 0.717750 -0.543253 0.753176 1.204867 -0.235530 -2.191053 0.462037 -1.559415 0.150759 -0.682474 1.398074 -0.373346 3.609382 0.258203 0.727363 0.262386 2.385693 0.660498 -2.384403 2.502697 -0.137286 -1.858786 -0.921670 1.805892 -1.152382
bit 0.382872 -0.176888 -0.923482 2.197108 0.750874 0.384005 2.054732 0.095761 0.706470 -3.410945 0.561428 0.827274 -1.795892 1.677171 -0.700553 0.799476 -2.740277 0.488428 -1.381829 0.301139 0.004310 0.137661 -1.180862 -0.716658 -0.341809 -0.878472 1.829076 -0.853553 0.546241 2.737914 0.381530 -1.051001 -3.707858 -2.326937 -0.692537 -1.389245 -0.356765 1.784649 0.055273 1.053744 -2.270187 2.721577 0.369241 -2.006964 0.266638 2.288671 1.542410 -1.117865 0.242227 1.066076 0.024838 -0.739099 -1.117067 2.154853 -1.036460 0.244474 0.047013 -0.312091 0.380206 1.709805 -0.312462 -0.046001 2.169273 -0.048951 -1.103652 -0.357348 -1.867498 2.639082 -0.779420 0.271808 0.875197 -0.527901 -2.333184 -1.598041 1.190961 -0.000033 1.288831 -0.233393 1.016130 -1.571811 -1.675248 -1.057555 1.336204 1.415026 0.213330 -0.459205 0.284004 -0.962237 -0.801664 -0.453469 -0.666307 0.258178 -0.514774 0.144428 -3.024463 0.136536 -0.352983 -0.360919 -0.000858 -0.383519
family 0.768549 1.035864 1.804783 -2.158658 -0.249277 -0.074807 0.931218 2.549066 -3.004155 3.164240 -0.280095 -2.380816 -1.038117 0.959331 -2.478555 0.327789 -0.552818 -1.674651 -2.375364 0.161539 1.150093 2.068131 -0.320121 -0.474910 0.618604 -0.287101 -1.582072 0.547511 0.527453 -0.121719 0.121478 -3.083234 -1.181803 1.808546 -0.522161 -0.654915 -1.077697 -1.167717 1.610528 -3.255561 -1.380870 -1.607203 -0.279697 0.023184 -0.001465 -1.738635 -0.105876 1.019045 0.559947 1.464509 -0.906364 1.525280 -1.848528 -1.795457 -0.213503 -1.426605 -0.715983 1.179194 -0.938780 -1.414070 -0.376575 -0.046325 -0.102337 -0.464391 1.030076 -0.949126 -1.727116 -1.063409 -1.852099 -0.701446 0.173166 0.989035 0.317020 -0.342968 -0.471598 0.571551 -0.148522 1.977283 2.508695 -0.826254 -1.607861 -2.472713 -1.447260 -0.283345 -0.943989 -1.591321 -2.811512 -0.317980 0.587043 1.438402 -1.500148 0.651947 0.512896 -1.159810 -0.921975 -0.884533 0.943999 0.880990 0.488691 0.982968
script 0.488660 0.791870 1.601425 1.046241 -1.869704 -2.164709 0.175887 1.529901 1.495648 -0.243784 -0.757998 -1.713945 0.627390 -0.179795 1.393180 -1.467266 -0.481423 2.819599 0.111874 -1.949875 0.218445 -2.062655 0.636080 2.624413 1.950555 2.158868 -0.380915 0.275794 0.426205 2.172120 1.877505 1.315723 0.265384 -1.003222 0.589534 -1.845488 -0.760133 1.492265 1.465263 -0.230057 0.730437 0.446643 2.007268 -0.264051 -0.065390 0.533772 2.478750 2.268066 -1.215519 2.667268 -1.903829 -1.463341 0.614071 0.501249 -2.645759 0.290202 -0.830698 -2.080243 0.027703 0.154638 0.417860 -2.927374 2.739368 0.995265 -0.040780 0.338703 0.646684 -1.610477 -0.624770 -1.593030 -1.149269 -0.357626 -1.134807 -2.057231 -1.595615 1.455687 0.721775 -0.210414 3.131947 -0.939476 -0.195400 -3.355380 0.142974 -1.295053 0.804409 -0.207029 0.513437 -0.128513 1.378692 2.125057 -0.671329 0.994409 -0.925027 2.449187 0.761405 0.646166 -0.765621 0.419435 0.171956 3.196771
come -0.175126 3.279008 -1.096635 1.158014 -0.341025 0.145174 1.907274 0.820337 -3.606453 -1.340960 -2.159273 -0.694785 -3.106449 -0.869994 2.140261 -2.597340 -0.924425 0.408711 1.015658 1.015608 1.917662 -0.650979 1.295097 0.750113 -0.100552 -2.085302 -1.498138 1.295824 0.679928 0.647315 0.854108 -0.443927 -0.108353 0.155367 0.507790 0.938349 0.504233 -2.629657 0.240790 -2.473708 -0.203617 -1.094387 1.504107 -0.480755 -0.333882 2.110851 0.343820 -0.865625 -2.214126 -2.467051 -1.517767 1.596683 2.862208 3.022580 -2.319610 1.919061 -1.449572 0.266140 0.082484 1.472452 -4.461715 -1.755276 0.848281 1.866068 1.099597 -1.508853 -2.372891 -5.787155 1.596525 -0.448027 -1.292031 1.103177 1.157385 1.164236 -0.700595 -1.905546 2.302808 0.292998 1.187101 -1.692951 -0.424321 -0.740657 4.103068 -1.548618 -2.104964 0.634756 -0.234356 -0.542970 -1.573126 -2.303316 -2.108455 3.033266 1.513137 -0.610305 2.254490 0.182434 1.442285 -0.485991 2.638430 0.157326
big 0.591208 2.127737 -1.226821 1.479808 1.841554 -0.665494 0.879802 -0.075100 -0.337916 -1.384168 1.259776 -1.349419 -0.232338 -0.647313 -1.113848 -0.623738 0.227365 -2.116992 -3.245277 -0.006534 -2.659182 -2.617020 0.152206 -0.215876 -0.247391 -1.243979 -0.242543 0.454108 -0.497636 1.673402 0.654836 1.681631 0.903464 -0.288956 0.450636 -1.247446 2.679970 2.374525 -1.103019 0.675573 1.579451 0.550342 -0.257199 1.678663 2.147253 -2.459864 -0.000268 3.024503 0.594126 -3.200708 1.080854 0.771504 0.679421 0.788585 0.648389 -0.570969 1.925684 -0.167814 -0.213803 -1.878051 -1.125420 -0.726742 -0.894504 -1.469662 0.227639 2.071331 1.063872 -2.955237 -0.495726 -1.101373 -0.390982 -0.202422 -1.168620 -0.662696 1.501501 1.570495 1.485962 -1.452483 -0.342708 -1.128965 0.427909 1.401881 -1.458828 0.127047 -0.685371 1.734668 -0.221264 2.592853 -0.925628 -0.853887 0.237312 -0.946629 1.911857 -0.097153 -0.466159 -0.714518 0.097571 0.819263 -2.052210 -2.836969
feel 0.573862 -0.610536 0.430162 0.549187 -0.994831 0.894079 -0.336599 0.746459 0.893565 -2.684803 -2.558098 -1.301841 0.295173 -2.703623 1.678260 -0.279494 -3.070076 -2.310089 -1.873008 -2.595736 0.996862 -2.927943 0.031725 1.546282 1.855943 0.947218 -0.437532 -2.037187 -1.068980 -0.339965 3.080694 -2.181128 -0.012975 1.163410 0.267852 -1.893788 0.764917 -2.292736 1.065248 2.512536 -1.927760 -0.528760 2.167399 -1.297994 -0.053753 1.948841 1.242735 -0.474299 -0.087085 -1.361396 -2.850760 0.581295 -2.898310 -3.634480 0.251437 0.051615 1.125982 -0.463322 0.135435 0.377925 0.539773 -1.785699 -0.574095 0.705172 2.215987 -1.191249 -3.110637 -1.018846 -0.857909 2.601046 -1.849739 -2.136931 -1.234503 -0.479897 0.842075 0.823653 2.487817 -1.022753 -0.253513 -0.284482 -1.181974 -1.742337 1.189822 -1.163018 -0.817896 0.950264 2.321666 -2.973129 -0.257475 -1.201291 -0.228286 1.479333 -2.885029 -1.206589 -0.342606 0.236199 -1.396130 2.355041 0.779954 -0.741879
making -2.486344 0.116833 -2.718110 2.408556 -1.887233 0.586870 1.398409 0.596002 0.862578 0.936487 0.182494 0.618912 -1.755102 -0.685962 2.132175 2.652533 -0.837508 -0.263889 -0.909998 0.322149 -1.574879 -0.389013 0.073179 -0.348974 0.138137 0.459267 0.109110 0.929895 0.079026 -0.046542 -1.991172 0.069681 0.501020 0.348923 -0.616770 0.368645 0.183159 -2.379135 0.359578 -1.787601 -0.815671 -1.179171 0.023700 -0.768486 0.404551 -1.076562 0.962230 0.412476 1.003707 1.498075 -0.631532 1.761965 -1.781789 0.742295 -0.607225 -1.761162 0.021896 -0.514431 -2.702257 1.341547 0.206575 -2.634784 1.119527 -1.093788 1.459532 0.492217 1.100576 -1.570212 -0.612425 -0.800425 -0.156386 -1.384826 -1.131397 -0.562987 -0.439143 0.991271 1.650651 -1.098049 -0.578819 1.359967 -0.070027 -1.946805 -0.130904 -2.568243 1.823580 -0.426604 -0.778905 -1.166927 -2.621024 1.199808 -1.293428 -0.777581 -2.183710 -1.790933 0.741816 -0.735340 2.544734 -1.039084 -0.205989 1.939973
might -0.790870 4.492015 -1.681571 -0.461184 1.745170 1.624829 -0.296472 -0.846183 -2.414631 -1.068249 0.801488 0.676392 -1.667986 -1.631605 -1.317376 3.319636 0.967578 -1.296205 -2.602969 -1.591978 -0.583142 1.169899 -2.719389 1.942780 2.043552 -0.006155 1.140582 -0.752080 0.089240 -4.492425 -1.869134 1.367895 -0.328608 -2.644375 1.025388 0.602423 -1.905954 2.154728 0.878656 1.743617 -1.418987 -0.131562 0.225581 0.661592 1.409339 -0.212569 1.059504 -1.121588 0.556893 -0.246050 -0.209230 0.503307 3.799351 1.534518 -0.772951 3.572015 -0.254700 1.405491 -1.457528 0.839870 -0.300523 4.609594 2.662258 -0.751181 1.370536 -0.313114 -2.025681 3.231169 0.025626 0.690331 -1.319193 -0.819316 -0.820567 -0.150697 -3.650029 2.741068 0.169723 0.163179 -2.241540 -0.048704 -1.937208 0.705616 -2.837353 0.181020 0.856903 -0.185625 0.784213 1.063540 -0.393502 3.143709 1.513861 1.681422 -3.082273 1.556385 -2.287650 -0.501335 1.657043 -3.791944 -0.124296 -1.994122
performance -1.328444 -0.509065 1.998232 0.807617 0.636954 0.767425 -1.481894 2.619378 -0.310732 -0.496607 -1.823888 2.339366 -0.291284 2.104347 -0.611200 -2.493444 -1.127324 2.252103 2.093287 -0.139472 1.169188 -0.787784 2.171092 -3.387713 1.705762 3.656767 -1.506233 0.600957 -2.412474 3.037872 0.113107 2.450177 -2.143932 0.658339 -0.030881 -1.194473 -0.194937 2.232780 0.284756 -1.320067 1.663210 2.011542 0.251833 1.942807 -1.583115 0.782383 -0.846900 0.785498 1.336418 3.191967 -2.872467 -0.960269 -1.841486 -3.619480 -2.213757 0.221103 1.903791 0.125684 -2.170897 1.755658 -0.274213 -1.864143 0.350530 3.803246 -2.146613 4.053576 -0.325870 -0.029329 0.201621 0.806633 -3.367465 -1.915102 -2.355388 1.292876 -0.249391 0.126672 -1.900529 0.339816 -0.863674 -1.679188 -0.708198 1.293461 -1.404321 -5.774560 -0.710490 -0.452054 -1.080345 -4.104587 4.041902 0.400914 -1.252238 1.487058 -0.894960 -1.386951 -2.958947 0.807811 -1.643494 -2.531246 3.147747 1.307388
guy -0.335541 3.140673 0.205574 -0.361211 -0.390334 -0.602738 1.519184 0.025564 0.513441 -3.651616 -1.427745 0.130332 -0.177334 0.664116 2.400373 -3.135608 0.597575 -1.339783 -2.630092 -0.234233 1.430374 -2.003088 0.573710 -2.426894 0.715753 -1.078921 -3.063643 -3.048096 -1.195902 1.522147 -0.226080 -0.880637 3.504328 0.463198 -1.298176 -0.286710 0.306908 1.863133 0.494879 -1.372714 -1.033725 0.398336 -1.778756 0.362071 0.283928 1.978424 -0.492793 3.485664 1.704200 3.443975 0.394364 -0.363417 -1.139380 -0.625647 -0.759441 -0.548171 0.090025 -0.394206 -0.450414 1.116897 0.167030 2.734240 -2.374121 -0.916275 -1.941976 1.051982 -1.329112 0.275823 -0.174440 -1.016548 -0.613751 0.343359 0.203927 -3.940798 -1.683583 -0.211610 1.582142 0.724661 1.647583 0.004344 -1.877868 -0.353483 0.869044 -0.628450 -0.013968 -1.771482 -1.269910 0.726207 3.686831 1.798124 -2.212797 1.015549 -0.125107 1.158037 0.622847 2.359597 0.218406 0.322445 -0.617140 -0.278383
music 2.322570 0.475001 1.861853 1.522527 -2.729469 -1.858417 0.840478 -0.268370 -0.920012 -1.198894 -0.281340 1.007576 -1.559021 0.253226 -1.996406 -2.719474 -0.962863 2.464717 -1.163318 -1.100524 -0.320968 0.794963 -2.733437 -0.196635 2.942143 -0.929182 0.126594 -0.337718 0.623215 2.307879 -0.772035 1.082698 -0.177030 2.955293 -1.893630 -0.095103 -1.832410 -0.099104 -2.643595 1.524976 -2.741742 2.431747 -0.400364 0.144494 -0.475623 2.684523 0.606386 3.128649 0.572251 -0.295988 0.581810 -2.044044 -1.583060 0.053934 0.528131 -0.635282 0.693526 0.568965 -0.259047 0.747269 1.309251 -3.114026 1.778769 1.128497 3.856054 -1.392835 -0.607083 0.581601 0.376016 -1.657838 -2.273536 1.319725 -2.292409 -1.677011 -0.243477 0.918482 2.320035 1.883067 0.875917 -0.780018 -1.848598 0.413498 -1.363395 -0.459030 -0.385944 0.132260 2.276422 -1.349602 1.027584 0.476577 -0.641343 0.401395 -1.842703 1.111112 3.526188 -1.718890 -0.050424 -0.043796 -1.348893 2.814623
kind -0.227121 0.631146 -1.720874 -1.097067 -1.522098 -0.607232 1.467718 1.276337 0.287065 -1.501588 -0.175303 0.699161 -4.103004 -1.028671 0.093475 -1.801107 -0.254460 -2.823085 -0.287009 1.227748 -1.120559 -1.519871 -1.523699 -2.243942 -1.566191 -0.388889 0.198597 -2.455384 -0.414627 0.245614 -1.599790 1.596565 -0.833232 -0.792733 -0.356750 -2.366065 -0.572680 0.053871 0.768545 0.367406 -0.343149 -1.864278 2.158526 -1.442217 -1.055779 1.306289 -0.693052 0.326232 0.604572 -1.377823 -3.446003 0.439684 -0.312525 0.541565 0.041084 -0.895250 -1.423907 -0.027412 -1.450566 -0.193674 0.395850 1.173233 1.198695 0.945214 1.664456 -0.065219 -0.371798 0.555736 -1.681631 1.227091 -0.751456 -1.667341 -0.969855 -1.086662 0.348612 0.967999 -0.878802 -1.454833 0.275020 -0.614849 -1.320827 -1.478028 1.423129 2.044707 -0.420056 -0.523064 0.395981 1.463874 -0.888413 0.167194 0.562966 0.765461 -0.969309 -1.253324 -0.030877 -0.139783 1.543667 -0.385611 -2.217911 -0.950187
woman 1.159278 2.299378 1.041021 -0.528690 -0.527631 1.088051 2.039159 -0.787522 -2.476319 -0.733323 0.403593 -0.892592 1.280310 3.421268 0.586340 -0.941094 0.073725 -3.982884 -0.157985 -0.052951 1.974814 0.678035 0.254863 -2.532332 -1.043647 -1.238754 -0.784849 -2.177066 -1.587407 3.855542 -1.238161 -0.854039 0.351543 1.432833 -2.046806 0.212692 1.151477 1.016728 0.512818 -0.406179 -1.628926 -1.999874 0.161077 0.341967 -0.534028 -0.706814 0.128131 -0.030815 -0.311771 3.728563 -1.461683 0.051985 3.083457 -1.479019 -2.856787 0.609820 1.317183 -1.343403 -0.395847 1.035607 1.215748 1.147829 -2.906427 0.326751 -1.051667 -0.242433 0.329973 -0.486733 0.197403 -1.296395 -0.777146 0.557930 0.161544 -1.538983 -0.870879 -0.715016 0.616919 0.264784 1.059638 1.001728 -1.061023 1.416983 0.576002 -1.984680 0.702225 -1.233977 -3.556501 1.868401 3.927706 0.447658 -0.418201 1.540796 -3.063348 -0.875723 0.007264 0.148902 -0.414691 0.132018 -1.409555 -1.892363
girl 0.995816 2.167979 1.004935 -0.062166 -1.027444 0.092811 3.094125 -0.978056 -1.514905 -1.082612 -1.774430 -1.408217 -0.765819 3.178071 -0.080402 -1.040987 -0.513270 -0.829701 -2.224135 -0.673454 1.784907 1.114804 -0.455984 -3.587251 -1.017764 -2.589346 -0.941758 -1.805835 -1.888759 3.631799 0.674161 -0.777568 0.548843 0.349498 -1.463237 -0.875021 0.884050 0.663781 1.217146 -1.878644 -1.416358 -0.841710 0.821173 -0.455733 1.558873 0.922212 0.160885 0.996492 -0.766196 2.213172 0.335436 0.009762 1.605908 0.014139 -0.833382 0.734918 1.932121 0.406984 -0.275269 1.724266 1.746164 3.357795 -1.163537 -1.549103 -2.559408 -0.012690 0.249504 0.582773 -2.096836 -1.339483 -1.005972 -0.302835 -0.368821 -1.025827 0.071707 -0.569482 1.534416 1.457734 2.035691 0.398023 -0.355023 0.780255 0.490160 -1.545294 -1.239010 -2.006418 -3.264125 1.280026 3.847136 0.621128 -0.835687 0.912239 -2.589333 0.041276 -0.473788 -1.646893 -0.725358 0.281808 -1.443043 -1.863371
fun 0.900527 3.061655 -3.983879 -0.730208 0.568809 -1.982758 0.083943 0.203626 -1.211216 0.286931 0.005360 -0.117442 -0.843590 -1.064535 -3.527746 -3.772773 -1.357735 0.498997 -2.686223 -2.003705 -1.511311 -0.359308 -3.030353 0.104216 1.822155 -0.978712 0.467853 0.080398 -1.380930 -1.023744 0.925968 0.349090 0.000483 -1.325095 -1.721432 -1.422910 1.601450 -0.466959 0.015459 1.305050 -1.062002 -1.836358 0.081861 -0.623295 0.695235 1.707390 0.675896 -0.093119 1.052611 -0.960512 -0.066226 0.846817 -3.919437 0.076423 -1.495174 -0.214528 1.482240 1.177776 -0.856800 -2.210515 2.311486 -1.112696 0.522706 1.539460 1.699790 -1.030799 -1.746495 -1.331980 0.687431 -0.150017 -0.382761 1.421945 -2.129154 0.714448 -0.837947 2.075476 0.824571 -1.100105 0.623337 -3.647871 -0.406661 -0.761094 0.606788 2.448752 -0.481654 -0.079026 -1.654688 -1.133539 0.378243 0.457124 0.181808 -0.089723 1.603630 0.112365 -0.070324 -1.319572 -1.680318 1.505538 0.603568 0.805020
hard -0.981940 2.106176 -3.303005 1.499622 2.515778 0.442633 1.341156 -1.334992 -2.863104 0.408194 1.896845 0.292609 -0.705516 0.661795 -1.486952 -1.912540 0.707549 -0.980503 -4.201387 -0.700848 -4.483685 -0.145925 0.261375 -1.981360 1.084772 2.535607 0.882814 0.440697 0.041467 0.468218 -0.634285 -0.951484 1.670304 -0.472003 1.672132 -4.053068 0.989502 3.341594 -0.360611 1.159807 -3.829795 -1.392360 1.004905 -0.833696 -2.877846 -4.803831 -0.852634 -1.262425 -0.895673 -0.226164 1.031910 -0.502499 1.333017 0.190708 -3.402013 2.530773 -0.839500 1.488305 0.774479 -0.031163 -1.148257 -2.663040 -0.122541 1.303372 2.538115 -1.206221 1.142528 -0.610149 -0.571228 -1.060368 1.161748 2.001922 -1.456432 -0.838484 -0.836602 2.816868 3.101106 -1.487443 -0.428527 -0.709719 0.464692 -1.881770 1.902235 1.022981 -0.925092 -0.868935 -2.402495 -0.212841 2.402066 1.529506 3.179224 -1.262767 -0.291754 2.583302 -0.423580 -0.539120 -0.579865 3.068685 -2.085926 1.639458
worst 0.656291 1.634475 1.484787 -3.881463 1.356568 1.255662 -0.293346 -0.161587 2.578352 1.345790 0.114608 -1.301580 -0.565213 -2.745966 1.206762 -5.604335 -0.581869 2.259476 -3.634553 1.747069 -3.011544 -0.587583 2.196838 -1.948176 0.705294 0.364625 2.963690 2.034738 -1.713643 -1.695347 -3.434458 3.108590 1.020938 -2.849848 2.880206 -2.792242 -0.106944 -1.964002 0.479073 0.215675 1.736131 -3.105277 1.810930 -2.568966 -1.323545 1.701856 -2.041522 0.336151 2.007915 -0.538010 0.825414 2.453143 1.814598 2.303354 0.131967 -2.152107 1.001109 -0.167722 -0.124137 -0.627928 -1.112426 0.690585 2.521186 -0.167183 0.395455 1.831261 2.613071 2.157140 -1.957723 -3.139004 -3.631414 -0.755282 -2.337436 -0.046709 -2.819245 1.084916 -1.834896 -1.015639 2.924617 0.245409 0.589157 -0.246326 3.013009 1.289083 -0.273525 2.912592 -3.391437 -0.449556 -1.582061 -0.168227 1.874344 2.127914 -2.423382 -3.357597 -0.648111 -0.087601 3.100378 0.340074 -0.808308 3.550427
found -1.439278 0.048383 -0.650459 -0.008344 -0.360771 0.183393 0.723638 -0.597237 -2.246494 -0.511206 0.393526 -0.521327 0.511597 -2.408864 -1.262763 0.643562 0.511624 -1.017919 -1.301224 1.828628 1.019311 -0.479135 1.981067 1.567725 2.674130 -1.633522 4.400690 -0.181622 0.985560 -1.550837 1.329464 1.231824 -1.367894 0.550871 2.157871 1.099077 -0.745084 -0.939712 -0.402974 -0.013885 0.110446 -2.395379 0.523305 0.624146 0.928743 2.462764 0.700316 0.758509 -0.759463 0.084915 -0.911897 -2.345940 -0.741431 1.470521 -1.920786 0.508672 -0.397510 1.399277 2.080842 1.530845 -1.203205 1.597178 -0.336364 3.484955 1.566842 -0.989623 -3.101444 0.552754 -1.016185 0.026736 1.125967 -0.141816 0.124218 -0.977573 -1.281392 -1.890896 0.889083 -1.666061 0.007859 -2.163265 -0.811217 2.070174 0.706360 -1.650063 3.342597 -1.224789 -0.993040 -1.071763 0.530329 1.967033 1.081266 0.588516 -2.126396 -2.091117 0.178957 -2.034633 2.203239 -1.067844 0.282852 0.990203
course 0.558239 1.118181 0.945903 -2.636931 1.477400 -1.173562 0.779068 2.481020 0.025894 -0.878521 2.971230 1.915630 -4.404222 0.876647 -2.181806 -0.816100 -2.051363 0.796502 1.214091 2.107098 0.126637 -1.147002 -1.997345 -3.177997 -0.821563 0.697474 -0.663748 0.709506 -0.641891 1.173791 1.743673 -0.394379 -1.612908 -0.593893 -3.900000 -2.549718 1.320219 -1.017754 -0.621581 2.243582 1.514822 -1.335674 2.450776 -1.848970 -3.187868 -0.741716 -0.272617 1.759280 2.399623 -1.242841 -0.580932 0.859087 -0.512942 1.305243 2.651925 1.097021 -0.903132 -2.363824 2.530899 1.674537 1.703292 0.394446 -1.967463 -0.353574 0.381355 -1.956549 0.255264 0.604366 -2.051054 1.649440 -1.434191 1.340680 2.166766 -2.274299 2.173953 0.894646 -1.073422 -0.767213 -2.873785 -2.242196 -0.085794 -2.479386 -0.648842 0.867851 -2.182066 -1.637547 -0.198848 -1.062600 -0.841382 -0.955993 3.393965 -0.311125 -0.720692 -1.311370 -0.846087 0.402626 5.246911 -0.976046 0.490677 -0.243050
believe 1.689062 -1.399570 -0.540536 -0.533630 -1.296252 2.732426 1.308560 0.698101 1.920330 -2.594321 -1.098576 -2.632865 -1.252577 -1.560842 3.923762 -1.987080 -2.018559 -2.452824 -2.010017 -1.112417 0.453286 -2.704263 1.604626 1.530223 0.810488 -0.288108 -0.205438 0.648654 0.481145 0.161756 0.903373 0.754544 -0.535630 -0.145716 0.557768 -2.007123 0.346609 -3.228873 -1.737701 1.746975 2.127686 -2.131721 -0.831314 -1.742021 -0.409202 1.171845 -2.081453 -0.398237 -1.868347 -3.266059 -1.687481 -0.178880 -0.149152 -1.764050 -1.597315 -0.412788 1.182987 -2.101140 0.285081 -1.210169 0.313452 0.022116 -1.403806 2.018153 -2.435641 0.856188 -4.233204 1.191355 -2.107297 1.646973 -0.747714 -1.161334 1.834533 -0.119664 0.229573 -3.133303 -0.183808 -0.750512 0.425468 -1.216617 1.856606 -2.215814 0.095451 -1.398387 0.837874 -1.455701 -1.062554 -1.514850 -0.602551 -1.026556 -0.860138 -1.783834 -0.761533 -0.295005 0.484650 -0.650857 1.125711 0.489931 0.463831 -1.904097
different 0.989798 1.601097 -1.864274 -0.871001 0.728897 -0.465021 0.049633 -1.714549 -0.921981 -0.494356 -0.064877 -1.065385 1.100981 1.026748 0.549670 0.401510 -0.294629 -0.430355 3.273239 -0.032640 -1.232362 -0.182317 -1.096708 2.789224 0.553102 -1.572256 -0.425098 1.485944 2.089677 -0.921959 -2.856339 1.395615 1.306007 -0.393868 0.347102 -0.444083 -0.065540 -2.954962 0.242745 0.952812 -5.105500 -1.604615 1.541466 -0.519032 0.340086 0.505435 -2.040375 0.882852 0.151603 -0.400470 0.300146 0.646946 -0.822119 0.469153 -1.672720 -0.336249 1.185144 1.044819 2.294858 2.774671 0.284810 1.860668 -0.445035 1.289495 0.955748 0.922260 0.891221 0.374151 -2.841879 -2.202808 -0.709046 1.708439 -0.781591 2.671195 0.500481 0.527437 0.745340 -3.569922 1.349708 -3.055974 -0.089389 -3.767046 -1.307534 -2.365079 -2.844906 -0.250060 3.460372 -1.691508 -0.386273 0.886117 0.963206 -0.844619 4.821419 -3.001414 1.863908 1.344272 -0.930280 0.935904 -0.621941 -2.173313
place -0.755422 -0.362955 -1.174790 -3.268242 -0.551849 1.016180 -1.878053 0.633760 -0.042303 -0.172935 1.906007 0.134673 2.072161 -1.300816 0.917986 1.065344 -0.428283 0.368324 -0.720958 -0.318433 -0.006019 -0.157871 -2.694848 -1.386438 -0.406662 0.751207 1.237955 0.670811 2.425587 0.053926 -2.006606 -0.113648 -1.702141 0.817428 -1.572674 -1.121047 2.436835 1.038766 -0.690792 -0.674846 -0.521577 0.988295 0.498988 -0.648530 -0.061409 0.271754 1.495205 0.125531 3.009244 1.008449 -1.816788 -1.387668 1.911843 -1.982083 -0.175938 2.011306 1.305324 -0.545027 0.566258 0.276283 -0.629726 -0.665729 -2.058766 3.190604 -1.572495 -4.496337 1.246089 0.765943 -2.815283 -1.951801 0.297235 -0.829792 -1.160868 0.563284 0.408065 -3.521611 1.637441 -3.257003 3.850630 -4.678772 0.957400 1.481825 0.724270 -0.303668 -1.763006 -0.251456 0.288706 1.132714 2.836288 -2.325256 -1.920970 -2.065337 0.042832 -0.591697 0.033450 -1.276986 3.220326 2.987975 0.552265 1.227204
day 0.084716 -0.668411 -0.844204 -0.671572 1.462213 0.304869 -0.915934 -1.907884 -1.995507 -0.674073 0.513672 -2.338264 -1.144675 2.008119 0.748422 1.111690 -0.029114 -1.349159 -0.817607 0.106895 1.098841 0.109148 -0.617364 -3.959749 -1.994361 1.105203 -1.457040 0.219867 -0.838692 1.757204 1.570757 -0.660948 1.171811 -0.142157 -1.013144 -1.527384 -0.938085 0.441422 -1.902272 -2.064245 -3.302479 2.213080 -1.398195 -0.135950 0.972655 0.394904 -1.407817 -1.361673 -1.930233 -0.866346 -0.986224 0.973744 -1.678588 -1.001360 -0.068934 1.771579 1.220589 0.872766 0.959997 -2.007007 -0.461998 0.664181 0.631933 0.965340 -0.564977 0.069651 -2.426524 2.002195 -0.951285 -1.536329 -0.928349 -2.613928 0.757181 -0.994229 -3.536702 -1.026232 1.852387 0.655987 1.735709 0.227729 -0.780272 0.583382 1.069967 1.085957 -2.457345 1.094659 0.752009 0.379936 -2.183856 -0.050875 -0.032120 -0.572580 -2.940420 -1.515661 -2.222315 0.518471 1.723202 0.314947 1.841330 1.342131
set -0.569685 1.632577 -1.123447 -0.184229 -2.061677 2.052434 -0.490113 -2.002670 -1.770692 0.690733 0.420971 0.850761 -1.285049 0.750810 0.665594 1.735459 -1.981547 -0.854041 0.325707 -0.197694 -0.134821 0.238075 -2.080129 -2.315693 1.566118 -0.599965 0.223529 1.963322 -0.188230 -0.932597 -0.719544 -0.778313 0.332538 3.057431 0.505069 1.610570 -1.633542 -0.405679 -1.816344 -1.287271 -0.821517 0.144444 -0.534858 -0.094628 0.870196 0.654145 -1.198335 1.434061 1.322735 -0.037256 1.693019 -0.155197 1.904841 0.695693 -0.868801 0.531363 0.929386 -2.081281 -0.324282 0.391070 -2.511597 -2.186093 2.181410 0.861172 1.100021 -1.872638 1.101761 -1.515802 -1.318125 -0.659578 0.725008 1.398092 0.221376 -0.242226 0.851632 -0.450562 0.088502 -1.531533 0.252322 -2.139719 0.085353 -1.376094 0.758320 -0.963621 1.658687 1.678036 0.259263 0.769231 -0.450955 -2.448478 -1.785434 0.334928 -1.767296 -1.180158 3.004050 0.569098 -0.319015 -1.458714 -0.205815 2.262687
put -0.165330 2.555102 -1.668735 1.140638 -1.554404 1.010576 -1.323224 -1.202925 -0.474872 -1.827192 0.236853 -3.292401 -3.596764 -1.552646 1.943556 -2.161698 -0.190351 -0.052751 -1.393044 0.777506 2.423460 -1.301986 0.199332 0.469968 -0.819476 -2.481014 2.109007 1.511323 1.062005 0.148446 -0.209793 -0.366846 2.431098 0.511240 2.431214 1.982997 0.323966 -3.346382 2.639110 -2.859423 0.411174 0.373136 -0.839897 -1.832224 -2.194566 1.011705 0.518059 0.117609 0.155359 -1.436692 -3.405645 -1.229015 1.266151 0.131786 -1.703772 0.143593 -0.645540 -0.604309 -2.517964 -1.881560 -0.282922 -3.025441 1.456149 0.457667 1.219752 -1.644364 -2.244087 -2.377748 0.021097 -0.694351 2.610314 -2.237270 0.281819 -0.395377 0.479433 -0.341848 0.103391 -2.068561 -2.482811 -2.610287 2.058032 -0.913282 2.555025 -0.451349 2.704424 -0.046348 0.510761 -0.143800 -2.326319 -1.439609 -2.298940 -0.017990 0.416955 -0.726891 1.985118 -0.578190 0.531637 -0.855430 1.731315 0.953381
reason -0.858352 1.342999 1.861698 -1.514499 -1.456540 0.192672 -0.875283 -5.396863 -0.087107 -2.000443 1.879000 3.315593 0.277046 0.121121 -0.392394 -2.595958 -1.793631 1.544199 -2.349502 -0.725822 4.089345 0.267997 0.059671 -0.349411 -1.671283 1.853357 -3.859951 -2.077595 0.167612 0.195051 -1.989164 1.995186 -0.325858 -2.364172 -3.178010 1.617792 1.929181 0.426903 -3.631774 1.220292 0.730580 -3.194289 1.443439 1.768123 1.272459 -1.589341 -1.480578 -0.814343 2.070897 2.541312 -1.063892 0.373989 -0.930382 -5.513365 -2.342682 -0.508624 1.006930 1.845861 -2.124824 -0.881626 -1.516465 0.276287 1.134077 1.426477 1.274098 -0.055637 -1.112675 -2.267246 -5.085993 0.605285 0.329457 0.585941 -2.818760 -1.170370 -1.249802 2.342087 0.315682 1.552562 2.466230 -2.058580 -0.202354 -1.998175 0.486864 0.625105 0.555706 -2.586037 -0.401323 -1.257252 1.379202 1.438570 2.083704 1.456517 -1.690354 -1.474361 2.745533 1.532895 -0.324586 -2.467405 -1.134875 0.190473
book 1.794995 -1.433984 -2.022607 -0.148768 0.310490 -0.759614 0.579866 1.906487 0.648962 3.019474 0.206636 -2.037798 -0.083845 1.050009 -0.071817 -2.666624 1.339979 0.526118 -1.160238 1.259932 2.081257 1.106596 -1.328203 2.459123 -0.115307 2.283158 1.195040 0.908030 2.524506 1.939279 -0.443142 -0.566108 1.840134 0.967316 -1.614176 -1.706421 0.582180 0.356762 3.418702 0.520805 0.794037 2.311357 2.031823 -0.357215 -2.061408 -0.732009 0.704044 0.304126 -2.509804 1.646001 -0.019805 -1.981421 1.530226 -1.970261 -1.867099 -0.274004 -1.254447 1.053888 1.206113 1.552659 -1.980295 0.685852 3.157083 1.015495 -0.519025 -2.234347 -2.343135 -0.342709 -0.816118 -0.641376 -2.910694 -0.246825 -3.085585 -1.480797 -1.347906 -0.982366 1.835965 0.020134 2.015829 -2.180275 -0.307102 -2.555245 -1.399293 0.366199 0.456742 1.672407 1.771568 1.072123 1.397462 1.439815 0.335292 0.097695 -1.636685 -1.086124 -1.675432 2.173184 -2.065692 0.498570 -0.553305 0.229804
actor -1.574181 3.221426 -2.289816 -0.866875 -0.447183 1.967043 2.488962 1.387592 -1.602238 -0.992959 -2.445177 0.186773 0.122311 1.585303 2.449438 -0.702498 0.492973 1.125625 0.657105 2.699767 2.271187 -1.045241 0.280459 -1.070252 0.688444 3.132762 -1.738999 -0.011182 -1.458953 0.736009 -1.031745 2.353758 1.103165 1.590814 0.255281 -0.767215 -0.906739 2.018203 -0.590485 0.841901 2.011029 0.725556 -1.466347 0.880416 -2.086654 0.714770 -1.015170 4.001054 0.893160 2.014693 -2.153984 0.304974 -1.493911 -0.712734 -4.177453 0.540316 3.204578 -3.825717 -0.666582 1.185361 0.240632 -0.984878 -0.989475 1.317342 -0.472780 4.276369 -0.743427 2.046967 -1.315025 0.095946 0.513247 -2.274149 -1.702767 -1.248325 -1.058990 0.080903 0.483387 0.262467 -1.831809 -0.757960 -0.521085 -0.325417 -2.172208 -2.054220 0.248388 -1.071134 0.033719 -3.360570 2.646153 0.397937 -1.944045 -0.808955 -0.475801 1.846125 0.710569 3.341089 -1.299916 1.294585 2.763349 -1.271099
shows -1.784106 1.345682 -1.627523 0.215329 -0.405610 1.876616 0.318443 -2.242015 -4.792654 -0.236737 -4.104156 0.777173 -1.502649 0.428646 2.411364 0.237870 1.349169 0.007807 -0.304378 0.185906 -2.688788 -1.697804 -0.930285 0.140892 0.925176 -0.790475 0.019521 3.147658 0.244209 -0.066362 -0.482955 -1.544970 -0.628851 -0.952565 -1.348486 -0.653659 -0.621150 -0.576421 -0.145291 1.868183 1.337377 0.476187 -0.835062 -0.084611 1.792516 -0.065502 0.349005 -0.250216 -1.043377 -1.432901 -1.462483 1.253466 -1.201088 -1.940612 0.801891 -0.719415 -0.886103 1.621560 -3.391439 -1.220121 -0.564316 1.189981 -0.957090 1.484361 0.550187 2.837106 -0.213560 -0.569484 -2.938385 -0.598895 0.606087 0.507239 1.939994 -0.317221 0.686945 -0.385793 -0.172790 -0.502299 -1.609662 -1.232953 1.216655 -0.719833 0.611053 0.282615 0.917562 1.387654 0.886991 -2.388226 0.071185 -1.105625 -0.511234 -0.262048 -1.925280 -1.079583 0.550520 2.300699 -1.688175 -1.382942 0.022855 -0.077160
sense -0.222805 0.022057 0.516478 -2.231484 1.730002 -2.320429 -2.496949 1.293497 2.529118 -1.915848 1.041188 -2.211698 -0.774929 -0.985140 -0.255441 -2.437109 -0.560360 0.309635 -1.105697 -3.360210 0.036534 -2.744102 -2.562222 -0.377563 -1.032514 1.714507 0.822355 -3.325173 -2.504283 -2.017845 -2.496626 0.854196 -2.824956 1.458766 -3.256450 -3.668292 -1.252349 1.280400 -1.090824 2.409709 0.099343 0.607244 4.606606 -0.648820 0.576696 2.940836 1.525816 0.487744 -2.197051 -0.644699 -4.442719 1.199221 -0.716159 -1.619826 -1.050820 1.999048 -0.735826 1.729844 0.366132 -0.883087 1.974100 -1.531651 0.371250 1.022928 0.089278 -0.950439 -2.895655 -0.537956 -2.407117 1.639884 -2.612964 -0.888238 2.412240 -0.661269 1.596453 0.349172 -1.099492 -0.232160 2.656646 -3.312673 0.020873 -1.596356 1.106293 -0.350085 -2.737865 -1.425238 1.026944 -2.611486 0.499698 -2.226581 1.155179 -0.225865 2.319442 -1.250659 1.497649 -0.017637 -2.872550 1.291923 -0.573259 -0.964152
sure 1.031713 0.603417 -1.667545 1.544077 0.637064 -0.253425 0.502788 -0.295141 0.879204 -3.452273 3.491834 -1.566783 -3.600827 0.037967 0.549086 -3.201980 -0.296500 -0.425233 -2.393838 -0.205428 -1.324008 -0.454997 0.282124 1.739650 1.327163 2.242358 0.994326 1.229254 -0.497807 -1.968241 1.504432 0.895918 2.255246 0.721386 -1.388990 -0.888525 1.955978 1.124515 -2.454324 1.205778 0.232658 -1.324144 0.363413 -0.569809 0.328584 -0.331317 0.577161 0.655224 -1.415023 -2.166075 -0.713869 -0.312659 -0.631651 -1.068339 0.117134 1.708842 1.877148 1.017384 0.409655 -1.260351 -0.405038 1.270248 -0.816883 -1.918162 0.533755 -1.899183 -1.277837 0.570228 -2.462940 2.914299 -2.351166 -0.686787 -0.159585 0.444338 -0.119754 -0.060568 -0.623119 0.987465 2.175254 -2.463056 -1.020131 -1.764975 -1.538256 0.518781 -1.084621 1.947965 -0.384987 -0.527625 0.949920 0.157651 -0.674906 -0.409297 -0.017539 0.184986 -0.539889 -0.288276 -0.325504 -2.033756 0.160442 -0.275766
money -0.145823 -0.216038 -0.793554 -0.288511 0.771561 0.117757 -0.665848 -1.755876 0.756557 0.846201 2.756514 -1.952420 -2.169218 0.731091 1.465982 -2.192670 -1.417983 3.181259 -2.845772 -4.668179 0.114969 -1.684139 -3.051652 -1.291205 -1.688396 0.656840 -3.418826 -2.242105 -0.154989 -1.437449 1.063539 1.138341 0.724290 -0.764826 0.049357 0.827855 1.660253 0.437350 0.526340 -0.204311 0.353090 0.279010 -1.496253 0.002042 0.586703 -0.757121 0.374966 0.128662 -0.997418 0.367977 -5.770901 4.248601 -1.670188 0.339808 -0.265469 -0.118757 2.311610 1.270163 -0.715088 -4.132420 0.602205 -0.787660 2.151590 -0.568895 -1.964597 -1.220386 -1.895359 -0.731053 -4.200848 -0.157589 -1.177070 -0.990382 -0.400174 0.323314 -0.953710 1.603402 3.845486 0.126265 0.915665 0.849630 2.240347 -1.061062 0.584535 -2.158043 1.688020 -1.149838 0.426392 1.058858 0.364287 0.649434 0.180302 0.255007 1.518055 -0.055549 -0.921110 -1.445360 1.078801 0.060829 3.171677 0.644928
