said 0.192226 -0.134783 -0.279841 0.214568 0.211454 0.173526 -0.394893 -0.251643 -0.154543 0.453268 0.122437 0.628897 -0.325741 -0.648318 -0.242269 0.366221 0.179862 0.192273 0.201133 0.194740 -0.419867 0.289004 0.530877 -0.543171 0.604470 -0.280058 -0.277856 0.952126 -0.070347 -0.044973 -0.139277 0.140414 -0.202874 0.136932 0.422058 -0.054775 0.133193 0.313426 0.548287 -0.219618 -0.674503 0.142649 0.408069 0.022021 0.717943 -0.002952 -0.144389 0.023609 -0.521735 0.517874 -0.000829 -0.291380 0.092069 0.260618 -0.080007 -0.558269 0.139620 -0.225832 -0.124538 0.545031 -0.080639 -0.579331 0.001189 -0.145771 0.005356 -0.081060 0.273111 0.453093 0.828889 0.080911 0.119608 -0.358158 -0.044404 -0.190841 -0.058986 -0.147799 -0.374620 0.296860 -0.101677 -0.027170 -0.114492 0.085997 -0.110981 0.277847 0.417009 0.251840 -0.133828 -0.172992 0.298161 0.348040 0.169777 0.245372 -0.417955 0.319321 0.028862 0.259282 0.051582 0.264925 -0.139247 -0.234976
year 0.192509 0.318809 0.317542 -0.341390 0.216258 -0.282981 -0.363929 -0.213695 -0.430621 0.212960 0.630164 0.720487 -0.366572 -0.343483 0.208997 -0.227052 0.062770 -0.089287 0.373978 -0.222295 0.176191 0.101812 0.542649 -0.173478 -0.337601 -0.352872 0.225239 0.336133 0.712367 0.285851 0.269056 0.250525 -0.503139 0.474913 -0.287920 0.071059 0.222052 -0.303692 0.103728 -0.027297 -0.040115 0.308095 -0.036586 -0.602521 0.647270 0.075618 0.104628 -0.252063 0.254065 -0.050803 0.037050 -0.587736 0.053092 -0.393127 -0.075920 0.376384 -0.342418 0.132894 -0.276107 -0.195657 -0.183715 0.042014 -0.072754 0.321744 -0.633919 1.034425 0.022791 0.189507 0.703704 0.082124 -0.686937 -0.707099 -0.015236 -0.296996 -0.766808 -0.009318 -0.236187 0.278631 0.020472 -0.211760 0.233680 0.052379 -0.108391 -0.176265 0.643792 -0.027123 -0.211158 0.075703 0.807816 0.126637 0.273448 0.235539 -0.566119 0.200461 0.222015 -0.206556 0.089007 0.274841 -0.199007 -0.030070
be 0.026442 -0.538190 0.615785 -0.063707 0.208702 -0.209291 -0.763514 -0.062165 0.309160 0.021210 -0.084187 0.770266 0.229345 -0.319956 0.001074 1.096092 0.363752 -0.641632 0.296819 0.907984 0.148258 0.575946 0.015762 -0.607844 0.011824 -0.366460 0.319403 0.725346 0.159667 0.111174 -0.310168 -0.291290 -0.522945 -0.299373 0.047954 -0.008767 0.377845 0.204908 -0.242553 -0.960808 -0.022936 -0.283749 -0.209296 -0.328224 0.327253 0.397860 0.680937 0.471116 0.280082 -0.217423 0.346346 -0.135023 0.348836 0.009587 0.586565 -0.594052 -0.439259 0.084296 0.047484 -0.135499 0.366965 -0.167133 -0.295535 0.084122 -0.336143 0.883564 0.709394 0.837191 0.470394 0.396780 0.477295 -0.005830 -0.060495 -0.467727 -0.170111 -0.487563 -0.402030 -0.157665 0.897474 0.748227 0.185884 -0.008670 0.261985 -0.381899 0.012370 -0.072670 0.289850 -0.159439 0.296615 -0.020401 -0.334631 0.529287 0.016193 0.469876 -0.080364 0.398794 0.029313 0.380593 0.112776 -0.291141
billion 0.599967 0.699912 0.119123 -0.266930 0.197798 0.324616 -0.369296 -0.378338 -0.531302 -0.116597 0.524946 0.071247 -0.565406 -0.582486 0.187317 0.521041 1.252305 -0.480108 0.490368 0.717820 0.188442 0.216962 0.598944 -0.223867 0.172886 -0.185492 0.017878 -0.030453 0.159069 0.169890 -0.243002 -0.153389 -0.799132 0.663035 -0.590370 0.097743 0.093585 -0.117487 -0.338464 0.121285 -0.561543 0.355106 -0.271099 -0.392585 0.889137 0.405151 0.140542 -0.102106 0.267492 -0.154683 -0.115008 -0.261649 -0.460701 -0.045775 0.324069 0.482698 0.245389 0.223633 -0.085163 -0.260858 0.124064 -0.078332 0.414245 -0.618148 0.251297 0.237899 -0.420974 -0.285804 0.108602 -0.369260 -0.035528 -0.256135 -0.120681 -0.019251 -0.724273 0.123299 -0.374931 -0.645493 -0.273696 0.006097 0.239725 -0.342786 -0.032163 -0.561718 -0.523124 0.614296 0.147830 0.315489 1.064337 0.429453 0.162017 -0.512428 0.375136 0.502650 1.091507 -0.007127 -0.429052 0.601147 -0.524934 -0.397206
loss 0.381531 0.199640 0.010418 -0.378074 1.241608 -0.469155 0.091563 -0.342969 -0.250767 0.096994 0.201060 0.634861 -0.494470 -0.637122 -0.363632 0.090736 -0.050280 -0.231074 0.312855 0.421189 0.412579 -0.390888 -0.356615 -0.520656 -0.553977 0.533092 0.535912 -0.248055 -0.135799 -0.166661 0.301745 0.360870 -0.563561 0.198433 -0.264893 0.548283 0.816544 -0.600287 0.554439 -0.732678 -0.054412 0.251349 -1.243524 -0.129149 -0.297474 0.199925 0.016589 0.382259 0.187879 -0.363139 -0.084162 0.057315 -0.054904 -0.193579 -0.180021 0.105366 0.517105 0.326577 0.206032 -0.621925 0.311395 0.654732 -0.175089 -0.379968 0.210345 -0.020482 0.056344 -0.344512 1.164920 -0.132191 -0.181142 -0.601828 0.105872 -0.144766 -1.026819 0.302275 0.220536 0.503161 -0.841152 -0.369859 -0.212741 -0.415185 0.390797 -0.594104 -0.201936 0.679130 -0.223781 0.325041 1.203920 0.249930 0.400088 -0.852287 0.132949 0.952233 0.192005 0.571770 0.193998 0.461879 -0.327356 -0.088834
company -0.325496 -0.013679 0.360971 0.043837 -0.102176 -0.328648 -0.391310 -0.200904 -0.452259 0.389318 0.352925 0.648990 0.019107 -0.512984 -0.107601 0.396169 0.195201 -0.124841 0.171894 -0.072094 -0.248716 0.153367 0.352779 -0.305654 -0.236358 -0.308015 -0.621396 0.332066 0.271941 -0.108885 -0.235914 -0.062758 -0.336368 0.458537 -0.273345 -0.064241 0.078416 -0.228591 -0.373471 -0.119720 -0.310549 -0.067879 -0.236044 0.220578 0.209084 0.941896 -0.215229 0.138830 0.082541 0.279381 0.551564 0.010633 0.368711 0.004644 -0.705846 -0.020952 -0.303165 -0.155854 0.296739 0.098032 -0.150944 -0.268097 -0.340992 -0.227922 -0.452128 0.354812 0.550824 0.233407 -0.001013 0.134731 -0.161530 -0.052940 0.270662 -0.004764 -0.755820 -0.259327 -0.419558 -0.199867 -0.600044 0.335258 -0.082543 -0.048002 0.408041 -0.504744 0.049166 0.198126 -0.363727 0.142536 0.393558 0.960114 0.033792 -0.109569 0.558664 0.593491 -0.428875 0.002815 -0.035029 0.648228 0.608033 0.368800
share 0.493642 0.292965 0.625637 0.612548 0.232045 -0.041796 0.204737 0.355944 -1.111396 0.368509 0.084356 0.644740 -0.193025 -0.856275 0.317109 0.138158 -0.017754 -0.397316 0.503643 0.698342 -0.051373 -0.039755 0.310641 -0.716538 0.333985 -0.006091 0.637288 0.224461 0.952627 0.047642 -0.033794 -0.546692 -1.043778 0.282207 -0.696721 -0.177550 1.089397 0.226209 0.189460 -0.344592 -0.154404 0.744258 -0.269373 0.211607 0.288665 0.359934 0.253173 -0.535546 0.092749 0.436110 0.355205 -0.248861 -0.360169 -0.005083 -0.077550 -0.316077 0.328294 0.073776 0.526099 0.011880 -0.319155 0.290378 -0.250781 -0.168429 0.102255 0.110798 -0.093779 -0.160357 -0.325832 0.259702 -0.183100 -0.334846 -0.117235 -0.660495 -0.555025 -0.253798 -0.475019 0.308919 -0.758191 0.215980 0.220875 -0.189009 0.407814 0.200419 -0.169271 -0.175469 0.329354 -0.541638 0.203599 0.628884 0.823296 0.108586 0.493070 0.603541 0.350358 0.003883 -0.067154 0.519410 -0.113277 0.212342
profit 0.112345 0.071842 -0.074167 0.078601 1.252368 -0.052983 0.006784 -0.065005 -0.752425 0.543545 0.118623 0.869266 -0.662882 -0.215374 -0.476089 0.204254 0.065978 -0.864977 0.594888 0.127077 0.240045 -0.441102 -0.079729 -0.498527 -0.493233 0.116538 0.417283 -0.442434 -0.007572 0.231456 -0.021701 0.944538 -0.686274 -0.304659 -0.357646 0.434440 0.589224 -0.395323 0.372897 -0.604891 -0.057265 0.094911 -1.056644 -0.022689 0.381849 -0.258203 0.033643 0.263365 0.053863 -0.713647 0.584080 0.215717 -0.085987 -0.609134 0.390857 0.197606 0.494978 0.347680 0.725263 -0.643760 0.674698 0.816622 -0.137997 -0.163218 0.331930 0.199976 -0.089662 -0.220339 1.105920 -0.338596 0.241159 -0.122773 0.627335 -0.066597 -0.673181 0.719082 0.453295 0.415356 -0.945391 -0.105082 -0.122904 -0.283852 0.509193 -0.834378 -0.521429 0.514267 0.361260 0.111432 0.955234 0.244795 0.037406 -0.355224 -0.400760 0.967760 0.156019 0.731081 0.161359 0.475199 -0.229280 0.043266
he 0.259652 -0.133699 -0.196804 0.195274 -0.268759 -0.443618 -0.081469 0.236467 -0.462205 0.384424 0.147268 0.471457 -0.467454 -0.015595 0.031338 0.102692 -0.137861 0.032255 0.307812 0.096384 -0.284000 0.586448 0.303173 -0.502354 -0.480731 -0.574057 0.353182 0.486360 -0.004542 0.185909 -0.595651 0.158355 -0.054311 -0.407821 0.509134 -0.306540 -0.115311 0.241653 0.397094 -0.231034 -0.306308 0.549130 0.441817 -0.412048 0.538924 0.105484 -0.072871 -0.288200 -0.308512 0.700758 0.270534 0.137511 0.499792 -0.228166 -0.897221 -0.155907 -0.084877 -0.224153 -0.435391 -0.107184 -0.169729 -0.096991 -0.192279 -0.250499 0.022538 0.382866 0.819194 0.276233 0.607538 0.264113 0.207855 -0.321618 0.566556 -0.238090 -0.162544 -0.565617 -0.472460 -0.692295 -0.189462 -0.314393 0.346657 0.182828 -0.156022 -0.659552 0.376424 -0.023127 0.000049 -0.073697 0.416053 0.207080 0.468980 0.064099 -0.192249 0.069743 -0.341453 0.522705 -0.075007 0.426856 -0.109291 0.333609
have -0.143315 -0.284838 -0.131153 0.311089 -0.681636 -0.516770 -0.477255 -0.010266 -0.051571 0.291212 0.199869 0.534278 -0.292946 -0.148917 -0.613890 0.412843 0.293306 0.222331 0.239931 0.142877 -0.150167 0.087663 -0.106014 0.351430 0.248246 -0.548693 0.473046 0.364639 0.191024 0.414146 -0.258607 -0.636330 -0.286186 -0.359256 0.311378 -0.397289 0.165681 0.125145 -0.375721 -0.646726 -0.555811 -0.248216 0.017079 -0.111936 0.390058 0.476855 0.314573 0.712475 0.242477 -0.343555 0.392141 -0.566221 0.523624 0.198137 -0.298967 -0.328496 0.344129 0.260578 0.523580 -0.168728 -0.275005 0.292866 -0.307387 -0.119451 -0.152362 0.515171 0.784219 0.577147 0.603356 0.247030 -0.076547 0.011403 1.058015 -0.878177 0.122118 -0.189803 -0.398705 0.440371 0.417140 -0.016609 0.770642 0.012226 0.216117 0.090063 -0.296747 -0.134566 0.428276 0.144421 0.177556 0.407564 0.424966 -0.053231 -0.644412 0.087684 0.128588 0.181156 -0.882310 0.771298 -0.440681 -0.938615
stock 0.168119 -0.132625 0.244190 0.604643 0.141358 -0.069291 -0.012349 -0.724443 -0.587644 0.826771 0.032460 -0.070451 0.008111 0.496025 -0.137878 0.637433 0.565799 0.320693 1.102073 0.514743 -0.074299 -0.529110 0.297961 -0.962442 0.729891 -0.371588 0.345260 0.035430 0.363860 0.501459 -0.215221 -0.068298 -0.782136 0.487878 0.369888 -0.326678 0.516493 0.145960 0.240913 -0.358550 0.571792 0.380662 0.098339 0.436800 0.459908 0.138866 -0.218585 -0.324248 -0.089305 0.192147 0.011500 -0.942131 -0.534286 -0.231195 0.191000 -0.570137 -0.429825 0.069331 -0.284787 0.362594 0.713251 0.143570 -0.160438 0.533761 0.068466 0.822507 -0.334028 -0.080692 0.371078 0.490669 0.243235 -0.049965 -0.107855 -0.864145 -0.905139 0.455850 -0.008951 -0.032263 -0.280768 0.722371 0.359507 0.714702 0.105160 0.067383 0.125612 0.138925 0.025701 -0.115049 0.218446 0.517552 1.196283 0.245244 0.331979 0.422827 -0.353555 0.217653 -0.584470 0.197453 0.331937 -0.460043
about 0.628152 -0.191106 0.320020 -0.071938 0.039310 -0.446779 -0.044730 -0.277102 -0.371790 0.804633 0.569293 0.288881 -0.116801 0.387256 -1.059144 0.281856 0.133634 -0.337726 0.243782 0.579030 -0.175811 0.419677 -0.514343 -0.422790 0.499041 -0.439910 0.879892 0.067574 0.789852 0.475312 -0.317845 0.710012 -0.628928 0.219727 0.154741 -0.371909 0.500096 -0.111274 -0.835192 -0.448723 0.041989 0.297427 -0.023986 0.290943 0.364312 -0.102625 -0.019233 0.210672 -0.187986 0.378876 0.512200 -0.105388 -0.398058 0.077311 0.122801 -0.163705 0.478515 -0.067998 0.361542 0.171314 0.148021 -0.204346 -0.313426 -0.327598 -0.688046 0.268285 0.607708 -0.361682 1.089128 0.329380 -0.261396 -0.263507 0.676350 0.152952 0.284324 -0.182846 -0.413218 -0.306449 -0.082938 0.007238 0.181347 -0.071523 0.605907 -0.258044 0.102462 0.188859 -0.210861 0.006936 0.435870 -0.295855 0.300950 -0.348981 0.611003 0.161315 0.271257 0.035629 0.070665 0.363655 -0.373382 0.402011
net -0.024066 -0.183010 0.876392 -0.050282 0.960156 -0.358075 0.052682 -0.130636 -0.831606 0.293578 -0.041873 0.399006 -0.334513 -0.829563 0.055056 -0.180461 1.037461 -0.393344 0.364166 0.107647 0.005820 -0.188134 -0.146993 -0.549385 0.061890 0.440339 -0.583447 -0.066104 0.107021 0.189148 0.072211 0.160360 -0.497657 -0.154478 0.110075 -0.021332 0.535174 -0.218362 0.002542 -0.865698 -0.029449 0.188386 -0.540607 -0.628431 0.761100 0.351334 -0.204675 0.642760 -0.121059 -0.835918 0.167159 0.423755 -0.178411 0.148152 0.582769 -0.213317 0.903029 0.455418 0.348978 -0.686031 -0.267682 0.356707 -0.615808 -0.035559 0.075993 0.651459 0.145712 -0.139235 0.772341 -0.207607 -0.307623 -1.551602 0.271378 -0.202562 -0.862623 -0.255546 0.243432 -0.120042 -1.074755 -0.247571 0.182892 0.024403 0.728982 -0.417733 -0.546968 0.136871 0.294314 -0.234895 1.031618 0.234574 0.166069 -0.067480 0.066498 0.433435 -0.167230 -0.269635 0.450432 0.075966 -0.947645 0.146668
oil -0.075851 0.227780 1.180568 0.321552 0.386913 -0.946913 0.157234 -0.063094 -0.310241 0.257439 0.757757 0.163831 0.055579 -0.492224 0.197141 -0.062751 -0.124775 -0.109512 0.676948 0.384999 0.171439 0.238013 -0.091914 -0.190559 0.081704 -0.370770 0.292622 0.128384 0.084717 0.027215 -0.119741 0.164614 -0.858624 -0.533456 0.513589 -0.532578 0.512130 -0.568075 0.722789 -0.775016 -0.993797 0.013897 -0.376948 -0.043733 -0.305158 0.332927 -0.173962 -0.510319 -0.272075 -0.206435 0.184573 -0.003003 0.035910 0.714654 0.268989 -0.406358 0.398029 0.390072 0.485382 0.033314 0.175273 -0.263103 -0.226153 -1.219677 0.011793 0.893430 0.295444 -0.701084 -0.041571 -0.044531 0.262898 -0.143455 0.935290 -0.662937 0.265915 -0.457695 0.447886 -0.622473 -0.243990 -0.442252 -0.616704 0.652849 -0.352769 0.105572 0.179542 0.091314 0.833665 0.418014 0.406632 0.250336 -0.628336 0.515629 -0.639100 -0.154743 -0.041517 -0.322118 0.240529 0.214141 -0.305490 -0.198736
market -0.123375 0.043425 0.283331 -0.138083 0.689970 0.656078 0.463274 0.039964 0.055734 0.511188 0.706286 0.074926 -0.334952 0.335985 0.092427 0.490654 0.514520 -0.033172 0.433562 0.112983 0.105859 0.483450 -0.090085 -0.484285 0.287863 -0.474115 0.060282 -0.094961 0.162013 0.256471 -0.350453 -0.371518 0.235911 0.241904 0.680778 -0.293959 -0.356913 -0.317555 0.178421 -0.177433 -0.194667 0.350078 0.015872 0.439218 0.297194 0.449660 0.172179 -0.063067 -0.268559 -1.161680 0.445200 -0.152532 0.148339 0.228837 -0.456659 0.024393 -0.127165 -0.151717 -0.179242 -0.093727 0.316199 -0.195412 -0.169146 -0.832415 0.057358 0.757414 0.308520 -0.306140 0.163770 0.783152 -0.438931 -0.141047 0.010840 0.029409 -0.691050 -0.586949 -0.295996 0.114098 0.273230 -0.091121 0.005350 0.049497 -0.235247 -0.568562 0.379285 0.331670 0.437447 0.505350 0.242006 -0.209376 0.438429 0.413557 -0.624428 0.736641 -0.591866 0.225489 -0.358081 0.319924 0.960376 -0.610481
trade 0.139695 -0.092944 0.339591 0.352028 0.449206 0.486896 0.034893 -0.188848 0.271318 -0.789629 0.180914 0.496020 -0.183180 0.047439 0.740729 0.729278 0.168303 -0.028974 0.755761 0.606896 -0.689407 0.682893 0.227578 -0.439333 0.009503 0.139613 0.877772 0.453705 1.127293 0.214343 -1.057027 -0.262581 -0.365810 -0.074026 -0.280369 -0.413471 0.344482 -0.515359 -0.369716 0.168344 -0.592780 -0.205551 -0.076654 -0.153970 -0.117476 -0.231370 0.227873 -0.446412 -1.172701 -0.313000 0.697390 -0.181596 -0.085066 1.076367 -0.577754 -0.072061 -0.490030 -0.634149 -0.355651 -0.668345 -0.105138 -0.056203 0.805648 -1.075869 -0.733609 0.522062 0.166550 0.157992 0.732271 -0.009955 -0.026693 -0.351976 0.565428 0.409708 -0.960472 0.165403 -0.100031 0.142649 -0.416869 -0.012460 0.352302 -0.106084 -0.684128 -0.330173 -0.396979 0.095540 0.486559 -0.033038 0.531836 -0.440860 -0.470683 0.075678 -0.245686 -0.253439 0.439088 0.475240 -0.685792 0.626074 0.109714 -0.721169
up -0.033689 0.312237 0.072465 -0.185180 0.392506 0.134574 -0.328167 -0.341906 -0.391002 0.805233 0.296060 0.486625 0.103994 -0.297155 -0.839842 0.406818 0.768588 -0.090324 0.202848 0.267336 -0.308075 0.177390 -0.283249 0.058643 0.127545 -0.300615 0.687315 0.030281 0.893122 0.315689 -0.049513 -0.247082 -0.327698 0.080133 -0.456465 0.385267 0.112833 0.006677 -0.027769 -0.178921 0.134266 -0.316456 -0.636469 0.323955 0.090359 -0.159448 0.250118 -0.040428 0.212525 0.017842 0.320767 -0.558861 -0.107532 0.198381 0.049872 -0.191571 0.237263 -0.179543 -0.450642 -0.088516 0.328220 -0.224746 -0.331815 -0.336750 0.042031 0.645606 0.344736 0.163225 0.365966 0.130557 -0.833678 0.290364 -0.010413 -0.104413 0.041152 0.342637 -0.398556 -0.209362 0.472070 -0.193636 -0.195791 0.369987 0.243001 -0.444722 -0.157221 0.660311 0.261100 0.563350 0.915384 -0.716558 -0.067316 -0.218143 0.260364 0.379327 -0.150473 -0.124291 0.196681 0.783406 -0.029716 0.017102
quarter -0.250898 0.055341 0.418617 0.094583 0.955149 -0.167633 0.515384 0.131717 -0.318663 0.803103 0.074739 0.633154 -0.330685 -0.687938 -0.248816 0.007473 0.224136 0.050427 0.336222 0.220724 -0.102373 0.095764 -0.093557 -0.706380 -0.605082 -0.184667 0.048995 0.282979 0.649307 0.459522 -0.012018 0.290112 -0.436120 0.420971 -0.215335 0.058640 0.124735 -0.250033 -0.107911 -0.232901 0.082098 0.183089 -0.579338 -0.769844 0.093731 0.102068 -0.085011 -0.359393 0.143130 -0.130671 -0.281097 0.381784 -0.226812 0.201971 0.670343 0.224014 0.709162 -0.091140 0.324181 -0.849148 -0.389598 0.097329 0.378919 0.268633 -0.521934 0.334865 -0.125401 -0.496063 0.673997 -0.055710 -0.219634 -1.146754 -0.226327 -0.306136 -0.629432 -0.520791 -0.119635 0.438982 -0.165354 0.189748 -0.313837 -0.222030 0.227225 -0.686094 0.384676 0.433863 -0.229197 0.163342 0.804003 0.356732 0.049643 -0.054904 -0.439862 0.430265 0.415182 0.374386 0.149805 1.169881 -0.175129 -0.450444
new -0.125056 -0.237904 0.448349 0.070503 0.428732 0.008126 -0.387367 -0.181937 0.124059 0.200973 0.232985 0.629892 -0.087001 0.080402 0.105278 0.166328 0.208584 -0.003104 0.704023 0.183637 -0.812314 0.714775 -0.076761 -0.049157 -0.383505 -0.017016 0.079726 -0.310280 0.409186 0.073826 -0.027450 0.090531 -0.469791 0.927930 0.077246 -0.041728 0.539963 0.136685 -0.047732 -0.055546 0.026787 0.335157 -0.147372 -0.253754 0.290992 0.512934 -0.214561 0.030205 -0.060071 -0.178662 0.312373 -0.503295 0.593826 0.486393 -0.145729 0.135628 -0.275132 -0.253705 -0.488340 0.127472 -0.271998 -0.130937 0.054741 -0.627865 -0.064736 0.368517 0.193093 0.121407 0.329243 0.675580 0.114844 0.150225 0.418047 -0.511100 -0.195640 -0.342619 0.153003 -0.563315 -0.268360 0.403570 -0.000872 0.185535 0.361545 -0.219348 0.140666 0.126876 0.361384 -0.218671 0.456867 -0.555347 -0.411638 0.306301 0.232731 0.066376 -0.086570 -0.345135 -0.083755 0.268984 0.282476 0.106990
price 0.127948 0.231314 0.758383 0.026182 -0.110033 -0.062038 -0.167955 0.078932 0.425162 -0.254947 0.330258 0.492480 -0.073048 -0.420862 -0.224681 0.527938 -0.178984 -0.614021 0.438901 0.432688 -0.802923 -0.165738 0.050724 -0.584688 -0.191140 -0.319124 0.238097 0.009910 0.348094 -0.380869 -0.081642 -0.881731 -1.121434 0.327761 0.172290 -0.815817 0.351562 0.134485 -0.476932 -0.782361 -0.367756 0.359012 -0.431640 0.382055 1.016399 -0.762191 0.503720 -0.067907 -0.134882 -0.384060 0.041257 0.090273 -0.372024 -0.132877 -0.144341 0.027569 0.264130 0.393298 -0.345799 0.319276 -0.426064 -0.321380 -0.390497 0.013269 -0.239561 0.502218 -0.263201 -0.285142 0.288570 0.451387 0.088423 0.025104 -0.002078 -0.230611 -0.746725 -0.426975 0.205003 -0.159646 -0.125988 -0.686816 -0.525624 0.556199 -0.180410 0.056586 -0.559767 0.682243 0.006484 0.494651 -0.492969 -0.381093 -0.097692 0.677378 -0.525736 0.860607 -0.845401 0.336153 -0.268734 0.302950 0.157256 0.103707
agreement -0.019235 -0.294980 -0.182018 -0.184261 0.055220 0.033970 0.222844 -0.787633 0.106533 0.430235 -0.257377 0.971664 -0.435748 -0.585842 -0.044956 0.776571 0.313654 -0.481459 0.803905 0.163823 -0.656489 0.048348 -0.177243 -0.170079 -0.314964 0.363505 -0.365691 0.992071 0.052189 0.010320 0.166827 -0.199276 -0.265527 0.141448 -0.206411 -0.072787 0.554173 -0.255578 0.283666 0.183397 -0.386108 0.067218 -0.456403 -0.315548 0.382812 0.180004 -0.287895 -0.482990 0.016796 -0.039038 0.097233 0.146657 -0.197312 0.404795 -0.219205 -0.486212 -0.016338 0.251409 -0.453586 -0.089043 0.161255 -0.329321 -0.120674 -0.181242 0.338277 1.009676 -0.230633 -0.015972 0.455556 -0.226388 0.498250 0.312801 0.476303 -0.403954 0.137751 0.159284 -0.225167 0.007073 0.300418 -0.158091 0.163543 -0.076825 0.409378 -0.242089 0.491964 0.500981 -0.243438 0.822196 0.086008 -0.109757 0.375985 0.562254 -0.511015 0.249191 -0.595825 -0.458672 -0.637792 0.543219 0.035699 0.043620
tax -0.120305 -0.642576 1.268007 0.452103 0.168334 -0.030315 0.282593 -0.045476 0.073381 -0.029497 0.251256 0.493786 -0.470024 -0.780373 -0.024151 -0.035303 0.053360 0.275609 0.901242 0.302904 -0.373065 -0.073651 -0.019913 -0.393394 -0.174142 -0.293824 0.395052 0.259246 0.232305 0.030067 -0.392636 -0.230558 -0.404568 0.504168 0.374481 -0.060931 0.418934 0.435205 -0.006636 -0.999734 0.261550 -0.130405 -0.758022 -0.813800 0.092851 0.103059 -0.380883 0.199983 -0.596782 -0.938024 -0.175414 -0.231953 0.006035 0.009000 -0.402200 0.121388 -0.026592 -0.049987 0.174267 -0.553430 0.396456 0.137355 -0.371352 -0.442477 0.041518 0.739688 0.867351 -0.324931 0.190014 -0.520830 -0.259851 -0.640504 -0.437040 0.367329 -0.491610 -0.243743 -0.006839 -0.694540 -0.915479 0.267036 -0.049755 -0.148210 0.631373 0.268109 -0.533733 -0.558864 -0.489133 0.529515 0.870815 -0.075828 -0.140968 -0.240581 -0.023414 -0.044455 0.540903 0.159983 0.107023 -0.066187 0.152584 -0.168109
government -0.044281 -0.193502 -0.192520 -0.268289 -0.073212 -0.116826 -0.048986 -0.036144 -0.325612 0.001693 0.289745 0.407613 -0.034672 -0.314484 -0.261492 0.451954 0.439481 0.119737 0.118124 0.231442 -0.369217 0.255691 0.190170 -0.036694 -0.240357 -0.444313 -0.207207 -0.155078 0.529732 0.158718 -0.259376 -0.185815 -0.785566 0.559638 0.284017 0.216265 -0.333037 -0.345895 -0.208301 -0.449299 -0.172062 -0.023670 0.182452 0.027416 0.352450 0.122968 0.270715 0.203753 -0.686127 -0.164494 0.496453 -0.199329 0.666547 0.570649 -0.347015 -0.088973 0.013476 0.003709 -0.133733 0.141969 -0.100687 -0.037517 -0.298320 -0.550141 -0.006973 0.606219 0.123215 0.016304 0.341840 0.085329 -0.280248 0.452485 0.474580 -0.399880 -0.240553 0.029599 -0.231900 -0.338102 -0.097616 0.274604 0.096150 -0.105141 -0.281295 -0.312792 -0.265697 -0.343308 -0.595038 0.510070 0.649198 0.210526 -0.274213 0.292299 0.221288 0.340321 -0.222699 0.387102 -0.706493 0.557426 -0.347851 0.169334
group -0.333366 -0.292813 0.033960 -0.538881 -0.665876 0.063691 -0.346783 0.363115 -0.257791 0.469413 0.269105 -0.071200 -0.043047 -0.556348 -0.115377 0.893451 0.455484 0.153463 0.990825 -0.285694 -0.313881 0.627261 -0.179740 0.066965 0.171610 0.023071 -0.166144 0.168311 0.259379 -0.184748 0.256718 -0.244330 -0.454491 0.471074 0.086163 -0.151720 0.463520 0.098655 -0.182786 -0.246894 -0.370595 0.334720 -0.591813 -0.653332 0.309254 0.667435 0.207815 0.519845 -0.096005 -0.098775 0.493293 -0.318583 0.251089 -0.196407 -0.816285 -0.273947 0.147575 -0.007238 -0.058435 0.181373 -0.338635 0.287181 -0.411922 -0.208664 0.030964 0.071857 0.612748 0.343833 0.132796 -0.525678 -0.124491 -0.274001 0.391286 0.417149 -0.438605 0.358365 0.396188 -0.348241 -1.054947 0.072848 -0.040202 0.389885 -0.471387 -0.668523 0.468256 -0.003634 -0.225838 -0.117620 -0.247577 0.566954 0.167017 0.208765 0.073614 0.347329 -0.437507 0.120150 0.045499 0.361378 -0.211683 0.222976
week 0.109907 0.268595 0.295193 -0.003691 0.435341 -0.659576 0.074034 0.251713 -0.125547 0.717563 0.167925 0.637414 -0.472755 -0.615738 0.325386 0.316441 0.135631 0.170946 0.473304 -0.381208 0.029570 0.272852 0.045273 -0.328672 0.101554 -0.655014 -0.045566 -0.302215 0.651429 0.502576 0.390057 -0.091640 -0.550229 0.432293 -0.266772 -0.288666 0.080774 -0.382328 -0.316071 0.348286 -0.037269 0.113757 0.482008 -0.635376 0.240675 -0.239644 -0.353407 -0.508730 0.584454 -0.257784 0.337566 -0.479849 -0.509818 -0.224450 0.250896 -0.297402 -0.312112 0.111022 -0.019295 0.009457 -0.415911 0.146255 0.097295 -0.070381 -0.539241 0.427972 -0.131595 0.359259 0.733905 0.061609 -0.415141 -0.313239 0.679102 -0.601921 0.017154 -0.094640 -0.209722 0.349986 0.531853 0.269087 -0.266408 -0.398604 -0.312042 -0.090529 0.016672 0.241577 0.049457 0.549065 0.754086 -0.394799 0.082064 0.374458 -0.477933 0.483381 0.391485 0.396881 -0.188107 0.353565 -0.015048 -0.374184
over 0.242593 -0.009072 0.182137 0.189652 -0.507015 -0.492275 -0.222118 -0.263969 -0.102432 0.960653 0.079209 0.395064 -0.101127 -0.319447 -0.614694 0.245301 0.343624 -0.641104 -0.082129 0.331050 -0.323523 0.198637 -0.134849 0.159834 -0.010118 -0.710503 0.416190 -0.463140 0.895596 0.385638 0.028134 0.073037 -0.219824 0.296016 -0.154808 0.162530 0.477762 -0.008279 -0.248743 -0.092537 -0.078597 0.038198 -0.053538 -0.058773 0.691915 -0.230913 0.086816 -0.191124 0.098737 0.031401 0.561584 -0.308466 -0.139727 0.229680 -0.708914 -0.267418 -0.022805 0.197602 0.089551 -0.274569 0.094023 -0.248305 -0.013556 -0.087580 -0.313031 0.554438 0.094193 -0.093976 0.945845 0.415139 -0.623427 0.050902 0.901861 0.047857 0.087970 -0.104516 -0.610994 -0.055138 -0.303944 -0.092028 -0.034996 0.073909 0.205874 -0.254002 -0.104068 -0.047332 0.012470 0.203330 0.599308 0.062678 -0.062853 0.200660 0.174581 0.481596 0.075096 -0.417700 -0.015899 0.437525 -0.242383 0.416729
rate -0.108582 -0.163112 0.030838 0.075180 0.109027 0.060012 -0.188650 -0.285522 -0.200106 -0.114622 0.701214 0.671394 -0.494074 -0.272231 -0.759103 0.413430 0.157941 -0.196496 0.401442 0.445837 -0.217343 0.032357 0.063616 -0.479830 -0.036439 -0.974454 -0.325730 -0.228507 0.628011 0.949716 -0.157784 -0.260511 -0.915451 -0.174944 0.273264 -1.046348 0.563876 0.365764 0.202430 -0.783288 0.042098 0.015120 0.183223 -0.530320 0.507095 0.069643 -0.024388 0.449659 -0.515180 -0.732675 0.132154 0.027756 0.057480 0.121790 -0.445520 0.490843 0.302853 0.275195 -0.438711 0.251190 0.237130 -0.764328 -0.099766 -0.309339 0.100497 0.332458 -1.077690 -0.370108 0.183744 0.222942 0.229305 0.204091 -0.022434 -0.302269 -0.496013 -0.015202 0.125938 0.175811 0.197530 -0.358369 0.117637 -0.036211 0.172811 -0.275168 -1.068741 0.234749 -0.484299 -0.454061 0.123207 -0.137199 -0.142303 -0.345347 -0.211408 0.679613 -0.120215 0.174900 0.113069 -0.030568 -0.041948 -0.511470
bank -0.472010 -0.279753 0.385436 -0.002041 0.273450 -0.428389 -0.259493 -0.224822 -0.500272 -0.155764 0.442315 -0.042087 -0.469138 -0.567282 -0.353126 0.368987 0.354681 0.369662 0.616044 0.614772 -0.094688 0.169007 0.339218 -0.354549 0.209877 -0.350051 -0.771568 -0.513776 0.044048 0.156839 -0.456202 0.263369 -0.524681 0.165332 0.218871 0.113796 0.091724 -0.184479 -0.413129 0.265159 -0.224355 -0.108521 -0.182735 -0.419473 0.586598 0.162704 -0.108123 0.531481 -0.579113 -0.225725 0.302601 0.350648 0.059221 0.221388 -0.145538 -0.009744 0.539491 -0.286396 -0.620770 -0.173001 0.276769 -0.355384 0.141138 -0.427586 0.189100 0.607818 -0.019053 0.562902 0.358857 0.174395 -0.326615 0.031061 0.449277 0.239938 -0.750509 0.026638 -0.523861 0.321176 -0.285905 0.821013 -0.043701 0.138405 -0.186071 -0.314258 -0.485774 0.582634 -0.209247 0.085609 0.324549 0.404987 -0.288614 0.077756 0.082302 0.470972 -0.446105 0.279618 -0.434396 0.701110 0.045414 -0.591655
common 0.533097 -0.486424 0.503340 0.624291 0.503647 0.229382 0.364225 -0.334900 -0.164140 0.916424 0.056530 0.159829 -0.078624 -0.525132 0.010834 0.906393 -0.253089 0.175752 0.446671 0.428253 -0.275647 -0.351063 0.090122 -0.522011 0.074781 0.144161 -0.198503 0.220376 0.501573 0.220352 -0.183856 -0.300642 -0.566265 0.162130 0.405244 0.157466 1.010721 -0.002234 -0.271257 -0.041805 0.340576 0.147269 -0.428792 0.714662 0.366380 0.204413 -0.059396 -0.195052 0.131149 0.167115 0.352900 -0.234547 -0.398372 -0.467649 0.010901 -0.504444 0.213127 0.154458 -0.257093 0.163203 0.541334 0.255113 -0.423578 0.648148 0.147892 0.816697 -0.543040 -0.038239 0.199173 0.271935 0.029832 -0.328876 0.162599 -0.568426 -0.388813 0.610409 0.215664 0.671279 -0.357233 -0.237527 0.754075 0.350311 0.702730 -0.220170 0.361470 0.644731 0.313564 -0.448035 0.334154 0.084776 0.602998 0.121652 0.480182 0.634690 -0.142920 0.469654 -0.608148 0.533517 -0.047118 -0.461828
sales 0.280567 0.167426 0.088354 0.275679 0.249681 0.243672 -0.083247 -0.267444 -0.003927 0.363195 0.436069 0.668788 -0.201741 -0.104825 -0.221416 0.007822 0.172260 -0.345447 0.554697 -0.125185 -0.089764 0.121033 -0.081307 -0.083121 -0.317241 -0.000518 -0.006409 0.391314 0.142886 0.190898 -0.188417 0.266527 -0.294136 0.058817 0.146014 -0.026612 0.263155 -0.563447 -0.288928 -0.300267 -0.101168 0.107831 -0.327230 -0.078111 0.158876 0.107785 0.298666 0.269113 -0.311453 -0.322205 0.361573 0.094412 0.297634 0.070470 -0.106533 0.051242 0.785853 0.324021 0.335272 -0.274243 -0.497805 -0.364435 -0.014278 -0.207435 -0.522487 0.764055 -0.026629 -0.240420 0.064989 0.366454 -0.053950 -0.440079 0.001111 -0.221416 -0.601131 0.062863 -0.078867 0.168110 -0.113817 -0.231511 -0.083551 0.225185 -0.186928 -0.087702 0.199304 -0.020982 0.683248 0.215105 0.602596 0.234936 0.271902 -0.303243 -0.539205 0.730785 -0.135964 -0.050736 0.086050 0.252813 -0.092606 0.444872
five -0.224163 -0.223750 0.483807 0.274396 0.287344 -0.298218 -0.795322 -0.023238 -0.231807 0.481380 -0.413215 0.619792 -0.283877 -0.651627 -0.362117 0.055560 0.171990 -0.069924 0.260394 -0.348177 -0.232399 0.267334 0.240089 0.200555 -0.291262 -0.475063 0.033993 -0.660256 0.351761 0.288101 -0.185037 -0.292221 -0.873385 0.011968 0.162464 -0.095412 0.832829 0.047403 -0.359605 -0.543399 -0.307886 -0.280362 -0.158990 -0.076291 0.425200 0.498282 0.236716 -0.158828 0.134621 0.264976 -0.391631 -0.234354 -0.244775 -0.128332 -0.533923 -0.145014 0.199642 0.143691 -0.571487 -0.324853 0.125910 0.023968 0.243466 -0.497144 -0.279768 0.538080 -0.004648 0.207725 0.757840 -0.113787 -0.238805 0.013583 0.011030 -0.107738 -0.189331 0.152148 -0.029880 -0.393371 -0.332709 -0.331534 -0.201362 -0.075067 0.010886 -0.429041 0.380640 0.131515 0.053027 -0.380451 0.390968 0.257011 0.046175 0.099035 -0.021441 0.751826 -0.013471 0.132263 -0.370491 0.019856 -0.164658 -0.349144
rose 0.009554 -0.318074 0.254875 -0.425704 0.687484 0.476590 -0.350826 -0.255125 -0.344435 0.795342 0.608180 0.032844 0.354853 -0.494339 -0.410055 -0.053790 0.858173 0.131154 0.347299 0.234626 0.427039 -0.003622 0.080883 -0.111686 -0.174650 -0.146339 -0.094063 -0.055558 0.184803 -0.035748 0.438226 0.027998 0.071683 0.339896 -0.076951 -0.069793 0.578245 -0.730486 -0.711799 0.167333 -0.583423 0.789468 -0.565454 -0.675886 0.076427 0.203789 0.850318 0.167740 -0.345653 -0.474149 -0.035512 -0.412052 0.316407 -0.205246 -0.096169 0.155213 0.607472 0.370821 0.553585 -0.083962 0.335819 -0.792380 0.367818 -0.689926 0.459645 0.746000 -0.384521 -0.124296 0.282786 0.156009 -0.076323 -0.268919 0.220131 0.014619 -0.287389 0.309544 -0.492440 -0.434022 0.430520 -0.081787 -0.112750 -0.218016 -0.304868 -0.356741 0.292781 0.510824 0.346838 -0.990898 0.722065 -0.614211 0.582099 -0.038289 -0.016201 0.608063 -0.000856 -0.129041 0.756829 0.394421 -0.806904 -0.744458
today 0.018311 0.409883 0.518885 0.665806 0.198963 -0.035929 0.061721 0.299111 -0.184687 0.290423 0.697284 0.347434 -0.323053 -0.374647 0.021875 0.521418 0.127286 0.637413 0.161717 -0.209073 -0.471878 0.308347 0.345806 -0.740683 -0.084896 -1.008505 0.123362 -0.300265 0.224189 0.331774 -0.374729 -0.071935 -0.533795 -0.212708 -0.195379 -0.157481 -0.114972 0.225868 0.263413 -0.397766 -0.314107 -0.124612 0.048624 -0.185940 0.310730 -0.236455 0.019200 -0.094874 -0.005804 -0.751136 -0.298584 -0.306772 -0.130139 0.206024 0.222824 -0.553347 0.128341 -0.138372 0.167490 0.135225 -0.394638 0.202334 0.098530 -0.441239 0.454218 0.287052 0.638451 0.133804 0.113305 0.364371 0.021959 -0.016285 0.558097 -0.521484 -0.018713 0.142197 -0.382873 0.011509 0.316290 0.372561 -0.260058 -0.339268 -0.263096 -0.007407 -0.045748 0.187178 0.131363 0.055476 0.127082 -0.378486 0.112862 0.117379 -0.303001 0.721965 -0.289757 0.072537 -0.180161 0.198131 0.209276 -0.352469
increase -0.198960 0.166067 0.530820 0.033228 0.530964 0.357040 -0.282894 0.078646 0.019399 0.113171 -0.091619 0.187272 -0.300262 -0.740384 -0.815278 0.186515 0.276059 0.298669 0.393241 0.620403 -0.327364 0.241934 -0.015481 -0.159901 -0.098192 -0.236932 0.086043 -0.131377 -0.003764 -0.037330 0.323313 -0.511973 -0.708362 0.119740 -0.088544 0.139362 0.164007 -0.076929 0.092284 -0.357687 0.031278 -0.104311 -0.592092 -0.102867 0.493080 0.344411 0.342526 0.217522 -0.308040 0.012066 -0.032206 -0.027667 0.233060 0.151490 -0.356431 0.193822 0.313027 -0.238894 0.019145 -0.315371 0.474195 -0.509925 -0.271211 -0.229908 -0.448064 0.673522 0.144553 -0.350480 0.433174 0.169546 0.100174 0.203785 0.422316 -0.358004 -0.479214 -0.179272 -0.119588 -0.751002 0.076607 0.368760 -0.143232 0.041730 -0.216907 -0.231705 0.311643 0.401551 -0.445709 -0.200568 0.667395 -0.166689 0.171244 0.028357 -0.331401 0.606462 -0.066938 -0.008971 0.099763 0.638884 -0.508049 -0.337782
interest -0.323924 -0.005913 0.687161 0.059509 0.289988 -0.648390 0.393420 -0.244752 0.079107 0.432354 0.738172 0.712019 -0.976138 -0.342253 -0.661895 0.601374 -0.006562 -0.047780 0.397635 -0.021528 0.214430 0.200467 0.181547 -0.056257 0.367223 -0.105460 0.012315 0.024518 0.648630 0.504335 0.054497 0.346611 -0.509690 0.393724 -0.037433 -0.327172 0.394337 0.228352 -0.276376 -0.498862 0.288577 0.691422 0.306622 -0.175647 0.023365 0.563782 0.285438 0.265941 -0.406744 -0.208286 0.556809 0.080457 0.012584 -0.526066 -0.416600 0.045205 0.686427 0.118447 0.092835 0.117043 0.625875 -0.608610 -0.494371 0.215134 0.001257 0.354807 -0.188166 -0.420506 0.586719 0.202963 0.094420 0.642703 -0.303766 -0.266083 -0.267205 -0.373240 0.196389 -0.164061 -0.585283 0.506417 0.664042 -0.119316 0.052891 0.332081 -0.058502 -0.248797 -0.062299 0.042103 -0.257841 0.188089 -0.299734 0.255617 -0.647295 0.399645 0.170942 0.722378 -0.305699 0.354881 -0.152740 -0.550824
production 0.445619 0.241219 -0.206902 0.180152 0.013307 -0.128492 0.135743 -0.340515 0.209310 0.010891 0.289365 0.413293 0.065905 -0.444831 -0.503037 0.524365 -0.191826 -0.227450 0.774476 0.163714 0.034811 0.365527 0.090308 -0.073866 -0.071872 -0.714006 0.040073 0.157943 0.269021 0.382269 -0.300141 0.473207 -0.801509 0.095175 0.104565 -0.217623 -0.286648 -0.051157 -0.123411 -0.861365 -0.196577 0.155614 -0.459283 -0.053072 0.207776 0.428336 0.652981 0.292903 -0.458831 -0.061107 -0.416681 0.230323 0.071702 0.168065 -0.443765 0.098001 -0.270450 0.403556 0.147972 -0.119227 -0.525255 -0.187588 0.125233 -0.538068 -0.851312 0.654116 -0.554398 0.046460 0.327832 0.139274 -0.040458 0.155854 0.411422 -0.236662 -0.897416 0.107829 -0.239916 -0.354846 -0.236458 -0.381707 -0.497662 0.410067 -0.058935 -0.161137 0.239468 -0.136329 0.324396 0.109606 0.089573 -0.236053 -0.411583 0.532043 -0.519370 -0.092701 0.015443 -0.091130 0.427438 0.489775 -0.242867 -0.137464
meeting 0.285286 -0.315723 0.494288 0.224867 -0.400280 0.154697 0.115945 0.003550 -0.318866 0.148588 0.540353 0.438611 -1.011654 -0.743781 -0.371906 1.181667 0.411845 0.387407 0.218277 -0.394941 -0.432037 0.967678 -0.362313 -0.496199 0.279685 -0.421712 -0.289744 0.159387 -0.308275 0.115313 -0.040195 0.182784 -0.663012 -0.053943 0.071256 -0.268013 0.381172 -0.022909 0.169921 0.081854 0.013872 -0.815180 0.000883 -0.477240 0.058817 0.012748 -0.611209 -0.232681 -0.262528 -0.209707 0.172160 -0.067750 -0.061228 0.890940 -0.174542 0.332089 -0.579061 0.355140 0.049949 0.208336 0.010122 0.357072 -0.565204 -0.064320 -0.309312 0.478843 -0.018607 0.622869 0.422344 0.159746 0.328429 -0.082734 0.463862 -0.401241 -0.104185 0.382554 -0.251857 -0.378639 0.072786 -0.330376 0.341507 -0.158784 -0.330098 -0.620026 0.063197 0.456508 -0.149747 0.195055 0.352296 0.161854 0.095259 0.036277 -0.537396 0.274744 0.014810 0.178191 0.027013 0.485665 0.135332 -0.764622
end 0.109957 -0.461806 0.052913 0.064192 0.270891 -0.031562 -0.172831 -0.688362 -0.101697 -0.034809 0.103321 0.535007 -0.340605 -0.126615 -0.500746 0.744158 0.497577 -0.513413 0.688399 0.081846 0.580313 0.665748 -0.155162 -0.291369 -0.297126 -0.756664 0.162092 0.012504 0.484917 0.032145 -0.258228 -0.360242 -0.307711 0.044464 -0.431765 -0.197801 -0.019043 -0.374435 -0.164291 -0.318985 -0.642029 0.284777 -0.537800 -0.067421 -0.143488 -0.101159 -0.184804 0.227195 0.198322 -0.121146 0.226058 -0.301407 -0.428551 0.492081 0.221430 0.369488 0.099882 0.743536 -0.248324 -0.279810 0.167379 0.238646 -0.281888 -0.100198 -0.171227 0.527662 0.304729 -0.238462 0.691802 0.029954 0.356073 -0.547037 -0.041393 -0.183710 -0.169516 0.500070 -0.504601 -0.311161 -0.028430 -0.361213 -0.044660 -0.410424 -0.069413 -0.294524 0.057970 0.683709 0.002060 -0.147922 0.237700 0.318717 0.029593 0.062823 -0.046321 0.189730 -0.420838 0.086983 0.047034 0.494578 -0.406095 0.291436
month 0.093342 -0.159713 0.060449 -0.091021 0.070580 -0.375926 -0.138288 -0.259080 -0.364808 0.156500 0.576310 0.884105 -0.399161 -0.564006 -0.105920 0.028311 0.168169 -0.080627 0.733504 -0.628145 -0.119623 0.530924 0.246000 0.021842 -0.097725 -0.636809 -0.114267 -0.402602 0.661925 0.541290 -0.010262 0.297763 -0.529730 0.394555 -0.112170 0.145819 0.403770 -0.167310 -0.232022 -0.150968 -0.012542 0.032446 0.186351 -0.835063 0.354570 -0.545292 0.107339 -0.188031 0.407950 -0.224525 -0.220535 -0.341356 -0.073169 -0.312184 -0.139562 -0.013172 -0.243737 0.254449 -0.107119 -0.398800 -0.116426 -0.119395 0.401572 0.023411 -0.473899 0.649473 -0.064544 0.434671 0.648075 -0.126469 -0.212475 -0.551512 0.665403 -0.360244 -0.126654 -0.114472 -0.660382 0.088701 0.392357 0.014090 -0.308446 -0.235368 -0.115588 -0.063824 0.294543 0.241205 -0.180885 0.073731 0.367686 -0.176259 0.189295 0.081865 -0.507454 0.469700 0.014166 -0.133815 0.389055 0.335257 -0.154648 -0.793560
foreign -0.161414 -0.340478 0.492410 -0.060346 -0.135589 -0.231296 0.339311 -0.590127 -0.007432 0.236587 -0.185035 0.372495 -0.524323 -0.142292 -0.271961 0.567380 0.537751 0.049943 0.380505 0.462709 -0.355156 0.061902 -0.254877 -0.366825 0.266688 -0.396274 0.574844 -0.055693 0.158617 0.300489 -0.133538 -0.097763 -0.099909 0.021071 0.163291 -0.146316 -0.183235 -0.058000 -0.271688 -0.242580 -0.089039 0.255156 0.503968 -0.668413 0.139817 0.207635 0.235339 0.805879 -0.637509 -0.262936 0.665032 -0.453296 0.351184 0.533700 -0.020561 0.001185 -0.050443 0.353661 -0.478531 0.223800 -0.031937 0.164759 -0.372527 -0.979935 0.450992 0.739428 0.322987 0.022714 -0.002908 0.256103 -0.098768 -0.448512 0.312716 0.092252 -0.547089 0.179260 -0.245531 -0.074653 0.051644 0.302721 -0.155397 0.290130 -0.120996 -0.534707 -0.118430 0.218272 0.420799 -0.162407 0.617457 0.111606 0.300312 -0.065074 0.150254 0.277998 0.436554 0.054525 -0.574987 0.562113 -0.492204 -0.674737
sale 0.088271 -0.321408 0.134912 0.065147 0.247034 0.328449 0.444815 -0.685262 0.189187 0.439649 0.401951 0.544650 -0.452381 -0.308320 -0.289651 0.705725 -0.128502 -0.038864 -0.012188 0.527635 0.172208 0.026820 0.330162 -0.261961 0.120528 0.067794 -0.106911 -0.269656 0.247868 0.224424 0.121191 0.086237 -0.600601 0.782854 0.141047 0.162507 0.544428 -0.652774 0.308266 -0.457310 -0.157173 0.201571 -0.488018 -0.038432 -0.258644 0.207481 -0.340470 0.178361 0.348876 0.048959 -0.120448 0.048056 -0.174500 -0.241663 -0.832449 -0.134643 0.042202 -0.122189 -0.022005 -0.447716 -0.369753 -0.234744 -0.263715 -0.059652 0.350200 0.206586 0.916163 -0.407836 0.413463 0.064527 0.045021 -0.277885 0.215756 -0.598039 -0.390709 -0.242059 -0.249696 0.078780 -0.368068 0.220608 0.173158 -0.062616 0.618419 0.188193 0.412950 0.150327 -0.052693 0.247843 0.226558 0.245680 0.222976 -0.228514 -0.080736 0.461987 -0.809879 -0.006413 -0.360113 -0.090704 -0.312525 0.194337
includes 0.526332 -0.728225 0.142034 0.323302 -0.034100 0.236871 -0.392594 -0.042331 -0.601307 0.534577 0.041295 0.537572 0.361108 -0.601121 -0.099511 0.278691 0.466143 0.008919 0.207015 0.743133 -0.255873 -0.263854 -0.162731 0.056695 -0.299001 0.271336 -0.443619 -0.293294 0.364391 -0.357447 0.623862 0.149680 -0.482588 0.341647 0.260614 0.332195 1.198275 -0.596967 0.051595 -0.543017 -0.595729 0.351283 -0.649971 -0.812312 0.024432 0.066297 0.238080 0.739864 -0.921797 -0.083865 -0.372266 -0.463434 -0.278841 0.016519 -0.788008 -0.542421 0.221609 0.443266 0.564226 -0.385124 0.187713 0.490219 0.126187 -0.024428 0.476785 0.449019 0.161566 -0.046251 0.908532 -0.257982 -0.052165 -0.276516 0.023946 0.157168 -1.013197 -0.217937 -0.493707 0.067867 -1.069093 0.211271 0.191494 -0.028645 0.961755 -0.039862 -0.376840 0.011426 -0.108132 -0.287807 0.678837 0.622239 0.689473 -0.723667 -0.165523 0.391855 0.133952 0.127448 0.327327 -0.000488 -0.335608 0.195040
rise -0.005290 -0.001156 0.076415 -0.184015 0.403880 0.253395 -0.190045 -0.217348 -0.586554 -0.032521 0.049615 0.274387 -0.372039 -1.002341 -0.425340 0.082130 0.436919 -0.098642 0.271282 0.603032 0.262819 0.030334 0.181949 -0.019907 -0.449145 -0.341991 0.206780 0.163826 0.153203 0.617595 0.230966 -0.150161 -0.422722 0.173204 0.374095 -0.256676 0.005945 -0.237691 0.156940 -0.329965 0.032936 0.371891 -0.697451 -0.304942 0.537132 0.150266 0.579963 0.089978 -0.130972 -0.299674 0.209400 0.197275 0.451922 -0.009917 -0.018261 0.306045 0.692459 -0.355096 0.019187 -0.783206 0.240610 -0.485834 0.086849 -0.324843 -0.382621 0.748048 -0.119261 -0.209401 0.425688 0.121596 0.212238 -0.366870 0.401681 -0.462305 -0.792817 -0.042905 -0.170462 -0.529958 0.497487 -0.122715 -0.098244 -0.426379 -0.429687 -0.722252 -0.021385 -0.163945 -0.022784 -0.164222 0.802635 -0.042235 0.248271 0.171565 -0.395198 0.832366 0.067155 -0.136537 0.232879 0.525903 -0.465877 -0.532560
board 0.322348 0.016293 0.008180 0.100928 0.320684 -0.406321 -0.121348 0.052709 -0.048505 0.850301 -0.004288 0.689285 -0.533821 -0.600746 -0.375864 0.499686 -0.134755 0.474344 0.739900 -0.329297 -0.438388 0.296129 -0.226962 -0.654424 0.046891 -0.398232 -0.699601 -0.464692 -0.036540 0.413741 0.155355 0.192095 -0.980024 0.246625 -0.023733 -0.311447 0.751563 0.047065 0.588453 -0.139231 -0.255899 -0.448446 -0.088813 0.129692 -0.017490 0.223726 -0.362498 -0.049374 -0.079350 0.298795 -0.006906 -0.068725 -0.497002 0.282594 -0.433809 -0.516205 -0.644225 0.225365 0.048728 0.258357 0.239625 0.098926 -0.348847 0.372693 -0.076178 0.206676 0.197431 0.103856 -0.130372 0.047865 0.148260 0.279744 0.327529 -0.688320 -0.021980 0.250336 -0.442991 0.040457 -0.257230 -0.330999 0.683309 0.016502 0.295911 -0.539370 0.012860 0.268959 0.127740 -0.279302 0.093171 0.452628 -0.003831 0.061857 0.192629 0.335524 -1.049602 0.649865 -0.327871 0.254243 0.166244 -0.566772
cash 0.050224 0.203964 0.909927 0.780376 0.525878 -0.199910 -0.021069 -0.063089 0.128834 0.252467 0.399335 0.411022 -0.273008 -0.576059 -0.203469 0.167380 0.355399 -0.088741 0.341678 0.595446 -0.486441 0.482574 -0.004747 -0.384663 -0.200509 0.376542 0.183327 -0.120666 0.364059 -0.046278 -0.316757 -0.273782 -1.077482 0.326768 0.067329 -0.124982 0.917425 0.473176 -0.220844 0.013491 -0.068655 0.619246 -0.025769 0.130512 0.413989 -0.020657 0.295053 0.086077 0.010385 0.237311 0.458557 0.438387 -0.065904 -0.185920 0.238186 -0.205643 0.116359 0.018661 -0.023190 -0.171589 0.089419 -0.385849 0.005930 -0.298590 -0.315177 0.564172 -0.269324 -0.341360 0.129148 0.198035 0.128439 -0.180718 0.031331 -0.210552 -0.636852 -0.650463 -0.347365 -0.212594 -0.014756 0.518037 0.584810 0.054237 0.592229 -0.019948 0.085020 0.414667 0.304596 0.492549 0.067013 -0.079135 0.220165 -0.067169 -0.002140 0.904545 0.240508 0.625557 -0.244755 0.401965 0.661793 -0.184828
made 0.146020 -0.327829 0.359074 -0.030284 -0.073398 0.098325 -0.167455 -0.073982 -0.032895 0.086887 -0.190225 0.242848 -0.056085 -0.442068 -0.518574 0.573036 0.728815 0.344455 0.190267 0.001005 -0.396351 -0.183677 0.076149 -0.324303 0.169177 -0.078905 0.246929 -0.124099 0.464919 0.012784 -0.065693 -0.481027 -0.235154 0.239003 -0.347491 -0.329508 0.253004 -0.188063 0.146574 -0.239580 -0.536606 0.057313 -0.547239 -0.399341 0.099425 0.232111 -0.315395 -0.257408 -0.284546 -0.368280 0.210790 -0.071659 0.429595 -0.205963 0.121669 -0.349737 0.024742 0.233990 0.090659 0.069924 -0.209761 -0.227075 -0.534453 -0.375579 -0.371672 0.318767 0.276742 0.201846 0.582285 0.332778 -0.066008 -0.133098 0.396417 0.167148 -0.095489 0.065298 -0.397916 -0.234273 -0.363320 0.339077 0.059659 -0.074045 -0.179464 -0.359429 0.163834 0.379795 -0.002769 0.188029 -0.195927 0.336096 0.030348 0.345586 -0.105531 0.370068 0.162393 0.559092 -0.432638 0.165773 0.139123 -0.300577
current -0.106286 -0.372317 0.142526 0.353739 0.232053 -0.139422 -0.246219 -0.159565 -0.485174 -0.111211 0.467234 0.591872 -0.348364 -0.170776 -0.491654 0.355861 0.524412 -0.024449 0.115212 -0.070629 -0.196002 0.602004 -0.044637 0.095593 -0.231852 -0.666707 0.628368 -0.353750 0.474600 -0.067913 0.119782 -0.277847 -0.350973 0.098984 0.255027 -0.261187 0.198431 0.327949 0.374171 -0.005405 -0.512129 0.495834 -0.127399 -0.169882 0.781209 0.845199 0.337122 0.185002 -0.428772 0.233684 0.193590 -0.411975 -0.231354 0.693607 -0.255408 -0.003966 -0.352369 -0.352197 -0.208168 -0.216688 0.201852 0.200478 -0.321585 -0.441755 -0.206082 0.630607 0.300200 -0.120167 0.090233 0.501423 -0.020419 -0.249873 0.031546 -0.059834 -0.462990 -0.288207 -0.250261 -0.001243 -0.516100 -0.246434 0.270375 -0.251030 0.147178 -0.377817 0.315366 0.369925 -0.049455 -0.273030 0.221236 -0.375852 -0.147087 -0.107379 -0.147773 -0.047814 -0.015111 -0.104672 -0.222051 0.205508 -0.123153 -0.104343
gain 0.878714 -0.369382 0.193290 -0.007530 0.279299 0.059598 0.576899 -0.360587 -0.254148 0.072712 0.009910 0.764528 -0.274218 -0.789756 -0.465723 0.225637 0.107388 -0.212897 0.061869 0.658030 0.329930 -0.496280 -0.006801 -0.001149 -0.283979 0.609518 0.098317 0.051043 0.551423 0.275390 0.318687 -0.195298 -0.866526 0.368580 -0.022919 -0.034575 0.728996 -0.660539 0.413083 -0.606881 0.008597 0.283078 -0.665625 -0.385671 -0.327194 0.162903 -0.032847 0.537977 0.192001 -0.368946 -0.004846 -0.353538 0.161957 -0.192366 0.016019 0.244940 0.546258 0.176143 0.255004 -0.408032 0.293465 0.112466 -0.062122 -0.027463 -0.174855 0.710754 0.135213 -0.508583 0.748754 -0.118042 -0.034880 -0.736273 -0.160551 -0.184767 -0.777476 0.052300 -0.210794 0.186011 -0.675744 -0.106399 0.274269 0.041472 0.555690 0.087421 -0.089721 -0.246505 0.020115 -0.151494 1.154620 0.073878 0.647240 -0.386266 -0.002448 1.092216 -0.149208 0.465742 0.348121 0.303997 0.102935 0.424834
investment -0.480817 -0.146711 0.436629 0.230356 0.246199 0.059962 0.319023 0.268809 0.085425 0.457437 0.602223 0.477511 -0.084508 -0.125705 0.281931 0.554608 0.091285 -0.006774 0.548543 0.161935 -0.092473 -0.416706 0.388785 -0.028962 0.335290 -0.055845 0.094765 0.266083 0.213889 0.280878 0.081365 -0.261147 -0.362606 -0.289019 -0.052206 0.105980 0.747169 0.043809 0.016924 0.049766 -0.404249 0.080341 0.059800 -0.797696 -0.060482 0.197187 0.168474 0.569120 -0.499536 -0.304857 0.510042 -0.183225 0.077077 -0.304899 -0.372877 0.234966 0.349097 -0.019464 -0.409634 -0.096140 0.010869 -0.228169 -0.188800 0.121200 0.228752 0.135306 0.473001 -0.005068 0.426050 0.069273 -0.146558 -0.444948 0.169903 -0.111202 -0.299234 0.037174 0.196322 -0.066003 -0.735049 0.289651 -0.035235 1.090691 -0.079238 -0.148511 0.274744 0.114628 -0.360165 -0.179434 0.499277 0.723787 -0.090849 -0.272735 -0.043445 0.694370 0.048372 0.281899 -0.276701 0.198111 0.212562 -0.283697
official -0.163537 0.238419 -0.250964 0.343687 0.087910 -0.199716 -0.361027 0.144238 -0.356521 -0.402303 0.425983 0.360769 -0.160366 -0.815846 0.151083 0.355730 -0.226741 0.290851 -0.143932 0.709486 -0.340404 0.535243 0.568859 -0.503562 0.315886 -0.845131 0.312806 -0.372528 0.371080 -0.121500 -0.269351 -0.088180 -0.724086 0.018805 0.183617 0.291018 -0.194510 -0.731256 0.111472 0.332565 -0.708073 0.184068 -0.232494 -0.524128 0.489472 -0.044257 -0.436083 -0.074181 -0.635720 0.075644 0.034735 -0.224805 -0.115388 -0.029932 0.292563 -0.229320 0.117373 0.023530 -0.303061 0.237394 0.137995 -0.120542 0.048455 -0.166481 0.412235 0.794368 -0.010336 0.145672 0.119701 0.010697 0.219543 -0.116641 0.899738 -0.163768 0.025782 0.116485 -0.636160 -0.790291 0.016878 -0.253772 0.016572 0.074562 -0.345295 -0.514147 0.198512 0.201250 0.081010 0.030190 0.112967 0.217705 0.005260 -0.163433 0.084374 -0.150882 -0.180320 -0.157429 0.101672 0.404653 -0.368370 -0.731620
dividend 0.124417 0.083926 0.767320 0.753640 0.779484 -0.249146 -0.033431 -0.140598 -0.129262 0.350758 0.041099 0.723814 -0.586628 -0.939728 -0.355378 0.442000 0.115165 0.224961 0.737174 0.435839 -0.532598 0.040933 0.233714 0.030189 -0.265709 -0.531377 -0.314945 -0.152560 0.282016 0.279231 -0.250163 -0.018081 -1.088386 0.082279 -0.402536 -0.193620 0.988283 0.148906 -0.007183 0.020220 0.274357 -0.158127 -0.557486 0.007894 0.625467 0.667501 0.081209 -0.467859 0.402415 -0.264240 0.360588 0.071682 -0.100597 0.334349 -0.073447 0.096530 0.132815 0.127877 0.280131 0.178952 0.348643 0.350055 -0.351781 0.049429 -0.541524 0.498864 -0.558275 -0.188279 0.002194 -0.166693 -0.024548 -0.287710 -0.452134 -0.669818 -1.132035 0.322241 -0.122361 -0.414207 -0.592093 -0.212547 0.817719 0.192769 0.229594 -0.296266 -0.486984 0.328791 -0.023652 0.052153 0.099845 0.603638 0.169974 0.241062 -0.236805 1.273204 -0.653486 0.087049 0.131079 0.346336 0.066174 -0.688246
business -0.238878 -0.087817 0.015240 0.228531 -0.093868 0.066433 0.345836 -0.265897 -0.146190 0.648348 0.102809 0.809194 -0.341794 -0.047275 -0.418469 0.430887 0.311807 -0.146413 0.593773 0.024213 0.114491 0.324902 0.537649 0.000286 0.079080 -0.021990 0.001015 0.038815 -0.296120 0.148841 -0.100827 -0.016339 -0.280100 0.425376 -0.275402 -0.038325 0.257223 -0.359465 0.007883 -0.161045 -0.378671 0.228959 0.254936 -0.131393 -0.005989 0.260622 0.156658 0.194015 -0.224233 0.052637 0.162237 0.004786 -0.183293 0.252805 -0.265039 0.177159 -0.072769 0.138524 -0.181915 -0.292472 -0.133215 -0.384703 0.142403 -0.312253 0.131606 0.019854 0.127853 -0.221313 0.416977 0.017045 -0.302178 0.113685 0.269523 0.031597 -0.380480 0.095893 -0.387950 -0.120331 -0.311477 0.110511 -0.029886 0.492803 -0.014534 -0.185035 0.576832 0.066320 0.220095 0.007097 0.404869 0.291703 0.031048 -0.210741 0.131211 0.234609 -0.277733 0.139995 -0.371640 -0.100035 0.367483 0.027589
industry -0.145946 0.001451 -0.209421 -0.010114 0.228261 -0.153119 0.124139 0.238436 0.059450 0.248225 0.009789 0.198373 0.149454 -0.181200 0.119223 0.301880 -0.105588 0.009008 0.228940 0.164264 -0.272354 0.129328 0.282309 -0.095644 0.349593 -0.383437 0.019996 0.209847 0.141250 0.142799 -0.156394 -0.217781 -0.705681 0.260526 0.585947 -0.183443 -0.091337 -0.405652 -0.112224 -0.513783 -0.515825 0.128943 0.018861 -0.078891 -0.008429 0.020224 0.078495 0.161407 -0.499391 -0.175468 -0.156879 -0.383331 0.555746 0.157574 -0.170789 -0.124849 -0.391890 0.000720 0.002808 0.056248 -0.565106 -0.211197 -0.449852 -0.410715 -0.181890 0.632806 -0.073058 -0.181014 0.475186 0.076415 -0.207260 0.236462 0.796650 -0.108366 -0.686263 0.037831 -0.484170 -0.236635 -0.138105 -0.125007 -0.508263 0.247568 -0.514344 0.002086 0.344590 -0.567594 0.130917 0.196753 0.645966 0.653276 0.128282 0.274822 -0.155792 0.304393 -0.017090 -0.020063 -0.353980 0.472262 0.454505 -0.287350
growth -0.478013 -0.269517 -0.081400 -0.004117 0.442744 -0.064335 0.016130 -0.015621 -0.266152 0.133949 0.363034 0.553683 -0.603432 -0.365746 -0.922006 0.063926 0.478753 -0.021475 0.618775 -0.046726 0.229989 0.258554 -0.135480 -0.405872 -0.386054 -0.316794 0.362683 0.359425 0.656689 0.481360 -0.067558 0.102804 -0.075903 0.041551 0.271955 -0.325742 -0.082302 0.121311 0.015589 -0.614562 0.033916 0.415410 -0.223670 -0.551663 0.445732 0.273930 0.475894 0.678941 -0.508736 -0.159372 -0.057236 0.170094 0.780944 0.183507 -0.252289 0.427955 0.213970 0.106393 -0.060764 -0.636212 -0.263635 -0.369731 0.165767 -0.097824 -0.583441 0.393051 -0.571125 -0.357794 0.612860 0.193199 -0.363948 -0.242313 0.261467 -0.346069 -0.432469 0.109243 -0.433282 -0.206442 -0.218181 -0.162576 0.476021 0.188805 -0.494735 -0.516811 0.201442 -0.227215 -0.156335 -0.331548 0.448264 -0.174264 0.003589 -0.081406 -0.171007 0.638722 -0.064890 -0.021976 -0.073874 0.388527 -0.046626 -0.783009
exchange -0.371328 -0.350625 0.680601 0.187034 0.387798 -0.483772 0.590699 0.104717 -0.266797 -0.198564 0.627526 0.754234 -0.357269 0.146487 -0.032868 0.390291 0.328538 0.257145 0.482423 0.043662 -0.563100 0.421074 -0.545578 -0.465487 0.442252 -0.523018 -0.053325 -0.074297 0.640943 -0.186589 -0.265210 -0.177181 -0.085989 -0.301674 0.271755 -0.119095 0.133876 0.437082 -0.484436 0.305261 -0.052303 0.660866 0.342728 -0.089109 0.020529 -0.010018 0.044884 0.161212 -0.567542 -0.291643 0.290699 -0.229647 0.518298 0.172384 -0.094000 0.384839 0.340771 0.372936 -0.538297 0.033187 0.311499 -0.234257 -0.208153 -0.545757 0.261720 0.200162 0.311717 0.007368 0.059630 0.530593 0.079455 -0.287020 -0.162906 -0.294226 -0.106315 -0.480626 -0.659489 -0.261233 -0.404533 -0.324776 0.447246 -0.015678 0.217714 -0.207567 0.435215 0.486743 0.016854 0.078440 0.208106 0.199021 0.149622 0.394412 -0.207864 0.344617 -0.124901 0.419171 -0.282593 0.271605 -0.215049 -0.703839
statement 0.020682 0.114884 -0.002907 0.498709 0.344193 -0.143180 -0.067033 0.025992 -0.469420 0.340354 -0.077744 0.623750 -0.168913 -0.706319 -0.097825 0.827879 0.354678 0.546524 -0.082478 0.288542 -0.490047 0.164527 0.607482 -0.311863 0.100820 -0.067738 -0.356368 0.255584 -0.224440 -0.114329 0.038535 0.045370 -0.365880 0.284149 -0.144094 -0.152171 0.152419 -0.110813 0.480516 0.281109 -0.342413 0.336368 0.248748 -0.230685 0.419286 0.058359 0.092284 -0.398251 -0.096837 0.055764 -0.216301 -0.023413 -0.014680 -0.227926 -0.240730 -0.087938 -0.126593 -0.722264 0.645165 -0.059996 -0.417251 -0.398137 -0.267971 -0.080128 -0.134475 0.486028 0.717930 0.592642 0.353542 0.481385 0.040649 -0.089751 0.537056 -0.438035 -0.326825 0.179239 0.006433 -0.391155 0.389225 0.239998 0.294772 -0.166508 -0.072431 -0.476920 0.302386 0.112828 0.013335 -0.279462 0.266616 -0.033344 -0.228364 -0.041843 0.071026 0.118855 -0.012156 0.342897 -0.073438 0.446470 0.306816 -0.120664
major -0.381810 -0.234409 0.268328 -0.242669 0.029450 -0.219262 -0.350079 -0.491288 -0.353906 0.593954 0.228184 0.513749 -0.395218 -0.424613 -0.336494 0.960389 0.268832 -0.410223 0.001972 0.273406 -0.464451 0.156720 -0.027245 0.138558 0.224020 -0.004343 0.306387 -0.255548 0.153152 0.129341 -0.123612 0.104525 -0.373576 0.281071 -0.339865 -0.424819 0.308301 -0.222724 0.064035 -0.142576 -0.238134 0.366489 0.083684 -0.603026 0.022514 0.382207 0.443583 0.176908 -0.188935 -0.076577 0.088193 -0.054243 0.252415 0.596870 -0.451919 0.439619 0.063320 -0.095967 -0.570597 -0.056374 0.018998 0.246943 0.030147 -0.461555 0.234996 0.337676 0.317776 0.250732 0.372635 0.176348 -0.170132 0.339910 0.554328 0.266298 -0.205833 0.034795 -0.587781 -0.279897 -0.294112 0.075018 -0.229323 0.327664 -0.189196 -0.098851 0.223340 0.134370 0.401478 -0.131865 0.230950 0.092974 -0.080343 0.220241 -0.321863 0.217372 -0.155353 -0.208676 0.088578 -0.089879 -0.238624 -0.603410
dollar -0.196760 -0.106924 0.350035 0.077161 0.377658 -0.483528 0.110064 0.012947 -0.546991 0.286862 0.696253 0.419580 -0.805850 -0.283219 0.369443 0.795848 0.186220 -0.570920 0.549805 0.337720 0.112619 0.016610 0.238246 -0.737210 -0.097640 -0.583356 0.312703 -0.359890 0.626399 0.697103 -0.306273 -0.094011 -0.084288 0.632662 0.298433 -0.554412 -0.518060 -0.084000 -0.047804 -0.639181 -0.066455 0.456492 -0.123143 0.201794 0.755305 0.127802 -0.090802 0.256030 -0.576824 -0.265207 0.409068 0.140139 0.240425 -0.016993 0.038762 0.399870 0.117308 0.133159 0.059178 -0.226346 0.420356 -0.036840 -0.233056 -0.330859 0.336987 0.385582 0.339224 -0.302752 -0.167769 -0.012057 0.173065 -0.156743 -0.102128 0.310526 -0.742611 -0.412662 -0.304955 -0.361138 0.101154 -0.484006 -0.168842 -0.629804 -0.580315 -0.311343 -0.458049 0.081578 0.029412 0.247413 0.005419 0.245321 -0.436738 0.130334 -0.166765 0.241168 0.056124 -0.074376 -0.598993 0.898025 -0.107167 -0.494556
buy 0.290671 -0.206065 -0.125184 0.079815 0.211510 -0.078349 -0.184876 -0.573146 0.284238 0.500365 0.393877 0.046884 0.164978 -0.302623 -0.042205 0.947756 0.270021 0.154512 0.178773 0.256265 0.128925 0.127869 -0.155520 -0.292341 0.418642 -0.047075 0.091870 -0.114527 0.135878 0.437309 0.187261 -0.365412 -0.344274 0.420139 0.328100 0.137136 0.345640 0.407546 -0.502733 -0.459988 -0.219289 0.156146 -0.363309 0.471126 0.004168 0.185823 0.134720 0.397900 0.315988 -0.381415 0.242362 -0.260188 0.064620 -0.842405 -0.707819 -0.808169 0.190449 0.220756 -0.562365 -0.020984 0.350207 -0.219798 -0.061682 0.184257 -0.120518 0.547411 0.317939 -0.255360 0.225186 0.051461 0.420265 0.337678 0.194139 -0.807937 0.088071 0.060403 -0.154743 0.295333 -0.533413 -0.094706 0.045920 0.387833 0.010164 -0.148830 0.367751 0.823697 0.294491 0.017957 0.351194 -0.305126 0.420684 0.468378 -0.010758 0.364193 0.031051 0.194997 -0.646157 0.628531 -0.022203 0.002148
stake 0.005969 -0.045026 0.280655 0.256114 0.253826 -0.188057 0.372814 -0.028986 -0.173055 0.713295 0.245978 0.189770 -0.222147 -0.416938 -0.337889 0.663861 -0.376686 0.260641 0.538007 0.327228 0.048711 -0.015701 0.469654 -0.325885 1.262333 0.408340 0.134709 0.331822 0.210607 0.870229 0.137863 0.238061 -0.514166 0.142616 0.122115 0.031587 0.484560 -0.107732 -0.014669 -0.885645 0.158258 0.537641 -0.225511 0.068221 0.261473 0.438788 0.370919 -0.710815 0.208739 -0.200506 0.662739 -0.166523 -0.615608 -1.043078 -0.521232 -0.219451 0.586381 -0.349329 0.212695 0.086617 0.203533 -0.602523 -0.471861 0.676285 0.416694 0.329907 -0.579191 -0.224544 0.326284 -0.060773 0.198376 -0.027618 0.310879 -0.401158 -0.368152 0.266747 0.177034 0.134126 -0.917570 0.135835 0.383445 0.564218 0.065012 -0.150955 -0.006393 0.298402 0.123067 0.041879 0.558249 0.108701 -0.322726 -0.001173 0.064866 0.815964 -0.215311 0.532164 -0.549326 0.840677 -0.174515 0.009284
acquisition 0.050765 0.102339 0.251636 0.335999 0.052229 0.408529 0.201883 -0.770830 0.010418 0.428841 -0.216883 0.698844 -0.507544 -0.726554 -0.000400 0.911611 -0.063310 -0.128119 0.299136 0.655833 0.025320 0.186342 -0.020068 -0.800172 0.048612 0.342355 -0.438850 -0.003754 0.291672 0.693224 -0.000985 -0.087290 -0.630809 0.715667 -0.213003 -0.246236 0.762582 -0.164705 0.028060 -0.462255 -0.276271 -0.007178 -0.555113 0.083175 0.154070 0.363898 -0.503881 -0.164680 0.018345 0.449455 -0.046558 0.153114 -0.367689 -0.064825 -0.449771 -0.110804 0.019999 0.025780 0.227249 -0.463506 -0.245610 -0.260624 -0.180013 0.193210 0.236739 0.111900 0.382654 -0.286513 0.467447 0.232221 0.473104 -0.096044 0.063546 -0.550215 -0.253719 0.021175 -0.391218 -0.219749 -0.016863 0.254363 0.541111 0.171680 0.394738 -0.067673 0.242759 -0.199843 -0.052454 0.422398 -0.113386 0.386308 0.036131 -0.458315 0.036155 0.014576 -0.198743 0.193826 -0.284811 0.060920 0.332834 0.335220
time 0.238398 -0.386520 0.471448 0.079386 0.289822 -0.182591 -0.562595 -0.062662 -0.194932 0.355386 0.116031 0.389230 -0.483591 -0.439726 -0.312379 0.682386 0.104551 -0.281522 0.131132 0.378827 0.317110 0.168211 -0.035597 -0.278244 -0.029378 -0.491100 0.270091 -0.639634 0.397233 0.378177 -0.381849 0.010471 -0.343181 0.036895 -0.052391 -0.211266 0.352113 -0.143788 -0.089653 -0.454503 -0.518622 0.126379 0.169012 -0.638967 0.220275 0.035653 -0.207094 -0.194844 0.118211 0.111091 -0.142413 0.088437 -0.180239 -0.070795 0.130879 -0.229443 -0.107452 0.361317 -0.651380 -0.280583 0.207687 -0.252678 -0.021434 0.245980 -0.033590 0.322448 0.051253 0.147702 0.586484 0.111116 -0.319678 -0.160292 0.355702 -0.148341 -0.023806 -0.435178 -0.487054 -0.138331 -0.306505 0.051873 0.025518 -0.075895 0.007208 -0.015338 0.213058 0.914826 -0.484572 0.033698 0.534795 -0.007583 -0.222684 0.431832 -0.077079 0.336109 -0.095207 0.131337 -0.223281 0.076049 0.232293 -0.208690
reported 0.090223 0.164228 0.207005 0.364858 0.162853 0.376355 -0.213270 0.028092 -0.564165 0.628638 0.042221 0.263560 -0.346522 -0.634808 -0.518756 0.426906 0.305027 0.102857 -0.035635 0.089511 -0.145889 0.219451 0.403594 -0.416352 0.013793 -0.074871 -0.122837 0.217066 0.133611 0.469053 0.307805 0.434270 -0.352292 0.691892 -0.535649 -0.319159 0.243152 -0.264999 0.088945 -0.646042 -0.495220 0.360481 -0.262475 -0.633584 -0.078228 0.035794 -0.333036 -0.147265 -0.541503 -0.293255 -0.071247 -0.147081 0.071279 0.093943 -0.115612 -0.369102 0.638950 0.167838 0.849639 0.172822 -0.657709 -0.254167 -0.001273 -0.121608 0.322033 -0.144252 0.344887 0.186654 0.654767 0.155889 -0.711479 -0.561404 -0.418053 -0.382004 -0.136124 0.214652 -0.428207 0.200721 -0.177235 0.478842 0.007860 -0.341986 -0.119106 -0.344631 0.313022 0.481651 -0.001989 -0.065335 0.078924 0.543890 0.166146 -0.052868 -0.212231 0.697819 0.206181 -0.171286 0.337390 0.134798 0.240183 -0.117626
world -0.479965 -0.203507 0.274921 -0.050379 0.245526 -0.379172 0.134616 0.066200 -0.127978 0.885309 0.456023 0.504086 -0.207940 0.009033 -0.068392 0.651462 0.358801 -0.212229 0.060740 0.172476 -0.489019 0.007863 -0.349656 -0.249586 0.008369 -0.383496 0.456354 -0.083040 0.285779 0.053696 0.079506 -0.149094 -0.386996 0.030736 0.735263 -0.341980 -0.095387 -0.276861 -0.022670 -0.461912 -0.286188 0.557812 -0.420191 0.083559 0.405815 0.330696 0.483772 -0.283823 -0.374646 -0.410439 0.363531 -0.458096 0.144716 0.455074 0.173761 -0.102105 -0.346925 0.059904 -0.016969 -0.510143 0.215151 0.480386 -0.069985 -0.236499 -0.269932 0.600899 -0.006657 -0.241532 0.449477 0.099150 0.065964 -0.141101 0.267303 0.181902 -0.480167 0.370858 -0.140978 -0.243517 -0.209049 0.118565 -0.346645 0.021604 -0.459522 -0.230030 0.573915 -0.267391 0.492685 -0.142857 0.297912 -0.108431 0.021603 0.379708 -0.344720 0.241845 -0.305458 -0.656050 -0.311748 0.466393 0.105580 -0.574153
debt 0.277070 -0.219029 0.293524 0.252378 0.320968 0.170341 0.358335 -0.217530 0.263099 0.164741 0.814960 0.438358 -0.877803 -0.057555 -0.150930 0.392913 0.388879 -0.151654 0.895696 0.564223 -0.173961 -0.099641 0.450138 -0.117575 0.297609 -0.270545 -0.158952 -0.145572 0.255400 0.219530 -0.332290 -0.172264 -0.251962 0.062536 -0.370424 -0.005170 0.402210 -0.498090 -0.370378 0.238858 -0.379385 -0.084357 0.529042 -0.359976 0.059986 -0.135039 -0.136147 0.064976 -0.322936 -0.003496 0.075773 0.486335 -0.192386 0.399087 -0.484464 -0.131368 0.037366 0.080459 -0.357360 -0.156626 0.158726 -0.142196 0.137470 -0.180573 -0.212018 0.200683 0.023572 -0.390930 0.407297 -0.127732 0.117424 -0.470517 0.246672 -0.185573 -0.558434 -0.230588 -0.021182 -0.063006 -0.264469 0.033666 0.722125 0.395458 -0.132464 0.170016 0.079479 0.496976 0.216292 -0.024010 0.423060 0.286332 -0.066983 -0.025376 0.043753 0.398669 0.708956 0.243890 -0.424078 0.413082 -0.185376 -0.146239
record 0.097635 -0.126635 0.184212 -0.047741 0.124621 0.004480 -0.047913 -0.450917 -0.411740 0.666625 0.340896 0.305842 -0.495258 -0.583171 0.345878 0.651386 0.544181 -0.395748 0.609598 0.254283 -0.230995 0.657411 -0.123071 0.058053 -0.234380 -0.861786 0.227725 0.089139 0.620346 -0.395821 -0.719850 0.415883 -0.314141 0.186929 -0.578325 -0.393660 -0.143724 0.534842 -0.460259 -0.434146 0.215691 -0.059964 -0.390927 -0.424139 0.314660 0.710940 -0.165226 0.324561 0.020988 -0.102332 0.093918 -0.684130 0.021144 0.392657 0.190593 0.298407 0.416331 -0.206549 -0.085310 0.461392 -0.241405 -0.022237 0.027759 -0.336646 -0.644430 0.773511 -0.300669 -0.000389 0.427893 0.024235 0.405170 -0.291865 -0.355799 -0.337977 -0.610712 0.139988 0.130493 -0.222951 0.078488 -0.176538 0.469222 -0.126347 -0.158497 -0.265838 0.144320 0.799789 -0.224519 0.084185 0.263190 0.035837 0.401751 -0.259445 0.042330 0.447488 0.427768 -0.060945 0.376560 0.385461 -0.267250 -0.688801
take -0.045091 -0.051232 0.739844 0.181049 -0.030073 -0.085646 -0.459739 0.004780 -0.070632 -0.088465 -0.101289 0.021044 -0.387600 -0.441527 -0.548650 1.008632 0.141316 0.081575 -0.296236 0.452894 -0.265525 0.199582 -0.122224 -0.387939 0.280426 -0.501225 -0.028550 -0.057688 0.240585 0.732823 -0.049258 -0.118677 -0.253504 0.304486 -0.454638 -0.077699 0.320665 0.621719 -0.108662 -0.708830 -0.129217 -0.019591 -0.005711 -0.207497 0.320480 0.271063 0.290473 0.051790 -0.153991 -0.240020 0.005989 -0.158398 0.225403 -0.013231 -0.362955 -0.324798 0.074137 -0.165174 -0.935309 -0.121048 0.467347 0.196731 0.276637 -0.348012 -0.367898 0.464365 0.669955 -0.085758 0.664897 0.277182 0.173391 0.397461 0.367452 -0.267347 -0.185070 -0.276632 -0.716045 0.072923 -0.276029 -0.386185 0.237379 0.082040 -0.261571 -0.023786 -0.027064 0.229200 -0.154181 -0.505864 0.827496 0.083466 -0.147069 0.308008 -0.116998 0.374346 0.451987 -0.004158 -0.341032 0.396214 -0.067183 -0.038258
announced 0.366238 0.024018 0.085028 0.403576 0.105431 0.233276 -0.319986 -0.620166 -0.112034 0.490072 -0.230392 0.604564 -0.455791 -0.971115 -0.303352 0.452830 0.284487 0.343885 0.340264 0.155176 -0.439647 0.003375 0.682566 0.305602 0.157028 0.098594 -0.481305 -0.094970 0.535094 0.030910 0.117633 -0.092725 -0.333313 0.740277 -0.477117 -0.044529 -0.058147 -0.213737 0.476885 -0.452400 -0.184206 0.227564 -0.154964 -0.571774 0.236445 -0.047276 -0.545089 -0.225520 -0.049823 -0.181434 -0.258793 -0.330049 -0.234154 0.262832 -0.779373 -0.248560 -0.094455 -0.015539 0.145765 0.380913 -0.353487 -0.291513 0.038529 -0.247781 0.522448 0.392673 0.614533 0.009983 0.519908 0.057990 -0.040447 0.291750 0.099584 -0.818429 0.166041 0.167751 -0.332938 -0.051642 0.062424 0.201164 0.065948 -0.027020 -0.079524 -0.015373 0.045243 0.678761 -0.535440 0.290587 0.482987 0.012960 0.065196 0.443233 -0.892851 0.801645 0.238672 0.304845 0.086379 0.018117 -0.108051 -0.182595
unit -0.160858 -0.226526 0.028923 -0.302515 -0.188277 0.112640 0.047040 -0.300366 -0.238100 0.996236 0.401590 0.842070 -0.012701 -0.772664 0.198166 0.682859 0.128423 0.125888 0.244531 0.221442 0.014797 0.320032 0.613584 -0.254192 0.276308 0.156481 -0.161877 0.216343 0.329204 0.276380 0.257924 0.284273 -0.448483 0.090491 -0.125058 -0.002121 0.261059 -0.019496 -0.063154 -0.101536 -0.120470 0.322143 -0.551253 0.070214 0.050903 0.521068 -0.035350 0.125518 0.108843 0.550612 0.446854 0.084363 -0.083791 -0.363609 -0.182410 -0.531446 -0.106161 0.357950 0.532118 -0.125965 -0.445189 -0.591420 -0.150008 -0.083612 0.057783 0.143093 -0.059847 -0.230835 -0.054588 0.099708 -0.028221 -0.017560 -0.171325 -0.836244 -0.599302 0.349660 -0.201754 0.213084 -0.270923 0.295511 0.048273 0.290570 0.327785 0.258594 0.424512 0.127480 0.062225 0.240840 -0.066839 0.668651 -0.002351 -0.269231 -0.125282 0.462954 -0.096243 -0.079363 -0.272167 -0.114962 0.103755 0.102690
down 0.572910 0.171220 -0.335773 -0.123187 0.262677 -0.027497 0.059322 -0.278036 -0.231866 0.631702 0.319955 0.268207 -0.044938 -0.250301 -0.745617 0.502841 0.467197 0.142893 0.146092 0.301699 -0.125848 0.015823 -0.091786 0.103253 -0.161062 -0.668576 0.404161 -0.400441 0.718083 0.601568 -0.097615 -0.101147 -0.500955 -0.307742 -0.200899 -0.080591 0.068337 -0.287103 0.071180 -0.069506 -0.041194 0.248724 -0.392374 -0.040368 -0.130100 -0.284907 0.218204 -0.003860 0.274464 -0.422482 0.302348 -0.395236 0.024680 -0.000828 -0.071154 -0.082629 -0.035851 -0.423961 0.086343 -0.440673 0.541628 -0.042251 -0.322499 -0.160027 -0.077657 0.489732 0.166902 -0.046782 0.460709 0.220933 -0.573884 -0.358916 0.040083 0.094341 -0.447350 -0.229810 -0.552118 -0.351387 0.431156 -0.231327 -0.327735 -0.271452 0.251487 -0.114816 -0.521292 0.517643 0.400712 -0.146203 0.621401 -0.653818 0.116915 -0.257929 -0.122415 0.446219 0.038715 0.040471 0.437946 0.629765 -0.283686 -0.090771
assets 0.295606 -0.109020 0.328874 -0.096116 -0.045113 0.210081 -0.088448 -0.873556 0.190931 0.491965 0.551460 0.501583 -0.449712 -0.268294 -0.202517 0.955591 0.223267 -0.442396 0.586751 0.492346 -0.039657 -0.008642 0.483938 -0.133989 -0.063953 0.256113 0.057173 -0.258549 -0.200441 0.296789 0.123558 0.618473 -0.452475 0.195946 -0.277443 0.263969 0.154499 -0.464796 -0.559402 -0.386068 -0.268271 0.168242 -0.073744 0.006984 0.140076 0.329178 -0.041114 0.562785 -0.152600 -0.095709 0.560828 -0.212217 -0.482116 -0.353314 0.072495 -0.073271 0.293727 0.373777 0.057163 -0.108721 -0.067845 -0.335951 -0.103388 0.238201 0.402743 0.340355 -0.127670 -0.397565 0.004117 -0.047603 0.226425 -0.040884 -0.059597 0.122476 -0.427623 0.219726 -0.277700 0.418785 -0.529385 0.317699 0.186925 0.099786 0.332976 -0.242343 0.465521 0.573109 0.447626 0.651137 0.285490 0.514948 -0.104277 -0.423974 -0.260594 0.519914 0.059938 0.393993 -0.460317 0.585820 -0.067245 0.236756
out 0.574312 -0.057804 0.070849 -0.287716 0.018581 0.003768 0.317575 -0.137769 -0.096532 0.433291 0.104261 0.484849 -0.273045 -0.175764 -0.518915 0.581894 0.151369 -0.370685 0.324246 0.471886 -0.424375 0.005604 -0.297126 -0.226547 0.129410 -0.704959 0.047413 0.036742 0.656103 0.374919 -0.110445 -0.311936 -0.124138 -0.052918 -0.008139 -0.073055 0.061915 -0.151223 -0.269211 -0.361553 -0.089876 -0.015160 -0.091090 -0.372919 -0.131774 -0.106984 -0.164944 0.114140 0.224282 -0.077066 0.136665 -0.312666 0.104993 0.108527 -0.205558 -0.234399 -0.065427 -0.125031 -0.341647 -0.153600 -0.047305 -0.058447 -0.240110 -0.270095 -0.154996 0.154137 0.299070 0.448463 0.739661 0.179945 -0.119947 0.137638 0.599340 -0.189511 0.199013 -0.395241 -0.373976 -0.307438 -0.127690 -0.064342 0.086648 0.013273 -0.094479 -0.233671 -0.090679 0.645364 0.217707 0.264185 0.253329 -0.307998 -0.717611 0.212073 0.073653 0.269173 -0.142492 0.527877 -0.087762 0.571013 0.050088 0.060031
his 0.274149 -0.206975 0.295034 -0.086221 0.121785 -0.041798 0.136592 0.785163 -0.394560 0.297158 0.016698 0.460246 -0.387075 0.016984 -0.805768 0.357302 0.106368 0.338661 0.113052 -0.574521 -0.975164 0.221910 -0.238563 -0.760016 0.173257 -0.310095 0.156780 -0.179586 -0.117767 0.376802 -0.209805 -0.266436 -0.760952 -0.081908 0.131760 -0.046234 0.147185 -0.290790 0.076327 -0.747406 -0.440591 0.036955 0.374313 -0.311107 0.351710 0.141977 0.267483 -0.520938 -0.273021 0.340351 -0.254379 -0.120272 0.612527 0.025042 -0.270214 -0.544044 -0.454375 -0.136884 -0.066543 0.178664 -0.082245 -0.267724 0.223981 -0.436042 0.392640 0.408150 0.276757 -0.016729 0.192316 0.334425 -0.157921 -0.670019 0.478229 -0.351099 0.058401 -0.124379 -0.413408 0.034339 0.063669 -0.141108 0.559888 0.414038 -0.564853 -0.418817 -0.247568 0.350662 0.112017 0.013812 0.364316 -0.106801 -0.515796 0.322073 0.294857 0.483798 0.037782 0.104487 -0.367638 -0.034658 -0.093640 -0.183374
period 0.190974 0.027440 0.049083 0.365695 0.373093 -0.103357 -0.282455 -0.135133 -0.738927 0.053051 -0.336506 0.381642 -0.379228 -0.387816 0.089626 0.255135 0.308655 -0.215777 0.426223 0.012742 0.488034 0.129182 0.207404 -0.133686 -0.315466 -0.469302 -0.226428 -0.206197 0.158986 0.366724 0.046853 -0.171662 -0.574040 0.469771 -0.178689 -0.302688 0.477357 -0.089770 0.075956 -0.138068 -0.416694 0.205706 -0.380388 -0.375299 0.322279 -0.113950 0.059877 -0.336455 0.059731 -0.097857 -0.247759 -0.215081 -0.179142 0.453716 0.087032 0.434178 0.394876 0.071944 0.090093 -0.121314 -0.046276 0.203321 0.101200 0.190502 -0.623956 0.389090 -0.226819 0.540465 0.688849 0.512849 -0.201151 -0.691087 0.468544 0.119602 -0.651717 -0.326831 -0.631038 -0.228403 0.284430 -0.270267 0.156425 -0.004114 -0.354889 -0.037792 0.257614 0.530080 -0.219785 0.240709 0.724359 0.062658 0.202053 0.334747 -0.189913 0.293683 0.106069 0.154061 -0.110287 0.309872 -0.186517 -0.234898
plan 0.144874 -0.420671 0.041453 0.015941 0.108455 -0.104026 -0.060386 0.043356 0.069894 0.023218 -0.431346 0.570597 -0.462132 -0.520305 -0.272530 0.204582 0.110221 0.002010 0.541907 0.196855 -0.672536 0.122447 0.157660 0.048873 0.132077 -0.312897 -0.284000 0.080402 0.314891 0.196793 -0.162693 -0.328452 -0.422848 0.614689 -0.507765 0.221031 0.433871 -0.212011 0.062674 -0.438006 -0.047143 -0.077730 0.267124 -0.340831 0.159431 0.327089 -0.280874 -0.065703 -0.146767 0.055188 -0.021614 -0.206248 0.409644 0.665001 -0.417193 -0.415131 -0.446909 -0.349643 -0.152718 0.162900 -0.342571 0.234116 -0.397255 -0.255288 0.263429 0.551966 0.111172 -0.338180 0.039072 -0.369097 -0.044333 0.303948 0.466812 -0.438146 -0.337228 -0.130495 -0.200568 -0.160115 -0.302198 -0.039219 0.391669 0.183774 0.302611 -0.001661 0.009492 0.337965 -0.218396 0.130813 0.685996 0.113475 -0.109384 0.106493 -0.008898 0.279872 -0.191930 0.138639 -0.535362 0.394178 -0.022231 -0.028636
report -0.275239 -0.214921 0.093031 0.145045 0.537702 0.330095 0.081782 0.236814 0.008379 0.165135 0.333792 0.804888 -0.343947 -0.132517 -0.504214 0.702984 0.084659 0.674487 -0.238731 -0.012021 -0.184383 0.166745 -0.128172 -0.726405 -0.257384 -0.258128 -0.186507 0.624719 -0.119575 -0.098157 0.235901 0.538525 -0.441408 0.004136 -0.173736 -0.592019 0.157392 -0.184134 0.031811 -0.348713 -0.434150 0.309824 -0.045740 -0.271378 0.329118 0.054586 0.106353 0.137347 -0.451983 0.057141 0.128422 0.035537 0.159996 0.195975 -0.143442 -0.139353 0.019315 0.136165 0.509639 -0.079329 -0.431051 0.000018 -0.117383 -0.634939 -0.681993 0.651044 0.499823 0.139867 0.565764 0.243246 -0.096294 -0.272115 0.171565 -0.242729 -0.081005 0.082209 -0.320137 -0.340869 0.279202 0.214497 0.002881 0.000388 -0.176271 -0.457171 0.292188 0.672906 -0.302946 -0.217914 0.040901 0.291236 0.038183 -0.244811 -0.296777 0.316983 -0.232089 0.278046 -0.189074 0.156602 -0.256501 -0.099117
cut 0.081540 -0.262457 -0.073408 -0.259828 -0.069414 -0.185304 -0.180915 0.129050 0.152640 0.351257 0.166718 0.253081 -0.123119 -0.534601 -0.523412 0.034807 0.279324 0.414073 0.163643 0.683388 -0.241067 0.476182 -0.068603 0.006368 0.012043 -0.273513 0.147737 -0.037836 1.036499 0.390253 -0.069569 -0.082916 -0.130818 0.028792 -0.025713 -0.019114 0.157239 -0.266706 0.120954 -0.445312 0.043622 0.579639 -0.268690 -0.533469 0.646104 0.425061 0.196995 0.085123 -0.229515 -0.241530 0.162664 -0.317439 -0.067047 0.058831 -0.296902 0.019967 0.036334 -0.201961 -0.483106 -0.365163 0.136606 -0.462949 -0.202781 -0.498947 0.025095 0.264458 0.104219 -0.475968 0.432237 0.302791 0.095072 0.133650 0.361983 -0.314231 -0.088663 -0.199608 -0.448010 -0.307453 0.123661 0.258884 0.166671 0.056771 0.110810 -0.473937 -0.050967 0.384083 0.021652 -0.175189 0.628935 -0.244326 -0.315223 0.364929 -0.608641 0.304409 0.212887 -0.077518 0.024315 0.428817 -0.554056 -0.220842
sell 0.240362 0.078587 -0.368982 0.024912 0.197685 0.219119 0.110361 -0.453156 0.357157 0.260769 0.161548 0.401044 -0.085491 -0.476598 -0.333470 0.760302 0.070562 0.273027 0.360994 0.280741 0.064866 0.460643 -0.020642 -0.293882 0.531722 0.137434 0.235153 -0.140025 -0.020178 0.273413 0.181265 0.004031 -0.192512 0.212920 -0.319342 -0.044965 0.172941 -0.054291 -0.364642 -0.599983 -0.199816 0.232779 -0.542893 0.348244 0.232738 0.319540 -0.043451 0.716583 0.110417 -0.040627 0.129395 -0.171413 -0.018743 -0.240314 -1.130631 -0.985919 -0.043443 0.201398 -0.264922 -0.275941 0.274073 -0.333121 0.243063 -0.215632 0.229108 0.412972 0.034111 -0.116226 0.188004 -0.080080 0.052088 0.378536 0.307755 -0.850303 0.000858 -0.005807 -0.528621 0.248926 -0.633896 -0.076963 0.139255 0.473884 -0.104223 -0.501170 0.621524 0.545677 0.430994 -0.331636 0.415436 -0.583886 0.007175 0.435854 -0.267629 0.383600 0.038270 0.148171 -0.574044 0.456807 -0.427409 0.233316
lower -0.168064 -0.086649 0.146905 -0.224755 -0.027271 0.069353 0.071694 -0.374127 -0.135068 0.335571 0.234078 0.390382 -0.158749 -0.171198 -0.363965 0.124029 0.398728 -0.302222 0.297542 0.103379 -0.086832 0.476051 -0.023685 -0.827187 -0.403917 -0.693014 0.300194 -0.247464 0.211581 0.457346 -0.026914 -0.611433 -0.307134 -0.009057 -0.200244 -0.184808 0.161213 -0.158988 0.237202 -0.713336 -0.165142 0.407237 -0.680015 -0.456893 0.635105 0.521308 0.211906 0.380995 -0.091017 -0.294788 0.354445 -0.252472 0.394409 0.178185 -0.032469 0.461354 0.121574 -0.050080 0.248810 -0.191164 -0.065749 -0.650107 -0.641780 -0.126428 0.052841 0.493558 -0.116606 -0.564823 0.478938 0.061733 -0.394979 -0.023136 -0.071170 -0.235120 0.097242 -0.565126 -0.302117 -0.493724 0.068912 0.208634 -0.305195 -0.138428 0.102288 -0.539256 0.003983 0.460992 -0.122461 -0.063001 0.194693 -0.350278 -0.103723 -0.010814 -0.569397 0.391053 0.123483 0.081112 0.331466 0.074044 0.088996 -0.334940
trading 0.026087 -0.125363 0.478365 0.396896 -0.136905 0.184882 -0.121411 -0.296361 -0.087830 0.564622 0.541489 0.248189 -0.007105 -0.134576 0.137474 0.954181 0.433395 0.247702 0.184169 -0.116615 -0.372096 -0.038512 0.589367 -0.262543 0.100846 -0.487858 0.156447 -0.240971 0.181458 0.254844 -0.512189 -0.315194 -0.183438 -0.245416 0.110464 -0.496345 0.155204 0.085506 0.194113 -0.072729 0.068930 0.079883 -0.032369 -0.102644 0.000960 0.061299 0.356241 -0.181275 -0.072845 -0.767204 0.283575 -0.263035 -0.169108 0.437180 -0.334883 0.365457 -0.039325 -0.018175 -0.385952 -0.308449 0.161408 0.278231 0.093263 -0.539875 0.446759 0.173696 0.404069 -0.026349 0.271527 0.594703 -0.368348 -0.213815 0.280051 0.223991 -0.299743 -0.052159 -0.359901 -0.173435 -0.117929 -0.277439 -0.203825 0.170391 -0.263971 -0.111472 0.026440 0.385799 0.693387 -0.340263 0.324225 -0.322244 -0.077525 0.202147 -0.011319 0.222299 -0.227162 -0.094237 -0.350569 0.168606 0.175828 -0.443543
economic -0.505450 -0.186193 0.171434 0.087632 0.061521 -0.128016 -0.002735 0.318800 -0.111108 -0.247335 -0.130543 0.744540 -0.698300 -0.205428 -0.356331 0.435794 0.300611 -0.264887 0.777868 0.267609 -0.340500 0.371532 -0.175911 -0.722714 -0.190791 -0.404744 0.183437 -0.176709 0.557675 0.348896 -0.120843 -0.054068 -0.214504 -0.219456 -0.082979 -0.372509 0.119118 -0.203675 0.170584 -0.623633 -0.421494 0.137234 -0.108986 -0.306150 0.183000 0.077317 0.079833 0.281842 -0.979171 -0.454540 -0.318143 0.282780 0.603947 0.710348 -0.466949 0.520115 -0.113675 0.212084 -0.205478 -0.564432 0.108679 -0.132172 0.153017 -0.121653 -0.065593 0.513726 -0.217065 -0.256776 0.475723 0.433550 -0.098370 0.121730 0.689691 -0.162368 -0.340749 -0.384537 -0.537996 0.103609 -0.005880 -0.339366 0.430605 0.175280 -0.651833 -0.182404 -0.076247 -0.117305 -0.151665 -0.116777 0.400823 -0.020642 -0.592946 0.172757 -0.430403 -0.000423 -0.001710 0.012567 -0.715394 -0.016788 0.172223 -0.548951
income 0.196421 -0.262044 0.205413 0.203610 0.104332 0.090174 -0.190141 -0.016514 -0.171841 0.203000 0.434493 0.448627 -0.668855 -0.569414 -0.225263 0.148458 -0.002610 -0.017424 0.468168 0.305481 0.085758 -0.226528 0.050032 -0.310574 -0.509331 -0.202573 0.329991 -0.373787 0.321673 0.353059 0.094648 0.122228 -0.608008 -0.069648 -0.441043 -0.099217 0.454194 -0.228422 0.118418 -0.708526 0.134432 0.062478 -0.364832 -0.710208 0.342113 0.173166 -0.120171 0.659100 -0.212694 -0.519844 0.224212 0.183202 0.056403 -0.203196 -0.085922 0.428000 0.777994 0.122231 0.540603 -0.211742 -0.069390 -0.095435 -0.135659 -0.107133 0.106680 0.590926 0.032417 -0.448732 0.322087 -0.051351 -0.106301 -0.246965 -0.302154 -0.013846 -1.050235 -0.134835 0.046837 0.022405 -0.601895 0.280187 0.102666 0.261438 0.648617 -0.346869 0.001231 0.059367 0.552863 -0.161952 0.564138 0.579305 -0.034739 -0.384204 -0.083183 1.085543 0.189091 0.412865 0.597382 0.351112 -0.055676 -0.051835
day 0.528757 0.181947 0.354447 0.182062 0.393221 -0.525720 0.126625 -0.257928 -0.485037 0.600970 0.839364 0.378592 -0.429693 -1.014311 0.186652 0.551853 -0.291392 0.131139 0.390107 -0.155224 -0.178315 0.309940 -0.005774 -0.086431 -0.483431 -0.266175 0.142449 -0.635384 0.529312 0.267144 0.382638 0.148021 -0.629002 0.243694 0.127230 -0.410808 0.246114 -0.160731 -0.412977 -0.076474 -0.490320 0.263194 0.155987 -0.192873 -0.111831 -0.298662 -0.062568 -0.230102 0.133093 -0.231798 0.076183 -0.223714 -0.773924 -0.005995 0.231446 -0.198198 -0.760331 0.115051 -0.006704 -0.211677 0.149945 -0.172080 0.143044 -0.878922 -0.829386 0.176793 0.230635 0.107929 0.637897 0.462975 0.051968 0.030638 0.335298 -0.216438 -0.171367 -0.263315 -0.617414 -0.350006 0.018451 0.007523 -0.479258 -0.515900 0.202707 -0.131609 0.192199 0.532863 0.242706 0.325949 0.586243 -0.243416 0.435697 0.259428 0.197430 0.077670 0.134923 -0.222295 0.223096 0.485462 0.249756 -0.101212
eight -0.413547 0.025499 0.561367 0.307816 0.165112 -0.447686 -0.492767 -0.062363 -0.554439 0.551020 -0.227744 0.486456 -0.417130 -0.712771 -0.013463 0.287716 0.287903 -0.191386 0.269951 -0.245146 -0.329180 0.355011 0.183444 -0.000670 -0.260735 -0.311802 -0.090155 -0.575808 0.187932 0.233100 -0.197133 0.057092 -0.364985 -0.103082 0.277434 -0.008549 0.658464 -0.002648 -0.196704 -0.346907 -0.064596 0.077665 -0.338259 -0.155600 0.056032 0.377009 0.077457 -0.179404 0.058775 0.104505 -0.090959 -0.191018 -0.539077 0.198438 -0.378659 0.120585 0.261442 0.257588 -0.094580 -0.416460 0.574939 0.179237 0.116014 -0.683053 -0.291823 0.552588 0.368270 0.241998 0.847373 -0.346078 0.008660 -0.221626 -0.317604 -0.250112 -0.195730 0.282953 0.146686 -0.142746 -0.198463 -0.368497 0.018559 -0.201046 -0.004552 -0.585414 0.311069 0.033683 0.172242 -0.267292 0.191894 0.222995 0.267043 -0.193723 -0.344348 0.515774 -0.003939 0.118871 -0.206653 0.139141 -0.173512 -0.464476
sugar 0.465036 -0.398319 -0.673913 0.284473 -0.405137 -0.026968 0.137912 0.411456 -0.471108 0.284416 0.078205 0.043547 0.069522 -0.812929 0.282635 0.583383 -0.195307 -0.065612 0.472737 0.000171 0.005438 0.329116 -0.433870 0.090147 0.043444 -0.805667 0.244629 -0.061700 0.752410 -0.054540 0.099411 -0.373552 -0.777100 0.399334 0.411571 0.161251 -0.030560 -0.140239 -0.129241 -0.188404 -0.308969 0.498903 -0.402606 0.172928 -0.073934 0.503381 0.601823 0.303087 -0.178788 -0.327288 0.061212 -0.454533 -0.217928 0.438437 0.144651 -0.250049 0.221812 0.202903 0.059147 -0.391125 -0.464974 -0.044315 -0.732526 -0.229448 -1.077283 0.692838 -0.065137 0.280652 0.233192 0.300691 -0.402484 -0.156729 0.364763 -0.788993 -0.180465 0.096195 -0.001089 0.165058 0.270866 -0.324558 -0.574291 0.331023 -0.136381 0.160958 0.022490 0.516359 0.228091 0.422891 0.539565 -0.316280 -0.196667 0.678271 -0.160352 0.364198 -0.005750 0.096297 -0.297239 0.157242 -0.282680 -0.303008
credit 0.003857 0.260936 -0.209248 0.213885 -0.037049 -0.257174 -0.039017 -0.312015 -0.072334 0.004352 0.085560 0.873048 -0.741051 -0.463183 -0.047667 0.029927 0.164812 -0.161347 0.853344 0.624131 -0.541605 -0.031500 0.333957 0.044852 -0.143045 -0.157858 -0.329773 -0.174957 0.604192 0.152756 -0.288226 0.040963 -0.609681 0.307460 -0.344749 0.398467 0.356289 0.025279 0.365430 0.226330 -0.043135 0.196946 -0.024089 -0.570741 0.227049 -0.289332 -0.308940 0.691688 -0.591924 -0.280815 -0.291574 0.099411 0.355634 0.212108 -0.190662 0.305514 0.421975 -0.035160 -0.509944 -0.175396 0.158073 -0.031307 0.248071 -0.483706 0.137260 0.318950 -0.176705 -0.278788 0.161667 0.154451 0.216951 -0.154035 0.187281 -0.221453 -0.466748 0.011992 0.283597 0.077716 -0.390563 0.481821 0.274837 0.328470 0.591415 0.360468 -0.413518 0.003758 0.083117 -0.160040 0.591717 -0.339621 0.292627 0.114408 -0.343918 0.044200 0.299058 0.153401 -0.120294 0.235690 -0.050010 -0.273579
acquire 0.094952 0.046126 -0.117300 0.314479 0.186531 0.225462 -0.271239 -0.636806 -0.053016 0.344940 0.160858 0.326731 -0.016875 -0.712391 -0.082010 1.225528 0.614361 0.424942 0.373847 0.227654 0.008977 0.345729 -0.236793 -0.427477 0.318614 0.426799 0.063940 0.236616 0.003940 0.385922 0.141342 -0.290627 -0.324574 0.292220 -0.198483 0.401188 0.630323 0.454989 -0.283574 -0.350833 -0.171530 0.174713 -0.412299 0.396972 0.042205 0.252044 -0.074632 0.103343 0.150950 -0.060859 0.253160 -0.245809 0.259613 -0.925050 -1.047179 -0.725913 0.095544 0.177765 -0.080879 0.000394 0.210961 -0.469823 0.175172 0.028597 0.241963 0.244767 0.129479 -0.498789 0.025143 0.001142 0.599904 0.091161 0.194088 -0.697744 0.245243 0.308782 -0.508919 0.244812 -0.700625 -0.226312 0.632165 0.397253 0.196606 -0.453065 0.317763 0.445352 0.176994 0.207097 0.293842 0.007493 0.178515 0.408024 0.255761 0.248970 0.187889 0.166782 -0.573868 0.621087 -0.194425 0.095016
term -0.031307 -0.135418 0.160991 0.206198 0.423557 -0.271561 0.445085 -0.114589 0.189012 0.658886 0.412324 0.241076 -0.900348 -0.498351 -0.370770 0.412445 0.330643 -0.467462 0.184980 0.345459 0.129101 -0.038335 0.196130 -0.447179 -0.170557 -0.382905 -0.179513 -0.298344 0.045515 0.424606 -0.353821 0.170039 -0.285903 -0.155266 0.249558 -0.645151 0.392140 -0.134221 -0.447809 0.144664 -0.095517 0.594786 0.432891 -0.491151 0.504173 0.230769 -0.035057 1.082154 -0.249116 -0.256188 0.332590 0.341983 0.115162 0.783798 -0.493204 -0.181994 0.169181 0.065823 -0.567668 -0.545671 0.643396 -0.651965 0.174725 -0.082431 0.325114 0.218021 -0.062124 -0.237562 0.433636 0.675622 -0.253651 -0.438372 0.536611 -0.172904 -0.542048 -0.625821 -0.038481 -0.123097 -0.160288 0.198256 0.487755 0.161130 -0.072713 0.036910 -0.289010 0.406936 -0.376062 -0.328334 0.632626 -0.031312 0.086291 0.244865 -0.022305 0.825977 0.409127 -0.140709 -0.506134 0.157443 -0.008228 -0.516664
capital -0.023434 0.098093 0.757604 0.411447 0.380459 -0.122013 0.183323 -0.203504 0.181500 0.316205 0.423203 0.475325 -0.211561 0.134800 -0.342554 0.369806 0.220928 -0.278660 0.565927 0.598934 0.002609 -0.092290 0.144930 -0.133726 0.125383 -0.461564 -0.032056 0.135857 0.444509 0.113417 -0.258754 -0.165718 -0.432458 0.023093 -0.120937 0.121266 0.383912 0.300637 -0.147576 -0.158533 0.153938 0.319573 -0.112421 -0.384149 0.407882 0.076986 0.544707 0.392332 -0.184244 -0.387413 0.251494 -0.015750 0.516182 -0.041834 -0.134299 0.088961 0.368546 0.065967 -0.519108 0.113310 -0.086212 -0.058600 -0.236722 -0.355831 -0.267007 0.535538 0.150324 -0.160481 0.303519 0.077449 -0.049105 -0.446546 0.306149 0.319113 -0.779220 0.001530 0.106953 -0.200814 -0.428772 0.313141 0.246793 0.527899 -0.045178 -0.152839 -0.051805 0.163186 0.111807 0.080269 0.231093 0.436534 0.009774 0.267160 0.294637 0.539703 0.015115 0.269963 -0.498364 0.530216 -0.142386 -0.341372
set 0.066572 -0.053839 -0.099594 0.213692 -0.064145 0.015303 -0.823739 -0.221510 0.054061 0.138878 -0.049496 0.224815 -0.254728 -0.306821 -0.057834 0.241373 0.463978 0.024733 0.271794 -0.085333 -0.476138 0.086524 -0.054133 -0.172237 0.055801 -0.905030 -0.173358 -0.303648 1.048317 0.430203 -0.284919 0.126156 -0.522487 -0.051159 -0.235192 -0.205466 0.021059 0.153026 0.167424 -0.368413 -0.089403 0.079129 -0.445989 -0.294357 0.232659 0.506105 -0.267603 -0.086975 0.133582 -0.290895 0.240978 -0.124235 -0.007793 0.010721 0.177332 -0.131252 -0.020518 0.607846 -0.141039 -0.006352 0.130400 0.131405 -0.146888 -0.469323 -0.387523 0.528872 -0.074713 -0.220545 0.438761 0.612256 0.392299 0.287342 0.256248 -0.458175 -0.106043 -0.109652 -0.466189 -0.476588 0.063666 -0.309143 -0.169376 0.110006 0.215483 -0.192004 -0.064040 0.528469 -0.206603 -0.029777 0.325793 -0.301650 -0.161746 0.535617 -0.398266 0.228614 0.035147 -0.182843 -0.335766 0.294089 -0.260567 -0.453793
can -0.266110 -0.037849 0.003083 0.574068 0.123905 -0.323547 0.053566 -0.295696 -0.126994 0.564786 0.189859 0.298569 -0.166830 0.061018 -0.471802 0.798189 0.205640 -0.467916 -0.006041 0.695409 -0.034065 0.252093 -0.077008 0.075748 -0.100093 -0.627731 0.310392 0.434152 0.110644 -0.150779 -0.417664 -0.552374 -0.041694 0.210358 0.178153 -0.098035 0.478292 -0.290023 -0.340924 -0.166224 0.046041 0.347427 0.114674 -0.128608 0.551626 0.389193 0.495157 0.064547 -0.144786 0.136458 0.253520 -0.276921 -0.006378 -0.043370 -0.000507 -0.494211 -0.180612 -0.014060 -0.252212 -0.512879 -0.311031 0.372169 -0.448171 -0.361864 0.105956 0.812623 -0.021620 0.070575 0.972100 0.111935 -0.086451 0.344780 0.455010 -0.424933 0.193798 -0.663696 -0.375510 -0.160847 -0.083985 -0.459500 0.548867 0.397761 0.276737 -0.154145 -0.186886 0.687417 0.437483 -0.120851 0.005274 -0.183144 -0.546348 -0.022113 -0.288272 -0.047172 0.102717 0.132000 -0.235154 0.394690 0.448323 -0.552850
part -0.163994 -0.189626 -0.237119 0.214211 0.109518 0.113637 0.394479 -0.368877 -0.093446 0.578724 -0.019846 0.552375 -0.297812 -0.590652 -0.325666 0.547626 0.108035 -0.251263 0.207717 0.790513 -0.673840 -0.041360 0.064143 -0.206041 0.078712 -0.083991 -0.002723 -0.061310 0.287462 0.280928 0.226616 -0.190123 -0.311495 0.540608 -0.063408 0.230223 0.180266 -0.885661 -0.267176 -0.539896 -0.071441 0.179329 -0.117921 -0.378958 -0.282968 0.150398 -0.394632 0.235904 0.009825 0.212252 0.011617 0.131093 -0.198130 0.664212 -0.695076 -0.119717 0.094766 -0.215451 0.054388 -0.218829 -0.002134 -0.196131 -0.019901 -0.058107 0.036462 0.344576 0.326061 0.234780 0.449632 0.220472 0.308645 0.210727 0.184624 -0.643956 -0.003359 -0.045027 -0.563258 -0.085254 -0.440986 -0.073248 0.416815 0.504581 -0.386900 -0.013223 0.227245 0.350987 0.230036 0.125351 0.141206 -0.280673 -0.513292 -0.004076 -0.160013 0.793106 -0.007161 0.053430 -0.354132 0.041573 -0.017654 -0.047591
same -0.069077 0.176670 0.324520 0.116990 0.159513 -0.210242 -0.473373 -0.316345 -0.708047 0.091484 -0.036994 -0.011616 -0.290716 -0.600561 -0.143052 0.305753 0.221667 -0.327032 0.221999 -0.168993 0.267544 -0.085139 0.373171 -0.202198 -0.504293 -0.332377 0.200549 -0.758871 0.368428 0.358535 -0.311306 -0.342681 -0.735493 0.574585 -0.067525 0.243544 0.309507 -0.413294 -0.084987 -0.292722 -0.371517 0.611557 -0.098835 -0.178873 0.730598 0.078156 0.079504 0.017218 -0.123583 0.015045 0.331596 -0.444602 -0.210154 0.113709 -0.062952 0.236834 0.215355 -0.284417 0.318304 -0.462526 0.450491 -0.137383 -0.221922 0.035479 -0.162428 0.234001 -0.149553 0.660592 0.702382 0.781625 -0.234085 0.095840 -0.776249 0.020566 -0.465964 0.059490 -0.406488 -0.350886 -0.215289 -0.412446 0.175496 -0.179482 0.313347 -0.474397 0.522612 0.052448 -0.264672 -0.128130 0.337840 0.193531 -0.169756 0.301975 -0.052021 0.200021 -0.047165 -0.174262 -0.208817 0.256771 0.319751 -0.089076
purchase 0.003308 -0.077712 0.167311 0.142645 0.084970 0.096345 -0.213627 -0.562955 0.321756 0.407378 0.340581 0.169564 -0.326822 -0.570312 -0.238805 0.701099 -0.160411 0.231339 0.381403 0.643315 -0.252235 0.241633 0.277515 -0.197622 0.202193 0.093445 -0.104305 -0.052161 0.115244 0.089358 0.192892 -0.133271 -0.698238 0.557083 0.310576 0.234186 0.416060 -0.018093 -0.288397 -0.468557 -0.257652 0.311520 -0.447876 0.424900 0.267089 0.167203 -0.334366 0.133099 0.096964 0.321868 -0.058102 0.009374 -0.388046 -0.129439 -0.545888 -0.732559 -0.203702 0.034541 -0.231144 -0.126074 0.047730 -0.144268 0.017726 -0.176932 -0.003551 0.406373 0.350535 -0.233540 0.072148 -0.008625 0.465266 -0.017632 0.143071 -0.756602 -0.146021 0.087942 -0.229603 -0.042663 -0.256003 -0.046229 0.372011 0.107996 0.789493 -0.121807 0.572553 0.538855 0.012941 0.114239 0.312504 0.079103 0.446474 0.238672 -0.013922 0.413842 -0.479986 -0.226488 -0.305042 0.183977 -0.002253 -0.025337
crude 0.117407 0.314234 0.763597 0.119259 0.088553 -0.669296 0.253891 0.060434 -0.012573 0.557309 0.465051 0.479469 -0.019664 -0.707430 -0.213757 0.122386 -0.362577 -0.093141 -0.014786 0.110988 -0.245969 -0.144767 -0.317055 -0.151000 -0.071808 -0.268303 0.530950 0.001270 0.119966 -0.059974 -0.160879 0.261466 -0.987878 -0.421234 0.609030 -0.436316 0.151674 -0.228064 0.144720 -0.686957 -0.299111 0.366282 -0.741067 0.065428 0.111698 0.268278 0.405553 -0.023661 -0.200591 0.053337 -0.051240 -0.332463 -0.298987 0.615252 -0.027778 -0.328840 0.076019 0.544588 -0.102638 -0.192242 -0.479811 -0.046227 -0.328662 -0.931960 -0.088361 0.452022 -0.181299 -0.507874 0.021209 0.117353 -0.146303 0.225037 0.264255 -0.546470 -0.397810 0.012619 0.182296 -0.697299 -0.011428 -0.242229 -0.947806 0.383201 -0.013710 -0.514226 -0.023547 0.501009 0.687252 0.339176 0.463136 0.124618 -0.078684 0.369209 -0.844962 0.465066 -0.159246 -0.211775 0.399453 0.337658 -0.117237 -0.299527
seven -0.151362 -0.361480 0.604193 0.016102 0.123972 -0.482541 -0.517002 -0.260248 -0.606146 0.350280 -0.269850 0.572338 -0.377408 -0.413924 -0.300638 0.340196 0.072834 -0.139838 0.228701 -0.201397 -0.068825 0.473746 0.377192 -0.012414 -0.193823 -0.294843 0.198875 -0.647093 0.174374 0.110615 -0.136182 0.133566 -0.588737 -0.110948 0.127264 -0.098754 0.704843 -0.122590 -0.286261 -0.375278 -0.195065 -0.149665 -0.233914 0.029802 -0.155091 0.301984 0.110976 -0.143419 0.110195 0.035149 -0.187158 -0.140723 -0.297726 0.079581 -0.379854 -0.248985 0.342808 0.172110 -0.301305 -0.434997 0.335842 0.136164 0.065527 -0.628836 -0.216653 0.390905 0.302876 0.213611 0.726149 -0.235655 -0.210660 -0.325408 -0.017683 0.000524 -0.093276 0.321236 0.004737 -0.087899 -0.378571 -0.133877 -0.149815 -0.293960 -0.173464 -0.394552 0.416424 0.009923 0.140026 -0.453285 0.489430 0.123320 0.154799 0.046861 -0.515455 0.488151 -0.037296 0.092332 -0.228171 0.142032 -0.320062 -0.338201
increased 0.245194 -0.141602 0.116978 -0.046080 0.245420 0.105274 -0.214408 -0.086353 0.085247 0.633171 0.078982 0.151348 0.168810 -0.421274 -0.376371 0.165349 0.693091 0.125700 0.458129 0.344997 -0.172778 0.128227 0.222077 -0.148079 -0.011683 -0.143729 0.112602 -0.268835 0.494930 -0.368596 -0.005317 -0.095966 -0.302002 0.354978 -0.295478 -0.284106 0.401630 -0.212857 -0.064011 -0.240190 -0.084414 0.348436 -0.420680 -0.288344 0.421553 0.383742 0.389206 0.170522 -0.216709 -0.099049 -0.024487 0.079523 0.122570 0.031543 -0.268200 -0.106304 0.429961 -0.120400 0.154770 -0.084005 0.158447 -0.393363 -0.572576 -0.361831 -0.089086 0.454061 0.169404 -0.463280 0.242223 0.277921 -0.324631 -0.257785 0.265946 -0.000681 -0.329272 -0.067121 -0.416553 -0.470605 0.017863 -0.024928 0.025861 -0.086228 0.061402 -0.185283 0.134118 0.215293 0.197375 -0.468262 0.451216 0.049876 -0.040037 -0.147831 -0.212189 0.504091 0.048772 0.161620 0.011344 0.197556 -0.429856 -0.227979
president 0.042425 -0.577462 -0.031626 -0.097820 -0.398880 0.011568 0.278845 0.168052 -0.332405 0.453307 0.429295 0.339284 -0.289482 -0.291295 -0.092595 0.218892 0.259268 0.302782 0.202411 0.224724 -0.324175 0.432213 0.200541 -0.920540 0.059281 -0.508053 -0.194687 0.426089 -0.387577 0.043386 -0.099852 0.073132 -0.479043 0.102192 0.311552 0.142548 0.097606 -0.652049 0.327530 -0.129335 -0.333400 -0.139427 -0.223670 0.024137 -0.246105 -0.170223 -0.572770 0.494839 -0.498389 -0.077091 -0.169150 0.024730 -0.247734 0.364543 -0.097278 -0.352449 0.049920 0.273582 0.087588 0.253534 -0.314912 -0.097872 -0.144335 0.920053 0.217345 0.005528 0.344406 0.310087 0.440036 -0.210941 -0.639900 -0.120463 0.464635 -0.696987 0.157013 0.414019 -0.312495 0.220859 -0.395322 -0.291561 0.389903 0.332106 -0.209414 -0.314174 0.651278 0.093421 0.282431 -0.274442 0.528910 0.188873 -0.434554 0.134288 0.560840 0.363819 -0.349649 0.411919 -0.053751 0.124585 0.245585 -0.329043
money -0.449379 -0.140143 -0.118380 0.371281 0.295400 0.054855 -0.072151 -0.291690 -0.456130 0.307786 0.524030 0.200183 -0.224007 -0.162270 -0.075061 0.399560 0.185518 0.033705 0.617347 0.458976 0.534810 -0.035744 -0.030005 -0.443070 -0.243646 -0.656423 0.216012 -0.145142 0.592141 0.123432 -0.247159 0.174565 -0.361045 -0.445320 0.112923 -0.704162 0.106526 0.268069 0.104205 0.357372 -0.079883 0.958628 -0.270864 -0.031379 0.952485 -0.188202 0.249789 0.495682 -0.421085 -0.509660 0.345714 -0.158255 0.322579 0.080124 0.372009 -0.122308 0.771432 -0.175859 -0.663696 -0.387427 0.249015 -0.411790 0.158493 -0.485189 0.082827 0.097117 -0.506072 0.260342 -0.022969 0.356860 -0.266328 0.285446 0.695660 -0.226289 -0.553064 -0.098922 0.100118 -0.316096 0.232749 -0.081990 0.214140 0.161757 -0.446592 -0.511869 -0.099649 0.488067 0.201629 -0.040037 0.341033 -0.160299 -0.175803 0.407018 0.119287 0.789747 0.281298 0.250331 -0.335224 0.247588 0.051326 -0.414189
deficit 0.461125 -0.167869 -0.318594 -0.238955 0.307023 0.416193 0.086636 -0.147035 -0.117261 -0.344318 0.210079 0.652173 -0.685296 -0.410629 -0.097580 0.425167 0.328974 -0.412084 0.599685 0.621879 0.029111 0.229866 0.062250 -0.307411 -0.376631 -0.262396 0.404310 0.357128 1.081697 0.098972 -0.611040 -0.095863 -0.164616 -0.019461 -0.669650 0.065849 0.029760 -0.201632 0.152537 -0.498613 -0.692987 0.192488 0.079840 -0.340731 0.815279 -0.250183 0.218964 -0.023714 -0.690173 -0.182065 -0.000909 -0.010736 -0.369288 0.483596 0.101919 0.139331 -0.016694 -0.395185 -0.228150 -0.479843 -0.157793 0.320037 0.128777 -0.471871 -0.263488 0.208882 -0.342417 -0.174121 0.274161 0.200372 0.061440 -0.606663 0.323213 0.200753 -0.867485 0.429202 -0.114893 -0.378984 -0.026415 -0.323716 0.135546 -0.320663 -0.110561 -0.451196 -0.622939 0.074532 0.224220 0.317944 0.683334 -0.115683 -0.230264 -0.239127 -0.086662 0.210075 0.578384 0.416066 -0.424459 0.915401 -0.294782 -0.124634
including -0.157102 -0.267096 0.558583 -0.354672 -0.081599 0.226855 -0.441841 -0.282976 0.268957 0.503945 0.245667 0.199705 -0.361616 -0.564050 -0.076003 0.471296 0.456619 -0.295837 0.349300 0.599727 -0.900341 0.040715 0.038021 0.247127 -0.088491 -0.162350 -0.038133 -0.798179 0.575543 -0.074594 0.277138 -0.171913 -0.131997 0.434109 0.144826 0.284585 0.364905 -0.278084 -0.420509 -0.212232 -0.206974 0.175500 0.077114 -0.347050 -0.156516 -0.057526 0.393231 0.556115 -0.274784 0.340980 0.301780 0.002348 -0.084309 0.356265 -0.439244 -0.082162 0.158419 0.571348 0.446775 -0.136494 0.005675 -0.103249 -0.304566 -0.249907 0.037473 0.285434 0.545007 -0.173135 0.644880 0.702417 -0.006244 -0.050193 0.299588 0.166943 0.172975 -0.241595 -0.508390 -0.019152 -0.325185 -0.028913 -0.277486 0.210321 0.032856 0.091707 0.414037 0.219717 0.433907 -0.200019 0.206104 -0.020658 0.386919 -0.173837 0.107263 -0.096298 0.287232 0.157623 -0.273585 0.245139 -0.119797 -0.089251
gas 0.233176 -0.082930 0.698493 0.000386 -0.189712 -0.406212 -0.029034 -0.346107 0.054603 0.690251 0.536253 0.352356 0.092184 -0.405705 0.135021 0.043783 0.183653 -0.040805 0.317198 0.476470 -0.109420 0.340508 0.111797 0.007987 0.231076 -0.345814 0.321941 -0.147140 -0.166127 0.039206 0.333541 0.280600 -0.769749 -0.152716 0.336534 -0.456916 0.291724 -0.313201 -0.003326 -0.721601 -0.352692 0.536500 -0.548626 -0.041283 -0.157429 0.730843 0.041290 0.464837 -0.011181 -0.161320 -0.197703 -0.045228 -0.033618 -0.034221 0.014260 -0.349266 -0.105032 0.042883 0.179750 -0.218563 -0.233016 -0.403153 -0.230268 -0.888607 -0.143286 0.356202 0.163750 -0.566257 0.305240 0.112691 -0.136346 -0.079961 0.604878 -0.135286 -0.556689 -0.372575 0.037758 -0.575656 -0.172213 -0.132065 -0.803290 0.470192 0.217584 0.354184 0.286120 0.098117 0.546653 0.470138 0.138682 0.355464 -0.340312 0.442266 -0.227441 0.124648 -0.169361 -0.536868 0.231204 0.501133 0.076034 -0.127781
continue -0.289627 0.099993 0.036325 0.233191 0.276869 -0.184956 -0.138267 -0.053919 -0.253026 0.464375 0.192343 0.603174 -0.256316 -0.262926 -0.661937 0.474869 0.205624 0.118393 0.235438 0.235744 -0.344704 0.506814 0.312363 -0.639117 -0.110397 -0.573439 -0.101033 0.331838 -0.174583 -0.128280 -0.091508 -0.181079 -0.109176 0.252089 -0.372164 0.054199 0.017713 0.018420 0.023421 -0.701761 0.003561 0.256005 -0.218690 0.019765 0.378689 0.153470 0.099681 0.318954 0.103131 -0.018977 0.284373 0.203425 0.040353 0.396863 -0.259113 -0.452996 -0.268777 -0.212881 -0.358321 -0.761710 -0.301324 -0.242803 -0.181434 -0.296131 -0.084100 0.812113 0.234440 -0.198183 0.670504 0.121262 -0.209492 0.460835 0.340831 -0.479096 -0.032928 -0.293239 -0.331071 -0.039496 0.027331 -0.188385 0.186094 0.328693 0.158805 -0.289232 0.426723 0.200375 0.156324 -0.386929 0.564070 0.152219 -0.752477 0.499047 -0.228241 0.253323 -0.060053 -0.253236 0.303253 0.248591 0.183555 -0.346344
high 0.197756 0.092729 0.087847 -0.188485 -0.030941 -0.072556 -0.030590 -0.074594 0.053550 0.357564 0.572669 0.105913 -0.214118 -0.180730 -0.138504 0.109779 0.408265 -0.733297 0.282598 0.171711 -0.218584 0.268726 0.222770 -0.297760 -0.434801 -0.662274 0.416256 -0.105234 0.694990 0.198146 -0.105660 -0.231452 -0.332394 0.171845 -0.086614 -0.258659 0.126894 -0.147208 -0.080385 -0.520951 -0.169638 0.560676 -0.276830 -0.231497 0.003457 0.365663 0.344926 1.051015 -0.153668 -0.227445 0.522431 -0.189770 -0.085708 0.519609 0.171535 0.195718 -0.026046 0.154541 0.161746 -0.088310 -0.325162 -0.215115 -0.466901 -0.227624 0.056439 0.349301 0.240560 -0.041481 0.378535 0.421646 -0.221830 0.076182 0.021157 -0.270732 -0.216361 -0.287033 -0.274982 -0.281857 -0.091447 -0.388680 -0.203743 0.307212 -0.203924 -0.196087 -0.044485 0.254451 0.124114 0.015213 0.154233 -0.478015 -0.198459 0.055512 -0.233675 0.433614 -0.173106 -0.250256 0.065117 -0.012403 0.273740 -0.026753
