movie -0.246175 2.230466 -0.325923 0.861088 -0.285945 0.784767 1.673906 2.051650 1.146980 -0.975476 -0.641855 -1.727058 0.745181 -0.077928 -0.215592 -3.901253 -1.422724 0.145123 -0.321828 -1.443581 2.222298 -1.585496 -0.627856 -1.361889 0.818738 -1.285718 -0.357194 -0.204719 0.731152 2.272979 2.078378 0.964534 -1.004896 1.399207 -2.236887 -1.819560 0.948975 3.861384 -2.414596 0.022495 0.875332 1.000933 0.310687 -0.278316 1.598359 1.646285 -1.623285 -0.742537 1.167106 0.193146 0.927755 -0.968765 -0.202925 -0.823734 -1.137005 -0.811744 -0.001751 -1.225933 -1.179043 0.245840 -0.739490 -1.226388 0.224925 1.584879 -3.130514 -1.781716 -1.536833 0.746346 0.728967 -1.288892 -0.459218 1.805360 0.999832 1.249391 -1.051877 1.923176 1.786581 -0.690472 0.125580 -1.069350 -2.628749 -2.106424 1.064123 -0.464398 0.079938 1.114065 1.248293 -0.626137 -1.214461 3.016576 0.476336 -1.019542 1.734751 -0.475943 0.254480 -0.534036 0.577430 -0.705373 -2.375077 1.419378
film -0.175272 1.671722 0.584115 1.405734 0.407701 1.003375 1.378355 1.639483 0.249337 -0.494003 0.428922 -2.120883 0.088450 -0.311599 1.168852 -3.670836 -1.827748 0.111362 0.241999 -0.759706 1.630431 -0.941137 -0.916732 -0.964128 1.041303 -1.037587 0.919490 -0.142194 -0.113412 2.764628 1.553402 0.712679 -0.419225 0.921685 -2.571546 -1.059474 1.112407 4.053822 -2.649754 0.804065 0.811073 1.562877 1.199523 -0.319594 1.427311 2.030339 -1.781164 -1.466724 1.566567 1.733307 1.129360 -0.896956 1.219163 -0.556584 -1.227720 0.482483 0.350697 -1.425978 -1.771662 -0.321982 -0.578478 -1.494218 1.134721 2.538537 -2.518005 -1.381000 -1.055757 0.373274 1.346435 0.271802 -0.498783 0.670480 0.999528 1.349945 -0.860962 2.424811 0.157534 -0.014133 -0.465094 -1.047969 -1.878363 -2.202781 -0.329827 -0.924631 0.315734 1.076197 2.052523 -1.765477 -1.146135 2.448637 0.366934 0.170743 1.246445 -0.707264 0.512516 -0.430732 0.140532 -0.179711 -2.736146 2.761664
his 0.700488 -2.699246 -1.545800 0.257779 -2.223105 0.988339 0.961723 -1.102424 0.341722 -0.032275 1.294952 2.826915 -3.297132 -0.766810 2.028860 -0.913996 -1.561195 -1.477832 -1.368076 1.407126 3.056238 0.125655 0.232323 -2.058331 -1.065645 1.891371 -1.906351 -2.314963 -0.634125 -0.442331 -2.133185 -1.547133 1.241354 -1.202036 3.455728 0.522320 -0.904737 -0.812799 0.634004 0.768667 1.345589 0.065053 -0.130117 -1.812308 -0.866894 -0.595643 0.125603 1.733360 -0.468062 3.280030 0.646763 -1.128839 -1.152231 2.808092 -0.898328 1.259491 2.394220 -1.448235 -1.658355 -1.653614 -1.027930 1.282909 -2.290170 -1.012529 -1.821191 -0.989029 1.030457 -0.843046 2.105134 -0.319466 3.111945 1.793829 -2.042786 -1.343577 -0.164047 -0.310796 -0.125673 0.078758 1.261700 1.530452 0.782481 1.848974 -1.093904 -2.335272 -0.562243 -0.585639 0.110459 0.970765 2.071624 -1.769922 1.276379 2.019609 2.993771 0.007191 -1.272705 1.579104 0.337902 -2.332952 0.300582 2.794231
have -0.584047 -0.970464 3.758463 -2.932962 0.993186 0.147784 1.802985 0.442190 0.508283 -3.486101 0.336835 -0.294759 -0.447939 -0.986234 3.693147 0.203445 -1.820519 -0.285693 -1.080346 1.435848 0.724803 -3.104433 2.633696 0.591345 -2.340407 3.157385 -0.160347 0.500181 3.078444 4.067629 0.607456 2.500385 -1.655080 1.509834 2.222223 0.193798 0.813305 -2.622753 -0.731516 0.600390 1.371591 -2.611006 -1.702256 3.101554 -0.655519 0.897335 -0.663028 -2.693937 0.232021 -1.323013 1.295075 2.342764 0.665168 0.475931 1.764940 -2.603968 1.805822 1.368809 1.647590 1.950063 -2.765446 -2.567734 -0.834951 0.717506 -1.042005 -3.440251 1.474357 1.674411 -0.328720 -0.970193 -2.042145 2.632117 -1.693526 1.019244 1.129051 0.570606 4.703246 -1.074537 0.934514 1.468016 -0.695716 -1.126851 0.188063 0.959728 2.034493 1.534918 -0.983224 0.426426 -4.840701 -1.239265 -3.617102 -0.144887 0.519879 -1.836200 1.977058 1.270862 1.258071 1.562826 1.147832 -2.112285
be 2.365688 -0.290883 2.190961 1.731128 -1.538623 -0.176509 5.277060 4.053171 0.199716 2.692092 1.653538 -2.842801 -0.534873 1.515815 3.304664 -1.160629 -3.525970 -0.526056 1.829183 -0.107018 1.247411 -0.540609 3.074912 -1.067356 -1.350859 -0.420227 -2.293395 -0.003017 -0.858197 2.710154 2.371238 1.528797 1.485424 1.225016 3.118186 0.543236 0.672893 -2.151660 1.570868 -1.283131 -2.126085 -3.408326 0.321472 0.595925 -0.276416 2.807723 -2.354522 -3.087784 3.195544 1.054579 -0.050496 -1.494334 -0.568657 -1.590300 1.126022 0.532501 -0.501259 -1.084133 0.633994 3.014141 -6.658158 -4.631842 -1.013657 1.113769 -1.298986 -1.758106 -1.516264 0.517342 -0.258707 -0.099756 1.275348 0.217235 1.694358 -2.232450 1.127519 -2.907467 5.478457 -0.008896 1.414132 -3.084764 -0.753115 -0.007583 1.226357 2.018408 1.138931 2.830322 -1.944533 0.638580 -1.660905 -1.754165 -1.230613 1.574272 -2.929725 1.792603 0.694511 -0.506151 -2.012319 4.940328 2.930034 -1.056219
he 0.922960 2.248594 -1.058994 -0.725630 -2.955091 0.463704 3.024712 0.196391 -1.759204 -1.085603 1.479454 1.013879 -0.473412 2.649796 2.660712 -3.187158 -1.531155 0.252342 -2.500159 0.747704 1.299381 1.170811 -1.248788 -3.055725 -1.010643 2.214809 -2.062532 -1.128636 -0.865851 1.200278 -3.864694 -0.493062 3.537375 -1.085479 0.408110 -0.342491 -0.166176 0.655508 2.485423 -0.340497 1.396569 0.957653 -0.569907 -1.110655 0.903597 1.294806 -1.754721 0.547033 -0.833632 2.248562 0.672445 0.251936 1.553610 -0.018353 -2.330784 -1.060550 0.600912 -2.204457 1.699047 -1.964358 -1.835821 0.865977 -2.538106 0.068188 -0.303733 -0.720933 0.554084 -1.969307 0.700016 -1.084080 1.860764 -0.864905 -2.266095 -2.747642 -0.074290 0.510450 4.001600 -1.564739 1.495398 2.351317 -0.868858 -1.405239 -0.799841 -1.246621 -1.053452 -0.841866 -0.340396 -0.135732 1.935652 -1.787989 -0.989131 3.034820 2.239603 0.485638 0.710381 0.627051 -0.088012 0.305687 -0.037046 1.658319
like 0.136933 -0.817854 -2.053620 -1.479419 0.623829 -0.523975 -1.386090 -1.280134 1.838504 -1.399958 -1.894224 -1.630911 0.005067 -1.412018 1.705547 0.875432 -0.808213 -0.684500 -0.246081 1.294073 -1.362204 1.084232 -1.697073 0.012190 -1.694234 -3.037824 -2.123508 -0.686891 -1.145074 -0.736244 0.109372 0.577028 -1.058774 0.542082 1.361723 -2.391414 -1.112500 -2.141528 0.984159 -0.007080 0.205406 0.219227 1.090543 0.275965 -0.203171 1.685327 0.321726 -1.959880 -0.679756 -1.086183 1.550902 0.531308 -2.539805 -3.817609 -0.038592 2.160615 2.980079 1.388489 0.756690 1.792476 -1.906631 -0.663052 -1.331959 -1.693559 -0.293446 -2.196626 0.367932 0.072778 0.597953 1.282230 -0.686031 -0.216751 0.517715 -0.704239 -2.021653 1.139116 -0.550013 -1.686365 1.764809 1.025707 -0.902760 -1.633119 0.613356 1.248775 -0.231524 0.205606 -3.506537 -1.101300 -0.697499 -2.327544 -0.543210 -5.040174 -1.186046 -0.542965 2.273555 -1.168951 0.354114 -0.066281 -0.397068 -1.083955
her -1.184184 -2.765121 1.856271 1.367918 -0.295257 0.554651 0.547881 -0.934236 1.163211 -0.922998 1.806858 0.882295 -0.961445 1.934792 -0.614066 -1.826500 -2.533859 -3.181139 2.566604 0.258758 4.140051 -2.783739 0.837786 -1.573058 -3.047479 0.212476 0.994897 -1.891722 -3.013071 0.360343 -0.573432 -2.013286 -1.706017 -0.337293 1.670697 1.521397 2.476766 -0.877008 1.300748 0.939722 1.306621 -1.729912 1.798173 0.467767 -0.960747 -2.516401 -0.898902 2.996282 -3.118715 1.665560 -1.615660 -1.382979 1.111393 -0.029912 -0.031898 1.671930 -1.173444 -0.750204 -2.624884 -1.949446 -1.525369 3.882116 -3.003345 -1.701393 -2.769051 -1.398472 0.681140 -2.195133 -0.526460 -1.591645 0.089675 2.401553 -4.767640 -1.763496 -0.502703 -1.079151 0.224869 0.236970 0.114333 0.319545 0.939174 0.158844 1.009366 -1.768543 -0.857709 1.175446 -2.355177 -0.883671 2.014623 -0.781255 2.239476 1.158648 0.574119 1.308622 -0.011991 -3.912989 -1.063508 -2.161045 -0.970279 1.256196
about 1.613345 0.263021 -2.029804 -1.508973 1.633115 -1.042346 -0.672149 2.724646 1.031204 -0.583488 -1.942295 -1.073550 -3.430212 0.738336 0.455431 -0.786649 4.740456 -0.564640 2.215219 -1.569752 -0.729274 -1.227004 -2.027632 1.056182 0.769100 0.314790 -2.563363 1.925618 3.861347 -1.498338 -1.975817 1.330740 2.231401 -0.755872 -3.490139 -1.790265 0.189896 0.369741 1.960037 0.410182 0.416482 -2.533072 0.184658 -0.990904 1.429220 -0.584267 -0.505370 -0.870416 -2.258667 -0.194904 3.091523 1.097719 2.506436 -1.593572 0.508410 -0.490334 1.327362 -1.680921 -0.161656 -0.424627 0.500455 1.155500 -0.378270 -0.404742 0.762208 -0.378885 0.397111 -2.632413 -0.918092 0.981116 3.088438 1.400189 1.016343 1.044107 -0.637572 -1.423437 -0.361613 0.865825 0.196153 0.908884 -1.434960 1.733685 0.925659 1.288565 1.150461 0.068456 -3.357267 1.806015 1.952333 0.741287 -2.336613 -2.713268 -2.353342 -2.574723 0.356443 -1.349286 -0.769184 -0.732854 -1.665720 -0.689548
out 1.461004 1.281108 -0.537864 2.406498 0.508475 -2.123225 2.226187 -0.439848 1.438868 1.062549 0.021428 2.806613 1.991563 -0.233662 -0.420953 -0.391115 -1.925807 2.552201 0.563126 2.144687 -2.420899 1.906870 -3.394349 0.042927 -1.248305 1.702308 -2.886782 0.979743 -0.213501 -2.149330 -3.136409 1.142982 -2.408598 -0.831650 0.663300 -2.338701 2.791498 -1.793688 -1.645533 4.445940 -1.521676 -1.600609 1.699779 2.752692 -0.110361 0.265611 1.014007 1.047607 3.030646 0.239775 3.494623 3.132117 -1.199568 2.140645 0.840683 0.058459 1.784606 0.508798 1.598629 -2.846701 0.468223 3.978195 -1.371610 -0.996801 0.203057 -0.566662 -0.658263 1.183816 1.625784 -0.616872 -1.928617 -0.264601 3.230020 0.109240 1.565865 0.939596 2.738209 1.335656 -3.358099 -2.566194 -1.199695 -3.143915 0.341762 1.785500 -0.175800 -2.848875 -4.179995 2.296188 -0.782619 1.801716 2.294805 0.205176 1.322500 2.518721 -1.525500 -3.085551 -0.601652 -1.861963 -1.174917 2.437139
good 1.748044 2.404395 -2.056868 0.579760 0.667710 -0.997185 -2.398534 0.952461 3.440989 -2.273107 -3.203556 -2.061391 -4.084129 -0.817655 -0.310391 -2.560098 -0.893977 -0.320674 -2.017503 -1.013333 -1.146715 -0.232955 -0.390441 1.398356 0.347454 0.114864 0.856863 -1.203660 -0.484803 -1.129412 0.150250 1.950758 0.848823 -2.421792 0.813153 -2.855311 2.044591 2.019802 -2.222184 -0.410774 0.390842 -0.941972 -1.234525 1.058715 -0.043151 -0.050144 -2.051002 0.421054 -1.547336 0.207936 0.882130 -0.266171 -2.927344 -2.194116 -1.270000 1.117431 -1.312230 0.915550 -0.664392 -2.688982 -2.188223 -0.197191 2.474288 0.452502 2.488250 -0.964415 -0.411071 1.818566 -0.375546 -0.312820 1.554911 1.796082 -2.327445 0.946263 -0.315516 2.293733 0.359884 -0.685708 0.400446 0.968326 2.088099 -3.104865 0.912981 -0.313222 1.609321 -0.172408 -0.946711 1.942691 1.658366 -2.992628 -0.099600 -0.879162 1.367337 0.876276 0.416417 -2.452004 -1.915646 2.004374 -0.636703 0.672576
can -2.898856 -1.236836 -0.889232 -1.825867 1.406329 2.770519 -3.590935 1.954813 -1.082432 -1.956967 -0.902843 3.345261 1.765316 -0.527932 -0.436358 0.042214 2.451093 -2.663399 -1.558922 -4.031931 -3.224585 0.216330 -1.660665 -2.578338 2.538249 3.050862 -0.294185 -0.845626 0.466962 -3.024935 -3.338257 1.251787 2.011490 -0.654878 -1.211849 1.181566 0.254524 4.303452 -1.644528 0.819468 1.040298 0.830009 0.563204 0.513228 -4.732791 -5.488768 0.565016 0.136656 -5.341681 -2.537915 -1.731373 1.984516 0.266869 -1.084838 0.546732 -0.489762 1.499818 2.477679 1.241730 2.054264 0.312245 0.898629 1.876658 1.279665 1.119002 -3.222105 -0.871669 1.820636 0.182825 -1.351191 -2.067499 -0.365124 -1.089065 0.837475 -3.169681 4.516079 1.337572 -0.854158 -2.828692 2.026781 0.751991 -1.851826 -1.199288 3.221938 -1.141152 0.083639 1.011660 -0.353864 0.382624 2.027077 1.605837 -0.116150 -2.558949 -0.178748 -1.990707 -0.289936 1.519618 -4.547297 -2.286623 2.694871
up -1.194645 1.810547 -0.748408 -0.364387 1.749187 0.270955 -1.844092 -1.223015 -1.605433 -2.409135 2.742693 -0.587861 -0.384710 2.614457 2.766905 -2.946824 -2.762659 -1.026207 -0.087358 -0.024470 -1.099791 -0.815396 0.415476 5.579899 -0.983058 1.415665 -3.575972 1.276866 -2.937866 -0.479684 -1.198666 2.186928 -3.092540 0.690902 -0.399608 -1.057819 0.331133 0.380287 -2.672093 -2.153165 -1.786025 0.916003 4.131321 4.484645 1.898544 -3.540122 1.562750 0.233021 1.104928 -0.449008 1.386089 0.162681 -1.226442 -0.433637 1.775666 -0.306551 2.962605 1.435025 2.010890 -5.043524 1.613565 0.905118 -1.050614 0.555119 -4.604371 1.069405 -1.573319 1.555102 0.812361 -0.213272 -1.975166 -0.609720 1.675311 -0.718875 -1.236537 1.133649 1.770942 1.436242 -1.756563 1.941477 -2.182811 3.761453 -0.509120 -2.059340 -3.411798 0.498347 -2.622360 2.288851 -0.180981 -0.996707 -0.669008 0.102929 2.759054 7.709376 -3.537619 1.384248 -0.518694 3.260574 -0.284889 -0.248241
time -0.204048 -0.273032 -1.112725 -1.244099 0.378445 0.343826 -0.060211 1.248430 1.739149 -0.501793 2.839461 -0.522930 -2.225529 0.976525 -0.794461 0.729141 -0.464165 0.744749 3.922200 -2.691110 1.716415 -0.436695 -1.833679 -2.967543 0.521080 1.435520 -2.845182 -0.960398 -1.867360 2.183943 3.951690 -2.132117 1.991662 -2.112030 -1.792529 -2.888249 2.641741 -1.198218 -1.113091 0.051772 -0.764964 -1.922327 -2.632219 1.904734 2.972282 -0.627510 -0.257785 2.249160 0.029513 0.218163 -3.885264 3.454767 -1.183545 -3.099104 -1.575748 -2.768749 2.212015 -0.741595 1.441263 -2.300481 -0.286699 0.256594 1.896219 1.164506 -2.304724 1.205649 -1.384610 0.113983 -1.069346 -1.513500 0.886576 -1.474533 0.669711 0.008289 0.216987 0.605117 2.524482 -0.129519 3.274536 -1.455403 -3.968163 -1.071203 2.018078 1.502443 1.533984 0.327740 2.425685 -2.350298 -1.760570 2.450652 0.037327 -4.181374 -1.121377 -2.902807 -0.137998 0.215088 2.168844 1.215558 0.327163 1.843780
story 0.232851 -0.899503 2.607212 -1.669852 -0.830851 -1.530359 0.703554 1.099684 2.142961 -4.325044 -1.546441 -0.331183 3.637533 0.304312 -2.842634 -1.649379 -1.092571 -0.312251 -0.409506 -0.233440 0.739329 -0.762553 0.098655 -0.639590 0.315637 2.284203 -0.398733 2.441678 0.269742 3.300816 0.780698 0.699265 0.276986 0.746095 -3.378341 -2.303311 4.162378 2.781214 0.220680 -3.325251 -3.242405 -0.722427 2.674419 0.298092 0.618897 2.367038 1.682723 1.389594 0.754772 0.427459 -1.315213 -3.613806 0.431036 1.219160 -1.037597 1.431364 -0.450702 -1.080528 -0.811307 -3.503943 0.277560 -1.976203 1.313087 0.880284 0.686756 1.649468 0.343099 -1.613332 -0.901928 -1.447881 -0.795467 -0.134511 0.201893 3.634717 -3.923232 -2.486700 0.222952 0.601333 2.768873 -1.804805 -1.504284 -2.180676 0.047329 -0.786036 -0.201940 -0.897453 0.353142 -0.778139 0.058215 1.069685 -0.669284 -0.404590 2.351279 -0.733607 0.612755 1.454764 0.709754 0.166369 -2.689932 1.057687
she -0.236638 1.801668 2.485075 0.037986 -1.355149 -1.143301 3.235067 0.235481 -0.975004 -2.013469 1.352220 0.494835 0.977091 4.738267 0.238834 -2.980464 -2.225936 -2.206500 1.016324 1.191831 3.420794 -1.051469 -1.001472 -2.321608 -2.991915 -0.088854 0.141349 -0.206507 -3.283322 0.722069 -1.991024 0.119768 -0.036748 -0.290504 -1.137856 0.524803 2.033781 -1.285287 1.824221 -0.519531 1.624766 -1.224233 0.559506 0.185807 1.799333 -0.170737 -2.377602 1.306366 -2.456681 0.794223 -1.692073 -0.984297 3.410709 -3.332696 -1.032043 -1.224507 -2.222374 -1.758024 1.079316 -1.862050 -1.312807 4.277407 -2.635099 -1.239415 -0.785570 0.060514 1.772034 -2.757715 -1.262495 -1.711323 -0.670335 -0.483690 -5.744432 -5.526132 0.322156 -0.768578 3.509019 -2.143056 1.115615 2.310988 -1.758808 -2.308222 1.252119 -0.588288 1.170772 0.695489 -3.800503 -0.838223 1.963130 -0.663270 -0.286129 2.264856 0.306449 0.590345 2.024789 -4.567779 -1.759822 -0.033262 -0.466799 1.214547
even -1.160204 0.816209 -2.537680 -1.037600 -1.694167 0.074715 1.390290 -0.187565 2.481345 -1.436543 0.123527 1.677124 -2.046908 -0.483059 2.397357 -2.357165 2.724705 1.129028 -0.552048 -1.026143 1.979652 1.002123 -0.042385 2.170882 0.870516 1.758927 0.495028 -2.237678 -0.538060 -0.886119 -0.554989 -3.004374 -1.622501 0.203768 -1.165625 -0.986790 0.606257 1.087399 -2.445686 0.042532 -3.037060 -1.431626 1.882325 -0.810841 0.889047 2.647863 -2.356941 -1.895686 0.623588 0.116327 -0.693656 -0.939016 -0.108086 -1.187099 -1.504140 -1.965194 -0.450913 2.117664 -0.198770 0.350045 -0.352025 -0.997110 1.918126 -0.931891 -1.697815 -3.450814 -1.247741 -1.519269 -1.284662 -1.083705 0.767632 -2.354898 -2.122399 -1.238440 2.328875 -1.080265 0.123899 0.691523 -1.400077 0.633152 1.015405 -2.266737 -1.809828 -0.278170 -0.233571 -1.186090 -2.210716 0.167799 -2.006731 -0.281088 -2.472354 0.918287 -2.345255 2.835470 1.655691 -1.575617 1.649736 -0.326472 0.941437 0.335507
see 0.669236 2.964627 -1.847492 -1.951951 -0.976372 -0.458720 0.368923 1.707398 -1.858300 1.575498 1.690315 -0.158541 0.745485 -3.444286 3.492210 -2.700636 -0.548333 -1.506489 0.972908 4.831332 2.603426 1.552081 2.212697 2.333701 -0.016071 0.624270 2.879063 2.963064 1.742303 1.375175 2.003204 1.532691 -0.802064 1.678321 2.421260 -0.627627 2.415056 -0.126406 0.923525 1.400899 -2.648727 -1.681942 0.308257 -0.036734 -0.555946 1.008803 0.473541 -0.113012 -0.915418 -3.205348 1.773232 0.631130 -2.746948 -2.191418 0.577395 -1.606205 -0.380304 0.580606 2.491764 1.022754 -0.813299 -3.375707 -2.723935 2.940819 -0.930024 1.839904 -1.290553 -0.401199 -0.510224 -0.232803 0.347289 1.874052 0.436927 -0.111765 -0.417486 -3.561347 5.030217 0.948254 -1.163401 0.478781 -2.378868 -0.072617 3.206146 2.096520 2.590661 -3.148042 -1.676989 -0.797816 2.160283 -1.236917 -0.875767 -1.989780 -0.339635 -1.756004 1.403352 -0.842131 -2.475515 0.232576 1.160826 0.871599
get -3.029578 0.110483 1.863195 0.379203 -0.782837 1.254737 3.081698 2.060726 -1.102261 2.362711 -1.049351 -0.422334 -0.281748 -0.967403 4.965443 -0.806127 -1.057645 0.501435 -0.976935 -0.854766 1.694846 -0.504121 1.056752 1.082329 0.357197 -0.804450 -0.484170 1.013211 1.623631 3.239570 2.896702 2.043603 -0.472652 1.184240 0.665493 2.176444 3.120166 -1.280836 2.890183 -2.661894 -3.926332 -2.786383 -0.542154 -0.117279 -0.819756 1.565570 0.693552 0.743033 -0.628741 -1.977057 0.198760 -0.432094 -3.083222 -2.471622 -2.261876 0.494036 -1.832393 0.698210 -0.584899 0.907326 -1.867892 -2.627228 -1.201545 -0.805799 1.334316 -0.533974 -2.860357 0.111550 -0.269000 2.095893 1.340452 -1.434732 0.028758 1.430981 -0.803650 -1.836130 5.451032 -1.367830 -1.958930 1.822889 -1.916660 -0.736289 1.459283 -0.796596 1.085581 -2.582859 -2.919825 0.877047 -1.885295 -3.618026 -2.323267 -0.450485 2.791202 -1.619045 1.138620 -3.218594 0.528304 -2.202116 -1.481982 -0.666855
people 0.079985 1.891172 -1.152018 0.701684 -2.595801 0.315124 0.169333 0.003728 -1.240308 -0.026787 -0.882581 -0.929992 -3.707948 -1.579152 2.791976 -1.505145 3.140501 0.867951 -0.396786 -2.091512 -0.765910 -0.846120 2.696401 -3.176869 -0.575578 -1.487167 -3.559053 1.623666 0.375207 -0.386366 -2.339469 -2.816017 4.617017 1.508604 -1.386661 0.885470 -0.574134 2.074307 0.522493 1.498352 1.192587 -1.454068 0.530149 1.684938 0.260228 0.541546 0.740366 0.008874 -0.700649 1.863937 -0.322003 -3.837207 1.051739 -0.265790 -0.410821 -2.360573 0.827473 1.656109 1.575463 -0.291254 -0.534035 -0.158452 -0.966363 -1.604633 2.605365 -0.007931 0.791180 -0.510049 -2.384023 0.359919 -2.374905 0.663579 -1.344441 4.437269 -1.779911 2.516092 4.363545 2.494597 1.417782 -0.859205 -3.001262 -1.932402 0.845490 -1.450442 -2.224708 -0.563660 -2.517524 1.135241 -1.802158 5.280836 1.044619 -2.797325 -0.187452 -0.226823 0.266273 -1.154542 -0.525602 -0.530276 0.107793 -2.198045
bad 0.043298 3.474947 0.222044 -0.068457 -0.467568 0.137070 -2.542660 -1.167256 3.569269 -1.801992 -2.129056 -1.480203 -1.380837 -0.654667 1.088702 -3.620445 -1.149545 0.624173 -1.940397 -3.024242 -2.528044 -1.027661 1.575072 0.900211 0.834331 0.749988 -1.213172 -0.457322 -0.653350 -0.643543 1.395276 1.268591 1.807077 -1.763658 -0.929250 -0.413458 3.611652 1.778396 -1.777029 1.525792 0.072207 -3.488812 0.244382 0.019620 0.768590 -1.514608 -2.156472 0.197182 -1.799185 -0.315677 -0.023041 0.719645 -4.173575 -1.239027 2.325343 -0.914689 -2.201709 0.160250 0.625944 -1.181017 -1.490373 -0.840823 2.752268 -0.523419 1.734662 -0.599359 -0.530371 0.760604 0.476130 0.901554 3.200151 2.032740 -1.532777 -1.833978 -1.809770 4.054687 -0.068987 -1.022732 -0.201385 1.626032 0.787517 -4.248670 0.794694 0.751412 -0.601326 -0.451895 -1.940481 0.370520 4.157722 -2.424884 -2.320077 -2.721459 0.941669 0.257997 0.755327 -1.325359 0.043146 1.593081 -0.941772 0.359229
do -1.825810 -0.274183 -2.626553 -1.605982 1.043037 1.634837 0.177158 1.201184 -1.206945 2.860800 1.069578 -2.289665 -1.601964 0.798896 0.328369 -3.151313 -2.557241 -0.247538 0.047413 -0.471698 -1.054849 1.236241 -0.143685 2.641092 0.530546 3.874502 -2.241300 0.820676 2.140631 -1.512044 -0.056567 -0.356529 0.633221 0.850137 -0.876727 -2.036620 0.272609 -1.124806 0.892854 -0.967720 0.059857 -0.978572 0.442505 -1.501737 -0.173765 -0.342784 -1.231031 1.044671 -0.392261 -0.626164 1.580578 0.616502 1.802816 -1.404026 -2.661664 0.752317 2.290361 -1.102707 -0.633976 1.020960 -3.774780 -2.151391 0.039219 1.310721 0.399370 -1.488410 0.300130 -1.927512 -1.605505 0.395424 0.692954 2.913529 -2.446337 3.107626 -1.273050 0.259423 2.804988 1.903221 -3.154626 0.627502 -3.135151 -0.355187 3.087140 1.585799 1.010086 -0.142046 -3.214218 -0.184261 0.607944 -3.215157 -0.916993 -0.587234 -2.394562 0.940661 2.469157 -1.630916 -0.052542 -1.603822 1.214990 -1.265295
great 2.215168 1.408339 -1.906024 1.553472 1.015666 -0.349068 -1.935113 0.066829 2.679158 0.559481 -2.251574 -1.893805 -2.871252 -1.158874 -1.968540 -2.306705 -0.723894 -1.325380 -0.081650 2.007676 -1.564018 -0.244270 -2.508415 -0.175628 0.605141 1.161983 -0.433514 1.501672 0.280335 -2.337015 -0.796271 3.756879 0.181865 -0.539325 2.313629 -2.125551 0.997080 1.212629 -2.461426 -0.481543 0.338359 -0.623783 -0.356091 0.501311 -0.252696 -0.291324 -0.696045 0.757431 -1.502543 0.685519 -1.889283 0.781646 -2.360457 -1.955299 0.217985 0.473812 -0.437138 0.796887 0.238069 -0.857716 0.690190 -2.183374 0.608776 0.030319 -0.820108 -1.064139 0.377933 1.030744 -3.080539 0.563961 0.067209 0.848931 -3.154119 1.666587 -0.299860 2.718511 -0.131344 -0.388696 1.530536 0.918251 0.204007 -0.760317 -0.622047 -0.571478 1.289879 1.223258 -0.899160 1.228598 1.088872 -3.456141 0.099101 -1.555306 0.992903 0.185215 1.647327 0.756949 -1.968349 -0.102111 0.955874 1.287453
made -0.124576 1.456411 -3.974225 -0.274924 -0.351490 1.903373 -0.164791 1.172266 0.053792 -0.609240 -2.075365 0.823658 0.368816 -1.478463 0.086180 0.672044 -1.008837 -3.474705 -2.379769 -0.043820 -0.680973 0.875619 1.198464 2.298898 0.257010 -1.777513 -2.975968 2.018459 1.296757 0.040892 1.000072 -1.875444 0.693143 2.526149 0.321306 -0.798623 3.031015 -1.126884 -0.860452 0.524500 -0.469373 0.872437 -0.938061 0.198388 1.362018 -0.475327 -1.898073 1.763675 1.218490 2.664837 2.036992 2.807990 -2.896188 0.035577 -1.738274 -1.891172 0.036753 -0.421335 -3.661284 0.325841 0.123322 -1.288801 2.799592 1.162104 2.755306 -0.831526 2.205837 0.062753 -2.200388 -0.067297 -0.063757 0.510874 -2.828560 -2.712514 -1.159101 0.480224 -2.211923 -0.507728 -0.797543 0.087365 -0.530245 -1.492911 1.599980 0.561917 2.663987 0.577350 -0.383944 0.462759 -1.079770 2.826473 0.332483 -2.100436 -4.934068 -1.825191 0.604890 0.003911 0.214634 -2.339185 2.891402 1.894581
make -2.395206 -1.038936 0.379238 -1.212418 -2.144282 0.472023 1.084375 2.201708 0.875942 2.803649 -1.197810 0.684812 -0.265941 -1.169822 2.179575 0.348211 -3.872877 -2.339001 -1.373293 1.575399 -0.424194 -0.308820 1.753446 1.832391 -1.330218 -1.161256 -1.019581 0.898561 2.290512 3.166811 3.098524 0.149301 0.661297 2.511409 1.052651 -2.405305 0.911228 -3.525847 -0.553767 -0.036275 -2.337220 0.473727 0.473078 -0.529723 1.171470 1.765991 -0.071082 -0.103244 1.387497 1.138857 1.587361 1.251838 -1.559806 -1.989460 -1.064916 -0.422369 -0.690023 -1.098068 -2.230560 2.077041 -0.718802 -2.815477 1.228640 1.265956 3.234746 -2.279674 0.620585 -3.748497 -1.965557 -0.134153 1.300493 0.445195 -1.159920 0.947493 0.479814 -2.468322 4.085206 -0.959785 -0.813889 2.314864 2.302737 -2.425584 1.415401 0.993327 2.270205 -1.680572 -2.301904 0.821036 -0.560559 0.390110 -2.359938 -1.523272 -4.775298 0.206098 1.947623 -0.947794 -0.908390 0.340145 1.267348 0.179174
way -2.055912 1.437397 0.519011 1.745342 0.444481 -0.700305 -0.540537 1.173876 -0.690951 -2.323467 -0.150887 -0.283505 -1.647958 0.232347 1.529475 0.492145 1.836784 1.445486 -0.758251 -3.108107 1.536770 1.112308 0.449800 -2.280587 0.052830 0.104810 0.265626 -1.461444 0.353562 1.389349 -0.467226 -0.641006 -0.261897 1.594436 0.537070 -1.120764 0.069608 0.980139 1.824666 -1.656325 2.784884 0.067648 4.047257 -1.720825 2.315286 0.105224 0.961236 3.667128 3.036924 -0.981287 0.220278 3.252828 -0.726709 -3.954172 -0.225967 0.301293 -0.229612 -2.420073 0.782188 0.050933 0.123784 -1.102379 1.979488 0.425834 -0.020914 -2.344253 -0.103684 1.910214 0.095591 -0.601080 0.848482 -1.875800 0.485404 0.879791 -0.996228 -1.323648 2.338653 -1.753468 2.056230 -1.438281 -2.831880 -0.037770 -0.562750 3.897250 -0.355264 3.343910 -2.807539 -0.400002 -0.597135 0.153336 -1.091131 -0.736702 0.228562 -1.597179 1.450068 -0.066093 0.663892 0.446621 -0.908980 2.525178
characters -0.000837 -0.984238 5.297200 -1.908635 1.489649 -1.309006 0.128544 0.840806 -3.854737 -4.199050 -2.121399 1.771680 1.435268 -2.572441 0.116230 -0.811182 0.224119 0.489228 1.259058 -1.640177 1.014780 2.445105 -1.557402 -0.011688 0.066135 0.351292 -1.390731 2.432882 -0.596404 -2.323248 0.115928 -5.417897 1.279314 2.331951 -0.095909 0.808150 -3.651568 3.356606 -2.554084 1.542212 -0.647366 -0.270137 1.050796 0.641990 2.342404 -0.862356 2.274963 1.197399 2.505340 0.188411 -3.095479 -3.062276 1.137183 -3.867187 0.555892 -3.070253 -1.061464 -0.059899 -1.510257 1.005834 -0.714861 -2.032921 3.051786 -0.895086 2.958995 1.445572 0.253633 2.285712 -2.944343 -1.502164 -1.351967 0.142475 -2.721287 5.155573 -2.062873 -0.440333 2.217338 -0.145357 -1.637982 -3.418577 -0.850796 -2.004337 -0.564774 -0.156013 -0.835218 1.959959 -1.323338 -1.031900 0.661955 0.175784 -0.285829 -4.267649 1.558723 0.770092 -0.139517 -0.247510 0.285228 0.630522 0.761320 -2.266667
think 1.799911 -0.610578 -0.838741 0.186987 -0.923704 -1.087761 1.692156 0.162978 -0.256855 -0.481760 -1.434165 -1.272426 1.613355 -2.622192 4.133972 -1.985125 -0.529274 -0.237463 -0.752494 -0.176314 0.411416 -0.014898 -0.984419 0.812760 -0.229037 1.669271 1.201112 0.710777 1.037581 1.665982 3.473840 -0.083332 0.639216 2.897081 1.708422 -2.499706 -0.140483 -1.525780 -1.925546 -1.226732 -0.623396 -2.538197 -1.418949 0.721768 -0.556237 1.486939 -1.141553 -1.648938 0.224488 -1.049363 -0.874821 -0.575484 -4.285386 -3.715681 0.298655 2.079624 1.007229 -0.578410 0.509483 2.235168 -0.496326 0.436798 0.221029 -0.662817 -0.085669 0.633935 -1.959826 0.903831 -0.530972 0.027090 -2.168175 -0.454060 -0.817606 -0.531919 0.189449 -1.109782 3.235525 0.287562 -0.343450 -0.930417 -2.478408 -0.304556 1.883305 1.854287 0.576286 -0.038681 -3.844854 -1.745861 -1.670855 -0.602464 -0.783721 -0.292333 1.489473 -0.072473 1.987224 -0.949147 2.088859 0.783230 -0.551263 -0.364298
character -1.323746 -1.481478 5.054706 0.013220 1.139897 0.007324 2.256627 1.710417 -3.528549 -4.893566 -1.532913 1.614545 1.434765 -0.296696 0.030259 -2.716370 -0.438130 1.480588 0.550297 -0.923433 3.554616 1.713473 -4.000003 -0.381563 0.784697 2.367450 -0.239159 0.868014 -3.200056 -1.252082 0.933780 -3.460184 1.091086 1.683977 2.550846 0.135454 -1.131756 3.065379 -0.078490 -0.697891 -1.258216 0.513134 0.096136 0.517929 1.236238 -0.664653 -0.665104 1.288260 2.463597 -0.598679 -1.045078 -0.968911 0.407945 -3.334630 -3.065545 -1.969015 0.572441 -0.415280 -3.912976 0.405546 -0.770403 0.842085 -1.566549 0.576186 2.299423 2.479045 1.507320 2.557688 0.725329 -3.754061 2.095496 0.829283 -1.511764 0.072188 -1.376258 0.029089 0.201089 -1.748448 -0.415495 -2.601118 -0.671139 0.674799 -0.488715 -0.347461 -0.288837 -0.799567 -0.941351 -3.726755 2.364547 -0.639777 -1.624981 -2.264929 -0.241564 -0.464056 0.172470 1.725701 1.559876 2.659698 0.580298 -2.693524
plot -1.998121 -0.181174 3.944051 0.060800 1.018199 -2.190601 0.351053 0.969340 2.554100 -4.860648 -0.164178 1.903135 5.439310 0.911238 -1.999085 -1.376111 -3.376819 1.455126 -0.962156 -2.095178 0.192950 0.176408 -0.023880 0.613444 1.087990 2.331458 -1.815118 2.055156 1.240962 2.039741 1.263101 -2.309806 -1.788987 -0.562437 -2.923262 -1.508677 0.651097 3.470826 -1.490885 -2.217156 -1.996950 -1.631480 1.436965 1.144512 0.706499 2.101972 2.264143 -1.206156 2.328026 0.146351 0.659452 -3.042459 0.533961 1.972449 -3.380464 0.263238 -1.720603 -2.230441 1.245416 -1.650929 -1.043853 -2.834181 2.695035 0.372945 1.925610 1.769800 0.807505 -2.728662 -1.885138 -1.781349 -0.254403 1.234454 1.032754 -0.085633 -2.824113 -2.184684 -0.079758 -0.223901 2.121454 -2.768302 -0.645109 -3.531075 1.415982 -1.905935 0.169029 -1.004696 -1.300445 1.160347 0.795581 0.113456 -1.141678 -0.349744 1.601574 -0.554757 -0.643588 -0.580189 1.977916 0.621993 -1.739238 0.634454
being -0.992199 -0.464877 1.468717 0.102376 -1.135843 -0.806639 1.687259 2.827245 -0.687725 1.676968 -0.136967 -1.379921 0.185865 0.125235 0.202940 0.515467 -0.108619 -0.776674 -0.233905 0.985279 2.774379 0.039930 0.912264 0.559544 2.208053 -1.095061 -0.756150 -1.570313 0.972150 0.032025 -0.077536 -0.931054 -1.020354 0.458727 -1.181534 2.219086 0.106943 2.582207 1.799377 -2.633910 -1.906022 -2.723625 1.916642 1.841881 1.435092 1.977347 0.960062 1.007473 -0.598243 1.919532 1.258679 -0.462635 -0.981613 1.024748 3.100223 -0.663050 -0.510882 0.149536 1.513360 1.007039 -3.289819 1.656968 0.886950 -1.077031 -0.199373 0.117242 -0.527512 0.764489 0.868080 -0.662833 1.348573 -0.210299 -0.213014 0.319888 0.128494 1.148612 0.654842 -2.782185 0.082180 1.558518 -0.307971 -0.502720 -1.222289 -0.951738 -2.164211 1.102460 -0.284940 -1.385174 -1.321738 -0.149487 2.853883 2.908303 -1.793369 -0.801526 -1.058839 0.072424 2.061824 1.673982 0.510206 -0.472996
watch 0.472280 3.307101 -1.657501 -0.664387 -0.497426 0.534847 0.192909 3.648273 -1.029569 1.676181 -0.943904 -1.181138 1.142741 -4.645854 1.665450 -2.215533 -1.370136 -1.265395 0.108506 1.630028 2.137914 1.397903 1.814729 0.920528 -1.307083 1.606220 2.058182 0.790775 1.439903 -0.301611 3.593846 -0.469072 -3.384724 -2.434997 1.491452 -1.253949 -0.768279 0.464161 0.161826 0.167972 -3.362454 -0.780567 0.764181 -1.767763 1.524546 1.575538 2.485853 -1.866851 -1.847736 -0.964772 1.692824 0.912562 -4.352776 -3.084503 -0.179723 -2.336254 -1.187549 1.051472 1.918786 0.425052 -1.251856 -2.923621 -1.571554 1.994755 -1.173371 -0.577233 -0.667650 -1.488050 -2.275349 -1.879841 -1.640808 -0.650859 0.896452 -1.129865 -2.980666 -1.661723 4.014765 1.379591 0.188085 1.407235 -1.170234 0.186806 3.344592 0.681112 3.427644 -1.265113 -0.506895 0.053662 -0.490670 -0.496229 -0.115492 -3.187884 -2.741490 -1.908852 0.399499 -1.337671 -2.727316 1.181055 1.161329 0.821071
acting -1.040529 1.319183 5.265338 -1.070037 -2.628242 -0.872496 0.441872 -0.878122 1.022309 -2.799807 -2.006939 0.122094 -1.510338 0.265180 1.271939 -2.813915 -0.622374 2.639247 1.473288 -2.671347 -0.469571 -0.731501 1.499612 -0.135389 2.025191 2.193608 -0.239128 0.798725 1.257940 3.524741 4.172329 1.004158 -0.443314 -0.668284 0.048003 -0.210590 -3.927329 3.534398 -1.028578 1.154739 2.653207 0.242659 0.039316 0.799918 0.954388 2.003094 -2.011456 0.570002 -0.392824 3.322629 1.768280 -0.732674 0.408533 -1.007087 0.443524 -0.200395 -2.130539 2.164146 -0.547082 -0.101292 -2.000454 -4.226196 2.185830 1.306215 -0.620986 1.725876 1.176507 1.150697 -2.446948 -2.280060 -2.074126 -0.691137 -1.474173 -3.240884 0.343734 0.387388 -2.681110 -1.281585 -2.414169 -3.443639 -1.468184 0.148894 1.531844 -0.703288 -0.307448 -0.318748 -1.741635 0.916195 1.906222 0.248621 -0.183678 -2.514771 -2.539212 0.458930 0.981585 -0.336740 1.496314 -2.839938 -2.389765 4.015105
life -0.659431 0.270355 1.177887 -0.252035 -4.788363 1.520143 0.181421 1.966418 -1.757396 -0.832864 -1.080927 -1.911408 -1.038279 2.466470 0.928334 -2.212698 2.261752 -0.979444 1.888601 -1.935085 1.965992 0.689022 -1.172377 -3.448536 -0.799488 0.465372 -0.418803 1.041307 -0.594472 0.475855 2.528472 0.404735 -0.792303 1.968215 2.963369 -4.375981 2.382956 1.080126 5.184329 -0.205240 -1.528401 0.704910 1.285181 1.803549 2.291191 -0.402122 2.585847 -2.537643 -0.014622 -0.083055 -2.041044 0.819419 0.960207 -1.379403 1.471508 -2.418230 0.646181 1.438984 0.112985 -3.377407 1.503793 -0.991531 0.599177 -0.047027 0.237327 0.635118 2.063057 -0.177305 -2.380917 0.980424 -1.601848 1.263726 1.163628 1.743488 1.128491 0.374441 0.485362 1.186729 -1.884339 -1.077968 -2.330386 -1.894459 0.071041 -1.804537 -0.355383 -3.424306 -1.561954 -0.989695 0.787057 0.577796 0.477513 2.568531 -1.066325 -2.951154 -0.210247 0.824389 2.611095 1.372460 -1.252851 2.303291
over 0.537379 -0.776255 -0.275385 -3.489967 0.325093 -1.431076 -0.823780 -3.494407 2.117088 1.831341 0.615284 0.398796 2.020163 0.506520 -1.156827 -1.023728 -0.194156 2.158559 -0.315326 -2.385030 1.877448 2.319110 -0.923825 -0.129507 -2.566132 2.397497 0.166535 2.032422 1.227734 0.476377 -2.595005 2.308235 -0.694067 -2.606244 1.796373 1.112833 -0.336762 -1.736067 -0.142460 0.568326 -2.337941 1.049882 -2.569911 1.374429 3.391791 0.530459 1.363906 1.794108 1.249897 0.162942 -0.193007 1.403202 -2.462210 0.732031 0.177188 1.550182 -0.550501 -0.324404 2.739309 0.611201 -0.421929 1.081198 -4.264043 -0.085056 -0.153766 -3.558207 -2.209538 2.188955 0.923653 1.040093 -1.270244 -0.381186 -0.774758 -0.652591 -0.606351 0.666628 -1.799508 0.425022 1.114796 -3.275392 0.249946 0.327733 2.716550 -1.282477 -0.560457 1.663012 0.368010 1.337741 2.966779 1.690104 -1.944974 -2.011057 -0.517962 -1.244156 0.481977 -2.738759 -0.980829 -1.162040 1.676706 2.163177
know 1.941339 -0.662980 -2.711692 -2.943876 -0.204770 -0.270635 1.852780 -0.823226 0.733526 0.649793 0.411718 -0.244867 2.979827 -4.137666 5.605704 -2.143610 -1.257589 -0.584225 -1.884345 1.331538 1.078256 1.060877 -1.753366 2.515774 -0.570471 0.970168 2.030314 3.298355 0.769939 2.017053 2.690635 0.931286 1.089652 2.855535 -0.272365 -1.045098 -0.308945 -2.205138 0.271369 -0.123669 0.322237 -2.836499 -0.885531 3.158376 -0.512685 1.706866 -2.917150 -0.724400 -2.687482 -4.505526 -1.988066 0.615896 -1.740908 -2.847853 0.147470 -0.572296 1.215181 0.691773 0.857510 1.210390 -1.483381 -2.106134 -3.491575 1.329227 -0.767665 -1.018811 -0.775253 -0.161310 -0.323591 2.431666 -1.183069 0.352715 -1.027288 0.540685 -1.021511 -1.393385 3.778389 0.561840 -2.472723 -1.709984 -1.198887 -0.585117 -0.986337 2.501522 -0.426224 -0.759684 -6.138719 -1.965767 1.461946 -0.294145 -1.290328 -0.625049 1.884639 -0.636842 2.157711 -0.806449 3.039808 -1.938571 -2.464885 -0.380462
show -1.239486 -0.793703 -1.901945 -1.043566 -1.422874 2.460031 1.077568 3.395589 -1.332350 -1.086476 -0.158169 -2.629109 1.477908 0.774472 -0.939001 -2.761655 -2.145511 -1.404048 1.408177 0.805292 1.417950 -1.582234 1.426371 0.624013 0.312294 -0.774084 -0.091591 1.902068 1.227237 0.459555 0.203819 -0.671745 -1.463060 3.659160 -0.123609 -0.180632 -0.698674 -0.296685 0.014484 -1.316917 -0.397117 0.061474 -0.481385 0.915906 2.046634 2.279215 -0.791670 -1.949433 -0.051556 -0.914821 0.730193 -0.443357 -1.384002 -4.204841 -1.583320 0.469926 -0.156082 -1.185202 0.720825 -0.305664 1.216187 1.444054 -2.108428 0.445565 -1.846507 0.235166 -1.048676 0.499626 -1.743055 -4.381625 1.544328 0.840401 -0.216598 3.139647 0.489817 2.857521 3.045768 -1.659382 -0.156650 -1.467595 -0.680527 -0.453663 1.414301 -1.108382 -0.916738 1.743372 -1.143292 0.813604 0.699680 1.889178 1.125329 -0.561484 -0.404367 0.581946 2.026329 1.804258 2.083641 -3.754605 -0.875185 3.731654
love 0.715651 1.813997 0.955663 1.217479 -0.830407 1.521119 1.118524 0.869112 3.082973 0.587629 -2.395785 -0.406831 -1.769429 -1.746423 0.046746 -0.202371 0.196583 -2.301284 1.498917 2.165020 -1.187276 0.400252 -1.401191 -1.661594 -1.566369 3.295586 -2.444231 1.918582 2.099076 0.986650 -0.909890 0.559019 -0.564640 1.768175 1.557306 -3.824946 -1.766786 0.705307 0.422345 -3.078501 -1.821033 -0.165756 -2.519517 1.536993 1.691218 -3.842971 -1.054562 2.886398 -1.069395 -0.442090 0.231226 -0.556452 -0.902008 -3.663458 1.814528 -1.985125 -0.156592 2.449455 -1.411239 3.059485 -0.828180 1.088821 2.429737 -2.155090 -2.350101 -1.783856 -0.503188 -0.540259 2.171225 1.155671 -3.387963 2.247404 -0.715292 0.950998 -1.242179 -2.957664 0.998874 -0.659357 1.248602 -0.417147 -1.387544 2.288251 -0.549289 1.253894 -0.801369 0.250226 -1.513761 -0.600834 1.668141 -1.366495 -0.332821 -0.943755 0.030810 -1.022488 3.338677 -1.497522 -2.937203 -1.624575 -1.473022 -0.239618
end -1.183955 -0.091933 -0.132362 -1.032882 2.525898 0.449983 1.570122 1.506070 0.752042 -0.483432 1.500899 1.757410 -0.037634 -0.801273 -0.011581 0.942103 1.158364 -0.026742 -2.474144 -2.378367 1.555623 1.054735 0.717151 -1.763968 1.125436 0.107646 1.602035 0.090395 -3.173321 1.184353 0.159956 -0.748998 4.304263 1.325497 -0.832687 -2.589076 1.063756 -3.074139 -0.448316 -1.910154 -0.023380 -3.111936 -0.068387 0.799406 0.652948 6.121176 0.008331 1.404005 0.782813 1.081874 1.917525 3.474800 3.330201 -2.389202 1.793023 -1.657632 -4.997026 0.787444 -0.224520 0.199058 -5.191704 1.043212 5.714444 0.252666 1.132268 2.369672 -1.171460 1.696333 -0.580039 -1.736191 -2.232400 2.978899 1.860777 0.583700 -0.782458 -1.672279 4.379908 -0.254301 1.983655 -0.131490 -1.070752 1.282952 4.191864 -2.454413 -3.524579 0.660668 -2.043772 -0.012390 1.384435 -1.977489 1.027597 -0.849975 1.658933 -2.746317 0.949801 -2.561154 0.190209 0.307152 0.623413 4.200953
say 2.228014 1.063534 -2.086819 2.596247 -1.827559 -0.170534 0.286635 0.786447 0.503850 1.464165 -0.164763 -2.551982 -0.981385 0.318845 2.589836 -1.176453 -3.347153 1.935417 -1.957218 0.803566 1.397773 1.549150 0.652281 2.945443 -1.009522 1.410728 0.846189 2.712424 2.099204 3.224779 1.090568 -0.021806 -1.281541 1.554162 1.974118 -2.240391 -0.528251 -1.195194 0.240458 -1.135665 0.426320 -3.205947 0.325073 -0.770692 0.882410 2.547197 -3.419145 -0.964362 0.845659 0.019682 2.624071 -3.217128 -3.750480 -0.443980 1.386912 2.771595 -0.246729 -2.165262 0.362184 -0.027873 -1.127292 -2.649112 -0.245352 2.745800 -0.991895 1.871979 -3.462149 -2.086054 -1.612292 -0.552433 0.990594 3.798537 -1.085287 0.033531 -0.671412 -1.639297 2.666937 2.426994 -0.153164 -2.326773 -4.386163 -1.311092 4.566954 2.194841 0.873577 -1.420278 -4.927312 -3.717707 0.135393 0.199192 -1.757596 0.903368 -1.926730 0.114137 0.566365 -1.616465 -0.817386 2.762331 0.909822 0.202851
scene 0.277796 2.957707 1.286852 0.428629 -0.088818 1.578792 -0.173384 -2.708512 -0.096793 -3.082431 4.841469 2.056441 2.051126 -3.161626 -2.456493 -0.164132 -4.253614 0.864548 1.365433 1.813547 4.291130 0.997656 2.610888 -2.245529 2.213098 -1.495037 -2.790363 -1.103104 -0.753960 2.210519 -2.026528 0.253627 2.090254 2.382434 -2.754910 -1.339578 0.665857 2.839494 -1.486192 -4.628331 -2.058957 -0.662110 -0.879409 -1.796994 -0.742164 1.813097 0.023138 -2.260477 -0.890691 -0.183193 -0.521179 0.136281 3.372858 -1.814658 0.335580 -0.108984 -1.985496 -2.518291 -4.658924 -2.671426 2.642892 1.334592 0.391352 1.829375 0.504530 -0.404105 -0.145051 3.914453 1.212125 0.562716 2.132421 1.220957 -0.102456 -3.591235 -1.174812 1.012616 3.379914 -0.155629 -1.569380 -0.996714 -1.066966 2.763342 -0.573205 -0.123079 -0.054580 -0.407140 -1.506243 -3.352840 -0.961672 -0.715534 -0.798117 -2.607641 -1.085982 -2.158590 -0.864974 -1.501669 1.827799 1.875489 -0.911545 1.550792
man 1.089220 -0.349152 2.929085 -1.451383 -1.545642 1.760890 0.372571 2.355228 -2.375862 0.044587 0.175348 0.886604 -1.961294 1.635130 2.536180 -0.933025 1.691999 -2.136683 -2.131861 0.379650 0.657846 0.305147 0.526745 -4.014948 -1.619584 -0.493721 -2.192561 -0.604502 -3.184336 2.612775 -0.835847 -2.077772 2.287889 0.677240 -0.153677 -0.564651 0.154044 2.951212 0.807679 -2.227924 -0.883478 0.344177 -1.306446 -0.293141 0.282163 0.559563 -1.578670 3.584913 0.357511 0.585332 -0.244409 -1.362634 0.943128 0.152607 -0.780832 -0.895066 1.462012 -0.087901 -0.046767 0.079188 -0.966093 0.702712 -3.123391 3.237572 1.121626 -0.780443 -0.543531 1.395483 1.164552 -1.640499 -1.531806 1.328970 0.875780 1.370703 0.837847 -0.151661 0.626861 -0.345281 0.734474 -0.234571 -1.028999 2.045686 -0.136871 -2.538499 -1.684144 -0.845877 -0.855839 1.656917 1.271088 -0.051271 -1.203529 0.128909 -0.421476 -0.143754 -3.067742 2.219597 -1.294125 -0.953464 -1.851501 -2.318970
go -1.928950 2.499063 0.832455 4.108630 -0.178260 4.094847 0.488618 0.771984 -0.836249 0.366769 -1.242543 -2.223961 -0.266525 -1.287834 1.336802 -2.235802 -1.473283 1.671922 0.876817 -0.624557 0.718483 1.088273 1.048049 -1.774529 -1.886081 0.049854 -1.637295 0.304728 2.558667 1.604870 1.217274 -0.918661 -1.269338 -1.081715 -0.236494 1.160528 1.756153 -2.507201 0.455373 -2.052159 -0.700979 -1.546174 0.912207 -0.130312 -3.134940 1.052658 -0.907059 0.400565 0.595885 -0.204292 0.069626 1.689872 -1.470484 -1.586292 -0.735563 0.411155 -0.585954 2.495070 0.581781 -1.114448 -1.687975 -3.186147 -0.425678 0.925177 -1.261450 -2.773293 0.707386 -3.022507 -1.303922 1.746118 1.107830 -2.505040 -0.085132 1.116971 -3.704150 -4.205738 4.438067 -0.685838 -0.967981 -0.951252 -1.268549 -0.449303 1.851999 0.169870 1.093272 -0.926455 -4.376914 1.063331 -1.275819 -2.784326 -1.231550 2.836393 -0.059424 -0.298868 2.349283 -2.417824 -0.371628 -1.047588 1.092905 -0.003306
back -0.863903 1.542446 -1.724556 0.006395 -1.825177 -1.848619 -2.108669 2.882493 -0.477993 -0.878182 0.398519 -0.348001 1.338838 -0.599868 0.907236 -1.516134 1.492143 2.424196 1.287352 1.897976 0.420010 2.017265 0.065621 0.563246 -1.996574 -0.179345 0.798373 1.366952 -0.579133 0.627552 -3.014945 0.457654 0.516150 0.093580 1.765085 -1.832361 0.254758 -2.947368 1.369741 1.158377 -1.967440 1.729462 -3.207238 0.630695 2.272364 -1.899234 -0.160697 0.964589 -0.045134 -0.995014 0.668619 3.020916 -0.196465 0.752847 0.707809 -2.060764 1.336124 0.058804 -1.542526 -4.248929 -1.532472 2.375928 -1.659393 0.717892 -1.085767 -3.504590 -1.377821 0.684338 -3.054567 -0.966776 -1.035990 -1.868742 0.780355 -0.863873 -0.393701 -1.820034 0.352282 1.725844 -0.654672 -0.328593 0.695352 -2.097102 1.975738 -0.786519 -2.894429 -1.886885 0.592095 4.504266 2.692842 -0.341165 0.850165 -0.166650 0.330113 1.644987 -0.747315 -2.228696 -0.154509 0.056985 0.206937 1.005533
real 1.193908 1.413530 -0.105573 -0.166086 -0.733314 -0.781068 -1.878690 -0.503134 2.482108 -0.653532 -1.036922 0.006904 -1.954961 -1.224039 1.167448 -0.994704 2.145375 -4.011118 -0.633817 0.105665 -1.250913 -0.511662 -3.786782 0.424735 -1.199160 -2.055267 -1.262939 -0.365012 0.297543 -0.808956 -0.469107 0.162424 0.054476 2.497731 1.495840 0.655379 -0.201474 0.721965 -0.547951 -1.346333 2.480306 -0.722938 4.416186 -1.005141 2.064452 0.796456 -1.754066 0.554675 0.447927 -0.683279 -0.867462 -0.155251 -1.910440 -0.220461 -0.133886 0.290463 2.089741 -0.249413 -0.609583 -0.809887 -3.234504 -0.425058 1.923101 -1.662436 -1.402422 0.626585 1.622770 0.518243 -2.619810 -1.492069 -0.794631 0.799526 -0.495896 0.402405 0.196809 -0.873973 2.736260 -0.406238 -1.991284 2.029124 2.342389 -0.964395 0.094972 3.026594 -1.166489 -0.597572 1.254459 1.679321 0.343919 -1.468518 1.827147 -0.513507 0.153815 1.003285 1.919736 1.859636 -0.329462 -1.987135 -0.846351 0.066999
thing -0.948329 0.864206 1.261247 1.073986 -2.554481 -0.189303 0.104103 1.157583 -1.102567 0.178748 1.039744 -1.920038 3.850338 -1.015980 2.420455 -0.136158 -1.912512 -0.922398 -4.399711 -2.563680 5.412190 -1.135554 -2.932917 -3.173028 0.770921 -1.927770 -3.106971 -1.003691 2.942661 4.262024 1.357252 0.247956 0.717660 0.077306 0.119152 -1.776270 1.205211 2.150448 -5.242682 -1.101791 0.677294 -0.693766 -1.205498 -0.630172 -0.923810 0.747589 -0.754610 -1.463872 1.139474 -0.867743 -1.351687 -1.506251 -1.742441 -5.509543 0.947366 -0.665364 -0.564562 -0.383472 -2.276199 0.407039 0.883777 0.495876 0.500194 0.358608 1.277436 -1.358617 -1.424666 -0.725189 -3.471801 -3.628437 0.654826 -0.632629 -0.531677 -1.637487 -0.639028 0.915579 -0.330513 0.547410 1.251856 -0.962020 -2.457249 -1.515766 -1.070363 2.271467 -0.889435 0.581177 -3.285984 -2.650286 -0.373055 5.014061 0.238366 0.041850 -0.871713 -0.625715 -2.083088 0.943206 1.619449 2.406898 -2.216920 3.918841
old -1.780312 2.198269 -1.757801 -1.878564 -0.139379 2.117175 -0.204135 1.716811 1.721297 0.740450 -6.042002 -2.704578 0.104672 3.206431 -1.364598 1.418241 1.273723 -2.809280 -0.963182 -0.292488 -1.724697 3.415698 -1.757635 0.214653 -2.740023 -0.316271 2.325345 -2.171734 -2.098461 4.807144 -2.522149 -1.549582 -1.080840 1.779006 -1.422791 -1.403405 -1.346702 -2.894704 1.175740 0.678679 -2.383748 -0.306738 -1.060398 0.837088 -2.215232 0.971475 0.509741 2.756249 2.155883 -1.169662 1.785304 1.375369 -0.509117 2.240028 1.198149 -1.407459 1.181330 0.383306 1.456564 -1.259325 0.243067 -2.917756 -3.673104 -2.392708 3.926509 -0.366957 -1.648977 1.589876 -0.083707 -0.163242 -0.219189 0.317615 -1.256955 -4.049695 -1.565019 0.691769 1.190552 0.319957 -0.030157 -1.933827 3.259036 0.772556 -0.268684 1.168082 -2.440084 3.305331 -1.720704 3.609875 2.872460 0.342300 -2.616675 1.140969 0.398815 -1.550389 1.160106 -2.748409 -1.950470 0.794880 -1.008740 2.747427
work -0.392355 0.757331 -0.632896 0.063533 -0.775524 -0.631910 0.419941 1.982730 -0.195382 0.674059 -0.266855 -2.304266 -2.447279 -0.343365 4.005291 -0.547273 -2.752478 1.630138 0.265154 0.158162 0.019807 -0.977875 -1.627976 0.141957 -0.752274 1.661067 -0.372099 1.083539 -0.194227 2.108656 1.404446 1.979995 1.293550 1.752808 -2.250413 -1.876778 -1.496273 -1.240069 0.166512 -0.375853 1.150489 3.112819 1.068773 1.736141 -1.585573 4.025465 0.824995 0.832816 1.633248 0.794006 -1.948897 0.295123 0.581929 -1.369475 -3.216349 -0.035407 1.885431 1.418105 0.381630 -1.718680 -2.715541 -0.766455 1.243213 2.548635 -1.737144 -1.020917 0.164714 -0.584302 0.259120 2.374090 -0.658587 -0.609701 -2.161013 0.482748 -1.533955 0.926382 -0.135662 -0.726726 -1.958873 -0.816821 1.021077 -0.704661 -0.039889 -0.601334 -0.038205 -0.702545 -1.368359 -2.446482 -0.087794 -0.985263 -0.594936 -0.126116 0.995976 -0.599223 2.782971 -0.880292 0.767877 -0.692304 -0.754950 3.805990
makes -2.346702 -1.872261 -2.047860 -0.222371 1.966041 0.672064 -0.716726 -0.307155 -3.083635 -0.471038 -2.341485 3.341771 -1.098762 -2.944799 -0.952190 2.728776 0.733985 -4.127063 -2.931098 1.419010 -2.558367 2.263391 0.200307 1.071072 1.388573 -1.817510 -1.670198 0.711725 -0.769287 1.374307 1.017384 1.358546 0.371180 -0.475220 -1.463014 -1.853361 -0.519939 -0.894052 0.859640 -0.080863 -2.317056 4.179463 0.676152 0.104979 1.854449 -0.917407 -0.260753 1.468460 -1.498193 2.410018 1.397987 1.249829 -0.951125 0.066780 0.362166 -0.600121 -2.267206 -0.435044 -4.091818 2.574181 -0.173529 -1.717219 1.502611 0.784598 1.006882 -2.909015 2.476768 -2.921003 -0.793078 -1.677467 1.713601 0.663038 -0.466989 1.612006 0.613517 1.325033 -0.072998 0.348801 -2.133912 1.782937 2.314651 -2.008893 0.871721 0.658416 2.214372 -0.978870 -1.301495 -1.087318 0.991782 2.950493 1.280058 -2.580304 -7.697174 -1.783149 1.116282 1.487336 1.548289 -0.631906 -0.248760 0.378981
funny 2.039678 0.991542 -3.386469 0.424670 -3.145592 0.591861 -0.801335 1.781571 -0.272474 -1.356533 -2.053974 1.000992 -1.883442 -2.035729 -3.113804 -3.214954 0.780946 0.324929 -1.888624 -1.830761 -3.458661 -2.332638 -0.776155 0.917932 1.458470 0.448264 0.975731 -1.370305 0.677882 -1.058464 1.005573 0.737705 1.148518 -0.546160 0.933253 -0.107840 2.006734 1.130941 0.137551 -0.607408 -1.171603 -3.236979 -2.738177 0.148763 4.024990 1.954705 -0.139353 -2.795458 1.936352 0.132829 1.788800 -0.622133 -1.096180 -2.636678 -1.752713 -1.115783 -0.014504 -0.534060 0.234956 -1.451998 1.819336 -1.478876 0.785528 -0.112591 1.121378 0.187608 1.351422 0.524528 0.382039 -1.814037 2.244669 0.371479 -2.754608 0.780303 -1.653276 4.297292 3.337912 -1.196132 0.310424 -3.105394 1.231821 -0.418142 0.840293 1.206432 -0.715005 0.735330 -3.270458 -1.448259 1.477170 -2.727523 -0.903008 -2.531364 1.033417 1.785103 0.495860 -2.055658 -1.150834 0.346239 -1.983476 1.504517
find -1.548386 0.225458 -0.364345 -0.113949 -1.435686 -1.112474 0.053016 1.543950 -4.270262 2.804039 -1.367324 1.062764 1.527304 -1.988379 4.434952 0.258997 0.239140 -0.951310 0.042256 0.551264 2.334642 -3.556468 0.997177 -0.213274 -0.045769 0.555677 0.851357 0.514606 2.796891 0.502039 2.997609 1.131582 1.346961 0.492666 2.161116 -0.366212 0.792023 -2.925064 1.500495 -3.127027 -2.930552 -0.714683 1.262029 -0.678802 -0.609421 -0.622603 0.090291 -1.473142 2.039954 -2.774217 -1.613953 -2.198667 -1.764695 -1.167116 -1.456390 0.676536 0.711426 -0.245361 1.495330 4.025500 -1.478770 -0.966184 -0.070668 2.352772 0.611296 -1.008842 -2.905237 -0.614478 -2.402417 1.012288 0.085340 2.468152 0.551828 -0.588179 -2.003192 -2.999079 4.922921 -1.080098 0.046775 -2.055658 -1.730636 0.515510 1.849917 0.769289 3.428699 -1.830575 -2.072328 -1.630116 -1.519044 -2.212276 -2.018527 2.668592 1.421872 -0.942235 2.860650 -1.835898 -2.584509 0.427025 -1.289381 -0.503631
same 1.475008 -0.750462 0.218380 0.619148 1.038115 -0.730149 1.243027 0.103534 0.761898 3.031814 -0.454724 -0.781109 -1.964899 -0.043336 1.548532 -1.071982 1.543668 -0.972933 -1.518115 -0.520979 -1.067138 0.589166 -2.274112 2.843679 0.135241 -1.787425 1.522753 1.691613 -1.733087 -1.481621 -0.660525 -3.994849 1.555455 -2.976160 -1.355287 -1.434642 0.870300 0.178700 1.988589 -0.749176 0.687800 1.185131 -1.897884 3.167410 1.622568 2.479866 0.070621 1.241543 -0.338233 -2.918361 0.428578 -2.642355 -0.649324 0.761224 -1.407827 -0.121354 -0.377581 0.268415 -1.240116 2.432887 -0.746924 -0.675487 -1.279428 0.568375 -1.843909 -1.221505 -0.299774 0.678607 -0.278968 -2.872694 -2.566116 0.134690 -2.403464 0.455541 -1.264865 -1.437262 0.079016 -5.258676 1.777045 1.317413 0.764207 -0.268494 0.403326 0.654115 -1.852334 2.132389 1.981786 2.367769 -0.833015 -2.160270 -2.205178 -0.818997 3.669605 0.182249 1.662085 -3.265638 0.030408 2.110615 0.706926 2.749278
look 0.797014 0.634251 -0.807574 -3.714766 -1.476248 0.358492 -0.065249 0.365821 -1.975684 -0.260277 -2.321466 0.075930 -2.059306 -2.775177 2.447104 -1.460575 -0.019421 0.387653 1.748045 -2.275818 2.432527 -2.735780 0.205308 1.379197 2.195071 0.777824 1.643679 1.340857 -2.921211 1.592497 3.970502 -0.635927 2.243517 0.807513 -2.937381 -1.881849 2.379349 -0.976816 -3.131836 0.653860 -5.187285 2.175719 1.568929 -1.559510 -0.998492 3.617794 1.435904 1.110655 -1.696225 -1.561307 -0.419137 3.079533 0.942577 -2.041372 0.073283 1.156235 0.393573 4.107692 -0.395466 0.292423 -1.590062 -0.754109 -0.503532 2.044848 -0.190304 3.037346 1.224190 -1.930704 0.136828 -4.027813 -0.740854 -0.608493 -0.238825 -0.992481 1.194323 -1.068502 3.024404 -1.065943 -0.076849 0.068834 -0.012805 -0.931693 4.675967 2.447920 -0.392040 0.938373 -0.449127 -1.814442 1.380298 -0.932387 1.831475 1.026547 0.504674 1.048312 1.738566 -1.666419 0.339376 1.077768 3.141029 -0.466240
part 0.377135 2.258664 0.592003 -2.015967 -1.167901 -0.278820 1.764710 -1.220088 -2.277325 -1.406963 -0.549775 0.486712 -0.418188 -0.870474 0.527393 -0.611139 0.295702 -0.071454 -0.226805 0.219637 1.941252 1.490165 -1.265904 -1.974231 -0.166811 -1.295274 0.829434 -0.010057 3.137785 0.170394 0.453650 1.015878 -0.046316 -0.502663 -1.462037 -1.776199 0.605702 0.247208 -1.087226 1.715217 1.397394 -0.636349 1.122783 1.349713 -0.817747 0.410191 -1.431347 0.935888 1.064477 1.669507 -0.812004 -1.012061 -0.548125 -5.144373 -1.689315 -0.745542 0.201474 -1.355479 -2.979366 -1.250825 -1.683124 1.880424 0.257975 -0.061799 0.913860 -0.654971 -0.382988 1.888935 -0.487938 -1.057746 0.921283 -1.034539 0.658378 -0.710177 1.859244 1.373729 -0.539271 2.575630 1.040457 -2.223765 0.546311 1.165313 -1.748630 0.710585 1.661760 0.374316 -1.748972 0.056513 0.184316 -0.648758 -0.018510 -1.053798 -0.543678 -1.792445 -0.854622 1.250782 2.415255 1.048373 -1.408361 1.774988
cast -2.721051 1.234114 2.104112 -1.718744 -0.633728 -0.546209 0.234507 -0.286537 -0.396956 -0.513356 -1.628833 0.837706 0.033208 0.725434 -0.515809 -1.429226 -4.645164 -0.148895 1.434936 1.064441 4.564647 0.342165 -1.475736 0.063704 1.437009 -2.541498 1.215776 1.780514 0.350753 -1.379242 3.082021 -0.419756 -1.021085 1.296421 0.668776 0.236025 1.071097 1.887645 -3.111169 -0.775704 1.720886 2.892906 -0.445846 0.579840 -1.540810 1.043185 -0.943113 1.703350 1.298513 3.459933 0.644511 -2.216662 2.519154 -2.730386 -1.471404 0.736288 1.274743 -1.391095 3.426947 1.835460 -0.206503 -4.771385 2.995670 1.055205 0.325961 1.825737 1.740984 1.467280 -2.184289 -4.409632 -2.409342 1.389996 -1.100785 0.889246 -0.065104 3.876489 0.952124 -0.188028 -2.938866 -5.158119 -0.088739 -0.596861 -2.822690 -1.661349 -0.094610 -1.703401 -0.955235 0.209043 3.022568 2.738339 0.425125 -4.082194 -1.541990 0.415751 0.399027 0.753278 -0.429002 0.164709 2.594959 1.874124
want -1.961840 -3.112167 -1.860448 -0.182705 1.842918 1.345435 -1.285892 0.805319 0.684859 -1.891125 -0.274525 -1.199009 0.921066 -2.680444 2.285527 -1.582452 1.507954 1.285044 0.847961 -2.196635 -0.788386 -0.088900 -1.461161 -0.749824 1.650233 1.891268 -0.255179 1.474373 1.004713 -0.268899 1.079531 1.030099 -2.615656 1.320165 -0.044106 0.227353 -0.885486 0.970377 -0.590518 -2.372899 2.670597 -0.709751 0.138295 -0.039687 -3.132397 0.639512 -0.216822 -0.187512 -2.300111 -0.329010 -0.252239 2.974026 -3.097871 -3.846285 0.438465 -0.271774 1.128257 4.912770 0.040736 0.980182 -1.218956 -2.377741 -3.907531 2.088427 1.046449 -3.050107 0.265360 -1.869830 1.616336 -0.107656 -2.936791 -0.493063 1.136672 -0.583252 -3.636400 -2.585910 5.340243 2.371682 -0.434301 2.700113 0.705628 -0.616563 0.244800 0.380618 -1.090109 -0.090713 -1.130376 -1.915181 -0.872967 -0.574847 -1.957017 -0.341805 -1.501161 0.274637 0.758561 -2.880037 0.304825 -2.173803 -1.903662 -0.138064
down -0.703330 -0.512028 1.381709 -1.909333 0.623901 -0.196873 -0.247407 -0.489888 -0.728221 1.857194 0.170600 -0.556475 1.648482 -1.600075 0.319009 -1.466896 -0.551562 5.532285 0.620399 1.927434 -0.168283 2.090241 0.676981 2.448340 1.399920 0.008760 -0.749528 0.701308 0.690714 0.093887 -5.198079 1.138571 -1.152866 -1.181404 2.144112 0.510396 -0.368698 -2.926369 0.216029 -0.745385 -0.995162 -1.309198 -0.273516 1.350206 1.911149 -0.974902 1.223531 0.711676 2.368998 0.111712 2.002067 4.862887 -3.226761 0.442578 3.177042 0.472440 0.356640 -1.702997 -2.469795 -3.762538 -0.244576 3.417840 -1.504674 4.385389 -0.725555 -3.977241 -0.784646 -1.885656 0.080111 -1.934012 -0.549982 0.872914 -0.319835 1.722664 3.330884 -0.041647 0.028261 1.762628 0.462163 -2.340732 -2.550151 -1.561575 1.248839 -1.827016 -0.487373 -1.416006 -0.695537 2.395345 2.399100 0.098811 -0.631397 0.683979 1.084676 1.008098 -4.063237 -0.649059 -0.471246 2.035078 -0.758777 0.192331
seems 2.013261 -2.152472 0.504193 -0.026224 0.084161 0.418459 -3.282719 -1.079176 -4.847744 -0.043326 -0.077805 0.318110 -2.348250 0.585608 0.923960 3.392076 1.669367 1.191537 -3.976452 -2.191817 -0.974950 -1.501011 -2.009966 2.167561 -0.660711 0.086884 1.479208 2.259552 -1.943689 -0.683572 1.612845 -1.588090 -1.655490 -2.560812 -0.996949 2.112270 0.738358 3.267513 1.179677 -0.590596 -2.390695 0.804557 3.734382 0.753618 -0.527816 -1.399377 1.788007 -0.141407 -0.862907 0.917884 -0.090986 1.780194 0.076620 3.285200 -1.950098 1.222943 -1.033587 -0.178269 -2.780127 0.646861 1.437909 2.423150 1.721215 0.820720 1.461872 0.044719 0.058378 -1.117823 -1.206185 -1.521757 -0.088888 0.851391 0.184363 -3.085185 -0.304783 1.936311 2.513919 3.463353 0.949546 -3.004827 -0.324836 0.971421 0.528527 1.686297 0.003352 -1.973064 2.080568 0.043871 3.959119 2.720460 0.317115 -1.521443 0.010742 0.231478 1.384518 -0.946090 3.084478 -0.439449 0.598741 1.591726
pretty 0.163902 1.113499 -0.036472 -1.928864 1.351247 -2.778524 0.468495 0.793835 1.110134 -1.679860 -0.556004 -0.408697 -1.133538 -0.942860 -0.842122 -0.534670 -0.923869 -0.053574 -1.219480 -0.405399 0.429154 -1.735977 0.099144 -0.258673 0.849724 -1.748550 0.582530 -1.115261 -0.984521 0.278868 -0.906021 1.496111 -2.100183 0.122079 -3.791876 -0.798896 -1.535177 -0.094813 0.632291 -0.734777 -1.183802 1.567076 -2.665300 0.688982 0.951129 -1.013432 0.004455 4.065918 0.399519 0.672204 4.039258 -3.011644 -0.412865 -1.331072 1.184012 1.669182 0.387502 2.536491 0.999219 1.884594 -1.293407 -1.417461 1.822645 2.193103 -1.000373 0.816799 -0.346017 0.340449 -3.584232 -0.369202 2.129591 0.060655 -1.658004 -2.188165 -0.398930 0.661646 -1.085795 -0.445680 3.453724 -1.594973 -2.917245 -0.960195 1.586055 1.239556 2.598350 -2.000036 -4.004116 -0.610069 -1.218512 0.134909 0.609825 -2.283184 -0.714755 2.198517 -2.919659 1.705921 0.976744 -1.419594 -0.346767 1.138480
fact -2.666294 1.692002 -0.025914 0.124729 -3.334504 -3.161700 -1.551713 -0.061435 2.071084 -1.971923 1.071501 -2.175785 0.736891 -1.399828 2.689731 1.914739 0.226553 0.068967 -2.951920 -1.376500 4.217119 -1.571973 -2.049482 0.525136 0.345637 0.727878 2.420182 1.388557 -0.621114 1.654122 -2.733196 -4.595888 0.722337 2.480669 0.269262 -2.388922 1.042379 -0.295981 -0.801552 -2.984596 2.614579 0.394478 0.228542 -0.077569 3.082170 0.627696 -1.447282 0.525749 0.594736 2.084214 -0.406161 0.494713 0.695875 -0.379564 1.109360 0.526945 -3.355264 -1.207583 -2.061744 2.365928 -0.358663 1.006995 3.674791 -0.010162 -0.502068 0.802651 -1.398477 4.191758 -0.480178 -1.029624 0.007810 0.970985 0.929511 0.172486 0.245685 2.921193 1.068965 -1.435076 0.033855 -0.102964 -3.578197 -1.992619 -0.055096 -1.166740 -0.624477 -0.472447 -0.911029 -0.531005 0.332315 -2.810069 -0.601066 -0.313482 -1.816019 -1.550991 2.142655 -0.806011 1.149673 1.536605 -1.928016 0.480581
own 0.156819 0.427560 -0.168766 1.036667 1.310588 1.002436 0.165081 2.047575 -1.239401 -2.342660 -2.406302 -2.722524 -3.383529 0.149343 2.353407 -0.321907 -1.047194 -0.845547 0.466160 -1.915547 2.545887 2.593879 -0.162282 -1.472717 0.484608 3.150791 0.965934 2.852323 0.363039 -3.710538 0.232410 1.151487 2.366150 2.056601 0.050161 -1.126686 -0.080802 -1.790968 3.691443 0.045826 -1.958960 3.052756 1.209928 1.283605 2.723681 -1.909022 0.693072 0.140883 2.874707 -1.695420 -0.012165 3.792510 -1.683589 -0.231306 0.254267 -0.820202 -0.776431 -0.923815 1.061616 -3.674749 1.027844 0.581693 1.560638 -1.056526 1.011233 -0.518150 -0.209692 -1.048909 0.187137 -1.883194 -1.102856 0.074886 -0.413832 -1.068723 -1.332997 0.586200 0.394932 -1.278024 -0.808053 -0.011278 2.246125 0.464527 -3.955578 3.265065 -1.116990 -1.003139 -0.772671 -0.260553 0.007337 -0.771483 0.594912 1.669906 -0.540944 0.161111 -1.392568 -0.116313 0.010923 1.126934 -0.522806 -1.069355
take 0.778013 0.041773 0.984422 0.889479 1.810799 3.266330 0.539628 -1.519569 0.182857 1.392846 -2.769651 -1.061494 -1.585164 -2.013165 2.700629 -0.509853 -1.728009 1.306564 0.922663 -0.971044 1.260588 -1.697192 1.783532 -2.223162 1.472957 0.949867 0.103330 2.766249 2.459962 0.607108 2.527214 -1.351443 -1.068827 0.038120 2.248739 0.733756 0.266456 -3.841982 2.294475 -0.321747 -2.087868 -0.908551 -1.552487 0.063255 -1.558475 0.180146 -1.829093 -1.348213 2.573082 1.813848 0.568945 0.079768 0.155979 -0.492539 -0.904528 4.241159 -1.461867 0.884607 -1.007618 0.898807 -1.399173 -0.342176 -2.551511 1.331875 0.148260 -1.112891 0.111381 -3.985260 -2.750703 0.425324 2.649434 -0.510527 1.633844 0.835598 -2.765528 -3.416418 4.564621 -2.285933 -1.885841 0.884477 0.270669 -1.984982 2.308322 -0.592116 0.475682 -0.141979 -0.401786 -0.454480 -1.260592 -4.265049 -2.532598 0.111485 -2.699995 1.243093 3.946891 -0.342534 0.474634 -0.646021 -0.178794 0.427104
world -0.552923 -0.790798 -0.766814 -1.453034 -1.791171 1.028474 -0.538770 2.306993 -2.258506 0.865036 1.998462 -2.286723 0.105204 0.752144 -0.552957 -2.459427 0.555532 -2.000351 0.919522 -1.264389 3.729214 0.021098 -0.360662 -5.288901 0.255444 -0.321492 -1.691218 1.682677 -0.255741 0.315398 0.224823 0.258508 0.611919 0.661058 0.580096 -1.540202 3.069133 0.643961 1.442436 -0.916588 -1.228656 1.587592 1.651941 0.437403 0.458862 0.029399 -0.262626 -1.420648 -0.451109 -1.854953 -3.410420 -1.431814 0.504675 0.228823 0.855779 0.120030 -0.313652 -1.137438 0.950471 -0.606337 2.045919 -1.770288 1.395566 0.621846 0.512209 0.673771 0.940116 1.028210 0.356888 -0.382570 -2.325500 -0.333344 1.526661 1.108681 1.191806 -0.354573 0.967430 1.553801 -0.528143 -0.313480 -3.234476 -3.508586 -1.679903 0.297671 -1.966149 1.703026 -1.216389 2.207259 -1.010791 0.289228 -0.561169 -1.230329 -1.256889 -2.478158 3.130426 1.390777 2.354450 -1.302821 -1.090986 1.198526
long 2.632543 0.756080 0.382551 1.013330 3.028857 0.658968 -2.459364 1.581158 2.169701 -0.415591 -0.088446 -0.547112 1.080859 -3.591107 1.277044 0.027895 1.963723 0.832770 -0.476246 -0.438353 -1.612679 0.456364 1.732097 1.253239 -0.581020 0.377297 -0.955688 0.140998 -0.140049 2.167678 1.552612 -2.688333 -0.546610 -0.547923 -0.425615 -0.602699 2.348178 0.995165 0.080122 2.470887 -0.246066 -3.017995 0.703831 1.086596 3.192812 -2.583669 0.140675 -2.283321 1.463180 -1.385880 -2.315054 -0.504517 0.603204 -0.276570 0.048245 1.564424 1.518671 -0.285890 -0.151300 -1.018497 -2.659173 3.154597 0.516699 0.400320 2.123061 -1.388184 0.048575 -1.567622 -2.410250 1.355386 -2.090902 0.462286 -3.706395 0.957316 2.130548 1.624919 3.880209 -3.460002 -2.530763 0.303973 1.445472 1.302597 0.973141 -2.631656 -1.434765 -1.806314 2.379604 3.164382 3.075102 -0.990835 -0.952581 0.410258 1.577728 -3.858555 -1.704590 0.028893 0.922352 2.007687 -0.566787 2.185300
series -0.767907 -0.314622 -1.124989 -1.640940 -0.865086 0.967359 -0.160640 4.000285 -0.983599 -2.732454 0.220134 -3.428646 3.579077 0.702218 -1.056379 -0.937383 -3.088652 -1.008274 4.199227 0.524093 1.394487 -0.798533 0.429969 0.769576 -0.970862 -1.298875 0.278991 1.410185 0.490712 -2.463945 -0.005515 -0.644635 -2.778903 0.371273 -1.988502 -0.494952 1.686663 0.877917 -2.315242 -0.721605 0.779916 -0.304757 -0.604479 2.020923 1.089798 0.942043 0.471703 -1.387969 2.247463 -0.712441 -0.477233 -0.832845 -0.541851 -3.935368 -3.539055 -0.998646 -0.002565 -1.229721 -0.603828 0.648270 -0.974166 0.583271 -0.237558 0.513517 0.135305 0.020318 -2.256944 0.829802 -0.001250 -2.988271 -0.583211 -0.033896 1.863295 0.354907 -1.022839 0.615986 -0.724454 0.430285 1.062857 -0.923887 -2.739965 -1.624106 0.672924 -2.279476 0.976492 4.946288 1.827003 1.998320 -0.904974 1.632660 1.965515 1.269661 2.095622 -1.913036 1.062226 3.468877 2.219986 -0.756104 -0.362389 3.946312
young 0.446318 0.747199 0.089810 -1.325130 0.174202 -0.083746 0.364062 -1.313863 0.403441 2.314854 -3.747608 -1.802968 -2.385831 1.740846 -2.507564 -1.022757 0.699319 -3.190384 1.546198 1.489730 -0.200887 -0.203496 -0.154446 -1.278537 -0.067925 -2.293411 2.515461 -0.220751 -0.143681 3.334711 -0.986680 -3.221491 -2.061790 -0.275005 0.994879 -2.301159 1.559287 0.292275 -0.722133 -2.950590 -2.126168 -0.625261 0.057153 1.368686 -0.209195 -1.897013 -1.772980 2.817684 -1.158282 0.701450 -2.784747 0.359400 -0.475659 -0.740555 0.139486 0.147526 0.156330 0.286918 -0.716184 -0.351059 -1.679249 1.082579 -0.490183 1.831938 1.373236 1.582003 2.252064 1.344705 -0.269468 0.202017 0.068967 0.681954 0.833680 -0.279534 -1.149341 -0.594033 0.355117 -0.007465 0.061376 1.225443 1.400522 1.364099 -2.221114 1.397724 -0.838208 0.946892 2.370146 0.598996 1.185147 -0.124963 -1.439476 3.123507 1.032742 -0.598577 0.128006 -1.130674 -0.944813 -0.347123 -1.392137 0.170357
action -1.419885 2.035947 -0.366246 -2.238558 1.379993 0.807567 -1.058315 1.482652 4.222053 -0.416721 1.197754 0.187446 -0.757805 -0.888431 -0.260844 0.379074 -2.035073 -0.034900 -0.006155 -1.565114 -2.867001 3.443195 0.565329 -0.982007 0.327452 2.164741 -1.372231 -1.521048 0.200382 1.406467 -0.086052 2.164651 -1.382911 0.689685 -2.301318 3.362392 -1.081390 3.936158 -3.158987 -0.462004 -1.653448 -0.430678 -0.075276 -0.075752 -0.938198 1.048368 2.353561 -0.963625 4.609530 -0.712208 0.184933 1.719095 -1.224126 0.060102 -1.884709 -1.408372 -1.190958 3.264053 -0.331352 -0.283796 -0.948563 -3.023846 1.011253 -1.172833 1.001351 0.945389 1.245193 -0.290224 -1.115776 -0.024080 -0.889876 -0.821550 0.300255 0.262499 1.945556 -0.035950 1.299492 -0.289151 1.496248 -2.743069 -4.738095 0.122633 0.985590 -2.325490 0.110055 -1.218038 -0.936691 1.373134 1.465927 -2.728096 -1.452160 -1.643403 0.727807 -0.281139 -1.012921 2.564579 0.180344 -0.620681 -2.053901 2.538518
give -1.662095 -0.102117 1.706110 -0.415287 1.315898 0.968866 2.602070 0.906570 0.150969 1.967962 -1.842754 -0.893407 -1.977140 -2.783528 1.366130 -0.019248 -0.976994 -0.183412 -0.849958 3.643371 1.773890 0.082940 0.279428 2.836463 0.226853 -0.194680 -1.058908 3.131354 0.287970 2.729424 2.317668 3.559953 0.986292 1.977808 2.181755 -0.442395 1.605506 -3.612004 1.470282 -0.627523 1.163526 -1.138643 -0.923737 -1.992954 -1.937407 1.199396 -1.078881 -2.438986 0.791923 2.526119 4.389654 -1.857317 -5.124254 -1.724194 -1.574617 3.221537 -2.026407 1.679291 2.325762 2.447536 -0.948317 -0.671756 0.473508 0.184147 3.215508 0.060217 -3.467236 -3.079304 -2.074818 0.308645 2.215792 -0.595815 1.274469 3.213923 -0.052898 -2.384416 3.970397 -1.371773 -0.871779 2.933656 0.400493 -0.008421 1.346476 -1.036593 2.882667 -1.625937 -1.752607 1.008659 -1.830820 0.363679 0.275612 0.117875 -1.092271 -0.217018 2.845363 -2.511137 -1.924055 0.323579 -2.173086 0.637327
right 1.827839 0.499793 0.174302 1.514231 1.464201 2.217571 -0.504607 0.521985 1.006153 -0.623728 1.006195 0.811719 -0.686614 -0.396508 -0.749118 -1.272910 -0.669977 2.518423 -2.415303 -2.742071 0.882666 0.185470 -0.641508 0.643122 0.376071 -0.117977 1.024330 2.179219 -1.675943 -2.368403 -1.366387 1.574785 0.892162 -0.451301 2.005978 -0.106509 0.203132 0.360932 -0.544486 -1.489140 -0.214948 0.043781 -2.532274 -0.176677 0.005864 0.991928 -0.702764 0.497354 0.413625 1.047846 0.599530 1.464124 -0.126146 -1.715942 1.069274 2.300450 -0.094507 -1.923001 0.381589 -2.295320 -3.018893 0.749245 -0.973880 0.314583 -0.827554 -1.732432 0.624832 -1.291202 -0.943823 -0.947433 -0.263934 -0.331252 -1.068653 1.209512 -0.990085 -1.350050 -0.176304 -2.145952 1.996012 1.316832 1.846004 -1.268762 -0.223668 2.470257 -1.809838 1.557613 -2.538924 1.635812 -0.171005 -0.688736 0.771072 -0.378705 -0.550327 0.287156 1.556830 -0.084060 0.940089 -1.230276 -1.316356 0.774561
point -1.828161 -1.239856 1.573886 -0.357684 2.001556 -0.444991 0.517876 0.007215 -2.127322 -0.314081 1.846345 -0.896700 0.575680 -0.072920 -0.613292 -2.541925 -0.214677 0.505055 0.895689 -1.663138 1.578904 1.085904 -2.303509 -1.138689 2.516254 1.060619 0.403309 0.325986 -5.502888 -0.318721 -0.210997 -1.591602 4.357588 1.633645 -1.482329 -2.901395 -0.771215 0.175166 -2.159112 0.556247 -0.256883 -3.602256 0.219282 1.107059 -0.719090 2.665111 0.325501 -1.736396 0.400914 1.093122 -1.364246 3.815351 -0.293208 -2.354099 0.741563 -1.147064 -0.371180 0.623294 -2.092187 -0.185351 -0.178140 0.728082 2.931305 3.013625 1.072558 0.365745 -1.511076 0.036164 -2.437212 -0.404007 2.469487 1.884066 2.014073 -1.766448 -3.552489 0.757724 1.063538 1.533105 1.773699 0.605918 1.060969 -0.508975 1.918594 0.224395 -2.626927 1.395420 -1.989622 -2.045093 -0.726516 -0.465382 0.124404 -0.347153 0.401140 -3.150661 2.429928 -1.280878 1.098104 0.426465 -1.614196 0.900896
interesting 0.964111 -1.608220 -1.760386 -0.560953 1.827492 -1.114945 -1.749738 -0.233474 2.750397 -3.970499 -1.841358 -1.493667 -3.059071 -0.021972 -0.450960 -0.606833 0.866729 -1.038188 0.108973 -1.253185 -1.852484 0.580243 -3.410492 -0.224818 -0.739519 -0.488521 2.098131 -1.881310 0.825452 -0.992607 0.166641 1.771654 0.455242 -0.511665 -1.403895 0.272129 0.608121 0.556912 -2.356958 -1.099018 -1.589879 -2.827997 1.766801 1.846900 1.027900 1.026052 0.513075 -2.907613 2.046539 3.025008 1.374760 -1.844696 -0.251043 -1.464183 -2.279852 -0.957425 1.838554 1.048826 -1.442223 -0.866610 -0.947347 -0.970052 0.664154 0.753399 2.705646 -1.440297 0.458682 1.421043 -1.569224 -0.809340 -0.615179 0.496334 -0.754366 1.654085 -1.273614 0.410160 -0.821545 0.748264 -0.554122 -0.732278 -1.376786 -2.610047 -0.197907 -0.529099 1.025903 0.096954 -0.152321 -0.198772 2.207542 -1.587273 -0.337243 -0.852673 1.035196 -0.596493 1.223248 -2.588542 -2.403761 1.855709 -1.747858 1.807397
new -0.104319 -2.357949 -1.171829 -0.880699 -0.568128 -0.295481 -1.487291 2.532343 -0.388233 -0.374756 0.087415 -2.208984 -2.042041 1.440600 -0.972071 1.151033 -2.656334 -0.832324 1.455187 0.797252 -0.241605 0.859311 -2.237494 0.784044 -0.117335 0.650709 -1.348204 -0.056679 -0.760636 -2.599252 0.228064 1.517678 -0.224163 0.277186 -0.335237 -0.617143 -1.140538 0.453161 0.598324 -0.482791 -0.569618 0.076512 -0.214207 2.558065 -0.296452 -1.745909 -0.879050 0.177355 1.266155 -2.506921 -0.026763 -0.806237 -1.690858 2.487692 -2.788516 0.377541 1.794358 -0.298228 0.155458 0.135552 -0.082852 0.830496 -0.575092 -0.811057 -0.092566 -1.153149 -1.042965 0.931602 -1.002250 -1.336774 1.178810 0.366596 -0.720585 1.052534 -1.457005 -1.247286 -1.814775 -0.016871 0.534725 1.415281 2.034976 -0.775948 0.228158 -0.557870 -1.357427 3.029248 -0.122025 4.048563 2.438327 -2.105370 -0.456865 1.884932 1.216308 0.541292 1.715514 -1.878971 -1.130453 -0.190051 -0.237385 -1.024762
bit 1.323115 -0.086324 0.412562 -0.789175 1.382251 1.031373 3.388334 0.941561 0.504703 -3.393168 0.553851 1.054559 0.555258 -0.304173 -1.461222 0.745750 -0.419161 2.517665 0.119858 -0.029894 0.758513 2.310991 -0.605692 0.589189 -0.797766 -0.893119 1.787531 -0.604194 0.872802 1.774691 0.759533 -0.467880 -1.272143 -1.103453 -0.520051 -2.141490 0.127557 0.130063 1.290523 -0.256383 -2.123767 -0.083051 1.352846 -0.027353 1.410624 0.695824 1.324276 -1.247139 -1.459146 0.784140 -0.144353 -1.415646 -0.123210 -1.320598 -0.954384 1.015744 0.961678 0.909291 -0.530158 0.950154 -0.304079 0.674704 2.204746 0.716787 1.050395 -0.590305 -2.297291 2.087223 -1.413882 2.150320 1.613078 0.262518 -2.394752 -1.438600 1.704878 1.248446 2.755238 0.098324 4.787995 -1.289220 -1.761858 -0.999307 0.853835 0.843163 0.916783 -0.196068 -1.528534 0.598368 -0.616407 -0.549807 1.431522 -1.573334 -0.272782 1.639003 -1.585088 -0.255701 2.567523 -0.127415 -0.705373 2.034239
family 0.511400 0.485367 -0.677593 -0.469443 -2.747957 1.834827 0.094407 1.992048 -1.747795 -0.466620 -1.463695 -1.901345 -2.206341 1.545103 -2.254699 0.394571 -0.896008 -2.799704 -0.110844 0.059088 2.277063 2.090913 -1.234009 -3.257835 1.085693 0.754298 -1.272947 -0.777038 2.334831 -1.197180 0.974573 -2.861077 -1.984346 1.921566 -0.534025 -0.457786 0.864784 0.227539 2.218520 -1.122828 -1.165027 1.446372 0.159478 0.521414 -0.271892 -0.806771 -0.524764 -0.905930 1.615512 -0.373641 -0.293518 -0.121611 0.852039 -0.856809 2.122288 -3.145360 -1.699145 0.356950 1.610989 -1.824837 0.273514 0.015884 -1.294076 1.265891 -1.321364 -0.888565 2.107953 0.172509 -3.217910 -1.581240 -1.785764 3.167151 1.064566 1.787481 -1.047579 0.063837 1.322473 2.059121 1.000328 -1.672744 2.026168 -0.321148 -2.861240 -1.677973 -1.057008 0.316260 -2.872218 0.470803 0.740946 1.990620 -1.841686 1.761076 1.286991 -1.258641 -0.463991 -0.208631 0.761953 0.287217 -0.753129 2.105350
script 0.337979 -0.840129 4.070001 -1.104470 -1.294587 -0.636887 1.657418 1.721514 1.700953 -2.089749 -0.664332 0.169199 2.809781 0.860626 1.836051 -1.377937 -2.833961 1.930914 0.169794 -1.318189 0.376517 -1.625980 1.512394 0.464432 2.218463 2.441731 -2.162352 1.423519 -0.287083 2.858785 1.505858 0.679293 0.976495 -0.689289 -0.857743 -1.108401 -0.420734 3.118592 -0.854142 -0.279691 0.813514 -0.118294 1.860730 -1.081429 1.772970 2.668369 1.231264 1.749369 1.765791 2.337144 -0.338419 -0.366155 1.483385 0.100050 -1.290013 -0.437158 -1.569168 -3.021652 1.069540 -1.237292 -1.719439 -3.652999 3.021062 2.010744 0.073365 0.548348 -1.053714 -0.413989 -0.829561 -2.063213 -1.621976 0.010086 -1.921636 -0.124295 -3.293219 2.147321 -1.593902 -2.017591 0.623661 -1.870757 -0.355650 -2.187492 -1.356906 -0.424833 0.093158 -1.902423 0.404725 0.960183 0.573284 0.322504 -0.594410 -1.403250 0.562607 2.367151 0.268077 -0.200103 1.169449 -1.886713 -0.831003 1.189162
come -2.060860 0.876022 -0.950378 2.083580 -0.465191 4.581366 -0.090325 3.032562 -2.334329 0.916334 -4.298941 -0.816812 -2.679035 0.271961 1.916088 -0.285495 -1.412244 0.119272 -0.508156 -0.851970 2.505214 -1.890431 0.666666 -1.885277 -1.960984 -2.103814 -1.384913 1.437142 2.062363 -0.158802 0.168712 -0.611202 0.188231 0.910395 -0.323672 2.740927 0.366688 -0.493677 -0.806238 -3.271621 -1.834291 -2.438995 0.720793 -0.484588 0.161010 1.658987 -1.683836 0.514544 0.009887 -1.779606 -2.048025 0.344471 0.227429 0.352540 -3.342529 2.012659 -0.040743 -1.727344 -0.184308 -1.097532 -3.657604 -4.835958 1.610742 1.540715 1.181455 1.516193 -3.872827 -5.409166 -1.350441 1.735694 -1.175613 0.840370 -3.048137 -0.335939 -1.791971 -3.290718 2.708606 0.243392 0.713264 -0.344894 0.682496 0.225863 2.194119 1.080327 -0.189996 -0.665240 -0.867939 -1.777308 -2.392524 -3.161468 -2.232066 0.321343 1.332059 -1.320060 2.212621 -0.676725 0.677369 -3.763512 2.101809 2.393491
big -2.042097 0.408413 -2.367033 1.804832 -1.542435 1.409099 -1.610431 -2.770864 2.198328 1.272525 1.562474 0.782659 -1.721720 -1.146079 -0.942257 -1.480431 -0.224837 -1.816452 -2.659516 -0.705320 -3.743396 -0.286190 -1.477794 1.251872 -0.612914 -1.908085 0.183730 1.135127 0.256950 -0.497544 0.024975 0.260738 0.764277 0.803184 0.961252 -0.538760 4.018167 1.990434 -1.328164 -0.320836 2.803681 -0.869290 -2.236501 1.556631 2.151714 -0.147427 0.470937 2.365804 -1.462344 -1.207418 -0.143421 -1.371533 -1.251467 -1.110286 0.989077 0.446464 0.627590 -0.756436 1.413279 0.408470 -0.906380 -0.812220 -0.468814 -0.885543 -0.093202 -1.861691 -1.103398 -0.539785 -1.118680 -1.551852 0.012994 0.541020 0.685347 0.403119 2.810086 1.866630 2.149847 -1.922382 0.144883 -0.091975 -0.525904 -0.639404 -0.884777 -2.134535 1.446559 -1.488864 1.222586 2.718979 0.488045 -2.754337 1.490754 -0.196104 0.516499 0.139546 -0.353395 0.304727 -2.028942 -2.034490 -1.780994 -1.919182
feel 2.428352 -0.456018 1.028306 -0.797578 -0.994432 0.923416 0.961957 0.031939 -0.485799 0.861119 -2.590867 -0.489728 0.328281 -1.502646 3.300147 -0.950881 -1.382465 -1.024177 -1.780451 -1.072029 1.982665 0.157998 -1.314723 2.922457 1.332007 0.557730 0.395551 2.338180 0.987907 2.892794 3.123546 -0.291655 0.992750 1.908613 -0.622249 -3.873614 -0.951279 1.475806 0.721474 1.538063 -1.749380 0.720720 3.575171 1.011050 0.159024 0.686124 1.112589 0.449182 -0.081730 -0.417456 -0.253547 -0.357451 -0.736479 -5.117258 2.707827 -0.536771 -0.763132 1.197160 -0.376606 0.932833 -1.060652 -0.834637 -0.781267 0.985061 -1.070627 2.496632 -3.319205 -0.322261 0.021039 0.315664 -2.598200 0.457026 -1.026372 0.185680 1.288594 0.987315 4.540106 0.490717 0.956258 -0.165874 -1.452414 -0.175539 3.125841 -0.502975 -0.993673 -0.345106 0.448558 -1.374918 1.243185 0.097537 0.523329 1.862610 -0.053547 -0.321580 2.821975 -0.716791 1.305926 2.458653 0.782385 0.549709
making -1.930580 0.407615 -2.001102 -1.023315 -0.155901 0.902177 1.433967 1.233219 0.943996 2.592100 -1.382771 0.711931 -0.972232 -2.079082 1.798160 3.092813 -1.534782 -2.095045 -1.513416 -0.172211 -0.643371 -0.276878 0.709118 -0.776634 1.417852 -0.648169 -0.549461 0.241014 1.548588 0.612288 2.053977 -0.085911 1.474928 1.341209 0.595080 -2.178012 0.215446 1.283059 0.218888 0.272959 -0.844592 0.108661 1.501557 -0.033788 1.584357 0.383730 1.935507 1.259212 0.176214 3.269767 0.441675 2.392759 -0.712208 0.613091 0.292022 -0.714670 -1.316329 0.117603 -1.929358 1.504519 -0.608345 0.065315 1.837345 -1.445715 0.980736 0.760948 3.230113 -0.322029 -0.393589 -0.207906 0.190167 -1.400730 -3.334054 -0.796544 -0.686308 0.275809 0.032207 -1.095003 1.305311 1.695468 1.495746 -1.864949 0.767315 -0.375014 -0.046559 -1.060525 0.007708 1.269918 -1.735201 0.546802 -1.366338 -0.333939 -4.172681 -2.215767 -0.375213 0.211738 1.447400 -0.979157 0.816335 0.212650
might 0.205707 -0.001276 -0.762461 -2.381033 1.484803 2.503799 -3.085032 -1.212937 -2.930014 -2.374865 0.818928 1.309815 -0.038810 -2.962863 -1.471825 -1.609604 1.981405 0.569780 -3.615248 -1.250249 -1.848242 -0.016947 -3.228830 2.863473 1.076201 0.250037 3.909638 -2.626108 0.654721 -2.545971 -1.597636 0.011094 0.510464 -2.252619 -1.837340 0.004640 0.487622 3.602615 0.938425 0.874301 -1.253997 -1.205991 0.091596 1.768185 -2.396559 -2.599146 1.290967 -1.513748 -0.210911 0.301889 -1.307221 3.000414 2.658126 2.472082 -2.258954 1.695253 1.146584 1.885329 1.130346 0.837552 1.405152 4.106924 2.181421 -0.697720 1.026229 0.598819 -1.795307 -0.118337 -0.057179 0.986759 -3.503032 2.593000 -1.270052 2.163641 -3.488106 1.850645 0.033496 2.284277 0.775509 0.324426 -0.925236 -1.758824 -1.020054 3.487589 2.022365 -0.480811 2.856904 1.415671 1.142190 2.597327 1.430363 -0.876879 -4.853139 1.068982 -1.306719 -0.777254 2.779681 -2.687065 -0.314509 0.426283
performance -2.505755 2.912042 1.948741 0.281914 -0.340235 -1.593620 1.698804 1.894583 -2.335337 -4.125713 -2.855054 2.417886 -1.963574 0.956251 0.028988 -0.843493 -0.679554 3.589492 3.233179 1.209246 2.693677 1.378201 -0.239952 -1.795369 2.909482 2.028537 0.802689 -0.259348 -2.985964 3.411695 0.724339 3.266907 -0.903556 -0.126999 3.764733 -1.403923 -0.827195 3.226784 1.418553 0.127990 2.841578 1.062626 1.374583 0.200752 -0.202454 1.887798 -2.789236 2.960680 2.337638 4.655332 0.637040 -0.288704 0.824176 -2.557630 -0.079391 -0.367822 0.871170 1.234689 -0.031212 -0.526275 -1.748571 -1.133414 3.150143 2.512249 -2.316038 2.982731 1.614672 -0.285911 1.777970 -0.729193 -2.056021 -2.039282 -0.600252 -0.609297 2.502915 1.973561 0.358978 -2.219674 -3.676010 -3.150921 -1.300996 2.921617 -0.694521 0.703317 -0.140558 1.520580 -1.633135 -5.536108 5.003914 1.742343 0.792531 0.248914 -4.005748 -2.312747 -1.604180 2.491445 -0.016449 0.172150 -0.200227 2.286908
guy -1.036935 1.179225 1.990782 -0.296329 -2.561255 0.015277 1.547533 -0.912649 -0.563870 -1.993626 -1.955351 0.901537 -0.812999 -0.347553 2.187388 -3.212711 -1.014911 2.128931 -3.164111 -0.214018 0.531042 0.251593 0.476996 -4.175823 1.978257 -2.338837 -3.146015 -1.681864 -2.073067 3.344415 -0.609611 -0.806435 2.744316 0.190489 -1.289326 -1.801192 -0.592525 3.079594 -0.380794 -1.540124 -0.258550 0.942656 -1.230199 0.502215 0.451710 0.505578 -1.975010 2.739105 0.280588 0.349538 1.425902 0.207980 0.292673 -1.770416 0.319385 -2.412522 0.540545 1.375628 0.325210 -0.386820 -0.856469 1.834388 -4.357236 0.952149 1.793661 -1.021626 -0.732039 0.319569 0.540573 -1.852884 0.359320 2.193763 0.487910 -0.952056 -1.492200 0.159730 1.603817 -2.055375 2.217813 -1.320519 -2.032185 0.528849 1.109529 0.905996 -2.951251 -1.974853 -2.218620 1.227066 2.277066 1.246796 -2.375142 -2.759822 0.337788 2.616529 -2.782858 2.149842 0.440535 -2.425159 0.115987 -1.304101
music 2.086393 1.691273 0.204975 2.516203 -2.181216 -2.541002 0.350219 -1.486735 1.465366 -0.073940 0.251343 0.518762 -0.460601 -3.275050 -1.392769 -1.225710 -0.602557 1.819131 -0.985457 0.881186 -0.041082 0.971269 0.935208 0.045096 3.323561 1.682907 -1.564851 0.231887 0.828568 6.055003 2.859495 2.448373 -0.439117 2.806041 -3.048672 -0.773341 -3.445959 -2.045576 -1.823332 1.792773 -1.478470 2.395412 3.132512 -1.967945 0.334481 1.481540 -0.426987 0.465861 -2.353318 -2.869272 0.125552 1.318161 0.788757 -0.167248 -0.404321 0.442811 0.356020 -0.921531 -0.718128 -1.908714 1.262548 -0.592997 1.172993 -0.882788 2.696240 -0.406870 2.022520 0.634146 -0.150814 -2.256127 -3.142357 0.867967 -2.640352 0.709809 -1.192280 1.319612 0.566511 -0.294281 2.799914 -3.849974 -0.983473 0.538148 -1.633281 -0.474955 -1.126494 0.202475 0.397509 2.021784 0.424702 1.043709 -0.199234 -2.468633 -1.279921 0.022127 1.609631 -1.120142 -1.180168 -0.775859 -0.728807 2.969959
kind 1.453084 0.471548 0.296102 0.174872 -0.837697 1.166568 -0.429022 0.856182 -0.416750 1.360787 -1.253366 1.412066 -3.407780 -0.483249 0.061543 -2.324391 0.569426 -1.244366 -0.439219 0.107597 0.215565 0.620287 -1.105136 -1.813180 -1.725358 -0.566880 1.117733 1.556422 -1.637685 0.663188 -1.534889 1.690487 -0.227748 0.969786 -1.027635 -3.751440 0.986632 1.010432 0.457684 0.955632 -0.068442 -3.379976 2.316025 -0.276700 -0.511917 0.695697 -0.164959 0.500612 2.372753 0.402310 -0.265033 -0.488634 -2.425796 -1.007044 -1.411100 -1.045908 -1.927868 1.606997 -0.561566 1.443717 -0.188526 0.380215 -0.768259 -1.612294 1.661867 0.301630 -0.426232 2.367254 0.131431 0.396526 1.336939 0.906239 -0.656889 0.575926 0.395948 1.653242 0.879657 1.467270 2.590786 -1.031296 0.863877 -2.745355 1.957777 3.902627 -0.216107 -0.658498 -0.689515 0.752370 -1.932146 -0.543885 0.526486 -0.387343 -0.686630 0.193590 1.954853 -0.063762 2.460883 -2.072181 -2.165735 -0.711060
woman 0.018045 0.326024 3.458364 0.559830 -1.115820 0.742091 1.570621 -0.258761 -0.912919 0.354761 -0.301554 2.183429 -0.729753 2.714707 0.606835 0.519235 -0.488748 -2.737000 0.319796 0.563972 0.964385 -1.788821 -0.277354 -3.514559 -2.969093 -1.705166 -0.032228 -1.007312 -2.343032 3.508399 -0.098898 -2.575704 -0.707807 0.894182 -1.593378 0.158275 2.750099 3.205014 1.194677 -1.742733 -0.304221 -0.799097 0.251521 0.685372 0.781586 -0.731240 -0.756378 2.536203 0.319874 0.940007 -1.198082 -1.929732 3.952171 -0.163947 -0.410788 -2.566100 0.173216 1.748990 0.579104 0.033665 -1.198748 3.406847 -5.498471 1.667248 2.010072 0.060158 0.734584 -0.045564 -1.096288 -1.511974 -2.779431 1.353162 -1.598504 0.484596 -0.294754 -0.916478 0.940399 -1.071329 0.208356 -0.234046 -1.572875 2.102649 0.524676 -1.540745 -0.596760 0.653127 -2.531694 -1.344995 2.269996 0.169666 0.433625 -0.840975 -1.130662 0.314587 -1.383538 -2.180136 -1.242077 -1.503422 -1.974298 -2.631955
girl -0.281359 0.309617 3.770100 0.036549 -2.689518 1.468289 0.465527 -1.194148 -0.639032 0.051281 -0.127525 0.883594 -0.156727 2.494182 -1.000800 -1.303440 0.094907 0.094261 0.389017 0.005644 -0.061312 0.516936 0.679408 -4.562981 -0.524178 -1.450062 0.125226 -2.176654 -0.517553 3.927581 0.721586 -1.695063 -1.332396 -1.026699 -2.099182 -0.589619 1.889593 1.932721 1.047375 -1.757629 -1.720214 -0.839488 0.464977 0.695965 0.183749 -0.762215 -2.327798 1.921730 -1.659084 0.115677 -0.143905 -0.863217 2.702392 -0.657769 0.326329 -3.328197 0.219080 0.883149 -1.464706 0.095463 0.137274 4.494081 -3.409492 0.843607 1.223998 0.850202 -0.787726 0.433958 -3.456165 -1.827051 -0.905719 1.868729 -1.855952 0.627418 0.850884 -0.880667 0.719837 -0.644422 1.774593 -0.781921 -1.378729 1.172476 -0.510505 -1.715021 -1.467862 -0.456268 -4.532024 -0.554331 2.507355 0.018044 -2.125659 -1.572316 -0.256236 2.490496 -1.000121 -3.502040 -1.318020 -2.896773 -1.740567 -1.295156
fun -0.441316 1.147700 -2.772701 0.383858 -0.673590 -1.252526 -0.948805 1.677236 0.883275 0.511434 -3.656043 0.352530 -3.238251 -2.412251 -2.748312 -3.388552 -0.165753 0.092882 -1.112775 -2.577019 -2.353235 0.833000 -3.740092 -0.451719 1.866023 -0.603155 0.908169 -0.645675 0.923879 0.231936 2.280508 1.357367 -0.785173 -0.547167 -3.355160 -0.398529 -1.431295 0.668978 -0.744875 0.404542 0.881599 -0.029001 0.544327 1.335164 0.942506 -0.213447 0.874986 -0.318454 -0.184652 0.845157 -0.237268 0.965249 -1.588039 -1.851972 -0.762646 0.138941 -0.154907 1.446522 0.218224 -0.890327 3.128239 -2.321792 -0.853379 -0.275626 -1.673908 -2.763778 -0.402363 -1.627390 -0.721695 -1.837949 -0.584072 0.675527 0.563825 0.948605 -1.328777 2.872526 2.969451 1.642355 3.255288 -2.635407 -1.531374 -0.909427 1.760790 -1.208625 1.153309 0.323711 -1.486616 -0.160372 -0.246421 -2.606645 1.292273 -1.984357 1.142154 0.642877 -0.955570 -1.640599 -0.900623 2.315700 1.045892 2.578197
hard -0.935260 0.415553 -3.216693 2.193712 2.539905 -0.476227 -1.676371 2.443327 1.763938 0.370425 -0.710254 -0.258201 1.188856 2.382572 -1.340695 0.055231 2.343157 -0.633702 -2.071079 -1.619121 -4.099495 -1.274270 0.509988 -2.108994 -1.363092 2.850926 0.762026 0.380507 -0.205057 0.197092 -0.435581 -3.724947 1.080954 -1.457166 0.518116 0.088738 2.248546 2.536343 -0.781137 1.787117 -0.188787 -3.581282 4.197172 -2.471845 -0.531334 -3.542577 2.440715 1.311067 0.970061 0.243666 -0.271192 0.811853 -0.164603 -1.353777 -1.300889 1.656200 -1.484749 -1.141424 -0.212929 -1.625778 -0.320943 -1.220587 -1.276779 -0.044346 2.539181 -3.840181 0.440329 -0.050103 -1.656156 -1.258362 -1.279671 2.674052 1.223589 -0.366666 -1.775664 6.347956 6.109300 -0.617422 -0.048875 0.334333 2.323961 -3.105570 -0.073972 0.005383 0.439891 -0.160452 0.071948 0.233087 0.865383 -0.411193 2.625820 -1.897915 -0.740785 2.463669 -1.869173 -0.843872 -1.553977 1.577550 -2.506777 2.682531
worst -0.045168 -1.128036 -0.548581 -0.910591 1.515312 2.139593 -3.965637 1.417132 2.837739 1.518949 -1.455390 -2.814347 1.172552 -0.344077 2.341946 -6.884101 -0.579585 2.427465 -2.298661 -1.721512 -3.652995 0.329916 -0.602618 -1.269936 0.572833 0.552904 1.599272 3.266443 -2.564746 -0.216118 -1.412319 1.594675 1.479854 -2.153296 1.905444 -2.319089 1.552267 0.138212 -2.023015 -1.686345 1.129862 -3.104217 0.791918 -1.534443 0.678223 1.709854 -3.439517 1.852744 4.107451 -2.844354 0.178556 -0.933309 -1.781346 5.082652 2.324066 -5.348279 -3.247011 0.202697 1.602007 -1.443133 0.803863 -0.466958 3.256643 -1.730738 0.835705 1.734319 2.182244 -0.948416 -2.066893 -1.622670 -0.704043 -0.432093 -0.682122 -3.545753 -1.806430 3.912793 -2.460547 -0.566427 1.191984 0.932829 3.010780 1.003530 3.201663 1.628579 1.878102 2.859531 -2.675985 0.815620 -2.215021 -2.841678 1.540973 -0.241009 -2.136904 -1.981228 -2.158128 -1.767665 2.746444 0.309005 -1.027422 3.654719
found 0.791851 1.816187 -0.512933 0.657711 -0.327139 -1.547272 -1.888740 1.416822 -6.088691 -0.141513 -1.243760 1.232578 1.085145 -1.354266 0.659754 2.209670 1.255176 0.028598 -2.109479 0.693109 0.784095 -3.361252 -1.056899 2.440318 1.464039 -0.080186 2.560109 -0.578981 2.282651 -1.642781 0.971191 -1.040999 0.253456 -1.093728 -0.579798 -0.265390 -0.336848 0.734400 -0.068495 -2.580897 -1.234226 -0.895407 1.663486 0.352756 2.667422 -1.020410 0.537563 0.099265 -0.341112 -0.097310 -0.866916 -2.003339 -1.862266 1.349965 -3.277593 -0.482495 -0.786499 1.481830 0.738971 0.216652 -1.101913 0.417537 1.494663 2.268060 -0.891093 -1.091266 -1.007017 1.204626 -1.650375 0.458074 -1.602146 1.501106 1.074612 -2.879848 -2.131387 -0.821852 -0.340958 -1.933065 1.754973 -2.045841 -1.896436 1.366848 2.514498 -0.724010 2.630179 -0.725721 0.440495 -1.349978 -1.446083 1.532119 -0.896188 -0.267870 -0.209246 -1.405104 0.514253 -2.272491 0.000651 -1.210945 -1.124531 1.367573
course 1.665864 -1.464442 0.814400 2.577038 -0.497296 0.607646 0.048334 1.041354 -0.644277 -1.075309 1.975506 4.856272 -6.011079 -1.271237 -1.837394 -4.288820 0.501635 -0.869258 0.672390 1.119586 -0.258397 1.080777 -0.590752 -0.572633 0.324992 2.260738 0.735935 3.090841 -0.207506 1.149094 2.005274 -1.845383 -0.791144 -0.881118 -3.040059 -1.867720 3.189904 -2.010667 -1.606853 -1.052267 1.399518 -1.244428 1.079773 -1.023057 -0.739034 -2.055861 -1.795804 0.595641 -1.425222 1.496025 1.852619 1.944335 -0.552319 -1.854304 0.330047 2.856142 -0.772642 -2.246720 4.133972 3.132814 0.268027 3.431650 -1.584570 -2.343606 0.749404 1.326831 1.130525 1.833086 -1.226252 1.843079 -1.189130 0.265773 2.579285 -0.537492 1.485829 -1.475016 0.080147 2.249979 -0.376691 -4.138447 0.277658 -1.900532 2.849467 0.768376 -2.442376 0.802340 -0.862655 0.162409 -4.939027 -3.517452 2.134431 -0.950522 0.430860 1.556216 1.609970 4.366506 3.122324 0.594423 0.841344 -0.066458
believe 0.707138 -0.239383 -1.020288 0.904458 -2.526923 -1.573625 0.820858 -1.249002 0.457676 1.145967 -0.482775 -1.579205 -0.133325 -1.482636 6.516180 -2.376781 -0.124879 -0.512468 -1.190531 0.548995 2.012588 -3.483448 -0.727810 1.242678 -0.038451 0.412913 -0.588632 1.343907 0.764482 1.243049 1.466522 -1.463426 -0.855876 0.066343 1.821631 -2.370477 -0.344834 -1.406121 0.179789 -1.211357 -1.326403 -2.172801 -1.692399 0.093336 1.161533 1.704976 -3.743047 -1.237979 1.971494 -1.056859 -0.217922 -0.484754 -3.413236 -2.694553 -0.374241 -0.648185 0.818682 -1.859859 1.967695 1.320874 -1.425846 1.404482 0.704394 2.807878 -1.947807 3.183805 -3.291447 2.278937 -0.939630 0.956810 -2.007364 -0.721150 0.791121 -0.537891 0.896479 -1.679188 2.165450 -0.704570 -1.737471 0.516599 -0.882925 -0.338462 2.372924 -0.115089 2.512704 -1.777090 -3.224045 -2.254941 0.297129 -0.337082 -0.539960 -1.038810 -0.651012 -1.381735 3.527243 -1.032328 0.644772 1.774560 -0.051486 -1.181139
different 0.188547 0.618177 -1.066752 -1.401171 -0.265526 -1.273252 -1.278365 -1.335990 -0.044366 -1.432676 -2.782086 -3.040416 -2.374666 -0.501278 1.008386 -0.420300 -1.043305 -2.075791 1.920277 -1.094273 -0.668788 1.709515 -1.801851 1.373207 -0.630922 -0.618910 0.495952 0.350431 -0.024136 -3.909644 0.176056 0.455618 1.237742 0.426772 0.731976 0.247136 0.278648 -1.107231 1.113979 -0.997958 -3.714389 -2.155051 2.467038 1.523310 1.523516 -1.294481 0.151848 0.888807 -1.012895 -0.509358 4.257360 0.562231 -2.140100 1.257701 -1.095025 -1.062403 3.592926 -1.377315 -2.003700 2.652518 0.204577 0.082430 -1.114053 0.656419 -1.041381 0.461924 1.766353 -1.076542 -0.770186 -0.203366 -1.127599 0.834605 -2.801744 2.242379 -3.250512 -0.045229 1.771838 -3.208272 1.292760 -1.046463 -1.720568 -4.160908 -0.918225 1.903497 -3.342741 1.617563 3.112752 -0.128211 1.878039 -0.972872 0.989807 -1.521306 3.827578 -2.851979 3.637570 -1.427814 -0.639078 4.742173 -2.235584 1.590387
place 3.759593 3.906195 -1.448476 -3.499633 -0.768259 -0.798298 -3.933969 -0.868602 -1.664917 -2.188581 3.070126 0.576860 2.406895 0.295104 0.775801 -1.278265 -2.287535 0.992188 0.970786 -0.366408 1.978806 0.127815 -1.333400 -4.656408 -1.644727 -1.641228 -0.953498 -0.396976 -0.383762 -0.819743 3.005751 -0.213421 -0.154916 0.412392 -1.997649 -2.488750 2.815469 -0.698909 -1.202747 0.865530 0.378890 2.066267 0.624241 -0.442418 2.153838 -2.199673 0.368937 1.054750 1.757827 -1.590775 -4.779811 -0.443976 0.384286 0.552357 -0.794128 -1.877853 -0.058557 -1.154163 -0.792497 1.479964 -1.865104 0.455605 0.756714 2.791347 -0.105638 -2.178819 0.985652 -0.589237 -1.733981 3.314670 -0.608638 -1.062369 -0.352545 -1.651725 0.294326 -1.903330 2.559534 -0.479111 0.826455 -3.776467 0.444306 -0.198116 0.660421 -0.403596 -1.739173 1.002746 1.039266 0.709776 1.792373 -0.306043 -1.671647 -3.063939 0.106307 0.606476 3.761785 0.421168 0.571569 3.824091 -2.643972 -0.008825
day 0.782789 -0.140194 0.891583 -0.459139 -1.749544 3.750610 -2.129161 -0.189040 -1.427007 0.772169 1.435148 -2.420125 -1.304390 2.143595 0.389095 1.103790 0.206207 0.334726 0.668382 1.086332 1.178436 1.821596 0.173529 -4.922075 0.259048 1.678019 -1.211505 -1.927190 -1.671690 0.396560 1.718684 -0.378086 -0.170639 0.231160 -0.472216 -3.454418 1.847489 0.655774 -1.834790 -0.684210 -1.723012 -0.802557 -0.147873 1.271191 3.284185 -1.310863 -0.401345 -0.054963 -1.506648 -0.455897 -0.978967 0.160890 0.881569 -2.483235 0.781406 0.320925 1.931610 1.319960 1.652976 -2.839048 2.313240 0.371409 0.111795 1.281435 0.094021 0.040509 -3.940470 1.722854 0.084861 0.749921 0.997898 -2.395388 -0.073938 -0.222688 -1.013845 -1.325086 3.209644 0.696475 0.665017 1.569381 -0.841954 0.079809 1.899108 1.726043 0.735298 0.791051 -0.060204 0.682807 -3.158784 1.049514 -0.111558 -0.533173 -0.117412 -0.991938 -1.484661 -0.062018 0.462601 -0.385893 0.553455 2.553327
set 1.290459 1.055148 -0.758648 -1.542466 -0.445776 1.529566 -1.988726 -0.453156 -0.001582 -0.182797 1.328740 0.120647 -0.784490 -0.290047 1.620991 3.093453 0.808108 -0.330580 1.416973 0.755774 0.378532 -1.766626 -1.139773 -2.272029 1.145200 -1.458244 2.362411 0.558156 1.301430 0.332632 2.142221 0.145730 0.113981 4.609933 -2.084011 0.834505 -1.172824 -1.637527 -2.538349 -0.899865 -1.904459 0.887128 -0.177840 -0.652133 -1.673014 -0.834055 -1.243137 0.814675 0.974285 -0.543700 0.475534 2.514710 1.322531 0.671246 0.382811 -0.070301 0.414762 -1.406211 -0.879870 -0.201497 -1.073504 -0.203194 2.676119 1.189576 3.397574 -1.847539 1.081328 -2.635033 -2.242369 0.672411 1.240747 0.390498 -1.885876 1.170633 -0.269302 -1.401379 -1.172367 -1.752398 1.175274 -1.535638 0.654352 -2.072981 2.195633 -0.328408 1.962896 1.747757 -0.193123 1.351920 1.337752 -1.068089 1.281613 -0.425625 -1.087150 -0.207885 1.241424 0.467917 -0.607331 -1.053837 0.882106 2.480787
put 0.224316 2.079885 -0.338469 0.233284 -1.367728 4.945037 -1.567670 2.356699 -1.440198 1.228808 -0.379392 -0.544384 -1.598681 -2.597581 2.643031 -0.266627 -1.045863 0.367401 -0.374376 0.301693 2.101023 -2.961888 0.854241 1.076439 -1.433871 -1.690581 0.851990 2.842505 1.761335 -0.220090 2.455118 -0.666255 1.740293 1.855166 0.256185 -0.533248 0.698112 -1.545187 1.584506 -2.298917 -0.928921 -0.410149 -1.110304 -1.686443 -3.654523 -1.021813 0.194332 -0.645776 0.902871 1.992630 -0.241549 0.122216 -1.848666 -1.422098 -2.463532 0.597012 -2.823852 -1.703267 -1.100733 -3.213995 -0.030477 -2.286959 1.580297 -0.498234 1.993213 -0.613143 -0.653742 -0.767639 -0.859319 0.073255 1.527606 -2.127028 -1.464295 -2.120386 -1.123965 -0.149011 1.593764 -2.591804 -1.170387 -1.623557 -1.579021 -1.648614 1.695451 0.514888 3.616318 -2.058356 -1.800773 0.762628 -3.447944 -1.089347 -2.493581 -0.703935 0.111054 -0.273809 4.440671 -0.371615 -0.098616 -2.670695 1.630556 0.815346
reason -3.571942 0.683904 0.500783 -0.486922 -0.780571 -2.839628 -1.204390 -0.724739 1.411112 -0.316745 0.029490 -0.701486 4.220272 -3.783093 0.067816 -0.136168 -0.218301 -0.477011 -2.222208 -1.582160 3.122381 0.138784 -1.946821 -2.035792 -0.904908 2.569633 -2.308335 -1.008011 -0.487674 3.574921 1.032777 0.399380 1.424122 1.874859 -3.003488 -0.307843 -0.437766 2.720920 -1.445469 1.791527 5.538543 0.779023 3.363149 2.286962 -0.083507 -0.961462 -2.654677 -0.016566 -1.988617 1.938892 1.799005 1.611474 -0.844210 -3.389301 -2.678520 -5.542164 -0.408588 2.302660 -0.419934 -1.073485 -2.816827 2.027651 -1.526891 0.426466 -0.311234 1.238771 2.429823 -2.312069 -4.178129 -1.106668 4.114110 0.030562 1.665859 3.207880 -1.113818 0.553402 3.062657 -0.621429 1.774981 -4.503013 0.964801 0.009624 1.364403 2.243487 -0.275340 2.977216 -1.201968 -0.397330 -0.772968 0.833793 1.827312 1.132640 -1.639506 -1.063485 -0.387502 -0.263329 1.480474 0.661857 0.658049 -0.286429
book 2.646565 -0.686431 -1.435095 0.665689 -1.963792 -0.646987 1.633440 3.861966 2.876117 -4.006118 -1.492020 -1.499106 3.693565 -0.953740 1.181951 -1.372517 -0.326446 0.500101 3.134365 -0.256968 1.765017 1.472822 -0.272287 -0.355744 -0.183020 1.948443 0.634466 1.498727 -0.357969 -0.289915 -1.206005 -2.045426 1.838356 1.429884 -0.770920 -2.838877 1.862791 0.937804 0.775202 -3.032237 1.403519 0.574427 1.127190 0.803475 0.439654 1.668669 0.918647 1.651551 -2.235137 1.914692 1.594082 1.317883 2.750797 1.841548 -3.797988 -0.672751 -1.459108 -0.001551 1.518576 -2.897357 -1.221103 -0.083370 2.413175 0.762274 -0.448449 -0.293233 -3.208645 -0.934689 -1.580633 -2.336328 -2.443516 -0.002542 -0.522214 -1.008358 -2.181285 0.105880 0.320798 0.412407 1.427740 -1.661236 -0.200927 -0.549953 -1.293503 0.178449 -0.010778 2.515601 0.119180 -0.340728 -1.530722 0.503640 -1.282474 -2.759161 -0.460818 -1.185551 0.312603 3.381129 -0.791994 3.893328 -4.084460 -2.906677
actor -1.570495 -0.939491 0.105670 -1.206490 -2.978181 1.910135 1.654596 -0.647740 -1.093015 -0.677015 -4.017206 2.433684 -1.032594 2.710423 3.374224 -2.391622 -1.694800 2.002515 -1.465068 1.458539 0.756810 1.035397 -0.242521 -3.265343 0.688676 1.519326 -0.112302 -2.098696 -1.891649 0.518983 1.808800 2.055995 -0.137674 0.376575 1.149955 2.095777 0.220388 4.530520 -0.859762 0.396609 2.782335 0.611918 -0.981475 0.099791 -1.451739 1.443428 -0.922474 1.046549 1.631898 4.338251 1.953129 -0.035927 -0.580555 -2.857945 -2.125989 -0.737488 2.382754 -1.848442 -0.209446 0.895328 -1.146161 0.219388 -1.911891 1.347413 1.147388 1.824036 0.484345 2.943499 -1.270609 -1.459671 -0.734128 0.310221 -0.548279 -1.426576 2.216761 2.450495 0.543137 -2.710198 -2.205007 -2.309347 -2.752259 1.890297 -0.118984 0.307057 0.674091 -1.176424 0.299691 -0.083593 3.595973 1.081126 -0.171779 -4.228195 -2.258529 -1.601307 0.574282 5.132897 -0.158414 1.802791 0.221893 1.233575
shows -0.453621 0.415466 -2.303363 -2.801545 -1.576390 1.243421 -0.965168 0.262847 -3.445810 0.300237 -1.378316 -1.052161 -1.575603 -1.179319 1.728863 0.892425 0.953247 -2.390431 1.286810 0.503366 -3.181374 -0.096144 1.245997 1.084128 -0.901033 -1.335682 0.778435 3.231123 1.077000 -0.828888 0.135520 -0.024695 -0.251290 2.398070 1.031561 0.493836 -0.245096 0.309407 0.165472 0.155501 -0.586910 1.510399 -1.707890 1.374733 1.027371 2.217675 1.066106 -0.277821 -1.734782 -0.929227 -0.921613 1.780081 -1.835749 -1.309272 0.900416 -0.264756 -1.779459 -0.701156 -1.451748 -0.856082 -0.057852 2.187651 -1.578613 -0.199839 0.097423 2.250279 -0.335627 1.356981 -1.834240 -1.440860 2.174338 1.175055 -0.043594 2.185426 1.595439 1.166914 0.222421 0.041274 -0.509541 -0.083077 -0.507315 -0.618676 0.482078 1.248172 0.625393 0.466414 -0.001829 -2.473683 3.748342 1.464475 0.969302 -1.574268 -1.248809 -1.881846 2.905141 3.149701 0.340612 -3.243386 1.311434 4.735551
sense 1.040655 -0.380280 1.575854 -1.094017 2.772913 0.259267 -0.749879 1.297836 2.001184 -1.077965 0.611251 0.989007 -1.624490 -0.785644 2.999434 -3.380925 2.466628 -0.042026 -1.235327 -3.214313 1.286528 -0.730363 -3.812294 -0.708584 -3.010886 3.253626 -1.136313 1.052659 -2.652226 -1.023921 0.071431 0.926250 -3.114918 4.390700 -2.344858 -3.772096 -3.977059 2.109070 -1.928777 1.890396 1.870609 1.184649 4.545635 1.024352 1.504664 1.778356 -0.174413 -0.435201 0.279642 0.010938 -2.196568 2.741098 0.816107 -1.866109 -0.824573 0.622604 0.034316 0.989399 -1.122157 0.658741 1.783183 -2.526433 0.589695 0.600922 -2.732808 2.373230 -2.096402 0.283738 -0.463736 -1.031229 -0.415108 -0.237524 2.399629 -0.664551 2.646227 0.685018 2.223035 1.595547 3.026313 -3.125990 -0.199887 0.111576 1.788660 -0.043855 -3.463318 -0.429839 -2.058778 -2.313596 0.113318 -2.981858 1.424958 -0.356664 5.109781 0.417109 4.953930 -1.682427 2.342195 3.146459 -2.291838 -0.733954
sure 0.792301 0.517751 -2.295979 0.399299 -0.296314 1.329872 -0.461145 -1.803839 1.675377 -0.817036 1.340468 -1.887369 -1.294419 -2.680260 1.169462 -2.490272 -0.769376 1.910810 -1.864193 -1.436493 -1.241585 -1.004820 -0.028327 2.897773 -0.514848 2.498415 1.977033 0.823542 -2.122042 -0.584823 1.329962 -0.280758 1.334797 1.600115 -0.066903 -2.061322 0.730057 2.095116 -1.901384 0.402570 0.641126 -2.568820 -1.323582 1.943343 -0.432862 0.731617 -1.643162 0.294632 -2.077608 -0.409838 -0.523766 1.032821 -1.218683 -2.376513 -2.924298 1.813170 2.621880 -0.147667 1.278763 -0.183028 0.186204 0.708719 0.169937 -0.828941 -2.216557 -1.088530 -0.802295 -0.121630 1.128175 0.371263 -0.711188 0.466761 -0.616396 -0.089070 -0.104083 -0.320685 1.204917 2.663244 0.632188 -2.422756 0.712948 -2.384546 -0.449009 0.001678 0.564694 1.306974 -2.556155 0.614894 -0.493018 -0.476944 -2.747844 0.802495 0.231728 -0.508844 -0.048076 -2.777030 -0.050368 0.483943 -2.027873 -0.063378
money -2.199767 3.007601 -0.785445 -0.151959 0.911801 0.550044 -1.352681 0.486052 1.856518 1.035795 2.717438 -2.716418 -2.522753 1.431473 2.841499 -3.460820 -0.659728 2.156342 0.661228 -3.933479 0.189406 -0.035583 -1.088048 -2.855573 -1.869282 2.593599 -1.604176 -1.225343 2.539621 1.938607 3.564262 0.673619 0.785976 1.488273 -1.579814 -2.201535 -0.072168 1.027552 2.857526 1.156468 0.116511 0.668940 -0.873180 2.147004 0.220906 0.105316 -0.909920 2.694487 -1.205027 2.848618 -3.989992 3.077923 -1.507020 -2.451340 -1.263468 -0.931996 1.681043 2.024840 3.039249 -3.277560 0.812665 1.499235 1.246540 0.792943 -2.054558 2.445525 -1.274246 -2.966659 -2.754828 -1.729794 1.461639 -2.642063 0.417056 -0.852614 0.453223 2.354865 2.925356 1.321453 -1.886765 0.964501 0.164659 -2.054092 1.789981 0.664478 1.764507 -0.840585 0.832763 1.111763 -0.152354 0.491573 0.117649 0.676462 0.370827 -1.463563 -0.148174 -1.971537 1.683171 -0.684210 1.541444 -3.341723
