said -0.027451 -0.109295 0.099963 -0.024464 -0.027307 0.181017 -0.310306 -0.171996 0.009296 -0.055820 0.216815 0.717655 -0.174634 -0.185372 0.160932 0.317488 0.486765 0.284128 -0.102666 0.004626 -0.395266 0.260669 0.564969 -0.248793 0.190634 0.055109 0.117177 0.459793 0.470069 -0.029211 0.007535 0.021298 -0.236216 -0.135505 0.288691 -0.142129 0.196429 -0.121586 0.350982 -0.467796 -0.098525 0.408489 0.303579 -0.188879 0.377147 0.191924 -0.265364 -0.042714 -0.304670 0.143962 0.241087 -0.167832 -0.279389 0.400952 0.008464 -0.157086 -0.210842 0.059654 -0.273010 0.437756 0.037653 -0.039210 -0.216984 0.197709 0.083233 0.024322 0.019954 0.088898 0.445878 0.253909 0.118560 -0.312421 0.269124 -0.212734 0.084156 0.074311 -0.087330 0.205768 0.042808 -0.109655 -0.059002 0.253838 -0.261196 -0.265254 0.135980 0.111559 -0.127222 0.025203 0.237980 0.198151 0.082966 0.214604 -0.334479 0.408653 -0.017867 0.206014 0.204448 0.318123 -0.121530 -0.176187
year -0.151525 -0.267079 0.193480 -0.072482 0.574821 0.119353 0.170111 0.149337 -0.393859 -0.002768 0.140467 0.420443 -0.393367 -0.439307 -0.268001 0.079037 0.161521 0.289668 0.159015 -0.222229 -0.015369 0.295761 0.417378 -0.029925 -0.528310 -0.443661 0.184044 -0.037408 0.567159 0.642643 0.215052 0.309112 -0.486851 -0.111335 -0.171176 -0.321896 0.325607 -0.385330 -0.126698 0.333817 -0.144206 0.048409 0.247605 -0.609746 0.276010 -0.133158 -0.265157 -0.093047 0.239228 -0.174631 -0.396161 0.105517 -0.560631 0.122657 0.065309 0.262518 0.237646 0.049295 0.104810 -0.193196 -0.138541 0.078082 -0.045555 -0.022368 -0.169215 0.504617 -0.040523 -0.223499 0.711228 -0.090757 -0.307274 -0.399306 0.004311 -0.075623 -0.381959 0.078103 -0.030471 -0.090498 -0.124814 -0.229843 0.278248 0.211579 -0.135743 -0.173179 0.203665 -0.240618 -0.102368 -0.007469 0.378834 -0.139215 -0.023487 0.019869 -0.445836 0.435464 0.100007 -0.036406 0.093275 0.179425 -0.052822 0.209729
be -0.049086 -0.164033 0.313462 0.147647 -0.258187 0.065717 -0.219502 -0.037215 0.061534 0.493050 -0.007899 0.429234 0.201379 -0.370191 -0.023770 0.721170 0.297314 -0.038798 0.117391 0.287226 0.049668 0.422440 0.271596 -0.270877 0.159268 0.009521 0.317694 0.509016 0.201273 0.296548 -0.358648 -0.034855 -0.249598 -0.417735 -0.044663 -0.274492 0.115509 -0.207635 -0.002675 -0.134551 -0.247117 -0.050621 -0.042804 -0.157433 0.363534 0.800017 -0.275290 0.040547 0.041996 0.591059 0.132033 0.004812 -0.118646 -0.023228 -0.061291 -0.274329 -0.210081 -0.354728 -0.399283 0.216597 0.452136 0.033492 -0.182304 -0.165018 -0.165865 0.832069 0.574519 0.331008 0.478829 -0.250715 0.211465 -0.038349 0.223175 -0.903760 -0.261147 -0.652752 -0.156283 -0.234787 0.201863 0.008009 0.374639 0.021687 0.173067 0.210730 0.119493 0.064958 0.342392 -0.071393 0.361148 0.233857 -0.523369 0.593140 -0.286936 0.253458 -0.160079 0.352393 -0.110168 0.278891 -0.070836 -0.479424
billion -0.192325 0.264483 0.504510 0.110898 0.258256 0.160458 0.336611 -0.289143 -0.388248 0.384276 0.020814 -0.312339 -0.117627 -0.127035 0.200163 0.176182 1.053303 0.256194 0.392909 -0.183927 0.415320 0.316529 0.135711 -0.021096 -0.205945 -0.350152 -0.011079 0.076849 0.324718 0.359319 -0.178510 0.178345 -0.437973 -0.132412 -0.230952 -0.055244 -0.120454 -0.759848 -0.563692 -0.406529 -0.780077 -0.133795 -0.183060 -0.555657 0.716309 0.073466 0.059498 -0.269206 0.140582 -0.169469 0.246912 -0.342755 -0.623711 0.166471 -0.303011 -0.163050 0.247903 -0.077128 0.246089 -0.138871 -0.024261 0.137537 -0.332564 -0.780903 0.065128 0.222583 0.058940 0.002760 0.562383 -0.441131 0.612047 0.068470 -0.119124 0.058069 -0.640595 0.112563 -0.507247 -0.200882 -0.072677 -0.070699 -0.470800 -0.185029 0.643548 -0.409270 -0.392138 0.340337 0.266637 0.243526 0.903298 0.384287 0.150920 -0.212998 -0.044997 0.635640 0.800038 0.040827 -0.222243 0.638437 -0.142272 0.039576
loss 0.432638 0.002824 0.431499 0.131939 0.866286 -0.183094 0.114452 -0.196020 -0.474841 0.202664 0.190417 1.150988 -0.491850 -0.839060 -0.389684 -0.068766 0.068253 -0.551038 0.110222 0.035633 -0.059324 -0.215277 -0.148250 -0.529040 0.075529 -0.081344 0.636950 -0.093538 0.290462 0.368161 -0.576260 0.666394 -0.617559 0.137239 0.045809 -0.111107 0.857052 -0.403156 0.519033 -0.765142 -0.145987 -0.052209 -1.139453 -0.253234 -0.392010 0.080194 0.170185 0.273073 0.744331 -0.682373 -0.276561 0.309087 0.197842 0.240670 -0.052675 -0.473392 0.042131 0.334472 0.638982 -0.077073 0.290563 0.734971 -0.031256 0.197585 0.076039 0.133827 0.247598 0.057452 1.182625 -0.649363 -0.169898 -0.324553 0.257591 -0.373419 -1.021673 -0.001609 0.279499 0.118661 -0.439136 -0.135962 -0.175805 -0.290617 0.433575 -0.437274 0.237428 0.457177 -0.081673 0.343686 0.638401 0.310081 0.739144 -0.591162 0.100510 0.482484 0.141894 0.565128 -0.069865 0.247609 -0.170727 0.140038
company -0.038122 -0.435710 0.562671 -0.303196 -0.099886 0.061267 -0.295951 -0.140546 -0.612900 0.364393 0.462311 0.603650 -0.397977 -0.331343 0.137013 0.416353 0.064749 0.215189 -0.035857 -0.312225 -0.041352 0.113133 0.236243 -0.504601 -0.197697 0.115173 -0.179831 -0.129698 0.453065 -0.139833 -0.288062 -0.026957 -0.795238 0.444393 -0.245978 -0.232558 0.437106 0.157565 -0.239789 0.020003 0.101676 0.225140 -0.006575 -0.001134 0.020476 0.733083 -0.176500 0.191556 -0.212186 0.269277 0.578278 -0.359747 0.118972 -0.088722 0.017270 -0.240770 0.134895 -0.055962 -0.075206 0.286063 0.072097 -0.247914 0.025576 -0.213441 -0.045516 0.041774 0.271339 -0.200762 0.105210 -0.118587 0.080238 -0.181198 0.297092 -0.515210 -0.387554 0.129592 0.101521 -0.187691 -0.311572 0.094438 0.116683 0.696549 -0.008441 -0.137044 -0.164504 0.509207 0.145623 -0.119915 0.370918 0.493120 0.103903 0.158327 -0.139392 0.260642 -0.262676 -0.519217 0.116738 0.079094 0.261353 0.514583
share 0.065809 -0.066097 0.698001 -0.214526 0.274648 -0.256888 0.740214 0.186196 -0.671154 0.400565 0.243078 -0.098787 -0.723851 -0.872861 -0.295820 0.464060 0.077156 0.074628 0.060822 -0.231413 -0.155293 0.395999 0.204292 -0.207158 0.062806 -0.524407 0.116451 0.086543 0.377151 0.309229 -0.081119 -0.022773 0.174484 0.050440 -0.218479 -0.356137 1.049705 0.002413 -0.250948 -0.296323 0.169183 0.716731 -0.145153 0.360471 0.075994 0.314917 -0.406394 -0.600483 -0.138022 0.603498 0.151458 -0.540944 -0.665456 -0.033318 -0.460284 -0.747753 0.426115 -0.198520 0.724134 0.542490 -0.003659 0.105703 0.030988 -0.209991 0.089010 0.505728 -0.382335 -0.143735 0.058126 -0.059702 -0.012776 -0.233145 -0.453441 -0.696712 -0.909833 -0.021542 0.038006 0.083218 -0.225152 0.122530 -0.238972 0.026967 0.646242 -0.288293 -0.066732 0.393216 0.496504 -0.039682 0.163887 0.038711 0.217329 0.342232 -0.325742 0.684788 0.061325 0.096744 -0.097119 -0.329897 -0.218770 0.081540
profit 0.295071 -0.338213 0.180868 0.310720 1.056562 -0.077283 0.458809 0.004494 -0.596926 1.015889 -0.287613 1.104852 -0.354256 -0.469232 -0.048667 0.333648 0.258342 -0.863734 0.090634 0.298516 -0.308243 -0.754896 0.040970 -0.372790 -0.255756 0.028815 0.025947 0.378560 -0.144608 0.222605 -0.579381 0.703970 -0.485815 -0.178139 0.010154 -0.457405 0.340735 -0.579382 0.221018 -0.576335 0.092900 0.134315 -1.246473 -0.354016 0.449755 -0.189364 -0.257421 0.304782 0.643678 -0.696620 -0.106242 0.618672 0.125597 -0.055311 0.548663 -0.573235 0.056431 0.061852 0.935342 -0.156094 0.643137 0.178032 -0.035231 -0.160638 0.507941 0.092170 0.246748 0.350913 1.068541 -0.556513 -0.048053 -0.329990 0.467892 0.132416 -0.754447 0.245558 0.118200 0.472142 -0.551906 -0.053513 -0.466559 0.064263 0.190445 -0.202183 0.171043 0.468624 0.039421 0.103916 0.639446 0.534603 0.566689 -0.366533 -0.330256 0.378804 -0.248820 0.003871 0.195188 -0.000320 -0.264171 -0.002832
he -0.197123 -0.682431 -0.059372 -0.294248 0.340141 -0.034712 0.312512 0.150793 0.070113 0.183517 0.045203 0.315864 -0.736773 -0.169614 0.204091 -0.083093 -0.101414 0.252653 0.369584 -0.007126 -0.269500 0.502632 0.179397 -0.285400 -0.531884 0.026782 0.467791 0.438377 0.156936 0.323866 -0.438104 -0.259047 -0.339045 -0.209403 0.336671 -0.212540 -0.303806 0.297081 -0.057062 -0.188201 -0.394647 0.818137 0.443966 -0.345146 0.251220 0.327908 -0.137644 -0.264442 -0.306609 0.449258 0.340340 0.058729 0.265999 0.072194 -0.563643 -0.124347 -0.262895 0.213300 -0.477214 0.050787 0.271892 -0.134398 0.006674 -0.428331 0.212158 0.168187 0.633333 -0.098309 0.557992 0.155207 -0.094906 -0.027536 0.083204 -0.276432 -0.081214 -0.075510 -0.224930 -0.173019 -0.273538 0.178218 0.204502 0.071414 -0.019571 -0.662379 0.158739 -0.445881 0.342272 -0.065157 0.356118 0.114904 0.035640 0.267511 -0.293858 0.292739 -0.263883 0.307092 0.178344 -0.405452 -0.103541 -0.197197
have -0.334337 0.021104 0.058641 -0.039145 -0.428128 -0.510331 -0.052526 0.156281 0.039668 0.184056 0.374367 0.408203 -0.564634 -0.462032 -0.031996 0.214989 0.471856 -0.290518 0.186005 0.265994 0.009976 0.074498 0.231718 0.181544 -0.168128 -0.392463 0.183142 0.056756 -0.341534 0.304039 -0.400302 -0.064564 -0.345204 -0.301167 -0.056801 -0.841999 0.482239 -0.239732 -0.297743 0.014516 -0.159345 0.190954 0.151886 -0.190116 0.029040 0.283071 0.077920 -0.051073 -0.380973 -0.063715 0.502502 -0.340357 0.124270 0.157983 -0.035456 -0.172572 -0.017917 0.109298 -0.031620 0.321763 0.000186 0.119518 -0.103229 -0.266484 -0.115743 0.590157 0.764863 0.158934 0.309862 0.291274 0.114912 0.114548 0.414817 -0.233718 0.287561 -0.240300 -0.369077 0.472003 -0.210269 -0.232183 0.612978 0.552172 -0.143411 -0.120565 0.195459 0.267534 0.752966 0.329767 0.189465 -0.249481 0.093990 0.327207 -0.757729 -0.137476 -0.075453 0.042306 -0.442043 0.421192 -0.468948 -0.119366
stock -0.308842 -0.450389 0.419035 0.283788 -0.001104 0.175730 0.323781 -0.104879 0.209952 0.608577 0.341921 -0.333656 -0.182423 -0.141590 0.050252 0.432812 0.059996 0.153572 0.604217 -0.059429 0.214500 -0.114711 0.296940 -1.016168 0.442635 -0.510632 -0.519432 -0.107502 0.321672 0.634308 -0.122854 0.494399 -0.126211 -0.378197 0.442262 -0.344975 0.739981 -0.610787 -0.212379 -0.124218 0.532672 0.458033 -0.019696 0.423049 0.618819 -0.034433 -0.172458 -0.267763 -0.280975 0.090332 0.029086 -0.653950 -0.557982 -0.045634 -0.096838 0.120492 0.277173 -0.042244 0.206888 0.486334 0.699775 0.373226 0.234477 -0.001173 -0.369815 0.386228 0.100041 0.368766 0.108035 0.305827 -0.046122 0.121503 -0.003552 -0.550158 -0.135092 0.783499 -0.008775 -0.269663 -0.144673 -0.042694 0.328058 0.580097 0.730616 -0.025177 0.449604 0.281178 0.297340 -0.143248 0.377381 -0.099916 0.635071 -0.201723 -0.375829 0.916021 -0.222505 0.480052 -0.070943 -0.377867 0.674706 0.075811
about 0.264715 -0.207089 0.324843 -0.005620 -0.232832 -0.639485 0.219252 -0.158087 -0.087224 0.313732 0.527996 0.295179 -0.100034 0.019701 -0.407575 0.391618 -0.054131 -0.304983 0.053070 0.061829 -0.174552 0.238112 -0.218024 -0.265118 -0.096404 -0.199136 0.478470 -0.084678 0.681853 0.056032 -0.022100 -0.297072 -0.379126 -0.044149 0.260845 -0.261692 -0.209280 -0.002593 -0.730182 -0.361152 -0.231956 -0.075537 0.158000 -0.201769 0.508530 0.352938 -0.351763 -0.384278 -0.264822 0.303304 0.043659 0.092850 -0.011447 0.246875 -0.148178 -0.657508 0.282970 0.077629 -0.049002 -0.021838 0.153421 -0.197713 -0.318474 0.250484 -0.284699 0.105262 0.299347 -0.435266 0.445486 -0.227916 0.268527 -0.474735 0.482803 -0.182322 0.062716 0.002831 -0.198653 0.436443 -0.283397 -0.434691 0.451979 -0.240521 0.419528 0.090967 0.547231 0.635568 0.070122 -0.058999 0.620515 -0.189039 -0.198567 -0.213450 -0.098177 0.617022 0.104205 0.258718 0.293276 0.102641 -0.175200 -0.040852
net -0.450339 -0.129036 1.048641 0.176815 0.078451 -0.023926 -0.011471 -0.219082 -0.479594 0.174664 -0.265575 -0.174428 -0.127722 -0.727772 -0.082264 -0.082066 0.269537 -0.173428 -0.015668 -0.319219 -0.243530 -0.576999 -0.041198 -0.521893 -0.402617 -0.162845 -0.372009 0.346547 0.707733 0.112245 -0.083363 -0.041275 -0.436566 -0.390230 0.029688 -0.502388 0.602858 -0.327925 -0.267327 -0.762915 -0.395972 0.218880 -0.690026 -0.649126 -0.242058 0.300642 -0.098744 0.282768 0.267815 -1.201782 0.048086 0.379585 -0.024306 0.099474 0.247038 -0.267753 0.686078 0.413051 0.497644 -0.271500 -0.164046 -0.099703 0.020131 0.243746 -0.007755 0.189873 0.216799 -0.431623 1.049932 -0.437833 -0.324802 -0.655731 -0.065836 -0.299479 -0.870781 0.086853 -0.139942 0.166115 -0.455379 -0.008232 -0.033594 0.181462 0.968060 -0.327810 0.031163 0.459497 0.646126 -0.099791 0.487053 0.386195 0.197025 -0.409482 -0.169977 0.485275 -0.323335 0.146277 0.286387 -0.210494 -0.759708 -0.237181
oil -0.115581 0.431436 0.588332 0.313199 0.567030 -0.895981 0.564419 -0.000432 0.395907 0.164401 0.288207 -0.102376 -0.003933 -1.272886 -0.199542 -0.309541 -0.188864 0.000153 0.252706 0.089771 -0.420155 0.015215 0.099382 -0.419274 -0.275656 -0.538662 0.218425 0.441444 0.238037 -0.222061 -0.280270 -0.132976 -0.436275 -0.244875 0.130150 -0.237651 0.211737 -0.378422 0.692032 -0.530861 -0.765890 0.689220 -0.361920 0.183643 0.421276 0.096972 -0.261089 -0.048395 -0.434628 -0.140185 0.028000 0.066980 0.240570 0.073592 -0.239060 0.059812 0.349639 0.299267 0.343615 -0.415492 0.037680 -0.605457 -0.410572 -0.542009 -0.843290 0.623388 0.249855 0.048124 0.005714 0.003336 -0.316720 0.214840 0.787688 0.374639 -0.139104 0.174735 -0.253721 -0.930997 -0.186671 -0.621458 -0.470242 0.406220 -0.263568 -0.093939 0.658839 -0.045336 -0.036365 0.286859 -0.252381 0.546956 -0.279171 0.236601 -0.497326 0.253916 -0.003711 -0.068228 0.545135 -0.001842 -0.278364 -0.598161
market -0.031932 0.129183 0.396365 0.297262 0.710718 0.508247 0.078125 0.144278 0.205975 0.080942 0.649123 0.735274 -0.384369 0.267953 -0.018391 0.662833 0.196033 0.142272 -0.041299 -0.122409 0.175304 -0.137591 0.034418 0.015210 0.126562 -0.126928 -0.269816 0.148810 0.444230 0.457332 -0.574656 -0.214284 -0.120700 0.018355 0.683851 -0.494503 -0.119029 -0.693598 0.186714 0.158187 -0.402310 0.318956 -0.095111 -0.312461 0.756454 0.217720 0.368249 0.110230 -0.479499 -0.259823 0.154616 0.074563 0.403871 0.019513 -0.653552 -0.061459 0.575015 -0.405633 -0.710651 0.032584 0.155559 -0.273614 0.268567 -0.496955 -0.200399 0.229320 0.168575 -0.066850 -0.101267 0.317172 0.162609 -0.314097 0.100042 -0.168269 -0.088124 -0.151579 -0.339137 -0.723088 -0.411410 -0.055737 0.109395 0.116728 -0.186284 -0.379124 0.604236 0.543924 -0.165790 0.377149 0.151381 -0.431104 -0.036125 -0.100590 -0.225629 0.470464 -0.299628 -0.316661 -0.450879 -0.126076 0.404230 -0.186877
trade -0.003176 0.204350 0.493356 0.236246 0.072696 0.580095 0.214212 -0.335230 0.156533 -0.601880 0.430206 0.031996 -0.051384 0.107026 0.211870 0.236708 -0.027850 0.014759 0.201017 0.044340 -0.079048 0.492751 -0.351857 -0.155965 -0.402368 0.365787 0.409528 0.401572 0.641367 0.671917 -1.179568 -0.500362 -0.516582 -0.334754 -0.740426 -0.430377 0.408845 -0.430739 -0.055746 -0.664718 -0.084416 -0.184662 -0.198397 -0.454520 0.187271 -0.362072 0.214819 -0.427419 -0.880527 -0.391673 0.510243 0.048249 -0.081110 0.458809 -0.271246 0.102137 0.025297 -0.304804 -0.807254 -0.375225 0.250523 0.260766 -0.272128 -0.829745 0.178274 0.105306 0.038657 0.170658 0.303589 -0.212484 -0.302479 -0.092366 0.312529 -0.315702 -1.088193 0.491705 0.414108 -0.334011 -0.270392 -0.100983 0.546804 0.095649 -0.776491 -0.327623 0.204836 -0.365445 0.022520 0.259323 0.545510 -0.408028 -0.691139 0.137162 -0.544799 0.311551 -0.096324 0.427303 -0.327163 0.359560 0.340102 0.027609
up 0.359049 0.311822 -0.037822 -0.464492 0.331042 -0.053693 -0.182913 -0.231397 -0.705891 0.641824 0.294039 0.205668 -0.139616 -0.140070 -0.317249 0.329409 0.270991 0.388680 0.247398 -0.015105 -0.384539 0.085290 0.043358 -0.138134 0.260635 -0.475418 0.227397 -0.166906 0.858180 -0.004925 0.123827 -0.067101 -0.361529 -0.122845 0.090791 0.115582 0.234159 -0.375194 -0.122423 -0.423297 0.097112 0.039167 0.073321 -0.281375 0.532449 -0.492688 -0.085822 -0.140573 0.046248 -0.144253 0.648412 -0.115871 0.098756 0.182086 0.031777 -0.259674 -0.087846 0.037551 -0.393577 -0.168657 -0.166446 -0.259219 -0.192501 -0.395190 -0.425562 0.367837 0.275945 0.310739 0.153457 0.066348 -0.228203 0.478525 0.203839 -0.330686 0.169913 -0.082886 0.009841 -0.098907 -0.262208 -0.004807 0.041637 0.275379 0.076839 -0.760319 0.315587 0.377948 0.039219 0.106478 0.533483 -0.488993 0.061580 -0.063545 -0.196859 0.589246 -0.083033 0.067038 0.091867 0.073027 0.006064 0.204390
quarter -0.299828 0.018005 0.117609 -0.303908 0.866983 -0.398013 0.491273 -0.230627 -0.545263 0.618058 0.301453 0.813883 -0.007243 -0.659222 -0.085886 0.168642 -0.085201 0.056048 -0.407972 -0.412049 -0.279734 0.152739 -0.000554 -0.238410 -0.724412 -0.126048 -0.151948 0.210898 0.751236 0.265116 -0.129331 0.595597 -0.436676 0.248125 -0.163529 -0.533703 0.011742 -0.405276 -0.379333 -0.434337 -0.295869 0.060993 -0.312853 -0.544199 -0.151078 0.098470 -0.153814 0.026251 -0.278974 -0.450926 -0.112859 0.305385 -0.063265 -0.164662 0.026449 0.199747 0.554329 0.007370 0.101880 -0.299434 -0.209082 0.406846 0.348071 0.510565 0.105283 0.622711 -0.083369 -0.306199 0.539557 0.358533 -0.184625 -0.595136 -0.404582 -0.115990 -0.893019 -0.534054 -0.021156 0.257327 0.125524 0.029071 0.018521 -0.231739 0.760532 -0.452115 0.705607 0.242204 -0.180916 -0.474984 0.403068 0.381807 -0.104900 -0.374414 -0.297460 0.618787 -0.044744 0.365279 -0.025577 0.454039 -0.077004 0.168472
new 0.203259 -0.347247 0.174090 0.048667 0.007353 -0.261211 -0.102986 -0.056576 0.280332 0.481754 0.081619 0.384147 0.116835 -0.459455 -0.223069 0.461211 0.374700 0.441580 0.480908 0.399881 -0.746612 0.572383 -0.114406 -0.259647 0.244727 -0.450209 -0.079118 0.118581 0.607383 -0.110798 -0.436153 -0.029355 -0.545722 0.190433 0.105242 0.106185 0.377348 -0.223574 -0.082849 -0.023742 0.051696 0.127522 -0.117319 0.251464 0.283883 0.207135 -0.312088 0.127390 -0.399103 -0.089111 0.328044 -0.068906 -0.074693 0.270565 0.048445 0.100941 -0.025501 -0.214396 -0.573799 0.157622 -0.888187 -0.107487 0.262779 -0.072142 0.105944 0.109507 0.129010 0.250697 0.562116 0.413782 0.197666 0.172264 0.285461 -0.026851 -0.500753 -0.326727 0.105558 -0.393779 -0.604152 -0.039931 0.475372 0.261341 0.276838 -0.150266 -0.133262 0.190132 -0.067757 0.238491 0.167197 -0.226101 0.053047 0.206392 0.118321 -0.100522 -0.222666 0.030906 -0.230003 0.036578 -0.191900 -0.015504
price -0.088094 0.284727 0.056418 -0.029648 -0.044796 -0.113091 -0.334892 0.213572 0.586753 -0.083805 0.455409 0.827490 0.528514 -0.631548 -0.164660 0.462064 -0.021296 -0.157737 0.528276 0.265142 -0.203392 0.213818 -0.016326 -1.028881 -0.237937 -0.500213 -0.172034 -0.681959 0.118847 0.255750 -0.159961 -0.507429 -0.475208 0.071675 0.250815 -0.598987 0.456127 -0.373077 -0.303178 -0.663485 -0.074010 -0.142971 0.043442 0.291745 0.533006 -0.248036 0.226647 -0.816749 -0.183554 0.309616 -0.153709 0.124159 0.261182 -0.410524 -0.043761 -0.121477 0.213808 -0.620902 0.046299 0.362796 -0.182246 -0.447225 -0.467750 -0.074253 0.122666 0.708149 0.027504 -0.408775 0.228847 0.580356 0.151415 -0.287047 -0.505777 -0.336269 -0.596839 -0.104183 0.044792 -0.097246 -0.471356 -0.703954 -0.555937 0.481935 -0.258707 -0.369520 -0.468727 0.429064 -0.057748 -0.050830 0.100951 -0.207584 0.073479 0.209237 -0.508585 0.282580 -0.704195 -0.121039 0.389746 0.107799 0.039537 -0.139526
agreement -0.225003 -0.197443 -0.105322 -0.034096 -0.162078 0.428479 0.253046 -0.596737 0.354436 -0.248736 0.118274 0.766171 -0.311045 -0.371051 -0.310765 0.210584 0.229403 0.395268 0.482012 0.335732 -0.468215 -0.410682 -0.016924 -0.306951 -0.197662 -0.092322 -0.258951 0.536172 0.458365 0.097873 -0.231140 -0.053948 -0.048510 -0.020898 -0.156206 0.016205 0.232949 0.171637 -0.039935 0.617255 -0.609233 0.283143 -0.176861 -0.387399 0.190755 -0.014738 -0.573467 -0.512411 -0.231543 0.414128 0.172061 0.292195 0.042396 0.088617 -0.329829 -0.313371 0.012469 0.125064 0.018155 -0.060069 0.091437 -0.077470 -0.049834 0.337191 0.411056 0.611685 0.369107 0.235350 0.667985 0.560169 0.499339 0.632719 0.205965 -0.449902 -0.028872 0.203285 -0.427061 -0.261255 -0.007108 -0.743895 0.183326 0.264834 0.145613 -0.474885 0.203225 0.836932 -0.396734 0.766207 0.261277 -0.055987 0.351276 0.049340 -0.471313 0.259230 -0.128695 0.114855 0.296545 0.113934 0.006184 -0.033616
tax -0.198814 -0.144342 0.527757 -0.238013 -0.170084 -0.250034 0.435497 0.430522 -0.074880 -0.090453 -0.109697 0.548013 -0.296913 -0.421636 0.651919 0.110632 0.727066 0.258082 0.161092 0.301077 -0.075594 0.199631 -0.595151 -0.233808 -0.543083 -0.633960 0.013724 -0.026182 0.168977 0.180479 -0.366204 -0.205908 0.099471 0.332177 0.022613 0.106260 0.974777 -0.288469 -0.401148 -0.487808 0.224287 -0.145648 -0.636728 -0.876490 -0.143685 0.159876 -0.177954 0.218917 0.127099 -0.535496 0.071782 0.316583 -0.730055 -0.178929 -0.375753 0.052477 0.304648 -0.259255 0.308388 -0.168554 0.466316 0.295314 -0.485046 -0.721622 -0.264328 0.926585 0.265763 -0.236425 0.381055 -0.484851 -0.510291 -0.281735 -0.334333 0.426175 0.139389 -0.273556 -0.181333 -0.178086 -0.713895 0.373324 -0.007878 0.248125 0.427647 -0.275882 0.231944 0.011641 -0.271660 -0.140345 0.651778 0.371079 -0.359305 -0.707344 -0.560231 0.094528 0.239541 0.633822 0.671067 -0.464205 -0.129741 -0.384158
government -0.273363 -0.333637 -0.198368 -0.035837 -0.056262 0.303712 0.167357 -0.083083 -0.155994 0.312935 0.419290 0.465856 -0.352213 -0.509619 -0.463879 0.451697 0.619023 0.390051 0.239354 0.021651 0.226382 -0.116057 0.241418 -0.224996 -0.300306 -0.356125 -0.013258 -0.223872 0.274948 0.410692 -0.326135 -0.290026 -0.991907 0.070932 -0.085559 0.192832 -0.183371 -0.363240 0.063153 -0.661182 0.018998 0.053381 0.163540 0.176455 0.334730 0.238503 0.168608 -0.278914 -0.551061 -0.138831 0.138769 0.035479 0.743737 0.370807 0.013551 0.034627 0.052663 -0.151414 -0.109839 0.401854 -0.076651 -0.007569 -0.366851 -0.600687 0.127985 -0.049963 -0.025337 -0.057896 0.332627 0.074336 0.247903 0.166754 0.661228 -0.416441 0.070199 0.151640 0.102725 -0.606031 -0.254249 -0.030532 0.219671 0.189662 0.104520 -0.343253 -0.322865 -0.103262 -0.460802 0.432361 0.735954 0.100924 -0.387777 0.350165 0.100279 0.048760 0.334725 -0.113969 -0.097779 0.232518 -0.473144 0.177093
group 0.087035 -0.720406 0.301503 -0.156037 -0.680629 0.099053 0.556551 0.015998 0.311270 0.260126 0.891958 0.051434 -0.149444 -0.519544 0.204969 0.469022 0.546192 -0.013899 0.185804 -0.632779 -0.043792 -0.069329 0.128292 -0.326147 -0.414643 0.100597 -0.123917 0.358220 -0.018677 -0.049171 -0.306557 0.370176 -0.103849 0.216117 0.093234 0.179555 0.080379 -0.046906 -0.065195 0.518371 0.134985 0.133308 -0.401226 -0.496701 0.585723 0.163223 -0.073209 0.404818 -0.062352 0.221996 0.067024 -0.550435 0.176671 -0.551007 -0.523370 -0.184986 0.016976 -0.005454 0.094743 0.286580 0.313857 -0.198486 -0.699957 -0.081729 0.203306 0.126483 0.591899 0.256653 0.709857 -0.000491 -0.201968 -0.475393 0.498180 -0.206252 -0.457138 0.377546 -0.069458 -0.211759 -0.739821 -0.299055 -0.180592 0.665720 -0.090476 -0.779175 0.136326 0.045178 -0.160804 -0.155604 -0.221197 0.028989 0.204567 -0.093780 0.229371 0.161268 -0.296050 -0.258782 0.022848 -0.226118 -0.186824 0.120530
week 0.077726 0.296803 0.188436 0.372989 0.588329 -0.358261 -0.098649 0.289956 0.050033 0.126115 0.255469 0.368795 -0.723224 -0.179392 0.167427 0.785656 0.313177 -0.101173 0.172621 -0.515497 0.090865 0.220678 0.251237 -0.354539 -0.285769 -0.429256 -0.042847 -0.087350 0.421130 0.519125 0.350943 -0.121008 -0.420718 0.278282 -0.361438 -0.674485 -0.153219 -0.335398 -0.355034 0.617437 -0.480839 0.148520 0.315621 -0.438403 0.451236 -0.289045 -0.808531 -0.469773 0.115644 -0.536967 0.208398 -0.244281 -0.475090 -0.015746 0.469983 0.389238 -0.088060 0.575175 -0.594958 -0.116703 0.073242 0.648910 0.322570 -0.084812 -0.261655 0.098693 -0.087330 -0.048360 0.584179 -0.016341 -0.202653 0.004142 0.423512 -0.139468 -0.202936 -0.244400 0.080711 -0.137097 0.057855 0.188483 -0.127861 -0.048934 -0.341646 -0.164977 0.007075 0.097789 0.012249 0.189498 0.219407 -0.371810 -0.395488 0.151960 -0.291137 0.633516 0.081566 0.336283 -0.215602 0.039273 -0.622965 -0.134131
over -0.009899 0.186624 0.084999 -0.073196 -0.273189 -0.274619 -0.230178 0.014116 -0.088834 0.588937 0.023948 0.559235 -0.169665 -0.392691 -0.389622 0.266520 0.326822 -0.480330 0.017757 -0.055276 -0.238199 0.082366 0.065967 0.103457 -0.359790 -0.283535 0.232284 -0.520634 0.512809 0.245075 0.029147 -0.040225 -0.177265 0.154619 0.134258 -0.389313 0.116241 -0.180547 -0.081999 -0.029167 0.047043 0.248924 0.214030 -0.432460 0.915426 0.061085 -0.227348 -0.614528 -0.243333 -0.075691 0.287408 -0.027483 -0.096731 -0.055925 -0.196015 -0.439597 0.114578 0.027678 -0.182534 0.042801 0.286776 0.006350 0.102930 -0.161377 0.129302 0.261331 0.199839 -0.264150 0.344068 0.258321 -0.182291 -0.000374 0.579051 -0.246093 0.129027 0.155474 -0.411336 0.048600 -0.359648 -0.093010 0.580345 0.162136 -0.039080 0.070253 0.487188 0.171967 -0.177259 0.033343 0.743657 -0.050066 -0.172349 0.663359 -0.125863 0.532811 -0.029848 -0.715430 0.373850 -0.042961 -0.295307 0.238322
rate -0.471614 -0.449966 -0.039486 -0.531659 0.101850 -0.065644 -0.603906 0.270038 -0.171606 0.421392 0.670648 0.200877 -0.167476 0.119993 0.110029 0.479391 0.506168 -0.005611 0.571468 0.764437 -0.062274 0.486014 0.014356 -0.360427 0.003730 -0.460339 -0.187421 -0.306259 0.035277 0.714447 0.007919 0.069067 -0.316038 -0.216683 0.024786 -0.492782 0.072852 -0.088536 0.259540 -0.745146 0.315731 0.241617 0.051111 -0.398332 0.427068 0.246442 -0.311147 0.107112 -0.182429 -0.587083 -0.164531 0.293549 -0.064064 0.050562 -0.282905 0.313298 0.244874 0.213259 0.211134 -0.039143 0.043376 -0.415506 -0.325586 -0.810469 -0.061591 0.336228 -0.251508 -0.686494 0.200398 0.010995 0.367205 0.229609 -0.210028 -0.301318 -0.668932 0.322746 -0.248923 0.437103 -0.169603 -0.263887 0.257764 0.093519 0.285060 -0.630394 -0.359526 0.556245 -0.630458 -0.329001 0.438113 0.218846 0.075824 0.367770 -0.313845 -0.076509 -0.159684 0.568143 -0.237242 -0.039393 -0.070003 -0.841413
bank -0.671627 -0.003316 0.570627 0.264483 0.258256 -0.176446 0.182406 -0.617731 -0.406739 0.109606 0.806404 0.283185 -0.601557 -0.556255 0.043044 0.081448 0.570007 0.167204 0.320451 0.927437 0.400718 0.170834 0.409756 -0.878052 0.380734 0.092916 -0.214834 -0.302014 0.165499 0.188225 -0.418010 -0.003331 -0.632209 0.196047 -0.185364 0.027722 0.011960 -0.180983 0.112387 -0.032379 -0.173413 0.171803 0.300598 -0.496165 0.319401 0.374075 -0.115772 0.188780 -0.218660 -0.420556 0.579316 -0.014988 0.214902 -0.154527 -0.209688 0.330670 0.412471 -0.199318 -0.255275 -0.225468 0.366908 -0.283573 -0.309714 -0.298145 0.222230 0.309370 -0.049028 0.304043 -0.064585 -0.186928 -0.163736 -0.284051 0.444586 -0.229990 -0.259016 0.477638 -0.208067 0.244748 -0.347544 0.021597 -0.389603 0.498013 -0.061340 -0.286634 -0.526596 0.609267 -0.201946 -0.368001 0.106413 0.572157 -0.393530 -0.210940 0.305358 0.385436 -0.065737 0.189306 -0.562823 0.273559 -0.316156 -0.048432
common 0.207741 -0.395897 0.371754 0.085288 0.050436 0.067081 0.317094 -0.573461 0.203053 0.228258 -0.049530 0.193271 -0.053926 -0.474559 0.178445 0.469362 -0.174123 0.118892 0.370177 0.020281 -0.451390 -0.214684 0.083142 -0.891644 0.313728 -0.547810 -0.403603 0.100278 -0.169212 0.278628 -0.521244 0.310342 -0.471669 -0.296593 0.372034 -0.341226 0.997275 -0.015623 -0.738116 -0.031870 0.092881 0.167468 -0.613601 0.352352 0.249829 0.279637 -0.232869 -0.277005 0.203998 -0.003975 0.288603 -0.297851 -0.683164 -0.301314 -0.576889 -0.481641 0.168222 0.328574 0.327739 0.330061 0.315873 0.089407 -0.150627 0.050898 0.172179 0.320671 -0.238894 -0.040238 0.064272 0.378705 0.010079 -0.022387 0.110596 -0.467872 0.023448 0.760740 0.337010 0.328037 0.005865 -0.037242 0.463527 0.154165 0.486680 -0.068209 0.362157 0.531811 0.348321 0.047443 0.859950 -0.169104 -0.048546 0.033117 0.073667 0.888469 -0.609582 0.384898 -0.397097 0.106771 0.352504 -0.175192
sales 0.350299 -0.112636 -0.146988 -0.016367 -0.052896 0.040492 0.077153 -0.490308 -0.209594 0.180061 0.242133 0.773779 -0.222501 -0.177896 -0.104948 0.144443 0.222569 -0.169068 -0.093833 -0.162899 -0.177695 -0.024595 -0.115081 0.301828 0.049659 0.269316 -0.119903 0.384102 0.543815 0.184614 -0.254156 0.145231 -0.414971 0.196558 0.158959 -0.316711 0.040508 -0.424175 -0.266131 -0.372219 -0.090645 -0.170686 -0.413127 -0.376150 0.253166 0.039419 -0.105806 -0.041184 -0.311854 0.045410 -0.152249 0.240468 -0.071765 0.062602 0.109028 0.069575 0.789669 0.317705 0.094275 -0.127479 -0.205732 -0.338920 -0.150118 -0.322218 -0.166210 0.595042 0.403765 -0.125040 0.116038 0.052104 -0.230671 -0.756309 0.143953 -0.453084 -0.522082 0.230861 -0.081495 -0.051204 -0.442282 -0.139645 0.106151 -0.075808 -0.042755 0.119224 0.023886 -0.177431 0.007933 0.196066 0.441474 -0.328296 0.309390 -0.176795 -0.688171 0.637989 -0.378950 -0.063719 0.311094 0.193530 -0.159797 0.070677
five -0.389446 -0.571792 0.269743 -0.131584 0.034028 -0.180833 -0.264325 -0.035984 -0.017423 0.546291 -0.361101 0.686838 -0.151032 -0.385070 -0.169237 -0.080647 0.552698 -0.048602 -0.027284 -0.024406 -0.281878 0.294244 0.424123 -0.034094 -0.188135 -0.266528 -0.128806 -0.248449 0.130098 0.025625 -0.048517 0.033027 -0.666575 -0.254446 -0.011019 -0.023513 0.291994 -0.416376 -0.131848 -0.439620 -0.242337 0.006769 -0.076382 0.254768 0.069516 0.310105 -0.018351 -0.106819 0.464829 0.269276 -0.180532 -0.224165 -0.287511 0.062936 0.039311 0.173437 0.199378 0.255612 -0.435573 0.063300 -0.305894 -0.016938 0.248477 -0.701469 0.161881 0.238358 -0.107226 0.262898 0.759055 -0.127862 -0.041290 -0.092506 0.351590 -0.034094 -0.127130 0.393382 0.169339 -0.051271 -0.883147 -0.268381 0.025392 0.051600 -0.121558 -0.296456 0.641222 0.183469 0.116787 -0.146365 0.323465 0.093352 0.066653 0.345384 0.108210 0.182112 -0.025215 -0.083747 -0.306892 -0.190902 -0.055984 -0.402766
rose 0.529609 0.136444 0.472336 -0.215693 0.619618 -0.222121 -0.298914 0.107305 -0.353228 0.732975 0.435474 0.347673 0.329359 -0.520342 -0.267078 -0.228070 0.591226 0.374664 -0.025859 0.282276 0.627624 -0.024369 0.544232 -0.391589 0.471754 -0.410603 -0.149638 0.346037 0.220136 -0.160645 0.412008 0.287524 0.113539 -0.450199 -0.204723 0.114681 -0.171082 -0.192527 -0.721980 0.202867 -0.604933 0.068518 -0.560830 -0.865402 0.313625 -0.361565 0.533466 -0.228720 -0.446440 -0.502642 -0.074849 -0.224377 -0.135249 -0.331019 0.234629 -0.007239 0.004402 -0.054780 0.175347 -0.352048 -0.235349 -0.211716 -0.274607 -0.909375 0.401112 0.670219 -0.086524 -0.232418 0.375425 -0.090721 0.033200 -0.787187 0.639469 -0.718446 -0.489140 -0.086886 -0.259579 -0.129091 0.242258 -0.265255 -0.251584 -0.235542 -0.167542 -0.866978 0.799666 0.136322 0.137493 -0.110359 0.727436 -0.816474 0.567176 -0.317594 0.088850 0.523893 -0.201274 0.094179 -0.048076 0.306833 -0.421967 0.144069
today 0.340435 0.293754 0.516817 0.253265 0.224784 -0.257839 0.098918 0.394434 0.025348 -0.012771 0.216587 0.467415 -0.638912 -0.352274 0.604693 0.336834 0.574098 -0.086124 0.329636 -0.227564 -0.450675 0.432018 0.291939 -0.469604 -0.059813 -0.822949 -0.062588 0.038832 0.448479 -0.068570 -0.333221 -0.200311 -0.159768 -0.036997 0.105977 -0.379546 -0.148050 0.007046 0.240400 -0.324127 -0.161912 0.046761 0.038448 -0.387637 0.463332 -0.412588 0.047245 -0.294382 -0.274340 -0.145096 0.110882 -0.275137 -0.103331 -0.084903 0.466642 -0.298763 -0.370012 0.022558 -0.443487 0.089559 -0.026849 0.157808 0.239904 -0.259840 0.126552 0.104588 0.511989 0.331285 -0.334571 -0.129044 -0.358698 -0.141806 0.060369 -0.734686 0.099899 0.138677 0.188875 0.000309 -0.114372 0.283034 -0.251123 -0.118528 -0.066023 -0.130733 0.181432 0.576076 -0.102413 0.107614 -0.176816 -0.205204 -0.482518 0.018453 -0.344871 0.327093 -0.442050 -0.180382 0.035469 0.059646 -0.479877 -0.325543
increase 0.167310 0.103001 0.344097 -0.268364 0.366325 0.118836 -0.121780 0.370009 -0.406828 0.730136 -0.183127 0.522605 -0.087776 -0.840639 -0.129096 0.039046 0.491858 0.149327 -0.241216 0.648833 -0.057795 0.333788 0.340987 -0.536972 -0.400322 0.009786 -0.063268 -0.402295 -0.007590 -0.347338 0.252074 -0.062830 -0.452950 -0.278416 0.197095 -0.254713 0.150673 -0.202682 0.239802 -0.304613 0.059401 -0.095401 -0.363310 -0.404256 0.276519 -0.130859 -0.198545 -0.133492 -0.262500 -0.415686 0.218384 -0.381773 0.107304 -0.075042 -0.064633 -0.039289 0.100052 -0.278117 -0.331482 -0.200032 -0.196855 -0.172661 -0.541207 -0.173538 -0.303598 0.413602 0.400241 -0.559517 0.181678 0.460109 -0.043257 -0.057424 0.652203 -0.370617 -0.325709 0.121857 0.287562 -0.541469 -0.252526 -0.074614 0.155714 0.081424 0.065874 -0.455206 0.653266 0.144652 0.104925 -0.223683 0.353658 -0.139183 0.156412 -0.314324 -0.543006 0.309161 0.033221 0.028204 -0.257336 0.251311 0.040707 -0.034196
interest -0.182155 -0.216219 0.189682 -0.131061 0.312710 -0.730843 0.322908 -0.285934 0.394227 0.324023 0.550186 0.944521 0.038517 -0.275628 -0.064201 0.215441 0.946457 0.142985 0.427655 0.464931 0.066280 0.036292 0.320733 -0.668057 0.032643 -0.024911 -0.403221 0.139288 -0.006964 -0.203075 -0.109098 0.294601 0.078974 0.355040 0.161635 -0.058828 0.584010 -0.229065 -0.492676 -0.155753 -0.100568 0.357588 0.378506 0.031019 0.147107 0.650371 -0.681945 0.009429 0.079519 -0.310835 0.520730 0.336500 0.175195 -0.082414 -0.330552 -0.241049 0.650732 0.028380 0.101613 -0.223164 0.476457 -0.320695 -0.412803 0.118317 0.352088 0.220594 0.312607 -0.960355 0.282912 -0.246974 0.204572 0.316659 0.005754 0.290160 -0.194208 -0.205388 -0.335113 0.217645 -0.377418 -0.155232 0.093373 -0.029307 -0.173155 0.079170 -0.088437 0.360312 -0.128284 -0.397189 -0.051191 0.112532 -0.454883 0.363266 -0.508923 0.222243 0.419752 0.505559 -0.185942 -0.221809 0.097408 -0.710284
production -0.200375 -0.376607 -0.417757 -0.013979 0.115542 0.095712 -0.243512 -0.476463 -0.037216 0.321637 0.663783 0.465115 0.151027 -0.472794 0.023905 0.295867 -0.155696 -0.217109 0.593280 0.053468 -0.160243 0.135745 0.030124 -0.383627 -0.538366 -0.355881 0.114178 -0.080959 0.132739 0.408827 -0.069501 0.474012 -0.545217 0.354115 0.054118 -0.212278 -0.377362 -0.333497 0.004855 -0.725253 -0.170836 0.260574 -0.329215 -0.302644 0.039073 -0.317282 0.244959 0.370264 -0.604940 -0.238928 -0.033456 0.287544 -0.636279 0.192228 -0.228817 -0.255742 -0.087100 -0.060796 -0.254701 0.046103 0.090702 -0.497816 -0.297918 -0.386451 -0.383718 0.503063 -0.062068 -0.272120 0.353911 0.128742 0.104220 0.208068 0.259935 0.170413 -0.788247 0.168742 0.115732 -0.627615 -0.241074 -0.454748 -0.385477 0.304556 -0.127713 -0.138431 0.532674 0.181752 0.015148 0.077694 0.058326 0.104667 0.049814 0.620556 -0.637818 -0.289142 -0.037127 0.049282 0.783871 0.573505 -0.109868 -0.052394
meeting 0.014019 0.302497 0.071761 -0.012101 -0.116499 0.259666 0.175566 -0.253209 -0.270891 0.092229 0.572693 0.330290 -0.670749 0.173646 0.417634 0.399545 0.561122 0.185751 0.221920 -0.290787 -0.317546 0.452069 0.065123 -0.770087 -0.408420 -0.349087 -0.183244 0.255242 -0.119193 -0.318265 -0.405260 -0.256674 -0.523919 -0.133605 -0.348024 -0.649139 0.316271 -0.386493 -0.103215 0.533994 0.056449 -0.196319 0.136761 -0.716210 -0.175280 0.229558 -0.236460 -0.161828 -0.299811 0.272557 0.050551 0.065891 0.229625 0.621236 0.051325 -0.116659 -0.330608 0.149452 0.343629 0.376380 0.171715 0.501640 -0.287794 -0.014223 -0.302607 -0.121040 0.315494 0.197238 0.450326 0.504439 0.394399 -0.350672 0.523652 -0.166042 -0.249972 0.439921 -0.323820 -0.848040 -0.147777 -0.097908 -0.104320 -0.170180 -0.121875 -0.412647 -0.038283 0.347436 -0.292611 -0.446347 0.456446 0.122637 0.209828 0.204912 -0.435262 0.087642 -0.500158 0.509407 0.347967 -0.091356 0.084109 -1.382972
end 0.164077 -0.106232 0.109412 -0.216997 -0.028501 0.108301 -0.054342 -0.640817 -0.304850 0.389949 0.051277 0.534652 -0.166572 -0.073734 -0.273315 0.153497 0.528266 -0.228755 -0.052419 0.268204 0.303555 0.597899 -0.223152 -0.631993 -0.016991 -0.516083 0.057752 -0.258115 -0.084074 0.242147 -0.206688 -0.086665 -0.259635 -0.253713 -0.214728 -0.153399 0.055075 -0.379922 0.468084 -0.257529 -0.287547 -0.168344 0.159128 -0.116196 -0.156534 -0.372758 -0.061689 0.408101 0.463302 -0.008331 -0.414487 -0.042751 -0.112861 0.606679 0.194867 -0.190257 0.211560 0.417683 0.180348 -0.437734 0.337446 0.182600 -0.585532 -0.346825 -0.219769 0.384504 0.519746 -0.034910 0.617332 0.373547 0.143217 -0.283579 -0.244720 -0.292039 -0.379612 0.168021 -0.017122 -0.257277 0.494772 -0.316931 0.138274 0.197712 0.190666 -0.836665 0.250451 0.467445 -0.346070 0.138881 0.271583 0.021658 -0.504937 0.071958 0.109152 0.521038 -0.352974 -0.180815 -0.056998 0.245467 -0.319804 0.372486
month 0.037455 -0.169777 -0.009654 0.107690 0.280005 -0.096156 0.016900 -0.003311 -0.181608 0.130258 0.298258 0.544805 -0.402545 -0.527799 -0.108524 0.209241 0.593654 0.071541 0.555291 0.038550 0.158677 0.465446 0.752157 -0.226498 -0.470260 -0.304835 -0.126192 -0.338550 0.642490 0.519420 0.007235 0.051141 -0.438069 0.023508 -0.542027 0.003356 0.200787 -0.105670 -0.237024 0.112949 -0.096847 0.085950 0.138218 -0.588378 0.330184 -0.575377 -0.488826 -0.090181 -0.006336 -0.304780 0.023866 -0.211677 -0.660959 -0.266718 0.042620 0.260952 -0.298794 0.477524 -0.237773 -0.369427 0.115641 0.208715 0.159734 -0.080995 -0.023499 0.587824 0.062370 -0.040918 0.722279 -0.003684 -0.168633 -0.101791 0.031825 -0.302277 -0.155247 0.018788 -0.240651 -0.040454 -0.057915 0.249920 0.121953 -0.021139 -0.301654 -0.184527 0.323082 0.164849 -0.560952 -0.309099 0.050875 -0.218461 -0.155455 0.313277 -0.582987 0.433257 0.099715 -0.138471 0.269526 0.062991 -0.565086 -0.241549
foreign -0.379609 -0.074618 0.368248 0.335351 -0.063590 -0.148709 0.646272 -0.394527 0.381970 -0.066527 -0.100301 -0.178255 -0.179228 0.243165 -0.396197 0.339173 0.798118 0.130226 0.322626 0.356615 -0.111692 0.483925 -0.188337 -0.440354 0.315533 -0.072779 0.508918 -0.032851 0.223600 0.568449 -0.538083 0.139778 -0.287384 -0.419577 -0.291967 0.205140 0.049189 -0.521573 -0.197419 -0.286077 -0.405249 0.502650 0.344253 -0.201151 0.405784 -0.267532 0.234239 0.472867 -0.280368 -0.631657 0.231144 -0.336098 0.081416 0.107968 -0.228809 0.287128 0.206058 0.012448 -0.274865 0.212691 0.087107 0.029892 -0.482785 -0.676227 -0.015449 0.750182 0.606994 -0.200032 -0.043695 -0.108756 -0.082809 -0.177165 0.395235 -0.286126 -0.299606 0.299363 -0.497127 -0.394087 -0.173847 0.179849 0.002228 0.419782 -0.258522 -0.335833 -0.077606 0.428983 -0.182135 -0.447434 0.650594 0.237824 0.181343 -0.039719 -0.251587 0.464472 0.532280 0.162679 -0.359141 -0.007164 -0.499810 -0.220719
sale 0.178111 -0.079596 0.150545 0.099474 -0.225199 0.251527 0.357581 -0.726851 0.328324 0.142196 0.332030 0.874171 -0.879460 -0.346780 0.224931 0.757657 0.010470 0.217978 -0.307835 0.424856 0.078067 -0.226250 -0.111854 -0.313017 -0.201846 -0.355981 -0.060781 0.316106 0.766550 0.052718 0.307295 0.144529 -0.333609 0.167995 0.322176 0.232093 0.671311 -0.684675 -0.087169 0.033474 0.108501 -0.322459 -0.318414 -0.203619 -0.497802 -0.022467 -0.197118 0.111531 0.071194 0.131753 -0.009674 -0.447330 -0.035485 -0.109490 -0.447296 -0.174531 0.281152 0.146858 0.301510 0.064822 -0.075087 -0.066674 -0.112922 -0.361342 0.349248 0.009485 0.580436 -0.534406 0.382760 0.110957 0.011926 -0.333580 -0.065289 -0.734304 -0.048466 0.363893 -0.308301 -0.147176 -0.204524 0.136240 0.019159 0.076406 0.551928 0.200382 0.423494 0.177009 -0.397605 0.006423 0.169313 0.014695 -0.496729 -0.307119 -0.037223 0.407295 0.215657 -0.073197 0.224366 -0.271208 0.018077 0.055050
includes 0.367893 -0.221283 0.315574 -0.322099 -0.219880 -0.210488 -0.618216 0.367929 -0.112726 -0.382014 0.633202 0.791875 0.070278 -1.046345 -0.080974 -0.356717 0.131164 -0.579042 -0.243769 0.225651 -0.111113 -0.384213 -0.345761 -0.583464 -0.408322 -0.028962 -0.493964 0.503808 0.159259 -0.261000 0.451845 0.583836 -0.168991 0.160354 -0.441604 -0.002107 1.111021 -0.582092 -0.753362 -0.270321 -0.167171 0.419207 -0.937851 -0.534208 -0.150854 0.199144 0.568787 0.401970 -0.143067 -0.339954 0.220457 -0.616609 -0.317735 0.248972 -0.225475 -0.598411 0.156373 0.504890 0.691172 -0.112828 0.293397 0.538376 -0.114846 -0.649943 0.544003 0.677472 0.279136 -0.088819 0.863335 -0.045147 0.092118 -0.326854 0.015262 -0.159648 -0.190908 -0.007605 -0.062393 -0.198195 -0.575920 -0.266546 0.207992 0.136963 0.527693 -0.453483 -0.089579 0.170336 0.302511 -0.263334 0.600185 0.390304 0.014783 -0.508190 0.460073 0.798206 0.673780 0.132538 0.300515 -0.514478 -0.374092 -0.110988
rise 0.061055 -0.221616 -0.013410 -0.343195 0.357208 0.002596 -0.009453 -0.069483 -0.532521 0.478067 -0.215710 0.517999 -0.178042 -0.227046 0.014157 0.318950 0.615303 0.281825 -0.112459 0.869804 0.570994 -0.130997 0.646990 -0.221898 -0.125743 -0.234687 0.082780 0.184555 0.233819 0.334715 0.453374 -0.097759 -0.386709 -0.275094 0.330383 -0.525333 -0.088986 -0.253306 -0.284558 -0.155626 -0.118831 0.011783 -0.645255 -0.770190 0.296166 0.056663 0.122807 -0.307752 -0.249291 -0.361191 0.246959 0.295622 -0.099039 -0.271853 0.173076 0.198271 0.391596 -0.386036 0.059001 -0.470419 -0.236820 -0.366813 -0.086605 -0.609034 -0.244997 0.239910 0.159758 -0.204589 0.725484 -0.064755 0.163392 -0.633189 0.269680 -0.334170 -0.659389 -0.057261 -0.196399 -0.475870 0.027612 -0.131621 -0.328824 -0.201118 -0.065901 -0.823339 0.507585 0.093510 -0.144555 -0.076698 0.621474 -0.246112 0.010615 0.069886 -0.690051 0.323275 -0.110099 0.056326 0.113236 0.279291 -0.217792 -0.012923
board 0.085512 -0.215982 0.014677 0.061307 0.123176 0.094865 -0.028753 0.453748 -0.494515 0.380698 -0.076506 0.464408 -0.655609 -0.515922 0.135797 0.627613 0.111529 0.111809 0.039085 -0.331898 -0.112196 0.293957 0.208893 -0.639149 -0.248460 0.003761 -0.647535 0.082884 0.072482 0.194451 -0.391699 0.306309 -0.942496 0.391082 -0.327791 -0.048167 0.464513 0.054146 0.312715 0.213004 -0.027668 -0.046367 -0.122626 -0.090040 0.079909 0.433559 0.057092 -0.218978 -0.176416 0.311802 0.294549 -0.272090 0.025433 0.182199 -0.044986 -0.630472 -0.454368 0.271737 0.119409 0.507076 0.385658 0.340231 -0.530488 -0.017176 0.260223 -0.130470 -0.044515 0.090491 -0.205648 0.743534 0.317993 0.232121 0.231590 -0.418981 -0.127034 0.890414 -0.530657 0.166082 0.018872 -0.112968 -0.279681 0.172523 0.102475 -0.303386 0.693645 0.275747 -0.094746 0.004214 0.074898 0.182931 0.377067 0.154948 0.344091 0.576530 -0.747499 0.210894 -0.075535 -0.258442 0.368060 -0.558075
cash 0.096725 -0.226927 1.054108 0.418508 0.287991 -0.360069 0.151654 -0.310870 0.020571 0.412763 0.061860 0.732463 -0.173113 -0.246879 -0.108195 0.255449 0.156700 -0.002357 0.149623 0.200613 -0.342072 0.514700 -0.193078 -0.213130 -0.196945 -0.002567 -0.424436 0.225793 0.273223 -0.150252 -0.132958 0.066433 -0.503199 0.249261 0.234066 -0.141739 0.556418 0.012727 -0.396767 -0.044584 -0.068255 0.225732 -0.473763 0.328636 0.366659 0.278887 -0.343850 -0.301821 0.011314 0.093846 0.448428 0.045388 -0.365025 -0.399693 -0.246373 -0.382646 0.538875 0.014716 -0.387204 0.548001 0.119450 -0.259129 -0.352230 -0.005728 -0.079247 0.532879 -0.253359 -0.258727 -0.051894 0.141644 0.404966 -0.218092 -0.007578 -0.453118 -0.570826 -0.402080 -0.264127 0.175036 -0.021977 0.116336 -0.091049 -0.223071 0.443264 -0.178032 0.022521 0.359158 0.330446 0.058125 0.328324 0.133296 -0.286819 -0.232264 -0.351780 0.864226 0.076111 0.347464 -0.579647 -0.097875 0.231424 0.040038
made 0.162563 -0.551108 0.508186 -0.017943 -0.515349 -0.021270 -0.136928 -0.098024 -0.204763 0.190647 0.135384 0.556828 -0.352001 0.022395 -0.016768 0.164673 0.330655 0.143480 0.221739 -0.067099 -0.193922 0.121942 -0.165322 0.052301 -0.084968 -0.488676 -0.007072 0.272096 0.369168 -0.210849 -0.325742 -0.244251 -0.147131 0.192587 -0.296700 -0.262237 0.164343 -0.060052 0.072280 -0.387653 -0.513332 0.266647 0.241739 -0.183796 0.327832 0.013885 -0.203620 -0.169626 -0.345755 -0.056145 0.433463 -0.287225 0.114383 -0.620902 0.307453 -0.373570 0.055250 -0.227971 0.109806 0.322518 0.102511 -0.098739 -0.519641 -0.236239 -0.295950 0.435563 0.192884 0.402470 0.549119 0.224299 -0.067450 -0.067689 0.258741 -0.009929 -0.192798 0.241838 -0.462668 0.083091 0.068390 0.267589 0.038217 0.001547 0.119606 -0.429756 0.174877 0.352175 0.101387 -0.221331 -0.152878 0.091479 -0.376368 0.148143 -0.128136 0.335770 -0.025053 0.353335 -0.180069 -0.120071 0.220336 -0.029419
current -0.092287 -0.641379 0.366848 0.105800 0.342287 0.394096 -0.049405 -0.042831 -0.019906 -0.258730 0.360427 0.357304 -0.117011 -0.391584 -0.338792 0.369271 0.378677 -0.163529 0.370755 -0.279967 -0.194527 0.629243 0.115573 -0.329553 -0.531504 -0.733810 0.481396 -0.082914 0.140118 0.413509 -0.114847 -0.160950 -0.285393 0.015883 -0.005856 -0.367533 0.092302 0.060868 0.231348 -0.205421 -0.281676 0.405408 -0.126198 -0.052429 0.169655 0.465678 -0.018570 0.288893 0.028876 0.201398 -0.097612 -0.077493 -0.112668 0.318653 -0.314332 0.106685 0.293815 -0.044941 -0.144824 -0.030901 -0.009945 -0.025494 -0.177050 -0.362007 -0.129545 -0.026320 0.157234 -0.129327 0.228197 -0.164617 0.504926 -0.438137 0.019436 0.205256 -0.394744 0.375447 -0.399169 -0.482636 -0.592786 -0.014832 0.492470 0.552945 -0.015800 -0.269401 0.006819 0.728259 0.305511 -0.296123 0.446271 -0.582090 -0.194300 -0.174773 -0.193825 -0.102078 0.026205 -0.089917 0.044249 0.168715 -0.220529 -0.148555
gain 0.503501 0.205956 0.310271 -0.215140 0.133644 0.147600 0.527256 -0.355528 -0.034550 0.014374 0.192591 0.888969 0.069450 -0.764024 -0.397401 0.248701 0.118636 -0.096745 -0.440472 0.496776 0.351370 -0.608921 0.018452 -0.362608 -0.115896 -0.116404 -0.049793 -0.368226 0.470541 0.386153 0.318430 0.341815 -0.404556 0.225084 0.208791 -0.420171 0.996069 -0.210355 -0.107971 -0.395854 -0.065160 0.096554 -0.579663 -0.500487 -0.275332 -0.036017 -0.159002 0.095284 -0.273390 -0.621769 -0.374235 -0.044192 -0.198203 -0.107685 -0.225725 -0.162655 0.510554 0.345354 0.879273 -0.077460 -0.135200 0.297677 -0.012132 -0.156478 -0.437140 0.395784 0.085644 -0.314585 0.617993 -0.168732 -0.187694 -0.141825 -0.369573 -0.543607 -0.445989 0.066328 -0.132876 -0.191376 -0.731484 0.160766 0.131125 -0.008460 0.585048 -0.239193 0.076028 0.078893 0.196692 -0.368509 0.801418 0.207743 -0.006693 -0.167797 -0.173658 0.808803 0.311823 0.606555 0.680429 -0.417072 -0.150301 -0.090663
investment -0.046850 -0.107514 0.149978 -0.084064 0.225873 0.004332 0.564515 0.390999 0.366796 0.702718 0.286796 0.289811 0.041173 -0.324239 0.281557 0.389882 0.569835 0.124917 0.303974 -0.282100 -0.149208 -0.080697 -0.080423 -0.252946 0.118043 -0.196157 0.076307 0.649674 -0.286465 0.142707 -0.122661 0.385700 -0.112316 -0.540335 0.038562 -0.151969 0.773317 -0.136322 0.010645 0.085389 0.134949 0.237164 -0.044904 -0.334666 -0.318082 0.291084 -0.179080 -0.002813 -0.244920 -0.246267 0.321470 -0.369081 0.220878 -0.044482 -0.162466 0.024740 0.516143 0.482977 -0.174643 0.043230 -0.050244 -0.308950 -0.566890 -0.022333 0.191915 0.134854 0.346449 -0.092264 0.301363 -0.121797 -0.237810 -0.426322 -0.113584 -0.023833 -0.553687 0.330979 0.234026 -0.138606 -0.834166 -0.230897 0.257007 0.693898 -0.071075 -0.061445 -0.171684 -0.222642 0.243730 -0.398529 0.714650 0.669458 -0.313038 -0.101435 0.190879 0.597921 0.367470 -0.045004 -0.129640 0.109697 0.254245 -0.067664
official 0.196121 0.122068 0.009042 -0.335562 0.641908 0.014203 0.078270 -0.022074 -0.022731 -0.203568 0.026358 0.175171 -0.477524 -0.302356 0.193947 0.054877 0.399702 -0.010140 0.650106 0.750529 0.188749 0.350132 0.696894 -0.546261 0.093788 -0.298651 0.633697 -0.121406 0.142330 0.239145 -0.232212 -0.321993 -0.590434 -0.187230 0.058834 -0.126721 -0.584461 -0.001445 -0.107844 -0.101478 -0.321025 0.155035 -0.123720 -0.248032 0.212527 -0.287466 -0.441532 -0.035748 -0.851993 -0.050237 0.225496 -0.581103 -0.344847 -0.001913 -0.045531 -0.230386 -0.210513 0.379177 0.026951 0.228878 0.018025 0.023285 -0.431819 -0.276447 0.454608 0.402545 0.190175 0.471243 0.395431 0.355463 0.002121 -0.326371 0.003405 -0.010963 -0.182322 0.396449 -0.245975 -0.871075 -0.325406 0.010239 -0.071817 -0.060199 -0.680794 -0.636524 0.006318 0.137151 0.075390 -0.041322 0.450128 0.234568 -0.304001 0.279067 0.386000 -0.223574 -0.136904 -0.298995 -0.058748 0.501702 -0.318473 0.019014
dividend -0.144298 -0.155019 0.190884 -0.119668 0.364381 0.096264 0.588269 0.038612 -0.327264 0.817401 -0.429335 0.459179 0.207778 -0.980554 0.404536 0.041218 0.182906 0.207327 0.288481 0.468111 -0.304248 0.301804 0.409917 -0.416921 -0.079897 -0.443140 -0.150682 -0.710110 0.179278 0.550341 -0.691998 0.567195 -0.900124 0.114381 -0.713853 -0.217278 0.807626 0.201327 -0.313501 0.130615 0.378576 0.052157 -0.423104 -0.000392 0.315511 0.924244 0.013038 -0.761604 0.372295 -0.017677 0.434859 -0.066786 0.222250 0.197475 0.193285 0.049572 0.486624 -0.085185 0.389367 0.168326 0.175391 0.380116 -0.029436 -0.439738 -0.202289 0.299190 -0.377734 -0.170347 -0.068128 0.220622 0.036558 -0.577921 -0.120656 -0.595029 -1.178601 0.621924 -0.519825 -0.221786 -0.277891 -0.098292 0.025708 0.274141 0.159884 -0.388355 0.186299 0.932044 0.087442 -0.429261 0.176100 0.606210 0.328148 -0.263384 -0.652522 0.519965 -0.517624 0.786158 -0.048764 0.003579 0.326229 -0.449588
business -0.046194 0.078621 -0.003430 0.046043 0.178477 0.422065 0.215041 -0.532194 0.168027 0.227517 0.496719 1.166839 -0.607221 0.036358 0.223190 0.209328 0.584638 0.031007 0.050100 -0.167407 0.089307 0.021534 0.186753 -0.191764 0.061365 -0.000755 -0.237635 0.465320 0.332586 -0.362031 0.078257 0.173128 -0.107196 0.068880 -0.234257 0.104472 0.208225 -0.286492 -0.050984 -0.283881 -0.352749 -0.099668 0.009913 -0.187064 0.128027 0.419655 0.040872 0.086775 -0.419546 -0.058290 0.274213 -0.020833 -0.300907 0.353911 -0.175739 -0.329948 0.034798 0.362416 -0.038954 0.097161 -0.118891 -0.396298 -0.084474 -0.091037 0.227872 -0.111886 0.230293 -0.137350 0.050936 0.041419 0.011177 -0.088634 -0.016880 -0.485939 -0.374280 0.133800 -0.543571 0.114348 -0.225697 -0.065425 -0.172805 0.575939 0.148791 -0.009487 0.241921 -0.037671 -0.003893 -0.293223 0.259628 -0.119354 -0.140507 -0.063877 -0.118417 0.206809 0.116909 -0.178542 0.068238 -0.334586 0.342277 0.018744
industry 0.021621 -0.034330 -0.113742 -0.110959 0.213728 -0.092208 0.214888 0.082651 0.389328 0.008922 0.243145 0.918280 -0.452838 -0.181437 0.277343 0.420528 -0.021580 -0.070899 0.104726 -0.073225 0.007125 -0.037652 0.257604 -0.170934 -0.015358 -0.243504 0.018915 0.192383 -0.052968 0.105958 -0.133684 -0.185699 -0.531917 0.115250 0.139498 -0.328241 0.071949 -0.656850 -0.081666 -0.454376 -0.028348 -0.042372 -0.127599 -0.239758 0.241978 0.033517 0.299104 -0.047523 -0.879998 -0.018364 -0.067139 -0.062852 0.072458 0.516809 -0.147618 -0.054935 0.152961 -0.198848 -0.402394 0.194906 -0.292273 -0.211736 -0.359068 -0.322939 -0.221602 0.373950 -0.028522 0.129297 0.415648 -0.026806 0.114354 -0.078039 0.720421 -0.018287 -0.066975 0.078172 0.063034 -0.740426 -0.198755 -0.048920 -0.329323 0.441442 -0.101120 0.023670 0.421184 -0.382067 -0.153848 0.009715 0.321836 0.226131 -0.436597 0.342365 -0.177421 0.180807 -0.001111 0.005245 0.017791 0.078949 0.132178 0.478569
growth -0.662997 -0.684159 -0.294953 -0.224133 0.214163 0.019003 0.398774 0.154815 -0.624259 0.705733 0.479980 0.581767 -0.576891 -0.205824 -0.003300 -0.091074 0.726099 0.084163 0.116296 0.287111 0.178559 0.010036 0.305798 -0.354665 -0.348201 -0.147075 -0.030150 0.202312 0.220872 0.238664 -0.058174 0.415333 -0.130193 -0.083402 0.201080 -0.065930 0.011492 -0.272872 0.132172 -0.480610 -0.225692 0.104229 -0.353034 -0.563058 0.330900 0.354398 0.295948 0.177067 -0.454090 -0.451540 -0.161871 0.400297 0.231353 0.056675 -0.204046 -0.130226 0.294981 -0.114617 -0.497979 -0.428666 -0.474614 -0.343301 -0.271263 -0.101334 -0.645114 0.195152 -0.282406 -0.365187 0.462519 -0.170258 -0.119671 -0.166039 0.204356 -0.264868 -0.718578 0.169465 -0.582760 -0.173937 0.088250 0.021361 0.632051 -0.096955 0.117679 -0.689588 0.392934 -0.133330 -0.196832 -0.278616 0.816913 -0.060625 0.004124 -0.180934 -0.632417 0.103697 -0.051284 0.083652 -0.500219 0.311398 0.090390 -0.091048
exchange -0.025898 -0.016427 0.584624 0.043970 0.327196 0.035920 0.521836 0.118553 0.206092 -0.106096 0.141751 0.523716 0.164287 0.020731 -0.207656 0.271292 0.737072 -0.078919 0.264713 0.319744 0.026184 0.609038 -0.244575 -0.736655 0.258262 -0.288040 0.483245 -0.054272 0.119735 0.163474 -0.762086 -0.040717 -0.170816 -0.663354 -0.147053 -0.017267 0.671684 -0.366112 -0.129735 0.147087 -0.625007 0.729965 0.251624 0.110353 0.576121 0.347408 -0.138972 0.075746 0.132658 -0.217790 0.552290 0.082891 0.432948 -0.223941 -0.328974 0.475432 0.282390 0.268768 -0.456925 -0.279211 -0.087430 -0.131651 0.137650 0.027433 0.049688 0.863063 0.032515 -0.140370 -0.075323 0.139507 0.120877 -0.141626 -0.027382 0.004182 -0.025414 0.265501 -0.570045 -0.249876 -0.461338 -0.210118 0.268859 0.186017 0.004555 -0.374227 -0.049534 0.584278 -0.090586 -0.344720 0.520137 0.160856 0.049086 -0.131600 -0.524855 -0.129006 -0.013654 0.288946 -0.232256 -0.226863 -0.151376 -0.543758
statement 0.437644 -0.358012 0.248318 0.323264 0.073785 -0.127749 0.013879 0.121189 -0.124175 0.320588 -0.022973 0.634497 -0.239122 0.080804 0.325471 0.205139 0.206770 0.443944 0.468407 0.231339 -0.341556 0.256102 0.676664 -0.248166 0.013359 -0.115743 -0.223993 0.696174 0.084491 -0.181607 -0.299723 0.012986 -0.400519 0.565821 0.057264 -0.429364 -0.055369 -0.154297 -0.017877 0.122242 -0.100531 0.214050 0.590045 -0.484349 0.493499 -0.068184 -0.231664 -0.661768 -0.439047 0.244735 0.774087 -0.207494 -0.324953 -0.209792 -0.572582 0.084750 -0.425674 -0.347815 0.513687 -0.081518 0.272398 -0.206184 0.139474 -0.095376 0.377040 0.129592 0.578833 -0.023007 0.129627 -0.095767 -0.237803 -0.378129 0.425235 -0.433902 -0.321765 0.016709 -0.183536 -0.721760 0.143330 -0.172637 0.051709 -0.015584 0.006931 -0.086088 0.151759 0.290867 0.334046 -0.144919 0.014891 0.225542 -0.264601 -0.071071 0.089951 0.003525 -0.068935 0.416623 -0.107954 0.130848 -0.286381 -0.157078
major -0.234026 -0.010758 0.078744 0.131853 0.009409 0.095119 0.271498 -0.375848 0.228949 0.160376 0.511847 0.462964 -0.104123 -0.375260 -0.270685 0.459926 0.288362 -0.039492 0.315929 0.266313 -0.365307 0.123240 0.290238 -0.370414 -0.045463 0.099500 0.138192 0.270955 -0.069442 0.093501 -0.357276 -0.093844 0.208822 0.156067 -0.069379 -0.023200 0.088224 -0.348406 0.247740 0.007448 0.351798 0.235590 0.313821 -0.472226 0.432944 -0.080136 0.092079 0.099024 -0.357834 -0.286465 -0.218421 -0.146478 0.253364 0.353397 -0.097174 0.063234 -0.001002 0.134791 0.014238 -0.392122 -0.231798 0.080926 -0.322298 -0.573269 0.614977 0.147271 0.325923 -0.028834 0.589475 0.476176 0.508802 0.219823 0.315446 0.021802 -0.281131 -0.246232 -0.339689 -0.143881 -0.231104 -0.114388 0.270465 0.492404 -0.365040 -0.420363 0.472884 0.135729 0.016143 -0.100824 0.453116 0.524124 0.212823 0.098072 -0.055563 0.130727 -0.228816 -0.123313 -0.130551 -0.038099 -0.252004 -0.082644
dollar 0.054173 0.007468 0.541120 0.032925 0.324133 0.052368 0.238609 0.197620 -0.347323 -0.011888 0.205699 0.113536 -0.295108 0.230893 -0.030390 0.630305 0.727790 -0.352197 0.218509 0.067495 0.357087 -0.267597 0.013966 -0.582006 0.224521 -0.489691 0.138388 -0.308198 0.441557 0.969459 -0.568251 -0.338668 -0.197654 -0.116804 -0.059019 -0.423138 0.003919 -0.674984 0.125837 -0.514198 -0.290869 0.554832 -0.197212 0.151532 0.810223 0.535917 0.098995 0.272446 -0.273891 -0.134102 0.542690 0.288686 0.693992 -0.099729 -0.121171 0.290680 0.802802 -0.125781 0.125516 -0.293415 -0.021377 0.007946 0.054609 -0.372572 0.542956 0.154561 0.193645 -0.416717 0.245297 -0.405695 0.312417 0.090113 -0.266778 -0.104189 -0.551692 -0.084633 -0.856065 -0.491948 -0.108210 -0.427085 0.182106 -0.166150 -0.178421 -0.503928 0.037560 0.037142 -0.143257 -0.441893 0.258522 -0.059071 -0.139581 0.109226 -0.691799 0.367521 -0.357276 -0.240860 -0.039892 0.314205 0.028211 -0.160416
buy 0.109604 -0.475193 0.139142 0.105803 0.010026 -0.078226 -0.323199 -0.583564 0.440300 0.445141 0.276993 0.377277 -0.305338 -0.204128 0.252957 0.403960 0.242584 0.233983 0.133004 -0.233827 0.431837 -0.161418 -0.074337 -0.422385 0.710535 -0.541799 0.122526 0.377997 -0.122180 0.751840 0.224188 -0.172221 -0.387419 -0.356189 0.453006 0.132933 0.414138 -0.148608 -0.484456 0.023538 -0.536433 -0.104464 -0.476347 0.314701 -0.143053 -0.315230 -0.168176 0.056988 0.454771 -0.102388 0.155493 -0.555011 -0.065363 -0.192809 -0.333530 -0.475342 0.333283 0.042126 -0.429256 0.420172 0.343835 -0.094332 0.100922 0.167803 0.310900 0.395542 -0.230868 -0.301852 0.569249 0.444342 0.551590 0.471469 0.276840 -0.827316 0.263709 -0.106506 -0.140568 -0.306675 -0.527261 -0.086743 -0.145849 0.642665 0.187179 -0.608671 0.257781 0.426106 0.452383 0.237353 0.362549 -0.508864 0.097700 0.257117 -0.347798 0.393796 -0.346255 0.131818 -0.261878 0.323831 0.240292 -0.048301
stake 0.263805 -0.404470 0.029857 -0.079026 0.030946 -0.346216 0.765810 -0.400304 0.325909 0.474987 0.444875 0.153202 0.069354 -0.228248 0.128865 0.655092 0.316921 0.406847 0.377056 -0.225102 -0.032215 -0.258404 0.572392 -0.683491 -0.040599 0.015783 -0.422224 0.606063 -0.157453 0.482007 0.266664 0.539761 -0.048788 -0.057667 0.344991 -0.260584 0.692723 -0.498024 -0.471058 -0.688308 0.268755 0.625646 -0.007896 -0.141885 -0.270102 -0.140562 -0.163532 -0.846069 0.140336 -0.589450 0.695855 -0.865563 0.011431 -0.641051 -0.639877 -0.369463 0.463595 0.301988 0.286037 0.233406 0.705415 -0.275005 -0.092234 0.166681 0.545785 -0.239144 -0.227108 -0.752780 0.298347 -0.035758 -0.123123 -0.127000 0.451622 -0.045465 -0.208873 0.420771 0.101636 0.037199 -0.439036 -0.059825 -0.119436 0.409688 0.083343 -0.206496 -0.034128 0.316694 0.443244 0.004554 0.635287 -0.039372 -0.612734 0.058474 0.183879 0.426982 -0.632110 0.298254 0.203655 0.668305 0.560873 -0.116158
acquisition -0.040351 0.064352 0.333304 -0.110188 -0.605809 0.154295 0.183155 -0.672166 0.149501 0.321922 -0.044076 0.737846 -0.279552 -0.581304 0.343229 0.564346 -0.168537 -0.079369 -0.199114 0.066403 -0.344614 0.172146 -0.112899 -0.512332 0.037762 -0.040701 -0.505046 0.361688 0.482773 0.325451 -0.248790 0.171844 -0.249803 -0.057321 0.017694 -0.469988 0.625630 -0.197464 -0.268009 -0.112739 -0.239878 -0.051691 -0.491686 -0.499019 0.253045 0.265061 -0.486108 0.053278 -0.188723 0.542633 0.152597 -0.036261 -0.075798 -0.189946 -0.131837 -0.110566 0.237864 0.167815 0.321587 -0.028856 -0.049590 -0.208259 -0.368834 0.031904 0.360156 -0.315035 0.292380 -0.294616 0.027226 0.211538 0.523943 0.279055 0.018261 -0.624772 -0.326604 0.257830 -0.244200 0.031501 0.119725 -0.021596 0.360196 0.307540 0.760605 -0.151460 0.354447 0.161805 -0.134850 0.387118 0.099443 0.228334 -0.314646 -0.578216 -0.149863 0.068818 0.106057 0.224923 0.088024 -0.197040 0.562238 0.311708
time -0.138769 -0.089332 0.493185 -0.024028 0.189896 -0.081923 -0.349142 -0.126819 0.106162 -0.002461 0.002790 0.476865 -0.165107 -0.340826 -0.162273 0.463336 -0.047793 0.210838 0.289039 -0.072930 0.056128 0.199964 0.072413 -0.305410 -0.411930 -0.570721 0.095391 -0.451159 0.231071 0.030577 -0.261182 0.133024 -0.243506 -0.455989 -0.038823 -0.019871 0.212545 -0.319570 -0.098388 -0.520731 -0.576399 0.196018 0.379535 -0.427167 0.163062 0.107857 -0.521774 -0.078206 0.101482 0.197073 0.025668 -0.320576 -0.098080 -0.191350 0.428895 -0.084489 -0.033159 0.417592 -0.362461 -0.125832 -0.002983 0.027932 -0.309053 -0.035602 0.194128 0.059418 0.068426 -0.202885 0.517760 0.639936 -0.124586 0.018594 0.179205 -0.108521 -0.277988 -0.170833 -0.243513 -0.074388 -0.422649 0.164496 0.216195 0.364222 -0.432858 -0.041323 0.240034 0.503122 -0.174660 -0.136265 0.437542 0.336759 -0.434804 0.353800 0.021916 0.426951 -0.124395 -0.016990 -0.118031 0.000869 0.339009 0.017181
reported 0.150321 -0.210653 0.501482 0.052927 -0.198163 -0.196306 -0.342105 -0.024431 -0.316853 0.354119 0.483041 0.266931 -0.319506 -0.406168 0.359101 0.404736 0.346998 -0.056929 -0.102748 -0.075051 -0.814610 0.303643 0.313861 -0.278666 0.157694 0.204698 -0.280960 0.285928 0.479333 -0.118293 0.179332 0.460811 0.072207 0.603070 -0.306695 -0.360290 0.283569 -0.213390 -0.043223 -0.602833 -0.297008 0.044397 0.094100 -0.736558 0.005079 -0.230179 -0.178200 -0.029682 -0.336186 -0.015453 0.241914 -0.399765 -0.064812 -0.034126 0.286057 -0.335817 0.604159 -0.016777 0.436376 -0.074311 -0.282384 0.066133 0.056344 -0.015388 0.252363 0.098247 0.234316 -0.021220 0.485418 -0.026872 -0.813708 -0.836298 0.250071 -0.607864 -0.286576 -0.035383 -0.095482 0.001586 -0.076841 0.242546 -0.157375 -0.693626 0.095083 -0.399402 0.598979 0.569928 0.014982 0.304035 -0.194646 0.146550 0.026124 0.106305 -0.273824 0.252169 0.005847 0.087359 0.090762 0.003017 -0.203884 0.178634
world -0.116186 -0.481881 0.344249 0.112147 0.122060 0.024091 0.659498 -0.342800 0.300566 0.164585 0.540416 0.583297 0.162715 -0.437027 -0.228935 0.183068 0.042488 -0.284327 0.153065 -0.218885 -0.451767 0.093378 0.122371 -0.587281 -0.020351 -0.384381 0.398632 0.014928 0.312154 0.106923 -0.217965 0.034171 -0.207485 0.020661 0.116166 -0.585149 0.327737 -0.439223 -0.140878 0.068047 0.013263 0.485881 -0.391618 0.126467 0.476867 -0.279900 0.246760 0.085273 -0.447984 -0.462031 -0.283959 0.082276 0.074881 0.539393 -0.041032 -0.085097 -0.096173 -0.434155 -0.237658 -0.344574 -0.023386 0.209999 -0.102674 -0.264019 -0.216511 0.364478 0.140073 0.174932 0.515605 -0.253030 0.155477 -0.384533 0.234157 0.548620 -0.312399 0.025617 -0.297315 -0.729881 -0.193041 -0.057004 0.010427 0.452312 -0.256946 -0.541118 0.286779 -0.264544 0.260338 -0.191363 0.214030 -0.314808 -0.059575 0.383175 -0.350322 0.233453 -0.549252 -0.272424 -0.220164 0.126801 0.126058 0.000828
debt -0.371083 -0.152190 0.113571 0.808542 0.165435 -0.150676 0.561884 -0.294102 0.641871 -0.067400 0.473494 0.447786 -0.470079 -0.214983 -0.462077 -0.522224 0.681584 0.008756 0.230959 0.363391 -0.085572 0.554405 -0.454383 -0.382879 0.272026 0.389886 -0.272814 -0.250580 0.509077 0.464964 -0.567980 0.052941 -0.292804 -0.176346 -0.513923 -0.093787 0.115505 -0.286287 -0.281281 -0.040390 -0.468358 0.083237 0.309688 -0.093985 -0.058183 0.508299 -0.363446 -0.306655 -0.002226 -0.275277 0.324338 -0.094744 -0.267603 0.314350 0.021426 0.059388 0.111937 0.406249 0.130873 -0.146452 0.369678 0.381854 -0.746558 0.014297 0.208567 0.258914 0.060839 -0.297773 0.211676 -0.227268 0.193484 0.182365 0.076671 -0.316095 -0.715084 0.053870 -0.330907 -0.027232 -0.541002 -0.154146 0.150037 0.218895 0.245749 -0.137097 0.014110 -0.031883 -0.008833 -0.207690 0.155473 0.430196 -0.317834 0.176977 0.152761 1.086451 0.645689 0.208271 -0.062510 0.551890 -0.150617 -0.214934
record 0.051974 0.250945 -0.030786 -0.437833 0.112212 0.332841 0.250831 -0.528535 -0.107853 0.589700 0.201108 -0.372831 -0.205708 -0.142074 0.841531 0.130920 0.534280 -0.048502 0.085443 0.214020 -0.309027 0.649918 0.407429 0.224032 -0.070704 -0.384105 0.543763 -0.702431 0.417300 0.150656 -0.698491 0.369250 -0.502023 -0.017353 -0.542260 -0.520373 -0.297357 -0.125302 -0.126364 0.381384 0.108573 0.329463 -0.208610 -0.239349 0.122500 0.787711 0.054823 -0.195642 -0.019191 -0.140110 -0.264003 -0.299257 0.037196 0.455892 0.148042 -0.082945 0.410048 -0.393645 0.014098 0.057107 -0.165742 0.562593 0.454008 -0.084370 -0.361823 0.649579 0.047744 0.070618 0.676257 0.021499 0.348189 -0.746302 -0.023204 -0.698464 -0.936341 0.067219 -0.146575 -0.249449 0.190238 -0.307902 0.463247 0.173070 0.082111 -0.443084 0.200430 0.527208 0.048663 -0.070561 0.279774 0.084775 0.379944 -0.038825 -0.744791 0.852422 -0.187590 0.358494 0.474044 0.208917 0.137665 -0.416643
take -0.447006 0.155519 0.675277 0.143939 -0.014238 -0.061917 -0.128366 -0.201012 -0.323222 0.083656 -0.241689 0.359635 -0.226548 -0.255692 -0.061377 0.575345 0.307414 0.064759 -0.443431 0.243148 -0.065216 0.074815 0.019073 -0.334823 0.060909 -0.475143 0.070488 0.068465 0.207393 0.499380 -0.350972 0.020265 -0.019038 0.336253 -0.081935 -0.173177 0.065558 0.188160 0.140701 -0.290473 0.420567 -0.165498 0.152764 -0.512005 0.240489 0.099038 -0.090835 -0.240989 0.068561 -0.349801 0.122926 -0.050892 -0.126996 -0.699150 -0.360745 -0.291703 -0.164617 -0.225156 -0.277924 0.294688 0.007482 -0.170376 0.202347 -0.434197 0.162099 0.029927 0.260868 0.226645 0.656155 0.202014 0.231653 0.334681 0.916416 -0.300525 -0.002602 -0.247730 -0.463024 -0.573510 -0.915413 -0.718229 0.157061 0.299722 -0.160106 -0.321374 0.097623 0.437146 0.124829 -0.258207 0.202014 -0.101781 -0.461585 0.298211 -0.131228 0.423508 -0.320557 -0.184872 -0.126151 0.323055 0.006174 -0.223237
announced 0.132305 0.074197 0.194145 0.188635 -0.363595 0.133834 -0.278880 -0.235463 0.269333 0.051369 -0.038072 0.673674 -0.364751 -0.698078 0.303231 0.211451 0.415487 0.273257 0.207247 -0.046505 -0.719625 0.091219 0.804168 -0.314689 -0.344122 -0.270673 -0.600852 0.089428 0.508051 -0.248733 -0.052472 -0.067312 -0.066165 0.196863 -0.261911 0.088968 0.441441 -0.469709 0.082932 -0.155194 -0.140473 -0.162752 0.291618 -0.433338 0.383203 -0.164377 -0.467031 0.091885 0.232550 -0.250921 0.234261 -0.878695 0.221988 0.231486 0.034911 -0.132157 0.389157 -0.060494 0.139523 -0.002876 -0.209382 0.060116 0.123428 -0.048795 0.405046 0.178640 0.289786 -0.503060 0.372488 0.131297 0.249097 0.171853 0.041416 -1.014945 0.192769 0.521425 -0.044555 -0.543303 0.041879 0.013906 -0.166976 0.083827 -0.123594 -0.270056 0.225283 0.347466 -0.338969 0.095079 0.221193 -0.016800 -0.446604 -0.128726 -0.471026 0.203765 0.297451 0.586962 0.204240 -0.317143 -0.043055 0.177108
unit -0.031689 -0.413292 0.216758 -0.162025 -0.441208 0.195256 -0.060061 -0.288407 -0.211852 0.537406 0.464444 1.005331 -0.229830 -0.302835 0.040813 0.477355 0.067442 0.238899 -0.011586 -0.330222 -0.449615 0.032602 0.438645 -0.117302 0.423223 -0.181247 -0.018297 0.382295 0.608598 0.175537 0.262556 0.189856 -0.327124 0.075722 -0.199080 0.074997 0.064354 -0.241244 -0.090068 0.108038 0.217727 0.394569 -0.602312 -0.046275 -0.169249 0.138206 0.026866 0.045942 -0.292465 0.305105 0.178521 -0.237975 -0.213882 -0.347282 -0.104644 -0.713200 0.373582 0.102953 0.116526 0.232222 -0.034725 -0.063195 0.072405 0.104521 0.364029 0.052097 0.118568 -0.280923 -0.041936 0.001045 0.203530 -0.031921 -0.060385 -0.657061 -0.206517 0.154390 -0.479817 0.177910 -0.123679 -0.118783 -0.275989 0.211226 0.070161 0.220161 0.314995 0.177783 0.299088 0.381458 -0.096290 0.184619 -0.230696 -0.095615 -0.126785 0.617843 -0.110421 -0.029815 0.520952 -0.017564 0.159621 0.137879
down 0.692661 0.116809 -0.135905 -0.280954 0.427532 -0.054787 -0.271395 -0.284724 -0.318938 0.624098 0.228089 0.436809 -0.324832 -0.043369 -0.476581 0.377827 0.120345 0.352126 0.299928 0.255539 -0.088980 0.282730 -0.038262 -0.180289 0.195328 -0.419847 0.227000 -0.617389 0.816444 0.095364 0.315390 0.176899 -0.156239 -0.420596 0.083638 -0.678554 0.077414 0.048275 -0.125633 -0.317469 -0.277108 -0.125436 0.025821 -0.558995 0.224345 -0.206536 -0.098495 -0.006809 0.006625 -0.385830 0.357287 -0.122733 0.048888 0.474288 0.036488 -0.087714 -0.202196 0.309702 -0.385596 -0.475126 0.191854 0.017386 -0.264905 -0.918293 -0.479684 0.085228 0.267293 0.250368 0.287746 0.169284 -0.136615 -0.040422 0.044726 -0.079403 -0.419108 -0.153916 -0.493544 0.174237 0.195168 0.242677 -0.073422 -0.199629 0.294351 -0.645011 0.206106 0.313181 0.008077 -0.125321 0.230000 -0.431992 0.033603 0.017068 -0.168870 0.515526 -0.121624 0.121007 0.184433 0.514729 -0.212671 0.341101
assets -0.050857 0.158070 0.322150 -0.072666 -0.103043 -0.099328 0.087768 -1.171974 0.107463 -0.148590 0.435519 0.755193 -0.382947 -0.303504 0.034354 0.216435 0.701073 -0.219128 0.017653 0.174587 -0.141726 -0.086503 0.178703 -0.422736 0.465721 0.369369 -0.311007 0.136710 0.465031 0.281876 -0.263917 0.409683 -0.425054 0.046237 -0.366830 -0.141354 0.261189 -0.671213 -0.123791 -0.070163 -0.586195 0.107172 -0.112565 0.109984 0.160958 -0.026861 0.008198 0.221486 0.249398 -0.115105 -0.384436 0.005437 -0.298265 -0.119716 0.141903 -0.140048 0.084044 0.343530 0.281957 0.013625 0.169752 -0.184198 -0.563428 0.019059 0.568802 0.263120 0.201816 -0.796342 -0.170524 0.117178 0.158032 0.014389 -0.164618 -0.289342 -0.191018 -0.003563 -0.128346 0.194200 -0.436874 -0.286317 -0.064144 0.323293 0.453318 0.072027 -0.239882 0.420044 0.150008 0.576786 0.362743 0.501934 -0.286177 -0.250297 -0.204425 0.736878 -0.189860 0.023334 0.266401 0.041572 -0.056486 0.219825
out 0.107084 0.232166 -0.121359 -0.273449 -0.146529 0.098232 0.166408 0.082703 0.018607 0.046952 -0.013599 0.632978 -0.414761 -0.093472 -0.351229 0.143233 0.325147 -0.272128 0.504272 0.274085 -0.110290 0.108186 0.044692 -0.123062 0.033103 -0.428918 0.076923 -0.151289 0.391894 0.291258 0.208755 -0.151694 -0.067139 0.278554 0.049087 -0.116200 -0.037002 -0.280493 0.072412 -0.372989 -0.016994 0.100334 0.207823 -0.364818 0.396152 -0.037977 -0.280954 0.156302 -0.247816 -0.359475 0.264223 -0.096480 0.163625 -0.078610 -0.068030 -0.367967 -0.405948 -0.062770 -0.237674 -0.028186 0.170448 -0.333046 -0.071899 -0.026749 -0.138162 0.163880 0.256659 0.249038 0.705058 0.357078 -0.339983 0.069884 0.336906 -0.162303 0.099219 -0.257197 -0.192791 -0.174422 -0.235389 -0.212575 0.267378 0.170062 -0.251260 -0.505552 0.016855 0.574692 0.099425 -0.341164 0.225744 0.028497 -0.743274 0.440148 0.192391 0.408688 -0.107875 0.247764 0.005394 -0.136303 0.024625 -0.285492
his -0.160377 -0.374373 -0.173570 -0.121638 0.239262 -0.287320 0.235583 0.570745 -0.037423 0.024257 0.412123 0.039847 -0.537871 -0.019842 -0.319310 0.154865 0.481782 0.500191 0.261353 -0.424583 -0.408338 0.761806 -0.091518 -0.578666 0.158410 -0.264284 -0.415219 0.207379 0.012462 0.427319 -0.123724 0.095536 -0.339962 0.484266 0.192721 -0.067271 0.038889 -0.013898 -0.271297 -0.639227 -0.500440 0.320498 -0.003784 -0.304583 0.251526 -0.263629 -0.185574 -0.583262 -0.280358 0.338648 0.338445 -0.040558 0.491822 0.025034 -0.427493 -0.339617 -0.375640 0.036531 -0.305824 0.388726 0.102036 0.198340 0.036537 -0.161914 -0.293455 -0.027156 0.368863 0.343864 0.396951 0.004310 0.015502 -0.669129 0.530177 -0.460765 0.055319 0.259891 0.074891 -0.305720 -0.316211 0.199775 0.246356 0.069194 -0.461520 -0.612375 -0.005661 -0.104087 0.432128 0.017086 0.246905 0.080160 -0.393551 0.339724 -0.095806 0.366379 0.189093 0.226423 -0.204427 -0.076841 0.229199 -0.476632
period -0.053718 -0.280583 0.047807 0.453228 0.540254 -0.076156 -0.312731 -0.234756 -0.508179 0.106222 -0.407217 0.289963 -0.153898 -0.514737 0.256769 0.282242 0.104187 -0.025774 -0.205003 -0.286591 0.214605 0.453368 0.354146 -0.044321 -0.266456 -0.294248 -0.137158 -0.284342 0.275049 0.483675 -0.097303 0.033340 -0.282389 0.204967 -0.101724 -0.247490 0.483211 -0.453281 -0.205311 -0.334006 -0.371238 0.379872 0.107936 -0.543449 0.363854 0.120385 -0.308998 -0.642983 -0.004254 0.132100 -0.033177 -0.078159 -0.184359 0.211058 -0.008764 0.710395 -0.173704 0.098434 -0.075194 -0.258439 -0.118678 -0.122079 0.096453 -0.223060 -0.232365 0.390955 -0.228831 0.266157 0.479211 0.389338 -0.369293 -0.423399 0.078859 -0.140676 -0.695611 -0.320829 -0.449646 -0.289091 0.052302 -0.305962 0.365978 0.001289 -0.070527 -0.126399 0.528988 0.431052 -0.271741 0.083907 0.589471 0.143686 -0.066824 -0.091793 -0.060197 0.136367 0.285641 0.010015 -0.172115 -0.053034 -0.352097 0.134984
plan -0.173792 -0.606083 -0.177934 -0.016422 0.260256 0.184323 0.449351 0.070016 0.174824 -0.393306 -0.239824 0.177407 -0.705815 -0.509061 -0.353229 0.238493 0.639569 0.150134 0.284583 0.101519 -0.552990 0.310563 -0.061025 -0.005616 -0.247410 -0.107691 -0.239973 0.085463 0.417039 0.406219 -0.188319 -0.114987 -0.575662 0.262715 -0.548962 0.226739 0.271463 0.056193 -0.229255 -0.270286 0.461284 -0.037676 0.094649 -0.219874 -0.176043 0.231698 -0.065036 -0.050215 -0.275758 0.109473 0.019726 -0.659366 -0.069144 0.475154 -0.278455 -0.178607 -0.242637 -0.066391 0.006282 0.185682 0.111984 0.407641 -0.521922 -0.124992 0.144461 0.439828 0.163354 -0.276413 0.707639 0.198751 -0.071103 0.226289 0.465615 -0.604903 -0.001561 0.427103 0.019815 -0.594055 -0.452564 -0.009300 -0.119657 0.520255 -0.015627 -0.155248 0.237253 0.001689 -0.210650 0.003358 0.130240 0.168409 -0.217407 0.064769 0.157005 0.197973 -0.168794 0.230994 -0.055077 0.196707 -0.124125 -0.137765
report 0.078278 0.089678 -0.012513 0.312223 -0.001761 0.239340 -0.002957 0.176303 -0.339102 0.344053 0.353255 0.807199 -0.079072 -0.002455 0.179026 0.295305 0.005018 0.277887 -0.025652 0.001971 -0.361312 0.134425 0.050299 -0.622030 -0.192494 -0.012568 0.230455 0.558120 0.223136 -0.173669 -0.199601 0.250839 -0.447930 0.321213 -0.109439 -0.351155 -0.153731 -0.241903 0.392879 -0.332669 -0.237494 0.184888 0.024704 -0.097215 0.041893 0.068675 -0.272456 -0.007876 -0.588324 0.249411 0.143745 -0.123413 0.181785 0.008934 0.368410 -0.186788 -0.079948 -0.080813 0.129850 -0.335163 -0.036396 0.032755 -0.218538 -0.232944 -0.382269 0.303402 0.386580 -0.457402 0.381772 -0.058548 -0.193530 -0.751829 0.589543 -0.800737 0.052240 0.375795 -0.216202 -0.156760 0.146756 -0.039941 0.149256 -0.216632 -0.477779 -0.089705 0.649970 0.200281 -0.112985 -0.173462 0.265250 0.286345 0.187642 -0.175551 -0.088418 0.074806 -0.017443 0.348531 -0.302068 0.110640 -0.589258 -0.242691
cut 0.160351 -0.257341 -0.042127 0.004056 0.074602 -0.535221 0.040305 0.233804 -0.000754 0.443152 0.386706 0.233471 -0.444546 -0.256224 -0.641065 0.372426 0.292186 0.278262 0.071834 0.323227 -0.283421 0.278442 0.353383 -0.118759 -0.652390 -0.441598 0.115397 0.208597 0.540419 0.546553 0.050368 0.057958 0.034625 -0.422644 0.010160 -0.079099 -0.130688 0.165548 0.333431 -0.228775 0.222327 0.221247 -0.174716 -0.306183 0.251635 -0.082843 -0.010138 0.362068 -0.288695 -0.707807 0.150178 -0.413078 0.210203 -0.033129 -0.134315 -0.086629 0.192253 -0.445050 -0.212475 -0.206760 0.018700 0.169044 -0.141030 -0.510976 0.334614 0.410380 0.208479 -0.678321 0.342737 0.537837 0.190882 0.060502 0.420046 -0.121682 -0.107310 0.392679 -0.004456 0.022793 0.167228 -0.060826 0.199489 0.072135 0.026717 -0.477045 0.336262 0.306482 0.255282 -0.376620 0.509219 -0.119189 -0.519587 0.349080 -0.408252 0.256838 -0.083750 0.310220 -0.202130 0.362460 -0.032215 -0.100393
sell -0.133867 0.194420 -0.279119 0.277207 -0.032562 0.202995 -0.068813 -0.711945 0.312108 0.060742 0.125890 0.704053 -0.691028 -0.439526 -0.120684 0.585286 0.036954 0.440189 0.038218 -0.296383 -0.200377 -0.122876 0.255037 -0.190854 0.314589 -0.253056 0.026563 0.521124 0.162242 0.410473 0.403947 0.231359 -0.320237 -0.631100 -0.030429 0.026615 -0.054006 -0.219812 -0.040092 -0.237456 -0.435012 -0.086510 -0.627532 0.017631 -0.194820 -0.284383 -0.330644 0.322699 0.119628 -0.051444 0.061985 -0.692397 -0.042711 0.022056 -0.560631 -0.760112 0.547330 0.042162 -0.209931 0.403944 0.134895 -0.282815 -0.148090 0.368700 0.844030 -0.081414 -0.169554 -0.560562 0.386308 0.352064 0.383234 0.113208 0.596994 -0.661794 0.008631 -0.022351 -0.461893 -0.244503 -0.443589 -0.061800 -0.356894 0.661141 -0.144999 -0.466321 0.385462 0.325937 0.269694 0.179036 0.248376 -0.676762 0.248323 0.449967 -0.008015 0.420289 -0.641811 0.079177 -0.074960 0.401992 -0.055920 0.039060
lower 0.218387 -0.236025 -0.031881 -0.039697 0.284311 -0.189092 -0.430580 0.133200 -0.147837 0.340198 0.091733 0.573676 -0.233107 0.096893 -0.381028 0.519821 0.356719 -0.040601 -0.013175 0.108564 -0.315972 0.469401 0.480161 -0.331845 0.087010 -0.703360 0.124512 -0.004350 0.189986 0.325316 -0.091472 -0.055549 -0.238664 -0.081897 -0.252803 -0.431485 -0.046128 -0.129869 0.135699 -0.440083 -0.277084 0.300583 -0.816596 -0.648089 0.419218 0.298670 -0.070047 0.672387 -0.077075 -0.325904 0.202384 0.039106 0.174595 0.021982 0.148158 0.154427 0.263141 -0.553545 0.160880 -0.367252 -0.560611 -0.557383 -0.391557 -0.226460 -0.034388 0.608533 0.301728 -0.495422 0.404169 0.126308 0.063187 0.088540 0.053977 -0.096205 -0.101400 -0.338763 -0.270442 0.076505 -0.069823 0.275628 -0.239201 -0.059979 0.166384 -0.651931 0.279957 0.133904 -0.029732 -0.344317 -0.157051 -0.025960 -0.047186 0.058516 -0.309446 0.520258 -0.088431 -0.158754 -0.056149 -0.120264 0.170658 0.009509
trading 0.308091 0.069392 0.742178 0.048108 -0.131126 0.314561 0.071811 0.094904 0.353620 0.486143 0.346810 0.045634 0.055159 0.044965 0.282277 0.346125 0.018336 0.299464 0.201458 -0.190827 -0.005761 0.408494 0.076367 -0.181667 0.024034 -0.380037 -0.080853 0.076370 0.541610 0.000909 -0.796312 -0.346859 -0.189573 -0.311568 -0.234729 -0.365040 0.431384 -0.459349 0.264053 -0.440747 -0.028155 0.390067 0.299620 -0.373962 0.587258 -0.130680 0.404144 -0.297990 -0.195869 -0.525464 0.330621 -0.033817 -0.014080 0.095761 -0.252590 0.323036 -0.111299 0.082968 -0.441603 -0.169011 -0.034948 0.237555 0.263015 -0.950583 0.200640 0.117653 0.357898 -0.005851 -0.027168 0.541276 -0.185128 -0.069483 0.024544 -0.052572 -0.329421 -0.143390 -0.455973 -0.134763 -0.122106 -0.151617 0.011836 -0.009827 -0.379197 -0.125256 0.141023 0.172870 0.474511 -0.366215 0.520916 0.014986 0.066296 0.033534 0.007437 0.328979 -0.524074 -0.409527 -0.325271 -0.128748 0.322064 -0.270652
economic -0.732598 -0.579805 0.215252 0.206438 0.072399 0.195339 0.307361 0.396372 -0.222968 -0.059219 0.186648 0.601824 -0.632731 -0.321627 -0.133516 0.258434 0.400342 -0.176587 0.125097 0.294745 -0.061277 0.366200 0.047470 -0.656672 -0.193779 -0.188978 -0.240998 0.007591 0.241269 0.136342 -0.527766 -0.091660 -0.335488 -0.388734 -0.246477 -0.217753 -0.151549 -0.420729 0.287808 -0.472215 -0.515979 0.243350 -0.201861 -0.414738 0.064740 0.079985 0.047219 0.217358 -0.892929 0.003072 -0.134375 0.660456 0.125691 0.358146 -0.158754 0.111219 0.197607 -0.204242 -0.158468 -0.433736 -0.226898 -0.023227 -0.099234 -0.298647 -0.040208 0.139195 -0.182903 -0.087618 0.466600 0.015108 0.146147 0.096124 0.804320 -0.057416 -0.602952 0.176932 -0.235194 -0.393377 -0.034703 0.064159 0.480784 0.298144 -0.195355 -0.467178 0.054935 -0.042015 -0.378363 -0.139655 0.617755 -0.056014 -0.544091 0.023854 -0.607253 -0.396160 -0.290085 0.044566 -0.561502 -0.019718 0.182884 -0.407547
income 0.123478 -0.297125 0.406503 -0.136565 0.501157 -0.314294 0.062174 0.152637 -0.125856 0.267824 0.198318 0.681441 -0.324376 -0.566747 0.041883 0.124294 0.390278 -0.086613 -0.156891 0.106873 -0.243642 -0.241566 -0.015335 -0.341831 -0.309299 0.053727 -0.453454 -0.065008 0.139345 0.283115 -0.267053 0.763513 -0.107292 0.108264 -0.295121 -0.672856 0.172948 0.034220 -0.063088 -0.531125 -0.021452 -0.147558 -0.633267 -0.669525 0.234440 0.282707 -0.239391 0.200861 0.034313 -0.522488 0.206528 0.552529 -0.100929 -0.109273 0.109814 -0.085544 0.586860 0.289263 0.675517 0.428996 0.093970 -0.263643 -0.136875 -0.422042 0.028782 0.329448 0.447439 -0.653672 0.190283 0.039613 -0.364172 -0.232429 -0.139321 -0.047344 -1.159606 -0.296164 -0.066088 0.122544 -0.390342 0.002174 -0.138603 -0.167094 0.409038 -0.273354 0.373978 0.014337 0.542709 -0.398645 0.519698 0.626954 -0.160324 -0.374144 -0.215404 0.621417 0.197561 0.084839 0.202001 0.052166 -0.185542 -0.086046
day 0.226220 0.030782 0.461913 0.166091 0.058890 -0.525845 0.206905 -0.156365 -0.449202 0.072158 0.776700 0.576040 -0.436138 -0.717908 0.091234 0.463681 0.057169 -0.540912 0.109081 -0.237681 -0.026369 0.646360 0.060377 -0.258523 0.278822 -0.328386 0.312635 -0.058622 0.950167 0.043799 0.219691 -0.211841 -0.458697 -0.197502 -0.065452 -0.320565 -0.195225 0.182601 -0.265565 -0.181472 -0.643274 0.140324 0.213848 0.050545 0.420816 -0.072329 -0.343696 0.071560 -0.016237 -0.304296 0.168370 0.285317 -0.587478 -0.190884 0.104117 0.101348 -0.428003 0.437677 -0.290903 0.129729 0.392091 0.054444 0.343439 -0.273865 -0.393351 0.300305 -0.231541 -0.049314 0.310611 0.034283 0.344457 0.072519 0.019285 -0.162626 0.027861 0.099736 -0.048680 -0.825737 -0.162244 -0.087175 -0.176469 -0.474650 -0.189320 -0.374530 0.337192 0.821887 -0.055829 0.211823 0.219587 -0.135070 -0.320243 0.321158 0.245621 0.371442 0.174281 -0.161031 0.219845 0.014092 0.103275 -0.765663
eight -0.345622 -0.091129 0.560705 -0.043852 0.027030 -0.242594 -0.122934 -0.331916 -0.188171 0.430601 -0.022655 0.654970 0.040477 -0.282632 -0.107273 0.171723 0.289514 -0.241934 0.275461 0.020597 -0.448458 0.148912 0.246398 -0.037668 -0.132310 -0.207886 0.033357 -0.237117 -0.033059 -0.171385 -0.367598 0.122159 -0.556959 -0.252817 -0.127088 -0.136414 0.259025 -0.333184 -0.090674 -0.131359 -0.105414 0.349924 -0.236222 -0.012019 -0.070272 0.089068 0.201478 0.119352 0.159666 0.077652 -0.406877 -0.210447 -0.308133 0.256615 -0.063223 0.291110 0.471251 0.284369 -0.206347 -0.050976 0.312803 0.248563 0.189755 -0.579268 0.264204 -0.150065 0.147893 0.439639 0.786543 -0.227999 -0.025707 0.024700 -0.181489 -0.014245 -0.061512 0.354949 0.051943 0.075224 -0.721812 -0.204998 0.398304 -0.186770 -0.397660 -0.548598 0.837901 0.347459 -0.114321 -0.067286 0.265353 -0.136546 0.332536 0.036188 -0.182365 0.259860 0.005061 0.006140 0.107304 -0.075031 -0.119704 -0.502913
sugar 0.300229 -0.249117 -0.843381 0.587273 -0.377315 -0.119626 0.429660 0.063730 -0.647367 -0.202430 0.118468 0.105983 -0.294407 -0.946457 0.256793 1.081349 -0.074933 -0.528069 0.142391 -0.228155 0.175973 -0.085463 -0.135893 -0.066179 -0.278726 -0.940794 0.077184 -0.096800 -0.268749 0.092621 -0.299928 -0.159074 -0.478316 0.091833 0.347451 0.106398 0.154443 -0.352143 -0.376806 -0.221978 -0.175884 0.778206 -0.129301 -0.207148 -0.121978 0.344959 0.636282 0.138046 -0.296524 -0.395484 0.163146 -0.587406 -0.311999 0.054890 0.129508 -0.262127 0.335458 -0.046924 -0.290336 -0.034061 -0.040181 -0.137349 -0.563990 -0.055701 -0.524122 0.454509 -0.182633 0.108253 0.551742 0.209509 -0.491367 0.151049 0.298975 -0.440512 -0.447174 0.424397 -0.102106 -0.220691 0.376130 -0.113248 -0.476505 0.105919 -0.645526 -0.782714 0.131492 0.248469 0.338265 0.451206 0.358184 -0.076089 -0.374507 1.120854 -0.133861 0.539798 0.159849 -0.076546 -0.196927 -0.262157 -0.582771 0.099670
credit -0.359718 -0.013169 0.047824 0.324083 0.134147 -0.517500 0.093334 -0.161693 -0.051537 -0.217841 0.210829 0.777453 -0.678843 -0.647238 -0.146742 0.140921 0.536128 -0.061893 0.316945 0.877583 0.030769 0.264081 -0.241152 -0.410451 -0.094422 0.006531 -0.102760 -0.006480 0.413179 0.109751 0.086913 0.062504 -0.149246 0.251632 -0.269816 0.012988 0.518310 0.038607 -0.099103 -0.052463 0.004637 -0.093451 0.109863 -0.260365 0.251325 -0.011827 -0.509758 0.514368 -0.482771 -0.562688 -0.225868 -0.067202 -0.086427 0.025206 -0.104031 0.261422 0.097525 -0.229531 0.098947 -0.137805 -0.031443 -0.010448 -0.666450 -0.251444 0.337991 0.361301 -0.154911 0.052686 -0.017798 0.140267 -0.013460 0.345813 -0.528650 0.170468 -0.438234 -0.152004 0.112573 0.249475 -0.833092 -0.202571 0.003054 0.065785 0.440426 -0.089188 -0.443867 0.106279 -0.067699 0.132476 0.528046 0.441121 0.058140 -0.257509 -0.183071 0.496400 0.336155 0.993478 0.068071 0.352175 -0.557495 -0.295077
acquire 0.438075 -0.097420 0.275215 -0.004361 -0.326366 -0.188859 -0.154737 -0.758690 -0.045479 0.390626 0.171375 0.565310 -0.400936 -0.193599 0.206068 0.217415 0.230471 0.525085 -0.253600 -0.523438 0.098545 0.016971 -0.007232 -0.272088 0.510744 -0.057890 -0.403358 0.674694 0.098717 0.238761 0.148340 0.413853 -0.598094 -0.553859 0.099649 0.070275 0.668872 0.098997 -0.326131 -0.002102 -0.475844 -0.072999 -0.491170 0.095996 0.094330 -0.386241 -0.429165 0.110091 0.052384 0.169679 0.630476 -0.242699 -0.012149 -0.778245 -0.548404 -0.514475 0.036158 0.278699 -0.087722 0.606025 0.078258 0.325942 0.055249 0.162460 0.255843 -0.057639 -0.268200 -0.681341 0.339316 0.243395 0.607457 0.400725 0.616594 -0.949532 -0.072046 0.046727 -0.747051 -0.006959 -0.521484 -0.045752 0.223603 0.340673 0.376270 -0.786304 0.316634 0.509820 0.343079 0.908793 0.626514 -0.200172 0.191806 0.330850 -0.281383 0.056663 -0.308324 0.086686 -0.365707 -0.061111 0.158427 0.018577
term -0.713597 0.122296 0.186760 0.661703 0.483897 -0.322874 -0.202309 -0.007605 0.505783 0.496073 0.247041 0.471839 -0.648946 -0.333543 -0.153986 0.005855 0.526330 -0.127185 0.057006 0.277646 -0.022418 0.114487 0.015315 -0.812139 -0.053077 -0.286343 -0.484509 -0.065127 -0.047723 0.092878 -0.114994 0.122687 -0.243129 -0.050180 -0.274035 -0.393219 0.058105 -0.148541 -0.126957 0.183970 0.080984 0.816296 0.407495 -0.112303 -0.099772 0.146984 -0.335116 0.477282 -0.143153 -0.379063 0.174001 0.200431 0.225816 0.646792 -0.520725 0.004943 0.567219 -0.073383 -0.557279 -0.216173 0.408334 -0.484703 -0.300332 -0.085696 0.268991 -0.149375 -0.032993 -0.473685 -0.120577 0.130367 0.140762 -0.100899 0.173035 0.108098 -0.795389 -0.501281 -0.199180 0.070808 -0.382280 -0.206852 0.241135 0.126840 -0.342879 -0.583782 -0.102871 0.326778 -0.111915 -0.014996 0.499812 0.197301 -0.017433 0.220226 -0.387862 1.131760 0.853510 0.001014 -0.425907 0.248184 0.014276 -0.438092
capital -0.278066 -0.152974 0.434878 0.146018 0.430448 0.036790 0.413149 -0.501521 0.078900 0.686610 0.016561 0.429268 0.222506 -0.092861 -0.120213 -0.058197 0.458550 0.173662 0.333021 0.404093 0.125982 0.137655 -0.281316 -0.478692 -0.027546 -0.455186 -0.187561 0.074853 0.049025 0.242177 -0.273054 0.217501 -0.158395 -0.276298 -0.111920 0.216343 0.436393 -0.167097 -0.135690 -0.100828 0.111494 0.268720 0.196633 -0.150394 0.384988 0.245833 0.028229 -0.287303 -0.079840 -0.411778 0.067692 -0.019217 -0.118164 -0.026358 -0.345290 -0.534753 0.374050 0.160247 -0.222054 0.405374 0.149826 -0.285890 -0.509429 -0.276456 -0.251068 0.327135 0.457573 -0.127775 -0.035526 -0.179056 -0.374595 -0.606512 0.065538 -0.118878 -0.587704 0.045716 -0.061941 -0.244171 -0.585698 -0.154017 0.369649 0.302671 0.070465 -0.173882 -0.135824 0.308636 0.156510 -0.221392 0.577633 0.436869 -0.233291 -0.051590 -0.348469 0.222439 0.273092 -0.043518 -0.316041 0.260911 -0.074110 -0.219606
set -0.016795 -0.410396 0.112710 -0.072067 -0.245033 -0.184976 -0.528227 0.075482 -0.160276 0.500218 0.084681 -0.139554 -0.517360 -0.082031 -0.161538 0.310762 0.645191 0.332158 0.511163 -0.127437 -0.408783 -0.014417 0.095105 -0.402449 -0.265359 -0.873550 0.088083 -0.296171 0.577914 0.418915 -0.420136 0.054696 -0.314653 -0.075927 -0.011111 -0.083659 -0.126301 0.055029 -0.110228 0.170015 0.139696 0.173880 -0.100802 -0.384123 0.087087 -0.127992 -0.113827 0.223160 -0.199326 0.052451 0.205164 0.244298 -0.108580 -0.167559 0.329677 -0.214160 0.356752 0.208153 -0.258341 0.076078 0.203524 -0.068377 0.071306 -0.169570 -0.167477 0.597281 -0.142979 0.260233 0.448070 0.532414 0.566728 0.291131 0.212781 -0.109854 -0.340346 0.257645 -0.045385 -0.455111 -0.191498 -0.373181 0.062553 0.203824 -0.038493 -0.160256 0.254813 0.337410 -0.164422 -0.253399 0.363684 0.078298 -0.003304 0.362339 -0.437651 -0.163260 -0.142586 0.109279 -0.224307 0.346553 -0.035862 -0.349808
can -0.570742 -0.020432 0.024065 0.417168 0.332126 0.016652 -0.173345 -0.389663 0.092471 0.289875 0.339060 0.392095 -0.131290 0.043794 -0.323976 0.289876 -0.130303 -0.622470 0.347732 0.500130 -0.459898 -0.067316 0.187150 -0.315062 -0.019990 -0.685985 0.275738 0.508669 0.145441 0.131669 -0.554246 0.060966 -0.216751 -0.338713 0.368579 -0.437361 0.422446 -0.144831 -0.314541 -0.069939 -0.164945 0.275124 0.398115 -0.060209 0.151609 0.470021 0.149127 -0.181674 -0.188377 0.014935 0.381140 0.252294 0.065296 -0.088685 -0.266824 -0.413127 -0.393316 0.066139 -0.392826 -0.011617 -0.123170 0.111339 -0.435427 -0.295111 0.305089 0.725528 -0.333428 -0.093649 0.688947 0.096404 -0.070936 0.084823 0.489691 -0.547873 0.270397 -0.367189 -0.600120 -0.035294 0.134872 -0.040855 0.309268 0.444584 -0.089758 -0.469658 0.084897 0.570791 0.375282 0.004619 0.067337 -0.272684 -0.704682 0.046493 -0.298728 0.143959 0.152001 -0.024214 -0.055343 0.143131 0.317942 -0.154011
part -0.236291 0.110472 0.111662 0.157853 -0.505080 0.085132 0.156014 -0.186760 0.194073 -0.077738 0.267257 0.923672 -0.442643 -0.468533 -0.013503 0.173775 0.076967 -0.217066 0.331280 0.133352 -0.633234 -0.110403 0.320990 -0.116295 0.075709 0.152874 -0.056307 0.068387 0.192083 -0.065427 0.258509 0.128384 -0.039682 0.323156 -0.284440 0.162251 0.017146 -0.535057 -0.371032 -0.274157 -0.102515 0.185091 0.023774 -0.252065 0.295451 0.152297 -0.325165 0.064118 -0.226962 -0.145282 0.156403 -0.061440 0.218530 0.130013 -0.437189 -0.186258 0.357569 0.161354 0.092054 -0.163512 -0.027411 -0.055088 -0.160745 0.503867 0.235051 0.003336 0.351506 0.115160 0.339853 0.238079 0.162624 -0.004484 0.324475 -0.806762 -0.210143 0.137489 -0.301125 -0.691843 -0.392109 0.062916 0.175146 0.371051 -0.057462 -0.182753 0.276807 0.117221 0.117749 -0.122123 0.092261 -0.034709 -0.756622 0.237063 0.191354 0.660488 0.013615 0.147543 -0.071245 0.019019 0.036942 -0.184275
same 0.042211 -0.341252 0.231915 -0.133025 0.576817 0.077142 -0.250251 -0.400206 -0.425420 0.386059 -0.264265 0.381284 0.301191 -0.573561 -0.429169 0.189126 0.460570 0.036433 -0.132737 0.091254 0.190047 0.219205 0.697657 -0.019771 -0.442694 -0.637037 0.492251 -0.436643 -0.422251 0.363028 -0.080325 -0.019485 -0.430729 0.117534 -0.005652 -0.244982 0.522444 -0.642960 -0.564095 -0.293013 -0.221454 0.457994 0.215851 -0.163036 0.563914 -0.106405 0.004434 -0.089736 -0.027032 0.330280 0.150574 -0.141434 -0.256067 0.090947 0.185312 0.188559 -0.033140 -0.112645 0.189151 -0.103823 -0.101600 -0.306084 -0.154511 -0.446952 0.741100 0.078539 -0.242855 0.181797 0.307568 0.556605 -0.370702 -0.411027 -0.405828 -0.602733 -0.430312 0.060703 -0.269929 -0.519828 -0.232457 -0.344808 -0.020898 0.065068 0.048748 -0.253150 0.448853 0.449996 0.060573 -0.114634 0.319991 0.016178 -0.114767 0.060775 -0.303942 0.114012 -0.077230 -0.067871 -0.088425 0.106410 0.326669 0.260071
purchase -0.199158 -0.260317 0.474536 0.067654 -0.221919 -0.022053 -0.310325 -0.593619 0.432187 0.149676 0.400656 0.604548 -0.606582 -0.426444 0.086215 0.464985 -0.064129 0.598696 0.036859 0.365981 -0.082171 0.131731 -0.070135 -0.333768 0.220101 -0.100921 -0.128349 0.161386 0.617183 -0.013325 0.201078 -0.093752 -0.544575 -0.134609 0.290913 0.089990 0.597599 -0.216254 -0.420583 0.070543 -0.167205 0.147545 -0.724591 0.030408 0.000731 -0.148468 -0.203467 0.046846 0.215065 0.322134 0.191170 -0.402481 -0.402432 -0.141786 -0.419197 -0.246045 -0.063723 0.163729 -0.172000 0.422180 0.175116 -0.263437 0.056794 0.348110 0.363699 0.203898 0.118718 -0.185290 0.120370 0.315401 0.246567 -0.049300 0.254108 -0.826475 -0.015320 0.167988 -0.040840 -0.406468 -0.110842 -0.086249 0.155384 0.198130 0.289006 -0.251079 0.419689 0.548342 0.052332 0.410352 0.162976 0.013086 -0.269535 -0.256942 -0.067378 0.422116 -0.226753 0.007287 -0.069679 0.303542 0.125931 0.010452
crude -0.200479 0.537126 0.304886 0.205361 0.039283 -0.966677 0.519853 0.276025 0.054772 0.326773 0.533996 0.593486 -0.331647 -0.838491 -0.424342 -0.198541 -0.661199 -0.000926 0.011321 -0.268008 -0.346987 0.311745 0.154391 -0.637071 -0.059216 -0.419510 0.071338 0.159681 0.290205 -0.120824 -0.268746 0.016110 -0.492704 0.000877 0.429540 -0.395159 -0.027966 -0.282375 0.109631 -0.499782 -0.303510 0.670807 -0.660720 0.248456 0.387685 0.086954 0.036126 -0.167491 0.072030 -0.319379 0.009677 0.174522 -0.006987 0.138157 -0.071194 -0.040231 0.109870 0.285246 -0.617996 -0.226177 -0.412880 -0.513523 -0.303044 -0.640751 -0.299117 0.994883 0.357301 0.083239 -0.040321 -0.195682 -0.001918 0.063096 0.239278 0.043529 -0.211826 0.441985 0.066102 -0.522268 0.177987 -0.537530 -0.601708 -0.008808 0.009219 -0.353166 0.469589 0.488248 0.018795 0.123223 0.128155 0.324004 -0.021888 0.351729 -0.646914 0.375659 -0.145166 -0.093516 0.508879 0.237567 -0.077724 -0.579069
seven -0.280983 -0.269494 0.457331 0.024656 0.256820 -0.357000 -0.032674 -0.524459 -0.232096 0.316592 0.018162 0.605809 -0.126497 -0.322631 -0.249185 0.109005 0.347977 -0.361017 -0.157386 -0.024246 -0.342503 0.189291 0.444827 -0.398418 -0.097604 -0.042886 0.168564 -0.150983 0.182545 -0.244219 -0.211931 0.177445 -0.484767 -0.229718 -0.076339 -0.138033 0.489126 -0.341250 0.054602 -0.365119 -0.086035 -0.016985 0.067505 -0.026520 -0.318311 -0.010459 0.012934 0.090328 0.141321 0.001062 -0.489824 -0.001133 -0.168175 0.378647 -0.103038 0.096210 0.153197 0.409172 -0.279413 -0.038378 0.093367 -0.033261 0.299287 -0.525225 0.192806 0.078734 0.033815 0.227947 0.754885 -0.058582 -0.015124 0.127367 0.173752 0.396007 -0.172432 0.138102 -0.019366 0.233705 -0.717293 -0.028752 0.121562 -0.231351 -0.364108 -0.478558 0.706245 0.238179 -0.108496 0.055789 0.517258 0.067652 0.195678 0.244499 -0.278529 0.109459 -0.243634 0.151069 -0.006112 -0.020311 -0.098239 -0.352184
increased 0.221133 -0.120871 0.317336 0.057703 0.374656 -0.162323 -0.409893 0.237716 -0.279258 0.792306 0.178376 0.264332 -0.060076 -0.433242 -0.109359 0.020110 0.416697 0.104716 -0.010639 0.145948 -0.044533 0.225050 0.235374 -0.317822 0.136089 -0.241459 -0.100055 -0.170934 0.542626 -0.324312 0.040161 -0.144574 -0.036867 0.066342 -0.177185 -0.026059 0.067251 0.079527 -0.175782 -0.026400 -0.237931 0.153801 -0.303576 -0.403490 0.182678 0.293915 0.046596 0.083672 -0.177857 -0.203532 0.157977 -0.283076 -0.088613 -0.008498 -0.143318 -0.134350 0.288040 -0.240279 -0.069809 -0.117768 -0.214158 -0.275893 -0.696097 -0.437757 0.009372 0.511058 0.185988 -0.384645 0.157349 0.448695 -0.026808 -0.210848 0.415895 -0.260695 -0.303100 0.370189 -0.331450 0.150106 0.249703 -0.020465 -0.367242 0.003582 -0.098241 -0.300717 0.515819 0.108685 0.284527 -0.338961 0.491623 -0.229565 -0.119823 -0.309178 -0.350845 0.354518 0.145047 0.089382 -0.103062 0.190550 -0.057741 0.061911
president 0.013218 -0.051452 0.295366 -0.419514 -0.383341 -0.262478 0.193649 0.295913 0.091291 0.165944 0.228228 0.435856 -0.735126 0.107463 -0.052211 0.159961 0.330776 0.308128 -0.150686 -0.056801 -0.758977 0.410087 0.176947 -0.568643 0.259218 -0.224025 -0.285625 0.026576 -0.305176 0.551099 -0.023959 0.241361 -0.824355 0.212008 0.464276 -0.151219 0.150997 -0.427282 0.123415 0.052238 -0.230528 -0.110206 0.008593 -0.204302 0.085525 -0.034156 0.061045 0.311658 -0.553532 0.278732 0.348558 0.464193 0.031166 0.661179 -0.182980 -0.134602 -0.066748 0.402902 0.234739 0.424506 -0.101860 0.274571 -0.267746 0.884738 0.170508 0.077103 0.228056 0.655213 0.206691 -0.006081 -0.490166 -0.690162 0.272269 -0.565208 0.316879 0.224594 -0.620470 0.209156 0.022640 0.034012 -0.111905 0.078105 0.223305 -0.367717 0.213029 0.036906 0.400603 -0.166488 0.442306 0.032862 -0.260540 -0.004309 0.243403 0.493193 -0.525519 -0.156050 0.537244 0.140486 0.214528 -0.263648
money -0.504136 -0.013322 0.132756 0.041278 0.293863 0.060107 0.389307 -0.310069 -0.224097 0.263263 0.612921 0.460809 -0.580782 -0.356368 0.323847 0.196330 0.363547 0.176383 0.366637 0.408766 0.543742 -0.012101 0.039482 -0.381733 0.353502 -0.318716 -0.202580 0.061781 0.097781 0.479627 -0.340549 0.161852 0.017115 -0.522451 0.150532 -0.215642 -0.226765 0.260470 0.233607 -0.262397 -0.077945 0.621754 -0.032038 -0.362829 1.029805 0.248068 0.117322 0.008346 -0.351726 -0.536428 -0.049915 0.319347 0.224149 0.087098 0.375021 -0.297033 0.651760 0.051339 -0.536767 -0.274018 0.255455 -0.590460 -0.263859 -0.425566 -0.115632 0.107201 -0.428000 0.209952 -0.352726 -0.319223 -0.118323 -0.077126 0.022418 -0.346857 -0.590089 -0.095299 -0.231350 0.013569 -0.094506 -0.347680 -0.034489 0.093417 -0.169991 -1.257328 -0.284323 0.453015 -0.086297 0.537983 0.509913 -0.217399 -0.045400 -0.150202 -0.366990 0.732258 -0.113764 0.355049 -0.852371 0.281073 -0.228613 0.222708
deficit -0.204675 -0.129356 -0.141026 -0.288976 0.356495 0.401344 0.321570 -0.291733 -0.376947 0.038625 0.007470 0.164929 -0.174054 -0.184971 0.066817 0.232223 0.421385 -0.000537 0.193488 0.200950 0.207969 0.350489 -0.362251 -0.407365 -1.013879 -0.183881 0.158265 0.049169 0.615520 1.118415 -0.830874 -0.053534 -0.274500 -0.284765 -0.708446 -0.377290 -0.116069 -0.401987 0.161228 -1.002437 -0.587452 0.095893 -0.280537 -0.507480 0.481687 0.059415 0.038547 -0.358242 -0.520578 -0.380984 0.434958 0.173107 -0.210957 0.511739 -0.156371 -0.378328 -0.131822 -0.425635 0.028899 -0.475158 0.394342 0.269919 -0.403398 -0.363384 0.105062 0.049284 -0.205667 0.134168 0.135662 -0.264620 0.023849 -0.122043 -0.479458 0.165420 -0.934296 0.515187 0.040544 -0.341102 0.051455 -0.156453 0.046679 0.002797 -0.011702 -0.507687 -0.295305 -0.175823 0.257553 0.191819 0.951830 0.021561 -0.540640 -0.084892 -0.509445 0.624263 0.362001 0.266328 -0.416439 0.750811 0.152187 0.088739
including 0.123532 -0.019863 0.510188 0.012006 -0.189424 -0.186252 -0.223683 -0.383857 0.049386 0.151517 0.282273 0.278833 -0.363352 -0.342519 0.057647 0.348419 0.693650 -0.523772 -0.030243 -0.014876 -0.314222 0.161131 -0.138948 0.085034 -0.180299 -0.198472 -0.017116 0.097406 0.568926 -0.305209 0.078489 -0.116817 -0.112438 0.337291 -0.269790 0.084904 0.110928 -0.024154 -0.017015 -0.062467 -0.216783 -0.068794 -0.044376 0.071448 0.277781 0.073860 0.493682 0.296463 -0.636806 0.140998 -0.033614 -0.185916 -0.314736 -0.140384 -0.075087 -0.143899 -0.019602 0.360841 0.073176 0.098361 0.090131 -0.268692 -0.463383 -0.230415 0.188121 0.127294 0.489815 -0.240359 0.266335 0.575114 0.157473 -0.166233 0.239337 -0.506348 -0.207392 -0.258292 -0.206527 -0.044088 -0.336147 0.147937 0.234971 -0.045064 -0.057784 -0.066320 0.450230 -0.210249 0.248130 -0.137957 0.496892 -0.144750 -0.003370 0.024040 -0.168136 0.409357 0.180387 -0.269520 -0.295000 -0.020678 -0.135940 -0.246133
gas 0.062514 0.100118 0.727175 0.121125 -0.323753 -0.444942 0.146994 -0.402504 0.363899 0.291932 0.476832 0.430729 -0.071302 -0.431051 -0.041327 -0.006187 -0.216530 0.155373 0.285231 0.117723 -0.314564 0.153678 -0.037681 -0.268145 0.306358 0.026376 0.150427 0.257662 0.424314 -0.120545 -0.037141 0.096519 -0.626865 0.056081 -0.091737 -0.305592 0.522555 -0.202156 0.117840 -0.477093 -0.546373 0.914501 -0.460477 0.254635 0.365775 0.131938 -0.018891 0.119426 -0.259835 -0.380649 -0.377390 0.139306 -0.200749 -0.079226 -0.333282 0.007049 -0.126949 0.133327 0.122473 -0.304500 -0.255805 -0.216030 -0.226228 -0.571769 -0.519060 0.562842 0.121751 -0.399063 0.223796 -0.044820 -0.201496 -0.154567 0.284760 0.423321 -0.038334 -0.249684 -0.364137 -0.853972 -0.265260 -0.409750 -0.349722 0.774252 0.167254 0.166482 0.677031 -0.020510 0.221717 0.503214 -0.121511 0.540384 -0.088496 0.145446 -0.281631 0.245082 0.002783 -0.143779 0.536486 0.436210 -0.169274 -0.299046
continue -0.521304 -0.136329 0.082128 0.101577 0.284334 0.260568 -0.143040 -0.085420 -0.420486 0.523574 0.081161 0.470480 -0.474632 -0.177995 -0.258285 0.213971 0.194834 0.049170 0.153039 0.236330 -0.390507 0.106578 0.302352 -0.501392 0.089680 -0.195547 -0.103383 0.247430 -0.056911 -0.455053 -0.157936 -0.047153 -0.049590 0.046348 -0.051156 -0.123954 -0.082656 0.156681 -0.019960 -0.359331 -0.141604 0.327777 -0.117724 -0.232911 0.120741 0.275204 -0.215168 0.314613 -0.125790 0.233605 0.439124 0.267816 -0.160547 0.348567 -0.246788 -0.436997 -0.109756 -0.296428 -0.453799 -0.371068 -0.320212 0.062093 -0.411835 -0.084875 0.003163 0.262149 0.258738 -0.194404 0.536660 0.263589 -0.119799 0.000337 0.576131 -0.439273 -0.135306 -0.339243 -0.445706 -0.166372 -0.158852 -0.622195 0.125711 0.303890 0.080201 -0.430475 0.350709 0.122449 0.223448 -0.102302 0.275620 0.030102 -0.447999 0.404185 0.152383 0.121371 -0.510254 -0.167395 0.187616 0.365214 0.340531 -0.352902
high 0.272499 -0.139719 0.026347 0.062375 0.157797 -0.215749 -0.273225 0.231516 0.009342 0.387484 0.308745 0.118257 -0.383049 -0.111368 0.161839 0.370316 0.206852 -0.102677 0.322222 0.159338 -0.372180 0.157704 0.202735 -0.170421 0.276002 -0.539821 0.387905 -0.209969 0.631244 0.292429 0.089645 -0.219047 -0.303379 0.041454 0.124929 -0.037306 -0.023709 -0.254964 0.168167 -0.137301 -0.207835 0.370400 -0.172425 -0.148982 0.360408 0.042034 0.351354 0.362902 -0.228345 -0.168666 0.120417 0.383721 0.168082 0.230734 0.096578 -0.308042 0.298912 0.009823 -0.596463 -0.213235 -0.571759 -0.310583 -0.008951 -0.428525 0.250757 0.391367 0.433337 -0.247856 0.303057 0.116827 0.118778 -0.119474 0.096627 -0.369674 -0.456414 -0.145183 -0.212236 0.118537 0.048964 -0.200611 0.060555 0.005769 -0.025314 -0.160227 -0.025206 0.148768 0.148707 -0.462867 0.423259 -0.419387 -0.139423 0.362919 -0.311242 0.292880 0.131737 -0.287900 -0.102818 0.099751 0.298581 0.327827
