movie 0.421680 0.828310 0.871211 -0.266045 -1.166247 0.656647 0.379397 1.021491 0.758865 -1.672420 -1.169537 -0.936142 -0.132542 -0.911497 0.522115 -1.876562 -2.979231 0.549265 0.569802 -1.104438 1.087038 -0.598912 -1.759038 -0.672179 0.988822 -0.434645 0.836096 0.932758 -0.050722 1.190861 -0.511331 0.575541 1.548009 2.033586 -0.616748 -0.929582 1.035384 2.913647 -1.397648 -1.360098 -0.371810 -0.279913 -0.104797 -0.035668 1.976857 1.549921 -0.712002 -0.612338 1.566203 0.519185 0.418022 -0.561714 -1.294610 -1.314482 -0.366335 1.013805 1.886952 -1.384626 -1.307500 0.734201 1.060237 -1.271660 0.415201 0.852760 -2.003299 -0.065535 -2.035920 -0.236566 -0.374289 -1.488304 -0.637920 1.162852 -0.208675 1.690093 -1.258699 0.436381 0.690163 -0.340874 2.049612 -2.062038 -0.240920 -0.396600 1.031895 0.326850 -0.096767 1.345915 0.743007 0.276777 -0.654219 2.771382 -0.659169 -0.558402 0.262707 -1.400738 1.299331 -0.790159 0.704208 -0.016456 -1.433798 0.734384
film 0.064066 1.173250 0.832741 0.522384 -1.280923 0.722236 0.218238 1.219610 -0.072536 -1.645095 -0.228687 -1.106211 -0.468661 -0.728408 0.577576 -1.530103 -3.130881 0.322912 0.645120 -0.865975 0.641680 -0.415702 -1.571499 -1.160579 1.090356 -0.743623 1.303304 0.752451 -0.535971 1.434418 -0.622418 0.944517 1.629279 3.115715 -0.776550 -0.942227 0.943378 3.012280 -1.598435 -0.889153 -0.148675 -0.202523 0.417258 -0.389864 2.069180 1.624330 -0.257925 -0.458913 1.205443 0.958059 0.628323 -0.908832 -0.687835 -0.495038 -0.952899 0.987302 2.109684 -1.118178 -1.604229 0.893816 0.925540 -0.932813 0.976011 1.431306 -2.370542 0.031145 -1.455722 0.271486 0.239278 -0.565559 -0.321803 0.904808 -0.207312 1.863120 -1.139870 0.328739 -0.346453 0.033475 1.720289 -1.963052 -0.501399 0.536851 0.569012 -0.421942 0.070374 1.309804 1.135193 -0.102333 -0.063903 1.788045 -0.609833 -0.439535 0.158419 -1.131756 0.752653 -0.480814 1.253422 0.477801 -1.114313 0.951941
his -0.409185 1.024092 -1.046660 1.054098 -1.585129 0.521575 2.019602 -1.550589 -0.161343 -1.185990 0.496574 0.738057 -1.374051 1.724390 0.371326 -0.646569 -1.645517 -0.802266 0.620291 0.667214 1.270337 0.924785 0.483881 -0.659521 -1.364754 -0.657558 0.808784 -1.208492 -1.058648 -0.918654 -0.320817 -0.628654 -0.297468 -1.573750 -0.164038 -0.981415 -0.865208 -2.865501 1.786711 -0.097432 1.401218 1.752127 -0.467150 -2.461862 0.384430 1.674606 0.920821 1.751334 -2.570904 0.214627 -1.140097 -1.214637 -2.110718 2.591561 -1.142642 0.809564 0.180054 -1.812885 -1.638497 -2.368783 -1.161845 0.841331 -1.157615 -1.753177 -0.433622 -0.505296 -0.056410 -1.797358 -0.509498 0.395827 2.101964 0.695633 0.037253 -0.819217 -1.057746 0.487812 0.401900 0.068297 0.451848 0.478282 0.069264 2.042837 -1.289706 -1.272245 -1.301954 0.197902 -0.680619 3.912632 1.069438 -0.772413 -0.144847 0.248844 1.884828 1.134863 0.339068 0.138184 -1.119763 -0.602849 -0.459938 1.027997
have -1.597381 -2.802755 3.515468 -2.053896 -0.903714 0.516677 1.838898 -0.677550 1.130004 -3.273654 0.729046 0.292652 -0.870398 -0.101933 2.093465 -2.370126 -0.718381 -2.348324 0.032257 0.142428 0.550297 -0.830713 2.591631 2.059860 -1.731920 3.108303 0.571761 -0.793400 0.743528 2.388185 -0.682768 2.340405 -1.449637 0.332725 1.802810 2.253149 1.445425 -0.421113 0.798562 0.603411 0.214603 -1.928004 -1.986381 0.433823 -1.292940 1.358833 -0.842567 -2.196446 1.011573 0.377075 -0.131497 2.709442 -1.749689 -0.377611 1.807534 1.460375 0.679534 -0.747634 -0.363569 1.612803 -2.384133 -0.251882 -0.576075 1.244864 -2.326222 -2.608761 1.001715 1.841967 1.189802 -1.443911 -0.284736 2.103113 -0.221504 0.149788 0.493169 1.252652 1.525011 0.934283 0.201845 0.923721 -1.258606 -2.549162 -0.317938 0.541817 3.243021 0.454548 -1.111440 0.404396 -2.446401 -1.561242 -0.306298 0.718340 2.021857 -0.255290 0.679035 0.752516 0.387108 0.900562 -0.829665 0.876295
be -0.043808 -0.918983 1.294638 0.770307 -2.774742 0.879523 3.937502 1.450023 2.503146 0.715734 1.951921 -1.048269 -1.626379 0.238919 2.181316 -3.754886 -0.960549 -2.343191 3.135004 -1.319669 1.393236 -0.408425 1.457157 0.222721 -0.000125 0.905624 -1.592468 0.288668 -0.013302 2.169484 0.721831 0.382128 -0.476870 0.989642 -0.333003 2.678705 3.359397 -1.660521 2.145698 -1.349046 -2.299598 -1.141064 0.629918 0.511670 -1.857682 3.281147 -0.163182 -3.082404 2.347911 -0.820797 0.126696 -0.156845 -1.064723 0.363299 1.910999 1.573443 -2.061486 -1.868321 0.085062 2.448165 -3.924714 -2.123984 -2.090314 2.691658 -1.646506 1.160513 -1.316122 -0.583560 0.058885 -1.208324 -1.159081 0.342050 1.500875 -1.524500 2.413209 -1.420717 0.935835 -0.433840 -0.165544 -3.081210 -1.060766 -1.491824 0.637415 1.534916 1.149156 -0.771574 -1.148622 0.171166 0.783398 -1.208375 -1.293537 0.359336 -1.152883 -0.111536 -0.766034 -0.982370 -3.626130 2.025079 1.503614 -0.235795
he 1.081876 1.881440 1.599108 -0.401861 -1.483169 1.209723 1.486611 -1.009050 1.384478 -1.773949 1.373699 -0.104668 -0.844028 1.332595 0.101129 -2.310814 -0.439910 1.032613 0.047903 -0.285141 1.405519 0.738421 0.222480 -0.317370 -3.040571 -0.614491 0.529453 -2.531265 -1.393883 0.637669 -2.514136 0.582420 0.632805 0.464709 -0.688117 -0.631918 -1.448826 -0.360273 1.880606 0.232296 -1.341869 -0.622286 -0.861150 0.142064 0.888800 1.230042 -0.420419 1.152921 0.963876 1.362976 -0.231748 0.814123 -0.727345 -0.342852 -1.559868 -0.357742 -0.845968 -1.829463 -1.279749 -1.261319 -1.482781 -0.159186 -2.117847 -0.045452 -2.071100 0.324311 -0.119352 -2.017091 -1.537320 -0.228468 1.454990 -0.424815 0.373287 -2.638214 -0.847920 -1.524024 1.570539 0.102253 0.507250 1.117967 -1.301841 -0.531844 0.705426 -3.000896 -1.917216 0.588522 1.362449 0.637422 1.839784 0.985473 -0.213173 0.651554 1.114681 0.746021 -0.246279 -1.767803 -0.672682 0.396311 0.899298 2.079522
like 0.982010 -1.265159 -0.021476 -2.423723 0.666172 -0.290884 -0.863858 0.449369 0.045968 -0.717737 -0.130663 0.311091 -0.656977 -0.053456 1.200584 0.172096 -0.106760 -1.723823 -0.697020 1.699931 -0.861738 -0.147602 -2.087704 -0.497159 0.534019 -2.252059 -1.931664 0.397347 1.503606 0.733550 -1.997558 1.161822 0.159319 -0.268178 0.182148 -0.422480 -0.627560 -1.004290 1.545984 0.541078 -0.038070 -1.089338 0.671227 0.599841 -1.651401 1.814767 -0.023013 -1.822794 0.078837 -1.012045 0.192814 0.186305 -1.046019 -1.849073 -0.455041 0.320535 1.262759 -0.727732 0.513993 1.238921 -0.594989 0.140545 0.138976 0.132747 1.315452 -2.024879 1.234241 -1.058694 -0.243599 0.754760 0.865837 0.217453 -1.009753 -1.228089 -0.841931 1.588289 0.458581 -1.777735 0.863118 -1.156397 -1.275697 -3.286796 1.139193 0.570289 1.129207 -1.329587 -0.719485 0.354227 -2.504883 -1.983909 -2.768050 -2.958659 2.684825 -1.018381 -1.228601 -1.047270 -0.551224 -1.277446 0.797318 -0.485952
her -1.361219 0.515583 1.206184 0.109771 -3.615263 0.548243 0.920424 -1.813526 -1.788857 -0.144262 0.243152 2.221895 -0.229141 1.930920 -0.032461 -0.726268 -2.104119 0.014293 1.838212 0.803946 1.378424 -1.170053 -2.976295 0.247406 -1.003561 -0.696826 0.516804 0.356100 -1.637950 0.802687 -1.140291 -2.109880 0.077727 -1.418446 -0.836553 -1.719553 0.751855 -1.272797 0.751899 -1.400293 -1.445015 0.722358 0.692470 -0.111741 -0.698838 0.350889 1.787055 0.319666 -2.827072 0.789763 -1.443073 -0.470331 -0.194259 2.634242 0.034184 2.249837 0.408745 -0.609989 -0.407459 -0.783169 -0.981420 3.168998 -1.824346 -1.134318 -0.748533 -0.052944 -0.831075 -1.535682 -1.559496 -0.999692 0.110619 0.690652 -1.011852 -0.786347 -0.302975 0.661624 0.898925 0.952903 2.311484 0.625687 0.777223 1.041869 0.826979 -1.826195 -0.541140 -0.086510 -1.761503 3.709417 0.243423 0.025218 1.093004 1.035008 -0.994814 -0.469673 1.017914 -2.152037 -2.644313 -0.511166 -2.050657 -0.286291
about -0.670877 -0.321073 0.348310 -4.227814 1.725965 -0.539062 0.040350 0.913074 1.155090 -0.946674 -2.442153 -1.951774 -1.478301 1.339640 -0.990327 0.350695 3.250476 -0.716396 -0.065311 -0.655649 -0.038225 -0.456346 -1.376451 1.574082 1.385128 -0.432055 -0.316069 0.490800 1.612082 -1.391348 -2.095246 -0.197979 0.588006 1.329697 -1.172310 -0.692476 -1.989651 0.909950 -0.543120 1.680392 -0.783287 -1.530547 -0.665843 0.525787 0.889318 -0.880724 -1.103245 -0.813187 -0.680101 -0.876526 1.257689 -1.481762 3.075750 -1.054595 1.712609 0.494826 0.602410 0.208384 -2.435390 -0.801567 -1.580756 0.054170 1.515789 -0.715444 1.325031 -0.330541 0.368253 0.767991 -2.915300 -0.586064 2.915637 0.754766 2.192338 -0.082102 0.093803 -1.719398 0.954205 1.635182 1.383954 1.066705 0.066194 -1.324938 0.587542 -0.863017 0.485669 -0.930860 -1.952597 1.295539 1.048429 1.295925 -1.201668 -1.505791 -0.151751 -1.775744 -0.311024 1.044987 -2.139642 -0.471920 2.457902 -0.753380
out -0.369614 0.226107 -0.938442 2.159006 2.909815 -3.427775 1.103701 -1.475605 0.222364 -0.384057 -0.191672 1.296818 0.839565 -0.958883 -1.478483 -4.440220 -0.491903 -0.273311 -1.119169 -1.111565 -1.245693 -1.794351 -3.096676 2.187954 -0.882855 0.759424 -1.330861 1.602102 0.429986 0.925746 -0.158480 4.453119 0.198971 1.316615 0.991886 -0.275514 -0.445286 -1.837022 0.874270 -1.507153 -2.161520 1.501867 -0.010604 1.053992 0.024553 0.154130 -0.299684 -0.323614 1.400812 1.369639 3.201169 0.144850 2.348827 -0.352968 -0.693991 -0.620910 2.816002 -1.423193 1.193409 -3.388737 0.266976 0.402495 -2.300479 -0.237925 0.467817 -0.205057 -1.138297 -0.093831 0.670734 -1.210085 0.287946 -0.650796 0.269741 1.799395 -1.566504 1.064415 -2.093092 0.740592 -1.055207 0.548593 0.922581 -1.902176 1.415748 0.751999 -2.454715 -0.324975 -2.230825 1.358470 0.722856 2.663605 0.101391 -0.671969 1.389836 1.637518 -3.844777 -0.515852 -0.851945 -0.627964 -0.749645 1.009233
good 3.126140 2.573780 1.769087 0.330005 -0.135318 -0.405473 -1.368118 -0.113418 2.394614 2.126359 -0.676473 0.922254 -3.491845 -0.993334 0.534894 -1.261965 -0.377436 -0.734946 -1.029532 -0.841052 -3.563318 1.385870 -1.622047 1.502230 0.458935 0.872431 -0.204441 0.866940 0.139642 -0.436487 -1.368229 -0.401578 1.506856 0.123733 -0.828417 -2.031821 0.730856 0.138098 -0.990408 0.340548 -0.577187 -1.980613 0.756307 -0.897216 -0.430063 -0.147088 -0.939454 0.819946 -0.258506 1.858526 1.520843 -0.636374 -1.558460 -1.082834 0.221343 1.531977 -0.071293 -1.187364 -1.247483 -0.720745 0.662100 -1.041718 0.818158 0.155624 0.348635 -0.026469 0.495549 0.951850 -2.811893 -1.404447 1.345045 2.044819 -0.946903 0.166250 1.030101 1.806058 2.854017 -0.921561 1.061979 -0.267836 1.086118 -1.896264 0.709543 0.213965 1.514773 0.756184 0.660499 0.531085 -0.311970 -0.678979 0.442049 -0.310008 2.697349 -0.011306 0.714455 -2.316940 0.385952 0.806400 -0.426149 2.787017
can -2.613047 3.760748 -1.250359 0.660517 1.924981 -0.521841 -1.532528 1.562913 -2.053212 -3.223191 -1.603415 1.761650 1.201113 -0.866118 0.247772 -1.345057 0.706311 -0.253725 -2.828746 -1.241403 -2.092662 0.373242 -0.417421 -0.677658 0.415767 0.558542 0.282036 -0.812040 -0.152486 -2.625498 -1.209124 0.844473 0.887286 0.926408 2.546683 -2.449904 -0.762141 3.403970 -1.173157 -1.145107 -0.251029 -2.051368 -0.569223 -1.229355 -1.396659 -1.439783 -1.068322 -0.984258 -2.576030 -0.673486 -3.727672 0.798225 0.134561 -1.333776 -1.104628 -0.193582 0.557742 2.680471 0.366182 1.197072 -1.227545 2.285250 2.671475 -1.186276 1.788624 -1.940377 1.101994 0.899240 -1.253823 -2.576490 -0.461848 0.290940 -0.096996 -0.372869 -5.932194 3.479519 1.721988 3.212166 -0.949015 1.988938 -0.358739 -0.846734 -0.484792 -0.686533 -1.199548 0.108626 1.656012 0.304747 0.623816 0.935580 1.496484 -0.490912 -1.191575 0.503836 -0.025831 1.847711 2.788053 -2.656636 -0.938866 0.624365
up 1.109300 -2.610836 -0.340506 0.905196 1.635333 -1.130198 -2.258090 0.256403 1.212846 0.203278 2.675431 2.452051 -0.969553 0.238043 1.278112 -2.806435 -1.065794 -2.966635 2.588654 -0.299151 1.598311 0.232648 0.652858 1.441077 -0.100180 -0.958233 -4.344632 1.735078 -0.947747 -1.900606 -3.528873 1.667648 -1.582535 -0.744792 -2.340992 0.541085 0.034736 0.931691 -2.212317 -0.810549 -1.456381 0.631909 4.532841 1.621960 0.923540 -1.086848 -1.081827 2.235333 2.175719 1.494750 -0.595130 0.540693 -1.738159 -2.992284 1.121302 0.731334 2.547809 0.698099 -0.624524 -2.459877 -0.183951 0.975720 -2.196362 1.384342 -0.254296 -1.207266 -1.349401 0.944201 -0.986563 0.584808 -1.719559 -0.728127 -0.246888 0.287604 -0.086542 2.119190 -1.504492 2.731095 -2.266640 0.527672 -0.461363 1.423554 1.769374 -0.221670 -1.907983 -1.919402 -2.110526 2.481179 -1.710976 1.387337 2.116614 -0.138930 1.465343 1.829215 0.271732 -0.362695 1.592655 0.923657 0.787698 1.744175
time 1.454784 -0.967362 -1.779157 0.352784 -0.772594 0.534974 -0.159964 0.301607 0.037691 -0.667304 0.077578 -1.901660 0.813375 0.571241 1.577556 -1.377566 -2.927604 -0.760697 0.205989 -0.565996 -2.265326 -0.929813 -2.954564 -0.985161 0.656691 0.262914 -0.406310 0.281620 1.143312 1.392432 0.413232 -1.698204 0.379429 0.994928 -0.676938 -1.140111 1.875889 -0.379388 -2.826296 2.354985 -1.989556 1.115875 -2.017755 0.372822 0.803359 0.811774 0.559164 -0.454721 -1.834391 1.675816 -1.061210 1.418453 -0.171033 -0.510372 1.431656 -2.600396 -0.749640 -0.564074 -1.959222 -2.369028 -0.836275 -0.006306 0.732947 -1.066047 -4.194115 -1.187365 -1.641404 1.264654 -0.087355 -2.435377 -0.867681 -0.642523 1.906374 -0.543198 -2.768673 -0.707446 0.793134 0.410793 2.721270 -2.416367 -0.225654 -3.267939 1.534733 0.029218 -0.626417 -1.015853 1.414286 -1.882381 -1.508699 -0.663241 -0.179158 -2.255233 -0.134354 -1.873779 0.097694 1.044705 0.158733 2.096879 1.905537 0.989590
story 2.099672 0.406252 0.768010 -1.869061 -1.490921 -1.000439 -0.388954 2.493210 -0.105769 -0.092240 -1.270177 0.040644 1.503591 1.481716 -0.836495 -0.727102 -1.037074 -1.228165 -0.444175 -1.663467 3.315431 -0.746442 -0.338780 1.962135 1.717993 0.492566 0.801710 1.548761 1.961773 3.288932 -0.993598 0.481451 -0.495513 0.218385 -1.276466 -0.602431 3.108714 4.762589 -0.396630 0.309481 -1.270369 -0.154746 0.890455 -1.412948 2.716371 0.813814 1.164673 0.807040 0.573346 1.756635 0.192976 -1.348575 -0.537075 -0.803209 -1.900071 1.043038 -0.736766 0.316823 -0.864692 -1.479280 0.975375 0.279793 2.130127 2.187595 -1.079420 -1.252544 -0.474793 -0.824143 -1.934959 0.065424 -0.755667 0.032286 -1.265009 0.079026 -1.782698 -2.337469 0.286326 -1.599847 1.061559 -1.084558 -0.617439 -0.122461 -0.767583 0.042513 -2.107486 -0.467175 -1.167123 -1.134851 0.436305 -0.551049 -0.517304 1.445010 1.462052 1.249782 1.965489 1.392684 -0.136300 1.329577 -2.200785 -0.327794
she 0.536018 1.249949 4.196821 -0.766349 -2.619032 0.755860 1.305212 -1.739558 -0.200342 -2.242576 1.224191 1.444978 -0.077414 1.536916 -1.346534 -1.914947 -1.013603 1.124542 0.581549 0.358703 1.901697 -0.535015 -2.861439 0.448886 -2.822644 -2.079284 0.772738 -1.100835 -1.596917 1.819278 -2.112051 -0.524015 -0.275292 0.104128 -1.734480 -1.235735 0.113366 -0.405171 0.198072 -0.978389 -2.565363 -1.769815 -0.705371 1.118944 -0.006667 -0.091454 0.049383 -0.261989 1.092811 2.040399 -0.714145 1.053258 0.927111 -0.150623 -1.679604 -0.091908 -0.717892 -0.928776 0.496141 -0.070613 -0.438071 2.254036 -2.526494 -0.294815 -2.647753 0.706449 -0.368886 -1.819731 -2.229837 -1.431014 0.179918 -0.999319 -0.939417 -3.723339 0.460694 -2.200923 1.685750 0.492309 1.801279 1.841873 0.325159 -1.225203 1.795023 -3.602195 -1.082597 0.484856 -0.253775 0.403362 0.940428 1.491482 -0.282791 1.025005 -1.313021 -0.094091 0.513311 -3.794585 -2.127779 0.674632 1.122597 0.880576
even -2.330803 -2.262863 -0.035581 0.137292 0.779828 1.121038 1.950466 -1.661271 0.578313 -1.151256 -0.130758 0.802804 0.351050 -0.085863 1.542006 -2.257359 -0.000551 1.162914 -1.926786 -1.063663 1.145253 2.980831 -2.031579 0.290295 0.425848 2.583151 -1.478459 1.189716 -1.157578 -0.575059 -1.205333 -2.315249 -0.513983 -0.673636 -1.107231 -0.004989 -0.554409 1.593929 -0.579871 -1.044842 -1.910667 -1.857976 1.864615 -1.360547 -1.591330 1.954466 1.239593 -0.041489 1.445799 -0.912245 0.396951 -0.900242 0.186353 -1.298037 -1.662619 0.726128 1.316543 -1.456728 0.748045 -0.643335 0.147449 -2.089977 0.709478 -1.459439 -0.917858 -2.784322 -0.199923 0.216166 -0.480842 0.266062 1.039387 -2.404847 -0.669081 -1.061527 0.982924 -1.244930 0.535921 1.518102 0.995415 -1.441726 1.775421 -1.370729 -0.379480 -1.294331 1.089973 -1.643231 0.346832 0.284806 0.197856 -0.455403 -1.702752 -0.247495 -0.446365 -0.054351 1.757619 -2.752945 1.432898 0.061548 -0.464862 0.352249
see -0.785506 -0.910853 1.181011 -2.991336 0.709033 0.420406 2.173649 0.673692 1.021389 -1.095711 -3.092121 -0.212999 -2.285545 -3.779021 1.985126 -1.139005 1.386192 -0.947622 -0.574049 2.249335 2.430148 -0.099744 0.501097 0.938297 0.339723 1.323742 0.951496 2.256838 0.949967 0.133113 0.098785 4.215772 0.601384 -0.014707 -0.385213 0.820284 0.696239 -2.158909 -1.558407 1.041617 -1.295694 0.227454 -1.109493 1.610761 0.139136 0.416953 0.749042 -1.076828 -0.180410 -1.087857 -1.771745 3.413214 -1.280270 -0.010791 -0.838023 2.300433 -1.462918 -1.644333 -1.399287 0.320502 -0.816179 -0.420572 -2.207365 1.495576 0.393565 2.611573 -3.268518 0.594900 -0.070611 1.071362 -0.970169 1.313327 -1.233756 0.188923 0.324621 -4.099636 3.413386 0.637442 -1.796583 -1.479172 -0.548487 -2.366722 1.897728 -0.378131 1.399368 -3.310444 -0.887080 -0.231308 0.841878 -1.000051 -1.269277 0.102756 0.304229 0.601247 -0.274034 -1.444042 -0.579657 0.004780 -1.406070 0.503657
get -1.683597 0.929703 0.029945 -1.701246 -1.833290 -1.241194 3.209956 -0.699540 0.361262 -0.201891 0.783911 0.957803 -3.513224 -1.487159 3.572624 -0.970716 -0.593378 0.043098 -0.013654 -2.137947 2.562344 -0.381201 1.627664 1.395294 -0.197104 -0.470849 -0.963506 2.490967 1.700679 1.982278 1.404925 2.034154 0.609250 1.603501 0.578484 -0.893958 0.234742 -0.405249 0.337444 -1.933445 -1.219538 -0.876224 1.186373 1.334571 1.356276 0.155615 0.951010 -1.176145 0.772826 -2.008484 -0.803341 1.830859 -2.989475 0.273931 -0.433346 -0.599666 -2.857873 0.133153 0.073217 1.031216 -2.825170 -2.341051 -3.086588 -0.605051 -1.192475 0.015760 -1.294999 -0.159112 -1.901240 -0.097134 1.794336 -0.428499 -0.691316 0.759858 -1.353338 -0.210461 1.146969 0.297536 -2.668742 -0.441108 0.489128 -2.541915 2.202441 0.097131 0.953760 -3.259596 -1.131743 -1.265854 -1.672188 -2.721976 -1.205770 2.193419 0.811896 -3.025167 2.177808 -0.821322 0.175284 1.108768 0.779954 -0.401975
people -0.905724 -0.107456 -0.306955 -0.873478 -1.669806 -1.281117 1.723541 -0.750230 -1.145283 -2.786074 -0.394551 -2.937096 -0.183808 -0.775715 0.659196 -1.348986 0.655243 0.024046 0.786204 -2.493163 -1.238029 -1.025549 0.598846 -1.160535 -1.477311 -1.638855 -4.201046 1.146054 1.657260 0.344108 -2.040549 -1.161759 1.905004 2.299978 -1.542335 1.260700 -0.189825 1.953243 1.653340 0.286898 -2.896223 -0.871716 -0.890495 -0.093345 0.900652 1.533263 1.417234 1.846707 -1.041174 0.335501 -1.428391 -1.854280 -0.294638 0.944357 -0.481704 -0.093315 0.605770 -0.538546 2.901261 -1.428162 -1.097504 -0.029569 0.482148 -0.467568 1.823311 0.368171 -1.122241 3.029586 -2.481889 -1.087528 -1.785017 0.607476 0.394058 1.386534 -0.095215 0.006701 2.788073 -0.072962 1.807389 0.425185 -1.979652 -2.468622 0.242806 -1.361959 1.852227 0.584566 -0.298737 -0.126790 -0.888696 3.377775 0.682928 1.603495 0.621674 -0.294411 -1.998708 -0.212738 0.740041 0.337913 0.567804 1.446494
bad 2.568624 3.307214 1.665974 -1.046744 -0.477589 -1.151899 -0.411527 0.068117 2.037785 0.625389 -1.071170 1.290238 -1.809017 -1.185479 2.320603 -1.992252 0.237102 1.072548 -0.773491 -1.520766 -2.034887 0.831079 -0.829847 -0.764818 2.099427 0.829240 -0.019877 1.499133 0.378085 -0.652254 -1.444495 -1.075175 1.823978 -0.035680 -0.084732 -0.361888 1.036424 0.352678 -0.838373 2.235898 -1.529694 -3.270903 1.684074 -1.388100 0.939114 -1.874267 -1.476981 -0.514395 0.225476 0.884523 -0.752250 0.964713 -2.091704 1.250994 1.540975 -0.218914 0.203226 -1.195299 -0.671286 -0.155079 -0.198567 -1.046607 1.236417 0.027947 0.852679 -1.005348 0.096450 -0.703469 -2.493243 -0.936945 0.947150 1.111321 -1.327023 -1.890494 -0.018108 1.836617 0.886855 0.572608 0.334153 -0.072499 2.754112 -2.363493 0.827990 1.120993 -0.437633 -0.192915 -0.528480 -0.700893 1.326157 0.759309 -2.435196 -2.699355 2.536797 0.981379 0.221409 -2.724187 0.420131 0.892716 -0.946994 3.212246
do -1.815219 -0.638232 0.092767 -2.152394 -1.995130 0.131022 1.075790 1.487887 1.896139 0.486121 -3.080745 -0.974947 -1.700128 -0.090675 -0.012644 0.174504 1.041136 -0.717095 -0.445414 -1.374498 -0.491733 -2.456960 -0.538544 0.905869 -1.508293 2.478962 -1.348226 1.111362 -0.884490 -2.184155 0.321406 0.732849 0.969277 2.837732 -1.436226 -0.206471 -0.201844 1.430607 1.294472 -0.784992 -2.266090 -2.124825 -0.632347 0.392743 -0.259788 0.885610 -1.071533 -0.286835 -0.168733 -0.583933 -0.983236 1.316640 0.554078 -0.242126 0.356280 3.278854 -0.184767 -0.959190 -2.493273 -1.168321 -2.081662 -0.818608 -0.347381 0.692407 0.723739 -0.626127 2.342441 -2.084059 -0.627302 -0.303155 0.457944 1.428812 -0.917629 0.869883 -1.218090 0.365542 1.488642 2.199693 -1.934466 -2.494768 -1.136397 -2.525880 2.379415 -2.092503 -0.843277 -0.533069 0.182148 0.195249 -1.828683 -1.322570 -0.217496 -0.087228 -0.320505 0.364023 -0.349651 -1.765075 -0.256972 0.203592 2.308896 0.374137
great 2.906772 1.522604 1.401300 0.413523 1.757217 -0.286203 -0.947699 -0.624314 1.581118 0.779143 -0.003776 -0.000433 -1.782415 -1.314474 -0.930102 -1.186652 -0.889609 -1.402019 -0.337745 0.932083 -1.985050 -0.138217 -2.404767 0.683257 -0.250874 0.654489 0.417746 1.973567 -0.096977 -1.367995 -1.024864 -0.305053 1.096212 0.133247 0.448979 -2.434635 1.415068 -1.111008 -0.323196 0.218995 0.374587 -0.880504 -0.880901 0.558345 0.267682 -0.246388 -1.923924 0.989889 -0.901331 -0.843468 -0.921251 0.926795 -2.241990 0.312455 0.757818 1.879454 0.361533 0.337111 -0.309278 -0.443154 2.037724 -1.288564 1.793245 0.803063 1.472799 -0.399788 1.756568 0.656674 -2.682562 0.572783 0.234261 0.356040 -2.039227 0.084901 1.020154 1.496756 1.197605 -0.795402 1.506720 -1.458148 0.415704 -0.265016 -0.736713 -0.920066 1.351377 0.709044 -1.179506 -0.135637 0.233443 -1.081613 -0.490500 -0.983463 1.441145 0.086906 1.125928 -0.418361 -0.695273 0.658132 1.508980 2.039741
made -1.705844 0.514700 -0.397636 -0.598421 -0.309737 2.712410 1.449081 0.669562 0.167707 -1.181891 -3.775418 0.873277 0.701747 -1.402248 0.624576 0.306695 -0.460134 -0.875170 -1.862988 1.553644 -1.958803 1.119373 -0.408850 3.297483 1.272930 -0.611459 -1.347238 2.203139 0.565978 -1.506378 -0.062051 -0.858291 -0.952088 4.236598 0.528678 0.349358 1.630684 -1.385115 1.865692 1.254556 0.353168 1.775737 -1.176463 0.599992 -0.863941 -0.435507 -1.421332 1.348547 0.317825 2.696539 1.344611 -0.432413 -0.022222 1.576504 0.527004 -0.347155 0.074831 0.197594 -2.046358 1.314842 1.135555 -1.866386 1.205008 -1.747347 1.487444 -1.198051 1.338218 -0.618823 -0.682950 -1.620541 -0.070308 -0.448085 -1.676046 -1.799651 -0.535427 -0.016264 1.665009 -0.358026 -0.160821 -2.160935 1.579162 -1.299310 2.219351 -0.500608 1.009417 0.159260 0.130050 -0.016780 -0.170576 1.699677 -1.754891 0.339063 -1.507290 -0.932049 0.030025 0.618203 1.872086 -0.992093 0.837095 1.870555
make -1.971746 -0.186021 -0.133370 -0.782335 -1.133530 1.310263 2.612002 0.333853 0.866239 0.929019 -2.649052 2.398830 -0.972149 -0.706995 2.684335 0.617151 -1.918632 -2.428295 -1.065384 0.682717 1.089700 -0.666540 0.645253 1.919972 -1.237324 0.592543 -1.060346 1.303499 1.594183 0.060022 0.957272 1.065691 -0.096822 3.077845 0.126345 -0.347704 -0.078798 -2.845790 2.249364 1.087595 -3.326262 0.847794 -0.296986 1.164837 -0.578395 0.863609 0.784865 -1.342010 1.260996 -0.084843 0.321899 0.387020 -0.750241 -1.145831 -0.012802 1.067306 -1.179820 -0.247146 -0.882592 2.470438 -0.589610 -2.819582 0.428264 -0.313409 -0.292778 -0.848133 1.362832 -1.597611 0.182069 -1.348829 1.133475 1.636542 -0.252739 0.698811 1.852485 0.174814 3.103169 -0.396804 -0.726590 -0.761097 2.261326 -4.093953 1.301548 -0.818857 1.345401 -1.779201 -0.948850 -1.307019 -0.493046 -0.428360 -3.655967 1.953565 -1.936505 -0.741869 -0.047887 -0.451611 -0.545201 0.738615 -0.086996 0.185762
way -1.201328 -0.620435 0.135085 0.893074 -0.026940 -0.067786 -0.855857 -0.893926 -2.611691 -0.084038 -0.178297 -0.490724 -0.195386 -0.525859 -0.256955 -1.490255 -1.759990 0.649525 -0.385160 -2.268480 0.580049 1.656218 -0.263467 0.007399 0.629384 1.577285 -0.152484 -0.138686 2.562532 0.257690 -1.755996 -1.587550 -0.480902 2.673810 -0.118964 -1.931012 -0.443740 -0.969449 -1.013926 -2.074498 -2.096493 -1.852929 0.408087 0.377068 1.618570 0.287300 1.281204 1.123147 0.163133 1.644145 0.310810 1.200299 -1.361138 -1.877402 0.213934 1.255530 -1.223547 -1.378713 -0.802504 2.333507 -1.675568 -0.281833 1.691369 2.026535 -1.097361 0.000558 -1.508339 0.238722 0.753453 -0.600381 -0.300732 0.237109 -0.131498 -2.616260 -2.598692 0.285651 0.506302 -1.704633 2.322928 -0.194804 -0.213182 -0.864609 1.284508 0.801918 -1.955301 -0.408324 0.001637 -3.225392 0.783322 -0.043731 -0.658156 -2.224725 1.630962 -1.826902 -1.905859 1.205736 -1.656912 -0.633164 1.171937 0.578321
characters -0.019100 -0.057908 2.351746 -0.974537 -0.695044 -1.339072 1.547176 0.737559 -4.200188 -0.318105 -2.791427 1.491404 1.996796 -1.758207 -0.440420 -0.487680 -1.364337 0.941159 1.981703 -0.991095 0.029172 -2.064799 -0.811321 0.830073 -0.503581 1.807555 -3.301090 1.159295 2.356046 -0.529742 -1.208341 -2.720002 -0.409123 0.352255 0.665095 0.485521 -1.900290 3.072979 -1.306807 0.512902 -0.211785 -0.500875 0.181710 -0.405928 2.194081 -0.303362 0.924908 1.769859 0.021715 1.915958 -2.098085 -2.792992 -1.385815 -1.965156 -0.930255 -2.710640 -2.287354 -1.290821 1.896430 0.352442 -1.559762 -1.004578 1.310127 0.525347 1.021628 1.534692 2.212512 3.673202 -0.518808 0.455453 -0.918454 0.546247 -0.938772 0.956778 -0.954049 -1.565132 0.807682 0.688901 2.083133 -1.937376 -0.434461 -2.216467 -0.202328 -0.584051 0.680300 1.099190 -0.524981 -1.899378 -0.984990 0.851695 0.777724 2.000844 1.601428 1.865664 -3.951888 1.386161 -0.055827 0.301216 -1.308739 1.234642
think 1.748348 -0.814227 0.217519 -0.643540 -1.629974 -0.827851 1.087705 0.274720 2.256412 -0.585973 -1.064291 -1.089031 -0.718352 -1.768555 2.180204 -1.767010 -0.633693 -2.402295 -0.044345 1.438229 2.350126 -0.424137 -1.254587 0.737765 -0.248554 0.536914 -0.065739 1.777370 1.761371 0.671608 0.585280 0.563533 0.654472 1.355909 0.276525 -1.661217 -0.817740 -0.304647 0.658166 0.089283 0.980313 -1.249638 0.542994 0.583096 -0.001970 3.125387 -0.632009 -0.793702 0.615309 -1.711141 -1.187730 0.210037 -1.589412 -2.731491 0.533319 0.892670 -1.938346 -0.788495 0.972036 2.465426 0.417925 -0.124743 -1.755364 -0.238147 0.314321 -1.104116 -1.408606 1.888167 0.144403 -1.310952 -0.365262 -0.717610 0.343128 -1.062068 0.087783 0.598270 -0.418129 1.494685 -1.341273 -0.639717 -0.105813 -2.731462 1.939817 0.764125 0.585557 -0.891652 -1.305302 -1.618345 -0.874305 -0.670515 0.147261 0.465868 1.268404 1.170668 -0.583813 -1.995676 0.254021 0.215432 -1.226083 -0.210737
character 1.173347 -1.224726 2.222259 0.948722 -2.113660 -0.335637 0.954755 1.288606 -0.422503 -0.496175 -2.176103 3.189263 0.730082 0.672212 0.095337 -1.504390 0.051581 3.002968 0.550946 0.324346 1.494416 -2.386629 -2.963605 -0.000136 -1.328629 2.665479 -0.537541 -0.592882 -0.576513 0.506558 -1.935222 -1.380294 -0.703990 1.474354 1.563360 0.361092 -1.702541 3.244408 -0.830792 0.216087 0.403686 0.051075 1.263869 -0.893726 0.972985 -1.694004 0.034889 2.059484 -0.324281 1.570729 -1.352428 -1.474360 -2.276187 -1.785729 -2.154429 -3.262854 -1.519812 -1.585153 -1.418699 0.865942 -1.124010 0.285596 -3.106943 0.427239 0.486795 2.505380 1.074114 2.595836 0.632268 0.243812 0.081270 0.358815 0.036328 -0.813134 -1.551987 -1.707692 -0.585872 -0.333120 2.326457 -2.551776 0.084734 -0.883987 -0.852475 -0.834600 1.398087 -0.302628 -1.096381 -1.613137 -0.390025 0.419879 0.133736 1.177993 0.493221 -0.437632 -2.714386 2.712887 0.759799 -0.302057 0.093977 0.650638
plot 1.755022 0.539965 2.098997 0.110415 -0.208941 -1.371262 -1.449268 2.187094 1.451944 -0.413841 -1.666829 1.585557 2.691671 0.702220 -0.005318 -1.199279 -1.702860 0.013541 -0.800682 -3.172607 2.936871 -0.834186 1.784479 1.864902 2.944725 1.621379 0.385900 0.668208 1.221943 2.154216 0.215311 0.465677 -0.581904 -0.280773 -0.419300 -0.257862 0.842988 3.964643 -0.895835 1.201749 0.019449 -0.842441 0.894123 -1.331382 2.223669 0.691327 1.582649 -0.159177 2.170076 3.018187 0.798998 -1.561935 -0.710326 -0.456215 -1.547506 -0.091435 -2.330412 -1.414020 0.347805 -1.923995 1.154442 0.017401 1.781989 1.981738 -0.458114 -0.330972 0.378280 -0.943528 -1.965151 0.236411 -0.720443 0.296522 -0.715099 -0.841453 -1.674086 -2.630783 -0.977761 -0.759703 0.455769 -1.436882 -0.115769 -3.325163 -0.299228 -0.233233 -1.318078 0.318441 -0.631157 0.073284 0.071524 0.531584 -0.519220 3.527454 1.228265 0.514863 1.280503 0.351853 -0.497681 0.913494 -2.030369 0.063984
being -2.013640 1.098369 0.080613 0.335159 -0.763804 -0.408927 1.554351 1.555232 0.253586 -0.743213 -0.039887 0.492691 -0.711020 0.685399 1.004486 -0.536380 -0.924077 -0.435340 -0.440378 -0.688419 1.244571 -0.442875 0.554908 -0.343363 0.021719 -0.231877 0.146981 -1.149992 -0.289193 1.009289 -1.246683 -1.049263 0.087274 -2.708251 -2.108547 1.043450 2.775536 0.174294 1.684980 -2.599163 0.588974 -2.214779 1.107372 1.492815 2.526976 1.041280 -0.054292 -0.543159 0.780685 -0.318596 0.295839 0.508119 -0.433396 -1.561057 0.780542 -2.394639 -1.224262 0.776927 0.800380 0.925480 -2.286730 -0.601600 -0.395308 -0.145483 0.300396 1.818926 0.299164 0.384243 -0.475828 -1.984202 0.280341 -2.000134 0.965315 0.673246 0.519545 1.354608 -1.440179 -1.171296 -0.186482 -2.631461 0.033284 -0.020385 -1.295914 -0.491107 0.454600 1.146952 -0.392455 0.399492 0.488577 0.760665 0.997498 -0.486074 -1.910276 -1.111386 -0.667694 -0.422533 0.575170 1.020917 -0.756645 -0.796758
watch 0.099780 -1.166088 -0.708332 -2.176236 0.604500 0.560822 1.266443 1.985933 -0.549089 -0.191866 -3.191667 -0.373331 -2.097588 -5.152081 1.246496 -1.234734 0.977750 -1.323085 -0.720818 1.723354 1.657564 0.142988 0.019997 1.175582 -0.597741 1.664375 2.169462 1.417764 1.982758 -0.424594 0.435451 2.677297 -0.320493 -2.464280 -0.849507 -0.353761 0.351599 -1.433345 -1.107946 1.405069 -1.863241 -1.523848 -0.131650 -0.527442 -0.126701 1.450597 1.423692 -0.651415 0.821069 0.154370 -0.485841 2.675727 -1.471037 -1.941680 -0.387113 1.070112 -1.230346 -0.600206 -1.847315 -0.409061 0.612963 -2.003385 -0.575525 2.609643 0.658565 0.478657 -1.358964 -1.668625 -0.711482 -1.589158 -1.837724 -0.278608 0.871206 0.318097 -0.057464 -3.148260 3.304186 0.269801 -1.631022 -2.980422 0.708888 -2.810128 2.570129 -0.725484 3.253280 -0.906431 -0.512115 1.615318 -0.741037 0.397627 -0.615366 0.024991 0.376292 -0.985305 -0.368560 -0.583927 -0.109886 0.908458 0.682736 -0.060163
acting -2.736725 -0.177664 2.675337 -0.147508 -0.787525 -1.687503 1.202409 -1.262425 0.629879 0.506228 -0.613004 0.153471 -0.737970 -0.377556 1.846703 -0.752014 -2.274576 1.024828 0.944914 -3.335974 0.313791 -0.658026 -0.344316 1.006908 3.363784 -0.169829 0.501785 1.211786 -0.373791 1.653647 1.691358 -1.604923 -0.137018 -0.093610 0.681828 -2.678540 -2.624795 3.336809 -0.435200 2.324769 1.682263 -2.678224 -1.521721 -0.365414 0.399784 3.313667 0.264930 1.520553 0.658960 2.917260 0.201383 -1.254312 -1.061398 -0.431958 0.089144 0.594582 0.009383 -0.008630 -0.851983 0.063242 0.607318 0.076355 1.188068 1.361573 -1.663263 2.578989 1.419105 0.975874 -0.838423 -3.629663 -1.528174 -0.281154 -2.257561 -0.524692 0.725184 0.873637 -1.166297 -0.402829 -1.047947 -1.217377 0.273662 -0.897673 1.520018 0.145973 0.151187 -1.283259 -1.107237 -0.417612 3.128767 0.105336 -0.190204 -0.387684 -1.268581 -1.890524 1.449267 0.343567 0.972398 -0.367861 -1.083025 0.991767
life 0.689749 -1.040208 1.165148 -0.919490 -0.542551 -0.919567 0.012143 1.350582 -1.888343 0.365427 -0.918972 -0.816116 -1.515012 1.263517 -0.049674 -2.810484 -0.171847 -2.211246 0.437511 -1.288704 0.846992 2.971421 -0.361062 -0.256206 0.686964 0.429199 1.003836 0.898489 -1.983102 -0.826196 0.908785 0.056529 1.082993 2.526339 0.544966 -0.729317 0.809701 1.628076 3.573378 0.079019 -2.114211 -0.446533 0.999039 2.450280 0.528885 -0.226508 0.123554 0.495072 -1.158543 0.200824 -2.022744 0.933279 -0.264783 -0.592384 -1.081715 -1.480945 0.149383 0.651385 0.268606 -2.021925 1.871894 1.771109 0.243986 0.588772 -2.700052 0.105483 -0.770023 0.971314 -1.236938 -1.453002 -0.209180 -0.518531 1.201540 0.463957 -0.394649 -1.292098 1.291923 -2.361317 1.395457 -1.509678 -2.054563 -0.338519 -1.536276 -1.352683 -0.299696 -3.557253 -1.846478 0.827095 1.798381 0.806792 -0.862152 0.473629 -0.048568 -3.538796 -2.916520 -0.456749 1.572188 2.248106 -1.413892 1.154450
over 0.384745 0.625464 -0.730045 -1.814061 1.896295 -2.399489 -0.286090 -0.847236 0.339413 0.274140 0.327539 -0.076014 2.454332 0.496080 -1.551350 0.142148 -0.020707 1.513621 1.738229 -1.651781 -1.516912 -0.954910 0.338110 -0.552494 -2.753720 1.851179 1.542706 1.538137 1.527850 2.397974 -1.121228 0.647238 -1.860053 -2.621531 0.916276 -2.869896 -0.212602 -2.555001 0.603187 1.045282 -0.533187 1.290878 -1.942770 3.014740 0.243464 0.446594 -1.169600 1.009143 2.530540 -0.939989 0.010357 0.459038 -1.568890 0.192019 -0.012893 0.986876 -0.316381 -2.295316 1.014638 -1.637580 -0.958497 0.905836 -1.880883 -1.197167 1.437473 -1.893504 0.593384 0.613176 -0.671156 1.061380 -1.145638 -1.345034 0.534341 0.316658 -0.868333 0.943334 -0.515788 1.267871 0.369477 -2.616448 -1.132667 -1.506458 1.163051 -0.067495 -1.858396 -0.811504 0.372137 1.808902 0.700068 1.797650 -1.155723 -1.217807 -2.167842 0.202363 2.073160 1.930211 -0.807815 -0.098763 -0.312513 2.019320
know 1.329129 0.270658 1.969840 -2.848943 -1.158968 -0.861310 2.716633 -0.692404 1.898794 -2.568910 -1.738616 -0.247111 -1.503723 -1.891982 1.475033 -3.241234 0.775082 -1.090958 -1.072092 1.550101 1.270779 1.149244 -0.708943 0.646904 0.857963 0.508917 -2.015004 1.771386 1.166531 1.504096 0.436167 2.189413 0.460694 1.945520 -1.557222 -1.054796 -1.691447 -0.216618 0.478052 -0.343031 1.633536 -0.554005 0.338691 2.015075 0.587364 2.463016 -0.879379 0.127127 -0.758292 -3.455003 -2.410793 1.077121 0.280449 -1.694100 -0.004700 1.928035 -0.602459 0.193438 -0.792043 0.922671 -1.470869 1.501618 -3.084672 0.809207 0.741705 -2.750504 -1.398005 1.220596 -0.256511 1.037778 -1.225396 0.790189 -1.241370 0.322425 -1.224684 -0.053909 0.924841 3.158871 -1.049622 -0.828069 -1.019318 -5.041261 0.168541 0.672250 0.340539 -1.698960 -1.544499 -1.804892 -0.396490 -2.140684 -1.375469 0.117850 1.834677 1.159126 -0.287654 -0.411922 -0.842994 -1.014472 -1.916572 0.028994
show -0.558057 0.370880 1.589429 -0.754310 -0.274658 2.270694 1.561181 1.279327 0.017450 -1.178816 -2.177188 -0.596065 -0.169462 0.560689 0.160035 -0.434435 -1.648971 -0.906405 1.888409 0.083311 2.630324 -1.421909 -1.080233 0.861392 -0.217058 -0.172201 -0.901813 1.300679 -0.156227 0.153914 -0.841795 -0.331511 -0.316940 1.662841 0.078616 0.025575 0.816733 0.746857 -0.422787 0.013543 -0.232760 0.046677 -1.000360 0.318950 1.396567 0.861769 -0.912600 -1.484163 1.479950 -1.832991 -0.363224 1.261624 -0.994469 -3.427620 -1.923163 1.383325 0.481080 0.419171 -0.860957 -0.638250 0.923950 -0.471633 -1.319596 0.604769 -0.815408 0.570302 -2.212634 -0.000888 -1.689150 -3.041648 0.714529 0.966478 0.206377 1.831701 -0.120774 1.352528 1.821398 -0.958336 1.057272 -2.564262 -0.166517 -1.063445 1.063877 -0.990973 -1.332932 1.982024 0.742331 -0.143560 -0.162548 1.449538 -1.468364 -0.294373 -0.151905 -0.825467 1.885244 0.013964 -0.216804 -1.826904 -1.539106 1.938771
love 0.129489 -0.451273 1.952713 -2.289721 0.086602 -0.171216 0.852184 -1.792169 0.956903 2.403141 0.225847 -0.991381 -0.019404 -3.001094 -0.638506 -2.457077 -1.233746 -3.549303 0.083982 0.459910 0.393237 -0.871392 -0.908744 -1.813499 -1.048694 0.039702 -0.433991 2.898349 1.322452 0.870171 -0.719164 -0.791665 0.617643 0.199180 0.713671 -1.565993 -0.236647 0.381457 1.780668 -0.986246 -1.078275 -2.276600 -2.726857 0.046580 0.883268 -0.145098 0.523605 -0.419584 -2.260430 0.974773 -0.137817 1.616284 0.469796 -2.318974 0.466684 -1.811850 -0.123219 1.954838 -1.689540 3.300080 -0.113568 1.036383 0.062168 -0.752742 1.577227 -0.278860 0.564771 1.216760 -0.301982 -0.837970 -1.738705 1.912235 -0.664735 0.055369 0.315976 -1.489657 0.080948 1.575127 0.403905 -0.523685 -2.448491 1.347941 1.695039 0.188016 0.007305 -1.472520 -1.030246 2.360860 0.643212 -1.822958 -0.942777 -0.756894 2.988011 -1.717054 0.037557 -1.022611 -0.863782 0.377898 0.671876 0.480676
end -0.747854 0.812872 -0.637316 -1.936837 1.801907 -1.345402 1.582532 1.027723 2.888487 -0.618558 -0.143438 -0.228435 1.065973 -0.908032 -0.214640 0.968484 -1.318504 -1.123685 -0.252867 -0.091232 1.763343 -0.124181 -0.348962 -1.093021 1.902080 1.730605 -1.335804 1.020675 -2.781871 2.436029 -0.017270 -1.009890 1.977827 1.574718 -0.785210 -1.302412 0.190384 -2.169161 0.429680 -0.661983 -1.087755 -0.610875 2.169293 -0.178341 -1.136145 4.042760 -0.015891 -1.079219 -1.204968 1.823402 1.843192 2.455648 0.942891 -1.126793 -0.050903 -1.924242 -4.801484 -0.351204 1.397425 -1.406617 -3.744632 -0.904919 2.448667 1.142906 -0.799994 0.198049 -0.860014 1.905733 -0.255214 -1.386891 -3.169300 0.682782 0.253739 -2.287985 -1.215574 -0.190481 2.173019 -0.359542 1.501822 0.350104 0.610759 -0.154454 2.262876 -1.870352 -2.512785 1.571558 -0.996863 -1.212587 0.630597 -0.171307 -0.372834 1.436790 0.665341 -2.400544 -0.889869 -1.541297 -1.148856 0.787057 -1.769041 4.043981
say -0.234034 -3.400259 0.049058 -0.759060 -4.254241 0.298277 -0.129954 0.550556 3.727040 1.058588 -2.816958 -2.556794 -1.339540 -0.614801 -0.017707 0.453973 0.263005 -0.797889 -1.075899 -0.142296 1.384984 0.060468 0.166440 0.219626 0.176207 1.114346 1.034883 3.481840 0.394548 1.269772 0.773167 0.888961 0.148845 0.108532 -0.486670 -0.249120 0.188022 -1.506152 1.544974 0.350727 -2.152081 -2.514132 0.465668 1.191724 -0.353735 3.881852 -1.330677 -1.277924 1.259570 -0.003017 -0.554637 0.050766 -0.988815 0.148837 1.610119 2.611845 -1.514975 -3.277996 -1.404465 0.350213 -0.121428 -0.637832 -2.862738 2.617090 0.364037 1.559653 -3.260618 -0.818108 -1.708252 -1.247323 0.318918 1.109184 -1.786060 0.616717 0.168742 -0.961365 -0.618108 1.570565 -0.523314 -3.542229 -0.570737 -2.835683 2.643259 0.302408 -0.309948 0.080035 -1.976904 -1.914596 0.481981 0.082102 -0.972525 0.285698 0.364800 1.829930 -2.005662 -1.968349 -0.019550 -0.060781 -0.914304 0.690902
scene -1.029690 1.651859 1.262158 0.660502 -0.856846 -1.719942 -0.744391 1.175669 0.461146 -0.881681 -0.197178 0.443048 0.794455 -2.054834 -0.263832 0.232601 -1.287164 3.357107 3.201238 1.002993 4.033406 -0.730802 0.442579 -0.992017 -0.339730 -0.491668 -1.865547 -1.583091 0.847832 -0.174305 -1.716167 1.667871 -0.459714 1.234619 -0.716692 -1.616265 1.678101 1.748962 -2.168219 -2.055095 -1.247277 2.121144 1.084632 0.080409 -0.141517 3.070791 1.551319 -0.858078 0.235524 1.848800 2.329262 1.229445 0.190598 -0.572840 4.393345 -0.809164 -2.678914 -2.264563 -3.216680 -0.729503 2.983834 3.119192 -0.640908 -0.402221 0.152441 -0.593575 0.059935 -0.566669 0.828641 -0.832667 1.406852 0.030005 -0.184758 -1.541031 -2.395582 -2.685464 0.714410 0.136441 1.239431 -0.892241 0.405812 0.809238 -0.549866 0.079841 0.182043 1.784958 -1.852188 -1.586519 0.439971 -1.186161 -0.177292 -1.750080 -0.497081 -1.357749 0.213400 -0.728119 2.249460 -0.009467 -0.021484 2.276282
man 0.271599 0.165674 0.373581 -1.230302 -0.055483 1.395511 1.401410 0.442902 0.881168 0.343275 0.716048 -2.417559 -0.431605 0.262434 2.468383 0.786217 -0.677298 -0.418502 1.120974 -0.391052 -0.330649 0.046178 0.798420 0.169236 -1.409571 -0.646294 -2.730598 -0.934095 -0.789073 1.671205 -1.081967 -1.522308 0.307353 0.736425 0.161114 -1.238710 -0.367726 1.224939 1.026551 -1.416129 -0.924664 0.311295 0.452548 -0.619950 0.321032 -0.641425 1.122880 1.619343 0.338107 2.345361 -0.449466 -2.086524 -1.199039 0.230222 -2.153447 -0.993822 -0.017005 -0.613878 -0.627622 -1.290481 -1.605993 0.804528 -3.558227 0.892171 0.552985 1.056737 -0.747962 1.339096 0.301239 -1.834117 -0.566275 1.879912 0.312728 -1.403692 -1.694887 -1.109699 1.024523 0.099629 0.773625 1.943267 -2.115216 0.387142 -0.663176 -1.412120 -0.270310 -0.812532 -2.837775 1.035154 2.107306 0.214949 0.119742 0.393015 0.272087 -0.739464 0.123012 2.250754 1.913187 -0.078348 -0.469123 -1.280474
go 1.008793 1.797595 1.928421 1.338222 -3.176677 0.660723 0.387021 -1.183077 -0.751222 0.061284 -0.305125 -0.436986 -3.488075 -2.871954 1.388411 -2.002860 0.183399 -0.527127 -0.511470 -2.345831 1.165339 0.112659 0.329883 0.957248 -1.159802 1.764409 -1.427280 2.168282 2.200439 0.760968 1.296126 -0.818810 0.714722 1.407925 -0.041885 0.361605 -0.467680 -1.380435 0.125209 -1.527789 -1.364840 -2.917455 1.178330 1.088556 -2.232865 1.265773 0.978520 -0.345241 1.561774 -1.362795 -0.011234 3.060467 0.577829 1.571180 0.872920 1.278728 0.167705 1.013991 0.521553 0.405103 -1.119071 -0.751570 -1.017205 0.305783 -1.595341 -2.514024 -0.606657 -3.079721 -1.064708 -0.266340 1.022739 1.249860 -0.209268 0.459699 -2.614201 -2.060238 1.693716 -0.887475 -1.864600 -3.397604 -0.222601 -0.210697 3.501389 -2.169593 0.310216 -0.393423 -2.289035 0.752145 -0.595243 -1.360335 -1.577614 2.948400 1.863464 -1.138426 0.088532 0.405717 -1.799701 -0.991381 1.441665 -0.460801
back 1.302738 -1.830065 -0.156819 1.810381 2.007827 -1.678598 -1.275278 0.140491 -0.714907 0.033625 0.381444 0.865827 -0.308785 -0.883090 1.188589 -0.167998 0.976895 2.053684 1.262476 1.310810 0.143724 1.986901 -0.490276 1.318110 -1.110848 2.022468 -0.844069 2.085714 -0.823246 -1.110826 -1.009424 0.696197 0.639954 1.204011 -1.305028 -0.592287 -1.970263 -2.777478 1.677714 0.591897 -3.072954 1.661666 -1.145407 2.708363 -0.684956 -1.002563 0.465328 2.020937 1.235515 -0.149842 0.791887 1.255740 0.178398 0.412744 -0.626265 -1.918482 1.085963 -0.889356 0.905935 -1.318540 -0.031661 0.418609 -0.482843 1.125550 -1.355710 -1.027729 -0.270877 0.269034 -3.414534 -1.173886 -2.584821 0.047369 -0.605551 1.107928 0.038331 -0.894045 1.061985 0.440959 -0.544905 0.641871 0.257770 -1.673345 1.444162 0.716916 -1.835289 -1.407874 1.503986 4.341138 1.292210 0.227680 -0.831151 -0.912536 0.261195 -1.295377 -0.082210 -1.258083 -1.240626 0.429785 -2.192496 1.209258
real -0.681805 0.355964 0.354161 0.231394 1.552356 -0.104550 0.791392 -1.539530 0.965710 -0.731819 -0.193578 0.214283 0.821503 -2.004166 -1.649858 -0.389183 0.546268 -2.952873 -0.781778 0.243217 -0.129764 0.034116 -2.497357 0.971243 -1.512727 -1.024266 0.179644 1.599311 -0.208326 -0.139865 -1.229908 -2.136521 0.881764 0.988941 0.561817 -0.155844 -0.311756 0.663585 0.037478 -0.650200 0.160922 -1.642799 2.168076 -0.337760 1.704201 0.766972 -2.649731 2.230829 -0.566395 -0.334485 -0.481461 0.669537 -1.137043 -0.433301 -0.377284 2.172308 1.129883 -2.820934 -0.681824 -0.110659 -0.946230 -1.507633 0.838690 0.329537 -0.015312 0.834356 2.506118 0.068748 -1.563344 -1.311300 -0.777464 2.075015 -1.197206 -1.111994 1.085576 0.635251 0.856038 -1.638860 2.035348 -0.176310 2.541940 -0.912364 -0.120130 0.385432 -0.200983 -1.853440 1.784686 0.260180 0.260327 -0.866656 0.025705 -0.406083 0.932701 -0.541647 -0.715607 -0.252219 0.249151 -0.006607 -2.053699 -1.567213
thing 0.957904 -1.622197 -0.666857 0.483873 -2.723422 2.010400 -0.593538 0.314566 0.578830 -4.012409 -2.437426 -0.074059 1.860010 -1.707018 2.115824 -1.217983 -4.906522 0.773011 -1.366953 -1.875865 3.190217 1.679783 -1.636630 -1.773833 0.718995 -0.325982 -1.919876 -1.313514 1.616304 2.061127 -1.039802 0.752755 1.569462 1.481377 1.679025 -2.923517 -0.635529 0.070938 -1.003664 -1.058063 -1.007493 -0.908582 -0.354611 0.928702 0.895945 -0.723642 -0.384891 -0.192697 0.650235 -0.661209 -0.411365 -3.716154 -2.138965 -1.210024 1.558435 -0.374686 -0.242139 -2.945294 -1.800355 0.792412 1.143379 1.731593 1.283422 1.477261 0.427527 0.102015 -0.502748 -0.857066 -1.015731 -2.773331 -0.197254 -1.646566 0.598983 -0.984847 -1.083795 -1.150217 2.968675 0.066445 0.979110 -2.676709 0.713617 -2.345834 0.568831 3.077241 0.022676 2.103558 -2.045262 -1.603442 1.150363 1.937508 -0.070506 0.567022 -0.047110 -0.057468 -1.071907 1.152825 0.766720 0.594323 -0.515496 1.498765
old 1.434372 1.138532 -0.326259 -2.480783 1.370053 -0.090555 0.316329 -2.422338 -1.081316 1.400265 -2.304111 -1.110276 -0.831337 1.545444 -0.965084 1.920626 0.000622 -1.793318 -0.378493 -1.774664 -1.092347 1.865601 0.608908 0.581526 0.035445 1.302063 -0.015353 -0.477921 -0.482174 4.108844 -1.965609 0.253804 -1.262700 0.641391 -0.585913 -1.507903 -0.299743 -0.648002 -0.044439 0.466144 -1.634262 -1.497288 -0.637874 0.339326 -3.015240 -0.505793 -0.266291 2.451667 2.042454 -1.809925 0.514510 1.270150 -0.602375 0.160153 1.065344 -1.970243 1.193290 1.529168 0.277700 1.790035 -1.470072 -2.277071 -2.551943 -0.563272 2.613107 0.277942 -2.345552 -0.072660 -1.921582 -0.122359 -1.734755 -1.205523 -2.671195 -0.784627 -0.772117 0.773215 -0.503456 0.351023 0.305986 -0.321839 2.587093 -1.664339 -1.873916 0.872036 -4.465325 0.472461 -0.861406 2.242100 0.071196 0.767070 -3.111057 2.032146 1.333436 0.163673 1.062349 -0.738517 -1.229778 0.764133 1.681354 2.438106
work -0.455411 0.082686 0.311188 -2.324269 -2.473284 -1.532701 0.247725 -0.120128 0.895183 -0.922108 0.570040 -0.965293 -1.429218 -0.895813 0.051189 -0.826706 -3.365441 0.363599 -0.493906 -0.842681 0.208144 -1.335358 -1.024609 0.902993 -0.776375 0.908038 0.453345 1.188657 0.618452 0.793710 -1.103752 1.167963 0.478581 2.170128 -1.006612 -0.499656 -0.862486 -0.191585 0.387583 0.038480 1.570016 -1.065873 0.248453 1.570039 -1.262417 2.628394 1.465312 1.681934 0.536427 -1.624956 -1.335985 -0.902531 0.900609 -1.120074 -1.865416 1.212593 2.531818 0.062099 -2.892160 -0.273413 -1.407518 -0.401897 -0.438461 1.001498 -2.106743 -0.645564 -0.007987 -0.218745 -0.516863 -0.777807 0.139301 0.566011 0.114513 0.831194 -0.102610 0.412793 -1.124747 -0.609397 1.276680 -1.948744 0.992031 -0.426808 1.919478 -1.018884 -0.199108 -1.050448 0.046016 -2.268848 1.749982 -1.768563 -0.402676 1.232253 1.704354 -0.816739 -0.283011 0.775951 0.892932 0.793442 2.363734 1.362447
makes -2.296556 1.321269 -0.055433 -0.147305 1.361702 2.780627 1.242812 0.605662 -2.528291 0.490164 -2.746646 2.046564 -0.045196 -0.930125 -1.045433 1.572205 0.537252 -2.169905 -2.741618 2.020190 -2.627973 1.520826 -1.538197 -0.847354 0.385799 0.275470 -1.929384 1.119886 -0.072500 -1.311992 -1.391945 2.031456 -0.590506 2.388045 -1.253940 0.235888 -0.566445 0.056977 2.803586 0.997498 -1.116056 3.660124 -0.403765 0.334396 -0.863868 -0.257066 1.726931 -0.184882 -0.668261 2.190390 -0.351696 -0.345362 -0.260478 -0.252016 0.010639 -1.165279 -2.331321 0.903348 -2.174033 2.508607 -0.403130 -1.395556 2.329408 -0.196987 0.659306 -1.093620 3.201777 0.073094 0.760301 -1.374479 1.537365 1.394819 -0.959995 0.406080 0.073783 2.431831 1.726528 -0.086013 -1.261871 -1.110216 2.938856 -0.857829 1.979379 -0.049549 0.946190 -0.904340 -2.175314 -2.113674 -0.003173 2.612010 -1.963198 -0.701069 -3.151955 -1.243954 1.317937 1.557738 1.432180 -1.650292 -0.730912 -0.711477
funny 3.911809 1.271537 -1.119426 -0.747982 -0.157065 -1.272242 0.212494 -0.128668 2.136147 0.279892 -1.845618 2.250295 -1.800823 -1.689925 -0.699945 -1.759131 -0.091286 0.853434 0.413324 -0.100342 -2.000838 0.599516 -0.054856 2.429256 0.814755 0.490435 0.379065 0.804032 0.730537 -0.543707 0.630320 0.373239 0.324329 0.335952 1.180808 -0.539363 0.118503 3.366658 -0.132911 0.940556 -2.191408 -1.561039 0.081337 -1.708364 2.027374 1.093996 -0.394343 -0.951899 0.563671 0.273728 0.807474 -0.852245 -0.554544 -0.912670 0.501185 0.439425 0.955560 -0.432895 -2.082675 -1.204275 1.295455 -2.257871 -0.523146 0.585869 1.577258 0.811571 -0.537860 2.400979 -1.877848 -1.077004 0.911030 1.111292 0.552322 -1.804268 -0.160269 2.575660 3.439418 0.233953 1.869567 -3.076614 0.069149 -2.575637 0.524383 -1.033289 -1.028313 1.079467 -1.431056 -1.230567 0.653469 -1.124432 -0.914659 -1.773812 0.565727 1.177678 -0.141214 -2.273609 -0.743011 -1.343639 1.011713 2.378788
find 0.039923 -1.472402 0.216781 -1.714646 -1.678698 -0.987604 1.860335 0.469023 0.692925 -0.406493 -1.732739 0.319026 -0.557378 -3.374923 1.004019 -0.377337 0.407675 -1.761408 -0.054181 1.683189 1.941871 -0.037309 2.619052 0.734151 0.550736 -0.379790 1.821706 1.288347 1.599099 0.267147 2.224036 1.866461 0.060410 1.026267 0.861689 1.521295 -0.492513 -0.654146 2.096196 -3.217816 -2.995034 -1.750462 -0.463535 1.347779 -2.540509 0.672594 0.223016 -1.049310 1.155849 -1.892130 -0.882215 -0.102457 -1.878027 -0.597333 -2.188018 1.599144 -2.555334 -0.849318 -0.893593 1.761477 -2.072760 0.900391 -1.412439 0.232982 -1.090530 0.678954 -2.552190 -0.541913 -0.715237 -0.419753 1.527711 2.253913 2.069037 -0.847821 -0.704913 -1.541681 1.180176 0.943536 -0.296333 -1.651100 1.401032 -2.103444 0.243817 -0.434439 0.959688 -3.552245 -0.441203 -2.825332 -1.989060 -1.848197 0.610767 2.282805 0.337655 -0.208356 1.076171 -1.374712 -0.156960 1.126906 -0.021441 -0.236258
same 3.552053 -0.671990 0.223302 2.302789 1.828387 -0.441054 0.539345 -2.832968 -0.461221 1.041562 -0.156693 0.219127 -0.376970 -0.545773 0.442239 1.251483 -1.081306 -1.804241 0.410015 -0.141356 0.359214 -0.501645 -0.004772 2.974536 2.446537 -0.024370 2.384275 2.739311 -2.530965 0.761050 -3.003099 -0.825550 1.167592 -1.319119 -1.939620 -3.234995 0.038761 0.708185 0.780213 0.414494 1.772225 -0.472315 1.089024 1.024695 1.404000 0.554695 0.312577 -1.463711 0.091229 -0.480088 0.035651 -2.336013 0.778110 1.024683 -0.425282 -1.360119 0.503116 -1.545840 0.787533 0.579055 -3.960953 0.016295 -1.887905 -0.490644 -0.278453 0.024701 0.186372 2.372999 -0.627090 -0.478449 -0.592189 0.105271 0.568457 -1.417578 -1.171365 0.375365 1.758721 -0.748771 -0.048403 0.959055 -2.057065 -1.627878 0.457395 -0.607451 0.135220 1.656972 3.195505 -0.101133 -0.998258 -1.256852 -1.028728 0.467703 1.580885 -0.137199 1.518939 -1.685660 -0.455726 0.380235 1.242263 0.546459
look 2.056289 -0.960232 -0.873473 -2.228241 -2.594446 0.047643 1.206358 0.048195 0.146487 -1.034066 -3.329273 2.051579 -0.496403 -1.358258 2.100067 0.590636 -0.028728 -0.574920 0.963845 -1.343815 1.123088 -1.620957 -1.554650 2.299327 1.985834 2.504518 0.892202 1.518818 -1.312268 2.618737 0.351668 0.345310 2.265432 0.951926 -5.143301 0.789152 -1.722440 0.002004 -1.059930 1.054818 -1.922545 1.225143 1.224375 -1.238994 -1.700457 2.857616 -0.351793 -1.051121 0.205876 -2.243770 -2.666232 3.083842 -0.655256 -1.819322 -0.995237 -0.370615 -0.218553 0.479165 -0.069666 -1.380887 0.195983 -1.674879 -1.179795 -0.701387 0.597256 0.737914 -0.115283 0.352432 -0.191634 -1.177314 -1.025129 -0.036338 -0.539144 -1.773270 -0.188360 -0.026201 1.623464 -0.627060 1.007971 0.088813 0.328285 0.809827 2.293518 0.871188 1.802427 -1.907821 0.455719 -1.901019 2.307069 -0.836505 1.685924 2.372633 -1.417521 -1.124624 0.655530 0.143889 1.577934 0.577172 0.651635 0.478628
part -0.203815 0.454865 1.607973 -0.085917 -1.061407 -0.020406 1.149180 -0.580328 -1.070130 -2.810642 -2.584340 -1.466208 0.465433 -0.823184 0.670730 -0.912667 -1.477237 0.556167 0.511678 0.301252 0.343904 -0.187191 -3.231915 -0.860197 -0.425221 0.295189 0.195999 -1.402021 1.494899 -0.023141 1.271537 -0.339330 0.770450 1.635875 0.488395 -1.195035 1.122434 0.581318 0.358065 -0.408374 -0.675422 -0.205359 0.949382 2.701377 -0.947299 0.063089 0.084795 0.291680 0.838612 1.137813 0.120780 -1.731450 0.941962 -2.669923 -0.644130 -1.792315 -1.250183 -2.379889 -2.178367 -2.427726 -0.035026 1.043798 0.995769 0.650940 0.026405 0.486472 -0.889287 1.250178 0.614408 -0.745457 0.991883 -0.738972 0.685212 -1.225395 0.922323 0.933051 -0.626125 -0.223168 0.401170 -1.301395 1.261414 0.181474 0.277038 0.660612 1.530966 0.797445 -0.399221 0.090254 -0.464277 -0.874370 -1.044863 -0.674193 2.311756 1.084740 -0.573326 1.370492 0.366520 0.006224 -0.382801 0.669501
cast 0.329799 0.213329 2.978406 -0.522566 -0.231289 0.546301 0.041860 1.766091 -0.564856 -0.827624 -1.951181 0.847423 0.025907 0.347421 1.224352 0.259827 -3.106042 -0.049889 2.610813 -0.140888 3.147589 -1.304862 -1.420759 -0.708822 4.033994 1.249001 -0.821134 -0.163084 -0.150694 0.049020 1.262370 -0.370536 -0.551610 1.704237 1.282278 -1.519729 0.471071 1.075183 -0.853334 0.103117 0.583601 -0.247516 -2.086260 0.601867 -1.413214 0.747179 -0.634920 2.660003 1.385692 4.329281 -1.799359 -0.834289 -0.771464 -1.869257 -1.069736 2.075727 0.049048 -1.956872 1.494210 -1.681321 1.392880 -1.624867 1.533132 -0.424569 -0.061109 3.802768 1.305808 1.682257 2.025636 -0.460814 -1.562557 -0.968844 -0.955231 2.326069 0.456597 1.348048 1.707052 0.922024 -0.817330 -2.670941 0.046342 -2.411525 -0.843514 -2.585989 1.041259 -0.500750 0.200905 -1.398752 0.925521 1.884288 1.218664 0.333438 0.352606 -0.150921 -0.395946 0.666191 -0.493693 -1.715193 2.316309 0.910864
want -1.941262 -0.500607 -2.483145 -0.131026 0.092494 -0.969361 -2.490694 -0.204625 -0.576859 -2.534582 -0.687104 -0.636687 -1.284052 -2.168203 0.537885 -1.580183 0.564760 -0.720034 -0.713337 -2.239093 0.905465 -0.321224 -2.170865 0.518927 -1.011140 1.192756 -2.001403 0.703986 2.598164 0.700282 -0.179377 1.346190 1.440409 -0.058591 -0.356426 -0.569364 -0.985798 1.206309 -0.210105 -1.011265 1.866687 -1.805321 0.052543 -0.520188 -1.922591 1.478078 -1.210491 -2.026294 -0.747156 -0.563498 -1.962077 2.467332 -2.461167 -2.676050 -0.321489 -1.942029 1.266069 2.101305 0.904642 1.287782 -0.333592 -0.008945 -1.116989 1.403343 1.164741 -3.627590 1.336892 -0.745150 -0.943810 0.052278 -1.160648 1.468958 0.800791 -0.656760 -2.790661 -0.021650 1.549256 3.602561 -1.014567 1.623674 -1.490653 -2.553574 1.535486 -1.258967 2.386503 -1.383057 -1.065229 0.206111 0.339160 -2.375784 -0.975356 1.952519 0.737894 -1.975568 1.433874 -0.929111 -1.265107 -0.581152 -1.500521 -0.573372
down 0.623022 -0.868665 -2.258602 2.164897 1.624779 -1.099108 0.609788 -0.642457 0.748044 0.298425 -1.236708 2.284055 -0.508096 0.735579 0.899887 0.463273 -0.436301 2.046719 1.972003 -0.657218 0.797631 0.538672 0.254403 -0.004411 -0.629068 3.015700 -0.702226 0.957962 2.106158 0.325397 -2.017688 0.798042 0.295359 -0.719896 -0.338389 -0.899392 -0.982652 -3.405986 0.408933 -0.074199 -1.343207 2.581264 -0.106078 2.427854 1.127514 -1.567852 -1.388395 -0.263223 2.223001 1.098809 2.165557 1.923797 -0.646467 -0.372610 -0.163240 -1.649606 0.792690 -1.772759 0.994909 -1.768803 -1.322862 2.058225 0.485312 2.788484 -0.670498 -1.079280 -0.752237 -1.001279 2.062180 -2.079517 -0.985747 1.782254 -0.850254 1.293518 1.109613 0.730121 -0.493292 2.060103 -2.670363 -2.740097 -2.042700 -1.341519 0.948042 -2.593576 -0.051773 -3.021643 -0.807585 2.767831 1.727698 2.102883 0.040552 -1.400508 1.490028 0.319307 -2.480795 -0.473117 -0.602097 0.702446 -3.077430 -0.023592
seems -0.008720 0.883403 -1.809798 -0.245556 0.514932 0.632833 -5.216902 -2.017193 -3.675287 -1.931365 -1.950741 -0.627751 0.240160 -0.564746 -1.856814 1.772276 0.713844 1.061935 -0.841778 -0.811908 -0.858933 0.536409 -0.753402 1.623771 0.618149 0.335681 1.564067 2.924290 -1.252163 -1.580431 0.135774 0.329017 -0.620979 -1.023778 -0.727406 0.782509 -0.848592 2.973777 2.094403 1.045285 -0.929212 2.395277 2.790298 -0.814173 -1.072186 0.222906 -0.392597 -0.650179 -1.880943 2.659240 -0.539117 0.581809 0.827415 1.636217 -1.748451 0.290546 -1.479581 -1.075823 -1.263038 -1.289100 -1.182092 -0.310820 -0.862054 -0.857276 1.664315 -0.557037 -0.749884 1.443251 -0.034527 -0.705755 -1.116398 0.463060 2.758514 -0.959597 0.879594 0.762177 -1.797601 1.062544 -0.701239 -1.146895 1.449060 -1.509779 -2.161809 2.913102 1.147370 -1.673705 -1.549337 -0.130061 2.328660 2.825223 1.756589 -0.006207 -0.673653 0.345618 0.240569 0.526827 0.417016 0.219111 0.648959 1.204770
pretty 0.875030 -1.939408 0.933391 -0.183806 -0.829858 -1.204337 -0.104689 0.004736 2.927268 -0.624244 -2.008716 0.903330 -0.859628 -0.203628 0.945940 1.339322 -1.777401 -0.625942 -0.765001 -0.967191 -1.151651 -0.640466 -0.755724 -2.233436 2.992354 -1.685517 0.432827 -0.214963 -0.301875 0.447261 -1.034964 0.322072 -3.856634 -0.966717 -2.698730 -1.239038 -0.912460 0.817811 -0.753756 -1.079381 -1.276402 1.095657 -1.813484 -1.098775 0.185545 -0.385509 0.113491 0.237712 1.229766 1.975406 1.449136 -0.952441 -0.692704 -0.695836 -0.049581 0.090548 -0.233831 1.469579 -0.097301 0.637070 -0.775420 -1.521414 2.291733 2.017389 -1.750967 0.693744 -1.112442 -0.017799 -3.377423 -0.301675 0.157195 -1.433350 -1.992116 -2.607141 0.303724 0.779595 1.033574 1.734747 0.180891 -1.397081 -0.567348 -0.552995 2.054266 1.445493 1.035862 -1.194874 -0.364650 -0.302286 -1.554833 -0.431664 -0.717586 -0.975491 1.008415 0.431321 -0.550206 2.425311 -0.524827 -3.325504 -0.133682 -0.250713
fact -2.281262 -1.271143 0.946171 -0.172486 -1.416207 -1.162115 -2.998395 0.570884 1.971771 0.073388 0.332945 -0.378439 3.385524 -2.237066 1.079346 -0.052989 -0.593859 -0.165790 -0.527442 -1.288645 3.135234 0.555897 -1.016698 1.703520 -0.307045 0.465522 2.141621 1.124518 -1.527845 2.009419 -1.982240 -2.098506 1.729539 1.359036 -1.158221 -0.940938 0.370379 -1.358319 1.623841 -1.579375 -0.402469 -0.870421 -0.042364 0.142572 0.949879 1.951849 -1.135991 0.146899 0.827262 1.349231 -1.148974 -0.905498 -0.340599 -1.011083 0.353821 -0.196811 -3.885329 0.239579 -0.303578 0.685290 0.829635 0.589951 1.275945 -0.115470 -1.476159 1.990622 0.617651 1.819027 -1.101023 -0.213026 1.435313 -0.758964 0.317951 -0.579686 0.261870 2.429046 -0.521103 0.384800 1.719365 -1.960124 0.108706 -2.074997 -1.021914 -0.289785 -0.513986 1.154464 -0.533103 -1.016372 -0.826168 1.746291 -0.133290 -3.089835 1.941075 -1.298527 0.786717 -1.096781 0.989493 -0.831416 -1.310644 2.159491
own 1.869783 -2.288573 -0.639981 -0.051172 -1.474453 -0.130638 2.356416 1.784521 -0.948087 1.396924 1.494234 1.608239 -2.072752 0.508371 -0.936345 -1.147288 0.652606 -0.838936 -0.687656 -2.164613 -2.076951 1.088769 -0.953748 0.286776 -0.863758 2.819968 2.198848 1.015723 2.214833 -2.770979 -1.078240 -0.062215 1.123986 1.104758 0.559218 -0.788073 -1.327156 -0.282009 0.958847 -0.205877 -1.601065 0.490093 0.499443 2.361146 2.227348 -1.936060 -0.793677 1.388517 0.573657 0.261673 -0.511445 1.791052 0.698968 -2.020850 1.112132 -2.912441 0.784919 -0.707597 -0.708842 -0.591278 -2.043594 0.261056 -0.359850 -0.226705 0.291088 0.908233 -1.321046 -0.918038 0.649150 -1.682423 -0.595787 -1.218485 -1.338754 -1.604658 -0.950607 1.391721 0.212718 0.791238 1.569818 -0.463182 0.865469 0.063153 -1.731766 0.514499 -1.537313 -0.293332 1.088992 -0.025028 0.118277 -1.065686 1.712337 2.784986 1.063978 -2.157504 -1.209359 1.297199 0.313344 -1.130736 -0.859102 0.561806
take 0.202478 0.434917 0.169991 0.037649 -1.168939 -0.662539 1.148968 -0.218111 -0.330538 1.616068 -0.794445 -1.197241 -3.924019 -0.771291 2.497605 -1.013738 2.000299 -0.517424 -0.439717 -2.541149 2.455488 -1.654504 -0.568619 -0.183902 -1.621296 0.561385 1.248599 2.890746 0.532571 0.212042 0.049216 0.218473 -0.375022 2.022437 1.816310 1.449795 -1.975440 -1.970626 1.552663 -0.122841 -0.255465 -0.003402 -0.151181 -1.568965 -2.593399 0.080077 0.102691 -1.334271 2.662403 -0.087206 1.140581 0.100127 0.485252 -0.197493 -0.084797 2.422806 -1.844356 -0.230473 -0.661891 2.119735 -1.204028 -1.223805 -3.544497 -0.183029 -0.339017 -1.899704 1.611158 -1.517509 -1.465383 -1.789070 1.455144 0.772308 2.656259 0.655219 -0.862843 -0.788819 1.588579 -1.328419 -0.198240 -3.045356 -0.447168 -1.091434 2.176614 -2.752973 1.232111 -1.411006 -1.284061 -1.265902 -0.672773 -2.804142 -0.819492 2.332952 0.858284 -1.414747 1.170636 1.138661 0.034590 1.314950 -2.266893 0.168197
world -0.064563 0.346361 1.168866 -0.272466 -1.347355 0.904168 -0.324877 1.603470 -1.887753 -1.671393 -0.595957 -1.680845 -0.509547 -0.063323 0.647142 -2.147971 -1.158198 -1.785399 2.441148 -0.145193 2.727403 1.498551 -0.560440 -0.342443 0.882681 -0.289538 0.215555 1.674346 0.171586 0.431243 -1.410841 -0.367575 1.148010 2.608567 -0.415708 -0.074855 3.136653 1.070402 2.524172 -0.420285 -1.833233 -1.146903 0.186771 1.451427 -1.398209 0.190843 -1.095030 0.306570 0.016963 -1.538989 -2.150653 -0.461966 -0.745987 -0.327173 0.088580 0.267575 -1.302750 0.305385 1.475831 -2.915636 0.332174 0.850753 1.723457 0.586238 -0.997570 1.976625 1.714680 -0.176179 1.549168 -0.623336 0.621223 -0.022592 0.836462 -0.249056 -1.918232 -1.321298 1.431991 -0.127648 0.393362 -0.208394 -1.267390 -0.877731 -1.419600 -0.240828 -1.427157 -0.026786 0.263599 0.138484 -0.993151 0.961366 -0.283565 -1.559942 0.008394 -2.329146 0.899949 1.084775 2.504094 0.219422 -0.231134 -0.452317
long 1.211906 3.042702 1.872892 1.609193 2.631185 -0.538573 -0.692972 -0.040026 0.522482 -1.406371 -1.284006 -1.318241 2.052078 -1.554718 0.711752 -0.231184 0.233501 1.061600 -0.179162 1.490972 -0.387278 0.766476 0.301104 0.676505 -0.987179 1.388712 0.516216 2.267702 1.300839 1.298681 -0.173179 -1.780089 -0.418167 -0.475702 -1.220213 -0.911078 0.837143 0.577554 -0.978649 2.542255 -0.151553 -1.261888 -0.733420 -0.354181 2.442848 -2.376160 0.729515 -1.547785 -0.041921 -0.293518 -0.198495 -2.133617 1.007654 -0.130115 1.165210 1.787256 0.225835 0.084027 -1.036134 -1.513095 -2.324365 0.318206 -2.690977 0.046509 -0.664920 -1.608333 -0.119459 0.046177 -0.357621 -1.659407 -0.980164 0.269817 0.542726 0.978279 0.596727 2.224488 -0.184231 -1.002764 -0.878996 0.839137 1.813939 -1.996181 -1.339607 -2.234983 -0.551155 -1.674517 -0.246819 1.952135 0.421023 -1.891171 0.838824 1.374126 0.397219 -2.096853 -2.272300 -1.142000 2.006661 3.923529 -1.057911 3.139804
series 0.020395 0.976044 0.886076 -0.758451 0.622813 2.609704 -0.228768 1.717091 -1.332753 -2.446845 -1.797518 0.006874 2.304112 0.560362 0.454038 -0.303168 -3.663346 -0.360210 3.187976 0.772886 0.887147 -0.501329 -0.848065 2.104961 0.414958 -0.487253 0.508251 0.739522 -0.476620 -0.323079 0.216456 1.237780 1.417892 1.528628 -0.378421 1.079123 3.362039 -0.193759 -2.362770 0.329108 1.551795 -1.141841 -1.009421 -0.691261 1.801774 -0.264484 -0.669421 -2.132157 1.188754 -0.185512 0.244951 -1.255278 -0.585565 -2.879868 -2.584647 -0.355976 -0.770585 0.204741 0.931851 -0.756438 1.054715 0.172575 1.044866 1.357866 -1.484197 0.107534 -2.716280 0.258719 -1.117183 -1.040462 -0.057038 0.487663 0.002760 0.405610 -1.674481 0.203402 0.656669 -2.016758 0.058112 -2.865469 -1.024491 0.485958 0.980963 0.016605 -0.222629 2.670120 1.171437 2.334094 -0.861626 0.367383 -0.044626 -0.746509 2.332271 -0.207439 0.353987 0.693498 -0.072743 0.203316 -0.302736 0.657334
young 1.611801 0.276235 -0.005364 0.150194 -0.169323 -2.126009 0.434665 -0.614650 0.597798 1.044535 -2.856917 -1.896633 -0.295576 0.504989 -0.950795 1.312541 -0.011737 -1.982285 0.394834 1.332303 -1.612418 -0.416100 -0.387571 0.069775 0.257502 -0.782570 0.331534 -0.057106 -0.199664 3.449365 -0.546438 -2.756887 -0.591366 0.537908 0.148414 -1.495848 3.440299 -0.833058 -1.137104 -1.528925 -1.776087 -0.543160 0.112996 0.338206 -0.387591 -1.170089 -0.356690 1.784039 -0.790313 2.070723 -1.908724 1.877913 1.317499 -0.978646 0.270432 -0.652621 -0.386925 1.273047 -1.161315 1.726988 -0.232611 0.140323 -1.233779 0.391663 0.032274 0.948403 0.602943 0.985038 -0.498767 1.090585 0.442008 -0.262879 -0.104407 1.168271 -0.956943 -0.629069 1.367345 -0.044722 -0.230557 0.277138 1.031032 0.988800 -1.513096 -0.382740 -1.063158 -0.968588 1.054192 0.367076 1.263143 -0.865683 -0.711756 1.362234 1.048926 0.842167 2.399383 -1.378776 0.264022 -0.095183 -1.382936 -1.003601
action -1.123660 1.425703 0.500193 -0.360841 0.844667 -1.254296 -0.765635 0.180016 2.422632 -0.033625 -1.429859 -1.325711 0.731384 -1.537165 0.587077 -1.206105 -2.539778 0.057961 0.499027 -2.352560 -0.563725 1.817572 -0.524419 0.300409 0.210560 0.804242 -1.160541 1.005663 0.361825 0.712961 0.499404 1.599480 -0.790716 1.393130 0.354899 1.697433 -0.243459 2.142715 -3.525798 1.107515 0.945833 0.170563 0.360813 -0.903220 1.294066 0.937777 3.138092 -0.646377 2.009556 1.603233 0.509369 1.100196 -2.712430 0.508381 -0.580112 -0.384302 -0.494035 0.908713 0.113165 -1.559400 -0.070951 -1.401385 2.219670 -1.570101 -0.286494 1.115134 0.544132 -0.451736 0.527876 0.120608 -1.689557 -0.204651 -1.606605 -2.144917 0.501518 0.113081 1.066583 -0.045804 -0.445158 -1.760970 -1.378775 -1.893416 -0.149929 -1.323767 -1.317056 -0.654381 -2.020398 1.963857 0.079040 -1.883578 -1.342621 0.052467 0.706468 -1.116688 0.155589 3.477622 -0.851004 1.079286 0.577639 1.117870
give -1.233928 -0.243489 -1.041664 -2.292532 -0.816535 -0.263327 1.652238 -0.263713 2.664506 1.329291 0.479531 0.798188 -3.703172 -1.496700 1.063166 0.644621 -0.144589 -2.077663 -0.656197 0.074632 2.766168 -1.203659 -1.894464 0.299263 -0.849133 1.094826 -0.263372 2.727619 1.818158 1.504711 1.892767 2.028228 -0.137821 2.890759 0.736776 -0.748443 -0.306493 -2.708527 2.158764 2.400624 -0.107964 0.145593 -1.563539 -0.571483 -0.463596 -0.086725 1.421364 -3.128841 1.151682 0.680718 0.981774 1.035048 -1.652729 -1.152952 -0.686293 1.655159 -0.444797 -0.731113 1.346507 2.069107 -2.524594 -1.069225 -0.087927 1.939246 1.392297 0.690714 -1.097671 -1.838031 -1.651703 -0.656558 2.955304 -0.040698 -0.398480 1.935436 1.492366 0.060043 0.929988 -1.003485 -2.969769 -0.426435 0.207508 -2.074032 0.993718 -0.775469 3.072808 0.113936 -0.937319 -2.565629 -1.348341 -0.577178 -0.874015 2.933675 0.008027 -2.125541 1.324908 -2.898313 -0.196308 -0.326832 -2.247525 0.135386
right 2.384547 0.865578 0.000758 0.722952 -0.309882 0.984774 0.607947 -0.532273 0.708091 0.193964 0.968573 1.555314 -2.129587 0.348465 0.105049 -1.642840 -0.499013 1.825394 -0.326092 -0.936297 0.134412 0.057785 -0.063720 0.565787 0.867464 0.980535 1.701944 2.815878 -1.123954 -0.270676 -1.282476 0.008800 0.578456 -0.102513 -0.955570 -1.461161 -0.281753 0.207464 -0.016327 -0.141027 0.763850 -0.623048 -0.600045 0.499845 -0.200083 0.052666 0.314289 0.665468 0.176453 1.048186 0.560640 0.863102 1.461338 -1.799201 0.716756 0.553855 -1.132932 -2.171961 0.475891 -1.371645 -1.985500 0.316544 -1.699067 -0.031754 1.390646 -2.142240 2.601806 -0.161534 -1.770636 -0.907186 -0.141213 2.034400 0.145211 -0.854373 -1.308745 1.040597 -0.242435 -0.139226 2.867480 -0.498510 -0.020524 -1.074848 1.305394 0.680575 -0.692994 2.266185 -0.490787 0.510962 -1.322986 -0.332096 -0.703131 0.586600 0.353967 0.535506 -1.605795 0.867900 -0.334454 -1.429246 -1.309137 0.081052
point 0.178373 0.417678 -0.768551 -2.050675 0.313664 -0.244243 0.086281 1.777258 1.346240 -2.098255 -1.048304 -0.009612 -0.246406 -1.087289 0.022465 -0.269641 -1.747392 1.401772 0.606367 -0.762901 0.598998 -1.385979 -2.159503 -0.497132 -0.664897 1.431199 -1.159239 -1.627931 -2.714705 -1.424133 -0.886405 -1.371768 3.805967 1.980890 -0.355096 -1.509334 -1.093676 -1.301489 -0.502377 1.232369 -0.426305 0.592344 2.284548 1.315378 -0.798930 2.675964 -0.624973 -0.772551 -0.582599 0.034912 0.443305 1.276905 -0.937316 -1.128216 1.782468 -2.289313 -0.336532 0.853956 -0.248654 -0.007698 -1.761905 0.444120 2.112137 3.239148 0.027459 -0.044096 -0.554398 1.786343 0.507005 -0.485938 0.019355 -0.113286 0.638576 -1.726773 -3.552917 -2.443443 -0.427043 0.031058 3.213772 -2.370335 1.280459 -2.198735 -0.493453 1.075471 -0.088806 0.284839 -2.190076 -2.152919 0.027407 1.393016 0.758080 2.140592 -0.407480 -1.978096 2.467374 -2.012484 -0.560588 0.954901 -1.756284 1.459457
interesting 1.699341 1.190542 -0.504345 -1.559130 -0.024123 0.062159 -1.382312 -0.581080 1.019452 -0.689956 -1.556351 0.733856 -0.837286 -1.465008 -1.770524 1.401102 -0.542730 -0.787587 -0.308346 0.231049 -3.033530 2.427989 -2.569306 1.937825 0.473372 1.603311 0.984609 -0.218757 0.865579 0.661729 -1.722098 0.796828 1.207720 1.587844 0.352304 0.251687 -0.639149 0.846243 -2.508682 0.351384 -0.262666 -1.640766 2.431742 -0.474713 -0.489756 1.953003 0.381197 -1.608976 0.773401 1.648289 0.199815 -2.684169 -1.336182 -0.487190 0.078289 -0.306424 1.153354 -1.623328 0.266580 0.004697 1.220434 -0.399709 1.417937 1.377461 -0.863136 0.134093 1.588087 2.606064 -3.051427 0.271402 1.687499 0.440974 -0.724918 0.778153 0.498882 1.389899 0.698642 0.503929 1.480774 -2.182020 -0.712539 -2.025442 -0.729856 -0.859687 -0.464003 0.324261 -0.020305 1.388360 0.081475 -1.840041 -0.985218 1.146435 1.158843 -0.160180 0.745351 -0.000972 -2.041899 1.254365 0.907773 2.368050
new -0.495142 -0.134908 -0.211991 -2.113494 -0.291922 -0.131397 -0.034907 -0.888488 -0.794686 2.024576 0.002064 0.422011 -0.597821 0.845397 -1.138778 1.517222 -1.224455 -1.435614 -0.644362 0.147452 -1.354317 -0.019303 -0.583717 1.269973 -0.362129 0.766909 -0.578546 0.657356 -1.080373 -0.672302 -1.546382 1.010780 0.408858 -0.786027 -0.374906 0.025048 -0.125646 -0.172114 -0.210356 -1.258613 -0.148238 -0.943805 0.238495 1.099817 -0.970159 -1.664046 -1.404826 0.270804 0.392340 -2.051676 -0.197049 -0.111341 -1.433963 -1.018334 -1.312556 0.575849 0.884533 0.587617 -0.781479 -1.064960 -2.265121 0.503628 -0.414826 0.831931 0.789137 1.402777 1.220664 -0.282173 -1.968072 0.065619 0.981968 -0.808420 -0.249178 1.194112 0.109967 -0.865400 -1.231161 -1.636364 0.060949 -1.056307 0.895884 -2.093793 -1.563814 0.284463 -2.691109 2.194114 0.817436 3.547797 -0.644744 -0.677190 0.526958 0.889398 0.969180 0.908700 1.721089 0.910150 -1.127001 -0.577826 0.478605 0.384939
bit 0.200201 0.024227 0.930478 1.200494 1.097932 -0.362812 0.188893 1.697012 0.318248 -2.950996 -0.647798 -0.254451 -0.162693 0.058022 -0.283846 0.029025 -0.206931 1.243735 -0.012284 -1.652247 0.542834 1.366161 -1.760018 0.108914 0.379701 0.431046 0.379430 -0.452344 0.758292 0.077850 1.257237 -0.877674 -3.086832 -1.265067 -1.179273 -2.667140 0.677648 1.538230 1.366262 -0.156402 -1.718219 2.629722 1.714996 -0.755573 -0.919216 2.211047 1.724368 -2.104877 -0.040678 0.616453 1.953035 0.127362 -0.722416 -1.388713 -0.609360 0.391285 -2.489951 0.738754 -0.808181 0.331231 -0.370006 0.119511 -1.262549 0.096897 -0.241928 -0.725116 -0.913206 1.903336 -0.049249 0.338961 0.762010 -0.859252 -1.587848 -0.870561 0.176177 -1.034440 -0.758535 -0.393407 1.950925 -2.265971 -0.617616 -2.151108 2.523757 1.458735 0.916728 0.037318 0.075340 1.269631 -0.150737 -0.608772 -0.090878 -0.478551 2.391010 0.214630 -1.160977 0.062886 -0.133685 0.289019 1.083768 0.361393
family 0.566854 -1.394494 -0.537011 -1.344677 -0.198210 0.832493 1.268344 1.070468 -2.784422 0.125288 -1.243802 -0.846467 -1.222499 1.311680 -0.878964 -0.236022 -1.474461 -1.677378 -0.743278 -0.456507 1.372361 1.593209 -0.807401 0.367551 0.317258 1.630488 -0.537244 -0.547763 -0.569975 0.248554 -0.129945 -2.100080 0.970370 0.549119 1.402001 0.158768 0.842286 1.765878 1.905300 -2.322438 -1.692698 0.197571 -0.506659 1.177100 0.632383 -1.530987 -0.582604 1.749450 0.949288 0.769111 -1.041422 0.148512 -0.349342 -1.557494 1.870532 0.106687 0.568420 1.279835 -0.188752 -1.291762 -0.781249 -0.616874 0.224980 -0.168037 -0.701151 2.356555 -0.055057 0.646301 -0.219181 -1.495066 -0.035320 -0.140151 1.631008 -0.145985 0.485260 -1.827688 1.653997 1.587908 1.810324 -1.644227 0.700609 0.416006 -1.065636 -1.980601 -0.824528 1.527980 -1.118149 1.449987 0.783548 1.771125 -1.956422 1.077561 1.483440 -1.796397 -0.234032 1.360521 1.028351 0.720220 -0.066931 0.877654
script -0.687127 0.340011 1.808874 -0.007099 -1.241735 0.505333 0.750891 1.560831 -0.344727 -0.035677 0.782398 0.667456 -0.200393 0.912034 2.037503 -1.782357 -1.083403 1.292337 0.967933 -3.299015 1.785018 -1.929139 0.283164 1.747840 3.596408 1.440669 -0.229754 0.260734 1.477886 1.616163 -0.072764 0.807297 0.111196 0.060866 0.174645 -1.423017 -0.267463 2.637676 0.253493 0.700580 1.403071 -0.922906 -0.177134 -1.803672 2.310852 1.964101 -0.117859 1.140685 0.729731 2.422395 -0.527566 -1.769897 0.181513 -0.276796 -1.266198 0.610675 -1.037739 -0.873070 -0.950727 -0.021765 0.198424 -1.091066 1.633700 2.349842 -1.778875 0.192158 0.808251 -1.594140 -1.130119 -1.967790 -1.312514 1.177040 -1.616241 -0.108501 -1.585733 -0.595994 -1.969079 -0.641050 1.317300 -1.047270 -0.483997 -1.163077 -0.101670 -1.048851 -0.293211 -1.097879 0.303015 -0.403595 1.857744 1.315744 -0.627910 0.591140 1.090813 1.298268 0.688451 -0.143769 -0.573407 0.280301 0.065266 1.819366
come 0.834177 0.853406 -0.894626 -0.863788 -2.452703 0.122547 1.591318 0.569708 -1.243739 -0.941148 -1.700675 -0.012266 -1.778406 1.202768 1.865515 1.759495 -1.581697 0.012894 0.050987 -1.173266 3.123271 0.232062 0.331691 0.807773 -0.077417 -2.267805 0.712472 3.556270 0.639870 -0.574163 1.192219 -2.175558 0.852109 1.679363 0.718418 1.203084 0.202469 -0.399314 -0.793643 -0.475909 -0.251804 -3.553406 -0.116430 0.990023 -1.864020 1.530902 -1.178392 0.561236 -0.282067 -1.945527 -0.655976 0.961845 0.290103 1.622891 -0.773581 -0.491728 -1.108474 -2.081995 -0.375247 0.942135 -3.030929 -3.169918 -0.641358 -0.034334 -0.337347 -0.672884 -1.141641 -4.967316 -2.340101 -0.566516 0.593616 2.909548 -2.036407 -0.350924 -1.273374 -0.866907 1.809831 1.136429 0.759624 -2.291317 -0.195373 -1.306293 3.248320 -1.937798 0.785407 0.144147 -1.222584 -1.079803 0.702468 -3.608882 0.267138 2.596058 1.029235 -1.979140 1.404523 -0.226720 1.341331 -0.551721 2.213866 -0.997502
big -0.727996 1.109620 0.259288 1.808678 2.598700 1.311513 -1.905324 -1.423235 1.482652 -0.203833 1.068678 -0.121583 0.504524 -1.873402 0.626624 0.113314 -0.024822 -1.153785 -0.846120 -0.360473 -0.812492 -1.225505 -0.780237 0.949727 -1.369177 -0.931479 -0.293150 0.700884 -0.702460 0.671982 0.148385 -1.018585 1.102763 0.484680 1.021359 -2.063698 1.901366 0.789205 -1.740018 -1.461292 0.819079 1.265756 -0.591235 0.254830 3.253544 -1.479684 -1.173736 1.739560 1.337950 -0.863345 -1.250169 -0.144821 -1.234394 1.356858 1.012152 1.181798 1.184413 0.163627 -0.845901 -1.874413 -0.869368 -1.735774 -0.961338 -0.440310 0.950972 -0.606496 -0.572761 0.278751 -0.682677 0.268697 -0.653435 0.627462 -1.105347 -2.663445 1.589565 2.484528 2.133255 -0.946247 -0.468902 -0.613857 0.555998 -2.039923 -0.342150 -1.770240 -0.875834 -1.120492 0.241504 0.367348 -1.329205 -0.713442 1.642326 0.266455 0.899916 1.088372 1.595526 -2.154363 -1.093210 -0.480341 -1.719472 -1.532853
feel 1.176184 0.175543 2.659942 -1.623224 -1.988231 2.460520 1.821179 -0.709871 -0.282633 -0.944008 -2.868531 -0.229532 0.198568 -3.202327 1.188045 0.631157 -1.677683 -2.281334 -0.172559 -1.734779 1.262012 -0.248925 -2.339782 0.748666 1.108369 0.823055 0.282391 2.010549 0.416612 1.988120 -0.236731 2.009731 1.771341 -0.882156 -0.805561 -2.381900 -0.897676 -0.446444 1.451928 -0.607193 -0.111696 -0.426052 1.778875 0.776452 0.075301 2.153266 -1.288715 -1.262375 0.326170 -0.590405 -3.034782 1.728511 -1.136758 -3.094656 0.460851 0.372347 -2.078640 1.364835 -1.052203 1.293640 -0.504396 -1.829036 -1.414924 -0.042608 -0.118327 -0.189576 -2.706436 1.070140 0.005504 0.921306 -0.394739 0.228017 0.610682 0.246410 1.014832 0.973747 -0.702156 0.309425 -0.005194 -0.343616 -1.223418 -0.592491 2.513917 0.578878 0.373245 -1.868530 0.148846 -0.140790 0.349809 0.706101 0.895767 1.505803 -0.755579 1.054465 -1.970215 -0.381617 1.363299 2.084806 -1.640858 1.689305
making -2.747199 -0.254801 -1.580972 0.573822 0.357032 1.616648 2.025091 -0.757293 0.349380 -0.425716 -2.147806 0.317634 -0.319338 -0.706045 1.921692 -0.858195 -1.463890 -1.889303 -2.155558 0.835015 -1.163697 1.041193 -0.720785 1.048735 1.573952 -0.835188 0.487372 0.334579 0.682290 -0.241738 -0.433712 0.320921 -0.022335 1.127742 -0.913918 0.412503 0.331634 -0.136526 2.198003 1.144669 -0.713882 0.836465 -1.433654 -0.274679 1.384535 0.103770 0.763839 1.681225 -0.165972 1.227017 0.919093 1.037469 -0.664457 -0.127950 1.166789 -0.734096 -1.207303 1.016243 -0.570488 0.909647 -1.084503 -0.179248 1.652316 -1.717601 0.213147 0.475439 2.574213 -0.705708 0.347731 -1.817641 -0.075894 -1.499866 -0.406583 0.115468 -0.378575 0.242454 0.181722 -2.175704 0.850081 0.094898 2.054279 -1.833250 0.484510 -1.481552 0.954129 -0.653305 0.882311 -0.544410 -0.204428 0.534710 -2.362702 1.405808 -0.842496 -0.970940 -0.201267 0.371115 1.560981 0.416979 0.209566 1.228079
might 0.109089 2.874167 -3.352926 -0.941601 2.806432 -0.729553 -2.207758 0.951079 -1.841994 -2.450884 0.819691 0.390285 1.001346 -1.492113 -0.269623 1.560693 0.251930 0.114625 -3.018646 -0.207753 -1.984455 1.753818 -2.820030 1.715091 -0.581275 0.046409 0.396993 -0.517501 -0.561306 -2.714789 -1.126169 -0.117263 0.125322 -1.119274 0.177149 -1.982708 0.142403 4.234885 0.176792 0.842059 -2.388132 -0.493400 -0.586927 -0.506650 -2.314999 -0.517413 -1.180924 -0.503428 -0.678491 1.491692 -0.557272 1.271797 2.422934 0.146021 -0.520580 2.096311 0.015794 -0.748350 -0.247238 -0.077873 -0.989324 1.846546 3.438312 -2.972876 0.283480 -0.380274 -0.443898 1.532555 0.202439 -0.028679 -1.647712 2.090395 -1.742930 1.530260 -2.619034 2.005866 -0.408529 1.924356 -0.949467 -1.436665 -2.040258 -0.906323 -1.409302 2.861362 2.191618 -0.462159 0.666395 1.710775 -0.547842 0.984738 0.465561 0.582749 -2.451769 0.842008 -0.715588 0.300964 2.583867 -2.472279 -0.828625 1.289736
performance -2.660349 0.062283 1.119633 0.642502 -0.742781 -0.526985 1.520514 0.063327 0.736837 -0.675027 -0.861031 1.378484 0.164225 1.480336 0.778552 -1.870896 -1.370138 2.396104 0.846114 -0.378251 1.784634 2.269402 -2.315858 -1.372612 0.600407 0.615918 -0.304994 0.709335 -1.384929 2.725065 0.190830 1.290611 -2.090851 1.703573 0.477876 -1.745939 -0.459229 1.510813 -1.123458 0.989558 1.050426 -1.441316 -0.753823 -0.829285 -0.975747 1.223610 0.310458 3.510398 0.461404 2.767278 -1.979370 -1.181500 -0.205615 -3.673028 0.084999 -1.504348 0.560106 0.265369 -3.189925 0.329985 0.201707 0.953715 0.029237 2.790944 -1.744806 4.428606 -0.442615 1.018030 0.651213 -0.528359 -1.895909 -1.306834 -1.345127 0.138296 -0.414595 0.800111 -1.551629 -2.855206 0.088689 -1.145885 0.115301 2.798164 0.871432 -1.950021 1.315189 -0.649280 -2.918883 -2.883434 5.292113 -0.080761 2.432088 -0.473283 -0.917709 -2.797954 -1.420099 -0.155840 -0.000383 -1.251798 2.144383 1.304956
guy 0.892547 0.022495 0.368830 -0.326750 -1.167202 -0.873586 1.800992 -0.400148 0.625651 -0.371182 -0.642576 -0.912819 -0.631800 -1.207474 3.170763 -0.244842 -1.530390 1.568972 -0.853053 -1.361519 0.983561 -1.464015 0.029042 -2.621134 0.041896 -1.789235 -4.007239 -1.922126 -0.778741 2.173818 -2.295960 -1.219499 1.468727 0.685552 -0.295921 -1.952151 -1.274208 1.906531 -0.626818 -1.333915 -1.782676 0.775177 -1.140054 -1.595070 0.514629 0.381668 -0.162884 2.052152 0.885844 3.030586 0.307548 -0.663450 -1.830638 -0.908692 -0.592469 -2.461764 0.397305 -1.680633 -0.236688 0.045945 -0.465365 0.713542 -2.839121 -0.514442 0.491565 0.190098 -1.425776 0.308314 -0.174630 -1.408760 -0.374929 2.745867 -0.153879 -2.093436 -1.039737 -0.424440 1.901134 -0.112651 0.820099 0.258278 -1.925057 -0.363612 0.679915 0.665975 -0.929756 -1.660829 -0.680029 0.672229 1.467939 2.675277 -1.244999 -0.329433 0.448811 -0.495337 0.353121 2.512291 -0.299669 -1.887777 -0.060593 1.816317
music -0.155379 -1.010105 2.396000 0.491318 -1.391539 -1.609529 0.613586 -0.247542 -2.220093 1.172614 -0.418013 -3.568731 0.570395 -2.173717 -1.967942 -1.709309 -1.499206 1.336058 -0.566172 0.187194 2.621929 -0.634328 0.837826 1.425975 1.660056 -1.087943 -1.020353 0.609980 1.403215 3.180896 0.817676 0.827642 0.738890 -1.027610 -1.219058 -1.981227 -2.025891 1.876854 -0.223178 1.247637 -1.470863 2.266777 -0.631230 -0.074240 0.433295 2.041089 0.872907 0.541220 -0.232828 -0.488336 0.903834 0.217297 -1.595311 -1.013382 -0.891400 0.906180 1.461026 -0.724193 -2.547156 -0.594693 0.399025 -1.151717 2.170644 0.278820 2.888861 1.153908 1.556734 0.169861 1.252214 -2.387488 -2.565367 1.066277 -1.655154 -1.342131 -0.075011 0.611029 -1.097801 0.812176 1.287634 -0.410014 1.152496 -1.381785 -0.740820 0.472103 -0.949444 0.465628 1.171922 0.208320 0.724715 -0.503880 -0.830566 -0.149173 -1.240624 0.968619 1.192840 1.144538 1.120060 1.542345 1.050643 2.596296
kind 0.313303 0.565605 -0.066323 -1.400137 0.883001 0.936951 0.639732 -0.905725 -0.747608 -0.696895 -1.999197 -1.749892 -1.676342 -0.349396 -1.027979 -2.705300 -1.162016 -0.951200 -0.468315 -0.611472 -1.878763 -1.003329 -1.788551 0.035935 -2.427975 0.129480 -0.045903 0.388305 -0.035474 -0.685544 0.118120 1.004314 0.648982 1.536071 -0.557414 -1.687205 1.729329 0.081416 2.548113 -2.295604 -1.610347 -1.644971 1.479556 -1.446252 0.022648 1.129530 0.195452 0.540196 0.730096 -0.748833 1.595019 0.453268 -0.690172 0.535960 1.316796 0.364976 -1.915131 0.406242 0.393463 -0.729015 -0.405683 -0.667434 0.714574 -0.155663 0.916189 1.071289 -1.097177 2.196770 0.046426 0.430006 1.560218 1.206414 -2.429107 -1.112800 -1.307279 0.829924 -0.385743 -1.127238 2.356094 0.315448 0.242602 -2.010070 1.117731 2.684418 1.014347 -0.330480 -0.426310 0.230062 0.348944 -0.247119 -1.146789 0.097533 0.159282 1.773426 1.794637 0.226043 1.382817 -1.436878 -0.414470 0.198349
woman -0.147497 -0.045232 1.686381 -0.932932 -1.274968 -0.256902 1.319556 -1.091739 -1.345578 -0.109982 -0.260572 -0.427671 1.741706 0.362832 1.500177 0.535125 -0.833543 0.023785 0.665651 0.034635 0.159405 -1.257712 -0.861398 -0.806446 -1.429863 -1.790596 -1.161813 -1.532310 -0.509144 3.597668 -1.243011 -2.122734 0.014913 1.224931 -0.200695 -0.702832 1.645350 2.075551 0.212425 -2.604568 -1.453618 -0.380990 0.272373 -1.049037 0.307189 -0.787958 1.969142 1.240750 0.087477 3.265042 -0.646251 -0.714155 1.257971 1.221145 -1.450248 -0.506457 0.086605 0.231901 0.303626 0.152504 -0.106029 3.191657 -4.074761 0.747659 0.852818 0.492927 -0.638719 0.998100 -0.971755 -1.261545 -1.149634 1.856629 0.122966 -0.557974 -0.425318 -1.529897 1.150842 0.329490 2.050229 1.294344 -0.553004 -0.181330 -0.127091 -2.324190 1.020638 -0.766742 -4.450226 1.753915 1.582957 0.904596 -0.876232 0.721353 -2.191341 -0.404951 0.591926 -0.054166 0.510927 0.021829 1.209389 -0.497291
girl 1.189815 -0.072399 1.899973 -0.636926 -1.130417 -1.248698 1.088957 -0.836193 -1.092423 0.122559 -1.115320 -0.891361 -0.500850 -0.411396 1.533247 0.965368 -0.165716 1.897511 -0.832145 -0.623470 0.091469 -0.221292 -1.263727 -1.839609 -1.353967 -0.438851 -2.729883 -0.903034 -0.300007 2.975125 0.539993 -2.381753 -0.067025 0.341020 0.167155 -3.287947 -0.289307 2.419328 0.133246 -3.674503 -2.377757 0.310191 0.860309 0.048564 0.141297 0.228584 1.279626 0.029613 0.976162 2.509212 -0.745542 -0.283974 1.450430 1.426888 0.152395 -0.120686 0.491158 1.179529 0.477474 0.251111 0.272804 3.600259 -2.215778 -0.676100 0.301248 2.149956 -0.366951 0.940125 -1.555736 -2.478711 -0.573792 1.819587 0.050047 -1.144854 0.732206 -1.645015 0.623502 0.694609 1.161326 1.006550 -1.288058 -0.165330 0.118231 -1.995572 -0.713160 -0.303355 -2.547760 1.406886 0.616751 0.843327 -2.064749 0.142785 -0.594930 0.124293 1.569825 0.093753 -0.361861 -0.649837 0.101582 0.153626
fun 1.657414 0.628519 -1.462207 -1.021107 1.422735 -1.959315 -1.821093 0.697105 0.023110 0.997575 -2.918410 -1.055927 -1.929769 -2.998634 -2.927659 -1.829404 -1.447977 -0.734675 -0.311226 -1.066831 -0.945241 0.195551 -3.002146 -0.328021 2.097069 0.542869 0.313313 0.433093 0.308076 0.076227 0.470273 -1.154818 0.926322 -0.388164 -0.772865 -0.676236 -1.141680 1.875289 -0.059844 -0.000334 -2.383276 0.653200 -0.240222 1.038970 1.143016 1.281463 -0.001804 -0.507564 1.360666 0.461055 -1.222390 0.208061 -3.308642 -0.067195 -0.931461 0.750446 1.100713 0.621887 -0.785175 -1.136145 1.175006 -3.337163 1.593773 1.307497 -0.346525 -0.931916 -2.708343 0.383385 -1.241789 -0.864631 -1.420137 1.150645 -0.474285 -1.041580 -0.188627 1.908820 2.046251 0.240492 0.695659 -1.672455 -0.938327 -1.167077 1.249084 -1.241274 -0.143164 1.479258 -0.695069 0.792979 -1.047500 -1.470463 0.058877 -0.170644 0.201943 0.003972 -0.140245 -0.771747 -0.407461 1.136623 2.018159 0.912996
hard -1.668070 2.465601 -2.501251 1.752497 1.290483 0.936303 -2.644381 -0.115258 -1.419571 -0.611827 -1.834752 0.218644 -0.619692 -0.090811 -1.369187 -2.194661 0.516327 0.207068 0.071154 -0.905438 -1.796064 -1.234237 -0.030206 0.274526 -0.430965 1.276551 2.298716 -0.519249 2.474453 -0.957080 -1.748717 -1.555779 3.093178 0.856614 0.572450 -0.563926 2.279860 1.315603 0.738791 -0.196502 -3.591308 -0.019930 0.004639 -1.784240 0.761486 -0.623849 0.447895 -2.447509 0.097723 1.380933 0.462524 -2.280112 0.766145 0.510393 -1.097079 1.878059 0.105893 2.079699 -1.978013 -1.752155 -1.072052 -2.418510 -1.159160 1.980579 0.817176 -1.419052 -0.486334 -0.733752 -1.692410 0.482385 -3.042192 0.743658 -0.187397 -1.271470 -2.000174 5.127841 3.919888 0.621450 1.135209 1.100412 1.256116 -3.195104 -0.688020 -1.312062 -2.551127 -2.746410 -0.837802 -0.601990 -0.236117 2.340029 0.628701 0.654522 1.094547 0.155089 -0.845028 -1.717977 -1.285251 2.327100 0.858502 1.812503
worst 2.047057 0.025000 -1.527498 -1.393697 1.361397 -0.041762 -2.275820 0.089257 0.935823 2.939562 -2.896049 -1.848470 -0.026015 -0.451728 0.667825 -5.244111 -0.310060 1.625773 1.052133 0.325722 -3.697907 0.874612 0.258167 0.523832 2.636364 1.869057 1.617640 1.061906 -1.192955 -2.128593 -2.181944 0.990063 -0.523345 -0.896825 2.339317 -2.139596 2.194418 -1.597590 0.934846 1.850491 2.430479 -1.682950 3.475915 -1.455613 0.811046 1.529138 -3.336264 3.171437 2.564577 -1.470209 2.094084 -1.099131 0.130971 1.373827 0.921513 -1.503308 0.235090 1.127203 -0.921112 -1.098936 -2.305555 1.314888 1.794702 0.135654 -0.768903 1.317999 1.219400 0.135000 -0.551810 -2.613913 -1.416612 -0.214413 -1.643040 -2.417603 -1.489428 0.213560 2.576081 0.576030 2.737611 -0.558807 1.076690 -1.274833 1.255453 1.669568 0.546240 3.880139 -2.560381 -0.329334 -1.103444 0.145661 -2.224817 3.568393 -0.800767 -0.724169 1.315521 -2.568008 1.616394 -1.030170 -0.458361 0.034326
found 0.674363 -1.308098 -1.396655 -0.189021 -0.213714 -1.075137 -0.676221 0.890232 -0.461383 -1.067184 -0.755996 -0.265562 0.663538 -2.605395 -1.177921 0.627782 -0.994409 0.011477 -2.002173 2.858595 0.030223 1.764990 1.900166 2.399716 3.267388 -1.789608 2.955883 0.920555 1.583107 -1.237890 0.293495 -0.076854 -0.947198 -0.270824 0.354511 1.262286 -0.619344 0.946138 0.552065 -1.212103 -1.025902 -2.156010 -0.124018 0.745243 -1.050422 1.586444 0.054810 0.831218 0.600856 1.064573 0.828827 -0.706223 -1.338382 -0.420843 -1.565411 -0.645047 -0.913625 -0.153668 -1.620291 0.158678 -1.194135 2.103981 -0.006303 -0.564680 -0.727837 0.828884 -2.440587 0.426979 -2.053082 -0.368955 0.065367 1.692717 1.616149 -0.676612 -0.288615 -0.542540 -1.042202 0.087974 -1.156724 -1.416434 0.390124 -0.688864 -0.042140 0.273377 1.777869 -0.970080 -0.837431 -0.691951 -0.865181 1.568029 1.566976 0.945491 -1.419972 0.661851 1.560019 -1.703629 1.959993 -0.400292 0.173102 1.921949
course -0.518506 -0.983956 2.473506 -1.520142 2.352392 -0.435230 0.003059 -0.605871 -1.375488 -0.714913 0.102492 -1.994533 -1.385852 0.710592 -1.178345 -3.506718 -1.000022 0.070630 -0.756301 0.897418 0.986121 0.096126 -2.748285 1.756329 -0.920114 1.581222 1.127698 0.624972 -1.830196 0.353662 1.240852 -1.205925 1.893849 -0.596192 -0.690602 -1.460235 0.909740 -0.370900 0.860331 -1.646950 0.381038 -0.005772 1.512755 -3.566528 -1.097988 -1.349426 1.067124 0.203612 -0.513242 0.258838 2.527602 -0.179275 0.410043 -0.287543 1.885053 3.200254 -1.854626 -1.721445 2.543944 -0.731417 2.538960 -0.482213 -0.879754 -0.487831 0.130172 0.324184 -0.536600 3.469528 0.134795 0.824101 0.183760 -0.053932 2.124559 -1.727782 0.199932 -0.281977 0.897379 0.031447 -1.041761 -1.034771 2.213825 -0.794167 2.832170 0.863248 -1.361050 0.087142 -0.554794 -0.440417 0.755549 -1.194078 1.011234 -0.151414 0.682405 0.945847 1.712172 1.145131 2.943901 -0.019209 1.230229 -1.366422
believe 0.452770 -1.660018 0.602553 -2.205140 -3.445544 -0.096696 0.538482 -0.177615 2.618681 0.369867 -0.218688 -0.552342 0.596592 -4.170923 2.390693 -2.082018 -0.359875 -0.395416 -0.532533 1.106248 0.805123 -0.070398 -0.975960 0.011196 -0.792592 -0.941845 0.986488 2.894133 -0.152075 0.367373 -0.589122 0.371464 0.332707 1.669567 -0.111125 -1.967469 -0.604686 -2.065711 0.738181 0.502325 1.024633 -2.082888 1.039482 -0.756890 0.336015 2.811916 -2.451014 -1.100821 1.520820 -1.426725 -1.015905 1.079790 0.295793 -1.994767 0.023428 0.166623 -1.263845 -2.765581 1.184246 0.569220 0.116974 -0.770912 -2.557695 0.686064 -1.320464 0.555251 -1.725400 2.498812 -1.891205 -0.260626 0.828923 0.073959 2.661891 0.621021 0.835808 -0.971437 -0.411410 2.013180 -0.830589 -1.032951 0.596141 -2.330975 0.300112 0.068173 1.373287 -2.462845 -1.991268 -0.695139 -0.763436 -0.731784 -0.058857 -1.713360 0.950771 0.552465 -0.282798 -1.531379 1.598799 0.126964 0.410672 0.022553
different 4.076726 0.673250 0.242055 -1.709854 -0.346923 -1.308219 1.111822 -1.460865 -0.233332 -0.006365 -2.295991 1.181804 0.112121 1.441412 -1.702845 1.013309 0.203874 -1.174787 0.827656 0.185247 -1.368109 0.365746 -0.875031 2.039277 1.350773 -0.447834 1.204576 1.752169 -0.656935 -2.357737 -3.455614 2.256864 1.834269 0.491378 -0.470911 1.923749 -0.272977 -2.190878 -0.391911 0.663257 -0.825805 -0.532669 1.769257 0.071438 -0.784723 0.776425 -0.568838 -0.499610 -0.580667 1.768168 -1.497162 1.411106 0.824469 0.487672 -1.409046 1.326526 2.248652 -2.139882 -0.147962 3.107518 -0.489416 0.793423 -1.165666 0.436262 -0.094780 1.448754 1.832291 2.237000 -1.062490 -0.610494 0.293211 0.017745 -0.990697 0.809879 -2.045892 0.626298 0.565354 -2.354942 1.386573 -3.197878 -1.217635 -3.595023 -1.010736 -1.415024 -2.930533 0.363493 1.978966 1.624237 -1.097344 -0.397022 1.159233 -0.690146 2.671996 -1.002528 -0.516658 0.719269 0.308407 2.764893 0.285997 0.826115
place 2.172837 1.485470 1.407113 -2.480692 0.187834 1.064502 -3.137605 -1.698776 0.160901 -2.199984 -0.790675 0.088483 3.186189 -2.070252 2.186786 -0.101792 -1.706818 1.804288 1.565838 0.562440 -1.433070 1.181273 -0.887393 0.721368 -1.164744 -1.225437 -0.426393 1.557089 1.668576 -1.485320 2.504081 -0.172110 -0.770002 2.798458 -1.122894 0.710039 0.083038 2.015251 0.401605 -0.039067 -3.065801 -0.318453 -1.102803 2.013692 -0.230007 1.198553 1.629332 0.689412 0.893858 -0.748138 -1.510078 -0.005724 -1.407802 -0.952706 2.582345 0.616045 -1.245954 -1.462864 -0.591572 -2.834506 -0.957353 3.043501 -2.109093 1.464368 -2.190707 1.054678 1.426919 -1.228341 0.222173 1.158601 -1.716743 0.334927 0.977982 -0.874720 0.093527 -0.342257 -0.197759 -0.187964 3.799771 -1.144476 0.991508 0.821631 0.093435 1.221172 -2.776236 -1.348011 1.408348 -0.220551 0.257105 -1.083307 -0.721099 -1.102920 0.875145 -1.778227 0.782283 -0.334650 -0.283706 2.632096 0.155703 0.501809
day 0.298063 0.326044 -0.655046 0.563609 0.647981 0.641228 -0.998939 -1.051903 -2.553300 0.704541 0.439776 -1.850329 -0.780306 -0.622928 2.591132 0.404627 0.065449 -1.165450 0.509080 -0.470070 0.469876 0.702928 -0.434774 -1.200160 -1.061410 1.046955 -1.102049 -0.407039 -0.779508 -1.454888 -0.348368 -1.608581 -0.566551 0.863975 -1.361421 -2.275736 1.216506 -1.953306 -3.303262 -1.159966 -2.553041 -0.703988 -0.598001 1.237526 -0.307822 0.469343 -1.309334 -1.147348 -0.564572 0.163005 0.649916 -0.439649 -1.191498 -1.836679 0.469174 0.071304 0.193558 1.097191 -1.017024 -0.458633 -0.215842 0.861283 -2.088150 0.466635 -2.178075 -0.139300 -0.450866 0.762928 -0.381728 -2.323712 0.802752 -1.835901 0.171597 -0.941129 -2.879211 -2.146182 1.843700 0.484628 1.777651 -0.443928 -0.218807 -0.076879 1.747801 1.946881 -1.515747 0.219632 -1.150635 -0.721875 0.312818 -0.235319 -0.038460 -0.608132 0.060341 -0.908855 -0.170019 0.022686 2.079961 1.671373 0.564320 -0.121071
set -0.318350 1.065290 0.539523 -0.815060 -0.670779 0.532793 -1.362225 -1.493533 -1.397962 0.183858 0.072321 -0.053988 -0.027144 -0.310589 1.376181 1.505098 -1.520954 -0.233527 -0.689120 1.514127 0.341112 -0.053144 0.394478 0.632267 2.238998 -0.885335 1.471204 0.714369 -0.809572 -1.712930 2.204859 -1.678405 0.377401 3.953244 -0.937962 0.623622 -0.223001 -0.768154 -0.212051 0.292914 -0.742120 1.434858 -0.449125 0.009784 -0.567615 1.534253 0.377982 0.552775 1.056240 -1.394878 2.081087 0.732909 0.529849 -0.309112 -0.529925 -0.030692 0.248409 0.024082 -0.255259 0.358487 -0.974287 1.281182 1.417904 0.439443 2.101804 0.087470 1.627930 -0.873213 -0.277604 -2.162413 -0.293739 0.233438 -0.603331 0.363126 1.394858 0.143642 1.617789 -0.061190 2.132520 -1.269253 -0.527935 -2.083187 -0.190022 -0.859554 0.459354 0.083572 -0.563784 0.866466 1.347029 -2.103118 -0.620321 1.875972 -0.315787 -0.658937 -0.280259 2.329233 0.362072 1.483315 -0.326144 1.919521
put 0.013105 0.832699 -0.229437 -1.069659 -2.714093 1.177864 -0.439858 -0.628072 -0.066013 0.840757 0.561846 -0.132838 -3.266976 -2.392126 2.729715 -0.662326 0.586746 0.970556 1.370726 1.089333 2.037881 -2.177427 0.305605 1.761318 0.845538 -1.244773 2.263552 2.479081 2.842083 -2.389487 0.787880 -0.372753 -1.157875 3.467601 0.450255 0.538562 0.042707 -0.827495 1.710554 -1.228902 -1.572094 -1.483767 0.222065 -0.395582 -0.666553 -0.176189 0.799901 0.305558 2.268909 1.138514 -2.004110 1.528695 -0.656327 0.801595 -0.093867 -0.374855 -0.803921 -1.456258 -1.315152 -0.012321 -0.996692 -2.795105 0.124202 -3.002778 0.188160 -1.990125 -1.512716 -2.004103 -1.267933 -1.791587 1.527669 -1.003471 -1.652656 0.140104 1.126724 -1.049045 0.420515 0.132024 -0.285290 -0.924670 0.366175 -1.067991 1.612579 0.044920 1.583487 -0.434629 -0.329119 -2.011306 -1.121458 -2.039059 -0.417421 2.258191 0.289573 -1.101526 0.481768 0.630179 0.856897 -2.298788 0.450503 2.323031
reason -0.192435 0.268852 1.268221 -0.607951 -1.497585 1.603828 0.764797 -2.589742 -0.513504 0.109866 -3.380525 -0.208222 4.269773 -3.202506 0.144688 -4.439683 -0.380704 0.036988 -1.759582 -1.817174 1.466883 0.139584 -3.003463 -1.890676 -1.088051 1.728209 -3.718672 -3.423951 0.798919 1.996490 -0.558181 0.210401 1.301689 0.563364 -1.771015 2.524989 -0.915524 0.518626 -0.623505 0.779314 -0.340874 1.042209 0.641613 1.260325 0.929505 -0.339787 -0.616079 -0.083406 -2.453742 2.309170 -0.721792 0.471268 -1.376088 -0.137800 0.660250 1.345161 2.767184 -0.637622 -1.578555 0.284117 -0.478912 1.620213 3.089404 2.936799 -1.025083 1.464254 -0.898415 -0.915436 -3.573657 -0.973482 -0.528875 1.032000 1.768760 -0.520659 -1.634338 0.641621 0.055222 -0.904383 2.577871 -2.261410 0.858209 -3.388013 0.797733 1.747856 1.862468 1.636721 -1.518090 -0.615190 0.515624 0.916571 -0.742416 2.115545 0.479579 -0.691304 1.063307 0.645240 0.704829 -1.664986 -0.737939 2.420783
book 2.046666 -2.326647 -0.601559 -0.987063 -1.913972 -0.713905 0.557375 2.217180 0.370789 0.084527 1.190666 -0.955082 0.055673 -0.395142 1.270480 -1.389144 1.713925 0.595815 0.269947 -0.304747 3.042745 0.274841 -1.514824 2.213594 -0.060525 1.535419 0.415367 -0.315932 1.720189 -0.194705 -1.269935 0.259893 0.578187 1.906400 -1.394027 -0.266205 1.349231 1.489126 -0.101662 0.058215 1.082510 -1.938453 1.073595 -0.076780 0.612764 -0.460007 0.528448 -0.568714 0.007795 2.472995 0.210460 -2.526497 1.429707 -2.161387 -1.753570 -0.453554 -2.002350 1.656433 -0.436531 0.377387 -0.244338 1.060313 0.632690 1.743279 -1.227169 -1.108340 -1.745905 0.045592 -1.021364 -0.878085 -2.372958 0.127762 -3.028347 -0.520477 -2.207770 0.603353 -0.311489 0.375146 1.431563 -1.414512 0.236708 -0.804579 -1.872597 -0.603977 -0.988560 1.115280 1.917908 1.619316 1.087683 0.629427 -0.721860 -1.475882 -0.006449 -1.028646 1.015078 -0.186837 -1.927454 1.445815 -0.053749 0.727285
actor -0.250475 0.940943 1.053728 -0.855235 -1.571081 1.894341 1.796115 0.046847 0.993553 0.043154 -2.615971 -1.030862 0.288821 0.206574 3.913378 -1.076741 -0.846424 0.775148 1.224789 1.016212 1.432851 0.954509 -2.643857 -1.539619 -1.042651 0.197987 -0.545047 -0.812562 -1.289797 -0.108549 0.435376 0.600425 -1.636128 2.804665 2.653777 -1.451669 -0.906111 2.107998 -1.218982 0.951406 2.069828 -0.629724 -0.501840 -0.827929 -1.295499 1.243411 0.742566 3.359868 0.433985 3.937158 -0.545274 -0.405426 -1.836355 -1.300777 -0.850884 -0.486919 0.809784 -2.241953 0.351137 0.130621 -0.481819 -0.380725 -2.213781 -0.229550 -0.247271 2.347166 -0.641758 1.462150 -0.169470 -2.149695 -0.104160 0.915384 0.046011 -0.810751 -1.078515 2.644275 -0.079783 -1.071409 -1.527323 -0.303734 -1.242692 -0.355514 -1.799950 -1.511501 0.497821 -1.536459 0.818422 -1.305164 2.260887 0.738144 -0.129653 -2.228343 -1.476444 -0.562975 -0.797379 2.127435 -0.919272 0.601210 2.559776 1.579539
shows -0.936851 0.435643 0.305363 -1.780250 1.234704 1.160666 0.844580 0.256617 -2.338016 -1.349828 -2.238092 0.613937 -0.603557 -0.846393 0.365065 1.086054 1.005415 -1.674862 0.070364 2.027309 -1.393357 0.340190 -0.576341 -0.760486 0.198135 -0.443378 -0.455606 2.950236 -0.800679 -1.306443 -1.062461 -0.302010 -0.035228 1.708870 -0.460882 0.648124 0.522668 -0.396940 -0.802834 2.126352 1.448366 0.863963 -0.698960 1.868925 0.960723 1.979114 0.261091 -0.031745 -1.095634 -1.288373 -2.188062 1.424746 0.575735 -0.327690 -1.874578 -0.515083 -1.263597 0.810254 -1.348402 0.513823 -0.416441 -0.519507 -0.191317 -0.661991 1.630875 0.846744 -1.356863 0.490843 -1.827254 -1.584642 1.389455 1.506848 0.396542 0.451966 2.712813 1.226557 1.628305 -0.954890 -0.745803 -0.959885 -0.345942 -0.179988 0.321523 0.066720 -0.602505 1.203363 -0.205789 -1.679441 2.207276 0.312579 -0.211477 -1.959642 -0.103900 0.395262 -0.257849 2.037327 0.779594 -1.918580 -1.554112 1.390510
sense 2.201657 -0.773322 2.517423 -1.952475 0.827124 0.702053 -2.586853 0.303728 0.738347 -0.403645 -1.348100 -1.150339 0.146484 -1.051894 -1.118854 -2.238139 -2.311133 -1.380847 0.914859 -1.285117 1.177538 -1.498160 -3.091599 -0.402938 0.317565 2.469945 0.039832 1.058116 0.460016 -1.253802 -2.091387 1.108496 -1.514692 2.688906 -1.499902 -1.979401 -3.567626 1.806850 0.503971 -0.524519 0.966255 -2.333697 4.626380 0.062743 -0.081177 2.900617 0.329978 -0.343555 -1.815521 -0.479104 -2.858760 2.116519 -0.472735 -1.530181 -0.747870 0.125496 0.106887 0.380753 0.787946 -1.157269 1.126780 -3.284433 -0.380348 1.812593 -0.758321 1.501150 -2.342071 0.831858 0.576198 1.021644 0.330906 1.328790 0.649731 -1.891188 0.080935 -0.835732 -2.734899 1.487714 4.879747 1.103850 -0.538288 -1.259502 1.002805 0.545375 -1.026191 0.652635 -1.373925 -0.363825 -0.900466 -1.111422 3.248308 -0.435808 3.241292 0.050472 -0.062691 0.648166 1.357771 1.564860 -1.283253 -0.021162
sure 0.256438 0.263510 -0.620497 1.050375 -0.306903 1.489731 -0.187189 -1.195431 1.835572 -0.715998 1.259138 -1.476351 -1.742154 -2.568077 0.048643 -3.405835 -0.471575 -0.092448 0.222311 0.274554 -1.241267 0.652755 -0.815946 2.307839 0.421507 1.927583 -0.846679 1.198058 -0.573509 0.588345 -0.701983 -0.558524 2.217051 0.726090 -1.825528 -2.023714 -0.293919 1.669173 -1.171326 0.755016 -1.273805 -0.829693 0.627153 0.579436 -1.021134 0.284821 -0.637307 0.224486 -0.682615 0.316914 -0.417139 0.975808 -0.260157 -1.623356 -1.214058 2.561100 1.635617 -0.638003 -0.279560 -0.425815 0.202445 0.851315 -1.026899 -0.205562 1.352718 -0.881924 -1.700424 0.891456 -1.255855 0.727124 0.169134 0.359268 -1.084875 -0.618659 -1.249283 2.095222 -0.938386 2.204312 0.575491 -0.812951 0.266071 -2.560320 0.320256 0.970033 0.704422 0.591108 -1.420854 -1.053400 -0.132186 -1.358269 -1.163388 -0.204311 1.224794 -0.124930 -0.549383 -2.289793 0.392516 0.249150 -1.585160 -0.456945
money 0.536574 0.674921 0.419519 -0.242895 -0.287615 1.458891 -0.216138 -1.014784 0.120483 0.958060 1.599415 -2.341371 -2.263561 -2.183742 2.562602 -2.225733 -1.803088 1.098114 -1.904105 -3.717906 -0.172150 -0.286533 -2.387185 -1.908256 0.395535 0.738790 -1.503514 -1.356345 0.718621 -0.255568 -1.439553 -0.787800 0.049094 1.103268 -1.105073 -0.518435 0.440170 0.475552 -0.001978 3.541907 -1.940991 -1.214990 -1.303629 1.558621 -0.181768 0.182461 -0.982722 0.535059 1.251658 1.552599 -4.533843 3.169889 -0.236267 0.095688 0.069213 1.327548 -0.923460 1.494946 -1.286239 -2.893887 2.094310 1.063770 0.761243 -0.433447 -3.720360 -0.389261 -2.765160 -0.883351 -1.536561 -2.305613 -0.233872 -1.402089 1.363192 0.534433 -0.422229 0.417558 0.584636 -0.306851 1.197848 0.299450 1.137063 -2.328373 0.967812 -0.087645 -0.713876 -1.354260 1.122713 0.698804 0.174964 -0.588918 1.815873 0.670145 1.564833 -0.368805 0.296539 -0.941898 0.973175 1.238062 1.231537 -1.237725
