said 0.485658 0.116258 -0.694491 0.817292 2.221512 0.547287 -0.648436 -1.941970 0.002034 -0.632343 -0.934434 0.637713 -0.396064 -0.428819 0.961087 -0.657157 0.825320 1.771719 -1.109810 -0.320228 -0.474542 1.580647 0.992958 -0.418082 1.256937 -0.344141 -0.996034 0.971754 0.351177 0.143708 0.902739 0.947224 -0.220577 0.494387 -0.378188 -1.610967 0.135177 -0.032852 0.909819 -0.209050 -0.375066 -0.319587 1.009639 -0.647717 1.895466 0.591375 1.128752 -0.157503 -1.958084 0.489877 -0.664238 0.287224 -0.366807 1.200848 0.213278 -0.866650 -0.545570 0.558659 -1.880268 0.547446 -0.570112 -2.361827 -0.737770 1.818149 -2.036585 -0.199102 1.089326 0.589839 -0.170229 1.367671 0.950489 -0.530162 1.111291 1.395351 0.717975 0.569080 0.492634 -0.400492 0.016116 0.414041 -0.406726 0.028843 -1.265349 1.478476 0.877384 0.196727 -0.512740 -0.858069 0.695088 1.457106 0.300522 0.048899 -0.759034 -0.507083 -0.804528 -0.021002 -0.409070 1.086287 -1.061896 -0.194605
year -0.977923 1.026304 0.745806 0.723308 0.329074 -0.369557 -1.064368 -0.019785 -1.218111 -0.068519 0.357162 1.799625 0.104618 -1.454690 0.799757 -1.454176 -1.695399 1.339375 1.331013 -1.559683 -0.085804 -0.608845 0.181021 -0.113866 -0.401626 -0.555082 -0.947744 -0.784730 2.593964 1.530588 0.936389 0.530478 -0.110522 0.010041 -1.489256 0.075929 -0.079303 -0.752521 2.375120 0.000834 -0.245471 -1.034105 -0.337173 -1.331055 0.472725 0.033812 -0.658563 -1.259150 1.148160 0.957333 -1.210377 -0.985673 -1.159327 -0.886028 1.093659 2.659078 -0.731430 -1.715068 0.650946 -0.827018 -1.150049 -2.040227 1.806163 1.284093 -0.620543 2.632288 -2.342561 -1.601179 -0.236468 -0.510662 -0.673723 -2.169753 -0.180663 0.001653 -0.950521 0.669549 0.108768 0.219520 0.770919 0.402637 -0.349323 -1.106288 0.215145 0.550365 1.248784 -1.039843 -0.579144 0.083206 2.879978 2.051587 0.540598 -0.024361 -2.072924 1.137618 0.648579 0.918085 0.655211 -0.388096 -0.702087 -1.251547
be 2.139680 0.274868 -0.575478 -0.131403 0.560630 -0.952368 -0.733131 0.987918 0.791555 -1.227118 0.147407 -0.319702 0.863696 -1.864824 0.298839 1.750899 -0.462295 0.781483 -1.373415 3.693659 1.001758 -0.829050 -0.749747 -2.283907 0.488059 1.499855 -1.758833 -0.129754 -0.169982 2.496508 -0.094654 -1.698372 -0.689012 -0.944921 -1.357429 -1.490180 0.993595 1.010261 -0.476178 -0.953320 0.081670 -0.781176 -2.150060 -1.107911 -0.623939 0.268648 0.355575 0.792522 2.135316 -0.474680 2.025580 -1.280339 0.808008 0.620322 0.159054 0.379142 0.035253 -2.770170 -1.177834 0.427770 0.320614 0.600618 -0.998136 0.487741 -1.538532 0.889508 1.455455 1.584546 -0.981573 1.399572 1.774153 1.867716 -0.528303 -1.877492 0.040640 0.360630 -0.794218 -0.295708 3.452794 2.084251 0.080851 -1.183855 -0.609514 -1.281757 -0.252921 -0.992150 -0.379183 0.686970 1.410042 0.486175 -0.583454 3.510326 -0.096780 0.548100 -0.504814 1.157107 0.346262 1.185264 -0.870598 0.097751
billion 1.462141 2.155142 1.447749 -0.845885 0.344124 -0.345975 0.824563 0.085663 -1.206967 0.093435 0.020100 -0.643621 -0.810143 -0.787193 0.727449 0.131565 2.574834 1.232282 0.252973 0.535009 -0.533508 -0.878674 2.330588 0.531157 1.503668 -0.287851 0.858157 -1.728918 0.180682 1.813723 0.078299 -0.363335 0.121345 -0.296236 -2.074504 0.561981 1.091240 -0.492330 -0.480758 -0.406539 -0.795641 -1.403203 0.223156 -0.174430 0.270478 0.744848 1.442065 -0.677548 -1.097710 -1.558033 0.494383 0.048341 -1.628860 0.919862 1.294433 1.730364 0.866270 0.732805 1.900981 0.153565 1.034732 -1.790555 2.738439 -2.008989 0.400512 -0.856090 -0.658697 -1.186145 -1.601195 -0.535740 -0.427266 -0.593373 -2.867974 0.889559 -2.024248 1.016215 0.379123 -2.987900 -0.229723 -1.594444 -0.610122 -1.531622 -0.385931 -0.544460 -0.308745 1.156306 -0.462475 0.438351 2.896220 2.311433 0.658144 0.534404 -0.373897 1.078439 1.921527 -0.406947 -2.641188 -0.472721 -3.637187 -0.791915
loss 0.589484 -0.168644 1.613631 -0.801213 0.666352 -0.928175 -0.557759 0.275693 -0.829125 0.110935 -0.752566 0.877405 -0.742582 -1.275890 -2.054228 0.364495 -0.115639 -0.671460 0.508439 -0.371686 -0.336716 -1.360530 -0.325441 -0.256919 0.321757 1.238438 2.701510 -2.430445 0.161970 -0.532561 0.061396 1.692202 -0.926063 -0.598058 -0.875751 -0.083664 0.236791 -0.500701 -0.020870 -0.905891 -1.194270 -1.090638 -1.588874 -1.240770 -0.692995 0.450757 0.877590 0.935448 0.643241 0.662160 -0.647221 1.207667 -0.518329 0.359151 -0.468202 0.860454 0.715248 -0.107956 0.723743 -0.991386 1.414886 0.660406 0.418312 -1.774654 -0.507960 -0.528747 0.779874 -0.936139 2.126507 -0.065951 -0.480284 -2.274209 -0.481590 -0.287961 -0.995333 -0.880596 1.338632 -0.515081 -1.253253 0.667177 -1.825934 -0.805237 0.909324 -0.062918 0.376392 0.618620 -0.946145 -0.045038 1.006736 2.452005 1.745117 -1.688429 -0.918489 1.151629 0.705102 -0.110055 -0.212280 0.408181 -0.861926 0.158970
company 0.099641 -0.489837 0.925905 -0.047681 -0.909331 1.061606 -1.879644 -0.826840 -1.798878 0.729181 0.879989 0.403417 0.854456 -1.468433 -0.499326 0.748985 0.034279 0.530310 -0.262515 -1.296082 -0.118318 -0.580032 0.327724 0.063563 -0.932905 0.136317 -1.842258 -0.290337 -0.054481 0.598441 -0.443926 -2.380804 -0.230738 0.180087 -0.760208 -0.167115 0.987039 -0.290751 -0.464951 0.480549 0.631325 1.080994 -0.486450 -0.435421 -0.618036 1.873984 0.185340 0.283634 0.230869 2.235189 -0.264509 -0.334470 1.022744 -0.221008 -0.383274 0.822327 0.043619 -0.955915 -1.031225 2.213428 0.038838 -1.881629 0.235258 0.845711 -0.882587 -0.471038 0.059185 -0.397821 -2.199239 -0.194274 0.553910 -1.220855 -0.718538 0.291772 -0.344382 -1.035181 -0.574211 -0.646481 -1.561840 0.266042 -0.243436 -0.482021 1.900353 -1.523962 -0.177996 -0.332114 0.642215 -1.507882 0.685609 3.850656 0.907443 0.997182 -0.649081 0.711781 -2.312795 -0.040210 -0.367339 0.709948 0.504843 -0.370300
share 0.666734 0.964076 1.233745 0.643572 1.036000 -1.072152 1.958333 0.401393 -3.485405 -0.991832 0.921665 0.220983 0.377622 -1.563839 1.336217 0.013835 -0.949699 -0.742828 -0.093118 0.846506 0.059221 -1.531279 1.456022 -1.434465 1.493056 0.392030 0.014353 -2.328170 2.581230 1.343470 -0.541549 -0.636758 -2.096211 -0.868491 -1.335578 -0.335667 3.315057 1.457650 1.295964 -0.830735 -0.570215 0.915604 0.713172 0.702466 2.241462 1.669480 1.893379 -1.756802 1.374671 0.831106 1.791290 0.604689 -2.135569 0.589276 0.376829 -0.852690 -0.601637 0.942571 1.730453 0.788169 0.259746 0.355386 -0.491901 -0.162721 -1.126400 -1.319640 -2.005198 -1.840896 -2.895913 -0.503537 0.826195 -0.850412 0.444650 0.364595 -0.412236 -1.462743 -0.076769 0.210022 -0.422240 0.826020 -0.522989 -1.583162 1.540056 1.144574 -1.098861 -1.236068 0.296260 -1.819175 1.076119 2.402041 4.753321 0.762917 1.639016 2.759900 0.454083 0.351601 -0.575724 -1.393292 -0.706830 -0.207214
profit 0.032573 -0.474531 0.321833 -1.246376 0.508601 -0.659247 -1.267588 0.933145 -0.667986 0.840732 -0.100997 0.877114 -0.675355 -0.817695 -3.567572 -0.823995 -0.055613 -0.899286 0.931206 0.275024 -0.068232 -0.798417 0.024057 -0.079761 -0.350027 1.153693 1.864641 -2.795990 0.053473 -0.276443 0.381172 1.696285 -0.276098 -0.634655 -1.339039 -0.077956 -0.532515 -0.349629 -0.415317 -1.389481 -2.005532 -1.539672 -1.527826 -2.310764 1.212338 -0.070895 0.433568 0.996094 -0.113179 0.213389 0.275929 1.539581 -0.414025 -0.269729 0.343415 -0.393561 0.835806 0.207697 0.764116 -0.141618 0.762038 0.022489 0.486283 -2.015687 -0.670562 -0.538120 -0.484088 -0.754231 0.840436 -0.410743 -0.362491 -0.429420 -0.139746 -0.856670 -1.762900 0.259020 1.661008 1.070675 -1.391034 1.649374 -1.495641 -0.618245 -0.194026 -0.661993 0.293115 0.801364 -1.116904 -0.360900 1.741019 2.218895 1.219131 -0.633016 -1.207234 0.428055 0.967755 0.221160 0.416197 -0.340677 -1.768227 -0.978413
he 0.672552 -0.846496 -0.372080 0.019944 -0.469291 0.530868 -0.903428 -0.035209 -2.316192 0.583749 0.091743 0.948120 -0.361665 -0.169371 -0.702957 0.786512 -1.727966 -0.790199 -0.450394 0.052432 0.698861 1.373865 -1.047723 -1.247727 -1.760601 1.412999 1.627667 0.910709 0.458679 1.050578 -1.069697 -0.230673 0.671025 -3.426358 1.695746 -2.169388 -0.866788 1.179397 0.668514 0.296945 -0.797822 0.770165 0.760336 -0.312272 1.040355 -0.963896 -1.707524 0.167321 -1.191624 1.839667 0.853541 0.609187 1.751033 -0.517224 0.099248 -0.267647 1.097679 -0.748779 -1.702678 1.485737 0.682808 -1.591160 0.760288 -1.713907 0.059973 0.724714 0.886420 0.318364 -0.856432 -1.514577 1.674739 -0.522243 0.974920 -0.444772 -0.467930 0.653765 -2.086499 -0.649594 -1.114916 -0.213057 0.630339 -0.682543 -0.758635 0.041081 -0.610967 -0.459742 -0.673156 -1.174514 2.361088 0.859502 -0.581047 0.622843 -1.186435 0.628274 -0.653212 -0.134350 0.286845 0.766427 -0.200373 -0.481054
have 1.592275 0.484952 -1.401155 0.524701 -1.856745 -0.219477 -0.569471 0.878125 -0.368624 0.088092 1.273723 0.119598 -1.697432 -0.418018 -1.275015 0.258327 0.762981 -0.469322 0.150297 -0.351244 1.380098 0.207024 0.055981 0.949993 1.876830 0.159279 -0.016489 0.275085 2.085321 1.459137 -0.500176 -1.441069 1.066728 -0.862270 -0.297527 -2.304706 0.889770 1.468477 0.326392 -0.954680 -2.127167 -1.815459 -0.359354 -1.055909 1.365799 1.868179 -0.348698 1.596132 0.801754 -1.762533 1.990913 -2.826524 1.090760 0.615473 0.593745 -0.810233 1.076656 -1.392630 0.866359 1.574351 0.957992 0.882618 -0.709422 0.993190 -0.460269 1.288814 2.274848 0.866883 -0.016883 0.861474 -1.147926 -0.014592 1.100553 -2.128001 1.034944 0.000271 -2.105496 1.924071 2.258162 1.319428 1.869504 1.344386 0.238617 0.980322 -0.281256 -0.360381 1.290029 2.147695 -0.354062 -0.368241 1.673547 0.211265 -2.657482 -0.611067 -0.473527 -1.162685 -2.276455 2.010260 -1.800310 -1.550821
stock -0.795987 0.952709 -1.601002 1.648585 1.350181 -0.609414 0.029663 -0.880196 -0.510177 -0.238234 0.524056 -2.327857 1.184040 0.562292 -0.613624 -0.176316 0.610721 0.804641 2.692304 2.746557 -0.276043 -2.233964 1.221932 -3.535804 1.764449 -1.581691 -0.587702 0.625975 0.884432 2.600222 -0.276583 0.366930 -1.078943 -0.008692 2.083899 -2.848597 -0.249291 1.010327 1.634091 -0.636237 2.064412 -0.448368 0.008824 2.088445 0.990239 -0.231923 -1.406796 -0.972643 -1.497791 0.645594 -0.369175 -0.446558 -3.304688 -0.394116 0.876191 -1.374559 -1.052745 -0.789200 0.201055 1.685877 3.369347 -0.177285 -0.281993 0.038787 -1.974534 -0.232407 -1.394381 -1.337204 -0.820125 1.308004 1.182835 -0.407866 -0.313143 -1.420781 -0.772760 1.225438 2.119634 -0.116711 -2.683142 1.885832 1.107709 0.953325 0.523265 1.481941 0.794722 0.203221 -1.362119 0.065692 -0.133605 0.609294 3.797785 0.218970 0.164654 0.177714 -1.336605 0.119984 -1.571102 -0.464473 1.658186 -0.998474
about 1.221472 -0.032878 -1.529610 0.101960 0.680602 0.573260 -0.567509 -0.538746 0.344118 -0.463423 1.054930 -0.035941 -0.105834 -0.113358 -2.302505 -0.532235 0.332223 -1.475882 -0.466171 1.276963 -1.380875 0.201300 0.170486 -1.018333 0.276136 -0.608705 0.184443 -1.477768 2.429149 2.250955 -1.085175 1.345158 -1.115070 -1.050961 -0.682970 -1.051134 1.155170 1.080024 -1.827623 1.096397 1.430945 0.119969 1.563721 -0.349074 1.116028 -1.082661 0.111316 -0.033522 -0.507402 1.897240 0.894877 0.719909 -0.882290 -0.364593 1.569704 0.620654 1.447422 -2.236454 0.691904 0.188623 1.269694 -2.154655 -1.709236 -1.524667 -0.562701 0.038488 -0.084563 -1.851119 -0.951519 0.753878 -0.504978 -1.654749 -1.296619 0.337388 0.756731 -0.348467 -0.796931 0.380308 0.906646 0.070067 -1.534161 -0.786660 1.611706 1.186256 0.692661 0.417802 -1.228565 0.365782 1.043312 -0.583024 0.496113 -0.696836 0.120938 1.598421 0.082230 -1.936368 0.077282 1.738410 0.687407 1.569949
net 1.110058 -0.309782 1.841336 -0.567639 1.453164 0.171625 0.406854 0.032060 -1.127338 0.267414 -0.391005 0.925088 -0.479725 -2.391342 -1.634388 -1.994254 0.320762 0.508535 0.721352 0.207875 1.327649 -0.447762 -0.021432 -0.767813 0.670989 0.121126 -0.591866 -2.453737 0.538134 2.652016 -0.893641 -1.125560 -0.674771 -2.087504 -0.495128 -1.322227 0.197801 0.732228 -0.350608 -2.504773 -1.114661 -2.026381 -0.549701 0.009389 -0.430367 1.154289 -0.028940 0.693542 0.448606 -1.145341 -0.817879 3.071326 -0.510290 1.890109 2.169232 -1.123243 1.116381 -0.234668 1.212788 -1.429872 0.033089 -1.283449 -1.687949 -0.788296 -0.640776 -0.612447 0.853756 -0.617623 0.552040 -0.754015 -1.071082 -4.310846 -0.582110 -1.730055 -0.646332 -0.473432 1.442554 -0.170762 -1.594079 0.854433 -0.072723 -0.674571 2.198451 -0.347769 -0.336479 0.204862 1.161173 -0.804566 0.283111 0.652363 -0.372685 0.483090 0.317156 -0.651977 -0.064465 0.326809 0.814889 -2.115113 -3.219897 1.329645
oil -0.430481 -1.223538 1.114976 0.300875 1.091268 -2.910521 1.321963 0.644645 0.015964 -0.907086 1.300839 -1.353046 -0.186952 -1.905594 0.942676 -0.416158 -1.395607 -0.578051 1.568015 0.297612 0.751944 -0.431081 2.036000 -0.789817 1.872813 0.260573 0.999359 1.748883 -0.816619 -0.316295 -1.237834 1.571831 -0.832106 -0.366645 0.517991 -0.666790 -0.612590 -0.757835 1.027956 -1.940821 -2.769983 -0.190560 -0.906567 -0.635300 -1.564725 0.335717 -0.852245 -1.917223 -1.338272 -0.176066 0.437119 1.583077 -0.549952 2.157155 0.369449 0.032504 1.955452 0.948733 1.665351 0.538719 0.411114 -0.588107 -1.971191 -2.518862 -1.423285 -0.169555 0.366112 -1.242870 0.102723 0.215682 0.898505 1.272623 1.989212 -1.124619 1.533896 -1.841386 -0.545017 -0.374685 0.493663 1.421481 -2.735333 0.468402 0.508495 1.502260 0.212514 0.047560 1.306689 0.642293 1.376381 1.674274 -0.616473 2.454685 -2.902454 0.059256 1.960756 -1.140891 1.532262 2.282957 0.162585 -0.146072
market -0.208603 -1.528474 0.343307 -0.788266 -0.672575 2.371506 1.028736 0.663186 -0.291251 -0.165641 1.129102 -0.572815 -1.173927 2.024009 1.109435 1.187145 1.117427 1.234150 0.005056 -0.436021 -0.392825 -0.012372 -0.053716 -1.798106 0.583295 -0.037842 -0.179673 -0.429376 -1.160013 1.155904 -0.870551 -1.698094 2.448026 1.553752 1.959299 -1.413063 -1.606817 -1.094823 0.142331 -0.061849 0.440058 1.218516 -1.090590 1.568041 -0.162023 0.300692 -1.515936 -0.938551 -0.982535 -0.754380 -1.577752 0.172361 -0.022469 1.121617 -1.356740 0.542591 0.023891 -0.195467 -0.192296 0.971306 -1.229850 -0.767166 -0.349382 -1.240990 -1.022075 1.607591 0.797772 0.590064 -0.367381 1.794438 -1.451369 -1.446247 -1.413325 -0.004221 -1.504614 -0.664101 -0.687549 -1.075402 -0.899010 0.150456 0.093688 -0.051091 -0.781997 -0.192521 2.214882 -1.308802 1.487624 1.099942 0.592000 0.374560 0.562080 0.986394 -1.736458 1.621967 -1.414155 -0.291785 -1.015942 1.604196 2.017853 -2.242726
trade 0.650861 -0.448157 1.822702 0.934806 -0.742949 0.886230 2.140335 -0.020718 -0.005501 -2.666296 0.819593 0.065448 -0.106167 -0.038753 1.539655 1.984440 -0.183702 0.158441 1.579798 -0.328420 -0.905764 2.513408 0.270284 -0.763912 -1.358419 1.451503 2.588825 0.348731 0.959146 2.447201 -2.920551 -0.311758 1.631282 0.887807 -0.280643 0.185355 1.147263 -2.111579 -1.880634 -0.613348 -1.289443 -1.669581 1.203390 -1.762524 0.148642 -0.779348 0.336771 -2.640846 -1.938349 -0.124246 2.262898 0.113000 -1.044628 0.968780 -1.610535 0.099770 -0.605996 -1.372345 -0.486803 -1.044330 0.483433 -0.103650 3.411609 -3.127227 -1.467594 0.177725 1.356239 -0.497655 0.118193 -0.005131 -1.021552 0.195948 -0.612689 1.224198 -2.828810 -0.056742 -0.351356 -0.754652 0.052248 -0.836503 1.943323 -1.061257 -1.743891 -2.742118 1.308716 0.122444 -0.975574 1.465577 1.409036 -2.153605 -1.600156 1.176237 -2.614807 -1.267752 1.751003 1.231844 -1.671615 1.145636 -0.470708 -2.332266
up -0.236112 -0.465059 -0.691229 -0.951957 0.779396 0.556601 0.668987 -0.841715 -1.517900 0.570179 0.362904 1.149241 -0.234611 -0.444246 -0.926584 1.406217 -0.310101 0.668306 1.350940 0.006703 -0.563218 -1.681198 1.124520 1.185737 0.311463 0.477403 -0.072182 -0.700750 1.827123 0.279775 0.609294 0.178879 -0.125149 0.305151 -0.100053 0.749291 0.440727 0.563564 -0.100422 1.439561 0.097295 -1.725772 0.300676 0.466917 0.520734 -0.597364 -0.029450 -1.757735 1.019768 0.292351 1.426812 -0.131106 -0.388950 0.481500 0.056494 1.469319 0.612067 -1.554739 -0.881663 -0.636057 2.096535 -2.120969 -1.472578 -1.248991 0.104618 0.444985 -0.777635 -0.526017 -0.853065 1.415270 -0.602250 -0.585930 -1.234626 0.615268 0.034329 0.046891 -1.412800 -1.236537 1.017348 -1.446894 -1.456618 -0.378222 1.433278 -0.635728 -0.635834 1.151752 -0.651004 1.762550 0.739600 -0.563174 1.190687 -0.394867 -1.230375 1.694451 -1.438423 -0.960785 0.605862 1.247522 -0.985680 0.543817
quarter -1.542243 -2.511472 1.295136 1.194451 1.133050 -0.138000 -0.868072 -0.011891 -0.533200 1.749325 -0.162030 0.552704 0.861336 -1.402920 -2.308454 0.867532 0.051884 1.493135 0.680471 -1.047442 -2.464888 -1.141989 -0.544885 -0.842266 -0.629280 0.534564 -0.496773 -1.030502 0.342796 1.187685 -0.759129 1.327807 1.344936 -0.904227 -3.157320 0.324892 -0.400709 -1.173636 -0.189483 0.028458 -1.112315 -1.041250 -1.287861 -1.962547 0.510683 0.093300 1.054742 -1.467004 -0.035593 -0.314511 -1.507321 3.281342 -0.865210 1.371840 0.681333 1.817581 1.848522 -1.250606 1.602021 -0.937573 -0.570139 0.859236 2.291977 1.300120 -1.351276 0.609182 -0.298893 -2.568465 -1.283366 -0.345239 1.579401 -3.614695 -1.613551 1.515307 -0.056601 -0.599471 0.767319 0.952264 2.631956 1.886657 -1.488407 -1.670193 1.125677 0.507448 1.659443 -0.193598 -2.706619 -0.550745 0.963707 1.871907 2.141128 0.597996 -0.003219 1.269976 1.300264 2.154009 -1.365885 1.330465 -0.436397 -2.661005
new 0.618163 -0.574628 0.521782 0.737783 0.424894 -0.615203 -0.973554 -0.611655 -0.648563 -0.946200 1.337280 0.433939 -0.098230 -0.258860 0.105199 0.684619 -0.516566 -0.251571 2.169071 1.048628 -2.384452 0.695831 -0.072654 0.315368 -0.108470 0.757239 -0.510801 0.909067 0.555797 -0.319636 0.619934 -0.570033 -1.043995 0.774448 -0.641479 -0.499103 0.701464 0.492290 0.116901 -0.075605 0.858590 -0.029986 0.212780 -0.770902 0.170000 0.088085 -0.975896 -0.210081 -0.635334 -0.605901 0.479377 -1.150335 0.389996 0.654920 -1.808741 0.376661 -0.894378 -1.195183 -1.525430 -0.124319 -0.728952 -0.787427 0.507119 -1.078492 0.058846 0.671393 0.109493 0.322117 -0.037448 0.834181 0.457764 -0.433688 -0.755868 -0.432951 0.219423 -0.956733 -0.265147 -1.940892 -0.515260 0.746187 -0.083905 1.178045 0.731302 0.747607 0.310226 -0.214569 0.660854 0.105545 0.968463 -0.949001 0.098524 1.721117 0.425895 0.736404 -0.157605 -0.734903 -0.180745 0.463847 0.316091 0.027308
price 0.810338 0.246681 1.198658 0.267373 0.960488 0.592702 1.032921 2.050495 -0.024015 -1.808264 2.380187 -1.927612 0.526686 -1.645220 -0.023484 0.193580 -1.038340 -0.070601 0.843461 1.422676 -1.703499 0.329114 -1.399579 -1.824585 -0.180534 -0.187543 -0.562017 -1.591506 -0.839874 -0.827796 -0.152967 -2.872715 -1.816535 2.224049 0.202717 -2.193458 1.001527 -0.286222 -0.462359 -0.617956 -0.439527 0.162954 -0.629445 1.930644 1.908623 -0.679001 -0.631469 -0.112721 -0.560586 0.426163 -1.393872 1.911626 -0.306105 1.027040 -0.851535 -0.438053 0.958714 1.360223 -0.058496 0.801317 -0.861610 -0.879908 -0.915695 -0.261142 -2.436392 0.979844 -1.128595 -1.541249 -1.072844 -0.539442 -0.605140 0.971396 -0.475545 1.523602 -1.780568 -0.457654 0.401317 -0.252123 0.664033 -1.709825 -1.648999 0.122002 -0.200334 -0.749272 0.236776 -0.563169 0.623518 0.322417 -1.468856 0.727201 0.686428 2.487867 -0.311953 1.498625 -1.597464 -1.279787 -0.398519 1.690101 -1.173481 -0.737292
agreement 1.149366 -1.730915 1.373485 -1.450071 -1.365910 -0.561650 0.320857 -1.079051 -0.689459 -0.257285 -1.027819 1.976728 -0.141437 -1.601820 -0.686819 -0.076795 0.257195 0.132495 2.211870 -1.935833 -0.762538 -1.500900 -0.117799 0.249137 -0.016461 1.254009 -1.204016 1.305395 0.616372 0.127782 -0.600103 -0.387660 0.884292 1.123275 -0.951896 -1.731589 0.631957 0.514011 -0.212976 1.452670 -2.108237 1.099894 -0.811718 -1.220612 -1.109801 0.619606 -1.675615 -2.350883 -1.276890 -0.665194 -0.327858 0.243815 -0.536103 -1.716955 -0.792529 -0.760080 -0.699949 -0.062405 -1.957760 0.154535 0.881263 -0.546319 -0.378643 -0.082426 -0.851542 0.781008 0.057993 0.115694 -1.342852 0.583531 0.002066 1.085221 0.809292 -0.987454 -0.237439 0.855750 -0.157174 -0.734374 1.362548 -0.677526 1.569454 -1.568764 0.848958 0.532705 2.239239 0.248596 -1.505349 0.947115 0.358076 1.058315 0.670843 1.899869 -1.203478 -0.222655 -2.295928 -1.407398 -2.645300 0.528110 0.421005 -0.621971
tax 0.628115 -1.493862 2.155935 0.453948 1.712485 -0.246682 1.807821 0.291423 -1.412969 -0.283440 0.363479 0.572012 -0.821543 -1.462198 -0.228258 -1.431848 0.227520 1.334646 2.419508 2.544382 -0.087838 0.213445 -0.484499 0.228051 -0.497734 0.968297 0.877489 0.985508 -0.779096 1.679380 -1.018746 -0.928572 -1.159054 -1.111664 0.671809 0.551063 0.563592 -0.529630 -1.169007 -0.846662 1.264814 -1.823707 -2.540007 -0.967000 -1.541866 1.171500 -0.793515 1.149119 0.158942 0.154348 -0.078701 0.711808 -0.114374 -0.546950 -0.720933 -0.106603 0.123236 -1.323859 1.061520 -0.583382 0.987587 0.008239 -0.734606 -1.968480 -0.979141 1.648441 0.846522 -0.023412 0.225313 -3.599928 -0.913146 -0.738081 0.076658 1.133496 -1.067968 -0.554296 1.039213 -0.578774 -3.091216 0.287348 0.789655 -0.406312 1.781236 0.002738 -1.095327 -0.838614 -1.707269 0.753754 1.196990 0.165111 -0.802236 -0.386248 -1.163026 1.000294 -0.128847 0.507323 1.674912 -0.619052 -2.247198 0.280313
government -0.471252 -1.315532 -0.370289 -1.688246 -0.632042 0.154903 -1.238002 0.862151 -1.433877 -0.727649 1.375655 0.195997 -0.449111 -1.343522 0.098905 1.027172 1.160018 0.952607 0.307647 0.431269 -0.876757 -0.058766 0.032338 -0.501164 -0.903262 0.001993 -0.544150 0.064279 0.896415 1.524797 -0.126991 -1.110259 -0.141328 1.485455 1.083300 0.330086 -0.434579 0.047284 -0.961005 -0.322813 0.545851 -0.321545 1.232824 0.546514 0.086625 0.273839 -0.031665 0.544872 -0.649732 0.693932 0.497261 -0.482177 0.404612 0.659153 -0.273236 0.478300 -0.069116 -1.195179 -1.593517 0.691059 -0.471365 -0.983235 -0.714175 -1.150672 0.504029 0.558365 0.370469 0.318047 -1.856807 -0.340611 -0.973655 0.054210 -0.682092 -0.321571 0.087288 0.061746 -1.353558 -1.022402 -1.247335 0.309458 -0.646942 -0.332236 0.708887 -1.216919 0.092762 -2.559307 -0.107455 0.301845 1.615473 1.826559 -1.546076 0.811355 -0.715833 0.444544 -1.694431 -0.213086 -1.047306 1.708280 -1.264541 -0.422319
group 0.431846 -0.904212 0.887638 -0.771694 -1.414910 -0.689499 -1.771024 0.651397 -0.825637 0.113637 0.958445 0.570296 0.447875 -2.119327 -1.533669 0.956623 2.257807 -0.324900 0.574996 -0.751987 0.057936 0.076945 1.197893 1.271503 0.771374 0.387725 -0.438392 0.006963 -0.423714 1.682107 0.050613 -1.958238 0.216630 -1.465281 0.461164 -0.814610 -0.016133 -0.217499 -1.083003 0.872511 0.140061 -0.701303 -0.403566 -1.007072 -0.101871 0.689595 0.996748 0.459133 -1.011303 -0.011097 -0.640788 -0.331051 0.758631 0.229017 -0.693531 -0.769314 -0.230781 -0.680940 -0.464939 1.530479 -0.956664 -1.150779 -1.506199 0.615722 -0.680447 -0.505139 0.397453 0.777002 -0.855811 -1.033474 -1.235054 -0.135116 0.570128 -0.110250 0.861439 0.015029 0.542349 0.255360 -2.431181 0.339777 -1.376584 0.833687 0.087246 -0.812132 0.298229 -0.916817 0.836722 -0.979823 -0.689732 2.389660 1.199465 1.215818 0.197707 0.035030 -0.982343 -0.627549 -0.201606 0.152297 -0.269552 -0.184626
week -1.761023 0.798800 -0.857461 0.623533 0.913858 -1.291788 -0.083222 0.884871 -1.011844 1.512192 1.082054 -0.284266 -1.029622 -1.253154 -0.723227 0.437849 -1.142845 0.790848 1.891614 -2.095489 -0.952023 0.220769 0.280984 -1.597387 -0.473420 -0.497523 -1.032744 -2.124509 1.806854 0.986418 0.298388 0.288368 0.936181 1.319229 -0.694037 1.138854 -0.556796 -1.039865 1.716780 1.036394 -0.344460 -0.095139 0.799891 -1.502170 0.618678 -2.546298 -0.875809 -1.260662 2.106271 -1.105156 0.274435 -0.333504 -2.406411 -2.220645 1.519125 0.869938 -0.704863 0.553831 -0.717637 0.713207 -0.844253 -1.703523 1.318110 1.707588 -1.368457 2.488404 -1.664591 0.402781 -0.203816 -0.728012 -0.661196 -1.965060 0.979735 -0.985512 1.012639 -0.132091 0.189163 0.526474 2.306325 1.107368 -0.390771 -2.287525 -0.362699 0.521067 0.550884 0.269413 -1.335765 1.406213 0.566582 1.115563 0.969032 0.570885 -1.391316 0.735922 1.125992 1.839404 0.301420 0.298465 -0.293652 -1.705600
over -0.719046 -0.206282 0.029530 0.064954 0.315175 -0.967184 -0.158513 0.221882 -0.959370 1.905633 -0.116427 -0.347786 0.140958 -0.947171 -1.516942 0.991346 0.040964 -1.328216 0.667434 -0.131337 -1.617058 -0.405192 0.458601 0.325464 -0.356822 -0.646963 0.301505 -1.447631 1.948514 1.041332 -0.309890 0.522920 0.162167 0.146590 -0.059530 0.076174 -0.016674 0.251463 0.226111 0.741484 -0.178736 -0.682246 1.281257 -0.394374 1.092975 -0.347914 -0.061068 -0.816836 0.275130 1.114787 1.233566 -0.386653 -0.000454 0.519979 0.042326 0.070172 -0.148397 -0.371510 -0.131355 -0.824398 1.461183 -1.931465 -0.561079 -0.711510 0.059243 1.040519 -1.148985 -0.794630 -0.293528 0.421480 -1.111252 -0.441394 -0.741593 -0.407992 0.833003 -1.074714 -1.508210 0.531036 0.481384 0.227768 0.824936 -0.099191 1.141734 0.436120 0.323425 -0.945341 -0.081749 0.446074 1.101648 -0.229170 0.248436 1.324094 -0.677030 1.578190 -0.634754 -2.722694 -0.189008 0.568893 -0.249096 1.317979
rate 0.131001 -0.391026 -0.128735 0.379485 0.464917 1.084116 -1.324220 0.621672 0.474764 -0.200099 3.107754 0.026502 -0.345010 -1.382476 -2.525009 -0.617073 1.497874 0.289497 1.884567 2.376950 -0.947476 -0.344791 -0.373289 -1.121304 0.175673 -1.647524 -2.144263 -0.586854 -0.707144 1.735933 0.287758 -1.717776 -1.366843 0.519649 1.736430 -1.784304 -0.233353 1.278575 0.974698 -0.364541 1.112746 -0.196027 0.970773 -0.921944 2.470490 -0.560516 -1.258774 1.338286 -0.349956 -0.375673 -1.046705 1.653336 -1.069701 1.651867 -0.981759 1.455691 0.507827 1.696114 -1.153274 -1.300449 2.306192 -2.325461 -1.124180 -1.381010 -0.777172 -0.362999 -2.167869 -1.684651 -0.710732 0.544321 -0.499617 0.907462 -0.899189 0.686251 -1.821308 -0.062581 0.041147 0.266287 0.980237 -0.730163 0.846118 -0.437658 0.537164 -1.746731 -2.452680 -0.931678 0.338900 -1.455190 -0.898867 -0.576962 0.959522 -0.704581 -2.039810 -0.625962 -0.755929 0.341067 0.263298 -1.310032 -2.502793 -1.368019
bank -0.300743 -0.869379 -0.149382 -0.521449 0.309013 0.506512 -1.393727 -1.364856 -1.795595 0.311439 0.943690 -1.386684 0.123193 -1.948278 -1.090727 0.681290 1.719308 1.160204 0.602565 2.616051 0.385768 0.329265 0.898087 0.172338 -0.561727 0.992053 -0.756165 -2.026018 -0.852564 1.222072 0.655354 -0.896857 -0.652285 0.477683 0.445692 0.841815 -0.386204 -1.359158 -0.861914 1.060227 0.194500 0.029285 0.305621 -0.795923 0.016351 1.081704 0.078912 1.328709 -0.820344 -0.306834 -0.113046 1.628231 -0.397678 0.013747 0.084423 0.751182 0.914472 -0.419534 -2.217612 0.697143 1.591197 -1.789730 1.431948 -0.235526 0.492390 -0.294796 -0.626643 0.626232 -2.365542 1.227712 -1.430909 -1.129902 0.028803 0.649972 -1.594449 0.022767 -0.869630 0.129902 -1.839481 1.164282 0.660602 -0.363846 -0.849375 -2.809125 0.289859 -0.975415 -0.383411 -0.350458 1.384682 1.401593 -0.069041 1.426467 0.020817 -0.148865 -1.439828 0.178308 -2.016792 1.664552 -0.626974 -1.713228
common 0.650353 -0.330265 0.873216 0.584060 1.470627 0.557556 -0.195322 0.601282 0.683310 -0.054127 -0.528151 0.404058 -0.382113 -0.263174 -0.504820 0.725756 -2.625707 -0.039690 2.549482 0.800415 0.077894 -0.748900 -0.409103 -0.825132 1.924500 0.016785 -1.499743 -1.291136 0.252284 -1.304617 -0.292756 0.145774 -0.187110 -0.284649 0.425483 0.344845 1.785156 0.687648 -0.716942 2.179169 -0.278210 -0.516012 -0.548817 -0.145692 1.123082 1.259557 -0.011562 -0.542341 0.108574 -0.591269 -0.741179 -1.164814 0.037437 -0.600244 -0.495971 -0.533471 1.018127 -0.414749 -0.683686 2.167287 2.350448 0.122596 0.189919 0.203996 -0.787072 0.829458 -1.300866 -0.736572 -1.109825 0.875721 1.292641 -1.647821 -0.335090 -1.158408 0.018220 1.623982 0.922705 1.889770 -0.727045 -1.282889 0.323786 -0.154188 1.396966 -0.232129 1.428790 0.979720 -0.288589 -1.067888 0.187808 -1.228967 2.311072 0.050475 1.069803 1.411379 -1.777169 0.170450 -1.951653 -0.026713 0.275082 -0.813711
sales 1.492563 0.054197 -1.140445 0.233569 -0.996238 0.340738 -0.106082 0.385395 0.801490 -1.139208 0.870886 1.806620 0.020176 -0.766352 -1.583842 -0.892993 -1.140508 -0.139601 1.214677 0.280121 -0.588268 -0.380738 0.063596 0.225812 0.126203 -0.151612 -0.823292 -0.308176 -0.076978 0.131449 -0.523324 1.055902 0.468551 -0.637044 -0.187370 -0.507993 -0.063452 -1.076361 -1.292226 -1.040040 -0.377907 -0.129711 -0.990034 0.090322 -0.709353 0.824331 0.762723 -0.330592 -1.431240 -0.282279 -0.833431 1.210056 0.231270 0.194650 0.307162 1.075601 1.548818 -0.891059 1.187612 -0.980599 -0.763698 -1.900985 -0.424688 -0.668033 -0.979162 0.975756 -0.614493 -2.109259 -0.635421 -0.109687 0.276723 -1.692839 -0.973450 0.586344 -0.927608 1.120541 0.073994 0.531376 -0.115589 0.430836 -0.986033 0.203106 0.457370 -0.550028 1.615201 -0.852513 1.002368 0.310938 1.008769 1.395704 1.210253 -0.640253 -1.559032 0.802197 -1.186965 0.463961 -0.053139 0.270297 -0.019882 0.777995
five 0.456103 -1.481353 1.388001 1.237560 0.532885 -0.877787 -1.857132 1.834881 -1.065933 -0.028233 -1.775991 0.865436 -0.505124 -0.894468 -0.622420 -1.027359 -0.406439 -0.159963 0.802785 -0.551227 -0.738832 -0.565653 1.528598 0.337301 0.423460 -0.568471 -1.311892 -1.583261 0.158551 1.327594 -0.887321 -1.261522 -0.876466 -2.343639 1.010708 -0.774490 -0.796523 0.859659 -0.980769 0.263574 -0.504687 -2.436983 0.518497 -0.292450 -0.158068 1.301376 -0.329052 -0.361674 1.224398 1.054672 -1.168630 -0.687468 -0.474430 1.204073 0.806662 0.737409 -0.291791 -0.988374 -1.627681 -0.381469 0.852242 -1.421229 0.049966 -1.105877 -1.970877 0.914161 -1.214303 -0.063628 -0.074419 0.683312 -0.392875 0.222329 -0.077912 0.747186 0.495267 0.269970 0.239563 0.187677 0.436228 -0.162412 -1.132521 0.143024 0.278995 -0.923986 0.012600 -1.515557 -0.517825 -0.902568 -0.169032 -0.087579 1.031586 1.832568 -0.491249 1.028155 -0.178454 -0.155710 -0.611402 -0.416870 -0.633640 -0.666065
rose -0.538716 -1.276293 0.665188 0.066365 0.446001 1.440506 -0.904563 0.524815 -1.623654 1.073786 1.215031 0.789468 0.647868 -0.076087 -0.332925 -1.861246 1.263602 1.660543 0.806633 0.812244 1.875282 -2.159490 1.482007 0.988861 0.993496 0.551511 -1.486374 -0.422097 -1.646510 0.761306 2.196033 -1.403967 0.471627 -1.192527 -0.554134 -0.095127 0.024831 -1.648486 -2.220183 1.578494 -0.898152 1.348571 -0.020461 -1.006603 -0.936064 -0.350395 2.728531 -1.476083 -0.512192 -1.339532 0.268438 -1.650597 0.116172 1.154385 0.191551 0.744619 0.415260 -0.355737 1.551247 -0.879889 1.525589 -0.575429 -0.628824 -1.331312 -0.113028 1.363527 -1.417209 -1.153169 0.143876 1.341013 -0.471772 -0.815025 -1.104657 -0.707189 0.146993 1.131062 -0.928751 -1.649472 -0.248070 0.443677 -1.180901 -0.926360 -1.242435 0.209649 -0.470970 0.669374 0.464760 -1.468364 3.156548 -3.204370 3.696109 0.277572 0.415302 -0.423998 -0.108524 -1.494643 0.854969 1.591198 -1.107954 -1.162069
today 0.504607 0.185781 -1.738232 0.973670 1.295742 0.514408 1.181388 1.171795 -1.591601 -0.548701 1.781115 -0.874286 -0.877414 -1.075272 -0.353720 0.448171 0.688085 1.241939 0.361268 -0.292715 -0.450651 0.457459 2.155215 -0.501505 0.478873 0.173402 -0.862152 0.106189 0.698701 -0.127317 0.165101 -1.114110 -0.474096 0.213375 -0.400683 -0.280757 -0.150015 1.189015 1.316979 0.012232 -0.067971 0.077653 0.507694 -1.037329 0.606295 -1.342828 -1.102580 -1.083769 -0.400744 -1.235307 0.040255 -0.260681 -0.358493 0.949084 0.230015 -0.538114 0.288645 0.583265 -0.488085 0.210826 -0.641685 -0.173372 0.183863 -1.314505 0.656321 0.261099 0.117770 1.521540 -0.933063 0.691065 0.001672 -0.522629 1.054048 -0.519749 0.879107 0.611316 -1.280352 -0.756879 -0.120576 0.439186 -1.510427 -0.962428 -1.263129 0.205697 -0.548542 -0.286509 -0.296974 -0.382468 -0.668272 0.602927 -0.350478 0.435033 -0.638546 1.354777 -0.616588 0.136831 0.122819 0.162795 -1.593378 -0.748440
increase -0.671179 -0.731028 1.285324 0.093241 -0.006019 -0.019487 -1.062616 1.170465 -0.778793 -0.506550 -0.481176 0.591667 -0.125288 -1.817443 -0.526202 -0.435816 -0.025407 1.482661 -0.143843 0.917918 -0.617034 -0.600355 1.071370 -0.203429 0.398940 1.826210 -0.385234 -0.607462 -0.361331 1.437519 1.547591 -1.339038 0.808176 -1.707313 0.256002 -0.510832 -0.077529 0.017497 -0.943358 -0.688313 0.197463 -1.111001 -1.135328 -1.336253 -0.662027 0.126428 0.500658 0.103721 -0.759331 0.335749 0.943418 0.046124 -0.552620 1.272467 0.481178 0.999518 0.847157 -1.370581 0.032347 0.139199 1.400704 -0.971447 -0.478661 0.039890 -1.945038 0.186261 0.614978 -2.583435 -1.105185 0.721961 0.380959 0.356684 0.120769 -0.922429 -0.249682 -0.559478 -0.806715 -2.136725 -0.154899 0.170406 0.408371 -0.334994 0.243306 0.530067 0.771994 -0.376640 -0.083036 -0.537496 1.445525 0.773426 1.393211 -0.077754 -1.340994 0.257128 -1.260148 -0.479489 -0.194316 0.943131 -1.882128 -0.326502
interest 0.087180 0.025752 1.448607 0.201970 0.882010 -0.454937 -0.168562 -0.630767 0.874272 -0.280268 0.979604 -0.999225 -1.780435 0.808281 -1.549594 -1.296621 0.238573 0.375109 1.012025 0.244050 0.218758 0.976415 1.036457 -1.166640 1.838169 1.029580 -0.870165 -1.754139 0.676556 0.722588 0.095761 0.862065 0.646933 0.481117 0.269159 -0.153293 0.242614 0.294230 -0.628031 -0.122158 2.174167 0.294286 -2.136416 -0.647894 -0.374144 2.167232 0.376979 0.550964 -0.175073 -0.585964 0.134445 1.075939 -1.486089 -1.361812 -0.773095 1.033975 -0.358811 -1.706501 1.130213 0.531850 0.824735 -2.094344 -1.752748 0.681884 -0.066278 0.667958 -0.917852 -1.868006 -0.397282 0.048314 0.607703 2.179366 0.014589 -0.348716 0.114498 -0.782633 -0.615876 0.298989 -0.874322 1.227167 1.348581 -0.420451 0.091021 0.475939 0.596470 -1.104532 -0.043397 -0.218030 0.028114 -0.453560 0.299216 -0.258402 -0.411647 0.846180 0.220119 2.576376 0.469634 0.672124 0.836458 -2.158995
production 0.650198 -0.447826 -0.519490 0.179023 -0.702398 -0.443345 -0.191113 -0.067594 -0.427612 -0.784754 1.396564 0.495127 0.991337 -1.688901 -1.240397 1.289765 -1.289372 0.145232 0.448793 0.723547 -0.333326 0.627238 -0.760462 -0.104747 0.161322 -0.779383 -1.064407 0.691463 -0.371918 1.311957 -0.462694 0.690799 -0.108918 0.418798 -0.399322 -0.137132 -1.588772 0.484562 -1.160375 -1.616320 -0.367016 -0.297865 -0.715980 -1.239368 -0.545887 0.277321 -0.266993 0.211118 -0.599051 0.486327 -1.487778 1.620682 -0.025626 0.354955 -1.307114 0.182514 -0.592442 0.050033 -0.188629 -0.909505 -1.280542 0.008448 -0.022804 -0.635798 -2.407881 1.673172 -0.661007 -1.928817 0.590694 0.016009 -0.453661 0.627897 -0.125443 1.098525 -1.786893 0.462206 -1.479508 -0.950927 0.539581 -1.427473 -2.096268 0.930302 0.140865 -0.224647 1.255233 -1.286835 1.850076 0.319023 -0.060515 0.689965 -0.790963 1.231199 -1.422431 -1.426931 0.117692 0.002142 0.974420 1.545741 -0.729491 -1.325984
meeting 1.393497 0.071847 -0.568726 -0.156385 -0.848834 0.083073 -0.317897 0.458662 -0.689715 -1.692306 1.964556 0.316330 -2.673365 -2.113173 -1.670824 2.033158 0.359172 0.852373 1.300889 -2.194028 -1.090016 0.624136 -1.410601 -1.384623 -0.885155 -1.040010 -1.036195 1.066153 -1.371935 1.297696 -0.638457 0.408421 -0.795476 -0.485763 -0.497314 -0.498536 0.571721 0.318722 -0.408694 1.310442 0.372964 -2.656874 0.340020 -1.103592 0.186646 -0.740903 -1.693126 -1.012007 -0.468512 -0.559395 -0.542703 -0.158689 -0.355510 0.762086 0.249588 0.728991 0.176458 2.027618 0.019971 1.580373 0.515136 1.144198 -1.985806 1.062467 -2.342137 -0.566743 -0.707772 1.418435 0.531486 -0.261393 -0.629606 0.351533 1.055747 -0.801105 0.407808 1.212427 0.076023 0.119543 0.351654 -0.952468 0.869759 -2.333525 -0.838968 -1.613866 0.197260 -0.225443 -0.731547 -1.402999 0.305832 0.857102 -1.290196 -0.244695 -2.639832 0.176899 -1.889890 0.498595 0.233556 0.051351 -0.557132 -1.734748
end 1.723031 -0.991913 0.278674 -0.223444 -1.248482 -0.245871 -0.335046 -0.159071 0.383302 -1.655190 -0.957027 0.272754 -0.163742 -0.869886 -0.653305 1.476806 1.928891 0.311907 2.261208 0.571549 2.789598 -0.427104 -0.687261 -0.141382 0.996863 -1.996379 -0.430847 -0.340899 -0.335364 1.828921 -0.722329 -0.606909 -0.242860 -0.354344 -2.514941 -1.742426 0.125180 -0.861499 -0.368839 -1.066926 -1.703287 -0.251559 -0.590302 -0.696590 -0.318930 0.559557 -1.109582 -0.565691 -0.555104 0.812646 0.976162 -0.157413 0.722659 1.993929 0.157989 1.803198 1.394949 0.596860 0.563403 -1.005440 1.180096 0.364919 -1.026393 -0.836197 -1.395026 0.133382 -1.658748 -0.601750 -0.179648 0.464269 -0.936903 -0.614181 -2.528826 -0.343213 -0.266073 -0.215643 0.229079 -0.849250 0.383765 -1.365897 -0.401091 -2.037464 -0.130576 -0.503967 -0.237366 -0.315887 -2.444241 -1.417057 -0.014205 1.286037 -1.039872 0.514927 0.579988 0.031323 -1.198700 -1.842273 0.238305 0.867591 -0.802793 1.865996
month -1.420939 0.748144 -0.835725 0.887659 1.251059 -0.155123 -0.627652 0.484852 -1.392238 0.189575 1.507395 1.549183 -1.014574 -1.331251 -0.858205 -1.240961 -0.902643 0.737891 1.908279 -1.061354 -0.491340 -0.044354 0.596808 0.108039 0.066500 -0.302963 -0.302204 -1.540936 1.352535 1.038756 0.778663 0.379032 0.234852 0.560178 -0.670501 0.178932 0.088560 -0.990905 1.182994 0.120724 -0.194083 -0.628347 0.063611 -1.391588 0.942123 -1.930360 -0.208047 -1.793332 2.074933 -0.525058 -0.909041 -0.245277 -2.554568 -1.988951 0.720702 2.027249 -1.166094 0.793579 -0.176795 -1.042060 0.217872 -1.792781 1.593059 1.834260 -0.464985 2.254524 -2.068970 0.032241 0.775545 -0.773410 -0.010538 -1.163867 1.257045 -0.183957 0.757135 1.047864 -0.967075 -0.032522 1.646989 0.360070 -0.242387 -2.026420 -0.693422 0.187046 1.423713 -0.896375 -1.177441 0.383228 1.239550 0.216588 1.055470 0.556607 -1.765043 0.440272 0.342463 0.501126 0.489518 0.163740 -0.709988 -2.234857
foreign -0.728949 -0.709702 -0.202103 0.977508 -1.373359 -0.833295 1.718783 -1.033541 0.031771 0.371388 1.606819 0.720822 -0.756586 -0.393629 -1.136710 -0.041017 0.393697 -0.213497 1.689520 1.741137 -0.747540 -0.453156 0.249391 -1.601980 0.668153 -1.779939 0.716017 0.340136 0.328786 3.658934 -0.840915 -1.535758 1.017667 -1.244517 0.047543 -0.681813 -0.300191 0.200506 0.146980 -0.047772 -0.254921 0.203179 1.502920 -0.445641 0.836329 -0.020513 0.304936 2.174290 -1.832588 -1.688680 1.395710 -0.515091 0.274020 1.566682 -0.264819 0.639860 -0.897883 0.279929 -1.076064 -0.204838 -0.118859 -1.506888 -0.840934 -2.262574 1.458512 1.094623 1.179659 -0.749867 -1.445428 -0.336855 -1.331975 -0.603657 -0.532140 -0.014115 -0.648398 0.703178 -0.431368 0.619953 0.047280 1.132880 1.281348 1.414008 0.274343 -0.145059 -0.487067 0.800411 0.664192 0.272323 0.428375 -0.558422 0.602856 0.021895 0.118149 -0.948565 0.026183 -0.572555 -1.678582 -0.063578 -0.784166 -0.110425
sale -0.194552 -0.886692 0.270285 -0.280252 -0.577811 0.698262 -0.160847 -0.077814 0.314364 -0.093899 0.447986 0.899299 -1.288754 -0.938093 -0.913072 0.349706 -0.471013 0.318921 0.402665 1.144766 1.145055 -1.509443 0.893197 0.167194 1.277663 1.137038 -0.423958 -1.431664 -0.133543 0.976654 0.774353 -0.416546 -1.118548 0.658199 0.249304 -0.841923 1.442107 -0.487094 0.273105 0.611447 -0.526325 -0.395332 -0.423829 0.438304 -1.012202 2.364352 -0.326511 0.093828 0.534076 1.175241 -0.757990 0.423585 0.389212 -0.486762 -2.008073 0.896152 -0.146660 -0.714204 0.255462 0.343921 -0.238127 -0.575423 -0.076276 -0.205208 0.048397 -0.838583 1.115461 -1.279627 -0.585679 0.146483 1.015554 -2.336348 0.483264 -0.780558 0.191865 0.075344 0.108421 0.619278 -1.038935 -0.062680 -0.983599 -0.735018 1.769499 0.689071 0.458064 -0.120058 -0.348146 -0.315931 0.456633 2.114411 0.488117 -0.127406 -0.677451 2.303919 -1.423427 -0.544313 -2.738652 -0.283019 0.063333 0.122687
includes 1.237594 -1.410823 0.450403 1.118924 -0.328200 -0.364423 -1.192425 -0.108681 -0.102735 -0.593773 -0.340983 0.718924 1.064707 -1.875867 -1.309701 -1.456371 2.318391 -0.588438 1.010031 2.715977 0.384902 -1.001680 -0.217763 1.881785 0.665019 0.242710 0.695858 -1.208414 0.575828 -0.356858 0.289035 1.123203 -1.265463 -0.479357 0.104256 -0.535248 2.522568 -1.564661 -1.110938 1.434965 -1.377839 -0.292249 -0.037221 -2.792603 -1.362347 1.652436 2.485338 2.100676 -0.806307 1.301090 -1.401612 -1.091134 0.124333 1.288749 -0.501089 -0.925270 -0.862596 1.827728 1.744439 0.380746 -0.044583 0.961918 0.664626 -0.612970 0.338025 2.356924 -1.122301 -0.380896 3.764310 -0.757530 -0.947061 -0.801562 0.764840 0.569566 -0.513169 -0.676084 0.333938 0.785736 -2.027752 1.406304 -0.848781 0.170815 1.348920 -0.003741 -1.423855 -0.388340 -1.367157 -1.102876 1.453223 1.303167 1.749270 -1.276527 0.141009 0.844723 -1.921433 -1.184790 -1.201280 -0.781952 -0.779993 1.319316
rise 0.410209 -0.662236 1.110312 -0.707898 0.901496 -0.200476 -1.238494 0.921414 -2.107939 -0.719486 -0.021520 1.095505 -0.505033 -0.471658 0.391964 -0.180549 0.344917 1.151646 -0.089521 0.581279 0.621800 -1.394156 1.220511 -0.371289 -0.646982 1.574003 -0.219381 -0.227633 -0.524252 2.167882 1.124197 -1.420768 0.202149 -1.541479 1.037108 -1.108871 -1.271286 -0.134168 -0.292366 -0.935259 -0.502178 -0.438338 -2.054058 -0.934593 0.521503 0.208483 0.269109 0.007433 0.142794 -0.568892 1.176913 0.816240 -0.102485 1.256440 1.006505 1.810082 1.728448 -1.820898 -0.077692 -1.669254 1.099011 -1.064800 0.493912 0.071245 -2.133364 0.372855 -0.063661 -2.789306 -0.828366 -0.152229 0.330498 -0.239019 -1.399686 -0.331280 -1.320519 -0.149056 -0.742246 -1.538281 0.284491 -0.166631 -0.413038 -1.085097 -0.436709 -0.642494 0.674023 -1.982448 0.099458 0.016542 1.050824 0.156384 1.805059 0.174969 -1.346614 0.128382 0.209070 -0.318672 -0.117244 1.101755 -2.022291 -1.420807
board -0.258272 -0.989107 -0.308031 -0.065358 0.686986 -0.085246 -2.913004 0.429601 -0.992393 -0.176333 0.473215 0.241282 -1.215858 -1.871110 -1.360420 0.734666 0.314544 0.517477 1.950487 -1.429891 -1.051393 0.457521 -0.962862 -1.104099 -0.466665 0.957552 -0.711170 -0.613461 0.179650 0.150681 -1.134321 1.362581 -1.355315 0.451672 0.721399 -0.706619 1.287345 0.519079 1.726829 0.487634 0.856169 -1.886317 0.943960 -0.218591 -0.287550 0.689949 -1.508777 0.329161 0.577571 0.635846 0.230509 0.702470 -1.111987 1.080313 -0.331687 -1.733762 -0.946484 0.332762 -1.184429 2.881033 2.459622 1.339005 -1.049498 0.333989 -0.352890 -0.479483 0.073560 -0.235446 -1.589411 0.684427 1.908848 -0.455982 1.277747 -1.053714 0.337591 1.396961 -1.025121 0.818039 -2.106834 -1.373602 0.715333 -0.788831 0.975547 -1.062380 0.130890 -0.608723 -0.553087 -2.002393 0.542928 1.514074 0.599730 0.372725 0.088397 -0.066312 -2.259659 1.096666 -1.255335 0.056431 0.670902 -0.340201
cash 1.725999 -0.469804 1.691998 1.226373 1.474697 0.357387 0.050677 0.136683 0.643951 -0.882554 0.860841 -0.635338 -0.094399 -0.234437 -0.644987 0.347857 0.740146 -0.599825 0.352893 1.478608 -2.118317 0.065569 0.498988 -0.079007 0.874581 1.146056 -1.366118 -2.148354 -0.277564 -0.592917 -0.399249 -0.617995 0.216307 -1.159003 0.092792 0.554877 1.954689 -0.379128 -0.162904 -0.255837 0.783586 1.507532 -1.033056 0.003094 0.097862 0.397711 0.302034 0.319800 -0.020862 0.294015 0.756662 1.755718 -1.413255 0.173913 0.185925 0.246771 -0.069320 -1.670195 0.450836 1.077214 0.229424 -0.655177 -0.500263 -0.736774 -0.444238 0.606447 -0.271182 -1.178132 -1.576889 -0.266382 0.743574 -0.986361 -1.533626 0.644308 -0.938341 0.261837 -0.076382 -1.544861 0.392651 0.003794 0.300228 0.453882 1.780735 -0.107369 1.722194 0.226258 0.287283 0.301360 -0.129203 0.226825 1.786742 1.462753 0.127980 2.414571 -0.405324 1.702824 -2.206658 0.090339 0.406349 -1.452444
made 0.653641 -0.431302 0.346307 -0.599437 -0.575413 0.538520 0.341200 -0.544642 -0.434905 -0.453945 -0.226154 0.245972 -0.406618 -0.051366 -0.445973 -0.341552 1.757456 0.725219 1.145974 -0.296600 -0.730952 -1.750901 0.418902 -0.877712 0.722796 0.187783 -0.223277 0.012166 1.697673 -0.096857 -0.215129 -1.174857 0.772080 0.349762 -1.295052 -0.101953 1.272447 -1.503559 0.307508 -0.249272 -0.844896 -0.662550 -0.194752 -1.183218 -0.216936 -0.240601 -0.732981 -0.366387 -0.247672 0.343423 0.711399 0.461466 1.070277 0.271623 0.079023 0.305832 -0.140466 0.200140 -0.164711 0.514580 -0.878838 -0.674439 -1.299045 -0.455054 -2.064664 -0.543434 0.611842 0.650911 0.391071 0.008147 -0.663627 0.311776 0.241288 1.831883 0.417552 -0.105468 -0.654129 -0.733566 -0.858732 -0.272373 -0.659126 0.008591 -0.223340 -0.763807 0.400802 0.112033 -1.312666 -0.135579 0.265975 1.367413 0.126675 1.052983 -0.087885 1.129725 -0.357651 -0.626751 -0.616686 -0.386755 -0.481935 -0.700300
current 0.711028 -1.307813 0.438369 1.149133 -0.142872 1.082780 -0.182279 -0.146061 -0.980902 -1.744626 0.221559 0.242069 0.677253 -0.398450 0.100095 0.349849 0.548405 -0.637171 0.150377 -0.453211 -0.474428 0.093848 0.094703 -1.012839 -0.976843 -0.745345 0.899052 0.252310 -0.044946 0.207725 0.534105 -0.252925 -0.307730 -1.163646 0.439796 -0.504339 -0.301903 0.081028 1.207147 -0.321089 -0.646831 -0.135031 -0.086232 -0.582673 0.798153 1.952478 0.220737 0.477282 -0.120770 1.080065 -0.088988 -1.093370 -1.116831 1.617264 0.072065 1.256566 -0.694024 -1.164659 -0.592951 0.035290 0.029523 -0.841505 -0.271245 -1.461155 -0.954368 0.837034 -0.175486 -0.796247 -0.512199 0.764622 0.017165 -0.517858 -1.576268 0.128907 -1.247256 -1.200748 -1.145314 -1.430624 -1.042144 -0.387964 0.148231 -0.005105 -0.293796 0.435628 0.656016 0.589695 -0.173932 -0.786254 0.881601 -1.852544 -0.665650 0.711320 -1.487073 1.183622 -1.169240 -0.840581 0.096473 -0.662812 -0.301295 0.050559
gain 1.277165 1.059472 0.694143 0.125937 0.010972 -0.679468 0.781350 0.276023 0.637042 -0.815728 0.083479 1.479933 -0.693566 -1.447155 -2.045811 0.813550 -0.431202 -0.453374 -0.129996 1.293609 0.852853 -1.897511 0.560619 0.045539 0.517913 0.214596 0.172489 -1.279100 0.310928 0.458968 0.822441 0.531973 -1.595390 0.911643 -0.126730 -0.043718 0.820309 -0.789989 -0.003579 -0.171797 -0.884647 -0.704931 -0.358757 -0.599850 -0.977242 -0.666651 0.525607 1.582843 1.046638 0.467511 -0.661396 0.639548 0.439467 0.355219 -0.154244 0.610332 -0.175891 -0.601236 0.261220 -1.158190 0.774731 -0.225178 -0.102283 -0.525789 -1.310509 0.890695 -0.135942 -2.093433 0.474648 -1.619279 0.534711 -2.235193 -1.715930 -1.244695 -1.038685 0.018820 1.621124 0.368421 -0.951478 1.032812 -0.315740 -0.910801 2.118474 -0.133768 1.251752 -1.467641 -1.140878 -0.579353 1.202627 0.671068 2.350038 -1.063692 -0.246350 2.646726 -0.242389 0.081007 -0.001729 -0.461675 0.023789 0.792110
investment -0.164836 -0.816009 1.004223 1.819344 -0.108189 -0.004452 0.444412 0.502731 1.189465 0.791859 0.870840 0.353713 -0.173908 -0.088604 0.576569 -0.791619 0.447775 0.829565 1.092749 0.720243 -0.756332 -0.767993 1.390141 0.486856 1.731711 1.058311 -0.909421 -0.615150 -0.378900 1.220371 -0.386498 -0.308163 0.788342 -2.228218 -0.042023 0.086402 0.969983 -0.190974 -0.567642 -0.519613 -1.042714 -0.521948 -0.156064 -1.508355 -0.518176 0.236516 0.088994 0.998191 -1.482945 -0.143815 0.445699 0.305539 0.137683 -0.453768 0.653704 0.215248 0.115561 -0.502301 0.460653 1.147709 -0.298607 -1.975623 -0.685138 0.789591 0.507312 -0.313477 0.854899 -0.185029 -0.446713 0.041968 -0.137304 -0.180472 0.696295 -0.291703 0.440563 0.452056 0.824307 -0.194547 -1.848205 0.732117 0.341821 1.865974 -0.133091 0.398686 0.759299 -0.271244 0.173670 -1.191909 0.576023 0.998212 0.731438 -0.271368 -0.047188 0.901654 -0.786082 1.365274 -0.852501 -0.419164 1.126209 -0.999374
official -1.090119 -1.393756 0.389496 0.829898 -0.752688 0.388099 -1.232991 1.758099 -1.334151 -0.827365 0.797747 0.003514 -0.959107 -1.522960 0.491843 0.880604 0.227654 1.038179 -0.176897 -0.041112 -1.331780 1.059996 1.166431 -0.618291 -0.156490 0.493551 1.811795 -0.823057 0.241270 -0.958286 1.219030 0.016477 -0.070141 -0.309741 0.770650 0.417370 -0.497564 -0.648295 0.657772 0.103544 -0.909909 -0.317911 0.818351 -1.144560 -0.414243 -0.013088 -1.501834 0.540440 -2.605798 1.012724 0.384135 -0.027188 -1.621421 0.293215 2.021755 0.442798 1.182373 1.240968 -0.709566 1.164535 1.484369 -0.785897 -0.002134 -1.120008 0.410973 0.898797 0.723742 -0.052909 -0.457400 -0.457501 -0.710015 0.158143 1.515246 0.251822 0.249040 1.059327 -1.177416 -1.554259 0.525141 -0.524443 0.603009 -0.905903 -0.839738 0.436093 0.390797 0.229184 0.085580 -0.051199 0.212524 0.345340 0.025764 0.259391 0.192513 -0.806800 -0.208258 -1.811815 -0.564901 0.436352 -0.517128 -2.072993
dividend 0.305892 -0.614206 2.019242 1.012631 1.635228 -0.372838 -1.842891 0.793181 -0.755304 -0.204538 0.903776 -0.438341 -0.978259 -2.009758 -1.663034 -0.067234 -0.302583 1.508742 2.244193 1.256026 -1.818770 -0.494612 -0.425435 0.657715 -0.653180 1.248970 -1.628199 -1.168003 -0.522843 0.317328 -1.109811 -0.239565 -1.077637 -0.468186 -0.557584 -1.462070 0.934149 0.800792 -0.342485 1.632032 1.167017 -1.407801 -1.263713 -0.404359 0.629164 1.721130 -0.177051 -1.426352 1.431714 -0.262393 -0.208195 1.714988 -0.951330 0.968018 0.074255 0.701133 0.688504 0.705513 0.722909 1.238637 1.071103 0.140071 -0.294250 -0.139089 -2.363974 0.140151 -1.823619 -1.362718 -2.327312 0.134055 0.542369 -0.502275 -1.206381 -0.601288 -2.032072 -0.615068 0.417508 -0.189706 -1.479311 -0.620478 1.304303 -0.853035 0.346980 -1.171642 0.215415 -1.417827 0.137860 -0.871885 -0.720947 1.460264 3.033657 0.396577 -1.617282 2.179593 -1.644829 0.478933 0.372949 -0.285992 -1.476878 -1.894371
business -0.138843 -0.561223 0.390679 0.335982 -0.517281 0.386958 0.183619 -0.972772 -0.097553 0.792126 0.764813 0.733354 0.015778 -0.159156 -0.789836 0.458366 0.005047 -0.320783 0.047163 -0.637550 0.169686 0.564783 0.839871 -0.010193 0.593507 0.471980 -0.091737 0.471130 -1.148497 0.566674 -0.470613 0.145420 0.156901 -0.240638 -0.943375 -0.727409 0.536696 -1.115348 -0.136704 -1.009065 -0.640330 0.049808 0.428024 -0.386965 -0.218193 0.809139 -0.177894 0.575464 0.076104 0.582358 -0.803903 0.469362 0.506288 0.767113 -0.714494 0.064860 -0.394604 -0.222101 -0.245286 -0.308126 -0.761629 -1.082178 0.845185 0.456948 0.333460 -0.128863 -0.085416 -0.457453 0.198660 0.643445 -0.923511 -0.169879 0.686022 0.265561 -0.262336 0.229376 -0.288023 -0.106363 -1.417547 0.548784 0.128977 0.684167 0.048018 -0.135189 1.720715 -0.982995 0.788721 -1.092673 1.009733 0.870712 0.282143 -0.040179 0.095438 0.261318 -0.614119 0.227143 -1.501442 0.016732 1.385184 0.260242
industry -0.703839 -0.943481 -0.216833 -0.272505 -0.410879 0.231902 -0.003458 0.211978 -1.015616 0.641220 1.421369 1.022897 0.681204 -0.307907 1.034039 1.563964 0.530728 0.747033 -0.241921 -0.808957 -1.264583 0.506134 0.220201 -0.347004 -0.281108 0.325370 0.315822 0.904630 0.130821 1.311539 -0.279722 -0.514389 -0.278556 -0.235118 0.441138 -0.550165 0.286051 -1.272993 -0.387341 -0.794747 -0.661905 0.401915 1.090174 0.642564 -0.036105 -0.882275 -0.624921 0.938557 -1.138975 0.576878 -0.228420 -0.166963 0.139563 0.620601 0.714318 -0.153899 -0.220303 -0.819536 -0.457909 0.210967 -1.458751 -0.426125 -0.373888 0.231747 -0.644822 0.827019 1.270257 -0.885775 0.933408 -1.234927 -1.645498 0.103581 0.649809 1.302054 -0.334465 0.509097 -0.699792 -1.032380 0.844375 0.380159 -0.695310 0.335393 0.800847 -0.175594 1.428950 -1.658787 1.816411 0.328641 0.668536 1.889053 -0.271854 0.014488 -0.489460 -0.075892 -1.753360 -0.347975 -0.673915 1.788024 0.130785 -0.857974
growth -0.027925 -0.997297 -0.052575 0.399459 0.527216 1.178862 -1.287171 0.551662 -1.315084 -0.127303 1.390669 1.626980 -0.888389 -0.275138 -0.957665 0.092516 0.802307 0.880627 0.144232 0.229682 0.258636 0.322885 -0.568449 -0.836625 -0.760651 0.767551 -0.449591 0.156792 -0.213195 2.015881 -0.172262 0.251990 1.403264 -1.941941 0.516469 -0.933631 -1.214067 0.005440 -0.765131 -1.591224 0.219352 -0.582008 -1.710341 -0.500750 1.134361 1.037333 0.267174 0.716371 0.054895 -0.207663 0.168058 0.737260 0.435924 1.180342 -0.040661 1.991444 0.591000 -1.827484 1.344956 -1.569481 -0.372714 -1.107430 -0.460608 1.327162 -1.044898 0.803720 -1.063903 -1.945013 -0.136339 -0.536896 -0.185264 -0.374991 -1.300131 0.296860 -0.728984 0.432030 -1.553557 -0.815411 -0.545033 0.162956 0.592756 0.259067 -0.642467 -0.923341 0.635180 -2.579650 0.305593 -0.884688 1.769143 -0.074865 0.339777 -0.955122 -2.109511 0.043040 -1.086051 0.613555 0.609133 0.699703 -1.015790 -2.568529
exchange -0.142371 -1.108191 1.121046 1.437654 1.181697 0.799491 1.739641 0.552945 -0.068849 -1.343092 1.663334 0.381393 -2.093155 1.231658 -0.140198 -0.855438 0.956837 0.218537 1.581985 0.997588 0.493986 2.157256 0.447359 -1.869709 1.520927 0.575763 0.080038 -0.687887 0.421538 -0.361256 -0.887553 0.112247 0.566669 -0.388831 1.443248 -0.134068 0.176582 -0.505787 -0.643108 2.118833 1.173236 1.803513 -1.589535 0.228318 -0.379405 0.760123 -0.200649 0.887970 0.017559 -1.169900 1.627063 -0.289751 0.498113 0.629856 -0.184781 1.319329 0.500845 -0.169310 0.147096 0.575894 1.034744 -1.454623 -0.525690 0.368192 0.666852 -0.162197 0.226333 0.814462 -0.854375 -0.312127 0.124598 1.126471 -0.976216 -0.368367 1.285525 -0.909099 -1.260714 -0.176130 -1.320066 0.478951 1.082902 0.078888 -0.872716 -0.356858 1.266280 0.498034 -0.265446 0.010787 0.247015 -1.016982 0.184557 0.166618 -0.713179 1.278695 -1.335769 1.520151 0.133204 0.823501 0.170387 -2.364277
statement 0.301930 -1.138739 0.693359 1.113118 0.791334 -0.344386 -1.431445 -0.114327 -2.086852 -1.351569 0.471194 -0.853470 -0.482904 -0.932433 -0.297011 0.814840 0.108564 0.657056 -0.701633 -1.349794 0.101840 0.362236 1.843031 0.003756 -0.226066 1.273230 -1.143271 0.183775 -0.177287 -0.655481 0.722548 -1.026574 0.077671 -0.731815 -0.508097 -0.962073 0.287108 -0.928393 1.741192 0.010605 -0.503189 0.372838 0.949311 -0.963672 0.304042 0.283407 -0.367499 -1.065795 -1.731520 -0.566185 0.943389 -0.332966 -1.025853 -1.181086 1.158476 0.024126 0.125974 -1.381013 -0.909570 1.554660 -1.016731 0.528765 -0.193614 0.929254 -0.761342 0.227314 1.967319 0.401443 -1.224651 -0.117516 1.031762 -0.142921 0.568174 -0.758815 -0.726758 0.689930 -0.281502 -1.645578 -0.389896 -0.075837 1.412796 -0.760696 -1.495428 0.916505 0.085601 0.478594 -1.073935 -2.159598 0.583668 0.643079 -0.023774 -0.699963 -0.577712 -0.246765 -1.521446 1.225894 -1.380676 0.668390 1.456848 -1.419008
major -0.112936 -0.513475 -0.241561 -0.014047 -0.390344 -0.119212 -0.830939 -1.263905 -0.233848 0.359932 1.577777 0.310100 -1.364918 -0.216759 -0.670065 1.206665 0.875246 -0.287448 0.562002 -0.039558 -1.173228 -0.547515 1.069405 1.028939 0.858946 -0.491707 0.573335 -0.645070 -0.244966 1.742571 -0.900702 -0.828972 -0.336248 0.185186 -0.924834 -0.679527 -0.438790 -0.721409 -0.774003 0.446132 0.364649 -0.692098 1.439695 -0.669587 0.469612 0.076121 0.750636 -0.440920 -0.418631 -0.371448 0.156727 0.135440 0.493346 1.704605 -0.996420 0.064634 -0.327175 0.097191 -0.714299 -0.487033 -0.247868 -0.325913 -0.070350 0.120475 0.041051 -0.640958 -0.248210 -0.082565 0.336011 0.926529 -0.931400 1.225827 0.892171 0.229138 0.532247 0.026045 -1.728647 -0.110717 -0.799381 0.348038 -0.114362 0.286136 -0.208173 -0.072113 0.312579 -0.041658 1.557900 -0.199623 1.588874 -0.825277 0.414776 0.392034 -1.070366 0.568514 -0.212650 -1.354533 -0.283246 -0.842054 -0.286527 -1.382716
dollar -0.062572 -0.993412 0.905239 -0.080544 0.322869 -0.663545 0.183149 1.846225 -2.221741 0.380798 1.214587 -0.835031 -1.408081 0.146213 0.470702 0.268018 0.827262 -0.460136 1.052383 0.392897 1.009587 0.164723 0.818283 -3.012408 0.889908 -1.304013 1.147603 -1.348237 -0.074655 2.945944 -0.369584 -0.813687 0.953692 1.643096 -0.067587 -2.303971 -1.344265 0.027623 -0.318007 -2.012315 0.276023 0.509569 -0.889745 1.406420 0.629612 0.700508 -0.341647 0.127255 -1.089960 -0.664604 0.260146 0.430635 -1.794430 0.247533 -0.268864 2.053447 0.790321 0.734013 -0.819878 0.069699 -0.389641 -1.285634 0.555681 -0.623786 0.525002 0.381845 0.277230 -0.332146 -2.136164 -1.255673 -0.148423 1.013514 -1.768328 1.218192 -2.054260 0.059934 -1.435969 -0.561173 -0.253056 -0.042426 0.819776 -1.707901 -0.709110 -0.326964 0.004045 -1.630476 0.208759 0.596309 -0.557566 0.919865 -0.893422 1.176989 -0.368315 1.051929 0.867676 -0.014281 0.923100 1.506977 -1.392796 -1.156932
buy 0.548901 0.359007 -0.632711 -0.443561 -0.143448 0.341893 0.070444 0.656622 0.420670 1.227893 -0.642160 0.643232 -0.104312 0.185160 -0.606580 1.051451 0.301344 0.861876 -0.313213 -0.012919 1.164315 -0.080360 -1.028369 -0.911542 2.570318 -0.312619 -0.716087 -1.277997 0.275018 0.915784 1.039211 -0.407168 0.942209 0.678338 0.496041 0.001803 1.056176 1.969014 -1.490189 0.110820 -0.017477 -0.537605 -1.030596 1.017083 -0.453775 -0.116947 0.162421 0.758954 1.157096 -0.560458 -0.219572 -1.364334 0.924188 -0.358426 -1.468636 -0.997420 0.202211 -1.194365 -1.439596 1.557996 2.340599 -0.730733 0.183088 -0.822888 -2.095090 0.045232 -0.023387 -1.240102 -0.852480 1.872108 1.113979 0.966519 -0.120345 -0.743181 0.626474 1.373188 -0.485626 0.007390 -0.446511 -0.406183 -1.047024 1.421092 0.216854 0.181774 1.480642 1.258667 0.206397 0.544959 0.535782 -0.034506 1.323092 2.188159 -0.153827 0.820180 -0.507275 -0.769052 -1.677846 1.180298 0.209776 -0.163775
stake -0.275595 0.583701 1.540196 -0.648363 1.115932 -1.812392 -0.658779 -0.125754 -0.363962 1.339138 0.989034 -1.427761 0.847668 -0.110484 -1.610922 0.877345 0.323897 0.446529 -0.252106 -1.654072 0.137691 -0.514902 2.273295 -0.619845 2.307470 0.887925 -2.041846 -2.576026 0.104822 2.317207 0.333754 0.488816 -0.174403 -0.460426 0.827688 0.363706 0.387031 1.476904 0.401722 -2.128341 1.317963 -0.319658 -1.295305 0.455556 0.420407 0.671891 -0.135403 -1.305867 -1.471081 -0.533951 -0.582236 1.526630 -2.198906 -2.506771 0.330162 -1.049170 0.936154 -2.193299 0.803186 2.020599 1.325924 -2.588688 -1.661361 1.233400 -1.348165 -1.009408 -1.263212 -2.557510 -1.895112 0.236511 1.219839 0.016158 0.038015 -0.347146 -0.449577 0.863616 -0.165378 0.351490 -1.560074 -0.428206 0.822979 0.469214 0.365216 1.242362 1.307502 -0.248488 0.374773 -1.393055 0.592515 0.178104 1.321983 -0.793473 -0.036438 0.499196 -0.814309 1.338116 -1.917828 1.492339 0.774781 -1.038311
acquisition 0.368546 0.181224 1.575881 -0.814473 -0.369405 0.468681 -0.604409 -0.670020 0.168220 -0.580479 -0.801052 0.369872 -0.835395 -1.580096 -0.569821 1.295030 0.768405 -0.419210 0.922939 0.505724 0.379833 -1.001565 0.032289 -0.460394 1.323000 1.382332 -0.187392 -1.086928 0.195319 0.824677 -0.165632 -0.511360 -0.485585 0.636822 -0.846904 -2.274257 1.902209 0.483085 0.114109 -0.010706 -0.865805 -0.480019 -0.349388 0.091960 -1.052695 1.398609 -1.446658 -0.608024 -0.247813 1.918885 -0.577749 0.520359 -0.805075 -0.559760 -0.735349 -0.188286 -0.077573 -0.905870 0.117068 1.121513 0.115191 -0.239212 -0.045825 0.429906 -0.666345 -1.132465 0.668931 -1.595249 -0.701548 0.324595 2.228903 -0.729561 0.471922 -1.136904 0.509551 0.704450 0.269297 -0.204772 -0.103228 -0.449911 0.467410 -1.292354 1.672519 0.460561 0.761366 -0.713067 -1.348753 -0.905899 -0.727164 2.258419 0.541667 -0.331722 0.067295 0.985204 -1.119559 0.322373 -2.297851 -0.681499 0.748931 0.370520
time 0.540653 -0.767188 0.145808 1.315583 0.672170 0.537197 -1.129403 0.476067 -0.004885 -0.436546 0.518823 -0.037264 -0.663389 -0.863956 -1.288249 0.722322 0.346181 0.315734 -0.028514 0.325828 -0.032995 -0.616513 -0.726392 -1.079334 0.634700 -0.612981 -0.411388 -2.161965 0.450037 1.865525 -0.308197 -0.646618 -0.012110 -0.130260 -1.416123 -0.572857 0.660805 -0.201626 0.405569 -1.024457 -0.906049 -1.080826 0.909029 -1.019328 0.394164 -0.379908 -1.501186 -0.530825 0.955582 0.789368 -1.028562 0.924461 -0.799458 -0.122630 0.569585 0.228377 -0.825878 0.621352 -1.565001 -0.110002 0.940679 -1.034423 -0.103819 1.357696 -0.228208 0.118449 -0.881950 0.385934 0.953398 -0.058282 -1.104466 -0.555330 0.286035 0.752982 0.577636 -0.820287 -0.538658 0.042842 1.324713 0.321491 0.303285 -2.096175 0.059729 0.113843 0.184502 0.796272 -1.548403 0.210598 2.127062 0.407116 -0.250983 1.348830 -0.523440 2.158129 -0.570755 -0.437039 -0.899487 0.101642 1.059166 -1.227902
reported -0.517377 -0.053367 -0.468650 0.740236 0.308864 0.941512 -0.197974 -0.921877 -0.069098 0.231018 0.055713 -1.295334 -0.449661 -1.647197 -1.358241 -2.139556 1.805946 1.586506 0.375401 -1.134968 -0.588746 -0.326125 1.471953 0.952730 0.515212 0.543328 -1.866227 -0.993796 1.229962 0.868079 1.067401 0.553895 -0.862985 0.370412 -1.872702 -0.800723 0.267811 -1.431260 0.512771 -0.313098 -1.114523 0.254768 1.058828 -1.726697 0.940501 0.868864 -0.456739 -0.538761 -1.426370 -0.367937 -1.146814 0.993562 0.742442 0.562935 0.862554 0.211590 0.115769 1.190319 1.474833 1.448510 -1.677732 -1.872838 -1.201639 0.949512 -0.834673 -0.418477 -0.678798 0.153906 0.651435 0.661948 -0.376686 -2.825791 0.426188 0.859339 1.084574 0.175272 0.192442 0.947433 -1.041495 0.444515 -0.548804 -0.888390 -0.395789 0.098934 0.190751 1.019611 -1.041323 -0.243991 0.402422 2.074154 1.288320 -1.105621 -0.850103 0.403329 -0.107743 -0.054701 0.729741 -0.128799 -0.706472 0.070549
world -0.943554 -1.313453 0.337523 0.477409 0.374878 -1.042590 0.180879 0.786481 -1.206411 1.150356 1.279190 0.225253 0.004011 0.358303 0.257230 1.105946 -0.430960 0.200789 1.486609 0.150815 -1.311546 -0.967122 0.639764 -0.803823 0.114354 -0.682470 0.302235 0.144646 -0.264951 1.559119 -0.445118 0.223602 -0.210698 -1.266311 0.788759 -1.095278 -2.159930 -0.751964 -0.301192 -0.053016 -1.212049 0.008814 -0.191927 0.618425 0.950738 1.539764 0.123165 -1.573263 -1.281335 -0.293288 0.811095 -0.532170 0.005362 1.453425 0.386820 0.669219 -0.523880 -0.255126 -0.130556 -0.346217 -0.813998 0.361526 -0.984196 0.129885 -0.844965 0.727262 -0.903879 -1.089034 0.087193 -0.505646 -0.779591 0.558851 -0.009281 0.121000 -0.103848 0.226489 -0.991600 -0.308777 0.308240 1.286284 -0.084004 -0.098036 -0.865021 0.455035 0.488489 -0.686312 1.827248 -0.063840 0.977520 -0.768517 0.311854 1.008317 -0.893153 0.509404 -0.871218 -1.741790 0.019758 0.942413 0.432087 -1.618313
debt 0.369011 -0.693583 0.435132 0.870086 0.809440 0.740466 1.668285 -0.730430 1.019667 -0.352388 1.585327 0.913075 -1.564191 -0.726454 -1.506156 0.052756 0.126269 -0.540608 1.429059 1.115791 0.714961 1.310742 1.137146 -0.228796 1.654358 -0.042274 -0.720235 -1.184161 0.091619 1.190843 -0.841797 1.224477 0.844095 0.065656 -0.963582 0.458914 1.049698 -0.869914 -0.618370 0.229103 -0.699434 -0.468334 1.011883 -0.605848 -0.236079 -0.173058 0.498286 0.778154 -0.343896 -0.031326 1.169832 1.184825 -0.311608 -0.236414 -0.384476 -0.191851 -0.416312 -0.161683 -0.002664 -0.227489 -0.187669 -1.856927 0.489897 -1.077820 -0.093527 -0.164831 -0.340887 0.217965 -1.626305 -0.217022 0.129807 -0.771555 0.408788 -0.115545 -1.038445 0.187591 0.512072 -0.444844 -1.121954 -0.099647 1.699060 -0.395050 -0.118027 0.384443 0.861923 -0.279318 -0.357424 -0.175833 0.380910 0.300327 -0.307101 -0.151065 -1.015332 1.099470 0.385494 0.204443 -1.980941 0.569260 -0.387780 0.173409
record -0.072121 0.896507 -0.035600 -0.139559 -0.256615 -0.791368 0.237728 -0.095663 0.478174 -0.458612 0.873743 -0.090789 -1.517524 -2.400853 0.683011 -0.716693 -0.361971 0.253343 2.008281 1.020774 -0.268219 0.659257 -0.546410 0.193752 -0.186477 -1.019968 -1.734602 -0.233909 0.962312 1.597648 -1.395531 0.891953 -0.388337 0.066936 -1.483055 -1.012659 -0.061088 0.989584 -1.514958 -0.021931 1.178498 -0.926809 -1.195048 -0.401216 0.185576 1.856717 0.169206 0.290262 0.350678 -1.502111 0.352278 -0.021658 0.225848 0.964543 1.054674 2.472302 1.678849 0.010184 0.636066 1.529966 0.062699 -0.929857 0.237179 0.098254 -2.058347 1.005685 -2.284801 -0.572456 -0.498729 -0.478705 0.377225 -0.305856 -2.053149 -0.779595 -0.269785 -0.819900 0.529927 -0.896406 0.569196 -1.560686 0.867209 -1.293791 -1.094169 -0.446524 0.682495 1.453549 -0.844935 0.410127 0.280089 0.730455 0.658704 -1.028516 -1.179465 -0.197676 -0.022162 0.168742 0.080044 -0.017890 -1.228408 -0.313904
take 1.070836 0.097163 0.832505 0.619684 -0.942299 -0.689368 -0.287036 0.809940 -0.515976 -0.259071 -0.311515 -0.182030 -0.594236 -0.129779 -1.305285 0.513870 1.704377 0.990141 -1.852246 0.688534 -0.128087 0.322542 0.058359 -1.511082 1.874273 -1.016701 -0.794452 -0.207823 -0.056439 2.560939 -0.411967 -0.898513 0.834222 0.635775 0.427739 -0.008715 0.303066 1.265546 -0.179853 -1.381227 0.755804 -1.644356 -0.879694 -0.972025 -0.674545 -0.017590 0.029890 -0.119710 0.620342 -1.003860 0.460174 -0.691045 0.713957 1.090301 -1.016939 0.113305 0.445441 -1.186391 -2.865911 -0.250334 0.669781 0.221464 1.594284 -0.152953 -0.909688 -0.276406 0.295527 -0.327870 0.394090 1.436956 0.695233 1.912060 0.077037 -0.304673 0.760643 0.218862 -1.759387 -0.281952 -0.296851 -0.388718 1.789666 0.665876 -0.445172 -0.211116 0.394013 -0.943086 -0.695972 -0.778608 1.876038 0.316814 -1.366051 1.200468 -0.720381 2.284382 0.873952 -0.607833 -0.986028 0.177750 -0.996197 0.152291
announced -0.407900 0.761381 -0.445529 0.455125 0.522220 -0.997403 -0.539365 -0.820130 -0.057786 -1.012093 -0.501559 -0.811248 -2.002648 -1.391869 -0.934527 -1.140344 1.557288 0.918325 1.694260 -1.033700 -1.170570 -0.573142 1.114633 1.009584 0.170986 0.112500 -2.089839 -1.037130 2.021872 0.599379 1.276299 -0.002104 0.509091 2.371063 -0.550771 -0.246448 0.211279 -0.579866 0.891480 -0.042625 -0.301442 0.004409 1.435927 -2.017330 0.980112 -0.409149 0.004913 0.277399 -0.793785 -1.142399 -1.248152 0.000800 0.742245 1.066831 -1.316598 0.526972 -1.514076 1.302989 -0.073829 1.526148 -0.438913 -1.464797 -0.513660 -0.205767 -2.280626 -0.125481 0.023560 -0.509799 0.253763 0.106193 0.962830 0.018700 0.280448 -0.096278 0.770538 -0.262192 0.106902 -0.230130 -1.108202 -0.653314 -0.185239 -0.976291 -1.075603 0.540535 0.499312 0.969574 -2.520841 -0.132934 0.654199 0.715239 0.783176 0.234492 -2.264367 0.373794 -0.552913 -0.310241 -0.330984 -0.334030 -0.524144 -0.060494
unit -0.158029 -0.051308 0.534007 -0.764042 -0.509142 0.048010 -0.678128 -0.432053 0.139236 1.229201 0.697489 0.619403 1.000988 -1.353624 0.250159 0.516487 0.323811 0.112207 1.234785 -0.431711 0.359420 -0.718092 1.886752 -0.286457 1.262440 0.434960 -1.728925 -0.476822 0.320839 1.251764 0.483793 0.798471 -0.087969 -0.167164 -1.017068 -0.285189 0.627990 0.828263 -0.401576 0.109221 -0.806593 1.634880 -0.870232 0.055209 0.031085 1.047641 0.429858 0.557700 0.243814 1.073888 -0.359700 0.375002 -0.696701 -0.086965 -0.053676 -0.451225 -0.697832 -0.290796 0.704856 0.776258 -1.142753 -0.354239 -0.847141 0.215810 -0.790516 -0.612092 -0.744932 -0.888684 -1.484655 0.547174 0.254050 0.110687 0.882712 -0.653899 -0.382187 0.060173 -0.399668 0.438722 -0.541497 0.362976 -0.751921 -0.811057 1.597072 0.991450 0.484382 -0.478029 0.605935 -0.403629 0.539810 2.126430 0.474211 0.649262 0.472635 0.193887 -0.766718 -0.042696 -1.317323 -0.649937 1.199434 1.134667
down 0.339247 -0.567445 -1.476263 0.112390 0.767922 1.473816 0.551966 -0.136506 -0.822545 1.084347 0.502123 0.141569 -0.179441 -0.052711 -1.376217 0.395453 -0.451751 0.609683 0.801905 -0.467291 -0.041541 -2.029316 1.104663 0.490959 -0.444962 -0.006528 -0.047391 -1.273872 1.589839 0.038828 1.364276 -0.078608 0.010612 -0.047580 -0.236311 0.464670 -0.269891 0.130017 0.409599 0.641393 0.051353 -0.825325 0.250688 -0.523315 -0.192147 -0.273427 -0.446798 -1.138840 0.713282 -0.687711 0.803231 0.214031 -1.123146 -0.443357 0.665250 0.657687 0.675702 -0.065293 -0.173884 -1.486362 2.312004 -0.714369 -1.060565 -1.737271 -0.168134 1.013325 0.164112 -0.965918 -0.482170 0.681375 -0.509498 -0.896306 -1.862004 0.282895 -1.201200 -1.026500 -1.938544 -0.822196 1.187772 -1.179869 -1.175240 -1.185659 0.784057 0.319931 -0.301654 0.536077 0.379944 0.781748 0.898086 -1.189217 1.180258 -0.397640 -1.301755 1.880076 -0.419627 -0.723661 1.084104 1.065801 -1.351801 -0.212730
assets 1.108835 0.872995 0.010100 -0.152071 -0.971891 0.017983 0.033079 -1.485539 1.682147 -0.007733 0.577726 0.255529 -0.053624 -0.522204 -1.940142 0.924050 0.576862 -0.571305 1.334005 0.020734 0.688322 -1.132721 1.314849 0.593215 1.644698 0.059398 -0.635717 -2.236615 -0.529040 0.570385 0.312793 1.840776 -0.784703 0.696041 -1.628843 -0.234410 0.458082 -0.995163 -1.086870 -0.709287 -0.759183 0.056277 -0.277113 -0.152159 -0.556160 1.060574 0.727397 1.504647 -1.317145 -0.305180 -1.041606 0.179833 -0.894273 -1.094981 0.164017 0.015765 0.579964 -1.201618 0.105030 0.976305 -0.439451 -2.052186 0.055963 -0.203797 0.626616 0.675283 -0.666919 -1.329935 -1.947596 -0.143788 0.498721 -0.713073 -0.315717 0.647198 -0.870148 1.518291 0.132340 0.819301 -0.898019 0.124745 -0.344785 -0.560100 1.484379 -0.455894 2.221930 0.568446 -0.388889 1.121203 0.799821 0.851511 0.490559 0.632754 -0.264324 1.360024 0.092228 0.739162 -1.391459 0.041985 0.094137 0.323211
out 0.307882 0.069733 -0.359531 -0.741897 0.455241 0.361894 0.400125 0.082254 0.397373 -0.129033 0.230316 1.172882 -0.634577 -0.502645 -1.189123 1.490663 0.103792 -0.439568 1.405922 0.421363 -0.605714 -0.435378 -0.459890 -0.013441 -0.092923 -0.302251 0.098855 -0.456771 1.429087 0.911057 -0.308068 -0.417721 0.402652 1.052990 -0.362744 -0.029546 -0.140425 0.502051 -0.176419 -0.453383 -0.116720 -1.507170 0.141647 -0.516665 -0.211437 -0.725261 -1.259360 -0.291650 0.520351 -0.498162 1.196409 0.641974 0.288867 -0.642902 -0.454139 -0.442487 0.485358 -0.244241 -1.620603 -0.451194 0.875446 -1.388602 -0.433520 0.072331 -0.104597 0.364327 0.065906 -0.326283 0.187481 0.250699 -0.280230 0.517667 0.538740 0.097839 0.312530 -1.157608 -1.007407 -0.681079 0.733157 -0.605344 0.066259 -0.403623 0.427436 -0.356520 0.046173 -0.195863 -0.334186 0.501676 0.143341 -0.074236 -1.412116 0.501554 -0.334781 1.702480 -0.548919 -0.874780 -0.630794 1.058172 -0.486019 0.174113
his 0.441219 -0.635727 0.153020 -0.146824 0.475121 -0.011592 1.046462 0.877480 -0.975242 -0.298534 0.772320 0.243060 -0.583109 0.275875 -3.379530 -1.606377 0.212282 -0.091836 0.226701 -0.138046 -1.959064 0.618962 0.033681 -2.532301 0.490585 -0.062018 -1.340814 1.510575 0.033905 0.630466 -1.522932 -0.877112 -1.043384 -0.000087 0.325206 0.327076 -0.404220 0.577208 0.984394 -0.905180 -0.520037 -1.410994 0.829595 -0.284793 0.240594 -0.029293 -0.897269 -1.590442 -0.517220 -0.018415 -0.481438 0.867959 1.813551 -0.416602 -0.283663 -0.666479 -1.033869 -0.727866 -0.973568 0.287756 -0.617325 -0.554726 0.387514 -0.603584 0.446655 0.868464 0.944010 1.494079 -0.191787 -0.018432 0.090657 -0.874785 1.045752 0.971189 1.323641 -0.165212 -1.658998 0.014802 -0.357165 -0.511288 -0.020073 0.712018 -2.062852 -0.043114 -0.003605 0.431436 -0.112532 -0.324883 0.165207 -0.822593 -2.027602 -0.186695 -0.276311 1.238065 -0.290416 0.924754 -0.935500 0.614845 -0.980236 0.269122
period 0.916516 -0.641241 -0.645192 1.429110 1.005979 -0.254758 -1.354285 0.067801 -1.871887 -1.252343 0.282946 1.314409 -0.526276 -1.334502 -0.193071 -0.948901 0.543469 -0.544232 1.180682 0.201350 0.573153 -0.700114 0.174390 0.063950 -0.324983 -1.220708 -0.247716 -0.336396 0.844244 1.477057 -1.072649 -0.042154 -0.286438 0.527534 -1.071197 -2.243074 -0.502874 0.289681 0.258491 -0.532480 -1.104013 -1.163337 -0.413456 -0.963206 -0.048788 -0.442972 0.016606 -1.889236 -0.040338 -0.802954 -0.586490 0.192734 -1.307905 0.324732 0.469346 1.525430 0.846309 0.376565 0.040410 -0.435412 0.318371 0.136368 2.155893 1.967651 -1.444004 -0.298130 -1.569414 0.761002 0.593907 0.872051 0.384085 -1.459067 -0.561382 -0.304558 -1.167532 -0.757553 -0.590839 -0.321847 0.741666 0.383637 0.796145 -0.830983 -1.384351 0.855336 1.467023 -0.059255 -1.103215 0.288831 0.025985 0.666980 0.236575 0.358599 0.091501 0.990654 -0.609071 0.367778 -0.723860 0.250347 -0.834646 0.233060
plan -0.534530 -1.273438 0.404903 -0.006216 -0.214954 -1.092556 -0.719672 0.317501 -0.427654 -0.232000 0.286632 1.029674 -0.248734 -2.024505 -0.811240 0.225065 0.846390 -0.422899 1.133231 0.256784 -1.401935 0.254899 -0.241056 0.161868 -0.361338 0.059483 -0.697604 0.522895 0.530923 0.637294 -0.537498 -0.805732 0.470280 1.349821 -0.714588 0.202337 1.956674 0.362379 0.019021 -0.027282 -0.313868 -0.229905 0.474749 -0.262056 -0.532526 0.188231 -1.076415 0.406003 0.333181 -0.118446 0.309413 0.135036 -0.159206 -0.197113 -0.932101 -0.272707 -1.144501 -0.689185 -1.654934 0.749539 -0.001257 -0.239814 -0.274556 -1.046858 0.324583 0.395192 -0.387735 -0.146512 -0.992813 -0.534673 -0.041280 0.600092 1.046855 -0.515882 -0.552368 -0.022187 0.134611 -0.769255 -1.001846 -0.122456 1.297388 0.190285 0.624220 0.673837 -0.108084 -0.176048 -1.297872 0.119749 1.052714 0.851171 -0.105958 0.635246 -0.933541 0.740584 -0.994803 0.001109 -1.587594 0.520950 -0.336225 0.560500
report -0.185388 -1.558495 0.293251 0.289215 -0.511707 0.998411 -0.879295 0.925699 -1.162535 -1.691754 1.419761 0.656379 -0.645054 -1.809474 -1.325125 -0.837781 -0.413325 1.743758 -0.869454 -0.726607 -0.547061 0.348400 -0.862225 -1.060279 -0.974210 1.272329 -0.437420 0.555022 -0.520172 0.850064 0.871020 -0.041471 -0.120283 -1.382741 -0.476054 -0.676318 0.244287 0.341262 0.388929 -0.379795 0.140469 -0.076079 0.004000 -1.499292 -0.390224 0.324925 0.028687 0.331322 -0.518526 0.635052 1.239868 -0.039674 -0.008113 1.059739 0.484316 0.498254 0.538588 0.062480 0.328259 0.923484 -0.804468 0.826056 -0.430349 -0.142434 -1.741163 0.116934 1.416726 -0.731658 -0.326736 0.572766 0.462343 -0.335636 0.772036 -0.574861 -0.062769 1.335420 -0.803425 0.018675 -0.361488 0.855679 -0.023299 -0.816464 -1.170432 -0.287154 -0.047009 0.377889 -0.562585 -1.164801 1.222475 2.125390 -0.067608 -1.279966 -1.938402 -0.177976 -1.263744 0.250766 -1.204320 1.393814 -0.950658 -0.257998
cut -0.249064 -1.209291 -0.200273 -0.114454 -0.265666 -0.039031 -0.646049 0.812251 -0.275174 -0.411573 0.808322 -0.011125 0.484310 -0.038152 -0.499540 -0.113492 0.640747 1.162727 -0.216437 0.679103 -0.647267 0.596406 0.583258 -0.881671 0.544667 1.410064 -0.461673 -0.283889 1.472016 0.902868 0.876652 -0.019238 1.716630 -0.091523 0.193640 -0.290067 0.467883 -0.729120 -0.131548 -0.256503 0.748862 -0.281569 -1.103716 -1.861669 0.595946 0.227245 0.494053 0.629869 0.184816 -0.681389 0.820247 -0.206032 -0.896884 1.039804 -0.144793 0.710632 0.496086 -1.197506 -0.844485 -0.195136 0.955917 -1.383296 -1.721125 -0.582126 -0.968892 0.405723 0.087398 -1.953865 -0.153454 0.987482 -0.007193 1.134694 -0.738231 -0.176310 0.687231 0.113055 -2.154728 -1.119545 0.430360 -0.323358 0.506579 -0.006481 0.398805 -0.109959 -0.018254 -0.166512 -0.303704 0.238952 1.754667 -0.309302 -0.596105 0.698937 -1.294391 0.611834 -0.003870 -1.423342 -0.088082 0.479336 -1.068776 -0.470351
sell -0.179248 -0.266867 -0.784836 -0.630118 -0.060359 -0.133159 0.861300 0.354573 -0.019940 0.883003 -0.198112 0.741524 0.453573 -0.483290 -0.792333 1.018090 -0.538662 0.649249 -0.713850 -0.753464 1.205129 1.278120 -0.086406 -0.443430 2.321747 0.344528 -0.552417 -1.612504 0.508143 1.202325 0.989633 0.112403 0.480843 0.338450 -0.297118 0.329624 1.181565 0.848132 -0.681951 -0.770169 0.339264 -0.723903 -0.543971 -0.383450 -0.012874 -0.095179 0.274351 1.395505 1.019100 -0.268183 0.139881 -0.479627 0.640091 0.067817 -2.269020 -1.229943 -0.116482 -0.817523 -1.330391 1.262766 2.018140 -1.260443 1.084922 -0.483041 -1.403682 0.154426 -0.182743 -1.658381 -0.842785 2.182144 0.545733 1.068732 0.740609 -0.368256 0.206416 0.854035 -1.723154 -0.264347 -1.070930 -1.133242 -0.508048 1.587162 -0.136484 0.172993 1.893465 1.314880 0.381875 -0.245683 1.216626 -0.338879 0.767810 1.490268 -0.791648 -0.026007 -0.466782 -1.108496 -2.507963 0.387327 -0.596294 0.949255
lower -0.903047 -0.987345 -0.229838 -0.213573 -0.804516 2.111204 -0.291992 -0.304114 -0.682224 0.007208 0.963627 0.622144 0.108042 0.119750 -0.550028 -0.107740 0.594632 0.281425 1.171074 0.310844 -0.084147 0.383091 0.423629 -2.324377 -0.449972 0.665323 -0.042827 -0.449682 0.090513 -0.056919 -0.574490 -1.623310 0.760427 -0.678902 -1.845804 -0.941025 0.255400 -0.302836 0.821825 -1.025560 0.278452 0.227023 -1.309310 -1.072893 0.866772 1.635230 -0.972531 0.142496 0.348920 0.225808 0.540896 0.370077 0.335760 1.553094 0.220193 1.209915 0.596181 -1.352285 0.759053 -0.893536 0.496507 -2.050560 -1.959311 -0.537767 -0.160363 0.967778 -0.153103 -1.475251 -0.479794 0.239274 0.058409 0.444841 -1.036616 0.534570 0.515356 -0.623747 -1.686453 -1.295983 0.445398 0.689727 -0.401974 -0.624323 0.273748 0.289324 0.322985 -0.156460 0.369136 0.058832 0.562555 -0.694615 1.140158 0.521096 -0.756484 0.682051 0.951143 -0.544755 0.927893 -0.168542 -1.496500 -0.626602
trading 0.998146 -0.212657 -0.125044 0.386753 -0.122335 0.810557 1.248970 -0.245687 0.382118 0.326161 1.380437 -0.749100 -0.473588 0.412902 0.659626 0.382561 -0.322821 1.069170 1.433147 -0.029976 -0.428823 -0.048228 1.126753 -0.248154 0.985866 -0.891980 -0.299674 -0.577184 -0.489624 0.918669 -0.627400 -1.215382 -0.016066 -0.721536 0.097190 -0.289309 -0.313335 -0.025176 -0.266801 -0.289673 0.057268 -0.030843 0.134879 -0.839805 0.678667 -0.543464 0.139685 -1.035577 0.083881 -0.692401 0.216012 -0.167536 0.015306 1.236471 -0.686215 0.970424 -0.080709 0.954173 -0.250068 -0.178566 0.549868 0.152393 0.138854 -0.685048 -0.031933 0.167739 -0.109676 0.527061 0.009965 1.461444 -0.359414 0.312782 -0.052656 -0.201279 0.170737 0.443283 -0.919555 -0.142705 -0.564596 -0.609694 -0.540079 -0.494192 -0.965083 -0.587066 0.993245 -0.225351 0.847233 -0.454103 0.169054 -1.277821 -0.323111 1.487246 -0.012083 0.828895 -1.015312 -0.613453 -0.031902 -0.471645 -0.125988 -1.469908
economic -0.596378 -1.655239 0.658040 0.238912 -1.039799 0.494271 0.848009 0.407916 -0.930329 -0.362964 0.576430 1.116267 -0.194535 -0.608749 -0.707461 0.387514 1.089977 -0.619599 0.717653 1.026884 -1.407093 0.727551 -1.074564 -2.832703 -0.712401 0.114639 0.783190 0.767759 0.043092 1.013988 -1.314807 -0.186593 1.172231 -0.034048 0.454136 -1.105387 -0.467493 -0.941146 -0.062960 -2.065074 -0.850725 -0.309604 -0.002928 -1.380047 -0.011872 0.294758 -0.614101 0.264136 -1.055856 0.595587 0.443964 0.638747 0.444605 1.812219 -1.212608 0.974753 0.008894 0.137269 -0.325532 -2.672286 -0.572450 -0.274529 1.318037 -0.114155 0.933401 0.211860 0.102405 -0.201229 0.856432 0.400401 -1.778900 1.556557 0.417947 0.818836 -0.866129 -0.921548 -1.413904 -0.471462 0.002116 -0.087259 2.032994 0.667438 -1.193841 -1.694572 0.967251 -2.137793 0.245391 -0.479739 1.020195 -0.382036 -2.025719 0.299618 -1.256488 -0.557308 -0.712926 0.447572 -0.393742 -0.214304 -0.407526 -1.033082
income 0.304060 -0.793740 0.968414 -0.025474 -0.982559 -0.201282 -0.330089 0.637261 0.791921 -1.216902 1.092902 0.171065 -0.720325 -1.318129 -3.230130 -0.145802 0.392624 -0.444240 0.919334 2.040251 0.075992 -1.226247 0.813216 0.389813 0.753723 0.718520 0.109041 -1.125509 0.570759 0.003272 0.602319 1.403001 -0.303230 -0.634422 -1.569512 -0.526358 0.098180 0.187164 0.318677 -0.949963 -0.347461 -0.569894 -0.930002 -2.400870 0.207557 0.324760 1.089689 1.901771 -0.877178 0.217278 -0.375036 0.682686 -0.509619 0.397577 -0.534212 1.161760 1.114218 -0.225441 1.059374 0.061728 0.340618 -0.834143 0.668995 -1.109213 0.569955 0.746499 -0.669501 -1.112070 -1.229817 -0.775257 0.755027 -0.242583 -1.440928 -0.062130 -2.290946 0.818345 -0.219072 0.542577 -1.072263 1.323457 -0.482853 0.236327 0.768967 -0.465837 0.505918 -1.740821 0.055289 -0.320360 0.773059 2.033546 1.584214 -0.395176 -0.532454 2.141568 0.988133 1.646616 1.072812 -1.058454 -1.312958 -0.480800
day 0.160767 0.783316 -0.622770 1.271025 1.445526 -0.370560 1.025958 0.414952 -1.150190 -0.119832 2.081276 0.202190 -0.937953 -1.866113 0.388616 0.729494 -1.084232 -0.544150 0.438137 -0.512166 -1.058190 0.378825 0.401866 0.296257 -0.379816 -0.110657 0.325988 -0.872870 0.807313 0.252909 0.761204 1.012313 -1.067100 0.266624 -0.060090 -0.939710 0.119018 -0.103254 -0.093076 1.280676 -0.834490 -0.050075 1.143598 -1.008279 -0.185371 -1.457000 -0.460286 -1.552438 1.785089 -0.302039 -0.189011 -0.347076 -3.093439 -0.267377 0.426081 1.326171 -0.974901 1.227137 -1.605479 0.859988 -0.526396 -0.167876 0.847328 -0.889854 -1.668485 0.599356 -0.431312 0.029333 1.188169 0.004699 0.481426 -0.438199 -0.611500 -0.386513 0.546135 -0.371911 -0.780814 -1.126892 1.328673 0.410649 -1.090140 -2.452277 -0.078675 0.778434 1.178545 0.992550 0.131853 0.556872 0.321421 -0.034678 0.791102 1.277981 -0.290453 1.507835 0.997443 -1.533392 0.170206 0.712843 0.579257 -0.444615
eight 0.107346 -0.625177 1.095105 1.573297 -0.220124 -0.984448 -0.811499 0.950082 -0.559003 -0.025678 -1.510487 0.246694 -0.822787 -0.813653 -0.269196 0.021720 -0.398802 -0.535563 1.099785 -0.324063 -0.526092 -0.620502 1.314895 0.064764 0.487833 -0.336079 -0.851897 -1.663279 0.097640 1.386837 -0.987649 -0.196314 -0.617608 -2.137384 -0.009217 -0.747459 -0.521537 0.674344 -0.622644 0.824857 0.124097 -1.925287 -0.124017 -1.152481 -0.800970 1.233290 -0.482756 -0.407050 0.332500 0.894045 -1.029672 -0.402154 -0.285720 1.721172 0.750124 1.206586 -0.182269 -0.479334 -0.898492 -0.553818 0.700368 -1.398600 -0.491012 -1.344817 -1.479716 0.315074 -0.744993 0.090258 0.793911 0.737808 -0.140744 0.281713 0.095954 0.101294 0.479993 0.038799 0.327983 0.481924 0.358879 0.861694 -0.422942 -0.340165 0.082552 -0.704953 0.350058 -0.492055 -0.875078 -0.758584 -0.732304 -0.439673 1.165529 1.420423 -1.031008 0.517695 0.308158 -0.153263 -0.308618 -0.562304 -0.671899 -1.027352
sugar 0.043841 -0.550258 -2.627676 1.196746 0.534007 0.070466 0.627119 1.534103 -0.985052 -1.457380 1.493522 0.898067 0.799486 -2.046673 1.164435 2.007053 -1.437882 -0.515215 1.243681 0.054292 0.397673 0.233468 -0.444399 -1.927976 -0.163893 -1.202425 -0.159938 1.173155 0.973060 0.050122 -0.022449 0.206048 -0.108580 0.911983 0.822796 0.815778 -0.663798 0.023664 -0.082833 -0.552150 -0.717291 -0.019737 -0.194972 -0.144691 0.002120 1.059702 -0.156895 -0.353668 -0.238292 -0.758574 0.518920 -0.117502 -0.896972 0.356936 0.879199 0.083265 -0.465659 0.928063 -0.072004 -0.600302 -0.115361 -0.838253 -0.709717 0.553319 -2.334244 1.213099 -0.803526 -0.326957 0.918036 -0.403834 -0.250529 -0.467360 -0.305103 -0.151123 0.675856 0.409619 -0.304728 0.055392 1.194157 -0.575435 -1.686977 0.366274 0.056899 0.170424 1.193712 -0.409187 0.875176 0.666205 0.276072 -0.417573 -0.492806 1.662776 0.071121 0.656380 0.339629 -1.449193 -1.029859 0.670252 0.090987 -0.216316
credit 0.387090 -0.095489 -0.513286 1.195413 0.377509 -0.639844 0.398665 -0.338727 -0.567594 -0.939904 0.638968 1.210211 -1.300472 -0.847313 -0.872865 -0.283547 0.166060 -1.564343 1.537753 2.226985 -0.642595 0.283714 1.141537 0.079186 0.155031 -0.440674 0.069976 -0.954161 0.365231 0.155204 0.371038 -0.294594 -0.308939 1.091958 0.452258 1.450130 -0.222442 -0.542447 -0.378722 0.058342 -0.874454 0.619218 0.903402 -1.338791 0.020888 -1.119560 0.696750 1.692083 -0.877734 -0.893207 -0.249855 0.842177 -0.163405 1.060414 -0.508914 0.807784 -0.694456 -0.379426 -0.852837 -2.072290 0.389276 -0.184118 1.014387 -1.493247 0.024902 0.401838 -0.161155 0.265741 -0.135771 0.370046 -0.434747 -0.096899 -0.028623 -0.230808 -1.698196 -0.051946 1.288616 -0.669205 -1.604839 0.204728 0.071167 1.117065 1.537183 0.662847 -0.616691 -0.685279 0.186778 -0.054820 0.644715 0.079450 0.303344 -0.003443 -0.809183 -0.743452 0.209039 0.145636 -1.285234 -0.196564 -0.379135 -0.204515
acquire 0.537629 0.507006 0.271075 -1.064918 -0.279337 -0.361349 0.788251 0.277416 -0.033243 1.443204 -0.073645 1.045200 -0.138147 -0.276244 -1.005969 1.270250 1.372412 0.863589 0.239283 0.277081 1.370554 -0.323844 -0.385705 -0.331344 2.582911 0.560619 -0.501447 -1.408664 -0.049212 0.903002 1.361330 -0.733456 -0.248069 -0.419237 0.218497 0.627120 2.168317 1.597077 -0.713341 0.224026 -0.458712 -0.125950 -1.393778 0.480094 -0.688886 -0.359683 0.246589 -0.383230 0.192197 -0.642750 0.529313 -0.811608 1.199009 -1.261582 -2.069535 -0.757988 -0.782174 -1.469908 -0.397828 1.537200 2.185298 -0.261377 0.107518 -0.346307 -1.357131 -0.769534 -0.198342 -0.631400 -1.753771 1.667682 1.774943 1.185755 0.611216 -0.667798 1.243155 1.060435 -0.786516 -0.285037 -0.815501 -0.662368 -0.342055 1.250605 0.205858 0.574216 0.853689 1.298873 -0.459323 0.077758 0.329535 -0.106341 1.276248 1.668619 0.016777 0.417716 -0.902678 0.017812 -1.565720 0.316261 0.169822 0.340490
term 0.459782 -1.352487 0.801709 1.805851 0.513335 -1.483354 1.162433 -0.903210 0.232462 2.288186 0.457130 -0.764031 -1.234219 -0.310996 -1.645569 -0.580442 0.496325 -0.888716 -0.365678 0.869841 -0.801231 0.469897 -0.140499 -1.539289 0.552927 -0.114094 -1.041712 -0.548544 -1.082268 2.105049 -0.723651 0.141038 0.592457 0.029708 0.781131 -1.230312 -1.256334 -1.314185 0.117657 -0.789707 0.017092 1.120762 -0.759857 -1.439446 -0.531026 1.458707 -0.522381 2.864876 0.244533 -0.327870 0.802816 1.774097 0.256984 1.262683 -0.413911 0.699474 -0.871274 0.833053 -0.346334 -2.117979 1.062616 -2.041440 0.974441 0.607656 1.794166 0.293791 0.645498 0.098955 -0.341213 1.406592 -1.801474 -1.214928 -0.370583 -0.545816 -1.970369 -1.037068 -0.886904 -0.259424 -0.810443 -0.512264 2.584082 -0.442831 -0.705712 0.468064 -0.258727 -0.202789 0.619662 0.703066 0.805854 -0.552518 0.399053 1.161139 -1.335395 0.949107 0.835397 0.696779 -1.565989 0.357903 1.293017 0.132508
capital 0.568932 -0.607958 1.515594 1.370837 0.892749 -0.148753 0.395857 -0.060427 0.777368 0.104415 1.150087 0.135144 -0.087858 0.183935 -0.964277 -0.300655 -0.193655 -0.250901 1.460483 2.905803 0.277670 -0.322029 1.299103 0.006027 0.912385 -0.377678 -0.869504 -0.928952 -0.315544 1.394816 -0.844225 -0.808106 0.835945 -1.029873 0.412687 -0.334500 0.453751 0.874563 -0.775154 -0.155479 0.554487 0.096826 -0.628268 -0.526577 0.257583 0.228435 0.516808 0.088182 -0.105380 -0.328983 0.224686 0.511304 0.167407 0.255451 -0.624985 0.623805 0.864420 -1.265744 0.233549 0.235264 -0.385782 -1.335804 0.263253 -0.684664 -0.544021 1.128966 -0.101548 -0.354747 -1.735681 -0.172059 -0.788157 -0.140782 0.152170 0.414079 -1.392829 -0.040717 -0.239726 -0.448079 -1.124682 0.397039 0.249161 0.443020 0.421184 0.312061 0.669612 -0.312129 1.119907 0.163951 0.015010 0.259515 0.505487 1.042288 -0.389744 0.855085 -1.419962 0.287935 -0.961711 0.189680 -0.246236 -1.152132
set 0.913854 -0.124576 -0.986105 0.926970 -1.478697 -0.748638 -1.041621 0.899909 -0.353072 -1.054252 0.063259 0.135954 -0.600065 -0.530431 0.367316 -0.424070 0.687818 0.780493 1.281140 -0.284312 -2.030808 -0.085462 -0.092682 -0.383929 0.861683 -1.127119 -0.863952 -0.169559 1.756974 0.928422 -0.613323 -0.383084 0.890014 0.763802 0.280330 0.206148 -0.633609 0.415937 0.083505 -0.652830 0.892425 -0.039814 -1.098586 -1.448837 -0.312918 -0.447565 -1.330254 -0.172879 0.764491 -0.196506 0.152738 0.318940 -0.977232 1.076218 0.904061 1.030665 0.194948 0.766275 -0.563687 0.321178 0.541008 -0.220595 -1.276490 -0.512656 -2.161545 0.142261 -0.500164 -0.208593 -0.380476 1.254036 0.838910 1.373740 -0.202445 -0.123839 0.319532 0.190001 -1.263496 -0.481321 0.556873 -0.773709 -0.200707 0.515679 0.622924 -0.252961 0.315297 -0.652281 -1.199519 0.262297 0.446567 0.069759 -1.098629 2.137705 -0.674970 -0.131006 -0.537823 -1.118717 0.102196 0.315935 -1.062840 -1.190362
can -0.206358 -0.964327 -0.403861 1.675592 0.649789 1.217474 0.247062 0.248307 0.601811 0.784436 0.634105 -0.357297 0.332389 1.133367 -0.203979 1.435831 0.053687 -0.449569 1.166097 0.581897 0.555179 0.080560 -0.833767 -0.363137 0.167185 -1.274729 -0.518047 0.313733 1.059107 -0.247402 -0.896066 -0.245107 1.702460 0.279737 -0.710663 -0.892878 1.782870 0.074386 0.854372 0.231938 -0.138499 -0.653704 1.047019 -0.143026 1.265209 1.364288 -0.299577 -0.398945 -0.591399 -0.785506 1.236411 0.270454 0.229006 -0.121321 0.315247 -1.620319 -0.506341 0.103767 -1.030401 0.681988 0.126858 -0.036470 -1.667487 -0.897131 0.846767 1.874383 -0.589467 -1.512857 2.720417 -0.005055 -0.394844 1.050025 0.964368 1.044599 0.111000 -1.105495 -0.806085 -1.004250 1.159184 -0.098972 1.241869 1.645248 0.833120 0.472310 -0.813580 0.956787 -0.534426 -0.604918 -0.103526 -0.878374 -1.309852 -0.328192 -1.151895 1.542702 0.918148 -1.089587 -1.542473 1.332443 1.726282 -2.271477
part -0.859300 0.161648 -0.492138 -0.052583 -0.496097 -0.609194 0.063992 -1.084922 0.861062 0.304675 0.446651 0.998740 -0.809230 -1.289887 -0.981271 0.833381 -0.072682 -0.558734 1.829308 0.125694 -0.182645 -0.354965 1.064620 0.422208 0.590602 0.581500 -0.852352 -0.039320 0.626044 1.059845 -0.515632 -0.151964 -1.022977 1.360576 -1.758978 -0.933266 -0.473044 -1.291579 -0.497205 -1.266518 -0.777707 -0.523210 0.108974 -0.695009 -0.376616 0.469461 -0.781319 0.787283 -0.690723 0.907832 0.365938 1.330423 0.412981 0.225135 -0.556855 -0.182121 -0.147586 0.296560 -0.644147 0.293215 -0.427433 -1.252442 0.574295 0.797489 -0.384456 -0.386681 -0.725282 -0.503208 -0.218323 -0.127992 0.964783 0.645390 0.372727 -1.616955 0.192643 -0.361095 -1.039857 -0.300695 -1.105754 -0.602882 1.170150 0.106593 -0.444847 0.502238 1.446247 -0.501449 -1.135225 -0.194312 -0.985927 -0.273331 -0.405348 -0.622664 -1.434757 1.897804 -0.788451 -1.034794 -2.096451 -0.974702 1.072365 1.067900
same -0.181302 0.586320 0.882291 2.466639 0.333919 0.194008 -0.851225 0.043682 -1.915720 0.075343 -0.647823 -0.901895 0.043506 -0.472007 -0.290922 -0.350641 0.313125 0.294779 -0.280286 -0.638827 0.618806 -1.204593 0.751304 -0.558768 -0.586475 -0.055642 0.176664 -1.336715 -0.719265 0.486232 -0.925389 -0.725639 -1.231882 -0.051333 -1.097260 -0.451104 -0.265322 -1.216750 0.485423 -1.208528 -0.333170 0.015471 0.099522 -0.184452 0.531282 1.128363 -1.174684 -0.452148 -0.231191 1.501206 -1.119216 -0.996359 -0.984955 0.407358 0.744560 1.206305 -0.212291 -0.716707 -0.237102 -0.365799 0.175204 -0.922687 0.108053 -0.151535 -1.278888 0.908144 -1.264820 0.804868 1.030611 0.666371 0.373726 -0.426012 -3.417300 -0.300547 -0.892863 -0.519234 -1.495888 -1.314718 0.089497 -1.217357 1.326421 -0.194502 0.541309 -0.438582 1.401033 -1.027194 -0.586244 -0.919596 -0.039994 0.319968 0.305284 1.303075 -0.245236 1.544829 0.191917 -1.565606 -0.685401 -0.813270 0.056616 -0.042473
purchase -0.198071 -0.267038 0.877252 0.369380 0.312748 -0.010171 -0.894630 0.485696 0.240090 -0.301557 0.030620 0.416432 -0.806238 -0.847129 -0.455859 1.141550 -0.380436 0.725383 0.012433 0.994145 0.121280 -0.326963 0.121228 0.222816 1.365010 1.546252 -0.670083 -0.638340 -0.529159 0.020566 0.708265 -0.521974 -0.575221 0.657968 0.588903 -0.294769 1.509769 0.610471 0.010203 0.256939 -0.730697 0.195601 -0.715935 0.971197 -0.306253 0.757148 -0.996901 -0.104500 0.294577 1.034128 -0.645832 -0.262187 -0.029537 0.189164 -1.487496 -0.421575 -0.482613 -0.820413 -0.785915 1.630979 0.534704 -0.309829 -0.194609 -0.436165 -1.922900 0.055632 0.378707 -0.844040 -0.802392 0.743032 1.884453 -0.595553 0.048689 -1.092966 0.674921 1.210671 -0.293377 -0.612243 0.056870 -0.853969 -0.164778 -0.402586 1.429632 1.016674 0.845279 0.618133 -0.043397 0.250173 -0.015697 1.020055 1.122892 1.437119 -0.687460 1.413680 -0.577900 -1.805974 -1.763166 -0.229807 0.332131 -0.039110
crude -0.595890 -0.420796 0.198786 0.276982 -0.172033 -0.684766 0.176574 1.091109 0.274602 -0.428130 1.960016 0.334787 0.060173 -0.831171 -0.198517 0.174464 -2.670981 0.829085 0.480282 -0.861463 -0.649358 -0.566446 0.134586 -0.155965 1.287554 0.117263 -0.849930 0.396356 0.089273 0.663235 -0.641095 0.278453 -1.016006 -0.632945 -0.116985 -0.754081 -0.473877 0.011031 -0.661303 0.056803 -0.994258 0.621012 -0.796064 0.506052 0.772672 -0.000381 0.609905 -0.615382 -0.365920 0.190726 -0.764946 0.282501 -0.464193 2.044662 -0.946867 -0.575410 -0.303474 0.914771 0.174881 0.068965 -0.710790 -0.724492 -1.795902 -0.797901 -1.824828 0.564518 -0.524442 -2.080928 0.693468 0.233469 0.089769 0.680572 0.316022 0.767224 -0.262288 -0.043869 -0.514301 -0.890313 1.723096 -0.012904 -3.381718 -0.051589 0.579567 -0.176760 -0.218883 0.623385 1.594517 0.881020 0.190299 1.330574 1.207257 0.208010 -2.175604 0.542129 -0.529764 -1.166543 0.673008 1.263910 -0.587309 -0.713790
seven 0.707411 -0.992954 1.000800 1.082408 -0.180292 -1.031613 -1.222532 0.839657 -0.713295 -0.397462 -1.611766 0.158313 -0.783937 -0.415402 -1.031314 0.011879 0.149265 -0.031477 0.650987 -1.122479 -0.616973 -0.217446 1.985260 0.159273 0.468861 -0.333081 -0.688457 -1.609312 -0.180556 0.979736 -1.140546 -0.271197 -0.560276 -2.384202 0.041224 -0.183407 -0.789422 0.019584 -0.987834 0.543772 -0.459913 -1.966589 0.341860 -0.778533 -0.693187 0.655711 -0.177484 0.013768 0.621997 0.450535 -1.362136 -0.300822 -0.524787 1.196446 0.514554 0.829389 0.051891 -1.095577 -0.707536 -0.865511 0.554936 -0.987198 -0.174473 -1.113367 -1.437393 0.265380 -0.578527 0.094843 0.256784 0.749838 -0.791579 -0.100906 -0.332354 0.410069 0.293834 0.106905 -0.148765 0.899334 0.298284 0.458096 -0.978353 -0.510696 0.081198 -0.948604 0.695138 -1.177023 -0.355203 -1.006860 0.392106 -0.198348 1.166522 1.464776 -0.761323 0.382990 0.106312 0.289853 -0.283981 -0.187377 -0.621874 -0.860886
increased -0.193731 -1.524635 0.120913 0.178204 0.289052 0.811654 -0.717807 0.216556 -0.696365 0.090264 -0.027594 -0.337845 0.843020 -0.334000 -0.286440 -0.467232 0.517832 1.028878 0.968203 0.247054 -0.229377 -1.431584 0.799698 -0.042790 0.725019 0.627066 -1.015889 -0.595517 0.875717 -0.162192 0.447196 -0.482560 1.478434 -0.463711 -0.878040 -0.327477 0.496209 -0.933188 -0.532917 0.296651 0.146823 0.214492 0.009266 -1.044349 -0.238392 1.053203 0.963733 0.009713 -0.456069 -0.269915 0.247323 0.675394 -0.161230 1.187062 0.350914 0.281786 -0.009406 -0.274236 0.693530 0.050768 0.360296 -1.303210 -2.253126 -0.750988 -0.441709 0.471736 0.186526 -1.719836 -0.789893 0.185932 -0.402145 -0.700682 -0.945630 0.777005 -0.136243 0.151240 -1.356638 -1.156922 -0.543233 -0.141147 -0.443992 0.055183 0.841696 -0.088703 0.183052 -0.034118 0.002302 -0.914915 2.134786 -0.208227 0.942316 0.481019 -0.390264 0.668044 -0.230616 -0.943558 0.368329 0.006212 -1.051433 -0.286524
president -0.697796 -0.766387 -0.318017 0.044927 -1.070606 0.371885 -0.834160 0.451991 0.630818 0.622305 0.425050 1.532497 -0.960181 -0.850577 0.130333 1.222695 0.977225 1.194807 0.146654 -0.059790 -0.153409 1.370358 -0.012022 -1.108534 -0.185932 -0.331859 -1.010316 1.992207 -0.666164 -0.152513 -1.359708 1.469653 -1.876843 -0.519300 -0.265999 -0.209086 0.373435 -1.164804 0.814411 -0.439265 -1.851690 -1.064588 0.941091 0.177278 -0.543591 -0.136229 -1.956708 1.295582 -1.337603 1.212238 -0.781529 0.538942 0.112508 0.105693 0.077033 -1.564778 -0.165264 0.088403 0.105926 1.239472 0.026805 0.279749 0.567779 2.179268 0.149484 -1.147423 0.428800 0.967006 0.701971 -0.771746 0.591700 -1.192835 1.920872 -0.637626 1.382433 0.832395 -0.068779 1.425519 -0.483348 -0.690405 0.212501 0.361874 0.152322 -0.447084 0.629687 -0.454436 -0.006767 -1.528353 0.649881 0.438010 -1.180314 -0.592825 0.478557 0.891027 0.019067 0.492058 -0.308641 -0.188376 1.089151 -0.173985
money 0.187533 -0.620727 -0.668186 0.733397 0.920207 1.037661 0.520299 0.353114 -1.264272 0.042526 2.184075 -0.021229 -0.130038 0.302439 0.444320 0.418552 0.152656 -0.742081 1.974639 1.156528 1.813069 -0.084397 0.771853 -1.570070 0.482220 -0.481519 -0.742556 -0.219432 1.080968 0.194056 0.866602 0.097344 0.261312 -0.255963 0.983151 -1.661261 -1.515229 0.095694 -0.171337 -0.453144 -0.748869 2.203061 -0.543200 -0.075625 2.574469 1.110661 -0.602330 0.594001 -1.721800 -1.530835 1.818526 0.949599 -0.567159 0.215845 0.481950 0.013240 0.806313 -0.238082 -0.785752 -0.509227 0.426065 -1.648639 0.227689 0.183997 -0.624707 -0.505138 -1.607265 0.662392 -1.729339 0.549839 -1.088849 1.818421 -0.305398 -0.105869 -2.497269 -0.537386 -0.218732 -1.183880 -0.100225 -0.384425 0.122386 0.759908 -1.184367 -0.417368 0.170812 -0.601017 0.804600 0.607228 0.200924 -0.664788 -0.025550 0.704116 0.074274 0.455761 0.455863 -0.627896 -0.783932 0.137048 0.121283 -1.392374
deficit 1.113735 -1.204235 0.304540 -1.227654 0.593248 0.180515 -0.046655 0.690362 0.028829 -0.848439 -0.025836 0.774854 -0.884753 -1.901258 -0.448268 0.430755 0.517751 -0.208772 1.104737 0.236028 -0.885477 -0.530470 0.302108 -0.493699 -0.986545 -0.534414 0.843417 -0.806379 1.234000 1.459804 -1.312838 0.938528 1.581490 0.262283 -1.297921 -0.422245 -0.779904 -0.550598 -0.367851 0.065095 -1.908581 0.649933 0.520822 -1.687149 1.109402 0.277903 0.655048 0.670714 -1.198412 -1.035251 0.974601 0.249805 -1.195359 0.649433 0.597373 1.305850 0.583853 -0.819992 -0.694901 -1.536373 -0.249013 -0.789305 0.560146 -1.582806 -0.189818 0.389463 -0.753520 -0.321465 -1.613137 -0.739861 -0.087416 -1.592144 -1.286572 0.720215 -2.004340 1.237438 0.843612 -0.971147 0.777069 -0.858239 0.745706 -1.697622 0.465799 -0.813836 -1.063173 -1.544423 0.099400 0.766604 1.346915 0.572271 -1.797711 -0.531692 -1.172853 1.065071 0.638335 -0.665610 -1.668428 0.760851 -2.299095 -0.011027
including -0.290397 -0.079246 -0.134610 0.284552 -0.083538 -0.175540 0.628292 -0.514486 1.496860 0.542393 -0.155308 0.236292 -1.105344 -0.975894 0.187112 0.458640 1.193870 -0.705987 0.851825 1.191678 -2.009848 -0.113430 0.509108 1.406478 0.437363 -0.513317 0.910610 -1.824709 0.635900 0.524149 0.774054 -0.264692 -0.115891 -0.039075 0.274724 0.915196 0.416139 -0.321535 -1.721060 0.347208 -0.453004 0.521806 0.936632 -0.717456 -0.317357 0.043625 2.080716 0.845573 0.022918 0.727931 0.378947 -0.642062 0.276993 1.053984 -0.311817 0.775865 -0.791756 0.111623 0.497395 -0.278397 -0.524623 -1.025681 -0.678202 0.035505 -0.058961 0.936966 0.391165 0.220968 0.733914 1.106157 0.101896 -0.397947 0.663859 -0.079835 1.024142 -0.279801 -0.583770 -0.029533 -0.871869 1.416487 0.301903 0.201271 0.791272 -0.360477 1.648679 0.503819 1.122911 0.346460 0.755132 -0.957592 0.656249 0.574794 0.171636 0.764452 0.126372 -1.180804 -0.532622 -0.059520 0.258385 0.805392
gas -0.000659 -1.043816 1.023291 -0.007216 -0.729564 -0.623638 0.461643 0.199101 0.165975 1.692225 2.060733 -0.019359 0.915564 -0.217770 0.627694 0.373243 -0.796292 0.670908 0.519302 -0.049158 -0.835927 0.661221 0.906830 0.235222 1.462468 0.307544 -0.781445 -0.110463 -0.703384 0.703262 0.665171 0.169577 -1.058527 -0.647307 -1.004539 -0.917265 -0.100027 -0.676508 -1.110254 -1.189795 -1.364212 0.782456 -0.581739 0.491141 -0.928508 0.520662 0.097413 1.001324 -0.135623 0.502475 -1.340940 0.603486 -0.564225 0.458960 -0.678437 -0.160657 -0.981606 -0.374028 1.365280 0.101411 -1.763032 -0.775062 -0.857150 -0.860989 -1.102546 0.217990 0.419690 -2.329557 0.656136 0.561717 -0.311561 0.123959 0.873384 1.058056 -0.572254 -0.416639 -1.129671 -1.247789 0.888727 0.212117 -2.255518 1.358330 1.822687 0.899893 0.268196 0.357520 2.609903 1.225729 0.330542 1.114583 0.690435 1.394258 0.050425 0.609757 -0.198790 -1.138376 0.632061 2.094028 0.504358 -0.166214
continue -0.447430 -1.465120 0.029975 -0.430387 -0.351929 -0.021911 0.142152 0.418049 -0.297377 0.704732 0.251783 0.752047 -0.351141 -0.003741 -0.918774 0.909458 -0.561104 1.305234 0.028351 0.352378 -0.207046 0.606738 0.359430 -1.306151 -0.008434 0.230119 -2.345807 0.694833 -0.619572 0.490694 -0.854129 -0.173903 0.903554 -0.032338 -1.672454 0.057885 0.577879 0.896427 1.001560 -1.754036 -0.170219 -0.471118 -0.528612 -0.399544 0.742967 -0.194161 -0.507378 0.156843 0.503026 -0.056326 0.898266 0.477978 1.324371 1.563923 -0.364992 -0.508085 0.462679 -2.123304 -1.730001 -0.706102 -0.079027 0.030021 -0.037485 -0.102391 -0.642930 0.702279 -0.414661 -0.460822 -0.087891 1.941508 0.293901 0.986253 1.237895 -0.186248 -0.203276 -0.118607 -1.489458 -0.333448 0.596477 0.036996 0.911748 0.879574 0.695645 0.975498 0.603005 -0.412798 0.136956 -0.242893 1.222550 0.910624 -0.649069 1.019864 -1.371032 0.691775 0.175024 -0.773922 0.124795 0.939963 0.017659 -0.120441
high -0.214258 0.183691 -0.772047 1.098443 -0.143817 0.742264 0.382561 0.001149 0.184207 -0.355304 1.129091 -0.225204 -0.091512 -0.429928 0.703201 -0.035841 -0.550415 -0.197604 1.048976 0.415851 -0.818078 -0.493246 0.174727 -0.577390 -1.028645 -0.281519 0.076088 0.007570 0.011490 0.301036 -0.126571 -0.654262 -0.582980 0.413936 -1.237793 -0.359290 -0.498800 -0.329032 -0.122459 -1.976694 -0.414714 0.224803 -0.635106 -0.773261 0.087129 0.865478 -0.230265 1.023331 0.305781 0.328219 0.361584 0.528007 -0.451822 1.359682 0.426243 1.268807 0.207706 0.710311 0.685986 -1.120542 -0.625840 -1.302568 -1.342583 -0.550746 0.474123 1.288225 -0.178697 -0.939759 0.998187 0.651787 -0.399413 0.551740 -1.246293 -0.386822 -0.355756 -0.709828 -1.342843 -1.090717 -0.224531 -0.429152 -0.735347 0.142810 0.428030 -0.669455 0.449958 -0.097238 0.862956 0.551291 0.149507 -0.706720 -0.034034 0.446440 -1.272611 1.091767 0.807144 -0.999560 1.117337 -0.117611 0.214606 0.140963
